<?xml version="1.0" encoding="utf-16"?><NeuralNetwork xmlns:i="http://www.w3.org/2001/XMLSchema-instance" xmlns="http://schemas.datacontract.org/2004/07/AE.MachineLearning.NeuralNet.Core"><_networkLayers><NetworkLayer><_isInputLayer>true</_isInputLayer><_neurons><Neuron><Bias>0</Bias><Output>-1003.888796</Output><Weights xmlns:d6p1="http://schemas.microsoft.com/2003/10/Serialization/Arrays"><d6p1:double>1</d6p1:double></Weights></Neuron><Neuron><Bias>0</Bias><Output>99.7346757</Output><Weights xmlns:d6p1="http://schemas.microsoft.com/2003/10/Serialization/Arrays"><d6p1:double>1</d6p1:double></Weights></Neuron><Neuron><Bias>0</Bias><Output>656.188731</Output><Weights xmlns:d6p1="http://schemas.microsoft.com/2003/10/Serialization/Arrays"><d6p1:double>1</d6p1:double></Weights></Neuron><Neuron><Bias>0</Bias><Output>-101.2632666</Output><Weights xmlns:d6p1="http://schemas.microsoft.com/2003/10/Serialization/Arrays"><d6p1:double>1</d6p1:double></Weights></Neuron><Neuron><Bias>0</Bias><Output>-712.5407464</Output><Weights xmlns:d6p1="http://schemas.microsoft.com/2003/10/Serialization/Arrays"><d6p1:double>1</d6p1:double></Weights></Neuron><Neuron><Bias>0</Bias><Output>-218.8568689</Output><Weights xmlns:d6p1="http://schemas.microsoft.com/2003/10/Serialization/Arrays"><d6p1:double>1</d6p1:double></Weights></Neuron><Neuron><Bias>0</Bias><Output>-543.6679743</Output><Weights xmlns:d6p1="http://schemas.microsoft.com/2003/10/Serialization/Arrays"><d6p1:double>1</d6p1:double></Weights></Neuron><Neuron><Bias>0</Bias><Output>256.0470238</Output><Weights xmlns:d6p1="http://schemas.microsoft.com/2003/10/Serialization/Arrays"><d6p1:double>1</d6p1:double></Weights></Neuron><Neuron><Bias>0</Bias><Output>-375.9740615</Output><Weights xmlns:d6p1="http://schemas.microsoft.com/2003/10/Serialization/Arrays"><d6p1:double>1</d6p1:double></Weights></Neuron><Neuron><Bias>0</Bias><Output>139.6749711</Output><Weights xmlns:d6p1="http://schemas.microsoft.com/2003/10/Serialization/Arrays"><d6p1:double>1</d6p1:double></Weights></Neuron><Neuron><Bias>0</Bias><Output>112.0551432</Output><Weights xmlns:d6p1="http://schemas.microsoft.com/2003/10/Serialization/Arrays"><d6p1:double>1</d6p1:double></Weights></Neuron><Neuron><Bias>0</Bias><Output>55.11060021</Output><Weights xmlns:d6p1="http://schemas.microsoft.com/2003/10/Serialization/Arrays"><d6p1:double>1</d6p1:double></Weights></Neuron><Neuron><Bias>0</Bias><Output>583.974903</Output><Weights xmlns:d6p1="http://schemas.microsoft.com/2003/10/Serialization/Arrays"><d6p1:double>1</d6p1:double></Weights></Neuron><Neuron><Bias>0</Bias><Output>-129.8331591</Output><Weights xmlns:d6p1="http://schemas.microsoft.com/2003/10/Serialization/Arrays"><d6p1:double>1</d6p1:double></Weights></Neuron><Neuron><Bias>0</Bias><Output>384.374502</Output><Weights xmlns:d6p1="http://schemas.microsoft.com/2003/10/Serialization/Arrays"><d6p1:double>1</d6p1:double></Weights></Neuron><Neuron><Bias>0</Bias><Output>707.6621492</Output><Weights xmlns:d6p1="http://schemas.microsoft.com/2003/10/Serialization/Arrays"><d6p1:double>1</d6p1:double></Weights></Neuron><Neuron><Bias>0</Bias><Output>-206.0695753</Output><Weights xmlns:d6p1="http://schemas.microsoft.com/2003/10/Serialization/Arrays"><d6p1:double>1</d6p1:double></Weights></Neuron><Neuron><Bias>0</Bias><Output>27.86720355</Output><Weights xmlns:d6p1="http://schemas.microsoft.com/2003/10/Serialization/Arrays"><d6p1:double>1</d6p1:double></Weights></Neuron><Neuron><Bias>0</Bias><Output>452.5315824</Output><Weights xmlns:d6p1="http://schemas.microsoft.com/2003/10/Serialization/Arrays"><d6p1:double>1</d6p1:double></Weights></Neuron><Neuron><Bias>0</Bias><Output>108.9841613</Output><Weights xmlns:d6p1="http://schemas.microsoft.com/2003/10/Serialization/Arrays"><d6p1:double>1</d6p1:double></Weights></Neuron><Neuron><Bias>0</Bias><Output>-327.436527</Output><Weights xmlns:d6p1="http://schemas.microsoft.com/2003/10/Serialization/Arrays"><d6p1:double>1</d6p1:double></Weights></Neuron><Neuron><Bias>0</Bias><Output>-386.1563253</Output><Weights xmlns:d6p1="http://schemas.microsoft.com/2003/10/Serialization/Arrays"><d6p1:double>1</d6p1:double></Weights></Neuron><Neuron><Bias>0</Bias><Output>-558.0306571</Output><Weights xmlns:d6p1="http://schemas.microsoft.com/2003/10/Serialization/Arrays"><d6p1:double>1</d6p1:double></Weights></Neuron><Neuron><Bias>0</Bias><Output>790.9654693</Output><Weights xmlns:d6p1="http://schemas.microsoft.com/2003/10/Serialization/Arrays"><d6p1:double>1</d6p1:double></Weights></Neuron><Neuron><Bias>0</Bias><Output>-211.894788</Output><Weights xmlns:d6p1="http://schemas.microsoft.com/2003/10/Serialization/Arrays"><d6p1:double>1</d6p1:double></Weights></Neuron></_neurons><_numOfNeurons>25</_numOfNeurons><_numberOfInputsPerNeuron>1</_numberOfInputsPerNeuron></NetworkLayer><NetworkLayer><_isInputLayer>false</_isInputLayer><_neurons><Neuron><Bias>0.45679859011186069</Bias><Output>-1</Output><Weights xmlns:d6p1="http://schemas.microsoft.com/2003/10/Serialization/Arrays"><d6p1:double>0.5776083988998344</d6p1:double><d6p1:double>1.02813081905052</d6p1:double><d6p1:double>0.41321396689136042</d6p1:double><d6p1:double>0.39066806225318534</d6p1:double><d6p1:double>1.398127026918379</d6p1:double><d6p1:double>0.22159019608740949</d6p1:double><d6p1:double>1.0539959550155029</d6p1:double><d6p1:double>0.9750477821218152</d6p1:double><d6p1:double>0.12035706476139263</d6p1:double><d6p1:double>0.19939134983228854</d6p1:double><d6p1:double>0.063230471593283974</d6p1:double><d6p1:double>0.44413676764410831</d6p1:double><d6p1:double>0.33836605519088681</d6p1:double><d6p1:double>-0.028007288437465958</d6p1:double><d6p1:double>0.43790249440626644</d6p1:double><d6p1:double>0.03184845862063003</d6p1:double><d6p1:double>0.52708656971128576</d6p1:double><d6p1:double>0.30806312986419609</d6p1:double><d6p1:double>0.8550173879426</d6p1:double><d6p1:double>1.0918939527477727</d6p1:double><d6p1:double>1.3745082305872169</d6p1:double><d6p1:double>0.94945851585664454</d6p1:double><d6p1:double>0.27408533115452693</d6p1:double><d6p1:double>-0.14522421658431051</d6p1:double><d6p1:double>0.95402385508432741</d6p1:double></Weights></Neuron><Neuron><Bias>0.55398690507071191</Bias><Output>-1</Output><Weights xmlns:d6p1="http://schemas.microsoft.com/2003/10/Serialization/Arrays"><d6p1:double>1.5140415779950003</d6p1:double><d6p1:double>0.57284600517708451</d6p1:double><d6p1:double>-0.11072339836310796</d6p1:double><d6p1:double>1.2005384362713356</d6p1:double><d6p1:double>0.085445834527590456</d6p1:double><d6p1:double>0.049622085110304</d6p1:double><d6p1:double>1.4390749726932628</d6p1:double><d6p1:double>0.64314689915416756</d6p1:double><d6p1:double>-0.027769808993768415</d6p1:double><d6p1:double>1.1259334035557145</d6p1:double><d6p1:double>1.1787822778232224</d6p1:double><d6p1:double>-0.22844534918562262</d6p1:double><d6p1:double>0.56858770230160482</d6p1:double><d6p1:double>-0.050642175694397724</d6p1:double><d6p1:double>0.29824687153057183</d6p1:double><d6p1:double>0.34000122238658925</d6p1:double><d6p1:double>0.69961612473553592</d6p1:double><d6p1:double>0.019658487481165016</d6p1:double><d6p1:double>0.71183553356336648</d6p1:double><d6p1:double>0.83110468703876428</d6p1:double><d6p1:double>0.44948646663367769</d6p1:double><d6p1:double>-0.22479422984403624</d6p1:double><d6p1:double>0.50529840999485642</d6p1:double><d6p1:double>0.10297661028117819</d6p1:double><d6p1:double>0.73714273724263057</d6p1:double></Weights></Neuron><Neuron><Bias>0.81430618284951384</Bias><Output>-1</Output><Weights xmlns:d6p1="http://schemas.microsoft.com/2003/10/Serialization/Arrays"><d6p1:double>0.93704986191527539</d6p1:double><d6p1:double>0.9461347938793141</d6p1:double><d6p1:double>0.46887601119901895</d6p1:double><d6p1:double>0.84866110928481975</d6p1:double><d6p1:double>1.0464678422047031</d6p1:double><d6p1:double>1.2124671228058157</d6p1:double><d6p1:double>1.3752454767812283</d6p1:double><d6p1:double>-0.31667590700470527</d6p1:double><d6p1:double>0.58303664022200452</d6p1:double><d6p1:double>0.47963227649480539</d6p1:double><d6p1:double>0.67907798458628021</d6p1:double><d6p1:double>0.51129382647935406</d6p1:double><d6p1:double>-0.0980640508014373</d6p1:double><d6p1:double>0.20073834079850461</d6p1:double><d6p1:double>0.78943674239806816</d6p1:double><d6p1:double>0.96096580839131784</d6p1:double><d6p1:double>0.64195766849136293</d6p1:double><d6p1:double>-0.17517168522529611</d6p1:double><d6p1:double>0.38195731304356745</d6p1:double><d6p1:double>-0.75342236931076234</d6p1:double><d6p1:double>0.2934753034024925</d6p1:double><d6p1:double>0.88567403051721072</d6p1:double><d6p1:double>-0.095453310520816334</d6p1:double><d6p1:double>0.34767068994698347</d6p1:double><d6p1:double>0.90426101960307148</d6p1:double></Weights></Neuron><Neuron><Bias>0.48563404667088222</Bias><Output>-1</Output><Weights xmlns:d6p1="http://schemas.microsoft.com/2003/10/Serialization/Arrays"><d6p1:double>0.61239141992064483</d6p1:double><d6p1:double>1.3168467839141285</d6p1:double><d6p1:double>0.85646193399022863</d6p1:double><d6p1:double>1.3732955423368569</d6p1:double><d6p1:double>1.4265212103483458</d6p1:double><d6p1:double>0.37428959492368113</d6p1:double><d6p1:double>0.65591490139323938</d6p1:double><d6p1:double>0.62075304066663917</d6p1:double><d6p1:double>1.2920933500764979</d6p1:double><d6p1:double>0.46135990923360337</d6p1:double><d6p1:double>0.23643732200538878</d6p1:double><d6p1:double>-0.25924863049040514</d6p1:double><d6p1:double>0.90706226686578528</d6p1:double><d6p1:double>0.59254756808810238</d6p1:double><d6p1:double>0.21885167735411395</d6p1:double><d6p1:double>-0.27003520072023651</d6p1:double><d6p1:double>0.45319242409612387</d6p1:double><d6p1:double>0.016430892372694728</d6p1:double><d6p1:double>0.37411661870283686</d6p1:double><d6p1:double>0.46300353195009897</d6p1:double><d6p1:double>0.57588068792886049</d6p1:double><d6p1:double>0.57121320428023525</d6p1:double><d6p1:double>-0.11924674593988396</d6p1:double><d6p1:double>0.30550982710285096</d6p1:double><d6p1:double>0.91012952814224379</d6p1:double></Weights></Neuron><Neuron><Bias>0.033213695735036991</Bias><Output>1</Output><Weights xmlns:d6p1="http://schemas.microsoft.com/2003/10/Serialization/Arrays"><d6p1:double>-0.7334665170900404</d6p1:double><d6p1:double>-0.31890046603238881</d6p1:double><d6p1:double>0.60293819390493775</d6p1:double><d6p1:double>-0.29528665145023075</d6p1:double><d6p1:double>0.20107934323940824</d6p1:double><d6p1:double>0.51577893906166672</d6p1:double><d6p1:double>-1.1177332861668421</d6p1:double><d6p1:double>1.1648152953361719</d6p1:double><d6p1:double>0.43916798560343046</d6p1:double><d6p1:double>-0.13463955056763285</d6p1:double><d6p1:double>0.60199177933003745</d6p1:double><d6p1:double>0.10927636941307604</d6p1:double><d6p1:double>0.061931480260877067</d6p1:double><d6p1:double>0.54813116588614763</d6p1:double><d6p1:double>1.6669204687407571</d6p1:double><d6p1:double>0.10920454706311276</d6p1:double><d6p1:double>0.89959717948473539</d6p1:double><d6p1:double>0.90270633125249178</d6p1:double><d6p1:double>0.56706894112794271</d6p1:double><d6p1:double>0.39340233296822458</d6p1:double><d6p1:double>0.53207265597132647</d6p1:double><d6p1:double>0.41934809221386593</d6p1:double><d6p1:double>-0.0036423649407203913</d6p1:double><d6p1:double>0.71812966899897535</d6p1:double><d6p1:double>0.78273289985500516</d6p1:double></Weights></Neuron><Neuron><Bias>0.19268763931805177</Bias><Output>1</Output><Weights xmlns:d6p1="http://schemas.microsoft.com/2003/10/Serialization/Arrays"><d6p1:double>0.73719651917609075</d6p1:double><d6p1:double>0.83476712685039123</d6p1:double><d6p1:double>1.139371032360925</d6p1:double><d6p1:double>0.45961744274574995</d6p1:double><d6p1:double>0.912821144278637</d6p1:double><d6p1:double>0.80750386984248534</d6p1:double><d6p1:double>0.65471798576734919</d6p1:double><d6p1:double>0.14081752153557359</d6p1:double><d6p1:double>0.64953299689257</d6p1:double><d6p1:double>0.19836772539620109</d6p1:double><d6p1:double>0.40884203602585112</d6p1:double><d6p1:double>0.46993799296589378</d6p1:double><d6p1:double>0.30476542460612061</d6p1:double><d6p1:double>0.59552755081487108</d6p1:double><d6p1:double>0.83543790028636378</d6p1:double><d6p1:double>1.118986417765987</d6p1:double><d6p1:double>1.1946045641325558</d6p1:double><d6p1:double>0.419233501617294</d6p1:double><d6p1:double>1.0872178327407391</d6p1:double><d6p1:double>1.0125107095591885</d6p1:double><d6p1:double>0.808149143377199</d6p1:double><d6p1:double>-0.17916578806527922</d6p1:double><d6p1:double>-0.19641753336548382</d6p1:double><d6p1:double>0.9580085446106642</d6p1:double><d6p1:double>-0.10208712776206692</d6p1:double></Weights></Neuron><Neuron><Bias>0.8115321996382534</Bias><Output>-1</Output><Weights xmlns:d6p1="http://schemas.microsoft.com/2003/10/Serialization/Arrays"><d6p1:double>0.907704097395756</d6p1:double><d6p1:double>0.58285261127352439</d6p1:double><d6p1:double>0.071102383576802874</d6p1:double><d6p1:double>0.62257962645100617</d6p1:double><d6p1:double>0.40208993654932568</d6p1:double><d6p1:double>0.42899811824249251</d6p1:double><d6p1:double>1.4636739322084165</d6p1:double><d6p1:double>-0.50589129783477338</d6p1:double><d6p1:double>0.21288780501399454</d6p1:double><d6p1:double>0.61148347571977479</d6p1:double><d6p1:double>-0.49707155579360179</d6p1:double><d6p1:double>-0.68410253481194527</d6p1:double><d6p1:double>-0.18774780705290725</d6p1:double><d6p1:double>0.20027378839070242</d6p1:double><d6p1:double>-0.0067746902609300769</d6p1:double><d6p1:double>0.2848923802821528</d6p1:double><d6p1:double>0.9049681812862348</d6p1:double><d6p1:double>1.2121559021409065</d6p1:double><d6p1:double>0.55603652968021078</d6p1:double><d6p1:double>0.34888733962395035</d6p1:double><d6p1:double>0.81378235097444118</d6p1:double><d6p1:double>1.2553782007916079</d6p1:double><d6p1:double>0.20957724898965907</d6p1:double><d6p1:double>-0.29522971003781229</d6p1:double><d6p1:double>0.86309112508554409</d6p1:double></Weights></Neuron><Neuron><Bias>0.7844976445919114</Bias><Output>-1</Output><Weights xmlns:d6p1="http://schemas.microsoft.com/2003/10/Serialization/Arrays"><d6p1:double>0.87819637629718017</d6p1:double><d6p1:double>0.012846555768170551</d6p1:double><d6p1:double>0.32799753263083881</d6p1:double><d6p1:double>0.44193546173789244</d6p1:double><d6p1:double>0.86834406994209046</d6p1:double><d6p1:double>-0.38785392003810359</d6p1:double><d6p1:double>1.1518277327834487</d6p1:double><d6p1:double>0.16895656001793419</d6p1:double><d6p1:double>1.1932570224025534</d6p1:double><d6p1:double>0.073549515200023535</d6p1:double><d6p1:double>-0.015106964037443771</d6p1:double><d6p1:double>0.85131738654967093</d6p1:double><d6p1:double>0.26431681636390686</d6p1:double><d6p1:double>0.41801910778870177</d6p1:double><d6p1:double>0.54943122273339939</d6p1:double><d6p1:double>1.1190752541364579</d6p1:double><d6p1:double>0.24608912956008641</d6p1:double><d6p1:double>0.67407470333129327</d6p1:double><d6p1:double>1.413621478108573</d6p1:double><d6p1:double>0.45423026046378173</d6p1:double><d6p1:double>0.2626186932284284</d6p1:double><d6p1:double>0.90210477149546042</d6p1:double><d6p1:double>0.837297468922457</d6p1:double><d6p1:double>0.68854243055333963</d6p1:double><d6p1:double>0.41061140423538645</d6p1:double></Weights></Neuron><Neuron><Bias>0.48745528530441778</Bias><Output>-1</Output><Weights xmlns:d6p1="http://schemas.microsoft.com/2003/10/Serialization/Arrays"><d6p1:double>1.3995730910517816</d6p1:double><d6p1:double>-0.15551109526178783</d6p1:double><d6p1:double>0.56267967625527615</d6p1:double><d6p1:double>0.99075616240598208</d6p1:double><d6p1:double>0.5358149702647993</d6p1:double><d6p1:double>1.1976645582279442</d6p1:double><d6p1:double>1.096480885248527</d6p1:double><d6p1:double>0.25830681250112347</d6p1:double><d6p1:double>0.69635929022935306</d6p1:double><d6p1:double>0.7921895231819932</d6p1:double><d6p1:double>0.587302375334689</d6p1:double><d6p1:double>0.4953276400326978</d6p1:double><d6p1:double>0.73754181794466556</d6p1:double><d6p1:double>0.675986328975113</d6p1:double><d6p1:double>0.15126461715306105</d6p1:double><d6p1:double>0.43981621989651193</d6p1:double><d6p1:double>0.55390260607865294</d6p1:double><d6p1:double>0.082821966449277723</d6p1:double><d6p1:double>0.27351991310902563</d6p1:double><d6p1:double>-0.21819373531210418</d6p1:double><d6p1:double>1.2306057647074335</d6p1:double><d6p1:double>1.218832090063221</d6p1:double><d6p1:double>1.1904001854132198</d6p1:double><d6p1:double>0.045043814509088516</d6p1:double><d6p1:double>0.03614139137246903</d6p1:double></Weights></Neuron><Neuron><Bias>0.59192809451158934</Bias><Output>-1</Output><Weights xmlns:d6p1="http://schemas.microsoft.com/2003/10/Serialization/Arrays"><d6p1:double>0.36658823754697534</d6p1:double><d6p1:double>-0.45884418453383585</d6p1:double><d6p1:double>1.0702475077002152</d6p1:double><d6p1:double>0.23524011537069059</d6p1:double><d6p1:double>0.56246975623049777</d6p1:double><d6p1:double>0.676947477030033</d6p1:double><d6p1:double>0.34183997509378633</d6p1:double><d6p1:double>0.83524942583021222</d6p1:double><d6p1:double>0.13041642036343626</d6p1:double><d6p1:double>0.44647202451821616</d6p1:double><d6p1:double>0.51998274807695444</d6p1:double><d6p1:double>-0.68089748245527981</d6p1:double><d6p1:double>0.54749593770534088</d6p1:double><d6p1:double>0.083164623301105509</d6p1:double><d6p1:double>-0.25293434922735286</d6p1:double><d6p1:double>1.1786377470196363</d6p1:double><d6p1:double>1.3475749149020291</d6p1:double><d6p1:double>1.2687539851414291</d6p1:double><d6p1:double>0.61238836864197088</d6p1:double><d6p1:double>1.360701085512944</d6p1:double><d6p1:double>1.095575964915728</d6p1:double><d6p1:double>1.027215306085981</d6p1:double><d6p1:double>0.99697969453931978</d6p1:double><d6p1:double>0.4004588048896458</d6p1:double><d6p1:double>0.19912837872700284</d6p1:double></Weights></Neuron><Neuron><Bias>0.57055753778240337</Bias><Output>-1</Output><Weights xmlns:d6p1="http://schemas.microsoft.com/2003/10/Serialization/Arrays"><d6p1:double>1.4009232836135603</d6p1:double><d6p1:double>0.47373570988190455</d6p1:double><d6p1:double>-0.71677903063453907</d6p1:double><d6p1:double>1.5531872298352556</d6p1:double><d6p1:double>0.66191614614109617</d6p1:double><d6p1:double>0.50742840909861231</d6p1:double><d6p1:double>1.0731500630028894</d6p1:double><d6p1:double>-0.6574378175386324</d6p1:double><d6p1:double>0.047769233261999611</d6p1:double><d6p1:double>0.60377122735346367</d6p1:double><d6p1:double>-0.020837300969979825</d6p1:double><d6p1:double>0.41151584694472382</d6p1:double><d6p1:double>-0.58539013796029848</d6p1:double><d6p1:double>-0.11725094656817123</d6p1:double><d6p1:double>0.43700643437545161</d6p1:double><d6p1:double>-0.54357529739218235</d6p1:double><d6p1:double>-0.27061197707545692</d6p1:double><d6p1:double>0.49074631462155976</d6p1:double><d6p1:double>0.18401508462739014</d6p1:double><d6p1:double>-0.0031600194826632783</d6p1:double><d6p1:double>-0.030558333783397243</d6p1:double><d6p1:double>1.0704127158568923</d6p1:double><d6p1:double>0.12678938081143079</d6p1:double><d6p1:double>-0.96085101768063574</d6p1:double><d6p1:double>0.66780141154434225</d6p1:double></Weights></Neuron><Neuron><Bias>0.802014171112521</Bias><Output>-1</Output><Weights xmlns:d6p1="http://schemas.microsoft.com/2003/10/Serialization/Arrays"><d6p1:double>1.8181407673907719</d6p1:double><d6p1:double>0.78741755688844617</d6p1:double><d6p1:double>0.3248954300043147</d6p1:double><d6p1:double>0.88957876020398285</d6p1:double><d6p1:double>1.6806215241087472</d6p1:double><d6p1:double>0.46918364151902087</d6p1:double><d6p1:double>0.15136358892053606</d6p1:double><d6p1:double>0.6382254678817032</d6p1:double><d6p1:double>0.90533595446441739</d6p1:double><d6p1:double>0.32366139535023231</d6p1:double><d6p1:double>-0.45079737211991333</d6p1:double><d6p1:double>0.16829576875696423</d6p1:double><d6p1:double>-0.44692208598683547</d6p1:double><d6p1:double>0.40044101040029767</d6p1:double><d6p1:double>0.15494207464210397</d6p1:double><d6p1:double>-0.047578748722603335</d6p1:double><d6p1:double>-0.62392171311206523</d6p1:double><d6p1:double>0.65118673671624994</d6p1:double><d6p1:double>0.52459607223515448</d6p1:double><d6p1:double>0.24522832140097345</d6p1:double><d6p1:double>-0.14045236657766572</d6p1:double><d6p1:double>1.3198538135640616</d6p1:double><d6p1:double>0.52519697632579765</d6p1:double><d6p1:double>-0.774528286165674</d6p1:double><d6p1:double>1.072476051084323</d6p1:double></Weights></Neuron><Neuron><Bias>0.39707529352236681</Bias><Output>-1</Output><Weights xmlns:d6p1="http://schemas.microsoft.com/2003/10/Serialization/Arrays"><d6p1:double>1.4065428112173703</d6p1:double><d6p1:double>0.81296837304516134</d6p1:double><d6p1:double>-0.46845105150804633</d6p1:double><d6p1:double>0.27682751075732981</d6p1:double><d6p1:double>-0.10913429805774547</d6p1:double><d6p1:double>0.25058397181597147</d6p1:double><d6p1:double>0.66094805184722416</d6p1:double><d6p1:double>0.75607036639650393</d6p1:double><d6p1:double>0.35836417854743663</d6p1:double><d6p1:double>0.8356201115577101</d6p1:double><d6p1:double>0.79375365009231857</d6p1:double><d6p1:double>0.62022060645613353</d6p1:double><d6p1:double>0.83636903485097536</d6p1:double><d6p1:double>0.318230292674482</d6p1:double><d6p1:double>0.30975515066808906</d6p1:double><d6p1:double>1.0414869921587357</d6p1:double><d6p1:double>0.074224865472079765</d6p1:double><d6p1:double>0.41103055336007938</d6p1:double><d6p1:double>1.1739941508434084</d6p1:double><d6p1:double>1.0618314523222978</d6p1:double><d6p1:double>0.30456971514733605</d6p1:double><d6p1:double>0.37763088983025384</d6p1:double><d6p1:double>0.0083507208303525652</d6p1:double><d6p1:double>0.17213262657838427</d6p1:double><d6p1:double>0.65998062862510265</d6p1:double></Weights></Neuron><Neuron><Bias>0.31480761383479317</Bias><Output>-1</Output><Weights xmlns:d6p1="http://schemas.microsoft.com/2003/10/Serialization/Arrays"><d6p1:double>1.7127510762436358</d6p1:double><d6p1:double>0.95218418149245754</d6p1:double><d6p1:double>0.34614807292365968</d6p1:double><d6p1:double>1.527444217154027</d6p1:double><d6p1:double>0.38313772208233371</d6p1:double><d6p1:double>0.49375667158209657</d6p1:double><d6p1:double>0.025938113738637851</d6p1:double><d6p1:double>0.17254666322288398</d6p1:double><d6p1:double>1.1103574407652155</d6p1:double><d6p1:double>0.61319023266266548</d6p1:double><d6p1:double>0.462317741191201</d6p1:double><d6p1:double>0.8404642340818661</d6p1:double><d6p1:double>0.055203306393157271</d6p1:double><d6p1:double>-0.080347047720700449</d6p1:double><d6p1:double>0.40166029360873584</d6p1:double><d6p1:double>0.63701448946791728</d6p1:double><d6p1:double>-0.058253901073837183</d6p1:double><d6p1:double>0.24626545991125148</d6p1:double><d6p1:double>0.32694598703716449</d6p1:double><d6p1:double>-0.07508653820906841</d6p1:double><d6p1:double>-0.34109457232671747</d6p1:double><d6p1:double>0.97692242116312589</d6p1:double><d6p1:double>0.15063904965123318</d6p1:double><d6p1:double>0.41294525800214343</d6p1:double><d6p1:double>0.61348717203807945</d6p1:double></Weights></Neuron><Neuron><Bias>0.70199009067791918</Bias><Output>1</Output><Weights xmlns:d6p1="http://schemas.microsoft.com/2003/10/Serialization/Arrays"><d6p1:double>0.40081305809790574</d6p1:double><d6p1:double>1.1425024166450097</d6p1:double><d6p1:double>0.32478269963826184</d6p1:double><d6p1:double>0.26543558530148825</d6p1:double><d6p1:double>1.0245461490409455</d6p1:double><d6p1:double>-0.29253662932398772</d6p1:double><d6p1:double>0.066572049186439483</d6p1:double><d6p1:double>1.354565031802591</d6p1:double><d6p1:double>-0.44058711107777715</d6p1:double><d6p1:double>0.89690828667902056</d6p1:double><d6p1:double>0.32522564497401268</d6p1:double><d6p1:double>-0.17979547718526426</d6p1:double><d6p1:double>0.89190601030409822</d6p1:double><d6p1:double>0.31939173551792949</d6p1:double><d6p1:double>0.9113837233903721</d6p1:double><d6p1:double>0.16339780536834037</d6p1:double><d6p1:double>1.1734320839789871</d6p1:double><d6p1:double>0.21849643238019265</d6p1:double><d6p1:double>1.2176622892025202</d6p1:double><d6p1:double>0.21528740396725865</d6p1:double><d6p1:double>0.26764777499196929</d6p1:double><d6p1:double>0.15323055857491269</d6p1:double><d6p1:double>0.94762889793075855</d6p1:double><d6p1:double>-0.3949242697388875</d6p1:double><d6p1:double>0.66931350261597333</d6p1:double></Weights></Neuron><Neuron><Bias>0.013083094330278818</Bias><Output>-1</Output><Weights xmlns:d6p1="http://schemas.microsoft.com/2003/10/Serialization/Arrays"><d6p1:double>1.8078262058166961</d6p1:double><d6p1:double>0.64802685904432444</d6p1:double><d6p1:double>0.19775201079503563</d6p1:double><d6p1:double>0.23653027860545112</d6p1:double><d6p1:double>-0.42193373908319437</d6p1:double><d6p1:double>1.6791870184608815</d6p1:double><d6p1:double>1.2349184520049268</d6p1:double><d6p1:double>1.5101519780111952</d6p1:double><d6p1:double>0.71533617711010111</d6p1:double><d6p1:double>1.0097074243119188</d6p1:double><d6p1:double>0.60329191171056185</d6p1:double><d6p1:double>-0.27100132270749527</d6p1:double><d6p1:double>1.1338433029636632</d6p1:double><d6p1:double>-0.11241240187778236</d6p1:double><d6p1:double>0.54001782766898854</d6p1:double><d6p1:double>0.38822679489705003</d6p1:double><d6p1:double>0.45576378216663316</d6p1:double><d6p1:double>-0.12805700301896361</d6p1:double><d6p1:double>-0.20986547667305189</d6p1:double><d6p1:double>1.1299739768178467</d6p1:double><d6p1:double>0.24540063537118836</d6p1:double><d6p1:double>0.42906369668737759</d6p1:double><d6p1:double>0.860558970936941</d6p1:double><d6p1:double>0.97709466210480966</d6p1:double><d6p1:double>0.796663569493569</d6p1:double></Weights></Neuron><Neuron><Bias>0.63354607279057606</Bias><Output>1</Output><Weights xmlns:d6p1="http://schemas.microsoft.com/2003/10/Serialization/Arrays"><d6p1:double>-0.25462916708779004</d6p1:double><d6p1:double>0.751133290555455</d6p1:double><d6p1:double>0.86456677567176887</d6p1:double><d6p1:double>0.32523509123258071</d6p1:double><d6p1:double>0.77714745643924765</d6p1:double><d6p1:double>0.33327152579983893</d6p1:double><d6p1:double>0.22872752696248977</d6p1:double><d6p1:double>1.4794838971002289</d6p1:double><d6p1:double>0.61667556502371923</d6p1:double><d6p1:double>0.31727602016707024</d6p1:double><d6p1:double>0.7603121947542637</d6p1:double><d6p1:double>0.041707853689574644</d6p1:double><d6p1:double>1.1193004324458986</d6p1:double><d6p1:double>0.55573799079046571</d6p1:double><d6p1:double>0.65028814867553164</d6p1:double><d6p1:double>1.0588409143657029</d6p1:double><d6p1:double>0.43629922257164083</d6p1:double><d6p1:double>-0.016986744254431911</d6p1:double><d6p1:double>0.986318839610988</d6p1:double><d6p1:double>0.81946339908263821</d6p1:double><d6p1:double>0.60614561993240024</d6p1:double><d6p1:double>0.848892747943281</d6p1:double><d6p1:double>0.64810062973437765</d6p1:double><d6p1:double>0.25481342180791661</d6p1:double><d6p1:double>-0.04948583349122547</d6p1:double></Weights></Neuron><Neuron><Bias>0.054608973278226933</Bias><Output>-1</Output><Weights xmlns:d6p1="http://schemas.microsoft.com/2003/10/Serialization/Arrays"><d6p1:double>0.18450177204492516</d6p1:double><d6p1:double>0.23789192422682998</d6p1:double><d6p1:double>-0.025466196699627974</d6p1:double><d6p1:double>1.3720697275729625</d6p1:double><d6p1:double>1.4814531171472114</d6p1:double><d6p1:double>-0.058457599203107648</d6p1:double><d6p1:double>0.49464251424613775</d6p1:double><d6p1:double>-1.1578275757729011</d6p1:double><d6p1:double>0.62543068280000047</d6p1:double><d6p1:double>0.48833501841214721</d6p1:double><d6p1:double>0.42663160669182637</d6p1:double><d6p1:double>0.15601681709953541</d6p1:double><d6p1:double>0.014437387167209385</d6p1:double><d6p1:double>-0.46705446127508227</d6p1:double><d6p1:double>0.46473496862641345</d6p1:double><d6p1:double>0.41078115794818248</d6p1:double><d6p1:double>0.11010941691764999</d6p1:double><d6p1:double>1.1619424887140033</d6p1:double><d6p1:double>1.043462728035121</d6p1:double><d6p1:double>1.0129239894085844</d6p1:double><d6p1:double>0.91220193126612059</d6p1:double><d6p1:double>1.7570473450810087</d6p1:double><d6p1:double>0.18889549751793547</d6p1:double><d6p1:double>-0.063723185788191347</d6p1:double><d6p1:double>1.0196724697492545</d6p1:double></Weights></Neuron><Neuron><Bias>0.068048693157459872</Bias><Output>1</Output><Weights xmlns:d6p1="http://schemas.microsoft.com/2003/10/Serialization/Arrays"><d6p1:double>-0.59522311381992643</d6p1:double><d6p1:double>0.42222878735801006</d6p1:double><d6p1:double>0.64831323246883232</d6p1:double><d6p1:double>0.92834925163013859</d6p1:double><d6p1:double>-0.14312662543274027</d6p1:double><d6p1:double>0.51915560664292271</d6p1:double><d6p1:double>-0.3094983388735813</d6p1:double><d6p1:double>0.52599049955230359</d6p1:double><d6p1:double>0.21749667135897122</d6p1:double><d6p1:double>0.22518226119938328</d6p1:double><d6p1:double>0.90198612011555457</d6p1:double><d6p1:double>0.57514907609013655</d6p1:double><d6p1:double>1.0720941967353315</d6p1:double><d6p1:double>0.667556465685412</d6p1:double><d6p1:double>0.66979653567357</d6p1:double><d6p1:double>0.60866934138731554</d6p1:double><d6p1:double>0.69061230559944775</d6p1:double><d6p1:double>1.28079178700039</d6p1:double><d6p1:double>0.2304672042166791</d6p1:double><d6p1:double>0.75706085187629024</d6p1:double><d6p1:double>-0.0070784472942556969</d6p1:double><d6p1:double>-0.46662886659193925</d6p1:double><d6p1:double>0.59520849127561126</d6p1:double><d6p1:double>0.5127466207374789</d6p1:double><d6p1:double>0.500199608141837</d6p1:double></Weights></Neuron><Neuron><Bias>0.35571307653572626</Bias><Output>-1</Output><Weights xmlns:d6p1="http://schemas.microsoft.com/2003/10/Serialization/Arrays"><d6p1:double>0.55722501385795131</d6p1:double><d6p1:double>1.4305789262985897</d6p1:double><d6p1:double>-0.81208856356302461</d6p1:double><d6p1:double>1.4355808356786224</d6p1:double><d6p1:double>0.748789253061605</d6p1:double><d6p1:double>0.73408745472754811</d6p1:double><d6p1:double>-0.003777969806330419</d6p1:double><d6p1:double>0.18870108629368432</d6p1:double><d6p1:double>0.624729638996947</d6p1:double><d6p1:double>-0.06204522123878646</d6p1:double><d6p1:double>0.93954986488300329</d6p1:double><d6p1:double>-0.35063168899793723</d6p1:double><d6p1:double>-0.64989731814387408</d6p1:double><d6p1:double>1.2766692139223856</d6p1:double><d6p1:double>0.13844481080815707</d6p1:double><d6p1:double>-0.06945505624957958</d6p1:double><d6p1:double>0.15417723097560423</d6p1:double><d6p1:double>1.1905180895867213</d6p1:double><d6p1:double>-0.27600234111417721</d6p1:double><d6p1:double>-0.10513826474618303</d6p1:double><d6p1:double>0.58096660187095972</d6p1:double><d6p1:double>0.99369425310572246</d6p1:double><d6p1:double>1.2941256687721772</d6p1:double><d6p1:double>-0.153464880808892</d6p1:double><d6p1:double>0.47172370738668112</d6p1:double></Weights></Neuron><Neuron><Bias>0.019975236231788297</Bias><Output>1</Output><Weights xmlns:d6p1="http://schemas.microsoft.com/2003/10/Serialization/Arrays"><d6p1:double>-0.601809032840013</d6p1:double><d6p1:double>0.31912330237222264</d6p1:double><d6p1:double>0.26920298620113969</d6p1:double><d6p1:double>0.94144748417383384</d6p1:double><d6p1:double>0.15066623304321108</d6p1:double><d6p1:double>1.0236199345625923</d6p1:double><d6p1:double>-0.14398217190975535</d6p1:double><d6p1:double>1.1252352995873569</d6p1:double><d6p1:double>0.29460366687192274</d6p1:double><d6p1:double>0.39739679799962985</d6p1:double><d6p1:double>0.16494473819207142</d6p1:double><d6p1:double>1.056433683134343</d6p1:double><d6p1:double>0.2952230936941046</d6p1:double><d6p1:double>0.16374933641004655</d6p1:double><d6p1:double>0.73505692316434557</d6p1:double><d6p1:double>0.76230666146574488</d6p1:double><d6p1:double>-0.42685857599491878</d6p1:double><d6p1:double>0.84328922734927914</d6p1:double><d6p1:double>0.47013983146267041</d6p1:double><d6p1:double>0.033929888706185331</d6p1:double><d6p1:double>0.55901926592113549</d6p1:double><d6p1:double>0.55981329278841707</d6p1:double><d6p1:double>0.025573252914868758</d6p1:double><d6p1:double>1.0311898657638148</d6p1:double><d6p1:double>-0.14513940467409939</d6p1:double></Weights></Neuron><Neuron><Bias>0.29972600307657943</Bias><Output>1</Output><Weights xmlns:d6p1="http://schemas.microsoft.com/2003/10/Serialization/Arrays"><d6p1:double>0.66874616785964791</d6p1:double><d6p1:double>-0.18653141179974131</d6p1:double><d6p1:double>0.50609303280271434</d6p1:double><d6p1:double>1.337098898865263</d6p1:double><d6p1:double>1.2225300652658746</d6p1:double><d6p1:double>0.45299361855932513</d6p1:double><d6p1:double>0.13481058418213626</d6p1:double><d6p1:double>1.2112525872620137</d6p1:double><d6p1:double>-0.019110916641019594</d6p1:double><d6p1:double>1.6460195555439825</d6p1:double><d6p1:double>0.71540155179381193</d6p1:double><d6p1:double>-0.10298178426213039</d6p1:double><d6p1:double>-0.408926111603844</d6p1:double><d6p1:double>0.74335823611026</d6p1:double><d6p1:double>0.60768218421531606</d6p1:double><d6p1:double>1.0534609599313669</d6p1:double><d6p1:double>0.67173541578362916</d6p1:double><d6p1:double>0.97317883535429661</d6p1:double><d6p1:double>0.902148733687677</d6p1:double><d6p1:double>0.5436900753634768</d6p1:double><d6p1:double>1.1627439510441566</d6p1:double><d6p1:double>0.31232441687020895</d6p1:double><d6p1:double>0.010913300894994954</d6p1:double><d6p1:double>0.89947207126611617</d6p1:double><d6p1:double>0.21307360627934135</d6p1:double></Weights></Neuron><Neuron><Bias>0.29785927988017263</Bias><Output>-1</Output><Weights xmlns:d6p1="http://schemas.microsoft.com/2003/10/Serialization/Arrays"><d6p1:double>1.0352208407978607</d6p1:double><d6p1:double>1.1684299480107945</d6p1:double><d6p1:double>0.090732531052526932</d6p1:double><d6p1:double>1.0463310542044884</d6p1:double><d6p1:double>0.37627284902910918</d6p1:double><d6p1:double>-0.062811589554578093</d6p1:double><d6p1:double>0.68571002719836249</d6p1:double><d6p1:double>-0.38636057481199931</d6p1:double><d6p1:double>0.693061750313542</d6p1:double><d6p1:double>0.14234799020767958</d6p1:double><d6p1:double>0.52265521606198428</d6p1:double><d6p1:double>0.41917952818929116</d6p1:double><d6p1:double>0.48604588568232687</d6p1:double><d6p1:double>0.45642715002070278</d6p1:double><d6p1:double>0.70441357338969146</d6p1:double><d6p1:double>0.42136498913742726</d6p1:double><d6p1:double>0.47057009163474034</d6p1:double><d6p1:double>-0.10147048699883619</d6p1:double><d6p1:double>0.54495461100049936</d6p1:double><d6p1:double>0.97410539788320394</d6p1:double><d6p1:double>0.60949608434210034</d6p1:double><d6p1:double>1.0215979424902628</d6p1:double><d6p1:double>0.94687175470489771</d6p1:double><d6p1:double>-0.21638739039622093</d6p1:double><d6p1:double>0.59585442638866526</d6p1:double></Weights></Neuron><Neuron><Bias>0.16657206611976669</Bias><Output>-1</Output><Weights xmlns:d6p1="http://schemas.microsoft.com/2003/10/Serialization/Arrays"><d6p1:double>1.5626771784681002</d6p1:double><d6p1:double>0.041691065129602571</d6p1:double><d6p1:double>0.78946349924830672</d6p1:double><d6p1:double>0.4963596181670199</d6p1:double><d6p1:double>0.84405869401360267</d6p1:double><d6p1:double>1.0927422462123406</d6p1:double><d6p1:double>0.13736383043967285</d6p1:double><d6p1:double>0.35949253250226265</d6p1:double><d6p1:double>0.0058833087887074156</d6p1:double><d6p1:double>0.89964189624229263</d6p1:double><d6p1:double>0.14051841053101818</d6p1:double><d6p1:double>-0.25053018176346264</d6p1:double><d6p1:double>0.83704269301177081</d6p1:double><d6p1:double>0.67870799115021807</d6p1:double><d6p1:double>0.8377823718364894</d6p1:double><d6p1:double>0.97731275612734281</d6p1:double><d6p1:double>0.3464742426414914</d6p1:double><d6p1:double>1.3895182805740098</d6p1:double><d6p1:double>0.263940934160477</d6p1:double><d6p1:double>-0.7724168764531063</d6p1:double><d6p1:double>0.21763065544385121</d6p1:double><d6p1:double>0.65937862013628867</d6p1:double><d6p1:double>1.1370680204716432</d6p1:double><d6p1:double>0.55678773498846346</d6p1:double><d6p1:double>-0.46101739547132936</d6p1:double></Weights></Neuron><Neuron><Bias>0.48157205371317818</Bias><Output>-1</Output><Weights xmlns:d6p1="http://schemas.microsoft.com/2003/10/Serialization/Arrays"><d6p1:double>0.92559064387411971</d6p1:double><d6p1:double>0.23222409712528896</d6p1:double><d6p1:double>0.82174060672047011</d6p1:double><d6p1:double>0.009631970855927062</d6p1:double><d6p1:double>0.45866955644165086</d6p1:double><d6p1:double>0.65508532068909919</d6p1:double><d6p1:double>0.77976315528754747</d6p1:double><d6p1:double>1.2826859881897537</d6p1:double><d6p1:double>-0.18630589412563747</d6p1:double><d6p1:double>-0.14762352716913149</d6p1:double><d6p1:double>0.83514069506810507</d6p1:double><d6p1:double>0.68130657894245517</d6p1:double><d6p1:double>0.16310739253031781</d6p1:double><d6p1:double>0.80479442632461151</d6p1:double><d6p1:double>0.046367623602122217</d6p1:double><d6p1:double>0.033908592235551885</d6p1:double><d6p1:double>0.54009355257543</d6p1:double><d6p1:double>0.024312494470980165</d6p1:double><d6p1:double>-0.073865280112949988</d6p1:double><d6p1:double>0.42383921480583536</d6p1:double><d6p1:double>0.32632658316527469</d6p1:double><d6p1:double>0.725548604522345</d6p1:double><d6p1:double>1.3916621425175226</d6p1:double><d6p1:double>0.3940495880988093</d6p1:double><d6p1:double>0.91131224229729224</d6p1:double></Weights></Neuron><Neuron><Bias>0.024574091300775005</Bias><Output>-1</Output><Weights xmlns:d6p1="http://schemas.microsoft.com/2003/10/Serialization/Arrays"><d6p1:double>-0.28896101691415477</d6p1:double><d6p1:double>0.85811897585564612</d6p1:double><d6p1:double>-0.33436395126013219</d6p1:double><d6p1:double>0.18113583010655043</d6p1:double><d6p1:double>1.2156926271400752</d6p1:double><d6p1:double>0.5463616044226044</d6p1:double><d6p1:double>1.1611106853312674</d6p1:double><d6p1:double>1.2728593132518502</d6p1:double><d6p1:double>0.72813775413757909</d6p1:double><d6p1:double>0.40387480814307425</d6p1:double><d6p1:double>0.81166593754344629</d6p1:double><d6p1:double>1.4334567017827777</d6p1:double><d6p1:double>1.1345115572800055</d6p1:double><d6p1:double>0.85825047437353</d6p1:double><d6p1:double>0.63163540684192365</d6p1:double><d6p1:double>0.0913592600950649</d6p1:double><d6p1:double>1.1516395529523391</d6p1:double><d6p1:double>0.28520942618099832</d6p1:double><d6p1:double>0.62354935139080692</d6p1:double><d6p1:double>0.93457655017246222</d6p1:double><d6p1:double>1.0219337447951085</d6p1:double><d6p1:double>-0.71864459114113888</d6p1:double><d6p1:double>0.26965677062737087</d6p1:double><d6p1:double>-0.54301127512839964</d6p1:double><d6p1:double>1.3557617733983325</d6p1:double></Weights></Neuron><Neuron><Bias>0.25319293751032651</Bias><Output>-1</Output><Weights xmlns:d6p1="http://schemas.microsoft.com/2003/10/Serialization/Arrays"><d6p1:double>0.31633152132123277</d6p1:double><d6p1:double>0.63395250378113943</d6p1:double><d6p1:double>0.66773456572627965</d6p1:double><d6p1:double>1.0676112441521191</d6p1:double><d6p1:double>0.88179831186732394</d6p1:double><d6p1:double>0.65593068097071194</d6p1:double><d6p1:double>0.74625465531682833</d6p1:double><d6p1:double>1.0113044519778891</d6p1:double><d6p1:double>0.38334649650784419</d6p1:double><d6p1:double>0.74861003131940185</d6p1:double><d6p1:double>0.59897272429513659</d6p1:double><d6p1:double>0.61031350905831883</d6p1:double><d6p1:double>-0.040835055971144257</d6p1:double><d6p1:double>0.70581961046865072</d6p1:double><d6p1:double>0.20872977116012423</d6p1:double><d6p1:double>-0.088564964744299743</d6p1:double><d6p1:double>-0.1298897426367879</d6p1:double><d6p1:double>0.49301024600169779</d6p1:double><d6p1:double>0.19134310129167797</d6p1:double><d6p1:double>0.24187578774506474</d6p1:double><d6p1:double>0.38581244028201916</d6p1:double><d6p1:double>0.64321492297213445</d6p1:double><d6p1:double>1.3075456587668488</d6p1:double><d6p1:double>0.31732961310844954</d6p1:double><d6p1:double>0.55627882995292044</d6p1:double></Weights></Neuron><Neuron><Bias>0.55014506222389192</Bias><Output>1</Output><Weights xmlns:d6p1="http://schemas.microsoft.com/2003/10/Serialization/Arrays"><d6p1:double>0.48152471078212195</d6p1:double><d6p1:double>0.57048450778227933</d6p1:double><d6p1:double>1.1313702067169016</d6p1:double><d6p1:double>1.2726731580777741</d6p1:double><d6p1:double>1.2216243606436421</d6p1:double><d6p1:double>0.46841913413958758</d6p1:double><d6p1:double>0.56103596815039847</d6p1:double><d6p1:double>1.4902258792483292</d6p1:double><d6p1:double>-0.40558157874603878</d6p1:double><d6p1:double>0.86069971536607115</d6p1:double><d6p1:double>1.1368292531882604</d6p1:double><d6p1:double>0.28531929307244491</d6p1:double><d6p1:double>0.058823040556633031</d6p1:double><d6p1:double>0.5647101133585064</d6p1:double><d6p1:double>0.084761104869304563</d6p1:double><d6p1:double>0.67482698657177043</d6p1:double><d6p1:double>-0.0658450567025489</d6p1:double><d6p1:double>1.7792517687505351</d6p1:double><d6p1:double>0.34740552629582072</d6p1:double><d6p1:double>0.47203962724606624</d6p1:double><d6p1:double>-0.043730509935912439</d6p1:double><d6p1:double>0.7594706234018338</d6p1:double><d6p1:double>0.26283596398989778</d6p1:double><d6p1:double>0.622814309818143</d6p1:double><d6p1:double>0.79622990762645784</d6p1:double></Weights></Neuron><Neuron><Bias>0.31559541978482125</Bias><Output>-1</Output><Weights xmlns:d6p1="http://schemas.microsoft.com/2003/10/Serialization/Arrays"><d6p1:double>1.9666467645961969</d6p1:double><d6p1:double>-0.15341739978359942</d6p1:double><d6p1:double>0.77423931553681158</d6p1:double><d6p1:double>0.71302523567216314</d6p1:double><d6p1:double>0.65419647015482263</d6p1:double><d6p1:double>0.864383594274314</d6p1:double><d6p1:double>1.100901123782775</d6p1:double><d6p1:double>0.37940960338560836</d6p1:double><d6p1:double>1.1050948171778214</d6p1:double><d6p1:double>0.51589199653860829</d6p1:double><d6p1:double>1.0916693509773818</d6p1:double><d6p1:double>-0.12828334054494966</d6p1:double><d6p1:double>1.1722556036312917</d6p1:double><d6p1:double>0.52663517408197436</d6p1:double><d6p1:double>0.57603309664277913</d6p1:double><d6p1:double>-0.020408701930014133</d6p1:double><d6p1:double>1.1119590323927013</d6p1:double><d6p1:double>0.9286816722761001</d6p1:double><d6p1:double>-0.011052824477330759</d6p1:double><d6p1:double>0.82136213616453235</d6p1:double><d6p1:double>0.96058114831065056</d6p1:double><d6p1:double>0.633673845525354</d6p1:double><d6p1:double>0.68402104548394371</d6p1:double><d6p1:double>-0.34415474061601209</d6p1:double><d6p1:double>0.39127689801270693</d6p1:double></Weights></Neuron><Neuron><Bias>0.3494471836527866</Bias><Output>-1</Output><Weights xmlns:d6p1="http://schemas.microsoft.com/2003/10/Serialization/Arrays"><d6p1:double>1.6128092446882887</d6p1:double><d6p1:double>0.8019529237226044</d6p1:double><d6p1:double>0.500601821140637</d6p1:double><d6p1:double>0.523846876297142</d6p1:double><d6p1:double>1.224254039959507</d6p1:double><d6p1:double>0.2698084744823443</d6p1:double><d6p1:double>1.2888488481445344</d6p1:double><d6p1:double>-1.2663849552907718</d6p1:double><d6p1:double>-0.012586768804140992</d6p1:double><d6p1:double>0.35854266266509538</d6p1:double><d6p1:double>-0.072919459077667</d6p1:double><d6p1:double>0.74092818761323143</d6p1:double><d6p1:double>0.57783676131256578</d6p1:double><d6p1:double>0.080512629505189587</d6p1:double><d6p1:double>0.38403484773296342</d6p1:double><d6p1:double>0.75886861926187144</d6p1:double><d6p1:double>0.12865218568792572</d6p1:double><d6p1:double>-0.1136956737659249</d6p1:double><d6p1:double>0.31671803124473624</d6p1:double><d6p1:double>-0.410886666433838</d6p1:double><d6p1:double>0.97618864511019421</d6p1:double><d6p1:double>0.080108879939392821</d6p1:double><d6p1:double>0.68569707742680819</d6p1:double><d6p1:double>-0.20560114684376285</d6p1:double><d6p1:double>1.2307698280008184</d6p1:double></Weights></Neuron><Neuron><Bias>0.28271458700541169</Bias><Output>1</Output><Weights xmlns:d6p1="http://schemas.microsoft.com/2003/10/Serialization/Arrays"><d6p1:double>0.42206146012129425</d6p1:double><d6p1:double>0.99730168433265376</d6p1:double><d6p1:double>0.51971297856753673</d6p1:double><d6p1:double>0.53860076281166769</d6p1:double><d6p1:double>-0.56154259782697358</d6p1:double><d6p1:double>0.63005105386578841</d6p1:double><d6p1:double>0.55027811309743935</d6p1:double><d6p1:double>1.2461967464268924</d6p1:double><d6p1:double>-0.035016136819214609</d6p1:double><d6p1:double>0.629571757368079</d6p1:double><d6p1:double>1.0962428947136209</d6p1:double><d6p1:double>1.3333517211655281</d6p1:double><d6p1:double>0.20227078056369333</d6p1:double><d6p1:double>0.50878642563747034</d6p1:double><d6p1:double>0.53392857662063764</d6p1:double><d6p1:double>0.0981690666787873</d6p1:double><d6p1:double>0.60337284950249059</d6p1:double><d6p1:double>-0.044148780876300829</d6p1:double><d6p1:double>0.68481001445561451</d6p1:double><d6p1:double>0.47318017463332851</d6p1:double><d6p1:double>-0.173067633881913</d6p1:double><d6p1:double>0.2343052103869713</d6p1:double><d6p1:double>0.30896214603350597</d6p1:double><d6p1:double>0.71772851153965667</d6p1:double><d6p1:double>2.1678522804137321</d6p1:double></Weights></Neuron><Neuron><Bias>0.96023831213303013</Bias><Output>-1</Output><Weights xmlns:d6p1="http://schemas.microsoft.com/2003/10/Serialization/Arrays"><d6p1:double>1.2954944206006331</d6p1:double><d6p1:double>0.51705297031848174</d6p1:double><d6p1:double>1.0063230604253171</d6p1:double><d6p1:double>0.520470933027642</d6p1:double><d6p1:double>0.63021404331851061</d6p1:double><d6p1:double>0.33172761455187622</d6p1:double><d6p1:double>0.20147211465434131</d6p1:double><d6p1:double>0.68381124649059044</d6p1:double><d6p1:double>-0.50223852162466787</d6p1:double><d6p1:double>0.31535059422044681</d6p1:double><d6p1:double>-0.034382756369156227</d6p1:double><d6p1:double>0.94252638375540054</d6p1:double><d6p1:double>-0.033860527593551987</d6p1:double><d6p1:double>1.0609488479299534</d6p1:double><d6p1:double>-0.37853071905089103</d6p1:double><d6p1:double>0.29189531591018936</d6p1:double><d6p1:double>0.74328027816552966</d6p1:double><d6p1:double>1.1022323972593679</d6p1:double><d6p1:double>0.57419164253812616</d6p1:double><d6p1:double>0.913365650670584</d6p1:double><d6p1:double>0.563576986498539</d6p1:double><d6p1:double>1.3094404530574819</d6p1:double><d6p1:double>1.2247425539210364</d6p1:double><d6p1:double>-0.30667839986649414</d6p1:double><d6p1:double>-0.3585397699401992</d6p1:double></Weights></Neuron><Neuron><Bias>0.69770010161797513</Bias><Output>-1</Output><Weights xmlns:d6p1="http://schemas.microsoft.com/2003/10/Serialization/Arrays"><d6p1:double>-0.017569714650082013</d6p1:double><d6p1:double>0.70247308729982683</d6p1:double><d6p1:double>0.58763915118754506</d6p1:double><d6p1:double>0.58788585525151893</d6p1:double><d6p1:double>0.88214576633264075</d6p1:double><d6p1:double>0.38992901597785634</d6p1:double><d6p1:double>1.3785331059496573</d6p1:double><d6p1:double>0.97073306286884564</d6p1:double><d6p1:double>-0.037962631677147335</d6p1:double><d6p1:double>1.0348706988021263</d6p1:double><d6p1:double>0.3481514510582272</d6p1:double><d6p1:double>0.67583018370254633</d6p1:double><d6p1:double>0.11374591653959472</d6p1:double><d6p1:double>-0.23712874877819659</d6p1:double><d6p1:double>0.88761599827805571</d6p1:double><d6p1:double>0.645024913489536</d6p1:double><d6p1:double>-0.2762619652670335</d6p1:double><d6p1:double>0.78228840190811011</d6p1:double><d6p1:double>0.66635550046326031</d6p1:double><d6p1:double>-0.1418472667270341</d6p1:double><d6p1:double>1.1094503119089147</d6p1:double><d6p1:double>0.63652488992543144</d6p1:double><d6p1:double>0.87715001236916779</d6p1:double><d6p1:double>0.4720033276869553</d6p1:double><d6p1:double>1.3106216902366534</d6p1:double></Weights></Neuron><Neuron><Bias>0.68465902825516511</Bias><Output>1</Output><Weights xmlns:d6p1="http://schemas.microsoft.com/2003/10/Serialization/Arrays"><d6p1:double>-0.59100780822871191</d6p1:double><d6p1:double>0.35476650620954375</d6p1:double><d6p1:double>0.79094110133257722</d6p1:double><d6p1:double>-0.32983358455953393</d6p1:double><d6p1:double>-0.89190103560958045</d6p1:double><d6p1:double>0.70060335402248208</d6p1:double><d6p1:double>-0.51694449965106</d6p1:double><d6p1:double>0.292014930368166</d6p1:double><d6p1:double>0.8298926198229245</d6p1:double><d6p1:double>0.74252804318781285</d6p1:double><d6p1:double>0.50738514999854323</d6p1:double><d6p1:double>0.86065430927151632</d6p1:double><d6p1:double>1.0841950788616577</d6p1:double><d6p1:double>1.1126252620906032</d6p1:double><d6p1:double>0.87459357363781964</d6p1:double><d6p1:double>0.2213774015650499</d6p1:double><d6p1:double>0.58498021854693927</d6p1:double><d6p1:double>0.54152855362992991</d6p1:double><d6p1:double>-0.25730776695803048</d6p1:double><d6p1:double>0.54751123176565319</d6p1:double><d6p1:double>0.10469114352871151</d6p1:double><d6p1:double>-0.16917682307112875</d6p1:double><d6p1:double>0.27212472285404277</d6p1:double><d6p1:double>0.67546930576325959</d6p1:double><d6p1:double>0.52177789559683752</d6p1:double></Weights></Neuron><Neuron><Bias>0.4609481056415678</Bias><Output>1</Output><Weights xmlns:d6p1="http://schemas.microsoft.com/2003/10/Serialization/Arrays"><d6p1:double>-0.59348815062312321</d6p1:double><d6p1:double>0.96805343679507683</d6p1:double><d6p1:double>1.4323963191476718</d6p1:double><d6p1:double>0.1621942716659259</d6p1:double><d6p1:double>0.4580896046466576</d6p1:double><d6p1:double>0.047003669583378607</d6p1:double><d6p1:double>0.087749983183831343</d6p1:double><d6p1:double>0.20271428279083714</d6p1:double><d6p1:double>0.23434435070287152</d6p1:double><d6p1:double>1.0287200539853967</d6p1:double><d6p1:double>0.49138822960402495</d6p1:double><d6p1:double>0.56781796139268481</d6p1:double><d6p1:double>1.4359456486631097</d6p1:double><d6p1:double>0.7024648781886873</d6p1:double><d6p1:double>0.78621569273233727</d6p1:double><d6p1:double>0.93243499769526816</d6p1:double><d6p1:double>1.1898234632701024</d6p1:double><d6p1:double>0.27144726904991351</d6p1:double><d6p1:double>0.78645462296369262</d6p1:double><d6p1:double>0.61428962716055868</d6p1:double><d6p1:double>-0.33875718229089186</d6p1:double><d6p1:double>0.1428866195136628</d6p1:double><d6p1:double>0.11434826674458418</d6p1:double><d6p1:double>0.786452906416753</d6p1:double><d6p1:double>-0.25547736142357036</d6p1:double></Weights></Neuron><Neuron><Bias>0.62050334495927972</Bias><Output>1</Output><Weights xmlns:d6p1="http://schemas.microsoft.com/2003/10/Serialization/Arrays"><d6p1:double>-0.55103859430168933</d6p1:double><d6p1:double>0.50725576902020209</d6p1:double><d6p1:double>0.61422356119461274</d6p1:double><d6p1:double>0.11327681702607094</d6p1:double><d6p1:double>-0.012664028034873549</d6p1:double><d6p1:double>-0.33282485351299651</d6p1:double><d6p1:double>-0.62930717243547563</d6p1:double><d6p1:double>0.0038422657931189781</d6p1:double><d6p1:double>-0.35134819765464337</d6p1:double><d6p1:double>0.54342704498410443</d6p1:double><d6p1:double>1.4226386158894608</d6p1:double><d6p1:double>1.6045362028944854</d6p1:double><d6p1:double>0.068370537141770465</d6p1:double><d6p1:double>1.0089280297467065</d6p1:double><d6p1:double>1.3975834042244433</d6p1:double><d6p1:double>0.91989275520417058</d6p1:double><d6p1:double>0.091571336458576028</d6p1:double><d6p1:double>-0.0072905069585726991</d6p1:double><d6p1:double>1.2920734516621362</d6p1:double><d6p1:double>0.017604626804538621</d6p1:double><d6p1:double>0.80668645688410445</d6p1:double><d6p1:double>0.50016311145590431</d6p1:double><d6p1:double>-0.16695417457984732</d6p1:double><d6p1:double>0.64726644541854816</d6p1:double><d6p1:double>0.72495777379200355</d6p1:double></Weights></Neuron><Neuron><Bias>0.301861243075441</Bias><Output>-1</Output><Weights xmlns:d6p1="http://schemas.microsoft.com/2003/10/Serialization/Arrays"><d6p1:double>0.22585187628101225</d6p1:double><d6p1:double>-0.50337263832925527</d6p1:double><d6p1:double>0.64975387513865368</d6p1:double><d6p1:double>0.84713436620819282</d6p1:double><d6p1:double>1.3468705124181002</d6p1:double><d6p1:double>-0.7915198330321549</d6p1:double><d6p1:double>0.54769649956944944</d6p1:double><d6p1:double>-0.16764129499431224</d6p1:double><d6p1:double>0.47927278850546623</d6p1:double><d6p1:double>-0.53565640664225711</d6p1:double><d6p1:double>0.7672043612035111</d6p1:double><d6p1:double>-0.58392872118819994</d6p1:double><d6p1:double>1.0978973690610792</d6p1:double><d6p1:double>1.1785268332266305</d6p1:double><d6p1:double>-0.19969657099246071</d6p1:double><d6p1:double>0.23107608201017</d6p1:double><d6p1:double>1.1724311175644038</d6p1:double><d6p1:double>0.0077793033031914056</d6p1:double><d6p1:double>1.4010606601124487</d6p1:double><d6p1:double>0.9272624807539166</d6p1:double><d6p1:double>0.68379784138414412</d6p1:double><d6p1:double>1.9075455264946755</d6p1:double><d6p1:double>0.70231229575871323</d6p1:double><d6p1:double>-0.40771213174269172</d6p1:double><d6p1:double>-1.1962859026974397</d6p1:double></Weights></Neuron><Neuron><Bias>0.87114987895565055</Bias><Output>-1</Output><Weights xmlns:d6p1="http://schemas.microsoft.com/2003/10/Serialization/Arrays"><d6p1:double>0.18027581915355964</d6p1:double><d6p1:double>0.50818493736715553</d6p1:double><d6p1:double>0.18101214503591948</d6p1:double><d6p1:double>1.0315612746667595</d6p1:double><d6p1:double>0.69046332549695866</d6p1:double><d6p1:double>0.7540508024548318</d6p1:double><d6p1:double>1.1083871898322684</d6p1:double><d6p1:double>0.82269179675471515</d6p1:double><d6p1:double>0.59265341919151227</d6p1:double><d6p1:double>0.40850076561225274</d6p1:double><d6p1:double>1.4496457956992923</d6p1:double><d6p1:double>0.340671035176756</d6p1:double><d6p1:double>0.60306559711324648</d6p1:double><d6p1:double>0.475909680790728</d6p1:double><d6p1:double>0.18794800175213269</d6p1:double><d6p1:double>0.27780290592589868</d6p1:double><d6p1:double>0.11886188135624452</d6p1:double><d6p1:double>0.69918182243469928</d6p1:double><d6p1:double>0.63762771762927373</d6p1:double><d6p1:double>0.023905977631537168</d6p1:double><d6p1:double>0.61202483819353459</d6p1:double><d6p1:double>0.824894596765614</d6p1:double><d6p1:double>0.21011242245913669</d6p1:double><d6p1:double>0.58372324617865678</d6p1:double><d6p1:double>0.37604403293255323</d6p1:double></Weights></Neuron><Neuron><Bias>0.14715047185755714</Bias><Output>-1</Output><Weights xmlns:d6p1="http://schemas.microsoft.com/2003/10/Serialization/Arrays"><d6p1:double>1.5881517354555457</d6p1:double><d6p1:double>0.35489773159668925</d6p1:double><d6p1:double>-0.47616916879193938</d6p1:double><d6p1:double>0.27442476302103858</d6p1:double><d6p1:double>0.91312863563207858</d6p1:double><d6p1:double>-0.52639697804534824</d6p1:double><d6p1:double>0.44444119002432669</d6p1:double><d6p1:double>-0.47790908364428775</d6p1:double><d6p1:double>-0.3816218648268131</d6p1:double><d6p1:double>0.60328117934749648</d6p1:double><d6p1:double>0.901256493975837</d6p1:double><d6p1:double>0.027191887518726969</d6p1:double><d6p1:double>0.27277571621257996</d6p1:double><d6p1:double>-0.19460185401156985</d6p1:double><d6p1:double>0.18393722454108927</d6p1:double><d6p1:double>-0.17319490816143049</d6p1:double><d6p1:double>0.35649557906098289</d6p1:double><d6p1:double>0.45902048785101152</d6p1:double><d6p1:double>0.056629678304966652</d6p1:double><d6p1:double>-0.23107170508708197</d6p1:double><d6p1:double>0.41244756596393617</d6p1:double><d6p1:double>0.85379222470351956</d6p1:double><d6p1:double>0.982982212067712</d6p1:double><d6p1:double>0.15194559562366258</d6p1:double><d6p1:double>0.744130790887654</d6p1:double></Weights></Neuron><Neuron><Bias>0.47615734310697194</Bias><Output>1</Output><Weights xmlns:d6p1="http://schemas.microsoft.com/2003/10/Serialization/Arrays"><d6p1:double>-0.21828562688014508</d6p1:double><d6p1:double>0.46202561147237531</d6p1:double><d6p1:double>0.893747376251583</d6p1:double><d6p1:double>0.28493860432434437</d6p1:double><d6p1:double>-0.59251976905522519</d6p1:double><d6p1:double>1.0498408575362481</d6p1:double><d6p1:double>0.64688669243777375</d6p1:double><d6p1:double>0.29764527608738373</d6p1:double><d6p1:double>1.2631692314006917</d6p1:double><d6p1:double>0.626178846273452</d6p1:double><d6p1:double>0.56049555876466639</d6p1:double><d6p1:double>1.1848008475801921</d6p1:double><d6p1:double>0.837202962073988</d6p1:double><d6p1:double>0.92713623117654376</d6p1:double><d6p1:double>0.69968795558589969</d6p1:double><d6p1:double>0.60298335741479681</d6p1:double><d6p1:double>0.3245120661690204</d6p1:double><d6p1:double>0.44532658553642346</d6p1:double><d6p1:double>-0.23410209074164806</d6p1:double><d6p1:double>0.31496313350780392</d6p1:double><d6p1:double>1.132667419824742</d6p1:double><d6p1:double>-0.17037384703906186</d6p1:double><d6p1:double>0.53415448739903881</d6p1:double><d6p1:double>0.56022831542862694</d6p1:double><d6p1:double>-0.2509943808702742</d6p1:double></Weights></Neuron><Neuron><Bias>0.057012104704283237</Bias><Output>1</Output><Weights xmlns:d6p1="http://schemas.microsoft.com/2003/10/Serialization/Arrays"><d6p1:double>-0.41565084954777787</d6p1:double><d6p1:double>1.1932805448524937</d6p1:double><d6p1:double>0.24942753567345569</d6p1:double><d6p1:double>0.38021680652534295</d6p1:double><d6p1:double>0.55552333133028342</d6p1:double><d6p1:double>0.9258262763141375</d6p1:double><d6p1:double>1.108882137072235</d6p1:double><d6p1:double>0.538484101480506</d6p1:double><d6p1:double>0.39668290129738326</d6p1:double><d6p1:double>0.55777914787639482</d6p1:double><d6p1:double>0.72626780885376518</d6p1:double><d6p1:double>0.43405440414996893</d6p1:double><d6p1:double>0.4501567225574607</d6p1:double><d6p1:double>0.18798076862093901</d6p1:double><d6p1:double>0.82851232094115346</d6p1:double><d6p1:double>0.2120456859828305</d6p1:double><d6p1:double>0.64748889130536491</d6p1:double><d6p1:double>0.96937351166365227</d6p1:double><d6p1:double>0.70467437569045888</d6p1:double><d6p1:double>0.5044684930496971</d6p1:double><d6p1:double>0.20930634092096612</d6p1:double><d6p1:double>1.144511470091466</d6p1:double><d6p1:double>0.65514030989028049</d6p1:double><d6p1:double>0.82195879065932542</d6p1:double><d6p1:double>1.0675778491543144</d6p1:double></Weights></Neuron><Neuron><Bias>0.59906320517262024</Bias><Output>1</Output><Weights xmlns:d6p1="http://schemas.microsoft.com/2003/10/Serialization/Arrays"><d6p1:double>-0.30550069051089185</d6p1:double><d6p1:double>0.0050970803282276841</d6p1:double><d6p1:double>0.79941124134644892</d6p1:double><d6p1:double>0.17088991613423754</d6p1:double><d6p1:double>0.12129738579036044</d6p1:double><d6p1:double>0.47593561566795595</d6p1:double><d6p1:double>0.05997283285110714</d6p1:double><d6p1:double>1.1033184468695947</d6p1:double><d6p1:double>0.24995832629810424</d6p1:double><d6p1:double>1.1532327183259081</d6p1:double><d6p1:double>0.93488473321569221</d6p1:double><d6p1:double>0.79362516003215822</d6p1:double><d6p1:double>0.31243501688146708</d6p1:double><d6p1:double>1.0435452499944968</d6p1:double><d6p1:double>1.3474933960886979</d6p1:double><d6p1:double>0.520016525999265</d6p1:double><d6p1:double>-0.0085879540387981731</d6p1:double><d6p1:double>0.91770144359007833</d6p1:double><d6p1:double>0.20551558015291108</d6p1:double><d6p1:double>0.7328855273213285</d6p1:double><d6p1:double>-0.090705770502710448</d6p1:double><d6p1:double>0.15042915133136828</d6p1:double><d6p1:double>0.12681632774053689</d6p1:double><d6p1:double>0.36356653307060466</d6p1:double><d6p1:double>0.22198137297320922</d6p1:double></Weights></Neuron><Neuron><Bias>0.07047449615984451</Bias><Output>-1</Output><Weights xmlns:d6p1="http://schemas.microsoft.com/2003/10/Serialization/Arrays"><d6p1:double>1.1915893772038555</d6p1:double><d6p1:double>1.1143152934750844</d6p1:double><d6p1:double>0.30261259515908834</d6p1:double><d6p1:double>0.90748039587011131</d6p1:double><d6p1:double>0.6618890052915517</d6p1:double><d6p1:double>0.54568745411772224</d6p1:double><d6p1:double>0.46643045223716206</d6p1:double><d6p1:double>0.37865806084663939</d6p1:double><d6p1:double>0.5264892599156783</d6p1:double><d6p1:double>0.81432529525440822</d6p1:double><d6p1:double>0.81193269712341443</d6p1:double><d6p1:double>0.51582473087759773</d6p1:double><d6p1:double>0.8228270393783409</d6p1:double><d6p1:double>0.42237925398205067</d6p1:double><d6p1:double>-0.12167278336771359</d6p1:double><d6p1:double>0.75616210260547456</d6p1:double><d6p1:double>1.044367334656644</d6p1:double><d6p1:double>0.35710463014118188</d6p1:double><d6p1:double>0.37294710441546425</d6p1:double><d6p1:double>-0.057109412624450795</d6p1:double><d6p1:double>1.4098414419668954</d6p1:double><d6p1:double>0.35172568300030355</d6p1:double><d6p1:double>0.81783374119472674</d6p1:double><d6p1:double>0.53629148143925987</d6p1:double><d6p1:double>1.0917278270277169</d6p1:double></Weights></Neuron><Neuron><Bias>0.9153615595079837</Bias><Output>1</Output><Weights xmlns:d6p1="http://schemas.microsoft.com/2003/10/Serialization/Arrays"><d6p1:double>0.77839338787586743</d6p1:double><d6p1:double>-0.43546953736143906</d6p1:double><d6p1:double>0.14586313202405768</d6p1:double><d6p1:double>1.5702422165926144</d6p1:double><d6p1:double>-0.068656260595027011</d6p1:double><d6p1:double>0.30169775382726183</d6p1:double><d6p1:double>0.74137028605667032</d6p1:double><d6p1:double>0.85662237391153018</d6p1:double><d6p1:double>1.7348084910133019</d6p1:double><d6p1:double>1.2477487314087365</d6p1:double><d6p1:double>0.41130758284406149</d6p1:double><d6p1:double>0.26124081164896695</d6p1:double><d6p1:double>0.1728487496930759</d6p1:double><d6p1:double>-0.21755098612975807</d6p1:double><d6p1:double>1.6581851197515234</d6p1:double><d6p1:double>1.4079365689635277</d6p1:double><d6p1:double>-0.006338849808452591</d6p1:double><d6p1:double>1.4632848929396649</d6p1:double><d6p1:double>-0.17539360652696748</d6p1:double><d6p1:double>-0.79564785383536918</d6p1:double><d6p1:double>0.28333667807537144</d6p1:double><d6p1:double>0.26415788766697207</d6p1:double><d6p1:double>0.045687391040312157</d6p1:double><d6p1:double>1.3902756261881606</d6p1:double><d6p1:double>-1.1897045512449211</d6p1:double></Weights></Neuron><Neuron><Bias>0.061933643833957108</Bias><Output>-1</Output><Weights xmlns:d6p1="http://schemas.microsoft.com/2003/10/Serialization/Arrays"><d6p1:double>1.2080441962544655</d6p1:double><d6p1:double>0.82458454163044181</d6p1:double><d6p1:double>1.0455037351530141</d6p1:double><d6p1:double>0.8570379549009195</d6p1:double><d6p1:double>0.10758660336800868</d6p1:double><d6p1:double>0.78507580798086452</d6p1:double><d6p1:double>0.76406781445384508</d6p1:double><d6p1:double>0.7519306494918454</d6p1:double><d6p1:double>1.2392744506986448</d6p1:double><d6p1:double>0.39559271357323245</d6p1:double><d6p1:double>0.38256611755198511</d6p1:double><d6p1:double>0.44630433329213132</d6p1:double><d6p1:double>0.31515746378170462</d6p1:double><d6p1:double>-0.29754467402128321</d6p1:double><d6p1:double>-0.47582923253892823</d6p1:double><d6p1:double>0.16099380020411397</d6p1:double><d6p1:double>0.24138744689145433</d6p1:double><d6p1:double>0.050182957079039588</d6p1:double><d6p1:double>-0.0657795601728852</d6p1:double><d6p1:double>0.80998216210804819</d6p1:double><d6p1:double>0.61330178640442568</d6p1:double><d6p1:double>0.396640311520072</d6p1:double><d6p1:double>-0.0077310149266332558</d6p1:double><d6p1:double>1.0766893019363803</d6p1:double><d6p1:double>0.13535016815435225</d6p1:double></Weights></Neuron><Neuron><Bias>0.15119583553294488</Bias><Output>-1</Output><Weights xmlns:d6p1="http://schemas.microsoft.com/2003/10/Serialization/Arrays"><d6p1:double>1.7147967716316195</d6p1:double><d6p1:double>0.096364341426771014</d6p1:double><d6p1:double>0.56432382157791661</d6p1:double><d6p1:double>0.46886068828901828</d6p1:double><d6p1:double>2.0481868775921916</d6p1:double><d6p1:double>0.086728501329941046</d6p1:double><d6p1:double>1.2519229665381737</d6p1:double><d6p1:double>-0.30213914729567265</d6p1:double><d6p1:double>0.19492494102493066</d6p1:double><d6p1:double>-0.42246252735265133</d6p1:double><d6p1:double>-0.20520407787006767</d6p1:double><d6p1:double>-0.25627727356796176</d6p1:double><d6p1:double>0.039286578063325486</d6p1:double><d6p1:double>0.2223650927516401</d6p1:double><d6p1:double>-1.0417204288304247</d6p1:double><d6p1:double>0.1704096390830136</d6p1:double><d6p1:double>-0.32765559350403695</d6p1:double><d6p1:double>0.22866844312819098</d6p1:double><d6p1:double>0.59470008402672669</d6p1:double><d6p1:double>0.37028148290844681</d6p1:double><d6p1:double>0.73877869106661764</d6p1:double><d6p1:double>1.6192933876967164</d6p1:double><d6p1:double>0.68559591828026489</d6p1:double><d6p1:double>-0.10806328527167905</d6p1:double><d6p1:double>0.64454745181424544</d6p1:double></Weights></Neuron><Neuron><Bias>0.36113042846474053</Bias><Output>1</Output><Weights xmlns:d6p1="http://schemas.microsoft.com/2003/10/Serialization/Arrays"><d6p1:double>-0.1638348818983727</d6p1:double><d6p1:double>0.78942223847311566</d6p1:double><d6p1:double>0.5230905313940386</d6p1:double><d6p1:double>-0.17938735755308691</d6p1:double><d6p1:double>-0.22520945480194013</d6p1:double><d6p1:double>1.0384374720086014</d6p1:double><d6p1:double>-1.1990132129759297</d6p1:double><d6p1:double>-0.0477963603528592</d6p1:double><d6p1:double>-0.012030089851646206</d6p1:double><d6p1:double>0.016377486326795563</d6p1:double><d6p1:double>1.1146331366646953</d6p1:double><d6p1:double>1.3172381157777475</d6p1:double><d6p1:double>1.010891440337816</d6p1:double><d6p1:double>0.74641463496595128</d6p1:double><d6p1:double>1.2516756616573885</d6p1:double><d6p1:double>1.2368598924157952</d6p1:double><d6p1:double>0.20857703461175869</d6p1:double><d6p1:double>1.255031984249626</d6p1:double><d6p1:double>0.56255680211926584</d6p1:double><d6p1:double>0.2907893453225181</d6p1:double><d6p1:double>-0.47496931194235265</d6p1:double><d6p1:double>0.39024749884556492</d6p1:double><d6p1:double>0.10595244835998742</d6p1:double><d6p1:double>1.0355988936997902</d6p1:double><d6p1:double>0.27347155055112649</d6p1:double></Weights></Neuron><Neuron><Bias>0.51621286857501358</Bias><Output>-1</Output><Weights xmlns:d6p1="http://schemas.microsoft.com/2003/10/Serialization/Arrays"><d6p1:double>1.2488378855659437</d6p1:double><d6p1:double>0.51584937475271042</d6p1:double><d6p1:double>1.1760448836481516</d6p1:double><d6p1:double>0.77695987240823949</d6p1:double><d6p1:double>0.943296926443964</d6p1:double><d6p1:double>0.81436403908228761</d6p1:double><d6p1:double>0.82067437705251445</d6p1:double><d6p1:double>-0.17439442885200807</d6p1:double><d6p1:double>0.71978764184367572</d6p1:double><d6p1:double>0.24310388421869691</d6p1:double><d6p1:double>-0.44530662543430732</d6p1:double><d6p1:double>0.46552775731408919</d6p1:double><d6p1:double>0.82702450472967337</d6p1:double><d6p1:double>0.31210772278185045</d6p1:double><d6p1:double>-0.40419846638221574</d6p1:double><d6p1:double>-0.23277349745135495</d6p1:double><d6p1:double>0.79667633369891122</d6p1:double><d6p1:double>-0.28041894843169241</d6p1:double><d6p1:double>0.96962497556839489</d6p1:double><d6p1:double>0.9462112970598372</d6p1:double><d6p1:double>1.0042066019150029</d6p1:double><d6p1:double>0.082289746617396464</d6p1:double><d6p1:double>0.16464058128941192</d6p1:double><d6p1:double>0.94224908192528234</d6p1:double><d6p1:double>1.1933063336917689</d6p1:double></Weights></Neuron><Neuron><Bias>0.28310422543789832</Bias><Output>1</Output><Weights xmlns:d6p1="http://schemas.microsoft.com/2003/10/Serialization/Arrays"><d6p1:double>0.24169416267116803</d6p1:double><d6p1:double>0.47343425121222121</d6p1:double><d6p1:double>0.40200480089693374</d6p1:double><d6p1:double>0.27896579867665161</d6p1:double><d6p1:double>0.78059971231960823</d6p1:double><d6p1:double>1.0498020059777478</d6p1:double><d6p1:double>0.53471453960468951</d6p1:double><d6p1:double>0.603989623612541</d6p1:double><d6p1:double>0.98690525701843812</d6p1:double><d6p1:double>1.1481951362201108</d6p1:double><d6p1:double>0.13496885144208</d6p1:double><d6p1:double>0.63791160496113164</d6p1:double><d6p1:double>0.80118383669261939</d6p1:double><d6p1:double>-0.41801471365648563</d6p1:double><d6p1:double>-0.24580301307849112</d6p1:double><d6p1:double>0.8708648651548262</d6p1:double><d6p1:double>1.25670631835016</d6p1:double><d6p1:double>0.72601330186373847</d6p1:double><d6p1:double>1.246274891677728</d6p1:double><d6p1:double>0.6402650757716204</d6p1:double><d6p1:double>0.90582412008039392</d6p1:double><d6p1:double>0.16881090822335265</d6p1:double><d6p1:double>0.69929748520043866</d6p1:double><d6p1:double>1.018850333799679</d6p1:double><d6p1:double>0.3255558455774904</d6p1:double></Weights></Neuron><Neuron><Bias>0.34912462010423539</Bias><Output>-1</Output><Weights xmlns:d6p1="http://schemas.microsoft.com/2003/10/Serialization/Arrays"><d6p1:double>1.7644386125990978</d6p1:double><d6p1:double>-0.016769498952121667</d6p1:double><d6p1:double>0.19900434751218318</d6p1:double><d6p1:double>0.39079437386679233</d6p1:double><d6p1:double>0.25387980328619653</d6p1:double><d6p1:double>0.3974603491256456</d6p1:double><d6p1:double>1.5446349875469851</d6p1:double><d6p1:double>-0.059023292039261911</d6p1:double><d6p1:double>0.57028022132714784</d6p1:double><d6p1:double>1.0836458242919074</d6p1:double><d6p1:double>0.028271986837578804</d6p1:double><d6p1:double>0.22336223695146934</d6p1:double><d6p1:double>0.29612160553471506</d6p1:double><d6p1:double>0.25690735782690821</d6p1:double><d6p1:double>0.51452458882495111</d6p1:double><d6p1:double>0.088488979933408221</d6p1:double><d6p1:double>0.2103672382673778</d6p1:double><d6p1:double>0.307498058532412</d6p1:double><d6p1:double>0.18436079961598623</d6p1:double><d6p1:double>0.076721901188158151</d6p1:double><d6p1:double>0.46221911805829818</d6p1:double><d6p1:double>0.92049720285501269</d6p1:double><d6p1:double>0.73678756482817742</d6p1:double><d6p1:double>0.43827881259080259</d6p1:double><d6p1:double>0.65493972348895346</d6p1:double></Weights></Neuron><Neuron><Bias>0.26625897656973857</Bias><Output>1</Output><Weights xmlns:d6p1="http://schemas.microsoft.com/2003/10/Serialization/Arrays"><d6p1:double>-0.039730906043467983</d6p1:double><d6p1:double>0.035567635674911294</d6p1:double><d6p1:double>0.90025927596613353</d6p1:double><d6p1:double>0.3099899888081018</d6p1:double><d6p1:double>0.043188761615737079</d6p1:double><d6p1:double>0.81492450493518531</d6p1:double><d6p1:double>-0.15758199897813521</d6p1:double><d6p1:double>0.74660927255518028</d6p1:double><d6p1:double>0.72053694255666723</d6p1:double><d6p1:double>0.60421644128324414</d6p1:double><d6p1:double>0.86556963575752233</d6p1:double><d6p1:double>0.9904031537620207</d6p1:double><d6p1:double>1.5097687415031029</d6p1:double><d6p1:double>0.9765748940855431</d6p1:double><d6p1:double>1.800883621194763</d6p1:double><d6p1:double>0.23615995519046462</d6p1:double><d6p1:double>0.21220631521634994</d6p1:double><d6p1:double>0.35957964964040812</d6p1:double><d6p1:double>0.10680588080426461</d6p1:double><d6p1:double>0.9422836702614561</d6p1:double><d6p1:double>-0.31339651856365663</d6p1:double><d6p1:double>0.45776006654876156</d6p1:double><d6p1:double>0.29942114230921818</d6p1:double><d6p1:double>1.1400607132787237</d6p1:double><d6p1:double>0.28026240366317051</d6p1:double></Weights></Neuron><Neuron><Bias>0.94807720422707575</Bias><Output>-1</Output><Weights xmlns:d6p1="http://schemas.microsoft.com/2003/10/Serialization/Arrays"><d6p1:double>0.77669601723498227</d6p1:double><d6p1:double>-0.49983922938042685</d6p1:double><d6p1:double>0.70693635632565688</d6p1:double><d6p1:double>0.94271003750210935</d6p1:double><d6p1:double>1.0865513966824376</d6p1:double><d6p1:double>0.79879176052449441</d6p1:double><d6p1:double>0.6552058255683797</d6p1:double><d6p1:double>0.67070019365523814</d6p1:double><d6p1:double>0.69975903272667916</d6p1:double><d6p1:double>0.86150503260161859</d6p1:double><d6p1:double>0.78214832620197372</d6p1:double><d6p1:double>-0.22251496592047312</d6p1:double><d6p1:double>0.57490463088059651</d6p1:double><d6p1:double>0.8786652849962221</d6p1:double><d6p1:double>0.40357443977676144</d6p1:double><d6p1:double>0.4111570490775997</d6p1:double><d6p1:double>0.7140205505640087</d6p1:double><d6p1:double>1.8953469050936465</d6p1:double><d6p1:double>0.35082736207780568</d6p1:double><d6p1:double>-0.040719876384913888</d6p1:double><d6p1:double>0.77768573811781072</d6p1:double><d6p1:double>0.20317002699880532</d6p1:double><d6p1:double>0.95672008988217594</d6p1:double><d6p1:double>0.25077708907858215</d6p1:double><d6p1:double>-0.61258915742247466</d6p1:double></Weights></Neuron><Neuron><Bias>0.50505895286445546</Bias><Output>-1</Output><Weights xmlns:d6p1="http://schemas.microsoft.com/2003/10/Serialization/Arrays"><d6p1:double>1.2166127369751709</d6p1:double><d6p1:double>1.653682088871135</d6p1:double><d6p1:double>-0.49536106139800867</d6p1:double><d6p1:double>0.26059882839200693</d6p1:double><d6p1:double>1.5802050935702592</d6p1:double><d6p1:double>0.0030768250750405259</d6p1:double><d6p1:double>0.978474617263206</d6p1:double><d6p1:double>-0.21844495154612353</d6p1:double><d6p1:double>0.64052428997926236</d6p1:double><d6p1:double>-0.30417878971618417</d6p1:double><d6p1:double>-0.14373183397536113</d6p1:double><d6p1:double>0.76003306981073149</d6p1:double><d6p1:double>-0.073721031711926233</d6p1:double><d6p1:double>0.25491192881600611</d6p1:double><d6p1:double>0.82803687464454556</d6p1:double><d6p1:double>-0.36016752591932166</d6p1:double><d6p1:double>0.66440950913041574</d6p1:double><d6p1:double>-0.24465729165079653</d6p1:double><d6p1:double>0.172720538171718</d6p1:double><d6p1:double>0.4994378155493796</d6p1:double><d6p1:double>0.4040136159881893</d6p1:double><d6p1:double>0.45076351290872513</d6p1:double><d6p1:double>1.0271979746303919</d6p1:double><d6p1:double>-0.15764910717827718</d6p1:double><d6p1:double>1.4073997109533034</d6p1:double></Weights></Neuron><Neuron><Bias>0.55374790607791879</Bias><Output>1</Output><Weights xmlns:d6p1="http://schemas.microsoft.com/2003/10/Serialization/Arrays"><d6p1:double>-0.39228675988845868</d6p1:double><d6p1:double>0.92045012452391817</d6p1:double><d6p1:double>0.66294802514467233</d6p1:double><d6p1:double>-0.21236129825257974</d6p1:double><d6p1:double>0.049343804315983474</d6p1:double><d6p1:double>0.86286489821186574</d6p1:double><d6p1:double>-0.33579742117940414</d6p1:double><d6p1:double>0.81274819308102908</d6p1:double><d6p1:double>0.53390822066037491</d6p1:double><d6p1:double>0.09746082893104395</d6p1:double><d6p1:double>1.0477445033246133</d6p1:double><d6p1:double>1.1997003054915487</d6p1:double><d6p1:double>0.68912914873302666</d6p1:double><d6p1:double>0.55297488294306</d6p1:double><d6p1:double>1.3397212630599327</d6p1:double><d6p1:double>0.49289254579454594</d6p1:double><d6p1:double>0.33009978108984961</d6p1:double><d6p1:double>-0.10958957394862674</d6p1:double><d6p1:double>-0.025478797565856155</d6p1:double><d6p1:double>0.48339548955105138</d6p1:double><d6p1:double>0.3625237800536677</d6p1:double><d6p1:double>-0.80330945518940711</d6p1:double><d6p1:double>0.046369380051762353</d6p1:double><d6p1:double>-0.2345926930815648</d6p1:double><d6p1:double>0.71769323385348027</d6p1:double></Weights></Neuron><Neuron><Bias>0.79214994720700849</Bias><Output>-1</Output><Weights xmlns:d6p1="http://schemas.microsoft.com/2003/10/Serialization/Arrays"><d6p1:double>0.34184733642625115</d6p1:double><d6p1:double>0.73482037709858294</d6p1:double><d6p1:double>-0.26087043088548756</d6p1:double><d6p1:double>1.2123824158646437</d6p1:double><d6p1:double>0.8206588080376318</d6p1:double><d6p1:double>0.67480013176869214</d6p1:double><d6p1:double>0.27171947978054556</d6p1:double><d6p1:double>0.11308961619872934</d6p1:double><d6p1:double>0.74953878311776534</d6p1:double><d6p1:double>0.65523032083092514</d6p1:double><d6p1:double>1.0230629562010867</d6p1:double><d6p1:double>1.0315211500917996</d6p1:double><d6p1:double>0.28542534763827809</d6p1:double><d6p1:double>0.069510578135313972</d6p1:double><d6p1:double>-0.085085720173245935</d6p1:double><d6p1:double>-0.7260669804699752</d6p1:double><d6p1:double>0.84274038704614085</d6p1:double><d6p1:double>0.76085949157503585</d6p1:double><d6p1:double>0.589600786031596</d6p1:double><d6p1:double>0.32491984936194007</d6p1:double><d6p1:double>0.5476236709583765</d6p1:double><d6p1:double>0.72975777733049818</d6p1:double><d6p1:double>1.4937828342974337</d6p1:double><d6p1:double>0.85991936428243454</d6p1:double><d6p1:double>0.88965627431883121</d6p1:double></Weights></Neuron><Neuron><Bias>0.14072527930148687</Bias><Output>1</Output><Weights xmlns:d6p1="http://schemas.microsoft.com/2003/10/Serialization/Arrays"><d6p1:double>-0.74945143866497632</d6p1:double><d6p1:double>0.40241845114837665</d6p1:double><d6p1:double>0.58299986946383042</d6p1:double><d6p1:double>0.088729392122186015</d6p1:double><d6p1:double>0.14577086966249039</d6p1:double><d6p1:double>1.0860202187037429</d6p1:double><d6p1:double>-0.60316334164093977</d6p1:double><d6p1:double>0.39283210117080142</d6p1:double><d6p1:double>1.055356293396966</d6p1:double><d6p1:double>0.61746140058774435</d6p1:double><d6p1:double>0.43555690200549824</d6p1:double><d6p1:double>0.6583969686828719</d6p1:double><d6p1:double>0.66186503029212751</d6p1:double><d6p1:double>1.175321491659872</d6p1:double><d6p1:double>1.455730395593543</d6p1:double><d6p1:double>0.57064813276276427</d6p1:double><d6p1:double>0.87401105253893074</d6p1:double><d6p1:double>0.22014994106787258</d6p1:double><d6p1:double>0.11254218870687328</d6p1:double><d6p1:double>0.71193552997637122</d6p1:double><d6p1:double>0.26961565656360187</d6p1:double><d6p1:double>0.3757602529781035</d6p1:double><d6p1:double>-0.1707680560758274</d6p1:double><d6p1:double>0.07227431891058396</d6p1:double><d6p1:double>-0.51258570842615514</d6p1:double></Weights></Neuron><Neuron><Bias>0.9180483167693928</Bias><Output>1</Output><Weights xmlns:d6p1="http://schemas.microsoft.com/2003/10/Serialization/Arrays"><d6p1:double>0.89035967813272421</d6p1:double><d6p1:double>0.18477494286114163</d6p1:double><d6p1:double>0.84120431171086829</d6p1:double><d6p1:double>0.29195323366047859</d6p1:double><d6p1:double>0.29887828696110291</d6p1:double><d6p1:double>1.1902852300333175</d6p1:double><d6p1:double>-0.91578436642398775</d6p1:double><d6p1:double>0.673173639494994</d6p1:double><d6p1:double>-0.26602422979807677</d6p1:double><d6p1:double>0.14349391914152368</d6p1:double><d6p1:double>0.36542628293710022</d6p1:double><d6p1:double>0.2632489410968214</d6p1:double><d6p1:double>1.0423254604343815</d6p1:double><d6p1:double>0.88614104105781333</d6p1:double><d6p1:double>-0.0193419728023336</d6p1:double><d6p1:double>0.64001578700761019</d6p1:double><d6p1:double>0.52757745335526507</d6p1:double><d6p1:double>0.6085089269439925</d6p1:double><d6p1:double>0.82922958102108624</d6p1:double><d6p1:double>-0.26451765294173168</d6p1:double><d6p1:double>0.0035590925810774195</d6p1:double><d6p1:double>0.67509612085629234</d6p1:double><d6p1:double>0.91886762080986106</d6p1:double><d6p1:double>1.1820816803705352</d6p1:double><d6p1:double>-0.023471741268859102</d6p1:double></Weights></Neuron><Neuron><Bias>0.55363717645501331</Bias><Output>1</Output><Weights xmlns:d6p1="http://schemas.microsoft.com/2003/10/Serialization/Arrays"><d6p1:double>-0.24568429926506563</d6p1:double><d6p1:double>1.1106515040294067</d6p1:double><d6p1:double>1.6347930190197193</d6p1:double><d6p1:double>0.54266134710532654</d6p1:double><d6p1:double>-0.27239887306351906</d6p1:double><d6p1:double>-0.16085736323617675</d6p1:double><d6p1:double>1.1764339554406853</d6p1:double><d6p1:double>0.49441100185681</d6p1:double><d6p1:double>0.84444280668907756</d6p1:double><d6p1:double>0.62019666331985768</d6p1:double><d6p1:double>0.15102762135579575</d6p1:double><d6p1:double>0.049713983659000371</d6p1:double><d6p1:double>1.9157929365650448</d6p1:double><d6p1:double>0.96286047602309821</d6p1:double><d6p1:double>-0.29264866027137043</d6p1:double><d6p1:double>1.9917887897374933</d6p1:double><d6p1:double>0.63649182691206374</d6p1:double><d6p1:double>1.0734795974370928</d6p1:double><d6p1:double>-0.058061495360410581</d6p1:double><d6p1:double>-0.26623357132499303</d6p1:double><d6p1:double>0.81106310929709435</d6p1:double><d6p1:double>-0.66222731280386871</d6p1:double><d6p1:double>0.11176801076904336</d6p1:double><d6p1:double>1.7942308285468858</d6p1:double><d6p1:double>-1.2933648731222991</d6p1:double></Weights></Neuron><Neuron><Bias>0.10053805004315447</Bias><Output>-1</Output><Weights xmlns:d6p1="http://schemas.microsoft.com/2003/10/Serialization/Arrays"><d6p1:double>1.0068675486073919</d6p1:double><d6p1:double>0.43319620014684235</d6p1:double><d6p1:double>0.32949869947782068</d6p1:double><d6p1:double>0.97349745260310783</d6p1:double><d6p1:double>2.2487550747953229</d6p1:double><d6p1:double>-0.23563643185466279</d6p1:double><d6p1:double>0.33637619636757954</d6p1:double><d6p1:double>0.12466526149982703</d6p1:double><d6p1:double>-0.31527719322508829</d6p1:double><d6p1:double>-0.21952877537009385</d6p1:double><d6p1:double>0.49645706354840829</d6p1:double><d6p1:double>0.96683579216208915</d6p1:double><d6p1:double>-1.2867541404956044</d6p1:double><d6p1:double>1.0031516099427418</d6p1:double><d6p1:double>-0.30685709699002467</d6p1:double><d6p1:double>0.37209507734075581</d6p1:double><d6p1:double>0.99922166198152618</d6p1:double><d6p1:double>-0.13911567028694025</d6p1:double><d6p1:double>0.77093422829157054</d6p1:double><d6p1:double>-0.016644263492955329</d6p1:double><d6p1:double>1.2621597221706482</d6p1:double><d6p1:double>1.1920260210164195</d6p1:double><d6p1:double>0.97715951636548215</d6p1:double><d6p1:double>0.30460232705080947</d6p1:double><d6p1:double>1.330790650833088</d6p1:double></Weights></Neuron><Neuron><Bias>0.49013583032169644</Bias><Output>1</Output><Weights xmlns:d6p1="http://schemas.microsoft.com/2003/10/Serialization/Arrays"><d6p1:double>0.87102159098309151</d6p1:double><d6p1:double>0.27619837049133211</d6p1:double><d6p1:double>1.2270702341146666</d6p1:double><d6p1:double>1.1183152074197962</d6p1:double><d6p1:double>0.33189926590095653</d6p1:double><d6p1:double>0.81526810342845024</d6p1:double><d6p1:double>0.1402737350957215</d6p1:double><d6p1:double>1.0852811445217676</d6p1:double><d6p1:double>0.75240309544221784</d6p1:double><d6p1:double>0.98111987704733317</d6p1:double><d6p1:double>0.9486461621792931</d6p1:double><d6p1:double>0.42075136547004333</d6p1:double><d6p1:double>1.1452542033861413</d6p1:double><d6p1:double>-0.029608998174056097</d6p1:double><d6p1:double>-0.090714096375343167</d6p1:double><d6p1:double>0.75275920094747506</d6p1:double><d6p1:double>1.1553524215562756</d6p1:double><d6p1:double>1.9822218264714433</d6p1:double><d6p1:double>1.5216983892199174</d6p1:double><d6p1:double>1.1033074845383815</d6p1:double><d6p1:double>0.044810697858325185</d6p1:double><d6p1:double>1.0474330395185925</d6p1:double><d6p1:double>-0.27341107734230441</d6p1:double><d6p1:double>-0.035233707146427234</d6p1:double><d6p1:double>0.83186987522124389</d6p1:double></Weights></Neuron><Neuron><Bias>0.90078392536349339</Bias><Output>-1</Output><Weights xmlns:d6p1="http://schemas.microsoft.com/2003/10/Serialization/Arrays"><d6p1:double>1.3638624950196996</d6p1:double><d6p1:double>0.072169356554254285</d6p1:double><d6p1:double>0.64042344602583312</d6p1:double><d6p1:double>0.78795355265770894</d6p1:double><d6p1:double>0.20639187772599171</d6p1:double><d6p1:double>0.080359442157110259</d6p1:double><d6p1:double>0.84133967270593557</d6p1:double><d6p1:double>0.84720689351534029</d6p1:double><d6p1:double>0.4312520834157807</d6p1:double><d6p1:double>0.033251571218278028</d6p1:double><d6p1:double>0.19538239594676124</d6p1:double><d6p1:double>0.84857198142614176</d6p1:double><d6p1:double>0.99704692208342971</d6p1:double><d6p1:double>0.25724335029658357</d6p1:double><d6p1:double>0.31859270552448993</d6p1:double><d6p1:double>0.045094472490705494</d6p1:double><d6p1:double>0.45484540647490368</d6p1:double><d6p1:double>0.98041133072579512</d6p1:double><d6p1:double>-0.37238380052555892</d6p1:double><d6p1:double>0.12025639353075275</d6p1:double><d6p1:double>0.69305653778418508</d6p1:double><d6p1:double>1.339310204878126</d6p1:double><d6p1:double>1.0724898819466018</d6p1:double><d6p1:double>1.0226642230891714</d6p1:double><d6p1:double>1.0565388829269955</d6p1:double></Weights></Neuron><Neuron><Bias>0.94574133561207752</Bias><Output>1</Output><Weights xmlns:d6p1="http://schemas.microsoft.com/2003/10/Serialization/Arrays"><d6p1:double>0.2848378573105913</d6p1:double><d6p1:double>0.69442282806739264</d6p1:double><d6p1:double>0.729354401422508</d6p1:double><d6p1:double>0.25789089377403873</d6p1:double><d6p1:double>0.35541399017657821</d6p1:double><d6p1:double>-0.57562524745642152</d6p1:double><d6p1:double>-0.15591510693301075</d6p1:double><d6p1:double>0.81887956739198775</d6p1:double><d6p1:double>0.56426354780568888</d6p1:double><d6p1:double>0.26249180598671507</d6p1:double><d6p1:double>0.74820546335738869</d6p1:double><d6p1:double>0.99497599605873377</d6p1:double><d6p1:double>1.1133783465915938</d6p1:double><d6p1:double>0.75032815637978767</d6p1:double><d6p1:double>1.0303953948312994</d6p1:double><d6p1:double>-0.053034819763540762</d6p1:double><d6p1:double>0.21688488369015968</d6p1:double><d6p1:double>0.77043225277313054</d6p1:double><d6p1:double>0.90425142015091609</d6p1:double><d6p1:double>0.90782268893848217</d6p1:double><d6p1:double>-0.51192323266233875</d6p1:double><d6p1:double>0.49055097515314106</d6p1:double><d6p1:double>0.7110428600993961</d6p1:double><d6p1:double>0.19555792583892581</d6p1:double><d6p1:double>-0.29119896923025096</d6p1:double></Weights></Neuron><Neuron><Bias>0.46754610408281727</Bias><Output>-1</Output><Weights xmlns:d6p1="http://schemas.microsoft.com/2003/10/Serialization/Arrays"><d6p1:double>1.2531479068565559</d6p1:double><d6p1:double>0.2258997567141138</d6p1:double><d6p1:double>0.068692107440488925</d6p1:double><d6p1:double>-0.53248070139239878</d6p1:double><d6p1:double>0.046242354568058391</d6p1:double><d6p1:double>0.89567303555846944</d6p1:double><d6p1:double>1.2069353016694424</d6p1:double><d6p1:double>0.43667366580223277</d6p1:double><d6p1:double>0.51781879662299246</d6p1:double><d6p1:double>0.24266360559232236</d6p1:double><d6p1:double>0.76956639995619991</d6p1:double><d6p1:double>0.96397803031997653</d6p1:double><d6p1:double>0.83366502426190026</d6p1:double><d6p1:double>-0.59331841711294631</d6p1:double><d6p1:double>1.1183473339302843</d6p1:double><d6p1:double>0.12019751131492044</d6p1:double><d6p1:double>0.39130573039527039</d6p1:double><d6p1:double>-0.083719845989271471</d6p1:double><d6p1:double>-0.030022715763144144</d6p1:double><d6p1:double>-0.57980709042911838</d6p1:double><d6p1:double>0.53814189633244125</d6p1:double><d6p1:double>0.88750169091289643</d6p1:double><d6p1:double>0.81911765386154867</d6p1:double><d6p1:double>-0.12805797105540442</d6p1:double><d6p1:double>1.2784731415958495</d6p1:double></Weights></Neuron><Neuron><Bias>0.43694318118168179</Bias><Output>-1</Output><Weights xmlns:d6p1="http://schemas.microsoft.com/2003/10/Serialization/Arrays"><d6p1:double>0.081320436226191312</d6p1:double><d6p1:double>0.56618601108810651</d6p1:double><d6p1:double>0.66904230203307413</d6p1:double><d6p1:double>0.079233369037983281</d6p1:double><d6p1:double>1.1239269960498088</d6p1:double><d6p1:double>0.34264001491547158</d6p1:double><d6p1:double>0.9489506201163409</d6p1:double><d6p1:double>0.7046120114055231</d6p1:double><d6p1:double>0.154200450341167</d6p1:double><d6p1:double>-0.086737958629819034</d6p1:double><d6p1:double>0.50208980231832989</d6p1:double><d6p1:double>0.5261759776508389</d6p1:double><d6p1:double>0.14413954271053886</d6p1:double><d6p1:double>0.012851306680412079</d6p1:double><d6p1:double>0.58370352049751384</d6p1:double><d6p1:double>0.37696995287502039</d6p1:double><d6p1:double>0.89552553170126059</d6p1:double><d6p1:double>0.30341362101551794</d6p1:double><d6p1:double>0.20189933778093447</d6p1:double><d6p1:double>-0.08474274958216553</d6p1:double><d6p1:double>0.16717772977270945</d6p1:double><d6p1:double>1.0288572353383227</d6p1:double><d6p1:double>1.3835531471250602</d6p1:double><d6p1:double>0.14865599588860248</d6p1:double><d6p1:double>0.50284406885442945</d6p1:double></Weights></Neuron><Neuron><Bias>0.35672003451500939</Bias><Output>1</Output><Weights xmlns:d6p1="http://schemas.microsoft.com/2003/10/Serialization/Arrays"><d6p1:double>1.0046466616417635</d6p1:double><d6p1:double>0.0011210561448053225</d6p1:double><d6p1:double>1.3283851670939157</d6p1:double><d6p1:double>0.83383565245443458</d6p1:double><d6p1:double>0.10941597247022578</d6p1:double><d6p1:double>2.2926501892042417</d6p1:double><d6p1:double>0.53347185937794472</d6p1:double><d6p1:double>0.78800473080038769</d6p1:double><d6p1:double>0.79486507723294</d6p1:double><d6p1:double>1.3648312670814011</d6p1:double><d6p1:double>0.49515691790500449</d6p1:double><d6p1:double>-0.13296091306579633</d6p1:double><d6p1:double>1.245568982138801</d6p1:double><d6p1:double>-0.0026099594032745637</d6p1:double><d6p1:double>0.54393105604364211</d6p1:double><d6p1:double>0.6022588868682115</d6p1:double><d6p1:double>0.42815386790109333</d6p1:double><d6p1:double>1.6365055183148398</d6p1:double><d6p1:double>0.025720667000546031</d6p1:double><d6p1:double>-0.11683265280720941</d6p1:double><d6p1:double>0.76860544103525341</d6p1:double><d6p1:double>-0.15079495652932032</d6p1:double><d6p1:double>0.75217546433722182</d6p1:double><d6p1:double>2.08296933210187</d6p1:double><d6p1:double>-0.1889374597069273</d6p1:double></Weights></Neuron><Neuron><Bias>0.32291711825936781</Bias><Output>1</Output><Weights xmlns:d6p1="http://schemas.microsoft.com/2003/10/Serialization/Arrays"><d6p1:double>-0.42220283975181711</d6p1:double><d6p1:double>0.55670698974103938</d6p1:double><d6p1:double>0.52425310957170945</d6p1:double><d6p1:double>0.49796273870589691</d6p1:double><d6p1:double>-0.439538918255583</d6p1:double><d6p1:double>0.91261094681046062</d6p1:double><d6p1:double>0.40024643790982578</d6p1:double><d6p1:double>0.40379586501773307</d6p1:double><d6p1:double>0.93795540918859566</d6p1:double><d6p1:double>0.76884362000679829</d6p1:double><d6p1:double>0.76385205455731708</d6p1:double><d6p1:double>0.60693583480711411</d6p1:double><d6p1:double>0.20832714577155889</d6p1:double><d6p1:double>1.6173109980359472</d6p1:double><d6p1:double>0.9726880464408193</d6p1:double><d6p1:double>0.37633938441714743</d6p1:double><d6p1:double>0.46935964573775868</d6p1:double><d6p1:double>0.057728481400369458</d6p1:double><d6p1:double>0.61785889015079865</d6p1:double><d6p1:double>0.42961877638350904</d6p1:double><d6p1:double>1.0671599023757719</d6p1:double><d6p1:double>0.50774304788102076</d6p1:double><d6p1:double>0.8289119796486607</d6p1:double><d6p1:double>-0.12202362490216935</d6p1:double><d6p1:double>1.234763507584163</d6p1:double></Weights></Neuron><Neuron><Bias>0.3528019326564038</Bias><Output>-1</Output><Weights xmlns:d6p1="http://schemas.microsoft.com/2003/10/Serialization/Arrays"><d6p1:double>2.3267833052678104</d6p1:double><d6p1:double>-0.050238099765816682</d6p1:double><d6p1:double>0.584114244986733</d6p1:double><d6p1:double>1.3540897333726956</d6p1:double><d6p1:double>0.43922909413036126</d6p1:double><d6p1:double>1.0316488565387356</d6p1:double><d6p1:double>0.52664254879605477</d6p1:double><d6p1:double>0.20675000147875247</d6p1:double><d6p1:double>-0.26437820861753386</d6p1:double><d6p1:double>1.120750499924924</d6p1:double><d6p1:double>-0.17691091838142933</d6p1:double><d6p1:double>-0.54416346065293952</d6p1:double><d6p1:double>0.1164647034568331</d6p1:double><d6p1:double>-0.78803326548843744</d6p1:double><d6p1:double>-0.57330817347139473</d6p1:double><d6p1:double>-0.063964677449876689</d6p1:double><d6p1:double>0.35579090193652457</d6p1:double><d6p1:double>-0.20519745768833916</d6p1:double><d6p1:double>-0.46938239127223291</d6p1:double><d6p1:double>0.5335631953922203</d6p1:double><d6p1:double>0.30586165972256585</d6p1:double><d6p1:double>0.274759165114726</d6p1:double><d6p1:double>0.698522295627654</d6p1:double><d6p1:double>2.6740728190691252</d6p1:double><d6p1:double>1.4021354317202885</d6p1:double></Weights></Neuron><Neuron><Bias>0.22375483024037085</Bias><Output>-1</Output><Weights xmlns:d6p1="http://schemas.microsoft.com/2003/10/Serialization/Arrays"><d6p1:double>0.7639912176464464</d6p1:double><d6p1:double>-0.21405029341800288</d6p1:double><d6p1:double>0.22330269016556017</d6p1:double><d6p1:double>0.41819717286682917</d6p1:double><d6p1:double>0.70530430963679847</d6p1:double><d6p1:double>0.059929272150688745</d6p1:double><d6p1:double>1.1283621266056916</d6p1:double><d6p1:double>0.50813908027895949</d6p1:double><d6p1:double>0.70888636348423273</d6p1:double><d6p1:double>0.5836124534075513</d6p1:double><d6p1:double>0.90675627523986191</d6p1:double><d6p1:double>0.14715092011212474</d6p1:double><d6p1:double>0.27071154442964462</d6p1:double><d6p1:double>0.760316379417256</d6p1:double><d6p1:double>-0.12060030411706033</d6p1:double><d6p1:double>0.51176122594252227</d6p1:double><d6p1:double>0.47617989376389447</d6p1:double><d6p1:double>0.18755560544005417</d6p1:double><d6p1:double>0.43215644673888021</d6p1:double><d6p1:double>0.44608599906173929</d6p1:double><d6p1:double>0.71087739586421927</d6p1:double><d6p1:double>1.7127875246360289</d6p1:double><d6p1:double>0.33721983915011305</d6p1:double><d6p1:double>-0.089001983224446246</d6p1:double><d6p1:double>0.7500234630067828</d6p1:double></Weights></Neuron><Neuron><Bias>0.9199169488598673</Bias><Output>1</Output><Weights xmlns:d6p1="http://schemas.microsoft.com/2003/10/Serialization/Arrays"><d6p1:double>-0.22449878397881662</d6p1:double><d6p1:double>-0.0665597031730501</d6p1:double><d6p1:double>0.019388911431032815</d6p1:double><d6p1:double>0.22770527510998956</d6p1:double><d6p1:double>-0.26904211829631663</d6p1:double><d6p1:double>0.77143073311392818</d6p1:double><d6p1:double>-0.30013245287257062</d6p1:double><d6p1:double>0.75353258838792136</d6p1:double><d6p1:double>0.75442343473971907</d6p1:double><d6p1:double>-0.16868165215330372</d6p1:double><d6p1:double>0.33046714138458305</d6p1:double><d6p1:double>0.84530912263600388</d6p1:double><d6p1:double>0.11759539599425671</d6p1:double><d6p1:double>1.2556342861135361</d6p1:double><d6p1:double>0.38052248753932327</d6p1:double><d6p1:double>1.4379106453741568</d6p1:double><d6p1:double>0.82259161931585245</d6p1:double><d6p1:double>0.90859349816521873</d6p1:double><d6p1:double>0.47817800758664281</d6p1:double><d6p1:double>0.64062855530533436</d6p1:double><d6p1:double>0.2440749159750161</d6p1:double><d6p1:double>0.09517729644810298</d6p1:double><d6p1:double>0.79103771930885469</d6p1:double><d6p1:double>0.1576800543847032</d6p1:double><d6p1:double>0.26128054418934948</d6p1:double></Weights></Neuron><Neuron><Bias>0.84841909669567217</Bias><Output>-1</Output><Weights xmlns:d6p1="http://schemas.microsoft.com/2003/10/Serialization/Arrays"><d6p1:double>1.6741564453395417</d6p1:double><d6p1:double>0.15738875699892854</d6p1:double><d6p1:double>1.0897242795592554</d6p1:double><d6p1:double>0.26948404862017122</d6p1:double><d6p1:double>0.058914129493562305</d6p1:double><d6p1:double>1.5654299564836183</d6p1:double><d6p1:double>1.0320630511482474</d6p1:double><d6p1:double>0.78669897167389913</d6p1:double><d6p1:double>0.044069687854214404</d6p1:double><d6p1:double>0.23432587506317032</d6p1:double><d6p1:double>0.7212238014979887</d6p1:double><d6p1:double>0.13175987249608587</d6p1:double><d6p1:double>0.6451463314158663</d6p1:double><d6p1:double>-0.047482101754198085</d6p1:double><d6p1:double>0.3656172858645656</d6p1:double><d6p1:double>0.73712376316268924</d6p1:double><d6p1:double>0.93454907621556083</d6p1:double><d6p1:double>0.89708776775699517</d6p1:double><d6p1:double>0.80245140083161737</d6p1:double><d6p1:double>-0.84861760833958066</d6p1:double><d6p1:double>-0.40048573567655771</d6p1:double><d6p1:double>0.51733271790132584</d6p1:double><d6p1:double>0.49840021468718032</d6p1:double><d6p1:double>0.76646883276290656</d6p1:double><d6p1:double>0.11839269906097531</d6p1:double></Weights></Neuron><Neuron><Bias>0.91896133451937956</Bias><Output>1</Output><Weights xmlns:d6p1="http://schemas.microsoft.com/2003/10/Serialization/Arrays"><d6p1:double>0.3124367916692648</d6p1:double><d6p1:double>1.0556030770140878</d6p1:double><d6p1:double>0.76936490806501745</d6p1:double><d6p1:double>0.421480186116897</d6p1:double><d6p1:double>0.26027035817314376</d6p1:double><d6p1:double>1.5515445986991827</d6p1:double><d6p1:double>0.3507995086636338</d6p1:double><d6p1:double>0.14059889523838712</d6p1:double><d6p1:double>1.1678214714928059</d6p1:double><d6p1:double>1.1633865894244046</d6p1:double><d6p1:double>0.9135727845225079</d6p1:double><d6p1:double>0.79443558955402138</d6p1:double><d6p1:double>1.0246459848785963</d6p1:double><d6p1:double>-0.17571558791964498</d6p1:double><d6p1:double>-0.13254925597951339</d6p1:double><d6p1:double>-0.080526111231640829</d6p1:double><d6p1:double>0.63696998025744989</d6p1:double><d6p1:double>0.636064446928039</d6p1:double><d6p1:double>-0.15805765193348015</d6p1:double><d6p1:double>-0.44774936159089174</d6p1:double><d6p1:double>0.75122587938777685</d6p1:double><d6p1:double>-0.12301267855633559</d6p1:double><d6p1:double>0.30314601095924121</d6p1:double><d6p1:double>1.3673650250474016</d6p1:double><d6p1:double>0.92237189217926741</d6p1:double></Weights></Neuron><Neuron><Bias>0.89153577552671515</Bias><Output>1</Output><Weights xmlns:d6p1="http://schemas.microsoft.com/2003/10/Serialization/Arrays"><d6p1:double>0.23127495389194858</d6p1:double><d6p1:double>0.8091977529818889</d6p1:double><d6p1:double>1.002437700251644</d6p1:double><d6p1:double>0.582149587101693</d6p1:double><d6p1:double>-0.18703101158369478</d6p1:double><d6p1:double>0.31596875420905618</d6p1:double><d6p1:double>-0.58637187007985436</d6p1:double><d6p1:double>0.34328726130935916</d6p1:double><d6p1:double>0.71280891814927949</d6p1:double><d6p1:double>0.12564432962476482</d6p1:double><d6p1:double>0.43350443353961254</d6p1:double><d6p1:double>0.71701605374363953</d6p1:double><d6p1:double>1.127473838567925</d6p1:double><d6p1:double>1.2176892217306108</d6p1:double><d6p1:double>0.84359202210850226</d6p1:double><d6p1:double>1.0656883124210048</d6p1:double><d6p1:double>0.62733010214589868</d6p1:double><d6p1:double>0.39847638462170049</d6p1:double><d6p1:double>-0.0068906221671799451</d6p1:double><d6p1:double>0.050451291960204106</d6p1:double><d6p1:double>0.2087738230288905</d6p1:double><d6p1:double>0.076211463840849231</d6p1:double><d6p1:double>0.71696106938194093</d6p1:double><d6p1:double>0.98087873404026449</d6p1:double><d6p1:double>0.318596603690907</d6p1:double></Weights></Neuron><Neuron><Bias>0.13425216169002185</Bias><Output>-1</Output><Weights 