<?xml version="1.0" encoding="utf-16"?><NeuralNetwork xmlns:i="http://www.w3.org/2001/XMLSchema-instance" xmlns="http://schemas.datacontract.org/2004/07/AE.MachineLearning.NeuralNet.Core"><_networkLayers><NetworkLayer><_isInputLayer>true</_isInputLayer><_neurons><Neuron><Bias>0</Bias><Output>-1003.888796</Output><Weights xmlns:d6p1="http://schemas.microsoft.com/2003/10/Serialization/Arrays"><d6p1:double>1</d6p1:double></Weights></Neuron><Neuron><Bias>0</Bias><Output>99.7346757</Output><Weights xmlns:d6p1="http://schemas.microsoft.com/2003/10/Serialization/Arrays"><d6p1:double>1</d6p1:double></Weights></Neuron><Neuron><Bias>0</Bias><Output>656.188731</Output><Weights xmlns:d6p1="http://schemas.microsoft.com/2003/10/Serialization/Arrays"><d6p1:double>1</d6p1:double></Weights></Neuron><Neuron><Bias>0</Bias><Output>-101.2632666</Output><Weights xmlns:d6p1="http://schemas.microsoft.com/2003/10/Serialization/Arrays"><d6p1:double>1</d6p1:double></Weights></Neuron><Neuron><Bias>0</Bias><Output>-712.5407464</Output><Weights xmlns:d6p1="http://schemas.microsoft.com/2003/10/Serialization/Arrays"><d6p1:double>1</d6p1:double></Weights></Neuron><Neuron><Bias>0</Bias><Output>-218.8568689</Output><Weights xmlns:d6p1="http://schemas.microsoft.com/2003/10/Serialization/Arrays"><d6p1:double>1</d6p1:double></Weights></Neuron><Neuron><Bias>0</Bias><Output>-543.6679743</Output><Weights xmlns:d6p1="http://schemas.microsoft.com/2003/10/Serialization/Arrays"><d6p1:double>1</d6p1:double></Weights></Neuron><Neuron><Bias>0</Bias><Output>256.0470238</Output><Weights xmlns:d6p1="http://schemas.microsoft.com/2003/10/Serialization/Arrays"><d6p1:double>1</d6p1:double></Weights></Neuron><Neuron><Bias>0</Bias><Output>-375.9740615</Output><Weights xmlns:d6p1="http://schemas.microsoft.com/2003/10/Serialization/Arrays"><d6p1:double>1</d6p1:double></Weights></Neuron><Neuron><Bias>0</Bias><Output>139.6749711</Output><Weights xmlns:d6p1="http://schemas.microsoft.com/2003/10/Serialization/Arrays"><d6p1:double>1</d6p1:double></Weights></Neuron><Neuron><Bias>0</Bias><Output>112.0551432</Output><Weights xmlns:d6p1="http://schemas.microsoft.com/2003/10/Serialization/Arrays"><d6p1:double>1</d6p1:double></Weights></Neuron><Neuron><Bias>0</Bias><Output>55.11060021</Output><Weights xmlns:d6p1="http://schemas.microsoft.com/2003/10/Serialization/Arrays"><d6p1:double>1</d6p1:double></Weights></Neuron><Neuron><Bias>0</Bias><Output>583.974903</Output><Weights xmlns:d6p1="http://schemas.microsoft.com/2003/10/Serialization/Arrays"><d6p1:double>1</d6p1:double></Weights></Neuron><Neuron><Bias>0</Bias><Output>-129.8331591</Output><Weights xmlns:d6p1="http://schemas.microsoft.com/2003/10/Serialization/Arrays"><d6p1:double>1</d6p1:double></Weights></Neuron><Neuron><Bias>0</Bias><Output>384.374502</Output><Weights xmlns:d6p1="http://schemas.microsoft.com/2003/10/Serialization/Arrays"><d6p1:double>1</d6p1:double></Weights></Neuron><Neuron><Bias>0</Bias><Output>707.6621492</Output><Weights xmlns:d6p1="http://schemas.microsoft.com/2003/10/Serialization/Arrays"><d6p1:double>1</d6p1:double></Weights></Neuron><Neuron><Bias>0</Bias><Output>-206.0695753</Output><Weights xmlns:d6p1="http://schemas.microsoft.com/2003/10/Serialization/Arrays"><d6p1:double>1</d6p1:double></Weights></Neuron><Neuron><Bias>0</Bias><Output>27.86720355</Output><Weights xmlns:d6p1="http://schemas.microsoft.com/2003/10/Serialization/Arrays"><d6p1:double>1</d6p1:double></Weights></Neuron><Neuron><Bias>0</Bias><Output>452.5315824</Output><Weights xmlns:d6p1="http://schemas.microsoft.com/2003/10/Serialization/Arrays"><d6p1:double>1</d6p1:double></Weights></Neuron><Neuron><Bias>0</Bias><Output>108.9841613</Output><Weights xmlns:d6p1="http://schemas.microsoft.com/2003/10/Serialization/Arrays"><d6p1:double>1</d6p1:double></Weights></Neuron><Neuron><Bias>0</Bias><Output>-327.436527</Output><Weights xmlns:d6p1="http://schemas.microsoft.com/2003/10/Serialization/Arrays"><d6p1:double>1</d6p1:double></Weights></Neuron><Neuron><Bias>0</Bias><Output>-386.1563253</Output><Weights xmlns:d6p1="http://schemas.microsoft.com/2003/10/Serialization/Arrays"><d6p1:double>1</d6p1:double></Weights></Neuron><Neuron><Bias>0</Bias><Output>-558.0306571</Output><Weights xmlns:d6p1="http://schemas.microsoft.com/2003/10/Serialization/Arrays"><d6p1:double>1</d6p1:double></Weights></Neuron><Neuron><Bias>0</Bias><Output>790.9654693</Output><Weights xmlns:d6p1="http://schemas.microsoft.com/2003/10/Serialization/Arrays"><d6p1:double>1</d6p1:double></Weights></Neuron><Neuron><Bias>0</Bias><Output>-211.894788</Output><Weights xmlns:d6p1="http://schemas.microsoft.com/2003/10/Serialization/Arrays"><d6p1:double>1</d6p1:double></Weights></Neuron></_neurons><_numOfNeurons>25</_numOfNeurons><_numberOfInputsPerNeuron>1</_numberOfInputsPerNeuron></NetworkLayer><NetworkLayer><_isInputLayer>false</_isInputLayer><_neurons><Neuron><Bias>-0.99900034694250528</Bias><Output>1</Output><Weights xmlns:d6p1="http://schemas.microsoft.com/2003/10/Serialization/Arrays"><d6p1:double>1.1965741250790585</d6p1:double><d6p1:double>0.13529395496883961</d6p1:double><d6p1:double>0.1396346792313401</d6p1:double><d6p1:double>-0.60911817778807154</d6p1:double><d6p1:double>-0.81079892515884966</d6p1:double><d6p1:double>-0.057407001727518205</d6p1:double><d6p1:double>-0.503967029724527</d6p1:double><d6p1:double>-0.67812119811586014</d6p1:double><d6p1:double>0.30663242055167717</d6p1:double><d6p1:double>0.847778129817052</d6p1:double><d6p1:double>0.16178109847960273</d6p1:double><d6p1:double>1.2454873743106587</d6p1:double><d6p1:double>0.32050869799714293</d6p1:double><d6p1:double>-1.1078278135791488</d6p1:double><d6p1:double>0.39129421860702629</d6p1:double><d6p1:double>0.25632990571001141</d6p1:double><d6p1:double>-0.21169823624844131</d6p1:double><d6p1:double>0.21006008128579451</d6p1:double><d6p1:double>0.86891787216786653</d6p1:double><d6p1:double>0.076570962783615373</d6p1:double><d6p1:double>0.44445860545506471</d6p1:double><d6p1:double>-0.10113586326154012</d6p1:double><d6p1:double>-0.63577477724417164</d6p1:double><d6p1:double>0.72941820392774581</d6p1:double><d6p1:double>0.47482919140408836</d6p1:double></Weights></Neuron><Neuron><Bias>-0.0017730864913921478</Bias><Output>-1</Output><Weights xmlns:d6p1="http://schemas.microsoft.com/2003/10/Serialization/Arrays"><d6p1:double>1.0436276647167542</d6p1:double><d6p1:double>0.91770503503166723</d6p1:double><d6p1:double>-0.14473002222353026</d6p1:double><d6p1:double>0.838119389879342</d6p1:double><d6p1:double>1.4884505758872149</d6p1:double><d6p1:double>0.093901932923637688</d6p1:double><d6p1:double>-0.23484522820960829</d6p1:double><d6p1:double>0.14021673172624263</d6p1:double><d6p1:double>-0.059857373828600041</d6p1:double><d6p1:double>0.119970127285077</d6p1:double><d6p1:double>0.86979001039449777</d6p1:double><d6p1:double>0.31448035037478117</d6p1:double><d6p1:double>-0.27054350017389722</d6p1:double><d6p1:double>0.67135229382737227</d6p1:double><d6p1:double>0.18280389366145278</d6p1:double><d6p1:double>0.70725540141402421</d6p1:double><d6p1:double>0.58311961252663336</d6p1:double><d6p1:double>0.75280068939629763</d6p1:double><d6p1:double>0.339195951449041</d6p1:double><d6p1:double>0.0030458878960719785</d6p1:double><d6p1:double>0.60102545885526137</d6p1:double><d6p1:double>0.60170652559677362</d6p1:double><d6p1:double>0.49039466534675924</d6p1:double><d6p1:double>-0.20350956147348581</d6p1:double><d6p1:double>1.0083358580646433</d6p1:double></Weights></Neuron><Neuron><Bias>-1.0002637798657872</Bias><Output>-1</Output><Weights xmlns:d6p1="http://schemas.microsoft.com/2003/10/Serialization/Arrays"><d6p1:double>-0.65094088732332789</d6p1:double><d6p1:double>0.153779361764022</d6p1:double><d6p1:double>0.012583860267301973</d6p1:double><d6p1:double>0.66795904251771088</d6p1:double><d6p1:double>1.1014855433739152</d6p1:double><d6p1:double>-0.95730644392438624</d6p1:double><d6p1:double>0.95282275680201156</d6p1:double><d6p1:double>0.607876756733626</d6p1:double><d6p1:double>-0.12283405173875651</d6p1:double><d6p1:double>-0.13899812065502451</d6p1:double><d6p1:double>0.55356995829676148</d6p1:double><d6p1:double>-0.37932746142129</d6p1:double><d6p1:double>-0.25637542905237942</d6p1:double><d6p1:double>0.8394249383348</d6p1:double><d6p1:double>0.35328900703494864</d6p1:double><d6p1:double>0.82084554392993969</d6p1:double><d6p1:double>1.2497647112275254</d6p1:double><d6p1:double>0.7773271605236689</d6p1:double><d6p1:double>0.48345711360193633</d6p1:double><d6p1:double>0.625729751092916</d6p1:double><d6p1:double>0.83961177875666093</d6p1:double><d6p1:double>0.18548108706730423</d6p1:double><d6p1:double>0.40578840009834288</d6p1:double><d6p1:double>-0.66709416902914886</d6p1:double><d6p1:double>0.86802792331774559</d6p1:double></Weights></Neuron><Neuron><Bias>0.00024069132301976113</Bias><Output>-1</Output><Weights xmlns:d6p1="http://schemas.microsoft.com/2003/10/Serialization/Arrays"><d6p1:double>-0.086258757286120064</d6p1:double><d6p1:double>-0.34940783522804036</d6p1:double><d6p1:double>-0.8742401386702775</d6p1:double><d6p1:double>-0.51173486128453016</d6p1:double><d6p1:double>0.313009431492848</d6p1:double><d6p1:double>-0.23620579554100249</d6p1:double><d6p1:double>-0.63703038256913846</d6p1:double><d6p1:double>-0.49223864733955697</d6p1:double><d6p1:double>0.19248356197410693</d6p1:double><d6p1:double>0.41822952190994495</d6p1:double><d6p1:double>0.2598633875085683</d6p1:double><d6p1:double>2.0153907295874336</d6p1:double><d6p1:double>-1.1220445029317816</d6p1:double><d6p1:double>0.420508685629567</d6p1:double><d6p1:double>0.88208843732358888</d6p1:double><d6p1:double>0.40337351987625392</d6p1:double><d6p1:double>0.44657462530019981</d6p1:double><d6p1:double>-0.60443167381297291</d6p1:double><d6p1:double>0.624634854045625</d6p1:double><d6p1:double>0.014404962620837127</d6p1:double><d6p1:double>-0.17725378856188392</d6p1:double><d6p1:double>0.7944388205269528</d6p1:double><d6p1:double>0.4908720639863528</d6p1:double><d6p1:double>-0.29386050487417725</d6p1:double><d6p1:double>0.66445089431284032</d6p1:double></Weights></Neuron><Neuron><Bias>-0.00071329601082428188</Bias><Output>-1</Output><Weights xmlns:d6p1="http://schemas.microsoft.com/2003/10/Serialization/Arrays"><d6p1:double>0.20528262161184638</d6p1:double><d6p1:double>-0.09712602951933981</d6p1:double><d6p1:double>0.13851456912322713</d6p1:double><d6p1:double>0.71827674616839432</d6p1:double><d6p1:double>0.27677653254537049</d6p1:double><d6p1:double>0.22283460986968681</d6p1:double><d6p1:double>0.94268548399481256</d6p1:double><d6p1:double>0.49962803795594962</d6p1:double><d6p1:double>1.4578551166106013</d6p1:double><d6p1:double>0.58286771013636318</d6p1:double><d6p1:double>0.76577550739977707</d6p1:double><d6p1:double>1.009508547099462</d6p1:double><d6p1:double>1.1284951318990428</d6p1:double><d6p1:double>0.42436915201367287</d6p1:double><d6p1:double>0.17856703448781064</d6p1:double><d6p1:double>0.47626277120559773</d6p1:double><d6p1:double>0.13425585931910117</d6p1:double><d6p1:double>0.64503572507540619</d6p1:double><d6p1:double>1.072338440002792</d6p1:double><d6p1:double>0.38113342868310707</d6p1:double><d6p1:double>1.0332476394616033</d6p1:double><d6p1:double>0.57758251428360652</d6p1:double><d6p1:double>0.83237148780989134</d6p1:double><d6p1:double>0.21710301754215244</d6p1:double><d6p1:double>0.60925971285215486</d6p1:double></Weights></Neuron><Neuron><Bias>-1.0010646300843415</Bias><Output>-1</Output><Weights xmlns:d6p1="http://schemas.microsoft.com/2003/10/Serialization/Arrays"><d6p1:double>0.54679487908119573</d6p1:double><d6p1:double>0.24540324613273076</d6p1:double><d6p1:double>0.20913155088535579</d6p1:double><d6p1:double>1.0898755845554036</d6p1:double><d6p1:double>0.53952509155081829</d6p1:double><d6p1:double>0.26401571324757755</d6p1:double><d6p1:double>0.36707056019414191</d6p1:double><d6p1:double>0.2366548423421983</d6p1:double><d6p1:double>0.2462026623046204</d6p1:double><d6p1:double>1.2596550978366177</d6p1:double><d6p1:double>0.95414716979319236</d6p1:double><d6p1:double>0.90032976707045276</d6p1:double><d6p1:double>-0.21381343317852475</d6p1:double><d6p1:double>0.32736799130893879</d6p1:double><d6p1:double>-1.0188109567111734</d6p1:double><d6p1:double>-0.692476907803543</d6p1:double><d6p1:double>0.0233032728543527</d6p1:double><d6p1:double>0.35386889054999271</d6p1:double><d6p1:double>0.1002265808952103</d6p1:double><d6p1:double>0.39369552579259259</d6p1:double><d6p1:double>-0.10782776690210608</d6p1:double><d6p1:double>0.686640076587743</d6p1:double><d6p1:double>0.15016551863917504</d6p1:double><d6p1:double>1.1881018449821352</d6p1:double><d6p1:double>0.463583198739746</d6p1:double></Weights></Neuron><Neuron><Bias>-1.0000871091782502</Bias><Output>1</Output><Weights xmlns:d6p1="http://schemas.microsoft.com/2003/10/Serialization/Arrays"><d6p1:double>0.26318706450908447</d6p1:double><d6p1:double>0.71846960500607038</d6p1:double><d6p1:double>-0.046566613741943125</d6p1:double><d6p1:double>0.13513682733710955</d6p1:double><d6p1:double>0.5949455184395489</d6p1:double><d6p1:double>0.73891163166628282</d6p1:double><d6p1:double>0.57659194047285145</d6p1:double><d6p1:double>0.76667257382932552</d6p1:double><d6p1:double>-0.087285621151576565</d6p1:double><d6p1:double>0.6112732333658254</d6p1:double><d6p1:double>0.37538766798954337</d6p1:double><d6p1:double>-0.22058978097914345</d6p1:double><d6p1:double>0.79795510418246129</d6p1:double><d6p1:double>0.59287549450042876</d6p1:double><d6p1:double>0.46630503235590814</d6p1:double><d6p1:double>0.87735131839236291</d6p1:double><d6p1:double>0.84520213492695717</d6p1:double><d6p1:double>0.562054411558571</d6p1:double><d6p1:double>0.74201940408048028</d6p1:double><d6p1:double>0.49815960296466938</d6p1:double><d6p1:double>0.51148222447437564</d6p1:double><d6p1:double>0.28500669656210764</d6p1:double><d6p1:double>0.43536947754389038</d6p1:double><d6p1:double>0.22510366225084744</d6p1:double><d6p1:double>0.20606230312898691</d6p1:double></Weights></Neuron><Neuron><Bias>-0.00091863883627247471</Bias><Output>-1</Output><Weights xmlns:d6p1="http://schemas.microsoft.com/2003/10/Serialization/Arrays"><d6p1:double>1.1451749841736232</d6p1:double><d6p1:double>-0.10137576541554398</d6p1:double><d6p1:double>-0.22570365671442072</d6p1:double><d6p1:double>0.909696637273546</d6p1:double><d6p1:double>0.08737697248547896</d6p1:double><d6p1:double>0.4324755885031506</d6p1:double><d6p1:double>0.51108324175891684</d6p1:double><d6p1:double>0.57271472425284353</d6p1:double><d6p1:double>-0.17240348528521721</d6p1:double><d6p1:double>0.686531318320385</d6p1:double><d6p1:double>1.0093536777947663</d6p1:double><d6p1:double>1.1059621121558636</d6p1:double><d6p1:double>0.1111077150084525</d6p1:double><d6p1:double>-0.41290459628946558</d6p1:double><d6p1:double>0.66874186062356689</d6p1:double><d6p1:double>0.26863174777307181</d6p1:double><d6p1:double>0.452424432553103</d6p1:double><d6p1:double>0.65147661738116036</d6p1:double><d6p1:double>0.46966283830008437</d6p1:double><d6p1:double>0.0120206003832395</d6p1:double><d6p1:double>0.52449679226317591</d6p1:double><d6p1:double>0.42918896577547927</d6p1:double><d6p1:double>-0.16824856230123139</d6p1:double><d6p1:double>0.47086473540831381</d6p1:double><d6p1:double>1.0063561543430346</d6p1:double></Weights></Neuron><Neuron><Bias>-0.99953173605396783</Bias><Output>-1</Output><Weights xmlns:d6p1="http://schemas.microsoft.com/2003/10/Serialization/Arrays"><d6p1:double>0.38941108644857286</d6p1:double><d6p1:double>0.47523667126136904</d6p1:double><d6p1:double>0.44798928296040164</d6p1:double><d6p1:double>0.67521309573699773</d6p1:double><d6p1:double>0.45499398320682183</d6p1:double><d6p1:double>0.10955039526611265</d6p1:double><d6p1:double>0.44769192959869125</d6p1:double><d6p1:double>0.9559901763175146</d6p1:double><d6p1:double>0.23059677001740775</d6p1:double><d6p1:double>-0.50267045594103588</d6p1:double><d6p1:double>0.483792478912195</d6p1:double><d6p1:double>-0.10068393543329072</d6p1:double><d6p1:double>0.34943297560049097</d6p1:double><d6p1:double>0.89778777912190411</d6p1:double><d6p1:double>0.552504427094062</d6p1:double><d6p1:double>-0.7533476771990012</d6p1:double><d6p1:double>0.46047194640982969</d6p1:double><d6p1:double>0.09481079899433939</d6p1:double><d6p1:double>-0.36313154515206258</d6p1:double><d6p1:double>0.998436761068853</d6p1:double><d6p1:double>0.83225583959824723</d6p1:double><d6p1:double>0.61605464410230915</d6p1:double><d6p1:double>1.4782686280693189</d6p1:double><d6p1:double>0.22207062292233562</d6p1:double><d6p1:double>0.71612325482341566</d6p1:double></Weights></Neuron><Neuron><Bias>-0.00084880326163410031</Bias><Output>-1</Output><Weights xmlns:d6p1="http://schemas.microsoft.com/2003/10/Serialization/Arrays"><d6p1:double>0.58259130172021045</d6p1:double><d6p1:double>-0.38928183340531292</d6p1:double><d6p1:double>0.57194467945854821</d6p1:double><d6p1:double>0.43581134761818535</d6p1:double><d6p1:double>0.92995095551473328</d6p1:double><d6p1:double>0.44816414171395264</d6p1:double><d6p1:double>0.29391974271277249</d6p1:double><d6p1:double>0.3760204691999347</d6p1:double><d6p1:double>0.51857441856370934</d6p1:double><d6p1:double>0.670116900347051</d6p1:double><d6p1:double>0.91044510729829475</d6p1:double><d6p1:double>0.48507356805491691</d6p1:double><d6p1:double>-0.25620939458425768</d6p1:double><d6p1:double>0.50282683375874349</d6p1:double><d6p1:double>-0.17484671840161825</d6p1:double><d6p1:double>1.174491451756</d6p1:double><d6p1:double>0.19234036119799927</d6p1:double><d6p1:double>0.35758818421277022</d6p1:double><d6p1:double>1.2106467069989277</d6p1:double><d6p1:double>0.21036503375509483</d6p1:double><d6p1:double>0.01586899435171792</d6p1:double><d6p1:double>0.69944439687622972</d6p1:double><d6p1:double>0.93244368597180871</d6p1:double><d6p1:double>0.68288168195821286</d6p1:double><d6p1:double>-0.42511433173095525</d6p1:double></Weights></Neuron><Neuron><Bias>-0.00012709795617833779</Bias><Output>-1</Output><Weights xmlns:d6p1="http://schemas.microsoft.com/2003/10/Serialization/Arrays"><d6p1:double>0.1771149489674162</d6p1:double><d6p1:double>0.65021424344405643</d6p1:double><d6p1:double>0.79762187179048327</d6p1:double><d6p1:double>1.3402570638257636</d6p1:double><d6p1:double>0.21379591171501369</d6p1:double><d6p1:double>0.30315141355597947</d6p1:double><d6p1:double>0.85892056476193623</d6p1:double><d6p1:double>-0.57101363050794474</d6p1:double><d6p1:double>1.0016002547102762</d6p1:double><d6p1:double>-0.52928218254945292</d6p1:double><d6p1:double>-0.25554802283543576</d6p1:double><d6p1:double>0.41278402636141626</d6p1:double><d6p1:double>1.3307052538194424</d6p1:double><d6p1:double>0.34730924778150613</d6p1:double><d6p1:double>0.024010445535763071</d6p1:double><d6p1:double>-0.1554454464254531</d6p1:double><d6p1:double>0.5577201946649939</d6p1:double><d6p1:double>-0.031589850293500088</d6p1:double><d6p1:double>-0.078208653614459223</d6p1:double><d6p1:double>0.688464501484633</d6p1:double><d6p1:double>0.57788466078517564</d6p1:double><d6p1:double>0.4338377501352686</d6p1:double><d6p1:double>0.76043665051670262</d6p1:double><d6p1:double>0.96871927159571447</d6p1:double><d6p1:double>0.19974154504593339</d6p1:double></Weights></Neuron><Neuron><Bias>0.00042216718786885734</Bias><Output>1</Output><Weights xmlns:d6p1="http://schemas.microsoft.com/2003/10/Serialization/Arrays"><d6p1:double>-0.2179032570472926</d6p1:double><d6p1:double>0.17887478976774834</d6p1:double><d6p1:double>-0.22937083841740666</d6p1:double><d6p1:double>-0.20068821982245544</d6p1:double><d6p1:double>0.44568451178135032</d6p1:double><d6p1:double>0.71064449652726025</d6p1:double><d6p1:double>-1.0539712938683217</d6p1:double><d6p1:double>-0.58104779975170784</d6p1:double><d6p1:double>1.2031406280353916</d6p1:double><d6p1:double>0.84013164165086129</d6p1:double><d6p1:double>0.40478672471555477</d6p1:double><d6p1:double>1.3561072527215061</d6p1:double><d6p1:double>-0.18880957925508804</d6p1:double><d6p1:double>1.0149872804794107</d6p1:double><d6p1:double>1.3044175301207406</d6p1:double><d6p1:double>0.99346161964849677</d6p1:double><d6p1:double>0.099328501367390992</d6p1:double><d6p1:double>0.42005409413244976</d6p1:double><d6p1:double>1.6904968457787934</d6p1:double><d6p1:double>-0.51208104578619285</d6p1:double><d6p1:double>-0.19026928415901298</d6p1:double><d6p1:double>0.41085840995973266</d6p1:double><d6p1:double>0.1700150455291326</d6p1:double><d6p1:double>-0.085968092232917639</d6p1:double><d6p1:double>-0.44616536888250391</d6p1:double></Weights></Neuron><Neuron><Bias>0.00042005499751562837</Bias><Output>-1</Output><Weights xmlns:d6p1="http://schemas.microsoft.com/2003/10/Serialization/Arrays"><d6p1:double>0.81662027504081036</d6p1:double><d6p1:double>0.595350630419812</d6p1:double><d6p1:double>0.67717507292518619</d6p1:double><d6p1:double>0.97701200302442737</d6p1:double><d6p1:double>-0.42419440139580339</d6p1:double><d6p1:double>0.70181308647463958</d6p1:double><d6p1:double>0.18059998686624412</d6p1:double><d6p1:double>-0.021787859125932021</d6p1:double><d6p1:double>0.19036653831378039</d6p1:double><d6p1:double>0.71822676699361609</d6p1:double><d6p1:double>0.92474712752414379</d6p1:double><d6p1:double>0.43665605207687541</d6p1:double><d6p1:double>0.77151263606241582</d6p1:double><d6p1:double>-0.31590709620134572</d6p1:double><d6p1:double>-0.4405959880897794</d6p1:double><d6p1:double>-0.68495975194771086</d6p1:double><d6p1:double>-0.053783882290062715</d6p1:double><d6p1:double>-0.31310647749133336</d6p1:double><d6p1:double>-0.27268069418860291</d6p1:double><d6p1:double>0.77006064308202216</d6p1:double><d6p1:double>0.73166091620161389</d6p1:double><d6p1:double>-0.19698174883076211</d6p1:double><d6p1:double>0.43334387253562212</d6p1:double><d6p1:double>0.536623639001704</d6p1:double><d6p1:double>1.3840093214308784</d6p1:double></Weights></Neuron><Neuron><Bias>-0.9999579171799573</Bias><Output>-1</Output><Weights xmlns:d6p1="http://schemas.microsoft.com/2003/10/Serialization/Arrays"><d6p1:double>0.4911886226389815</d6p1:double><d6p1:double>0.37788558496310792</d6p1:double><d6p1:double>-0.6486996412352698</d6p1:double><d6p1:double>1.0101691040112608</d6p1:double><d6p1:double>0.17049633793344385</d6p1:double><d6p1:double>0.608181294585221</d6p1:double><d6p1:double>-0.98292312247789415</d6p1:double><d6p1:double>0.021744583250152945</d6p1:double><d6p1:double>0.19738212751169287</d6p1:double><d6p1:double>1.1372761060096281</d6p1:double><d6p1:double>0.62967670007050836</d6p1:double><d6p1:double>1.8545620941695513</d6p1:double><d6p1:double>-1.0502034911645195</d6p1:double><d6p1:double>-0.39940822998329706</d6p1:double><d6p1:double>0.90320851970816962</d6p1:double><d6p1:double>-0.55574393943711431</d6p1:double><d6p1:double>-0.3364706821574277</d6p1:double><d6p1:double>-0.29077812932671959</d6p1:double><d6p1:double>-0.42184014513667656</d6p1:double><d6p1:double>0.26577416451480651</d6p1:double><d6p1:double>-0.10651972158817349</d6p1:double><d6p1:double>0.59871333082568978</d6p1:double><d6p1:double>-0.74175585796248511</d6p1:double><d6p1:double>-0.3489122404912654</d6p1:double><d6p1:double>0.62885392386299788</d6p1:double></Weights></Neuron><Neuron><Bias>-1.0001308271308558</Bias><Output>-1</Output><Weights xmlns:d6p1="http://schemas.microsoft.com/2003/10/Serialization/Arrays"><d6p1:double>0.60509328749307889</d6p1:double><d6p1:double>0.3659546570770259</d6p1:double><d6p1:double>0.29602122893578381</d6p1:double><d6p1:double>0.59208786119752788</d6p1:double><d6p1:double>1.2748740498768913</d6p1:double><d6p1:double>1.40176929873236</d6p1:double><d6p1:double>0.80106664292928476</d6p1:double><d6p1:double>1.2238883219715582</d6p1:double><d6p1:double>1.1977572783318373</d6p1:double><d6p1:double>-0.037754098668745462</d6p1:double><d6p1:double>-0.62334980926148664</d6p1:double><d6p1:double>0.19935864370539003</d6p1:double><d6p1:double>0.11170043113715117</d6p1:double><d6p1:double>-0.072893128131461843</d6p1:double><d6p1:double>0.99334352142232463</d6p1:double><d6p1:double>0.468105256319981</d6p1:double><d6p1:double>0.24971074046595509</d6p1:double><d6p1:double>0.31116542517271889</d6p1:double><d6p1:double>-0.1070238652852693</d6p1:double><d6p1:double>-0.90016251910426226</d6p1:double><d6p1:double>-0.22220696786611008</d6p1:double><d6p1:double>0.77748792738975</d6p1:double><d6p1:double>0.83918638271383261</d6p1:double><d6p1:double>0.62827162006340431</d6p1:double><d6p1:double>-0.12559818794066871</d6p1:double></Weights></Neuron><Neuron><Bias>-0.997781293957686</Bias><Output>1</Output><Weights xmlns:d6p1="http://schemas.microsoft.com/2003/10/Serialization/Arrays"><d6p1:double>0.43331604886445885</d6p1:double><d6p1:double>0.620427622683685</d6p1:double><d6p1:double>0.4821531817620614</d6p1:double><d6p1:double>-0.19108407324272539</d6p1:double><d6p1:double>0.35256578967369295</d6p1:double><d6p1:double>0.36626333903058939</d6p1:double><d6p1:double>-0.4240147917599425</d6p1:double><d6p1:double>0.291444608814217</d6p1:double><d6p1:double>0.79510210980743345</d6p1:double><d6p1:double>0.63780882330852118</d6p1:double><d6p1:double>0.44975659877455182</d6p1:double><d6p1:double>0.22007155393545649</d6p1:double><d6p1:double>-0.010087964980632066</d6p1:double><d6p1:double>0.21392848737929071</d6p1:double><d6p1:double>1.9290972361664438</d6p1:double><d6p1:double>0.4340202403201685</d6p1:double><d6p1:double>0.7067437770283993</d6p1:double><d6p1:double>0.59770239975445127</d6p1:double><d6p1:double>0.72765913695350748</d6p1:double><d6p1:double>0.34797082343993585</d6p1:double><d6p1:double>0.48819955058409692</d6p1:double><d6p1:double>0.78230301263965585</d6p1:double><d6p1:double>-0.46576272411597319</d6p1:double><d6p1:double>0.98130200506080778</d6p1:double><d6p1:double>0.21756701649768592</d6p1:double></Weights></Neuron><Neuron><Bias>0.0005739328181486173</Bias><Output>1</Output><Weights xmlns:d6p1="http://schemas.microsoft.com/2003/10/Serialization/Arrays"><d6p1:double>0.29606113535488071</d6p1:double><d6p1:double>0.15063121144804492</d6p1:double><d6p1:double>0.28656270169948467</d6p1:double><d6p1:double>-0.21287670077854254</d6p1:double><d6p1:double>-0.2277087154446035</d6p1:double><d6p1:double>0.20390444548682357</d6p1:double><d6p1:double>0.22396952750757593</d6p1:double><d6p1:double>1.2331513336469277</d6p1:double><d6p1:double>-0.49080058332001864</d6p1:double><d6p1:double>0.28299720627591735</d6p1:double><d6p1:double>1.0725065085081649</d6p1:double><d6p1:double>0.91730783887803069</d6p1:double><d6p1:double>-0.070776189987115615</d6p1:double><d6p1:double>0.4484442827898677</d6p1:double><d6p1:double>0.094862098846210732</d6p1:double><d6p1:double>1.3013288559421914</d6p1:double><d6p1:double>-0.32700127098196519</d6p1:double><d6p1:double>1.3497227543829409</d6p1:double><d6p1:double>0.47739228540481965</d6p1:double><d6p1:double>0.016319172448087595</d6p1:double><d6p1:double>0.4960552404027011</d6p1:double><d6p1:double>-0.012680655336582584</d6p1:double><d6p1:double>-0.028023877895110849</d6p1:double><d6p1:double>-0.028350689735043774</d6p1:double><d6p1:double>-0.16528091866859229</d6p1:double></Weights></Neuron><Neuron><Bias>-1.0003990400347929</Bias><Output>-1</Output><Weights xmlns:d6p1="http://schemas.microsoft.com/2003/10/Serialization/Arrays"><d6p1:double>1.5572869968307019</d6p1:double><d6p1:double>0.38523317280868791</d6p1:double><d6p1:double>1.1190007275652445</d6p1:double><d6p1:double>0.4256080645098449</d6p1:double><d6p1:double>0.49455996312368256</d6p1:double><d6p1:double>0.70409453361923124</d6p1:double><d6p1:double>0.024506116027644218</d6p1:double><d6p1:double>-0.46550864442952294</d6p1:double><d6p1:double>-0.25682252201547717</d6p1:double><d6p1:double>1.0040059810449562</d6p1:double><d6p1:double>-0.498067508553778</d6p1:double><d6p1:double>1.0386160780535645</d6p1:double><d6p1:double>-0.0766681613333068</d6p1:double><d6p1:double>-0.39638499322508741</d6p1:double><d6p1:double>0.16890714075282862</d6p1:double><d6p1:double>0.5004097074270577</d6p1:double><d6p1:double>0.52118475162511479</d6p1:double><d6p1:double>0.49923344316369089</d6p1:double><d6p1:double>0.504505168122155</d6p1:double><d6p1:double>-0.8834039898956062</d6p1:double><d6p1:double>0.8548473755603665</d6p1:double><d6p1:double>0.15245409183904929</d6p1:double><d6p1:double>0.51291706920199365</d6p1:double><d6p1:double>0.70293481738651586</d6p1:double><d6p1:double>0.64001735549346372</d6p1:double></Weights></Neuron><Neuron><Bias>-0.0017436035176411938</Bias><Output>-1</Output><Weights xmlns:d6p1="http://schemas.microsoft.com/2003/10/Serialization/Arrays"><d6p1:double>0.41392851758338234</d6p1:double><d6p1:double>0.25051681156848576</d6p1:double><d6p1:double>0.11115023715782026</d6p1:double><d6p1:double>-0.61045291432970739</d6p1:double><d6p1:double>-0.042657597232781022</d6p1:double><d6p1:double>-0.053339166777821134</d6p1:double><d6p1:double>1.5748357074493968</d6p1:double><d6p1:double>-0.144450160057361</d6p1:double><d6p1:double>-0.19051775865496762</d6p1:double><d6p1:double>0.40947048050693075</d6p1:double><d6p1:double>0.38198979804738931</d6p1:double><d6p1:double>0.19163442463917915</d6p1:double><d6p1:double>0.49636223361058329</d6p1:double><d6p1:double>-0.49527490552150544</d6p1:double><d6p1:double>0.62336053163211724</d6p1:double><d6p1:double>0.16344273481611171</d6p1:double><d6p1:double>0.63392869097021143</d6p1:double><d6p1:double>0.42274250709361005</d6p1:double><d6p1:double>0.417070355189235</d6p1:double><d6p1:double>-0.7501094362934343</d6p1:double><d6p1:double>1.151072077028886</d6p1:double><d6p1:double>0.38723816374476733</d6p1:double><d6p1:double>0.2167546651278259</d6p1:double><d6p1:double>0.27729967109362896</d6p1:double><d6p1:double>0.60103710827375212</d6p1:double></Weights></Neuron><Neuron><Bias>-1.0009857525302537</Bias><Output>-1</Output><Weights xmlns:d6p1="http://schemas.microsoft.com/2003/10/Serialization/Arrays"><d6p1:double>1.058741597646744</d6p1:double><d6p1:double>0.28965787609727911</d6p1:double><d6p1:double>0.56575232401353659</d6p1:double><d6p1:double>1.0887970071406712</d6p1:double><d6p1:double>0.019039665234349988</d6p1:double><d6p1:double>-0.54250773281713927</d6p1:double><d6p1:double>-1.1120837073352858</d6p1:double><d6p1:double>0.82186597776078052</d6p1:double><d6p1:double>0.57965599631771425</d6p1:double><d6p1:double>-0.071155970508395464</d6p1:double><d6p1:double>0.8549810525414453</d6p1:double><d6p1:double>0.16596321647812828</d6p1:double><d6p1:double>-0.84339896683193283</d6p1:double><d6p1:double>1.3299461583168439</d6p1:double><d6p1:double>-1.3724691734039103</d6p1:double><d6p1:double>-0.085869909399080971</d6p1:double><d6p1:double>-0.69828091374142</d6p1:double><d6p1:double>-0.22199401230020854</d6p1:double><d6p1:double>-0.14707073390346134</d6p1:double><d6p1:double>-0.26452384912530169</d6p1:double><d6p1:double>-0.098370630318137725</d6p1:double><d6p1:double>0.64659887941371685</d6p1:double><d6p1:double>0.74666574696188015</d6p1:double><d6p1:double>0.49049166812296957</d6p1:double><d6p1:double>1.1172018686335903</d6p1:double></Weights></Neuron><Neuron><Bias>-0.00050599055472988854</Bias><Output>-1</Output><Weights xmlns:d6p1="http://schemas.microsoft.com/2003/10/Serialization/Arrays"><d6p1:double>0.844854950681627</d6p1:double><d6p1:double>0.682943661097004</d6p1:double><d6p1:double>0.1151229646974978</d6p1:double><d6p1:double>1.0320221476449563</d6p1:double><d6p1:double>0.34364013024570417</d6p1:double><d6p1:double>0.71976599945863307</d6p1:double><d6p1:double>0.12982291655049355</d6p1:double><d6p1:double>-0.088428955486860569</d6p1:double><d6p1:double>1.0880698862145675</d6p1:double><d6p1:double>0.95113061070979288</d6p1:double><d6p1:double>1.2592420676282026</d6p1:double><d6p1:double>0.19541421500886333</d6p1:double><d6p1:double>0.3649116802976663</d6p1:double><d6p1:double>0.45165935435260546</d6p1:double><d6p1:double>0.46232410354722164</d6p1:double><d6p1:double>-0.71665990750721231</d6p1:double><d6p1:double>0.6363651079953514</d6p1:double><d6p1:double>0.95172304954169318</d6p1:double><d6p1:double>0.26749396089955829</d6p1:double><d6p1:double>1.0097460263823166</d6p1:double><d6p1:double>0.81306116606412582</d6p1:double><d6p1:double>0.64889334477177074</d6p1:double><d6p1:double>-0.541107335176585</d6p1:double><d6p1:double>-0.020449096886684233</d6p1:double><d6p1:double>-0.062770174981194346</d6p1:double></Weights></Neuron><Neuron><Bias>-0.0013701637663824059</Bias><Output>-1</Output><Weights xmlns:d6p1="http://schemas.microsoft.com/2003/10/Serialization/Arrays"><d6p1:double>1.2299278536469813</d6p1:double><d6p1:double>0.10505278505140862</d6p1:double><d6p1:double>0.55408571993247968</d6p1:double><d6p1:double>-0.1664002096003605</d6p1:double><d6p1:double>-0.16847320037259186</d6p1:double><d6p1:double>1.1432575779897305</d6p1:double><d6p1:double>1.4490932872696047</d6p1:double><d6p1:double>0.18125188419253549</d6p1:double><d6p1:double>0.32564966706285603</d6p1:double><d6p1:double>-0.04196608089242574</d6p1:double><d6p1:double>-0.42308330630018448</d6p1:double><d6p1:double>0.73802981727441319</d6p1:double><d6p1:double>0.4549084571708315</d6p1:double><d6p1:double>-0.49185586554201488</d6p1:double><d6p1:double>1.0332252398038519</d6p1:double><d6p1:double>0.35025116185540511</d6p1:double><d6p1:double>-0.35544505339028265</d6p1:double><d6p1:double>-0.22496083895295554</d6p1:double><d6p1:double>-0.59676133666496334</d6p1:double><d6p1:double>-0.40508825370203122</d6p1:double><d6p1:double>-0.1751826914907253</d6p1:double><d6p1:double>-0.46248410450110639</d6p1:double><d6p1:double>1.0814184151433632</d6p1:double><d6p1:double>0.4178943349135873</d6p1:double><d6p1:double>0.57243131766675959</d6p1:double></Weights></Neuron><Neuron><Bias>0.0010782474713564871</Bias><Output>1</Output><Weights xmlns:d6p1="http://schemas.microsoft.com/2003/10/Serialization/Arrays"><d6p1:double>-0.013984899966759581</d6p1:double><d6p1:double>-0.30467512276630748</d6p1:double><d6p1:double>0.66680039375728972</d6p1:double><d6p1:double>0.064379989508723839</d6p1:double><d6p1:double>0.672685965714636</d6p1:double><d6p1:double>1.0065561215631065</d6p1:double><d6p1:double>0.47633995311141364</d6p1:double><d6p1:double>0.491018359615928</d6p1:double><d6p1:double>0.95982105383831728</d6p1:double><d6p1:double>1.3589524055707993</d6p1:double><d6p1:double>0.75395643011295188</d6p1:double><d6p1:double>0.54484474561947838</d6p1:double><d6p1:double>0.40863778823053981</d6p1:double><d6p1:double>0.99927129844755325</d6p1:double><d6p1:double>0.73302796314791463</d6p1:double><d6p1:double>0.73308486640234471</d6p1:double><d6p1:double>-0.10072479129506952</d6p1:double><d6p1:double>0.95526143663614549</d6p1:double><d6p1:double>0.8005433600833689</d6p1:double><d6p1:double>0.49351709751606782</d6p1:double><d6p1:double>0.857883612732567</d6p1:double><d6p1:double>0.22662024182500196</d6p1:double><d6p1:double>0.69394090961332544</d6p1:double><d6p1:double>0.39173460892276757</d6p1:double><d6p1:double>0.33682980124036915</d6p1:double></Weights></Neuron><Neuron><Bias>-0.00056457590311131847</Bias><Output>1</Output><Weights xmlns:d6p1="http://schemas.microsoft.com/2003/10/Serialization/Arrays"><d6p1:double>0.28228611472923343</d6p1:double><d6p1:double>0.32446065671481639</d6p1:double><d6p1:double>0.97506656386111379</d6p1:double><d6p1:double>1.2191790262047788</d6p1:double><d6p1:double>0.6457056936396437</d6p1:double><d6p1:double>1.1072273292696826</d6p1:double><d6p1:double>0.0075165581205815712</d6p1:double><d6p1:double>0.7832099745658182</d6p1:double><d6p1:double>0.85989264095855555</d6p1:double><d6p1:double>0.59080658745830783</d6p1:double><d6p1:double>0.83417890428756347</d6p1:double><d6p1:double>-0.24440845779205209</d6p1:double><d6p1:double>0.58440277777226446</d6p1:double><d6p1:double>0.51406380151526621</d6p1:double><d6p1:double>0.366765018088313</d6p1:double><d6p1:double>0.82653023447451668</d6p1:double><d6p1:double>-0.091449918562575047</d6p1:double><d6p1:double>1.2307951548556437</d6p1:double><d6p1:double>0.844826350062812</d6p1:double><d6p1:double>0.45918450947208411</d6p1:double><d6p1:double>0.084922286837229424</d6p1:double><d6p1:double>0.37902540780503635</d6p1:double><d6p1:double>0.84240637878826485</d6p1:double><d6p1:double>-0.13133863825696018</d6p1:double><d6p1:double>0.45661418150219457</d6p1:double></Weights></Neuron><Neuron><Bias>-0.00074832027050188859</Bias><Output>-1</Output><Weights xmlns:d6p1="http://schemas.microsoft.com/2003/10/Serialization/Arrays"><d6p1:double>0.6787274161801885</d6p1:double><d6p1:double>0.45149136561156117</d6p1:double><d6p1:double>-0.19594773447201744</d6p1:double><d6p1:double>1.1801803373246966</d6p1:double><d6p1:double>-0.41947328680050538</d6p1:double><d6p1:double>0.70668064362647454</d6p1:double><d6p1:double>-0.72567399055080328</d6p1:double><d6p1:double>0.62496078004368016</d6p1:double><d6p1:double>0.68758736417007427</d6p1:double><d6p1:double>-0.050366151908052409</d6p1:double><d6p1:double>0.62450067105695</d6p1:double><d6p1:double>1.0523372571694525</d6p1:double><d6p1:double>-0.75851406787987974</d6p1:double><d6p1:double>-0.24366215011451961</d6p1:double><d6p1:double>-0.57957613269896169</d6p1:double><d6p1:double>-0.24939263339320464</d6p1:double><d6p1:double>0.0032182685850713983</d6p1:double><d6p1:double>0.18393224050107704</d6p1:double><d6p1:double>-0.99989484096780423</d6p1:double><d6p1:double>-1.1030451747337375</d6p1:double><d6p1:double>-0.24446799018066537</d6p1:double><d6p1:double>0.72086811231324943</d6p1:double><d6p1:double>-0.047705297860561512</d6p1:double><d6p1:double>0.93448552022396214</d6p1:double><d6p1:double>1.3063470320833981</d6p1:double></Weights></Neuron><Neuron><Bias>0.0010189377046936595</Bias><Output>-1</Output><Weights xmlns:d6p1="http://schemas.microsoft.com/2003/10/Serialization/Arrays"><d6p1:double>0.15317246699627576</d6p1:double><d6p1:double>-0.50536280595743577</d6p1:double><d6p1:double>-0.23849280584958024</d6p1:double><d6p1:double>-0.17057746972214666</d6p1:double><d6p1:double>0.32772636284648216</d6p1:double><d6p1:double>0.643886652142028</d6p1:double><d6p1:double>-0.30402998397915493</d6p1:double><d6p1:double>0.452581864992077</d6p1:double><d6p1:double>1.3026348583092722</d6p1:double><d6p1:double>0.68559328287452448</d6p1:double><d6p1:double>0.67464735483676885</d6p1:double><d6p1:double>0.96002304466574706</d6p1:double><d6p1:double>-0.12987523529532782</d6p1:double><d6p1:double>0.41727091775696379</d6p1:double><d6p1:double>0.68827780438022479</d6p1:double><d6p1:double>0.71953822387041877</d6p1:double><d6p1:double>0.85876068973054509</d6p1:double><d6p1:double>0.89276014876804388</d6p1:double><d6p1:double>0.220165141434378</d6p1:double><d6p1:double>-0.12091312140106514</d6p1:double><d6p1:double>1.2210750822735639</d6p1:double><d6p1:double>0.58353761281775629</d6p1:double><d6p1:double>0.75791756635237861</d6p1:double><d6p1:double>-0.00092943654305905742</d6p1:double><d6p1:double>0.028320782396324254</d6p1:double></Weights></Neuron><Neuron><Bias>-0.00063524995446693881</Bias><Output>-1</Output><Weights xmlns:d6p1="http://schemas.microsoft.com/2003/10/Serialization/Arrays"><d6p1:double>0.64254288949154015</d6p1:double><d6p1:double>0.70274951301332866</d6p1:double><d6p1:double>0.4765562128707917</d6p1:double><d6p1:double>0.77667073200948056</d6p1:double><d6p1:double>0.1516160058491143</d6p1:double><d6p1:double>-0.234189488960894</d6p1:double><d6p1:double>1.381900441048195</d6p1:double><d6p1:double>0.32693710048593533</d6p1:double><d6p1:double>0.053139916586681948</d6p1:double><d6p1:double>0.55186224507667248</d6p1:double><d6p1:double>0.89464450353806912</d6p1:double><d6p1:double>0.33691382881125059</d6p1:double><d6p1:double>0.42351877068155525</d6p1:double><d6p1:double>0.66165841511387558</d6p1:double><d6p1:double>0.31539121828260169</d6p1:double><d6p1:double>-0.2549946493905223</d6p1:double><d6p1:double>0.22099222641557054</d6p1:double><d6p1:double>0.99330932406081318</d6p1:double><d6p1:double>0.66501596993473877</d6p1:double><d6p1:double>0.23097421754706171</d6p1:double><d6p1:double>0.60015561755205427</d6p1:double><d6p1:double>1.1600655673590274</d6p1:double><d6p1:double>0.710637361929352</d6p1:double><d6p1:double>0.65069067350715537</d6p1:double><d6p1:double>0.57405864500081116</d6p1:double></Weights></Neuron><Neuron><Bias>-1.000678923126413</Bias><Output>1</Output><Weights xmlns:d6p1="http://schemas.microsoft.com/2003/10/Serialization/Arrays"><d6p1:double>-0.30936786029339874</d6p1:double><d6p1:double>0.54381853482148323</d6p1:double><d6p1:double>1.5643643430770588</d6p1:double><d6p1:double>1.4117381960454196</d6p1:double><d6p1:double>0.21815858939048616</d6p1:double><d6p1:double>-0.73512035535801856</d6p1:double><d6p1:double>-0.34550813598070707</d6p1:double><d6p1:double>0.49859460908942177</d6p1:double><d6p1:double>-0.097328973961585075</d6p1:double><d6p1:double>0.6919492151278448</d6p1:double><d6p1:double>0.24399548781440419</d6p1:double><d6p1:double>-1.3063352579452381</d6p1:double><d6p1:double>-0.68373695479257335</d6p1:double><d6p1:double>1.3257013985369999</d6p1:double><d6p1:double>0.50264545164305108</d6p1:double><d6p1:double>-0.19560556995796258</d6p1:double><d6p1:double>0.6011729069562709</d6p1:double><d6p1:double>0.78417199943661908</d6p1:double><d6p1:double>0.067214898617877272</d6p1:double><d6p1:double>1.0743012458151606</d6p1:double><d6p1:double>-0.8369215489142009</d6p1:double><d6p1:double>1.0746212733324685</d6p1:double><d6p1:double>-0.44069677607931057</d6p1:double><d6p1:double>0.13978445999083042</d6p1:double><d6p1:double>-0.096455345280842264</d6p1:double></Weights></Neuron><Neuron><Bias>-0.00015428734067855266</Bias><Output>-1</Output><Weights xmlns:d6p1="http://schemas.microsoft.com/2003/10/Serialization/Arrays"><d6p1:double>0.17614010121512555</d6p1:double><d6p1:double>0.765200410226176</d6p1:double><d6p1:double>-0.021183199913358628</d6p1:double><d6p1:double>0.39706911318254784</d6p1:double><d6p1:double>0.98180656116990517</d6p1:double><d6p1:double>0.57719696165355761</d6p1:double><d6p1:double>1.0830039228913879</d6p1:double><d6p1:double>0.81336844846144951</d6p1:double><d6p1:double>0.65500204208091684</d6p1:double><d6p1:double>-0.16013111994722112</d6p1:double><d6p1:double>0.098736531285997187</d6p1:double><d6p1:double>-0.10490956396688302</d6p1:double><d6p1:double>1.0221664908180772</d6p1:double><d6p1:double>0.98949831864273552</d6p1:double><d6p1:double>0.27821711268797911</d6p1:double><d6p1:double>-0.29954689918576305</d6p1:double><d6p1:double>0.10214931538174342</d6p1:double><d6p1:double>-0.21240397075039791</d6p1:double><d6p1:double>0.40970137895282333</d6p1:double><d6p1:double>-0.17427826051641521</d6p1:double><d6p1:double>0.64217388421992216</d6p1:double><d6p1:double>1.1955853467397433</d6p1:double><d6p1:double>0.61353833702464311</d6p1:double><d6p1:double>0.89578134944661858</d6p1:double><d6p1:double>0.962462691075488</d6p1:double></Weights></Neuron><Neuron><Bias>-1.0002551636876897</Bias><Output>-1</Output><Weights xmlns:d6p1="http://schemas.microsoft.com/2003/10/Serialization/Arrays"><d6p1:double>0.53833012092197419</d6p1:double><d6p1:double>0.73526020323129793</d6p1:double><d6p1:double>0.15530645584624164</d6p1:double><d6p1:double>0.75183673511227656</d6p1:double><d6p1:double>-0.052587312583665335</d6p1:double><d6p1:double>0.12840829267882989</d6p1:double><d6p1:double>0.64045104311907131</d6p1:double><d6p1:double>0.69177951590369979</d6p1:double><d6p1:double>1.0975133959142638</d6p1:double><d6p1:double>0.10278659370008776</d6p1:double><d6p1:double>0.36495987760076343</d6p1:double><d6p1:double>0.029658323443442793</d6p1:double><d6p1:double>1.1519815425930393</d6p1:double><d6p1:double>0.2903738396620163</d6p1:double><d6p1:double>-0.101185138759383</d6p1:double><d6p1:double>-0.48380868618151324</d6p1:double><d6p1:double>0.14481735388125477</d6p1:double><d6p1:double>0.33335940037516043</d6p1:double><d6p1:double>-0.097274057009659118</d6p1:double><d6p1:double>0.82505193203975913</d6p1:double><d6p1:double>0.67744463210590267</d6p1:double><d6p1:double>-0.23418430449974409</d6p1:double><d6p1:double>0.22248213603057718</d6p1:double><d6p1:double>0.2043305272520643</d6p1:double><d6p1:double>0.652575026932693</d6p1:double></Weights></Neuron><Neuron><Bias>0.00071596761689226532</Bias><Output>1</Output><Weights xmlns:d6p1="http://schemas.microsoft.com/2003/10/Serialization/Arrays"><d6p1:double>-0.23734624779003582</d6p1:double><d6p1:double>-0.58258259186367067</d6p1:double><d6p1:double>0.64598327459836291</d6p1:double><d6p1:double>-0.038035238309443206</d6p1:double><d6p1:double>0.34766274913087697</d6p1:double><d6p1:double>0.23890121535892517</d6p1:double><d6p1:double>0.29448689771866071</d6p1:double><d6p1:double>-0.63483344453233237</d6p1:double><d6p1:double>0.92841780645766181</d6p1:double><d6p1:double>1.2264931702482846</d6p1:double><d6p1:double>0.03610941863358836</d6p1:double><d6p1:double>0.84792826339733685</d6p1:double><d6p1:double>0.085129705342003953</d6p1:double><d6p1:double>-0.25066445108302488</d6p1:double><d6p1:double>1.3777349123077045</d6p1:double><d6p1:double>0.77668253514805941</d6p1:double><d6p1:double>0.70901040372862245</d6p1:double><d6p1:double>1.0797319824167326</d6p1:double><d6p1:double>0.61280612526585321</d6p1:double><d6p1:double>0.859912028221337</d6p1:double><d6p1:double>-0.18268272440769787</d6p1:double><d6p1:double>0.55164043662014561</d6p1:double><d6p1:double>0.58163083463553289</d6p1:double><d6p1:double>0.62881223103291028</d6p1:double><d6p1:double>0.27281339357112716</d6p1:double></Weights></Neuron><Neuron><Bias>-1.0002148436296427</Bias><Output>-1</Output><Weights xmlns:d6p1="http://schemas.microsoft.com/2003/10/Serialization/Arrays"><d6p1:double>0.72253472463082513</d6p1:double><d6p1:double>0.47571629391364822</d6p1:double><d6p1:double>0.39322315856222873</d6p1:double><d6p1:double>0.82984872794333342</d6p1:double><d6p1:double>0.95327440210306691</d6p1:double><d6p1:double>0.14683262308125516</d6p1:double><d6p1:double>0.590633600217925</d6p1:double><d6p1:double>0.93213714877222775</d6p1:double><d6p1:double>0.27338539843254073</d6p1:double><d6p1:double>0.54619093951724662</d6p1:double><d6p1:double>0.50442167150014</d6p1:double><d6p1:double>0.70063998762903</d6p1:double><d6p1:double>0.65834587282797064</d6p1:double><d6p1:double>-0.033350447398062005</d6p1:double><d6p1:double>0.72886841786074874</d6p1:double><d6p1:double>0.44444711334197368</d6p1:double><d6p1:double>0.55205095781066571</d6p1:double><d6p1:double>0.4851376482840688</d6p1:double><d6p1:double>0.035121190835304017</d6p1:double><d6p1:double>0.49456797227857247</d6p1:double><d6p1:double>0.76197347315038033</d6p1:double><d6p1:double>0.0767830656714699</d6p1:double><d6p1:double>0.61073948970541847</d6p1:double><d6p1:double>0.57753562278138226</d6p1:double><d6p1:double>0.33246301390074884</d6p1:double></Weights></Neuron><Neuron><Bias>-1.0002698841643751</Bias><Output>1</Output><Weights xmlns:d6p1="http://schemas.microsoft.com/2003/10/Serialization/Arrays"><d6p1:double>0.793662996977345</d6p1:double><d6p1:double>-0.47636164059964947</d6p1:double><d6p1:double>1.6873969104189699</d6p1:double><d6p1:double>0.15026326660898529</d6p1:double><d6p1:double>0.13300866627649627</d6p1:double><d6p1:double>-0.16007599569097167</d6p1:double><d6p1:double>0.18683088084160265</d6p1:double><d6p1:double>-0.92801815848972646</d6p1:double><d6p1:double>-0.47295136999536919</d6p1:double><d6p1:double>1.1190092906930384</d6p1:double><d6p1:double>-0.091161523674699541</d6p1:double><d6p1:double>-0.943254950707191</d6p1:double><d6p1:double>0.536904927602223</d6p1:double><d6p1:double>0.15842620367110205</d6p1:double><d6p1:double>-0.66636382899635394</d6p1:double><d6p1:double>0.97815945482030753</d6p1:double><d6p1:double>0.46127713655781372</d6p1:double><d6p1:double>-0.062170949870579167</d6p1:double><d6p1:double>0.83340457725254469</d6p1:double><d6p1:double>-0.24111162205697095</d6p1:double><d6p1:double>0.594400183138365</d6p1:double><d6p1:double>0.159177680532455</d6p1:double><d6p1:double>0.877619936289461</d6p1:double><d6p1:double>1.4506137461102366</d6p1:double><d6p1:double>0.090352342553751838</d6p1:double></Weights></Neuron><Neuron><Bias>-1.000391843546355</Bias><Output>1</Output><Weights xmlns:d6p1="http://schemas.microsoft.com/2003/10/Serialization/Arrays"><d6p1:double>-0.36621491250849358</d6p1:double><d6p1:double>0.32020022432562173</d6p1:double><d6p1:double>0.85565287367750076</d6p1:double><d6p1:double>0.18004554256454691</d6p1:double><d6p1:double>0.81738715228232184</d6p1:double><d6p1:double>0.86475781259103246</d6p1:double><d6p1:double>0.79073220476816075</d6p1:double><d6p1:double>0.62462823275713708</d6p1:double><d6p1:double>0.35053705288915382</d6p1:double><d6p1:double>0.83375591903909185</d6p1:double><d6p1:double>0.90431602385246179</d6p1:double><d6p1:double>0.3277574694966775</d6p1:double><d6p1:double>0.38031260263832589</d6p1:double><d6p1:double>0.19309131456298806</d6p1:double><d6p1:double>1.1054499629042238</d6p1:double><d6p1:double>0.76430613533491654</d6p1:double><d6p1:double>1.1765845589377875</d6p1:double><d6p1:double>1.1408427102881871</d6p1:double><d6p1:double>0.589533777147204</d6p1:double><d6p1:double>0.27276104181682437</d6p1:double><d6p1:double>0.37621887423217876</d6p1:double><d6p1:double>0.96003162121060159</d6p1:double><d6p1:double>0.36775398152088351</d6p1:double><d6p1:double>0.045162023601753989</d6p1:double><d6p1:double>0.82820396274179853</d6p1:double></Weights></Neuron><Neuron><Bias>-0.00020585726593180548</Bias><Output>1</Output><Weights xmlns:d6p1="http://schemas.microsoft.com/2003/10/Serialization/Arrays"><d6p1:double>0.092067745725315536</d6p1:double><d6p1:double>0.74633012008689981</d6p1:double><d6p1:double>0.083420653898777383</d6p1:double><d6p1:double>0.24728177747094338</d6p1:double><d6p1:double>0.40967990202329463</d6p1:double><d6p1:double>1.3917922716139899</d6p1:double><d6p1:double>-0.084244603964687109</d6p1:double><d6p1:double>0.98448630896788369</d6p1:double><d6p1:double>-0.18050357324069083</d6p1:double><d6p1:double>0.20183588994399376</d6p1:double><d6p1:double>-0.16506344294394143</d6p1:double><d6p1:double>0.99571585296350618</d6p1:double><d6p1:double>-0.05541323807858993</d6p1:double><d6p1:double>0.36742586912397279</d6p1:double><d6p1:double>0.0750290920806392</d6p1:double><d6p1:double>0.38003844104291062</d6p1:double><d6p1:double>0.73941491490579581</d6p1:double><d6p1:double>0.7733556784298169</d6p1:double><d6p1:double>0.43631025055837575</d6p1:double><d6p1:double>-0.030004371070269875</d6p1:double><d6p1:double>-0.58073970406367037</d6p1:double><d6p1:double>0.36796770020572811</d6p1:double><d6p1:double>0.37219157235840689</d6p1:double><d6p1:double>0.67591661489598986</d6p1:double><d6p1:double>0.40545455776574929</d6p1:double></Weights></Neuron><Neuron><Bias>-0.00082669711160482623</Bias><Output>-1</Output><Weights xmlns:d6p1="http://schemas.microsoft.com/2003/10/Serialization/Arrays"><d6p1:double>0.3915474729022238</d6p1:double><d6p1:double>-0.29669672774723871</d6p1:double><d6p1:double>0.66379019168970954</d6p1:double><d6p1:double>0.51012428159305789</d6p1:double><d6p1:double>1.1874109189793234</d6p1:double><d6p1:double>0.038460474304198806</d6p1:double><d6p1:double>0.248005292697981</d6p1:double><d6p1:double>-0.03160487026659619</d6p1:double><d6p1:double>1.6571846436743491</d6p1:double><d6p1:double>0.094062650056529432</d6p1:double><d6p1:double>-0.10846545971757365</d6p1:double><d6p1:double>-0.95369746768883035</d6p1:double><d6p1:double>0.32784567950223287</d6p1:double><d6p1:double>0.92155714038436909</d6p1:double><d6p1:double>-1.0689169222427037</d6p1:double><d6p1:double>-0.42843783519383033</d6p1:double><d6p1:double>0.73348584345330858</d6p1:double><d6p1:double>0.53633996892693436</d6p1:double><d6p1:double>0.54520762890316543</d6p1:double><d6p1:double>0.963539600509382</d6p1:double><d6p1:double>0.59626118751855417</d6p1:double><d6p1:double>0.4608375288837257</d6p1:double><d6p1:double>1.1267975437768909</d6p1:double><d6p1:double>0.33096621014055189</d6p1:double><d6p1:double>0.021655485175069818</d6p1:double></Weights></Neuron><Neuron><Bias>-0.0021699391362896181</Bias><Output>-1</Output><Weights xmlns:d6p1="http://schemas.microsoft.com/2003/10/Serialization/Arrays"><d6p1:double>2.8558740658401125</d6p1:double><d6p1:double>-0.9082404036301468</d6p1:double><d6p1:double>1.0268714528101583</d6p1:double><d6p1:double>1.0154574773423239</d6p1:double><d6p1:double>-0.71451295084319244</d6p1:double><d6p1:double>0.66956314817339269</d6p1:double><d6p1:double>0.59540854564716406</d6p1:double><d6p1:double>-1.2310750946999884</d6p1:double><d6p1:double>-0.092794592777382653</d6p1:double><d6p1:double>1.0843153615163217</d6p1:double><d6p1:double>0.90634852930545784</d6p1:double><d6p1:double>-0.12301331416535524</d6p1:double><d6p1:double>0.3357373020222576</d6p1:double><d6p1:double>-0.47818118165501489</d6p1:double><d6p1:double>-1.3822356961770021</d6p1:double><d6p1:double>-0.8225008856082674</d6p1:double><d6p1:double>-0.72131115260239076</d6p1:double><d6p1:double>0.51230583253271944</d6p1:double><d6p1:double>0.40958239761495441</d6p1:double><d6p1:double>-0.78843753580460985</d6p1:double><d6p1:double>1.3259631852150664</d6p1:double><d6p1:double>1.0082610357292103</d6p1:double><d6p1:double>0.20311967099066838</d6p1:double><d6p1:double>1.2561338202693841</d6p1:double><d6p1:double>1.1109993299959651</d6p1:double></Weights></Neuron><Neuron><Bias>-0.00071229120700310421</Bias><Output>1</Output><Weights xmlns:d6p1="http://schemas.microsoft.com/2003/10/Serialization/Arrays"><d6p1:double>0.76068393223547448</d6p1:double><d6p1:double>0.49812961233540359</d6p1:double><d6p1:double>0.31466419698443249</d6p1:double><d6p1:double>0.83047453866292553</d6p1:double><d6p1:double>0.4166085812039545</d6p1:double><d6p1:double>1.0615597856126862</d6p1:double><d6p1:double>0.48705147960138678</d6p1:double><d6p1:double>1.0509134352310687</d6p1:double><d6p1:double>1.2578679784266029</d6p1:double><d6p1:double>0.92917430509676047</d6p1:double><d6p1:double>0.83715051787492045</d6p1:double><d6p1:double>0.11848372408706297</d6p1:double><d6p1:double>1.2065021455483527</d6p1:double><d6p1:double>0.6046254574505997</d6p1:double><d6p1:double>0.696955524668302</d6p1:double><d6p1:double>0.30829017799690356</d6p1:double><d6p1:double>0.717464314349607</d6p1:double><d6p1:double>0.30600025910120027</d6p1:double><d6p1:double>0.61950240204541607</d6p1:double><d6p1:double>0.92043681565257018</d6p1:double><d6p1:double>0.223554527556489</d6p1:double><d6p1:double>0.12658158786823542</d6p1:double><d6p1:double>-0.1362785713943836</d6p1:double><d6p1:double>0.34804124414994853</d6p1:double><d6p1:double>0.45318808976745628</d6p1:double></Weights></Neuron><Neuron><Bias>0.00021346414407096475</Bias><Output>1</Output><Weights xmlns:d6p1="http://schemas.microsoft.com/2003/10/Serialization/Arrays"><d6p1:double>0.43963334012727973</d6p1:double><d6p1:double>0.20912055053184528</d6p1:double><d6p1:double>1.1066831113571125</d6p1:double><d6p1:double>-0.69518060584950847</d6p1:double><d6p1:double>0.33851847261065365</d6p1:double><d6p1:double>0.546514264171148</d6p1:double><d6p1:double>0.93169501099148233</d6p1:double><d6p1:double>-0.76164089067925778</d6p1:double><d6p1:double>0.89244234226203045</d6p1:double><d6p1:double>0.45284724654690467</d6p1:double><d6p1:double>-0.37468582896036995</d6p1:double><d6p1:double>0.87815456223449484</d6p1:double><d6p1:double>1.2436399068721737</d6p1:double><d6p1:double>0.019453718881807351</d6p1:double><d6p1:double>-0.47355613677265368</d6p1:double><d6p1:double>0.55944260259174994</d6p1:double><d6p1:double>0.95469515412367678</d6p1:double><d6p1:double>-0.038072116074377743</d6p1:double><d6p1:double>0.46502920447561896</d6p1:double><d6p1:double>-0.066311031041898408</d6p1:double><d6p1:double>0.7092224944736224</d6p1:double><d6p1:double>-0.49176627828832264</d6p1:double><d6p1:double>0.18821505275944114</d6p1:double><d6p1:double>0.58801439377107689</d6p1:double><d6p1:double>0.58960399725118573</d6p1:double></Weights></Neuron><Neuron><Bias>0.00027259307448250492</Bias><Output>1</Output><Weights xmlns:d6p1="http://schemas.microsoft.com/2003/10/Serialization/Arrays"><d6p1:double>1.0257172199833644</d6p1:double><d6p1:double>-0.22309531716408773</d6p1:double><d6p1:double>0.65696019010745532</d6p1:double><d6p1:double>0.83394332384579739</d6p1:double><d6p1:double>-0.18954220157623974</d6p1:double><d6p1:double>1.0537397928668661</d6p1:double><d6p1:double>0.32126379247138875</d6p1:double><d6p1:double>0.68386348153744192</d6p1:double><d6p1:double>0.35093106630538667</d6p1:double><d6p1:double>0.89007828176869908</d6p1:double><d6p1:double>0.75735450032792972</d6p1:double><d6p1:double>1.0259536723219405</d6p1:double><d6p1:double>0.22554343126959148</d6p1:double><d6p1:double>0.47996959458747696</d6p1:double><d6p1:double>0.304847295541721</d6p1:double><d6p1:double>0.5244798993847013</d6p1:double><d6p1:double>0.093488225795837529</d6p1:double><d6p1:double>1.1062084331937867</d6p1:double><d6p1:double>0.67443734816961964</d6p1:double><d6p1:double>0.078600881248408458</d6p1:double><d6p1:double>0.58182748289523456</d6p1:double><d6p1:double>0.31065037488249692</d6p1:double><d6p1:double>0.52167850847812813</d6p1:double><d6p1:double>0.89791400939166355</d6p1:double><d6p1:double>0.36524837324112036</d6p1:double></Weights></Neuron><Neuron><Bias>0.00015907808868798564</Bias><Output>-1</Output><Weights xmlns:d6p1="http://schemas.microsoft.com/2003/10/Serialization/Arrays"><d6p1:double>0.38301562427836888</d6p1:double><d6p1:double>0.015699763078053285</d6p1:double><d6p1:double>0.47400777729981863</d6p1:double><d6p1:double>0.971382282104959</d6p1:double><d6p1:double>0.82236542835405479</d6p1:double><d6p1:double>0.0687490912372432</d6p1:double><d6p1:double>-0.036481380406841867</d6p1:double><d6p1:double>0.41818862677940538</d6p1:double><d6p1:double>0.23845124098038897</d6p1:double><d6p1:double>0.99116754417038633</d6p1:double><d6p1:double>1.2910502558131622</d6p1:double><d6p1:double>0.83299623211205276</d6p1:double><d6p1:double>-0.24634101131490516</d6p1:double><d6p1:double>0.21535814805659473</d6p1:double><d6p1:double>-0.0651707599934299</d6p1:double><d6p1:double>0.46214549874561389</d6p1:double><d6p1:double>0.32553468199392804</d6p1:double><d6p1:double>0.63388642834876507</d6p1:double><d6p1:double>0.3898468988849158</d6p1:double><d6p1:double>0.8089013938105174</d6p1:double><d6p1:double>1.0769242429064736</d6p1:double><d6p1:double>1.0344212274170033</d6p1:double><d6p1:double>0.6432703628544677</d6p1:double><d6p1:double>1.0377103214264296</d6p1:double><d6p1:double>0.68091174144322353</d6p1:double></Weights></Neuron><Neuron><Bias>-0.99837774158908577</Bias><Output>1</Output><Weights xmlns:d6p1="http://schemas.microsoft.com/2003/10/Serialization/Arrays"><d6p1:double>1.0493682280641494</d6p1:double><d6p1:double>0.81851608903880246</d6p1:double><d6p1:double>0.24316299455636692</d6p1:double><d6p1:double>-0.31020277400758289</d6p1:double><d6p1:double>-0.60305113596120141</d6p1:double><d6p1:double>0.25491033827927356</d6p1:double><d6p1:double>-0.16807261183936933</d6p1:double><d6p1:double>-0.084953633886573676</d6p1:double><d6p1:double>-0.37677407054821904</d6p1:double><d6p1:double>0.29070440311754081</d6p1:double><d6p1:double>0.13131216359818881</d6p1:double><d6p1:double>1.2670932448279855</d6p1:double><d6p1:double>-0.23821005811361579</d6p1:double><d6p1:double>0.26672743581979619</d6p1:double><d6p1:double>1.1432932391362449</d6p1:double><d6p1:double>-0.04213208182188119</d6p1:double><d6p1:double>0.13900519773353232</d6p1:double><d6p1:double>-0.35722129186629636</d6p1:double><d6p1:double>0.44676250511674259</d6p1:double><d6p1:double>0.40884228168213549</d6p1:double><d6p1:double>0.65858549725307447</d6p1:double><d6p1:double>-0.34385674695818846</d6p1:double><d6p1:double>0.9606892094835513</d6p1:double><d6p1:double>1.4435854828326495</d6p1:double><d6p1:double>1.2173213516236054</d6p1:double></Weights></Neuron><Neuron><Bias>-1.0007529426471398</Bias><Output>-1</Output><Weights xmlns:d6p1="http://schemas.microsoft.com/2003/10/Serialization/Arrays"><d6p1:double>0.13778349746754603</d6p1:double><d6p1:double>0.81788621976585485</d6p1:double><d6p1:double>0.66121461439123841</d6p1:double><d6p1:double>1.3170507123757582</d6p1:double><d6p1:double>0.66575978616224263</d6p1:double><d6p1:double>-0.083527589453755061</d6p1:double><d6p1:double>1.3849600855874473</d6p1:double><d6p1:double>0.71551981109140039</d6p1:double><d6p1:double>1.1176231995126895</d6p1:double><d6p1:double>0.069314049463169075</d6p1:double><d6p1:double>-0.67229865670915068</d6p1:double><d6p1:double>0.31206717724841071</d6p1:double><d6p1:double>0.12189534018483916</d6p1:double><d6p1:double>-0.5776051355442765</d6p1:double><d6p1:double>0.35481377843362916</d6p1:double><d6p1:double>0.71298073913517712</d6p1:double><d6p1:double>-0.014765584333350248</d6p1:double><d6p1:double>0.42660776919511018</d6p1:double><d6p1:double>-0.10660888269225771</d6p1:double><d6p1:double>-0.45725147020878049</d6p1:double><d6p1:double>0.45506452969708433</d6p1:double><d6p1:double>0.24222775858342777</d6p1:double><d6p1:double>0.50122128338823635</d6p1:double><d6p1:double>0.33374516497961326</d6p1:double><d6p1:double>-0.41446137677939215</d6p1:double></Weights></Neuron><Neuron><Bias>-1.0000291733705866</Bias><Output>1</Output><Weights xmlns:d6p1="http://schemas.microsoft.com/2003/10/Serialization/Arrays"><d6p1:double>0.74000292736442375</d6p1:double><d6p1:double>0.048713077001931962</d6p1:double><d6p1:double>1.6581520187411209</d6p1:double><d6p1:double>0.73514373384846321</d6p1:double><d6p1:double>-0.28671923170760011</d6p1:double><d6p1:double>-0.040213212115176547</d6p1:double><d6p1:double>-0.60300507099466527</d6p1:double><d6p1:double>-0.11606254105166618</d6p1:double><d6p1:double>-0.023496920344729971</d6p1:double><d6p1:double>0.63401664731473417</d6p1:double><d6p1:double>0.04098774668487936</d6p1:double><d6p1:double>-0.07169063444125108</d6p1:double><d6p1:double>0.41308902734189057</d6p1:double><d6p1:double>0.21670086053179874</d6p1:double><d6p1:double>-0.822609431696955</d6p1:double><d6p1:double>-0.21434602261153662</d6p1:double><d6p1:double>0.84119024003659193</d6p1:double><d6p1:double>0.53349571982908361</d6p1:double><d6p1:double>0.35370896263805468</d6p1:double><d6p1:double>0.90230192619842253</d6p1:double><d6p1:double>-0.1308510384357425</d6p1:double><d6p1:double>0.6877156496883462</d6p1:double><d6p1:double>0.052228627136502642</d6p1:double><d6p1:double>0.78493306476303948</d6p1:double><d6p1:double>0.96847449918666006</d6p1:double></Weights></Neuron><Neuron><Bias>-0.00078567467902651762</Bias><Output>-1</Output><Weights xmlns:d6p1="http://schemas.microsoft.com/2003/10/Serialization/Arrays"><d6p1:double>1.5856298402691438</d6p1:double><d6p1:double>-0.51040554592767717</d6p1:double><d6p1:double>0.44697536674079263</d6p1:double><d6p1:double>-0.60490961410173316</d6p1:double><d6p1:double>0.22656685917075223</d6p1:double><d6p1:double>0.59664820313465261</d6p1:double><d6p1:double>0.95458530213605508</d6p1:double><d6p1:double>0.091958221562891171</d6p1:double><d6p1:double>0.581399130686965</d6p1:double><d6p1:double>0.5044569481639205</d6p1:double><d6p1:double>0.12861533870820721</d6p1:double><d6p1:double>1.1553090022099444</d6p1:double><d6p1:double>0.21875276934089519</d6p1:double><d6p1:double>0.093087310339019153</d6p1:double><d6p1:double>1.0409768724000064</d6p1:double><d6p1:double>0.93410138157018685</d6p1:double><d6p1:double>-0.48610565200479294</d6p1:double><d6p1:double>0.96814229215935754</d6p1:double><d6p1:double>0.19273767459578312</d6p1:double><d6p1:double>-0.5613249555483586</d6p1:double><d6p1:double>0.25103029568938828</d6p1:double><d6p1:double>0.14674179486068645</d6p1:double><d6p1:double>0.97225483561288328</d6p1:double><d6p1:double>0.20954901405239285</d6p1:double><d6p1:double>0.069042277569503152</d6p1:double></Weights></Neuron><Neuron><Bias>-1.0024695678752127</Bias><Output>-1</Output><Weights xmlns:d6p1="http://schemas.microsoft.com/2003/10/Serialization/Arrays"><d6p1:double>0.44173148165327</d6p1:double><d6p1:double>-0.4324186852432424</d6p1:double><d6p1:double>-0.54703108823564228</d6p1:double><d6p1:double>1.1417942420895055</d6p1:double><d6p1:double>-0.31465993709804657</d6p1:double><d6p1:double>1.114987340693399</d6p1:double><d6p1:double>0.16310846967807624</d6p1:double><d6p1:double>0.51028474751075281</d6p1:double><d6p1:double>0.88134666042882626</d6p1:double><d6p1:double>0.16650270823454316</d6p1:double><d6p1:double>0.84842597096482486</d6p1:double><d6p1:double>0.44500351465919508</d6p1:double><d6p1:double>0.345300495128596</d6p1:double><d6p1:double>0.036983586702968287</d6p1:double><d6p1:double>0.41159061367533484</d6p1:double><d6p1:double>1.0278656039770144</d6p1:double><d6p1:double>-0.80124560844807668</d6p1:double><d6p1:double>1.4685342957386223</d6p1:double><d6p1:double>-0.0784259472808459</d6p1:double><d6p1:double>-1.2812093001081062</d6p1:double><d6p1:double>-0.43707562530413885</d6p1:double><d6p1:double>0.63512142124911075</d6p1:double><d6p1:double>0.50158807342919287</d6p1:double><d6p1:double>0.09420701728996049</d6p1:double><d6p1:double>-0.60706983080959143</d6p1:double></Weights></Neuron><Neuron><Bias>-1.0002278690169519</Bias><Output>-1</Output><Weights xmlns:d6p1="http://schemas.microsoft.com/2003/10/Serialization/Arrays"><d6p1:double>0.20094092094769703</d6p1:double><d6p1:double>0.8577733311404302</d6p1:double><d6p1:double>0.74060556777587</d6p1:double><d6p1:double>0.072202849161568217</d6p1:double><d6p1:double>-0.23467035577637538</d6p1:double><d6p1:double>0.63514703111992576</d6p1:double><d6p1:double>0.9707906308748192</d6p1:double><d6p1:double>-0.55638497714058188</d6p1:double><d6p1:double>0.11745871933965617</d6p1:double><d6p1:double>-0.35635007181573408</d6p1:double><d6p1:double>-0.064073841828418229</d6p1:double><d6p1:double>0.4829480630942245</d6p1:double><d6p1:double>0.57422713023738625</d6p1:double><d6p1:double>-0.25627888560352008</d6p1:double><d6p1:double>0.43010256830153104</d6p1:double><d6p1:double>0.3029815466126447</d6p1:double><d6p1:double>1.1902674065643912</d6p1:double><d6p1:double>0.35005563464678885</d6p1:double><d6p1:double>-0.295948755364093</d6p1:double><d6p1:double>0.852845488161436</d6p1:double><d6p1:double>0.48634494633596959</d6p1:double><d6p1:double>0.32735230654579633</d6p1:double><d6p1:double>0.75263248762430712</d6p1:double><d6p1:double>0.18060950007346849</d6p1:double><d6p1:double>0.84890809827773051</d6p1:double></Weights></Neuron><Neuron><Bias>-0.0009876636273057533</Bias><Output>-1</Output><Weights xmlns:d6p1="http://schemas.microsoft.com/2003/10/Serialization/Arrays"><d6p1:double>0.21697082649160246</d6p1:double><d6p1:double>0.53512234721088925</d6p1:double><d6p1:double>-0.021332860674642833</d6p1:double><d6p1:double>1.1733236384485168</d6p1:double><d6p1:double>0.37354695786842718</d6p1:double><d6p1:double>0.373185610548455</d6p1:double><d6p1:double>1.0778713950911154</d6p1:double><d6p1:double>1.0169657225068662</d6p1:double><d6p1:double>-0.061754128964213915</d6p1:double><d6p1:double>-0.21057860332200445</d6p1:double><d6p1:double>0.97992869088012291</d6p1:double><d6p1:double>0.58504670188624075</d6p1:double><d6p1:double>0.48668841343899671</d6p1:double><d6p1:double>0.35296567955268265</d6p1:double><d6p1:double>0.6627360217253212</d6p1:double><d6p1:double>0.26650741897354768</d6p1:double><d6p1:double>0.666468328356031</d6p1:double><d6p1:double>-0.25824884945635451</d6p1:double><d6p1:double>0.35717245358170729</d6p1:double><d6p1:double>0.70963339521764324</d6p1:double><d6p1:double>0.6043467799608444</d6p1:double><d6p1:double>1.5822761174894058</d6p1:double><d6p1:double>0.68667759294507136</d6p1:double><d6p1:double>-0.052392377910254057</d6p1:double><d6p1:double>0.59233836650366867</d6p1:double></Weights></Neuron><Neuron><Bias>-0.99957779312026518</Bias><Output>1</Output><Weights xmlns:d6p1="http://schemas.microsoft.com/2003/10/Serialization/Arrays"><d6p1:double>-0.752318978634994</d6p1:double><d6p1:double>-0.68759155570633945</d6p1:double><d6p1:double>0.063123861533944475</d6p1:double><d6p1:double>0.15236125686131533</d6p1:double><d6p1:double>0.31118945874281007</d6p1:double><d6p1:double>0.64809196435191052</d6p1:double><d6p1:double>0.20028844785371691</d6p1:double><d6p1:double>-0.78912561210354226</d6p1:double><d6p1:double>0.18150288352903834</d6p1:double><d6p1:double>0.20452656482542905</d6p1:double><d6p1:double>0.46411218455297</d6p1:double><d6p1:double>-0.74211476317208369</d6p1:double><d6p1:double>0.27317353351373047</d6p1:double><d6p1:double>0.73950382535106363</d6p1:double><d6p1:double>-0.15804927540718258</d6p1:double><d6p1:double>0.30474997426807138</d6p1:double><d6p1:double>0.83995706149893457</d6p1:double><d6p1:double>0.686165152267867</d6p1:double><d6p1:double>1.3183094123146579</d6p1:double><d6p1:double>-0.052488820361500425</d6p1:double><d6p1:double>0.46280773761368421</d6p1:double><d6p1:double>0.54884133677300706</d6p1:double><d6p1:double>1.5139835106936093</d6p1:double><d6p1:double>0.53425346855028744</d6p1:double><d6p1:double>-0.68990500503779573</d6p1:double></Weights></Neuron><Neuron><Bias>-0.00095316644692693814</Bias><Output>-1</Output><Weights xmlns:d6p1="http://schemas.microsoft.com/2003/10/Serialization/Arrays"><d6p1:double>0.91421874438535566</d6p1:double><d6p1:double>0.31619906462704411</d6p1:double><d6p1:double>0.36853031903266475</d6p1:double><d6p1:double>0.5622498133056878</d6p1:double><d6p1:double>1.1388337782630265</d6p1:double><d6p1:double>0.16919228969885766</d6p1:double><d6p1:double>1.1315445309838184</d6p1:double><d6p1:double>0.039482952938329721</d6p1:double><d6p1:double>0.67685796710321211</d6p1:double><d6p1:double>0.44310937395595357</d6p1:double><d6p1:double>0.58645961567423344</d6p1:double><d6p1:double>-0.12922737328504724</d6p1:double><d6p1:double>0.093314289421367644</d6p1:double><d6p1:double>0.14039330729561975</d6p1:double><d6p1:double>-0.30486795766902636</d6p1:double><d6p1:double>0.56763692138378752</d6p1:double><d6p1:double>0.30441110632072488</d6p1:double><d6p1:double>0.4577638095621962</d6p1:double><d6p1:double>0.34204608883618887</d6p1:double><d6p1:double>0.46531644506554803</d6p1:double><d6p1:double>0.51403134036778508</d6p1:double><d6p1:double>0.41378209163648944</d6p1:double><d6p1:double>0.97447488171940011</d6p1:double><d6p1:double>-0.096975798759928053</d6p1:double><d6p1:double>1.0148938428976979</d6p1:double></Weights></Neuron><Neuron><Bias>0.00044029645171248015</Bias><Output>1</Output><Weights xmlns:d6p1="http://schemas.microsoft.com/2003/10/Serialization/Arrays"><d6p1:double>0.45311815246531445</d6p1:double><d6p1:double>0.40617171600751345</d6p1:double><d6p1:double>1.17834130203665</d6p1:double><d6p1:double>0.844209979023983</d6p1:double><d6p1:double>-0.12134177655630254</d6p1:double><d6p1:double>0.86981743738884976</d6p1:double><d6p1:double>0.65046747258224591</d6p1:double><d6p1:double>0.83284555882844513</d6p1:double><d6p1:double>0.364141276459831</d6p1:double><d6p1:double>1.2925734319489588</d6p1:double><d6p1:double>0.23435161471300725</d6p1:double><d6p1:double>0.71970867080722256</d6p1:double><d6p1:double>0.22465622153102036</d6p1:double><d6p1:double>-0.014299524821111813</d6p1:double><d6p1:double>0.35777288659127371</d6p1:double><d6p1:double>0.61396226119230324</d6p1:double><d6p1:double>0.70460825569566776</d6p1:double><d6p1:double>1.1510988048275135</d6p1:double><d6p1:double>-0.1690210623853346</d6p1:double><d6p1:double>0.99678249369076288</d6p1:double><d6p1:double>0.454780656427813</d6p1:double><d6p1:double>0.21283028867387419</d6p1:double><d6p1:double>0.46793061923072732</d6p1:double><d6p1:double>1.1304118941959171</d6p1:double><d6p1:double>-0.16139906155857422</d6p1:double></Weights></Neuron><Neuron><Bias>-1.0000212530278041</Bias><Output>1</Output><Weights xmlns:d6p1="http://schemas.microsoft.com/2003/10/Serialization/Arrays"><d6p1:double>-0.030862399767594317</d6p1:double><d6p1:double>1.0517074027735376</d6p1:double><d6p1:double>0.10021938348865306</d6p1:double><d6p1:double>1.1219421303495059</d6p1:double><d6p1:double>0.42748778785134028</d6p1:double><d6p1:double>1.0449111220223268</d6p1:double><d6p1:double>-0.21426019012134609</d6p1:double><d6p1:double>0.35658063858382849</d6p1:double><d6p1:double>0.30928750805318506</d6p1:double><d6p1:double>0.6884043107245853</d6p1:double><d6p1:double>0.59978271420051055</d6p1:double><d6p1:double>-0.060187398153194779</d6p1:double><d6p1:double>0.059458989193004415</d6p1:double><d6p1:double>0.0098321014111340879</d6p1:double><d6p1:double>-0.74578285410036615</d6p1:double><d6p1:double>0.14490661630655632</d6p1:double><d6p1:double>-0.28811808709914161</d6p1:double><d6p1:double>0.73115797601334931</d6p1:double><d6p1:double>0.0625994734216935</d6p1:double><d6p1:double>0.83856681546886247</d6p1:double><d6p1:double>-0.45508140520426565</d6p1:double><d6p1:double>0.21856855574053169</d6p1:double><d6p1:double>0.19761878266740851</d6p1:double><d6p1:double>0.885182400897902</d6p1:double><d6p1:double>0.26512478999350592</d6p1:double></Weights></Neuron><Neuron><Bias>-0.9991320096155</Bias><Output>-1</Output><Weights xmlns:d6p1="http://schemas.microsoft.com/2003/10/Serialization/Arrays"><d6p1:double>0.795293584879959</d6p1:double><d6p1:double>-0.62704981573443952</d6p1:double><d6p1:double>0.7605552034133094</d6p1:double><d6p1:double>-0.0034096222399647691</d6p1:double><d6p1:double>0.47840812441543573</d6p1:double><d6p1:double>0.93057404820009382</d6p1:double><d6p1:double>0.32523927920695866</d6p1:double><d6p1:double>0.38926024430021772</d6p1:double><d6p1:double>0.27486723406745661</d6p1:double><d6p1:double>0.31863927250875479</d6p1:double><d6p1:double>0.31005649671360869</d6p1:double><d6p1:double>0.13653543191399323</d6p1:double><d6p1:double>-0.065406095894560132</d6p1:double><d6p1:double>1.3029188901356441</d6p1:double><d6p1:double>-0.41520777500563333</d6p1:double><d6p1:double>0.46263312184863425</d6p1:double><d6p1:double>1.1152059349785177</d6p1:double><d6p1:double>1.2307840801716885</d6p1:double><d6p1:double>-0.43130663718976653</d6p1:double><d6p1:double>0.23030616113342972</d6p1:double><d6p1:double>0.41886865880140478</d6p1:double><d6p1:double>0.12931544934572192</d6p1:double><d6p1:double>0.736209722283928</d6p1:double><d6p1:double>0.43272598202133916</d6p1:double><d6p1:double>-0.54480072478872044</d6p1:double></Weights></Neuron><Neuron><Bias>-1.000521345432</Bias><Output>-1</Output><Weights xmlns:d6p1="http://schemas.microsoft.com/2003/10/Serialization/Arrays"><d6p1:double>0.23292307068467402</d6p1:double><d6p1:double>0.10563441763869402</d6p1:double><d6p1:double>0.39530988692042213</d6p1:double><d6p1:double>-0.39612873694735423</d6p1:double><d6p1:double>0.59895944797044287</d6p1:double><d6p1:double>0.28147970314620724</d6p1:double><d6p1:double>1.6155659220373164</d6p1:double><d6p1:double>0.94563792280001913</d6p1:double><d6p1:double>0.42725547738656994</d6p1:double><d6p1:double>0.095393479088277638</d6p1:double><d6p1:double>0.15200227145302794</d6p1:double><d6p1:double>-0.50231435008318337</d6p1:double><d6p1:double>0.40456050623928125</d6p1:double><d6p1:double>1.2361359297422914</d6p1:double><d6p1:double>1.5054899020575978</d6p1:double><d6p1:double>0.019737093809824753</d6p1:double><d6p1:double>0.55142228891533562</d6p1:double><d6p1:double>0.634683046731173</d6p1:double><d6p1:double>0.02929572130766836</d6p1:double><d6p1:double>-0.39245496907706</d6p1:double><d6p1:double>0.03656147438818462</d6p1:double><d6p1:double>0.57132861976074278</d6p1:double><d6p1:double>0.1427079623026998</d6p1:double><d6p1:double>0.091543445681497332</d6p1:double><d6p1:double>-0.35589238868517215</d6p1:double></Weights></Neuron><Neuron><Bias>-0.00028850500980917571</Bias><Output>-1</Output><Weights xmlns:d6p1="http://schemas.microsoft.com/2003/10/Serialization/Arrays"><d6p1:double>-0.3887510111600142</d6p1:double><d6p1:double>0.83748533353935972</d6p1:double><d6p1:double>-0.62609400661146764</d6p1:double><d6p1:double>0.44625181791008012</d6p1:double><d6p1:double>0.69170419335879718</d6p1:double><d6p1:double>-0.21845755386286164</d6p1:double><d6p1:double>0.57745855008732283</d6p1:double><d6p1:double>0.62707732670672256</d6p1:double><d6p1:double>-0.19337077278125445</d6p1:double><d6p1:double>-0.98958878529623839</d6p1:double><d6p1:double>0.49960409336647971</d6p1:double><d6p1:double>0.41342236087808176</d6p1:double><d6p1:double>0.054497430788882292</d6p1:double><d6p1:double>0.62387910649431944</d6p1:double><d6p1:double>0.85853623899932874</d6p1:double><d6p1:double>0.96137937164132792</d6p1:double><d6p1:double>0.83589720294850089</d6p1:double><d6p1:double>0.087886346133851323</d6p1:double><d6p1:double>0.46222363418289358</d6p1:double><d6p1:double>1.4172985152705335</d6p1:double><d6p1:double>-0.255045390007749</d6p1:double><d6p1:double>0.57430487389808771</d6p1:double><d6p1:double>0.13079446982991808</d6p1:double><d6p1:double>-0.962717035411563</d6p1:double><d6p1:double>0.079982248115676086</d6p1:double></Weights></Neuron><Neuron><Bias>0.0035745119760993522</Bias><Output>1</Output><Weights xmlns:d6p1="http://schemas.microsoft.com/2003/10/Serialization/Arrays"><d6p1:double>0.17971925760228252</d6p1:double><d6p1:double>0.47558103397348395</d6p1:double><d6p1:double>1.0543317814038042</d6p1:double><d6p1:double>-0.60391015237256518</d6p1:double><d6p1:double>-0.40682780408065111</d6p1:double><d6p1:double>0.84001848712393268</d6p1:double><d6p1:double>0.058028975125144024</d6p1:double><d6p1:double>0.27756392988412787</d6p1:double><d6p1:double>0.66951255758805961</d6p1:double><d6p1:double>1.1977242583769281</d6p1:double><d6p1:double>0.36691623537698304</d6p1:double><d6p1:double>0.85452984760590867</d6p1:double><d6p1:double>0.68635408085585459</d6p1:double><d6p1:double>0.05690270215337901</d6p1:double><d6p1:double>1.4436000322194622</d6p1:double><d6p1:double>0.50506728587240379</d6p1:double><d6p1:double>0.2186144812806427</d6p1:double><d6p1:double>-0.058247705262962357</d6p1:double><d6p1:double>0.80739687872717059</d6p1:double><d6p1:double>0.32359903100629756</d6p1:double><d6p1:double>0.59717120213041774</d6p1:double><d6p1:double>0.12836282547052361</d6p1:double><d6p1:double>0.41616822972368567</d6p1:double><d6p1:double>1.2200053966698585</d6p1:double><d6p1:double>0.077510908177220852</d6p1:double></Weights></Neuron><Neuron><Bias>-0.999549212621985</Bias><Output>1</Output><Weights xmlns:d6p1="http://schemas.microsoft.com/2003/10/Serialization/Arrays"><d6p1:double>-0.047475026007902536</d6p1:double><d6p1:double>0.45754908257773536</d6p1:double><d6p1:double>1.3137460804623535</d6p1:double><d6p1:double>-0.73758675504286475</d6p1:double><d6p1:double>0.01733481726346172</d6p1:double><d6p1:double>0.16322459329807221</d6p1:double><d6p1:double>1.9099617558294071</d6p1:double><d6p1:double>0.715833549233544</d6p1:double><d6p1:double>0.44810674904114056</d6p1:double><d6p1:double>0.34009457720186587</d6p1:double><d6p1:double>-0.0975148720167039</d6p1:double><d6p1:double>0.37997675663901131</d6p1:double><d6p1:double>1.1104338571380095</d6p1:double><d6p1:double>0.14974621351207129</d6p1:double><d6p1:double>0.80050922780199407</d6p1:double><d6p1:double>0.70021134271019791</d6p1:double><d6p1:double>0.89067970474668445</d6p1:double><d6p1:double>-0.13802045748964531</d6p1:double><d6p1:double>0.0764387956580073</d6p1:double><d6p1:double>0.34661871245257003</d6p1:double><d6p1:double>0.85457058463256008</d6p1:double><d6p1:double>-0.32778515431531563</d6p1:double><d6p1:double>0.080735454424524553</d6p1:double><d6p1:double>0.64778332358709456</d6p1:double><d6p1:double>-0.52937292746153053</d6p1:double></Weights></Neuron><Neuron><Bias>-0.99963538105997218</Bias><Output>-1</Output><Weights xmlns:d6p1="http://schemas.microsoft.com/2003/10/Serialization/Arrays"><d6p1:double>0.99687549905525807</d6p1:double><d6p1:double>0.1488561901672153</d6p1:double><d6p1:double>-0.21721614646170637</d6p1:double><d6p1:double>-0.29999484831656825</d6p1:double><d6p1:double>-0.65806514979817876</d6p1:double><d6p1:double>0.97751932859266388</d6p1:double><d6p1:double>0.95536590054186143</d6p1:double><d6p1:double>0.41220153982381547</d6p1:double><d6p1:double>0.60486174330656683</d6p1:double><d6p1:double>-0.58602392867426589</d6p1:double><d6p1:double>0.37866772772535695</d6p1:double><d6p1:double>0.51290834766264448</d6p1:double><d6p1:double>0.930452530805154</d6p1:double><d6p1:double>0.55100600934770438</d6p1:double><d6p1:double>0.50142124330720628</d6p1:double><d6p1:double>0.80878967392331313</d6p1:double><d6p1:double>0.23333983556278684</d6p1:double><d6p1:double>0.11515020300353884</d6p1:double><d6p1:double>-0.62716849091455162</d6p1:double><d6p1:double>-0.27353831282660795</d6p1:double><d6p1:double>1.2201109252566888</d6p1:double><d6p1:double>-0.015592038479098864</d6p1:double><d6p1:double>1.0863999845065828</d6p1:double><d6p1:double>0.22861423715821122</d6p1:double><d6p1:double>0.30158825491927527</d6p1:double></Weights></Neuron><Neuron><Bias>-0.00055419781062315062</Bias><Output>-1</Output><Weights xmlns:d6p1="http://schemas.microsoft.com/2003/10/Serialization/Arrays"><d6p1:double>1.5149874633691907</d6p1:double><d6p1:double>0.4624422814415875</d6p1:double><d6p1:double>0.82172571001098371</d6p1:double><d6p1:double>0.38075915872839122</d6p1:double><d6p1:double>0.38896191796604629</d6p1:double><d6p1:double>0.18398214332193161</d6p1:double><d6p1:double>-0.14468288736924856</d6p1:double><d6p1:double>0.68777455819894762</d6p1:double><d6p1:double>0.31654943712474332</d6p1:double><d6p1:double>1.20556870130881</d6p1:double><d6p1:double>0.29712195709073014</d6p1:double><d6p1:double>-0.17997542967056251</d6p1:double><d6p1:double>0.39539837651711524</d6p1:double><d6p1:double>0.61027256581138933</d6p1:double><d6p1:double>-0.15506813190919605</d6p1:double><d6p1:double>-0.29441949095976283</d6p1:double><d6p1:double>0.598061868185048</d6p1:double><d6p1:double>0.69249592087431</d6p1:double><d6p1:double>0.37867076911124253</d6p1:double><d6p1:double>-0.026872153323608563</d6p1:double><d6p1:double>0.54403946323528085</d6p1:double><d6p1:double>0.84830731930376135</d6p1:double><d6p1:double>1.0415003267509608</d6p1:double><d6p1:double>1.1952827616502324</d6p1:double><d6p1:double>0.80449276830334349</d6p1:double></Weights></Neuron><Neuron><Bias>-0.99961642984559929</Bias><Output>-1</Output><Weights xmlns:d6p1="http://schemas.microsoft.com/2003/10/Serialization/Arrays"><d6p1:double>0.63877984626037321</d6p1:double><d6p1:double>0.95544527574167459</d6p1:double><d6p1:double>0.39840827868559764</d6p1:double><d6p1:double>0.419606524252875</d6p1:double><d6p1:double>0.52993570543487911</d6p1:double><d6p1:double>-0.32032692755939618</d6p1:double><d6p1:double>1.024131168036581</d6p1:double><d6p1:double>0.62067983956632466</d6p1:double><d6p1:double>0.45266013621016776</d6p1:double><d6p1:double>0.57670277454603314</d6p1:double><d6p1:double>-0.29272018078043743</d6p1:double><d6p1:double>-0.11433030465704686</d6p1:double><d6p1:double>0.7610474080409374</d6p1:double><d6p1:double>0.15802466254774145</d6p1:double><d6p1:double>0.34029215119915873</d6p1:double><d6p1:double>0.25177258838176009</d6p1:double><d6p1:double>0.69827419899102949</d6p1:double><d6p1:double>0.96827159517609163</d6p1:double><d6p1:double>0.18579932662575957</d6p1:double><d6p1:double>-0.0065606020826685591</d6p1:double><d6p1:double>1.6766585503479292</d6p1:double><d6p1:double>0.12872552265801177</d6p1:double><d6p1:double>0.405991913960052</d6p1:double><d6p1:double>0.58861847928845379</d6p1:double><d6p1:double>-0.025115107440545938</d6p1:double></Weights></Neuron><Neuron><Bias>-0.99895508684369883</Bias><Output>1</Output><Weights xmlns:d6p1="http://schemas.microsoft.com/2003/10/Serialization/Arrays"><d6p1:double>-0.61122893375395848</d6p1:double><d6p1:double>-0.085186874919235961</d6p1:double><d6p1:double>0.296775179586253</d6p1:double><d6p1:double>0.7018894346441632</d6p1:double><d6p1:double>-0.64880528740241949</d6p1:double><d6p1:double>0.516689539458583</d6p1:double><d6p1:double>-0.92394699261454871</d6p1:double><d6p1:double>0.66471635982183919</d6p1:double><d6p1:double>0.82730893534529781</d6p1:double><d6p1:double>0.028746997303522225</d6p1:double><d6p1:double>0.6141507494118057</d6p1:double><d6p1:double>0.91014677677546518</d6p1:double><d6p1:double>0.27602074629023915</d6p1:double><d6p1:double>1.1200259038165166</d6p1:double><d6p1:double>0.89440032462362484</d6p1:double><d6p1:double>-0.2186833523960455</d6p1:double><d6p1:double>-0.62654490784702144</d6p1:double><d6p1:double>0.28839017391079896</d6p1:double><d6p1:double>0.91311109056570738</d6p1:double><d6p1:double>0.32534621669989461</d6p1:double><d6p1:double>-0.14530891244535693</d6p1:double><d6p1:double>0.34528493232723012</d6p1:double><d6p1:double>0.84413138170249236</d6p1:double><d6p1:double>0.25441112285573386</d6p1:double><d6p1:double>0.33766463996257196</d6p1:double></Weights></Neuron><Neuron><Bias>0.00093577660670317591</Bias><Output>1</Output><Weights xmlns:d6p1="http://schemas.microsoft.com/2003/10/Serialization/Arrays"><d6p1:double>0.41323625743009323</d6p1:double><d6p1:double>0.53101790401404936</d6p1:double><d6p1:double>1.308551503809402</d6p1:double><d6p1:double>0.25442683625506057</d6p1:double><d6p1:double>-0.38053867414706283</d6p1:double><d6p1:double>0.31530888145777775</d6p1:double><d6p1:double>0.59753553600262022</d6p1:double><d6p1:double>0.44748604907270373</d6p1:double><d6p1:double>1.1389363614695607</d6p1:double><d6p1:double>0.071410733014477035</d6p1:double><d6p1:double>-0.30396827064180726</d6p1:double><d6p1:double>-0.49889464677418355</d6p1:double><d6p1:double>1.2854424710887331</d6p1:double><d6p1:double>0.75108322518040616</d6p1:double><d6p1:double>-0.052259613380499989</d6p1:double><d6p1:double>-0.058755858353418372</d6p1:double><d6p1:double>0.82753103203488221</d6p1:double><d6p1:double>-0.068882428886875777</d6p1:double><d6p1:double>0.29682337148149757</d6p1:double><d6p1:double>0.70045274796803869</d6p1:double><d6p1:double>0.58911531090644464</d6p1:double><d6p1:double>-0.13521581574346411</d6p1:double><d6p1:double>0.7978722117745235</d6p1:double><d6p1:double>1.1761593375305803</d6p1:double><d6p1:double>0.43400834485548262</d6p1:double></Weights></Neuron><Neuron><Bias>-1.7859020823632115E-05</Bias><Output>1</Output><Weights xmlns:d6p1="http://schemas.microsoft.com/2003/10/Serialization/Arrays"><d6p1:double>0.68137667968371207</d6p1:double><d6p1:double>-0.11013350121365378</d6p1:double><d6p1:double>0.91301958796050842</d6p1:double><d6p1:double>0.80325866470631868</d6p1:double><d6p1:double>0.38415328094083406</d6p1:double><d6p1:double>0.83654602139167122</d6p1:double><d6p1:double>0.56955435551939115</d6p1:double><d6p1:double>0.88143061376183152</d6p1:double><d6p1:double>-0.051216425293045</d6p1:double><d6p1:double>0.9918243341429317</d6p1:double><d6p1:double>0.8629749209318528</d6p1:double><d6p1:double>0.42663995964674689</d6p1:double><d6p1:double>1.1011641487584249</d6p1:double><d6p1:double>0.40946129946308751</d6p1:double><d6p1:double>0.65402746710826687</d6p1:double><d6p1:double>1.2972378173930033</d6p1:double><d6p1:double>0.22332103528080291</d6p1:double><d6p1:double>0.14846628121217215</d6p1:double><d6p1:double>1.036535619242771</d6p1:double><d6p1:double>0.898462462652073</d6p1:double><d6p1:double>0.47105044214941455</d6p1:double><d6p1:double>0.55948400046038926</d6p1:double><d6p1:double>-0.096983101473787733</d6p1:double><d6p1:double>0.237847243665907</d6p1:double><d6p1:double>0.15874428555565909</d6p1:double></Weights></Neuron><Neuron><Bias>-0.99923668861578407</Bias><Output>1</Output><Weights xmlns:d6p1="http://schemas.microsoft.com/2003/10/Serialization/Arrays"><d6p1:double>0.19667218924178176</d6p1:double><d6p1:double>0.78803708978858555</d6p1:double><d6p1:double>1.6917955967651968</d6p1:double><d6p1:double>-0.028213171589939006</d6p1:double><d6p1:double>0.17767854147084414</d6p1:double><d6p1:double>1.0117308832805783</d6p1:double><d6p1:double>0.98787455944321412</d6p1:double><d6p1:double>1.0869428106553125</d6p1:double><d6p1:double>0.49121563489421338</d6p1:double><d6p1:double>0.82586694488360635</d6p1:double><d6p1:double>0.031178315243082073</d6p1:double><d6p1:double>-0.5989302300883137</d6p1:double><d6p1:double>0.24130875415528602</d6p1:double><d6p1:double>-0.40294114950209997</d6p1:double><d6p1:double>0.94258218750770606</d6p1:double><d6p1:double>1.3515666501069736</d6p1:double><d6p1:double>-0.64704589227818432</d6p1:double><d6p1:double>0.56519099919963878</d6p1:double><d6p1:double>0.26014079766100168</d6p1:double><d6p1:double>-0.21016611177000155</d6p1:double><d6p1:double>-0.51525422865897164</d6p1:double><d6p1:double>0.2741258819048723</d6p1:double><d6p1:double>-0.15025629436428342</d6p1:double><d6p1:double>0.24573573361465623</d6p1:double><d6p1:double>-0.458299201474553</d6p1:double></Weights></Neuron><Neuron><Bias>0.00079462984097625558</Bias><Output>-1</Output><Weights xmlns:d6p1="http://schemas.microsoft.com/2003/10/Serialization/Arrays"><d6p1:double>-0.64291600557593565</d6p1:double><d6p1:double>-0.18995145665918486</d6p1:double><d6p1:double>0.05111789977215047</d6p1:double><d6p1:double>-0.21735618440798174</d6p1:double><d6p1:double>1.1415549129289109</d6p1:double><d6p1:double>0.43531375219701274</d6p1:double><d6p1:double>0.91756144237909221</d6p1:double><d6p1:double>0.612903742043386</d6p1:double><d6p1:double>0.96159532411853355</d6p1:double><d6p1:double>1.170261148659008</d6p1:double><d6p1:double>0.64364573723835894</d6p1:double><d6p1:double>0.18257834522324634</d6p1:double><d6p1:double>0.36122958238547259</d6p1:double><d6p1:double>1.2185188375823952</d6p1:double><d6p1:double>-0.19884414846077253</d6p1:double><d6p1:double>0.48134704982285337</d6p1:double><d6p1:double>0.91931040816281251</d6p1:double><d6p1:double>-0.19353061288805157</d6p1:double><d6p1:double>-0.049175735219316896</d6p1:double><d6p1:double>0.24947078721636295</d6p1:double><d6p1:double>-0.00560859610954652</d6p1:double><d6p1:double>0.59279604635962346</d6p1:double><d6p1:double>0.81793245676870385</d6p1:double><d6p1:double>0.4671197367426973</d6p1:double><d6p1:double>-0.13441878970598603</d6p1:double></Weights></Neuron><Neuron><Bias>0.00017146937430181829</Bias><Output>1</Output><Weights xmlns:d6p1="http://schemas.microsoft.com/2003/10/Serialization/Arrays"><d6p1:double>0.718081526333842</d6p1:double><d6p1:double>1.1058068511634243</d6p1:double><d6p1:double>0.67406737351649</d6p1:double><d6p1:double>0.45440332565257147</d6p1:double><d6p1:double>-0.036034325151361908</d6p1:double><d6p1:double>0.54300076483796378</d6p1:double><d6p1:double>0.71308308346589366</d6p1:double><d6p1:double>-0.48045015994125739</d6p1:double><d6p1:double>0.54971893310593289</d6p1:double><d6p1:double>0.3262095690804851</d6p1:double><d6p1:double>0.47942105727709666</d6p1:double><d6p1:double>0.62236969598015579</d6p1:double><d6p1:double>1.2557001468128344</d6p1:double><d6p1:double>-0.20739432907357444</d6p1:double><d6p1:double>0.05589946341921713</d6p1:double><d6p1:double>0.38089682076307796</d6p1:double><d6p1:double>0.64830769649798681</d6p1:double><d6p1:double>0.59747084473172662</d6p1:double><d6p1:double>1.3589028458469996</d6p1:double><d6p1:double>0.93552281454356268</d6p1:double><d6p1:double>0.30666669570342847</d6p1:double><d6p1:double>0.35471865389037321</d6p1:double><d6p1:double>-0.1138601452693703</d6p1:double><d6p1:double>0.65770805894640694</d6p1:double><d6p1:double>0.60431702855439873</d6p1:double></Weights></Neuron><Neuron><Bias>-1.0013723877505769</Bias><Output>-1</Output><Weights xmlns:d6p1="http://schemas.microsoft.com/2003/10/Serialization/Arrays"><d6p1:double>-0.44642380132874249</d6p1:double><d6p1:double>-0.48200847714350115</d6p1:double><d6p1:double>0.30710593451269275</d6p1:double><d6p1:double>1.6706828494787194</d6p1:double><d6p1:double>0.80849875874946964</d6p1:double><d6p1:double>0.91222958403239285</d6p1:double><d6p1:double>-0.4439400169181541</d6p1:double><d6p1:double>-0.3210653002463989</d6p1:double><d6p1:double>0.63539512016146171</d6p1:double><d6p1:double>-0.0042381012357279244</d6p1:double><d6p1:double>0.89649346328252477</d6p1:double><d6p1:double>-0.37531856557100046</d6p1:double><d6p1:double>0.25840479629669322</d6p1:double><d6p1:double>1.1351799564142895</d6p1:double><d6p1:double>-0.49160871120541144</d6p1:double><d6p1:double>-0.18494903668924167</d6p1:double><d6p1:double>-1.0861704609533023</d6p1:double><d6p1:double>1.0273946883809366</d6p1:double><d6p1:double>-0.47829058792312312</d6p1:double><d6p1:double>-0.047907177249605318</d6p1:double><d6p1:double>-0.0067282700315649431</d6p1:double><d6p1:double>1.1802913134810393</d6p1:double><d6p1:double>0.56780111179172843</d6p1:double><d6p1:double>0.14312852941670126</d6p1:double><d6p1:double>-0.24551530465385205</d6p1:double></Weights></Neuron><Neuron><Bias>0.0016444322972207158</Bias><Output>1</Output><Weights xmlns:d6p1="http://schemas.microsoft.com/2003/10/Serialization/Arrays"><d6p1:double>0.47954466599205825</d6p1:double><d6p1:double>0.687896849400233</d6p1:double><d6p1:double>0.955982511862867</d6p1:double><d6p1:double>-0.08008928798115561</d6p1:double><d6p1:double>1.0443093981647735</d6p1:double><d6p1:double>-0.72647479504269785</d6p1:double><d6p1:double>-0.01008894091015123</d6p1:double><d6p1:double>-0.076674260577773184</d6p1:double><d6p1:double>0.13576886558182866</d6p1:double><d6p1:double>-0.1869616080335296</d6p1:double><d6p1:double>0.32409919070292992</d6p1:double><d6p1:double>0.0049186512464662168</d6p1:double><d6p1:double>0.75124410117806517</d6p1:double><d6p1:double>1.1762406555401237</d6p1:double><d6p1:double>0.17197494788541154</d6p1:double><d6p1:double>0.99488882884745578</d6p1:double><d6p1:double>0.47773817445705247</d6p1:double><d6p1:double>0.450014279161593</d6p1:double><d6p1:double>0.90483326781414075</d6p1:double><d6p1:double>0.28411655694792892</d6p1:double><d6p1:double>1.3368626021056622</d6p1:double><d6p1:double>-0.23442310831087276</d6p1:double><d6p1:double>0.50799898686943967</d6p1:double><d6p1:double>0.2546408354894808</d6p1:double><d6p1:double>0.16489004580137173</d6p1:double></Weights></Neuron><Neuron><Bias>-0.99989331651813029</Bias><Output>-1</Output><Weights xmlns:d6p1="http://schemas.microsoft.com/2003/10/Serialization/Arrays"><d6p1:double>0.86283112093545178</d6p1:double><d6p1:double>0.427064315752036</d6p1:double><d6p1:double>0.19630757586290321</d6p1:double><d6p1:double>-0.21455629446585117</d6p1:double><d6p1:double>0.73416128567915528</d6p1:double><d6p1:double>-0.099770533642783973</d6p1:double><d6p1:double>-0.035328895575969625</d6p1:double><d6p1:double>-0.12150887571180356</d6p1:double><d6p1:double>0.23730926606908775</d6p1:double><d6p1:double>-0.31044846085693978</d6p1:double><d6p1:double>0.21997976302395847</d6p1:double><d6p1:double>0.36785583271072486</d6p1:double><d6p1:double>-0.24803820020678624</d6p1:double><d6p1:double>1.3706136198867667</d6p1:double><d6p1:double>0.049203954819407168</d6p1:double><d6p1:double>0.57825562013473408</d6p1:double><d6p1:double>0.30778681280141534</d6p1:double><d6p1:double>0.029010585587264694</d6p1:double><d6p1:double>0.91790445002754262</d6p1:double><d6p1:double>0.81607175827351153</d6p1:double><d6p1:double>-0.24170580297511587</d6p1:double><d6p1:double>0.70944691279253869</d6p1:double><d6p1:double>1.4938143321765507</d6p1:double><d6p1:double>-0.22242963138358557</d6p1:double><d6p1:double>0.90464330474449517</d6p1:double></Weights></Neuron><Neuron><Bias>0.0010144468366729855</Bias><Output>-1</Output><Weights xmlns:d6p1="http://schemas.microsoft.com/2003/10/Serialization/Arrays"><d6p1:double>0.43878189089425529</d6p1:double><d6p1:double>0.056843252037308209</d6p1:double><d6p1:double>0.33526559689908741</d6p1:double><d6p1:double>0.38797059286826713</d6p1:double><d6p1:double>0.67925985621237417</d6p1:double><d6p1:double>0.21183618911762975</d6p1:double><d6p1:double>0.9961086699542151</d6p1:double><d6p1:double>0.64316277066132588</d6p1:double><d6p1:double>0.84422415475567469</d6p1:double><d6p1:double>0.32468843333402075</d6p1:double><d6p1:double>-0.76680702781179522</d6p1:double><d6p1:double>-0.42641811799353552</d6p1:double><d6p1:double>-0.1965052442262315</d6p1:double><d6p1:double>0.45462193480990809</d6p1:double><d6p1:double>0.65230222586019693</d6p1:double><d6p1:double>-0.0896973226361572</d6p1:double><d6p1:double>1.2136490303019463</d6p1:double><d6p1:double>0.37812687034544545</d6p1:double><d6p1:double>0.218861557884906</d6p1:double><d6p1:double>1.1826753291210994</d6p1:double><d6p1:double>1.0422783336521177</d6p1:double><d6p1:double>0.047750140982897538</d6p1:double><d6p1:double>0.94859871206991619</d6p1:double><d6p1:double>0.33944634523174866</d6p1:double><d6p1:double>-0.077851969370767715</d6p1:double></Weights></Neuron><Neuron><Bias>-1.0001158887261188</Bias><Output>-1</Output><Weights xmlns:d6p1="http://schemas.microsoft.com/2003/10/Serialization/Arrays"><d6p1:double>0.73933640678728862</d6p1:double><d6p1:double>0.30303536512337459</d6p1:double><d6p1:double>0.44782714551052549</d6p1:double><d6p1:double>0.793094076981052</d6p1:double><d6p1:double>0.083080590226873821</d6p1:double><d6p1:double>-0.27623777698544855</d6p1:double><d6p1:double>0.58855537522439572</d6p1:double><d6p1:double>0.49499454560514033</d6p1:double><d6p1:double>0.60941358917481325</d6p1:double><d6p1:double>0.59935590897021307</d6p1:double><d6p1:double>1.0629022685721772</d6p1:double><d6p1:double>0.24533569956087575</d6p1:double><d6p1:double>-0.5343557482800928</d6p1:double><d6p1:double>0.67070642001955294</d6p1:double><d6p1:double>0.88116516573376868</d6p1:double><d6p1:double>0.056000523639393118</d6p1:double><d6p1:double>-0.32837288246178448</d6p1:double><d6p1:double>1.0795506633840211</d6p1:double><d6p1:double>0.36734245861252657</d6p1:double><d6p1:double>-0.16955880677744317</d6p1:double><d6p1:double>0.75722898095215274</d6p1:double><d6p1:double>0.44634446665102689</d6p1:double><d6p1:double>-0.33359266281710309</d6p1:double><d6p1:double>0.31403359052929425</d6p1:double><d6p1:double>1.0325679059634831</d6p1:double></Weights></Neuron><Neuron><Bias>-0.99872930448495867</Bias><Output>-1</Output><Weights xmlns:d6p1="http://schemas.microsoft.com/2003/10/Serialization/Arrays"><d6p1:double>0.85894160710288636</d6p1:double><d6p1:double>0.89351049605117516</d6p1:double><d6p1:double>0.20221526954443381</d6p1:double><d6p1:double>0.77077047522320308</d6p1:double><d6p1:double>0.39796819451042853</d6p1:double><d6p1:double>1.0446639892581666</d6p1:double><d6p1:double>0.59204034486147961</d6p1:double><d6p1:double>0.46327302675314763</d6p1:double><d6p1:double>1.2167501324954746</d6p1:double><d6p1:double>0.44496393415340185</d6p1:double><d6p1:double>0.64804931708730129</d6p1:double><d6p1:double>0.73883675452373077</d6p1:double><d6p1:double>0.028785451441441023</d6p1:double><d6p1:double>0.93912922254597508</d6p1:double><d6p1:double>0.96995056955066727</d6p1:double><d6p1:double>0.37319382968048942</d6p1:double><d6p1:double>0.673821247787084</d6p1:double><d6p1:double>0.41570741297670161</d6p1:double><d6p1:double>-0.47565439979897511</d6p1:double><d6p1:double>-0.062796457584773549</d6p1:double><d6p1:double>0.74291656505852066</d6p1:double><d6p1:double>0.33732357740259733</d6p1:double><d6p1:double>0.58032003825611522</d6p1:double><d6p1:double>0.8589786737624594</d6p1:double><d6p1:double>-0.037072525306097108</d6p1:double></Weights></Neuron><Neuron><Bias>-0.0010941873422063266</Bias><Output>-1</Output><Weights 