<?xml version="1.0" encoding="utf-16"?><NeuralNetwork xmlns:i="http://www.w3.org/2001/XMLSchema-instance" xmlns="http://schemas.datacontract.org/2004/07/AE.MachineLearning.NeuralNet.Core"><_networkLayers><NetworkLayer><_isInputLayer>true</_isInputLayer><_neurons><Neuron><Bias>0</Bias><Output>-68.2896102</Output><Weights xmlns:d6p1="http://schemas.microsoft.com/2003/10/Serialization/Arrays"><d6p1:double>1</d6p1:double></Weights></Neuron><Neuron><Bias>0</Bias><Output>-178.0164855</Output><Weights xmlns:d6p1="http://schemas.microsoft.com/2003/10/Serialization/Arrays"><d6p1:double>1</d6p1:double></Weights></Neuron><Neuron><Bias>0</Bias><Output>-78.21238264</Output><Weights xmlns:d6p1="http://schemas.microsoft.com/2003/10/Serialization/Arrays"><d6p1:double>1</d6p1:double></Weights></Neuron><Neuron><Bias>0</Bias><Output>-403.1610336</Output><Weights xmlns:d6p1="http://schemas.microsoft.com/2003/10/Serialization/Arrays"><d6p1:double>1</d6p1:double></Weights></Neuron><Neuron><Bias>0</Bias><Output>-128.8948337</Output><Weights xmlns:d6p1="http://schemas.microsoft.com/2003/10/Serialization/Arrays"><d6p1:double>1</d6p1:double></Weights></Neuron><Neuron><Bias>0</Bias><Output>335.4354903</Output><Weights xmlns:d6p1="http://schemas.microsoft.com/2003/10/Serialization/Arrays"><d6p1:double>1</d6p1:double></Weights></Neuron><Neuron><Bias>0</Bias><Output>-618.3561102</Output><Weights xmlns:d6p1="http://schemas.microsoft.com/2003/10/Serialization/Arrays"><d6p1:double>1</d6p1:double></Weights></Neuron><Neuron><Bias>0</Bias><Output>-6.159692746</Output><Weights xmlns:d6p1="http://schemas.microsoft.com/2003/10/Serialization/Arrays"><d6p1:double>1</d6p1:double></Weights></Neuron><Neuron><Bias>0</Bias><Output>13.55981881</Output><Weights xmlns:d6p1="http://schemas.microsoft.com/2003/10/Serialization/Arrays"><d6p1:double>1</d6p1:double></Weights></Neuron><Neuron><Bias>0</Bias><Output>-17.09069584</Output><Weights xmlns:d6p1="http://schemas.microsoft.com/2003/10/Serialization/Arrays"><d6p1:double>1</d6p1:double></Weights></Neuron><Neuron><Bias>0</Bias><Output>81.87185201</Output><Weights xmlns:d6p1="http://schemas.microsoft.com/2003/10/Serialization/Arrays"><d6p1:double>1</d6p1:double></Weights></Neuron><Neuron><Bias>0</Bias><Output>165.102179</Output><Weights xmlns:d6p1="http://schemas.microsoft.com/2003/10/Serialization/Arrays"><d6p1:double>1</d6p1:double></Weights></Neuron><Neuron><Bias>0</Bias><Output>-60.52659489</Output><Weights xmlns:d6p1="http://schemas.microsoft.com/2003/10/Serialization/Arrays"><d6p1:double>1</d6p1:double></Weights></Neuron><Neuron><Bias>0</Bias><Output>-143.0666274</Output><Weights xmlns:d6p1="http://schemas.microsoft.com/2003/10/Serialization/Arrays"><d6p1:double>1</d6p1:double></Weights></Neuron><Neuron><Bias>0</Bias><Output>476.7610064</Output><Weights xmlns:d6p1="http://schemas.microsoft.com/2003/10/Serialization/Arrays"><d6p1:double>1</d6p1:double></Weights></Neuron><Neuron><Bias>0</Bias><Output>-94.01943886</Output><Weights xmlns:d6p1="http://schemas.microsoft.com/2003/10/Serialization/Arrays"><d6p1:double>1</d6p1:double></Weights></Neuron><Neuron><Bias>0</Bias><Output>-39.70903979</Output><Weights xmlns:d6p1="http://schemas.microsoft.com/2003/10/Serialization/Arrays"><d6p1:double>1</d6p1:double></Weights></Neuron><Neuron><Bias>0</Bias><Output>-357.1717671</Output><Weights xmlns:d6p1="http://schemas.microsoft.com/2003/10/Serialization/Arrays"><d6p1:double>1</d6p1:double></Weights></Neuron><Neuron><Bias>0</Bias><Output>5.573626645</Output><Weights xmlns:d6p1="http://schemas.microsoft.com/2003/10/Serialization/Arrays"><d6p1:double>1</d6p1:double></Weights></Neuron><Neuron><Bias>0</Bias><Output>-102.0555234</Output><Weights xmlns:d6p1="http://schemas.microsoft.com/2003/10/Serialization/Arrays"><d6p1:double>1</d6p1:double></Weights></Neuron><Neuron><Bias>0</Bias><Output>-151.2481658</Output><Weights xmlns:d6p1="http://schemas.microsoft.com/2003/10/Serialization/Arrays"><d6p1:double>1</d6p1:double></Weights></Neuron><Neuron><Bias>0</Bias><Output>25.44569953</Output><Weights xmlns:d6p1="http://schemas.microsoft.com/2003/10/Serialization/Arrays"><d6p1:double>1</d6p1:double></Weights></Neuron><Neuron><Bias>0</Bias><Output>-157.6360077</Output><Weights xmlns:d6p1="http://schemas.microsoft.com/2003/10/Serialization/Arrays"><d6p1:double>1</d6p1:double></Weights></Neuron><Neuron><Bias>0</Bias><Output>147.8685355</Output><Weights xmlns:d6p1="http://schemas.microsoft.com/2003/10/Serialization/Arrays"><d6p1:double>1</d6p1:double></Weights></Neuron><Neuron><Bias>0</Bias><Output>-155.7358557</Output><Weights xmlns:d6p1="http://schemas.microsoft.com/2003/10/Serialization/Arrays"><d6p1:double>1</d6p1:double></Weights></Neuron></_neurons><_numOfNeurons>25</_numOfNeurons><_numberOfInputsPerNeuron>1</_numberOfInputsPerNeuron></NetworkLayer><NetworkLayer><_isInputLayer>false</_isInputLayer><_neurons><Neuron><Bias>0.35702408666532315</Bias><Output>-1</Output><Weights xmlns:d6p1="http://schemas.microsoft.com/2003/10/Serialization/Arrays"><d6p1:double>-0.17614911211670073</d6p1:double><d6p1:double>1.080130122053899</d6p1:double><d6p1:double>-0.531883760498602</d6p1:double><d6p1:double>2.0631646339636962</d6p1:double><d6p1:double>-2.7868827997756425</d6p1:double><d6p1:double>-0.34941679100739853</d6p1:double><d6p1:double>3.1519698688982629</d6p1:double><d6p1:double>2.6366368082866938</d6p1:double><d6p1:double>0.75718209812125581</d6p1:double><d6p1:double>-2.4562736458017285</d6p1:double><d6p1:double>2.1050406726780446</d6p1:double><d6p1:double>-1.5635129340373202</d6p1:double><d6p1:double>-1.4470359572496656</d6p1:double><d6p1:double>4.5440096838899695</d6p1:double><d6p1:double>3.1314263301509682</d6p1:double><d6p1:double>-2.5904030292008171</d6p1:double><d6p1:double>2.7679012190277668</d6p1:double><d6p1:double>1.1616336324600363</d6p1:double><d6p1:double>2.1026461358944615</d6p1:double><d6p1:double>-0.20541781097904613</d6p1:double><d6p1:double>2.8967325536819177</d6p1:double><d6p1:double>-0.53271816957363349</d6p1:double><d6p1:double>2.86268401266881</d6p1:double><d6p1:double>1.1204710061068812</d6p1:double><d6p1:double>-1.3671001720437452</d6p1:double></Weights></Neuron><Neuron><Bias>0.2786394272357966</Bias><Output>-1</Output><Weights xmlns:d6p1="http://schemas.microsoft.com/2003/10/Serialization/Arrays"><d6p1:double>-3.5840495601662621</d6p1:double><d6p1:double>-2.32116226652726</d6p1:double><d6p1:double>0.44126779559163215</d6p1:double><d6p1:double>2.6455593496263825</d6p1:double><d6p1:double>1.3836679400018443</d6p1:double><d6p1:double>-2.3503467871726915</d6p1:double><d6p1:double>-1.1162574979666882</d6p1:double><d6p1:double>1.3925789580688677</d6p1:double><d6p1:double>-0.61625686774438837</d6p1:double><d6p1:double>1.2556176629026969</d6p1:double><d6p1:double>-1.1021997676965922</d6p1:double><d6p1:double>-3.4025751348296733</d6p1:double><d6p1:double>-0.488708978165334</d6p1:double><d6p1:double>3.1165644575512679</d6p1:double><d6p1:double>0.85904373865284678</d6p1:double><d6p1:double>-2.4276740989580747</d6p1:double><d6p1:double>0.28689418789534432</d6p1:double><d6p1:double>1.3288761665154241</d6p1:double><d6p1:double>0.68515021557387956</d6p1:double><d6p1:double>3.4612934555984696</d6p1:double><d6p1:double>-4.1995212190384335</d6p1:double><d6p1:double>1.6328511870694749</d6p1:double><d6p1:double>-1.2419996750727109</d6p1:double><d6p1:double>-0.533139822758825</d6p1:double><d6p1:double>0.057924645804422532</d6p1:double></Weights></Neuron><Neuron><Bias>0.97999133832107543</Bias><Output>-1</Output><Weights xmlns:d6p1="http://schemas.microsoft.com/2003/10/Serialization/Arrays"><d6p1:double>-0.91717629934597755</d6p1:double><d6p1:double>1.441060271065747</d6p1:double><d6p1:double>1.5353444097352233</d6p1:double><d6p1:double>-1.6877059604310023</d6p1:double><d6p1:double>-2.2798360668307667</d6p1:double><d6p1:double>0.54131470001050663</d6p1:double><d6p1:double>1.763422108642825</d6p1:double><d6p1:double>0.50774271118954173</d6p1:double><d6p1:double>0.59954966839034673</d6p1:double><d6p1:double>0.3671699077350693</d6p1:double><d6p1:double>-0.796003521420508</d6p1:double><d6p1:double>-2.3124123534619141</d6p1:double><d6p1:double>2.2744243801950921</d6p1:double><d6p1:double>0.97923616637814936</d6p1:double><d6p1:double>0.81315783010982878</d6p1:double><d6p1:double>-0.84455401409183606</d6p1:double><d6p1:double>0.91160242525091917</d6p1:double><d6p1:double>2.1992960266476458</d6p1:double><d6p1:double>-0.64897764213568587</d6p1:double><d6p1:double>2.6045306594173496</d6p1:double><d6p1:double>-0.58102510982233613</d6p1:double><d6p1:double>-2.4742225500874535</d6p1:double><d6p1:double>2.1534411738382517</d6p1:double><d6p1:double>0.12879728112308889</d6p1:double><d6p1:double>-0.58638890657605047</d6p1:double></Weights></Neuron><Neuron><Bias>0.0351288016859843</Bias><Output>1</Output><Weights xmlns:d6p1="http://schemas.microsoft.com/2003/10/Serialization/Arrays"><d6p1:double>-0.78471692697766737</d6p1:double><d6p1:double>-0.86275230622826482</d6p1:double><d6p1:double>0.85566030294810436</d6p1:double><d6p1:double>1.6605204058364496</d6p1:double><d6p1:double>-0.30877406769267163</d6p1:double><d6p1:double>-0.0380482658528155</d6p1:double><d6p1:double>-0.45491738992284925</d6p1:double><d6p1:double>0.47421455878180163</d6p1:double><d6p1:double>1.0199015949615484</d6p1:double><d6p1:double>2.8359745339081619</d6p1:double><d6p1:double>1.6146637948298785</d6p1:double><d6p1:double>1.3334162741754667</d6p1:double><d6p1:double>-0.027800975485347965</d6p1:double><d6p1:double>-1.7550688945690796</d6p1:double><d6p1:double>4.310914144980158</d6p1:double><d6p1:double>2.230346477368919</d6p1:double><d6p1:double>-0.92578304677110379</d6p1:double><d6p1:double>2.7517949589534649</d6p1:double><d6p1:double>2.9039236482635218</d6p1:double><d6p1:double>-1.4212412522614404</d6p1:double><d6p1:double>-2.4459050108824902</d6p1:double><d6p1:double>1.0722693855133643</d6p1:double><d6p1:double>1.9241691298908112</d6p1:double><d6p1:double>-1.0865549886132753</d6p1:double><d6p1:double>-0.10518692534478583</d6p1:double></Weights></Neuron><Neuron><Bias>0.848658586126149</Bias><Output>-1</Output><Weights xmlns:d6p1="http://schemas.microsoft.com/2003/10/Serialization/Arrays"><d6p1:double>5.2796366810488626</d6p1:double><d6p1:double>-0.101728038564745</d6p1:double><d6p1:double>1.0563047244031427</d6p1:double><d6p1:double>2.0266583261661539</d6p1:double><d6p1:double>-1.0678526979487195</d6p1:double><d6p1:double>0.73728358416979267</d6p1:double><d6p1:double>2.4022929682321008</d6p1:double><d6p1:double>-3.0492030688018978</d6p1:double><d6p1:double>0.741692069585799</d6p1:double><d6p1:double>1.9795989049387872</d6p1:double><d6p1:double>2.6500794805283316</d6p1:double><d6p1:double>-2.588944633105724</d6p1:double><d6p1:double>1.6025915443570014</d6p1:double><d6p1:double>-2.5989245659752904</d6p1:double><d6p1:double>-3.5176775032747845</d6p1:double><d6p1:double>-2.9056410444296636</d6p1:double><d6p1:double>0.91961754822938124</d6p1:double><d6p1:double>2.0329149391940464</d6p1:double><d6p1:double>-0.17524797917467255</d6p1:double><d6p1:double>-1.5130678133054398</d6p1:double><d6p1:double>0.64000799393729968</d6p1:double><d6p1:double>-1.1439009424786368</d6p1:double><d6p1:double>2.2863973805494231</d6p1:double><d6p1:double>0.99854091684649182</d6p1:double><d6p1:double>0.7303579894139427</d6p1:double></Weights></Neuron><Neuron><Bias>0.87282807827046038</Bias><Output>-1</Output><Weights xmlns:d6p1="http://schemas.microsoft.com/2003/10/Serialization/Arrays"><d6p1:double>1.2228652594544278</d6p1:double><d6p1:double>0.37280567734957776</d6p1:double><d6p1:double>0.40615526101612326</d6p1:double><d6p1:double>0.37044136977306247</d6p1:double><d6p1:double>2.2832491391104348</d6p1:double><d6p1:double>0.036797894956212808</d6p1:double><d6p1:double>0.70081244828647482</d6p1:double><d6p1:double>0.28712649132906953</d6p1:double><d6p1:double>-1.0412919828594147</d6p1:double><d6p1:double>0.98784178819177548</d6p1:double><d6p1:double>-0.2675864028240158</d6p1:double><d6p1:double>0.014906800325041335</d6p1:double><d6p1:double>-0.53519465391572663</d6p1:double><d6p1:double>-1.3765158863860907</d6p1:double><d6p1:double>0.53956503926430532</d6p1:double><d6p1:double>0.570758620903288</d6p1:double><d6p1:double>0.39876381626482132</d6p1:double><d6p1:double>-1.4015357624166536</d6p1:double><d6p1:double>1.2091615309328467</d6p1:double><d6p1:double>0.5294079062213527</d6p1:double><d6p1:double>1.1326431963093946</d6p1:double><d6p1:double>0.47630912858776681</d6p1:double><d6p1:double>0.26565854577470521</d6p1:double><d6p1:double>-0.5442173808614158</d6p1:double><d6p1:double>3.5432957687870741</d6p1:double></Weights></Neuron><Neuron><Bias>0.084455440687458513</Bias><Output>-1</Output><Weights xmlns:d6p1="http://schemas.microsoft.com/2003/10/Serialization/Arrays"><d6p1:double>-0.17344824297045153</d6p1:double><d6p1:double>-2.5835162990200171</d6p1:double><d6p1:double>-0.085958434069951226</d6p1:double><d6p1:double>0.95710136054517025</d6p1:double><d6p1:double>1.4363527318436615</d6p1:double><d6p1:double>-1.6817804733348047</d6p1:double><d6p1:double>2.0423248626150929</d6p1:double><d6p1:double>-0.063652938784529031</d6p1:double><d6p1:double>2.251401627899932</d6p1:double><d6p1:double>0.62277431322640209</d6p1:double><d6p1:double>2.107125158996114</d6p1:double><d6p1:double>-0.16928881014505545</d6p1:double><d6p1:double>-0.089289301870321816</d6p1:double><d6p1:double>-0.77630503152474728</d6p1:double><d6p1:double>-0.40386513753056769</d6p1:double><d6p1:double>-0.27807539658467029</d6p1:double><d6p1:double>0.19300376803469177</d6p1:double><d6p1:double>1.2916579134223349</d6p1:double><d6p1:double>2.7911710188565237</d6p1:double><d6p1:double>1.6879452610830463</d6p1:double><d6p1:double>3.3976365484401412</d6p1:double><d6p1:double>1.8568719799456905</d6p1:double><d6p1:double>-0.49926509570700595</d6p1:double><d6p1:double>-4.976744896710108</d6p1:double><d6p1:double>-2.0432387441783426</d6p1:double></Weights></Neuron><Neuron><Bias>0.42717276097600926</Bias><Output>1</Output><Weights xmlns:d6p1="http://schemas.microsoft.com/2003/10/Serialization/Arrays"><d6p1:double>2.5826366218377022</d6p1:double><d6p1:double>-0.49118678365301865</d6p1:double><d6p1:double>0.25807838008598821</d6p1:double><d6p1:double>-1.9324854892262948</d6p1:double><d6p1:double>0.35313189226460462</d6p1:double><d6p1:double>0.22208644513442513</d6p1:double><d6p1:double>2.9426625206325734</d6p1:double><d6p1:double>2.7184412654132961</d6p1:double><d6p1:double>0.36125257010831185</d6p1:double><d6p1:double>1.1134676279021045</d6p1:double><d6p1:double>-2.3921054293232555</d6p1:double><d6p1:double>1.8232158501478284</d6p1:double><d6p1:double>0.29561849209839003</d6p1:double><d6p1:double>-6.8080863725439418</d6p1:double><d6p1:double>0.9530404434194335</d6p1:double><d6p1:double>-0.60341501302200107</d6p1:double><d6p1:double>2.9953037842224997</d6p1:double><d6p1:double>1.5831815566687857</d6p1:double><d6p1:double>0.95590943529111261</d6p1:double><d6p1:double>-4.17691645775889</d6p1:double><d6p1:double>0.4507784108759893</d6p1:double><d6p1:double>-0.31407273692552862</d6p1:double><d6p1:double>-1.3725023721785305</d6p1:double><d6p1:double>0.2885735444019949</d6p1:double><d6p1:double>-0.077092347263634189</d6p1:double></Weights></Neuron><Neuron><Bias>0.37707795349783846</Bias><Output>1</Output><Weights xmlns:d6p1="http://schemas.microsoft.com/2003/10/Serialization/Arrays"><d6p1:double>2.6786701358207954</d6p1:double><d6p1:double>0.16983438371940643</d6p1:double><d6p1:double>1.2241879504156872</d6p1:double><d6p1:double>1.7803753063610352</d6p1:double><d6p1:double>1.0527735567538739</d6p1:double><d6p1:double>2.9412738766900528</d6p1:double><d6p1:double>1.3107535848186462</d6p1:double><d6p1:double>2.1321765895319733</d6p1:double><d6p1:double>1.5730044874676423</d6p1:double><d6p1:double>1.2919819755318933</d6p1:double><d6p1:double>0.55948631205838062</d6p1:double><d6p1:double>1.2587743541032062</d6p1:double><d6p1:double>0.648221311602285</d6p1:double><d6p1:double>-1.5878308940236805</d6p1:double><d6p1:double>2.5024108837551342</d6p1:double><d6p1:double>0.042552018558035837</d6p1:double><d6p1:double>-1.4846043990889435</d6p1:double><d6p1:double>1.3988881044154104</d6p1:double><d6p1:double>-1.5590777419461068</d6p1:double><d6p1:double>-3.6069074926233093</d6p1:double><d6p1:double>1.63179584189967</d6p1:double><d6p1:double>-1.6033482798298326</d6p1:double><d6p1:double>2.2987788121578157</d6p1:double><d6p1:double>1.9053168693208125</d6p1:double><d6p1:double>-0.76451386098124341</d6p1:double></Weights></Neuron><Neuron><Bias>0.79568903124408741</Bias><Output>1</Output><Weights xmlns:d6p1="http://schemas.microsoft.com/2003/10/Serialization/Arrays"><d6p1:double>-0.2026795687330854</d6p1:double><d6p1:double>0.33608973838066286</d6p1:double><d6p1:double>-0.95913935456677379</d6p1:double><d6p1:double>-0.40526528468703582</d6p1:double><d6p1:double>0.010576370553921181</d6p1:double><d6p1:double>0.21366007104628942</d6p1:double><d6p1:double>0.90909382600746147</d6p1:double><d6p1:double>-0.69129486347070845</d6p1:double><d6p1:double>-1.3741393519946914</d6p1:double><d6p1:double>-0.47218513074007357</d6p1:double><d6p1:double>2.8272677439698777</d6p1:double><d6p1:double>2.7409453459979534</d6p1:double><d6p1:double>-2.3586704112123957</d6p1:double><d6p1:double>3.1678241004901628</d6p1:double><d6p1:double>1.7684179867028447</d6p1:double><d6p1:double>-0.31145381195321037</d6p1:double><d6p1:double>0.64346225798410817</d6p1:double><d6p1:double>-2.6417986792717669</d6p1:double><d6p1:double>2.8979761750491071</d6p1:double><d6p1:double>1.945057082173389</d6p1:double><d6p1:double>-2.1675877905374143</d6p1:double><d6p1:double>3.35147999977421</d6p1:double><d6p1:double>1.4101385480771196</d6p1:double><d6p1:double>1.1322367834154647</d6p1:double><d6p1:double>2.4082999892115406</d6p1:double></Weights></Neuron><Neuron><Bias>0.53283449532559912</Bias><Output>-1</Output><Weights xmlns:d6p1="http://schemas.microsoft.com/2003/10/Serialization/Arrays"><d6p1:double>0.82803002601237463</d6p1:double><d6p1:double>0.06439412520653548</d6p1:double><d6p1:double>1.6089040709610678</d6p1:double><d6p1:double>-0.43029012711132014</d6p1:double><d6p1:double>3.6660815742151556</d6p1:double><d6p1:double>-1.458997817871081</d6p1:double><d6p1:double>-0.28687239519204516</d6p1:double><d6p1:double>0.75326302947607</d6p1:double><d6p1:double>-4.443471521168485</d6p1:double><d6p1:double>-0.52794494296083239</d6p1:double><d6p1:double>-2.3843855986501823</d6p1:double><d6p1:double>0.81677910033325152</d6p1:double><d6p1:double>-1.7474383345787536</d6p1:double><d6p1:double>0.68150809283322233</d6p1:double><d6p1:double>-1.5555317741944075</d6p1:double><d6p1:double>0.833375676512413</d6p1:double><d6p1:double>-0.4546748882860201</d6p1:double><d6p1:double>-1.0347917468909444</d6p1:double><d6p1:double>0.043502496224758921</d6p1:double><d6p1:double>0.5960857048968492</d6p1:double><d6p1:double>0.22489089681793345</d6p1:double><d6p1:double>0.27424548965188189</d6p1:double><d6p1:double>-0.83112406138803252</d6p1:double><d6p1:double>1.4825419461302229</d6p1:double><d6p1:double>3.5868105969281023</d6p1:double></Weights></Neuron><Neuron><Bias>0.13300751173287328</Bias><Output>-1</Output><Weights xmlns:d6p1="http://schemas.microsoft.com/2003/10/Serialization/Arrays"><d6p1:double>2.1169032825101031</d6p1:double><d6p1:double>-1.9134269580181429</d6p1:double><d6p1:double>-1.0259912585577493</d6p1:double><d6p1:double>-0.25300874196393769</d6p1:double><d6p1:double>-0.41437996836805407</d6p1:double><d6p1:double>1.1425890294881658</d6p1:double><d6p1:double>1.8107609334031154</d6p1:double><d6p1:double>3.179073653579557</d6p1:double><d6p1:double>0.64498453387258747</d6p1:double><d6p1:double>-0.60087470281333666</d6p1:double><d6p1:double>3.4136829316474477</d6p1:double><d6p1:double>2.5551324035216374</d6p1:double><d6p1:double>-0.42040050915999738</d6p1:double><d6p1:double>0.62112904932620394</d6p1:double><d6p1:double>0.7942651061462398</d6p1:double><d6p1:double>0.79909822688852128</d6p1:double><d6p1:double>-1.60141919976019</d6p1:double><d6p1:double>3.2199850160075192</d6p1:double><d6p1:double>-2.9804338396157783</d6p1:double><d6p1:double>-0.8784193508015814</d6p1:double><d6p1:double>-1.4476677759780625</d6p1:double><d6p1:double>-0.61004062881588583</d6p1:double><d6p1:double>1.9516540694696449</d6p1:double><d6p1:double>0.34774486570756286</d6p1:double><d6p1:double>-1.8278037105477636</d6p1:double></Weights></Neuron><Neuron><Bias>0.97530861182210371</Bias><Output>-1</Output><Weights xmlns:d6p1="http://schemas.microsoft.com/2003/10/Serialization/Arrays"><d6p1:double>-1.6933852569403205</d6p1:double><d6p1:double>-1.7147286692719681</d6p1:double><d6p1:double>-0.56835258449037884</d6p1:double><d6p1:double>1.0242618562855492</d6p1:double><d6p1:double>3.4300902628052272</d6p1:double><d6p1:double>0.52181613199875132</d6p1:double><d6p1:double>2.0834862512083152</d6p1:double><d6p1:double>-0.14053410219762541</d6p1:double><d6p1:double>2.1639200533647687</d6p1:double><d6p1:double>1.1041962904361806</d6p1:double><d6p1:double>-0.054883598636026487</d6p1:double><d6p1:double>0.58882968929711232</d6p1:double><d6p1:double>-2.4870266757969652</d6p1:double><d6p1:double>-1.9914285321312262</d6p1:double><d6p1:double>1.1843296930328591</d6p1:double><d6p1:double>-1.478394515005959</d6p1:double><d6p1:double>4.2740567823443376</d6p1:double><d6p1:double>1.4352084940005168</d6p1:double><d6p1:double>-0.57104627194205382</d6p1:double><d6p1:double>1.0297001374150567</d6p1:double><d6p1:double>2.1361441892046211</d6p1:double><d6p1:double>-0.36551062542512935</d6p1:double><d6p1:double>0.4832863413669613</d6p1:double><d6p1:double>2.1347692688541655</d6p1:double><d6p1:double>0.73768896828693986</d6p1:double></Weights></Neuron><Neuron><Bias>0.16029299239401396</Bias><Output>1</Output><Weights xmlns:d6p1="http://schemas.microsoft.com/2003/10/Serialization/Arrays"><d6p1:double>2.7153332920909419</d6p1:double><d6p1:double>-0.35135732526282415</d6p1:double><d6p1:double>-1.6512694784657875</d6p1:double><d6p1:double>-3.1054414963666264</d6p1:double><d6p1:double>-1.1552602885200205</d6p1:double><d6p1:double>-0.05073661937190431</d6p1:double><d6p1:double>-1.943313471319744</d6p1:double><d6p1:double>-1.0253826179936307</d6p1:double><d6p1:double>1.1888851771327864</d6p1:double><d6p1:double>0.23077430040190211</d6p1:double><d6p1:double>-2.2712641670261888</d6p1:double><d6p1:double>3.749895574170135</d6p1:double><d6p1:double>0.96049541586918552</d6p1:double><d6p1:double>-0.10138687763526158</d6p1:double><d6p1:double>1.1675192435611252</d6p1:double><d6p1:double>-1.0168204208068077</d6p1:double><d6p1:double>-1.0953623470105012</d6p1:double><d6p1:double>-2.4338921698554032</d6p1:double><d6p1:double>-0.40084589556907185</d6p1:double><d6p1:double>1.1072775542274711</d6p1:double><d6p1:double>4.8887049923518289</d6p1:double><d6p1:double>-1.7520730091211445</d6p1:double><d6p1:double>4.7792806299691755</d6p1:double><d6p1:double>1.6412043276308841</d6p1:double><d6p1:double>1.0254319860784329</d6p1:double></Weights></Neuron><Neuron><Bias>0.058539313585583876</Bias><Output>-1</Output><Weights xmlns:d6p1="http://schemas.microsoft.com/2003/10/Serialization/Arrays"><d6p1:double>3.5186030182783394</d6p1:double><d6p1:double>1.6935687909842974</d6p1:double><d6p1:double>1.7572233521858827</d6p1:double><d6p1:double>4.833823766235775</d6p1:double><d6p1:double>3.1421065066895708</d6p1:double><d6p1:double>0.55526705338030524</d6p1:double><d6p1:double>2.1728494673159777</d6p1:double><d6p1:double>0.13784159657657682</d6p1:double><d6p1:double>1.344849638510131</d6p1:double><d6p1:double>-3.1003830514319994</d6p1:double><d6p1:double>-1.2717745292130747</d6p1:double><d6p1:double>0.83790386915528614</d6p1:double><d6p1:double>3.3579082338620982</d6p1:double><d6p1:double>-0.36672496195763993</d6p1:double><d6p1:double>0.020229339016006081</d6p1:double><d6p1:double>1.9315717660379566</d6p1:double><d6p1:double>1.206047905022005</d6p1:double><d6p1:double>-1.7940019908918075</d6p1:double><d6p1:double>0.91090443121414055</d6p1:double><d6p1:double>1.8810601770774591</d6p1:double><d6p1:double>2.6297877838132044</d6p1:double><d6p1:double>-0.10158956478534897</d6p1:double><d6p1:double>-0.79187218404388138</d6p1:double><d6p1:double>-0.26542371961921957</d6p1:double><d6p1:double>-3.452405036587797</d6p1:double></Weights></Neuron><Neuron><Bias>0.85116214573618343</Bias><Output>-1</Output><Weights xmlns:d6p1="http://schemas.microsoft.com/2003/10/Serialization/Arrays"><d6p1:double>2.0163650730326586</d6p1:double><d6p1:double>0.3433688531160583</d6p1:double><d6p1:double>-3.127987500806356</d6p1:double><d6p1:double>0.71521792256052874</d6p1:double><d6p1:double>3.166961179357604</d6p1:double><d6p1:double>-0.34874363098876726</d6p1:double><d6p1:double>3.7803648057177286</d6p1:double><d6p1:double>2.332002523168073</d6p1:double><d6p1:double>0.741225081508203</d6p1:double><d6p1:double>-2.7952936134262494</d6p1:double><d6p1:double>-4.7688041128036351</d6p1:double><d6p1:double>-2.456492234455999</d6p1:double><d6p1:double>0.47670239655396945</d6p1:double><d6p1:double>0.82217282843991113</d6p1:double><d6p1:double>-1.5595822704500826</d6p1:double><d6p1:double>3.1320244453919774</d6p1:double><d6p1:double>-0.77319975211678216</d6p1:double><d6p1:double>-1.0930735777609371</d6p1:double><d6p1:double>2.0399037185799336</d6p1:double><d6p1:double>-0.64933464238201821</d6p1:double><d6p1:double>0.73965710004257357</d6p1:double><d6p1:double>0.37022667337526383</d6p1:double><d6p1:double>0.4174638381782439</d6p1:double><d6p1:double>0.59942316874027879</d6p1:double><d6p1:double>-3.290796784454936</d6p1:double></Weights></Neuron><Neuron><Bias>0.47566704855551351</Bias><Output>-1</Output><Weights xmlns:d6p1="http://schemas.microsoft.com/2003/10/Serialization/Arrays"><d6p1:double>1.9499597332357284</d6p1:double><d6p1:double>1.2348004042453837</d6p1:double><d6p1:double>0.523870581954024</d6p1:double><d6p1:double>2.0428718606728355</d6p1:double><d6p1:double>-3.2805840330606841</d6p1:double><d6p1:double>2.8940643382618121</d6p1:double><d6p1:double>-0.79833953837588056</d6p1:double><d6p1:double>3.3745051588106434</d6p1:double><d6p1:double>0.998681436552545</d6p1:double><d6p1:double>2.5733918531865503</d6p1:double><d6p1:double>-0.45732842634625259</d6p1:double><d6p1:double>0.25416347387149385</d6p1:double><d6p1:double>2.9247454029948878</d6p1:double><d6p1:double>0.76011489227572449</d6p1:double><d6p1:double>-3.3656256872849588</d6p1:double><d6p1:double>-3.0962500489589071</d6p1:double><d6p1:double>0.64200675035790167</d6p1:double><d6p1:double>2.4580231627380082</d6p1:double><d6p1:double>-2.3392424136794476</d6p1:double><d6p1:double>0.70066977682793719</d6p1:double><d6p1:double>-2.4210399011048094</d6p1:double><d6p1:double>0.5848558504359942</d6p1:double><d6p1:double>1.0576540872012785</d6p1:double><d6p1:double>2.321869316086548</d6p1:double><d6p1:double>0.46016650131751496</d6p1:double></Weights></Neuron><Neuron><Bias>0.62402339886725833</Bias><Output>1</Output><Weights xmlns:d6p1="http://schemas.microsoft.com/2003/10/Serialization/Arrays"><d6p1:double>-0.99295340894712891</d6p1:double><d6p1:double>0.34509934003693593</d6p1:double><d6p1:double>-0.853124898397077</d6p1:double><d6p1:double>1.0726587226680464</d6p1:double><d6p1:double>1.1905235112520827</d6p1:double><d6p1:double>5.811967120835039</d6p1:double><d6p1:double>0.45440814764234894</d6p1:double><d6p1:double>-1.6018880866589211</d6p1:double><d6p1:double>0.37204778617861611</d6p1:double><d6p1:double>1.6350889349124043</d6p1:double><d6p1:double>-0.23207748929501923</d6p1:double><d6p1:double>2.085279911020089</d6p1:double><d6p1:double>1.3383969406637484</d6p1:double><d6p1:double>-2.1374152649300977</d6p1:double><d6p1:double>-1.2236789001613946</d6p1:double><d6p1:double>0.34157421950601685</d6p1:double><d6p1:double>0.83406637617651047</d6p1:double><d6p1:double>-2.4891217121582945</d6p1:double><d6p1:double>-1.2480347904172424</d6p1:double><d6p1:double>1.3346994007832782</d6p1:double><d6p1:double>0.52184588511721774</d6p1:double><d6p1:double>-1.2351113388650667</d6p1:double><d6p1:double>2.7876462779881179</d6p1:double><d6p1:double>2.4834072944134404</d6p1:double><d6p1:double>-4.0805397633019407</d6p1:double></Weights></Neuron><Neuron><Bias>0.55597411538776065</Bias><Output>-1</Output><Weights xmlns:d6p1="http://schemas.microsoft.com/2003/10/Serialization/Arrays"><d6p1:double>2.582951996522596</d6p1:double><d6p1:double>-0.58281541160821959</d6p1:double><d6p1:double>-0.48460478135081342</d6p1:double><d6p1:double>1.5034901531102387</d6p1:double><d6p1:double>1.8631359896865411</d6p1:double><d6p1:double>-1.0460086373479778</d6p1:double><d6p1:double>1.3216811510427706</d6p1:double><d6p1:double>-1.6566536511569936</d6p1:double><d6p1:double>0.724977225808333</d6p1:double><d6p1:double>0.82278093275160857</d6p1:double><d6p1:double>0.30874865587062805</d6p1:double><d6p1:double>0.39596660716487347</d6p1:double><d6p1:double>-0.50109960829705669</d6p1:double><d6p1:double>-0.74480357046375223</d6p1:double><d6p1:double>-0.89914102880144253</d6p1:double><d6p1:double>-0.45616954548500982</d6p1:double><d6p1:double>0.57600335285000037</d6p1:double><d6p1:double>0.13190191917111435</d6p1:double><d6p1:double>0.65118408848337084</d6p1:double><d6p1:double>0.026479584813422139</d6p1:double><d6p1:double>0.98305192642690764</d6p1:double><d6p1:double>1.7145587716951349</d6p1:double><d6p1:double>0.77635465210805288</d6p1:double><d6p1:double>-0.73512568198490247</d6p1:double><d6p1:double>0.60972746612599971</d6p1:double></Weights></Neuron><Neuron><Bias>0.53820573393586779</Bias><Output>-1</Output><Weights xmlns:d6p1="http://schemas.microsoft.com/2003/10/Serialization/Arrays"><d6p1:double>0.9632636701285836</d6p1:double><d6p1:double>0.026441057804123615</d6p1:double><d6p1:double>0.41908655481893942</d6p1:double><d6p1:double>0.86678555589934181</d6p1:double><d6p1:double>1.377156678876809</d6p1:double><d6p1:double>-0.717946871418674</d6p1:double><d6p1:double>0.72660496893504134</d6p1:double><d6p1:double>-0.24118721105525992</d6p1:double><d6p1:double>0.5161199213219082</d6p1:double><d6p1:double>0.10473320489882157</d6p1:double><d6p1:double>0.31359210348796368</d6p1:double><d6p1:double>0.0661632312824561</d6p1:double><d6p1:double>-0.26006820382019075</d6p1:double><d6p1:double>0.011698847956091973</d6p1:double><d6p1:double>-0.29038657401471168</d6p1:double><d6p1:double>-0.2622668001683312</d6p1:double><d6p1:double>-0.1729544512525524</d6p1:double><d6p1:double>0.047859938109009285</d6p1:double><d6p1:double>0.522035208320225</d6p1:double><d6p1:double>0.024798007337005552</d6p1:double><d6p1:double>0.20626736718405653</d6p1:double><d6p1:double>1.1253832613701493</d6p1:double><d6p1:double>0.835088818001157</d6p1:double><d6p1:double>-0.13437825905595394</d6p1:double><d6p1:double>0.55397928644624028</d6p1:double></Weights></Neuron><Neuron><Bias>0.30040002795830911</Bias><Output>1</Output><Weights xmlns:d6p1="http://schemas.microsoft.com/2003/10/Serialization/Arrays"><d6p1:double>-4.1738606631586732</d6p1:double><d6p1:double>-2.2263100072724087</d6p1:double><d6p1:double>-2.5920656183861208</d6p1:double><d6p1:double>-0.099772877900390466</d6p1:double><d6p1:double>0.65098242990720889</d6p1:double><d6p1:double>0.44704332179785827</d6p1:double><d6p1:double>3.1504195960146308</d6p1:double><d6p1:double>-0.23621659696077432</d6p1:double><d6p1:double>2.5905804817880473</d6p1:double><d6p1:double>2.6660646685856628</d6p1:double><d6p1:double>-1.6441182289130916</d6p1:double><d6p1:double>2.3584209315589018</d6p1:double><d6p1:double>1.70307613966711</d6p1:double><d6p1:double>-2.6368114965402518</d6p1:double><d6p1:double>2.0315384465397797</d6p1:double><d6p1:double>1.3321887374656767</d6p1:double><d6p1:double>2.8077389928221459</d6p1:double><d6p1:double>0.72428257763501247</d6p1:double><d6p1:double>1.5361661592367952</d6p1:double><d6p1:double>1.379786939683687</d6p1:double><d6p1:double>-0.68430289066028349</d6p1:double><d6p1:double>0.71235774112815364</d6p1:double><d6p1:double>-1.443892230463367</d6p1:double><d6p1:double>1.0974803631147245</d6p1:double><d6p1:double>-0.26638132839872525</d6p1:double></Weights></Neuron><Neuron><Bias>0.49069319122943644</Bias><Output>-1</Output><Weights xmlns:d6p1="http://schemas.microsoft.com/2003/10/Serialization/Arrays"><d6p1:double>-2.7098714107684465</d6p1:double><d6p1:double>3.3228068853455937</d6p1:double><d6p1:double>0.478877842737465</d6p1:double><d6p1:double>3.0572090286722471</d6p1:double><d6p1:double>-1.6255103429895994</d6p1:double><d6p1:double>0.83509884286317015</d6p1:double><d6p1:double>-1.6275570083263893</d6p1:double><d6p1:double>1.0983159235384752</d6p1:double><d6p1:double>-1.9745850178767645</d6p1:double><d6p1:double>0.19362241441182029</d6p1:double><d6p1:double>-2.0933495894939096</d6p1:double><d6p1:double>0.034183343471248177</d6p1:double><d6p1:double>1.9194044779145751</d6p1:double><d6p1:double>-0.0745346106916574</d6p1:double><d6p1:double>-1.0844853762856761</d6p1:double><d6p1:double>-2.0107652295001683</d6p1:double><d6p1:double>-2.8620690419637231</d6p1:double><d6p1:double>0.08706415984355273</d6p1:double><d6p1:double>0.30774685832577381</d6p1:double><d6p1:double>3.6694299360011873</d6p1:double><d6p1:double>0.47157006652765565</d6p1:double><d6p1:double>-1.2946639031482721</d6p1:double><d6p1:double>0.37146507851514676</d6p1:double><d6p1:double>2.3912630702385087</d6p1:double><d6p1:double>2.9987543117783408</d6p1:double></Weights></Neuron><Neuron><Bias>0.7164508023164613</Bias><Output>-1</Output><Weights xmlns:d6p1="http://schemas.microsoft.com/2003/10/Serialization/Arrays"><d6p1:double>-3.6244151256586492</d6p1:double><d6p1:double>-0.220331779343715</d6p1:double><d6p1:double>-3.0585984858246786</d6p1:double><d6p1:double>2.7249507685420111</d6p1:double><d6p1:double>2.9304888568899945</d6p1:double><d6p1:double>-3.7440228397202078</d6p1:double><d6p1:double>0.67704559395582753</d6p1:double><d6p1:double>1.2144764140761248</d6p1:double><d6p1:double>-0.29049531920074084</d6p1:double><d6p1:double>-0.7632690766453627</d6p1:double><d6p1:double>-0.78413430052943678</d6p1:double><d6p1:double>-3.1040799902310616</d6p1:double><d6p1:double>0.1420157243271401</d6p1:double><d6p1:double>2.0465747318328047</d6p1:double><d6p1:double>0.34946034347323829</d6p1:double><d6p1:double>0.094834639415262892</d6p1:double><d6p1:double>1.9926572213474185</d6p1:double><d6p1:double>2.9462759567207062</d6p1:double><d6p1:double>1.0685854489269724</d6p1:double><d6p1:double>2.0986031084388372</d6p1:double><d6p1:double>0.64039433450652594</d6p1:double><d6p1:double>0.72388451544357535</d6p1:double><d6p1:double>-1.8667268563608224</d6p1:double><d6p1:double>-3.0286984456420503</d6p1:double><d6p1:double>1.5919790471356718</d6p1:double></Weights></Neuron><Neuron><Bias>0.96698202788898813</Bias><Output>-1</Output><Weights xmlns:d6p1="http://schemas.microsoft.com/2003/10/Serialization/Arrays"><d6p1:double>1.0105958722823305</d6p1:double><d6p1:double>0.15492937522120745</d6p1:double><d6p1:double>0.451062380821251</d6p1:double><d6p1:double>0.89933262035599415</d6p1:double><d6p1:double>1.5748049905088788</d6p1:double><d6p1:double>-0.95816043190622247</d6p1:double><d6p1:double>0.13043205549648521</d6p1:double><d6p1:double>0.022890831525518924</d6p1:double><d6p1:double>0.52021461386595913</d6p1:double><d6p1:double>0.49305294643191577</d6p1:double><d6p1:double>0.10272711022851093</d6p1:double><d6p1:double>0.021019506725148115</d6p1:double><d6p1:double>-0.82157502359036316</d6p1:double><d6p1:double>-1.6047599555134049</d6p1:double><d6p1:double>-0.29271936709460994</d6p1:double><d6p1:double>-0.80422190401163529</d6p1:double><d6p1:double>0.616257175294973</d6p1:double><d6p1:double>0.54386140721069531</d6p1:double><d6p1:double>0.36010119708680954</d6p1:double><d6p1:double>0.53806691870728685</d6p1:double><d6p1:double>0.82954515375525006</d6p1:double><d6p1:double>0.92011446463176516</d6p1:double><d6p1:double>0.35116294972008583</d6p1:double><d6p1:double>-0.34966088498893927</d6p1:double><d6p1:double>2.0729295274817856</d6p1:double></Weights></Neuron><Neuron><Bias>0.95115296720299014</Bias><Output>-1</Output><Weights xmlns:d6p1="http://schemas.microsoft.com/2003/10/Serialization/Arrays"><d6p1:double>0.068412065076592615</d6p1:double><d6p1:double>2.1100913349369868</d6p1:double><d6p1:double>3.005443426708744</d6p1:double><d6p1:double>-0.74574079532522985</d6p1:double><d6p1:double>1.1148251229423096</d6p1:double><d6p1:double>-1.0912569557470977</d6p1:double><d6p1:double>3.1937180401778185</d6p1:double><d6p1:double>1.1393167145948921</d6p1:double><d6p1:double>1.8686213445604536</d6p1:double><d6p1:double>-0.89590955393322724</d6p1:double><d6p1:double>0.11023915190333791</d6p1:double><d6p1:double>1.1226582064581214</d6p1:double><d6p1:double>2.933384264672243</d6p1:double><d6p1:double>-1.3940955111963829</d6p1:double><d6p1:double>2.4096061047266959</d6p1:double><d6p1:double>2.0180323434670422</d6p1:double><d6p1:double>0.948068298042387</d6p1:double><d6p1:double>-0.57807685345444448</d6p1:double><d6p1:double>2.592267563140457</d6p1:double><d6p1:double>2.1520150923757053</d6p1:double><d6p1:double>0.66691979679943514</d6p1:double><d6p1:double>0.053189828930328857</d6p1:double><d6p1:double>-0.027204377705963245</d6p1:double><d6p1:double>2.2096517832737494</d6p1:double><d6p1:double>-1.1490030062836964</d6p1:double></Weights></Neuron><Neuron><Bias>0.69303248150808283</Bias><Output>-1</Output><Weights xmlns:d6p1="http://schemas.microsoft.com/2003/10/Serialization/Arrays"><d6p1:double>3.3786764886914482</d6p1:double><d6p1:double>-1.1331474368322312</d6p1:double><d6p1:double>-4.8859115460685878</d6p1:double><d6p1:double>0.49139199261786992</d6p1:double><d6p1:double>-2.3484426773714966</d6p1:double><d6p1:double>-0.91718420539371082</d6p1:double><d6p1:double>2.1031452451442911</d6p1:double><d6p1:double>1.0600611046458506</d6p1:double><d6p1:double>1.9660457606308648</d6p1:double><d6p1:double>1.6209832108599032</d6p1:double><d6p1:double>0.35607020516957816</d6p1:double><d6p1:double>-1.2638363285913399</d6p1:double><d6p1:double>3.2782696825121818</d6p1:double><d6p1:double>-3.1773823535628942</d6p1:double><d6p1:double>-0.11222366711782135</d6p1:double><d6p1:double>-1.5954872792973809</d6p1:double><d6p1:double>2.0453698584512736</d6p1:double><d6p1:double>-1.9601074375124334</d6p1:double><d6p1:double>-2.9550347107410047</d6p1:double><d6p1:double>-1.3525365499877333</d6p1:double><d6p1:double>-0.59942106772216031</d6p1:double><d6p1:double>1.634521532028173</d6p1:double><d6p1:double>-0.46660285016382147</d6p1:double><d6p1:double>0.68652206461209808</d6p1:double><d6p1:double>2.1710707595517547</d6p1:double></Weights></Neuron><Neuron><Bias>0.6038424768912326</Bias><Output>-1</Output><Weights xmlns:d6p1="http://schemas.microsoft.com/2003/10/Serialization/Arrays"><d6p1:double>0.90415325865246143</d6p1:double><d6p1:double>0.2749694184449446</d6p1:double><d6p1:double>2.34360006254567</d6p1:double><d6p1:double>6.4762660527832434</d6p1:double><d6p1:double>-0.31813940116274736</d6p1:double><d6p1:double>1.5154808406276106</d6p1:double><d6p1:double>-2.4077690838136032</d6p1:double><d6p1:double>-1.0503541746252147</d6p1:double><d6p1:double>-1.5935512151845996</d6p1:double><d6p1:double>2.8790451442675846</d6p1:double><d6p1:double>3.1723288486218428</d6p1:double><d6p1:double>-1.5695318225332318</d6p1:double><d6p1:double>0.72141058456692675</d6p1:double><d6p1:double>0.030712692625259462</d6p1:double><d6p1:double>-5.4470682973548525</d6p1:double><d6p1:double>-1.661249936133292</d6p1:double><d6p1:double>-2.0514423083205338</d6p1:double><d6p1:double>0.18617581169423739</d6p1:double><d6p1:double>2.406575763088902</d6p1:double><d6p1:double>0.50838113576155619</d6p1:double><d6p1:double>-0.23023016950445496</d6p1:double><d6p1:double>2.2719781879447525</d6p1:double><d6p1:double>0.39703208859055683</d6p1:double><d6p1:double>3.9217772557029886</d6p1:double><d6p1:double>1.5836168436535438</d6p1:double></Weights></Neuron><Neuron><Bias>0.5791260870033762</Bias><Output>1</Output><Weights xmlns:d6p1="http://schemas.microsoft.com/2003/10/Serialization/Arrays"><d6p1:double>0.32730372306723549</d6p1:double><d6p1:double>-0.11928391087173318</d6p1:double><d6p1:double>3.010869334890657</d6p1:double><d6p1:double>0.10261191993888386</d6p1:double><d6p1:double>-1.1882483591451434</d6p1:double><d6p1:double>0.13921877516177555</d6p1:double><d6p1:double>-2.8209586425198112</d6p1:double><d6p1:double>1.6952478819725412</d6p1:double><d6p1:double>0.65442102548111591</d6p1:double><d6p1:double>-0.56122973346869687</d6p1:double><d6p1:double>1.5591096853253992</d6p1:double><d6p1:double>0.5702791752212123</d6p1:double><d6p1:double>2.268591415083931</d6p1:double><d6p1:double>0.50604958498832286</d6p1:double><d6p1:double>1.5073376856797256</d6p1:double><d6p1:double>-3.8009010165868329</d6p1:double><d6p1:double>2.0295763395036164</d6p1:double><d6p1:double>0.53645768662685844</d6p1:double><d6p1:double>0.31878699934031013</d6p1:double><d6p1:double>1.9731551940263619</d6p1:double><d6p1:double>1.4408519181453121</d6p1:double><d6p1:double>-0.26498972152732142</d6p1:double><d6p1:double>1.1392971751769221</d6p1:double><d6p1:double>2.1546995610604296</d6p1:double><d6p1:double>2.1529537037289748</d6p1:double></Weights></Neuron><Neuron><Bias>0.11162136915679365</Bias><Output>1</Output><Weights xmlns:d6p1="http://schemas.microsoft.com/2003/10/Serialization/Arrays"><d6p1:double>-1.2575784960013787</d6p1:double><d6p1:double>-0.0706846431483845</d6p1:double><d6p1:double>0.9493078956197698</d6p1:double><d6p1:double>-0.23924603980198503</d6p1:double><d6p1:double>0.7906110238523123</d6p1:double><d6p1:double>2.3424514849360669</d6p1:double><d6p1:double>-2.3966429525145165</d6p1:double><d6p1:double>0.94715163103638489</d6p1:double><d6p1:double>1.6914340209512024</d6p1:double><d6p1:double>-0.80139868362603339</d6p1:double><d6p1:double>-0.48924465968678865</d6p1:double><d6p1:double>2.7659429726267271</d6p1:double><d6p1:double>0.45953655909064417</d6p1:double><d6p1:double>3.3867530492687719</d6p1:double><d6p1:double>1.1934060101718269</d6p1:double><d6p1:double>0.17715868434324122</d6p1:double><d6p1:double>-2.3630161433529997</d6p1:double><d6p1:double>2.2602474126093237</d6p1:double><d6p1:double>2.030666862272926</d6p1:double><d6p1:double>-1.9344579075261112</d6p1:double><d6p1:double>-1.3334389798329234</d6p1:double><d6p1:double>1.918474667055126</d6p1:double><d6p1:double>1.1991846774710211</d6p1:double><d6p1:double>1.7237670327042631</d6p1:double><d6p1:double>-0.35070219926554147</d6p1:double></Weights></Neuron><Neuron><Bias>0.985024995254858</Bias><Output>-1</Output><Weights xmlns:d6p1="http://schemas.microsoft.com/2003/10/Serialization/Arrays"><d6p1:double>0.96881062674737617</d6p1:double><d6p1:double>0.0814678845159412</d6p1:double><d6p1:double>-0.15513360496984421</d6p1:double><d6p1:double>0.8425898878077569</d6p1:double><d6p1:double>1.3180576987864627</d6p1:double><d6p1:double>-0.39522965382596387</d6p1:double><d6p1:double>1.057760032468966</d6p1:double><d6p1:double>-0.95842400184409426</d6p1:double><d6p1:double>-0.30269439714888552</d6p1:double><d6p1:double>-0.38533592737409356</d6p1:double><d6p1:double>-0.46860235540819078</d6p1:double><d6p1:double>-0.49792777963814933</d6p1:double><d6p1:double>-0.45094506184930011</d6p1:double><d6p1:double>-0.8390082571977806</d6p1:double><d6p1:double>0.085478977207625692</d6p1:double><d6p1:double>-0.3357860289409304</d6p1:double><d6p1:double>-0.012276491564823947</d6p1:double><d6p1:double>0.62171592798330877</d6p1:double><d6p1:double>0.23669100144957417</d6p1:double><d6p1:double>0.15150347625486718</d6p1:double><d6p1:double>0.18897310209539642</d6p1:double><d6p1:double>1.3465491664040816</d6p1:double><d6p1:double>0.66520014105749625</d6p1:double><d6p1:double>-0.27231174084494147</d6p1:double><d6p1:double>1.1169679756629145</d6p1:double></Weights></Neuron><Neuron><Bias>0.59478775662073824</Bias><Output>-1</Output><Weights xmlns:d6p1="http://schemas.microsoft.com/2003/10/Serialization/Arrays"><d6p1:double>1.874892497643303</d6p1:double><d6p1:double>0.049967539155687558</d6p1:double><d6p1:double>0.20481427937863136</d6p1:double><d6p1:double>0.8271626933653462</d6p1:double><d6p1:double>1.385916906239141</d6p1:double><d6p1:double>-0.51041210465568887</d6p1:double><d6p1:double>1.1550328250222508</d6p1:double><d6p1:double>-0.86566287670895248</d6p1:double><d6p1:double>-0.10703110678869378</d6p1:double><d6p1:double>0.4948200410039339</d6p1:double><d6p1:double>-0.014982533491244778</d6p1:double><d6p1:double>0.743212747146761</d6p1:double><d6p1:double>-0.21494695051798193</d6p1:double><d6p1:double>0.15434352811803623</d6p1:double><d6p1:double>-0.98229533959137016</d6p1:double><d6p1:double>-0.425341268521164</d6p1:double><d6p1:double>0.031563663343544428</d6p1:double><d6p1:double>-0.022770842093513346</d6p1:double><d6p1:double>0.10699818543447012</d6p1:double><d6p1:double>-0.019402587776887911</d6p1:double><d6p1:double>0.9896286710146539</d6p1:double><d6p1:double>0.721512180282492</d6p1:double><d6p1:double>0.1089148406710536</d6p1:double><d6p1:double>-0.43942277901872379</d6p1:double><d6p1:double>0.97926519153157165</d6p1:double></Weights></Neuron><Neuron><Bias>0.58792509003614213</Bias><Output>1</Output><Weights xmlns:d6p1="http://schemas.microsoft.com/2003/10/Serialization/Arrays"><d6p1:double>-1.2289161805629263</d6p1:double><d6p1:double>0.39478821276763415</d6p1:double><d6p1:double>0.32949562468117943</d6p1:double><d6p1:double>-2.5297259494085158</d6p1:double><d6p1:double>-1.8512732147229667</d6p1:double><d6p1:double>1.6510807396210359</d6p1:double><d6p1:double>-0.18421847886814435</d6p1:double><d6p1:double>2.7894045868007891</d6p1:double><d6p1:double>3.417320171219747</d6p1:double><d6p1:double>0.58251246454933581</d6p1:double><d6p1:double>2.3000252671981714</d6p1:double><d6p1:double>0.7829343522209492</d6p1:double><d6p1:double>1.6798478648467281</d6p1:double><d6p1:double>-3.0209218164799312</d6p1:double><d6p1:double>0.57573003340002948</d6p1:double><d6p1:double>-1.7132566288149134</d6p1:double><d6p1:double>-0.91561866864378649</d6p1:double><d6p1:double>0.80527148959753891</d6p1:double><d6p1:double>0.7582345180512633</d6p1:double><d6p1:double>0.11157797825171395</d6p1:double><d6p1:double>-1.4159821497095437</d6p1:double><d6p1:double>1.4856130901998714</d6p1:double><d6p1:double>1.3885113187912279</d6p1:double><d6p1:double>2.8785786973355245</d6p1:double><d6p1:double>1.7604545430543739</d6p1:double></Weights></Neuron><Neuron><Bias>0.805330874972189</Bias><Output>-1</Output><Weights xmlns:d6p1="http://schemas.microsoft.com/2003/10/Serialization/Arrays"><d6p1:double>0.87867338027727748</d6p1:double><d6p1:double>-0.29388719847733141</d6p1:double><d6p1:double>-0.75300826574839486</d6p1:double><d6p1:double>1.6092847030973896</d6p1:double><d6p1:double>2.4083800185804525</d6p1:double><d6p1:double>-0.95112695045269113</d6p1:double><d6p1:double>1.9284860222795781</d6p1:double><d6p1:double>-0.031087623818110248</d6p1:double><d6p1:double>0.022028142443320388</d6p1:double><d6p1:double>-0.6132171296087785</d6p1:double><d6p1:double>0.76246365431800311</d6p1:double><d6p1:double>0.74678114556112718</d6p1:double><d6p1:double>-0.94923163364361629</d6p1:double><d6p1:double>0.29360497682031672</d6p1:double><d6p1:double>-0.32630224057517754</d6p1:double><d6p1:double>0.4406275394176386</d6p1:double><d6p1:double>2.1156736253494226</d6p1:double><d6p1:double>1.1166838793523495</d6p1:double><d6p1:double>0.86051994382723829</d6p1:double><d6p1:double>1.2732254582518892</d6p1:double><d6p1:double>2.1608997580555007</d6p1:double><d6p1:double>-1.3971868106962961</d6p1:double><d6p1:double>0.84318257848250411</d6p1:double><d6p1:double>-2.563493963236557</d6p1:double><d6p1:double>1.5378280623360956</d6p1:double></Weights></Neuron><Neuron><Bias>0.31782238949255859</Bias><Output>-1</Output><Weights xmlns:d6p1="http://schemas.microsoft.com/2003/10/Serialization/Arrays"><d6p1:double>2.108283969224741</d6p1:double><d6p1:double>1.149261726565679</d6p1:double><d6p1:double>-1.398570722541022</d6p1:double><d6p1:double>3.3135204013084194</d6p1:double><d6p1:double>-1.9439330649994335</d6p1:double><d6p1:double>1.6864688070795513</d6p1:double><d6p1:double>-2.569765846165597</d6p1:double><d6p1:double>3.7134735939073811</d6p1:double><d6p1:double>0.0699424289323538</d6p1:double><d6p1:double>-0.44285435110113969</d6p1:double><d6p1:double>1.03908063995422</d6p1:double><d6p1:double>-0.99249992294250244</d6p1:double><d6p1:double>-2.8025322982618568</d6p1:double><d6p1:double>0.82700728277811919</d6p1:double><d6p1:double>-2.7234467517659291</d6p1:double><d6p1:double>-0.82474143352274121</d6p1:double><d6p1:double>-1.5144606609895859</d6p1:double><d6p1:double>1.9690889342155742</d6p1:double><d6p1:double>-1.7140932836991392</d6p1:double><d6p1:double>-4.6686578778103449</d6p1:double><d6p1:double>1.4815409180693602</d6p1:double><d6p1:double>0.64637892539123953</d6p1:double><d6p1:double>0.211903421638114</d6p1:double><d6p1:double>1.8401017889483289</d6p1:double><d6p1:double>3.9759012673424596</d6p1:double></Weights></Neuron><Neuron><Bias>0.41025865013421831</Bias><Output>-1</Output><Weights xmlns:d6p1="http://schemas.microsoft.com/2003/10/Serialization/Arrays"><d6p1:double>1.6948865748499555</d6p1:double><d6p1:double>0.013197916939307174</d6p1:double><d6p1:double>0.546439729439967</d6p1:double><d6p1:double>-0.16785079770996461</d6p1:double><d6p1:double>-1.8479250586896916</d6p1:double><d6p1:double>1.7628995615055212</d6p1:double><d6p1:double>4.21719914160038</d6p1:double><d6p1:double>-1.8397239568922135</d6p1:double><d6p1:double>1.8367093506708283</d6p1:double><d6p1:double>-1.8793992651285063</d6p1:double><d6p1:double>-1.905910454869592</d6p1:double><d6p1:double>-3.5524834260233806</d6p1:double><d6p1:double>2.7137831594655566</d6p1:double><d6p1:double>2.9891980526624735</d6p1:double><d6p1:double>0.20212137887562281</d6p1:double><d6p1:double>0.60802121752715943</d6p1:double><d6p1:double>0.68575627051628985</d6p1:double><d6p1:double>-0.047682722135471339</d6p1:double><d6p1:double>0.096451852289927018</d6p1:double><d6p1:double>-0.52748861528421</d6p1:double><d6p1:double>1.9089997113537511</d6p1:double><d6p1:double>-2.01056952862318</d6p1:double><d6p1:double>3.7241513605498757</d6p1:double><d6p1:double>1.9890441086902642</d6p1:double><d6p1:double>-1.598298341726095</d6p1:double></Weights></Neuron><Neuron><Bias>0.97574841407964563</Bias><Output>-1</Output><Weights xmlns:d6p1="http://schemas.microsoft.com/2003/10/Serialization/Arrays"><d6p1:double>1.7843390029847328</d6p1:double><d6p1:double>2.0184933822837037</d6p1:double><d6p1:double>-1.7720922514973363</d6p1:double><d6p1:double>2.7859683842870417</d6p1:double><d6p1:double>1.2742659186998206</d6p1:double><d6p1:double>-0.681864121734449</d6p1:double><d6p1:double>-0.88880058199140177</d6p1:double><d6p1:double>1.2234936021384542</d6p1:double><d6p1:double>2.3471448365641296</d6p1:double><d6p1:double>-1.3004189352669779</d6p1:double><d6p1:double>1.949016782136735</d6p1:double><d6p1:double>1.9963937213394178</d6p1:double><d6p1:double>0.94800049541206055</d6p1:double><d6p1:double>-0.64946727917168268</d6p1:double><d6p1:double>-0.5561091844726519</d6p1:double><d6p1:double>1.3296774445596962</d6p1:double><d6p1:double>2.5173780641859689</d6p1:double><d6p1:double>-0.14809662453667363</d6p1:double><d6p1:double>-1.5263027776665248</d6p1:double><d6p1:double>-1.8435761564721509</d6p1:double><d6p1:double>0.10534532585664154</d6p1:double><d6p1:double>1.4904364844704612</d6p1:double><d6p1:double>2.1344044068896397</d6p1:double><d6p1:double>-1.993395422245424</d6p1:double><d6p1:double>-0.65139481038205971</d6p1:double></Weights></Neuron><Neuron><Bias>0.79782335179772468</Bias><Output>1</Output><Weights xmlns:d6p1="http://schemas.microsoft.com/2003/10/Serialization/Arrays"><d6p1:double>-0.58784938835412492</d6p1:double><d6p1:double>-1.1608254432246481</d6p1:double><d6p1:double>0.65974177983755133</d6p1:double><d6p1:double>2.0952879275702521</d6p1:double><d6p1:double>-1.3497799274954476</d6p1:double><d6p1:double>2.2547113619229262</d6p1:double><d6p1:double>1.4488385841945812</d6p1:double><d6p1:double>-0.26160793242729508</d6p1:double><d6p1:double>1.1823110738989151</d6p1:double><d6p1:double>-2.2728478009706179</d6p1:double><d6p1:double>-0.72219329435356561</d6p1:double><d6p1:double>-0.94051003973864455</d6p1:double><d6p1:double>2.5547251901043797</d6p1:double><d6p1:double>0.2515459753188678</d6p1:double><d6p1:double>2.8645122046075664</d6p1:double><d6p1:double>2.1351971477426286</d6p1:double><d6p1:double>-4.0230552072488992</d6p1:double><d6p1:double>2.470742206896853</d6p1:double><d6p1:double>0.51120551669938474</d6p1:double><d6p1:double>-3.5776426828161996</d6p1:double><d6p1:double>0.19440050664929315</d6p1:double><d6p1:double>-0.38884981568639965</d6p1:double><d6p1:double>1.9098411127589889</d6p1:double><d6p1:double>1.6177442709548706</d6p1:double><d6p1:double>-1.9711457454605434</d6p1:double></Weights></Neuron><Neuron><Bias>0.70224276250108764</Bias><Output>-1</Output><Weights xmlns:d6p1="http://schemas.microsoft.com/2003/10/Serialization/Arrays"><d6p1:double>1.2535887360913327</d6p1:double><d6p1:double>-1.6367238382162637</d6p1:double><d6p1:double>1.7812448873887228</d6p1:double><d6p1:double>1.4202593314916925</d6p1:double><d6p1:double>1.240146155777853</d6p1:double><d6p1:double>-1.6995814340333348</d6p1:double><d6p1:double>-1.3665963593321624</d6p1:double><d6p1:double>-0.31808880856678651</d6p1:double><d6p1:double>2.8390031062497987</d6p1:double><d6p1:double>0.846315874089908</d6p1:double><d6p1:double>2.0035745474911884</d6p1:double><d6p1:double>-1.0174174189104104</d6p1:double><d6p1:double>-1.5748624117850603</d6p1:double><d6p1:double>1.1815755648608111</d6p1:double><d6p1:double>-4.4569257494260048</d6p1:double><d6p1:double>2.4803299244765484</d6p1:double><d6p1:double>-2.8409900685390408</d6p1:double><d6p1:double>-3.3607025389684746</d6p1:double><d6p1:double>1.795639270920917</d6p1:double><d6p1:double>-0.36196526670380613</d6p1:double><d6p1:double>1.0094931155607829</d6p1:double><d6p1:double>-0.024694859233909162</d6p1:double><d6p1:double>0.72919117030663683</d6p1:double><d6p1:double>1.0547968919633273</d6p1:double><d6p1:double>2.0339393501057295</d6p1:double></Weights></Neuron><Neuron><Bias>0.18329668781581529</Bias><Output>-1</Output><Weights xmlns:d6p1="http://schemas.microsoft.com/2003/10/Serialization/Arrays"><d6p1:double>3.099944485141175</d6p1:double><d6p1:double>-0.333836133050113</d6p1:double><d6p1:double>3.1299475661036826</d6p1:double><d6p1:double>0.80205090245688326</d6p1:double><d6p1:double>-0.067451788748622052</d6p1:double><d6p1:double>-4.484619238766042</d6p1:double><d6p1:double>-0.88807150813324909</d6p1:double><d6p1:double>-0.46558539673521143</d6p1:double><d6p1:double>3.5250424042883051</d6p1:double><d6p1:double>1.7694247239749956</d6p1:double><d6p1:double>0.21052151091944168</d6p1:double><d6p1:double>-2.0760393519079248</d6p1:double><d6p1:double>-0.49163532039667823</d6p1:double><d6p1:double>4.1465131019155734</d6p1:double><d6p1:double>0.98966053829083722</d6p1:double><d6p1:double>2.4404692169659556</d6p1:double><d6p1:double>-3.8434948518113554</d6p1:double><d6p1:double>-1.5181486008556151</d6p1:double><d6p1:double>2.0561102069006849</d6p1:double><d6p1:double>-2.3723748253979018</d6p1:double><d6p1:double>0.98146015165211764</d6p1:double><d6p1:double>-1.7218055031981727</d6p1:double><d6p1:double>3.565040847150748</d6p1:double><d6p1:double>-0.23174385438247802</d6p1:double><d6p1:double>4.3313685418440642</d6p1:double></Weights></Neuron><Neuron><Bias>0.69690854593924156</Bias><Output>-1</Output><Weights xmlns:d6p1="http://schemas.microsoft.com/2003/10/Serialization/Arrays"><d6p1:double>1.37118220761157</d6p1:double><d6p1:double>-1.6004207057972459</d6p1:double><d6p1:double>2.7142320872809242</d6p1:double><d6p1:double>-0.98637652704488854</d6p1:double><d6p1:double>2.5943669016525424</d6p1:double><d6p1:double>-1.6957453160039291</d6p1:double><d6p1:double>2.0940925942849749</d6p1:double><d6p1:double>1.8850744404242337</d6p1:double><d6p1:double>-0.713757215270029</d6p1:double><d6p1:double>0.44101699320221288</d6p1:double><d6p1:double>-0.17331551196707237</d6p1:double><d6p1:double>1.3173594516836271</d6p1:double><d6p1:double>-0.79408169492171909</d6p1:double><d6p1:double>-1.284187028082695</d6p1:double><d6p1:double>-1.9642816631159092</d6p1:double><d6p1:double>-3.1612688114742635</d6p1:double><d6p1:double>0.018704346938866561</d6p1:double><d6p1:double>-1.6045205177172648</d6p1:double><d6p1:double>-1.4929387124692404</d6p1:double><d6p1:double>0.57447662446960279</d6p1:double><d6p1:double>1.237182242796584</d6p1:double><d6p1:double>1.2008042984259535</d6p1:double><d6p1:double>-0.51440182302239656</d6p1:double><d6p1:double>0.803385945677994</d6p1:double><d6p1:double>0.11115114117736746</d6p1:double></Weights></Neuron><Neuron><Bias>0.39652608213496215</Bias><Output>1</Output><Weights xmlns:d6p1="http://schemas.microsoft.com/2003/10/Serialization/Arrays"><d6p1:double>4.6150868623385168</d6p1:double><d6p1:double>0.52886048037627764</d6p1:double><d6p1:double>1.5732053011473435</d6p1:double><d6p1:double>0.068612094941776322</d6p1:double><d6p1:double>-0.52008359941932047</d6p1:double><d6p1:double>0.63604952894908606</d6p1:double><d6p1:double>0.546462990799733</d6p1:double><d6p1:double>0.8211926108140789</d6p1:double><d6p1:double>1.3915235756069</d6p1:double><d6p1:double>3.1884328979063388</d6p1:double><d6p1:double>-0.2791139612897422</d6p1:double><d6p1:double>0.32331793236023476</d6p1:double><d6p1:double>-0.636967637895746</d6p1:double><d6p1:double>-1.7181526372347313</d6p1:double><d6p1:double>2.8994796566216126</d6p1:double><d6p1:double>-1.094628377338384</d6p1:double><d6p1:double>0.91925554262563836</d6p1:double><d6p1:double>2.4153091023243864</d6p1:double><d6p1:double>-0.32023660212997807</d6p1:double><d6p1:double>1.7463620519748611</d6p1:double><d6p1:double>0.28896275640318991</d6p1:double><d6p1:double>1.8954269410591085</d6p1:double><d6p1:double>1.476853874004747</d6p1:double><d6p1:double>1.4159075146777018</d6p1:double><d6p1:double>-0.48543978701604223</d6p1:double></Weights></Neuron><Neuron><Bias>0.35678269689085834</Bias><Output>-1</Output><Weights xmlns:d6p1="http://schemas.microsoft.com/2003/10/Serialization/Arrays"><d6p1:double>-0.31455164442049244</d6p1:double><d6p1:double>1.3344500809458815</d6p1:double><d6p1:double>-0.31107553314566616</d6p1:double><d6p1:double>-0.32069432562887151</d6p1:double><d6p1:double>-2.7051453148182958</d6p1:double><d6p1:double>0.73841244409740214</d6p1:double><d6p1:double>-0.011364187507296897</d6p1:double><d6p1:double>2.9457128686839544</d6p1:double><d6p1:double>0.15194417605343069</d6p1:double><d6p1:double>-2.9864440045615441</d6p1:double><d6p1:double>-1.8511946164063877</d6p1:double><d6p1:double>-0.70789206022069129</d6p1:double><d6p1:double>3.2604890935219188</d6p1:double><d6p1:double>0.22152653943180861</d6p1:double><d6p1:double>-0.85005629512343384</d6p1:double><d6p1:double>1.197610069721067</d6p1:double><d6p1:double>1.6265463237698639</d6p1:double><d6p1:double>0.54876746880469973</d6p1:double><d6p1:double>1.6312470182607584</d6p1:double><d6p1:double>3.6997437351617974</d6p1:double><d6p1:double>0.68664687920556366</d6p1:double><d6p1:double>-0.92902658577469854</d6p1:double><d6p1:double>0.79075942586893622</d6p1:double><d6p1:double>-0.049201102993940461</d6p1:double><d6p1:double>-0.7409394605425681</d6p1:double></Weights></Neuron><Neuron><Bias>0.82028733492478068</Bias><Output>-1</Output><Weights xmlns:d6p1="http://schemas.microsoft.com/2003/10/Serialization/Arrays"><d6p1:double>1.1816496660343114</d6p1:double><d6p1:double>0.31251748257119671</d6p1:double><d6p1:double>0.70158421677636384</d6p1:double><d6p1:double>0.770240578422003</d6p1:double><d6p1:double>1.5491477209445799</d6p1:double><d6p1:double>-0.78969333142202425</d6p1:double><d6p1:double>1.4772577978577097</d6p1:double><d6p1:double>-0.20057735255021691</d6p1:double><d6p1:double>-0.013563413823083223</d6p1:double><d6p1:double>0.31239932689657746</d6p1:double><d6p1:double>-0.0034405682484592382</d6p1:double><d6p1:double>-0.47164536335005552</d6p1:double><d6p1:double>-0.6631818596996073</d6p1:double><d6p1:double>-0.12422326594784261</d6p1:double><d6p1:double>-0.61303917275001285</d6p1:double><d6p1:double>-0.22736571820613347</d6p1:double><d6p1:double>0.37399331056662</d6p1:double><d6p1:double>-0.26401828300105407</d6p1:double><d6p1:double>0.23415423095499605</d6p1:double><d6p1:double>0.53851062738351874</d6p1:double><d6p1:double>0.77219071951270379</d6p1:double><d6p1:double>1.6716132109662218</d6p1:double><d6p1:double>0.683913197542153</d6p1:double><d6p1:double>-0.23020453355858453</d6p1:double><d6p1:double>1.1156824916586598</d6p1:double></Weights></Neuron><Neuron><Bias>0.68787331648250039</Bias><Output>-1</Output><Weights xmlns:d6p1="http://schemas.microsoft.com/2003/10/Serialization/Arrays"><d6p1:double>-2.3582482315899225</d6p1:double><d6p1:double>-1.7940825383914267</d6p1:double><d6p1:double>-0.57286506931549686</d6p1:double><d6p1:double>-2.9684826864553755</d6p1:double><d6p1:double>0.0069305751036458068</d6p1:double><d6p1:double>-2.1323432694350992</d6p1:double><d6p1:double>2.0848358603423449</d6p1:double><d6p1:double>2.9328163387608983</d6p1:double><d6p1:double>1.4972966602591433</d6p1:double><d6p1:double>4.7087096241426458</d6p1:double><d6p1:double>-1.0207090930877496</d6p1:double><d6p1:double>-1.8019944905852774</d6p1:double><d6p1:double>-1.1959559443481309</d6p1:double><d6p1:double>0.832106618424007</d6p1:double><d6p1:double>2.4594918150155292</d6p1:double><d6p1:double>1.3033788169633274</d6p1:double><d6p1:double>2.4134680708354161</d6p1:double><d6p1:double>0.40726624265595279</d6p1:double><d6p1:double>0.46843195563519563</d6p1:double><d6p1:double>3.8979831003649172</d6p1:double><d6p1:double>-2.3626294110471942</d6p1:double><d6p1:double>2.10382559931479</d6p1:double><d6p1:double>2.1078987089771997</d6p1:double><d6p1:double>1.4656178256720056</d6p1:double><d6p1:double>0.78072690544372014</d6p1:double></Weights></Neuron><Neuron><Bias>0.35331641960773125</Bias><Output>-1</Output><Weights xmlns:d6p1="http://schemas.microsoft.com/2003/10/Serialization/Arrays"><d6p1:double>-3.1253070743329334</d6p1:double><d6p1:double>1.1437625837313778</d6p1:double><d6p1:double>2.2407712468266632</d6p1:double><d6p1:double>3.5957079905720359</d6p1:double><d6p1:double>-0.39387251003556406</d6p1:double><d6p1:double>1.3721407647665493</d6p1:double><d6p1:double>2.1632751357987083</d6p1:double><d6p1:double>3.0593364202280342</d6p1:double><d6p1:double>-1.2670161146478536</d6p1:double><d6p1:double>1.280606342837133</d6p1:double><d6p1:double>0.96368570935661935</d6p1:double><d6p1:double>-1.2120316655455941</d6p1:double><d6p1:double>0.39669493875096196</d6p1:double><d6p1:double>1.2831764529395275</d6p1:double><d6p1:double>-1.5901196660766519</d6p1:double><d6p1:double>0.36654623969164546</d6p1:double><d6p1:double>-1.4259771590339323</d6p1:double><d6p1:double>1.263768914528929</d6p1:double><d6p1:double>-1.2077098650594356</d6p1:double><d6p1:double>-0.037224458864323809</d6p1:double><d6p1:double>-4.0529923831131232</d6p1:double><d6p1:double>3.3932278637842361</d6p1:double><d6p1:double>-3.173325483588942</d6p1:double><d6p1:double>1.1606878856655187</d6p1:double><d6p1:double>-1.9316123879396412</d6p1:double></Weights></Neuron><Neuron><Bias>0.420641668909266</Bias><Output>-1</Output><Weights xmlns:d6p1="http://schemas.microsoft.com/2003/10/Serialization/Arrays"><d6p1:double>2.6960583498914659</d6p1:double><d6p1:double>-2.6227199684721341</d6p1:double><d6p1:double>1.7747180196267409</d6p1:double><d6p1:double>-0.52960275956651182</d6p1:double><d6p1:double>2.5847984621928441</d6p1:double><d6p1:double>-0.7597763263561027</d6p1:double><d6p1:double>2.2270841542169073</d6p1:double><d6p1:double>1.6884736735763641</d6p1:double><d6p1:double>-0.27992657020139911</d6p1:double><d6p1:double>1.4692018918314294</d6p1:double><d6p1:double>0.04163404139912192</d6p1:double><d6p1:double>-2.345811869773327</d6p1:double><d6p1:double>-0.59517052061566122</d6p1:double><d6p1:double>0.15851500382039152</d6p1:double><d6p1:double>-1.3807367084577769</d6p1:double><d6p1:double>0.91869048751751681</d6p1:double><d6p1:double>-3.6432909064570151</d6p1:double><d6p1:double>1.2528307495212896</d6p1:double><d6p1:double>-1.1606930339486694</d6p1:double><d6p1:double>4.5465808202487192</d6p1:double><d6p1:double>-0.26828654793372259</d6p1:double><d6p1:double>-2.8184410127911224</d6p1:double><d6p1:double>1.0183341756676327</d6p1:double><d6p1:double>-0.52586482346009722</d6p1:double><d6p1:double>-0.81445534319861568</d6p1:double></Weights></Neuron><Neuron><Bias>0.6482113312027159</Bias><Output>1</Output><Weights xmlns:d6p1="http://schemas.microsoft.com/2003/10/Serialization/Arrays"><d6p1:double>-1.7761927934878905</d6p1:double><d6p1:double>0.33373672665111986</d6p1:double><d6p1:double>-0.2127272726749028</d6p1:double><d6p1:double>2.2303327511993949</d6p1:double><d6p1:double>-3.9737842421987741</d6p1:double><d6p1:double>1.1473017177080835</d6p1:double><d6p1:double>-0.64643759063155815</d6p1:double><d6p1:double>0.63199779750210228</d6p1:double><d6p1:double>2.7755757155489356</d6p1:double><d6p1:double>-1.2957691772099982</d6p1:double><d6p1:double>2.5467689178308821</d6p1:double><d6p1:double>0.9346631475351036</d6p1:double><d6p1:double>0.34398896384892069</d6p1:double><d6p1:double>0.81841031570964451</d6p1:double><d6p1:double>2.0507752358686457</d6p1:double><d6p1:double>3.1346758556254715</d6p1:double><d6p1:double>-1.5536778135108926</d6p1:double><d6p1:double>2.8337602832679765</d6p1:double><d6p1:double>-0.349913329045913</d6p1:double><d6p1:double>-2.593529954144902</d6p1:double><d6p1:double>0.7185227110353819</d6p1:double><d6p1:double>-0.31675084004261617</d6p1:double><d6p1:double>2.2946253776957142</d6p1:double><d6p1:double>-0.55071881926084842</d6p1:double><d6p1:double>-0.93125076898974779</d6p1:double></Weights></Neuron><Neuron><Bias>0.60098632908300276</Bias><Output>-1</Output><Weights xmlns:d6p1="http://schemas.microsoft.com/2003/10/Serialization/Arrays"><d6p1:double>-1.440252275264714</d6p1:double><d6p1:double>0.47841537196122297</d6p1:double><d6p1:double>1.5556616042205316</d6p1:double><d6p1:double>0.38301822062043611</d6p1:double><d6p1:double>2.4591388893396942</d6p1:double><d6p1:double>-1.4003088580389498</d6p1:double><d6p1:double>0.066959176290672065</d6p1:double><d6p1:double>0.01330681952419541</d6p1:double><d6p1:double>-0.2291734157321253</d6p1:double><d6p1:double>-1.8138254284034341</d6p1:double><d6p1:double>1.4320592493223632</d6p1:double><d6p1:double>1.9898000665843949</d6p1:double><d6p1:double>1.772094839357379</d6p1:double><d6p1:double>3.7415732362656944</d6p1:double><d6p1:double>-3.7442872011834227</d6p1:double><d6p1:double>-0.26194984991105313</d6p1:double><d6p1:double>2.2651537840624418</d6p1:double><d6p1:double>-0.19954384344909998</d6p1:double><d6p1:double>-0.33032837329800818</d6p1:double><d6p1:double>-4.7291426012642335</d6p1:double><d6p1:double>2.6235427114847938</d6p1:double><d6p1:double>2.1563035301424445</d6p1:double><d6p1:double>0.32089843316088618</d6p1:double><d6p1:double>1.852999183825899</d6p1:double><d6p1:double>1.3744545774122208</d6p1:double></Weights></Neuron><Neuron><Bias>0.68709627263207174</Bias><Output>-1</Output><Weights xmlns:d6p1="http://schemas.microsoft.com/2003/10/Serialization/Arrays"><d6p1:double>0.750261647361266</d6p1:double><d6p1:double>-0.43484596701717387</d6p1:double><d6p1:double>-3.324860516606059</d6p1:double><d6p1:double>-4.3251495377192795</d6p1:double><d6p1:double>0.48896997571359824</d6p1:double><d6p1:double>-0.3307701231430355</d6p1:double><d6p1:double>3.509887065996641</d6p1:double><d6p1:double>4.287879597566862</d6p1:double><d6p1:double>-0.40338623351071395</d6p1:double><d6p1:double>-2.2981930099142747</d6p1:double><d6p1:double>0.0831246329432724</d6p1:double><d6p1:double>-3.19222807382681</d6p1:double><d6p1:double>0.8710162541508798</d6p1:double><d6p1:double>2.945971329922386</d6p1:double><d6p1:double>2.9937036647144115</d6p1:double><d6p1:double>4.1750600251020575</d6p1:double><d6p1:double>1.5145558374381169</d6p1:double><d6p1:double>-1.0756067188714808</d6p1:double><d6p1:double>0.91757170491213114</d6p1:double><d6p1:double>-1.7569192233339843</d6p1:double><d6p1:double>0.74511790462456273</d6p1:double><d6p1:double>0.272414864898606</d6p1:double><d6p1:double>1.2072335501964953</d6p1:double><d6p1:double>-4.4505020538966065</d6p1:double><d6p1:double>1.6541656579744579</d6p1:double></Weights></Neuron><Neuron><Bias>0.232864519963892</Bias><Output>-1</Output><Weights xmlns:d6p1="http://schemas.microsoft.com/2003/10/Serialization/Arrays"><d6p1:double>0.50613856281911385</d6p1:double><d6p1:double>-1.2490542067487178</d6p1:double><d6p1:double>0.1715237207019476</d6p1:double><d6p1:double>0.20299372365061261</d6p1:double><d6p1:double>0.65748869168388369</d6p1:double><d6p1:double>-0.62338140735563086</d6p1:double><d6p1:double>2.35964261546301</d6p1:double><d6p1:double>-0.86023710359625882</d6p1:double><d6p1:double>2.0970513948049612</d6p1:double><d6p1:double>-3.0566213793868009</d6p1:double><d6p1:double>0.54939844375415126</d6p1:double><d6p1:double>0.14581976556107656</d6p1:double><d6p1:double>1.7916429755100778</d6p1:double><d6p1:double>-0.32489301975970691</d6p1:double><d6p1:double>1.130122691487863</d6p1:double><d6p1:double>0.64941035164912886</d6p1:double><d6p1:double>0.87614257571294885</d6p1:double><d6p1:double>-1.3397876301866467</d6p1:double><d6p1:double>1.1113366958355573</d6p1:double><d6p1:double>0.020980292447187351</d6p1:double><d6p1:double>-1.424688530695557</d6p1:double><d6p1:double>0.97979176578781824</d6p1:double><d6p1:double>0.867921252374975</d6p1:double><d6p1:double>-4.0473177243295941</d6p1:double><d6p1:double>4.1542252428381561</d6p1:double></Weights></Neuron><Neuron><Bias>0.94378455901115987</Bias><Output>-1</Output><Weights xmlns:d6p1="http://schemas.microsoft.com/2003/10/Serialization/Arrays"><d6p1:double>-2.31672622444669</d6p1:double><d6p1:double>0.98037713742355814</d6p1:double><d6p1:double>-1.7489180092852026</d6p1:double><d6p1:double>0.44227882366455734</d6p1:double><d6p1:double>0.80559714591771325</d6p1:double><d6p1:double>2.7778597231248177</d6p1:double><d6p1:double>4.4803605374813591</d6p1:double><d6p1:double>1.4242990884895799</d6p1:double><d6p1:double>0.965132736253793</d6p1:double><d6p1:double>-0.51967195147064227</d6p1:double><d6p1:double>-0.34862575185558781</d6p1:double><d6p1:double>-2.1814216170657583</d6p1:double><d6p1:double>-0.57851254754184922</d6p1:double><d6p1:double>-1.1041295272015461</d6p1:double><d6p1:double>2.8231933823035713</d6p1:double><d6p1:double>1.8693180545916164</d6p1:double><d6p1:double>-3.5737928296394119</d6p1:double><d6p1:double>1.1921812835343237</d6p1:double><d6p1:double>1.0084471956603327</d6p1:double><d6p1:double>-2.7913213179639151</d6p1:double><d6p1:double>-1.331289167853948</d6p1:double><d6p1:double>0.10075222442280958</d6p1:double><d6p1:double>1.9306576345426545</d6p1:double><d6p1:double>0.95173002945676721</d6p1:double><d6p1:double>-3.8125744555599095</d6p1:double></Weights></Neuron><Neuron><Bias>0.25253519531983276</Bias><Output>-1</Output><Weights xmlns:d6p1="http://schemas.microsoft.com/2003/10/Serialization/Arrays"><d6p1:double>4.2395647436501074</d6p1:double><d6p1:double>0.664227904384755</d6p1:double><d6p1:double>2.0675222314601176</d6p1:double><d6p1:double>1.4857706089880345</d6p1:double><d6p1:double>-0.63795547440308287</d6p1:double><d6p1:double>-0.39815994669579624</d6p1:double><d6p1:double>-0.62005805710142137</d6p1:double><d6p1:double>-0.13270141420162698</d6p1:double><d6p1:double>2.6559384396517669</d6p1:double><d6p1:double>0.32848433395438842</d6p1:double><d6p1:double>1.5293458225564112</d6p1:double><d6p1:double>-1.4214285317705926</d6p1:double><d6p1:double>0.86829442313932292</d6p1:double><d6p1:double>1.06029601306267</d6p1:double><d6p1:double>-0.91432329144836055</d6p1:double><d6p1:double>-1.4620193901717915</d6p1:double><d6p1:double>-1.7231690736622269</d6p1:double><d6p1:double>2.508717182121095</d6p1:double><d6p1:double>-2.5974650344096228</d6p1:double><d6p1:double>-0.36930328790314421</d6p1:double><d6p1:double>2.9495117559085653</d6p1:double><d6p1:double>-3.1573058842274322</d6p1:double><d6p1:double>-0.64395980846508516</d6p1:double><d6p1:double>1.4926750969302669</d6p1:double><d6p1:double>1.8662885052791385</d6p1:double></Weights></Neuron><Neuron><Bias>0.829890771283761</Bias><Output>1</Output><Weights xmlns:d6p1="http://schemas.microsoft.com/2003/10/Serialization/Arrays"><d6p1:double>0.37997271218073869</d6p1:double><d6p1:double>1.529641927734225</d6p1:double><d6p1:double>-4.5855511757596581</d6p1:double><d6p1:double>2.4396792191821088</d6p1:double><d6p1:double>0.21541716026849944</d6p1:double><d6p1:double>-1.1482412964994975</d6p1:double><d6p1:double>-3.122948119371741</d6p1:double><d6p1:double>-1.4471769802796588</d6p1:double><d6p1:double>-0.49140085861840588</d6p1:double><d6p1:double>-0.0355039788702712</d6p1:double><d6p1:double>2.5185084184603563</d6p1:double><d6p1:double>5.3449496671962358</d6p1:double><d6p1:double>-4.4296368206636059</d6p1:double><d6p1:double>-3.0151273896139985</d6p1:double><d6p1:double>0.25990140207440393</d6p1:double><d6p1:double>0.094370620683585191</d6p1:double><d6p1:double>-0.15003292922284037</d6p1:double><d6p1:double>-0.65870161732189592</d6p1:double><d6p1:double>0.7241035084167966</d6p1:double><d6p1:double>-1.3195394582389133</d6p1:double><d6p1:double>2.1612471829986992</d6p1:double><d6p1:double>1.0400268113866602</d6p1:double><d6p1:double>-1.87994786703646</d6p1:double><d6p1:double>-1.2806250336572778</d6p1:double><d6p1:double>0.75952462314175273</d6p1:double></Weights></Neuron><Neuron><Bias>0.69772824519655963</Bias><Output>1</Output><Weights xmlns:d6p1="http://schemas.microsoft.com/2003/10/Serialization/Arrays"><d6p1:double>3.5911369021971633</d6p1:double><d6p1:double>0.89766645674153855</d6p1:double><d6p1:double>1.2052189035682597</d6p1:double><d6p1:double>-3.4555476293215603</d6p1:double><d6p1:double>-0.84612195098556986</d6p1:double><d6p1:double>0.85142613826301594</d6p1:double><d6p1:double>1.5703758281480609</d6p1:double><d6p1:double>0.051273040721533727</d6p1:double><d6p1:double>-1.5250753256143821</d6p1:double><d6p1:double>1.6761337482161147</d6p1:double><d6p1:double>-1.4689079690035278</d6p1:double><d6p1:double>1.8957373556518962</d6p1:double><d6p1:double>0.31684089506393226</d6p1:double><d6p1:double>-1.2591019355346602</d6p1:double><d6p1:double>1.9358056419516725</d6p1:double><d6p1:double>0.43991229856005132</d6p1:double><d6p1:double>0.031346611386044304</d6p1:double><d6p1:double>-2.4784539112505786</d6p1:double><d6p1:double>-1.9415170784847733</d6p1:double><d6p1:double>-0.35538320005852209</d6p1:double><d6p1:double>0.3928576173625361</d6p1:double><d6p1:double>-1.0513060076803031</d6p1:double><d6p1:double>-2.28326619895753</d6p1:double><d6p1:double>1.490374861779644</d6p1:double><d6p1:double>2.7012187512650891</d6p1:double></Weights></Neuron><Neuron><Bias>0.10189115828056722</Bias><Output>-1</Output><Weights xmlns:d6p1="http://schemas.microsoft.com/2003/10/Serialization/Arrays"><d6p1:double>-0.80687044194812807</d6p1:double><d6p1:double>0.29955385097750442</d6p1:double><d6p1:double>2.4930449659286404</d6p1:double><d6p1:double>2.7185445336306278</d6p1:double><d6p1:double>4.0733461877626409</d6p1:double><d6p1:double>5.35996838577143</d6p1:double><d6p1:double>1.7801480685516338</d6p1:double><d6p1:double>1.9283986193307352</d6p1:double><d6p1:double>1.9773233197380133</d6p1:double><d6p1:double>-0.953878782863336</d6p1:double><d6p1:double>-2.8328268626753208</d6p1:double><d6p1:double>-1.4128445851552147</d6p1:double><d6p1:double>1.1656249961074969</d6p1:double><d6p1:double>-0.1374734025994736</d6p1:double><d6p1:double>1.1278966056577304</d6p1:double><d6p1:double>-1.2681394884652495</d6p1:double><d6p1:double>-0.14138558109269062</d6p1:double><d6p1:double>0.42268428450592443</d6p1:double><d6p1:double>-1.3201660409509044</d6p1:double><d6p1:double>-1.8029916721854198</d6p1:double><d6p1:double>-0.77354253537505313</d6p1:double><d6p1:double>1.2755288622242349</d6p1:double><d6p1:double>4.2029884544336626</d6p1:double><d6p1:double>1.8074429231357729</d6p1:double><d6p1:double>0.089175049699526859</d6p1:double></Weights></Neuron><Neuron><Bias>0.939970926885991</Bias><Output>1</Output><Weights xmlns:d6p1="http://schemas.microsoft.com/2003/10/Serialization/Arrays"><d6p1:double>1.1780849374799451</d6p1:double><d6p1:double>2.5986501236864457</d6p1:double><d6p1:double>4.4199886212593764</d6p1:double><d6p1:double>-2.37491705437076</d6p1:double><d6p1:double>-0.92523190903077679</d6p1:double><d6p1:double>0.33668933952874791</d6p1:double><d6p1:double>1.5517903133574256</d6p1:double><d6p1:double>0.60626722075306338</d6p1:double><d6p1:double>1.0077984898001686</d6p1:double><d6p1:double>-0.25582370285891048</d6p1:double><d6p1:double>-2.1884047212952109</d6p1:double><d6p1:double>0.46485666685116184</d6p1:double><d6p1:double>3.9619148390455212</d6p1:double><d6p1:double>-1.1027772785113026</d6p1:double><d6p1:double>2.1014716476905284</d6p1:double><d6p1:double>1.0178526502922509</d6p1:double><d6p1:double>-2.5294888820274846</d6p1:double><d6p1:double>-0.4392790966889728</d6p1:double><d6p1:double>3.0726273964832349</d6p1:double><d6p1:double>-0.30057747646607841</d6p1:double><d6p1:double>1.9906826166442722</d6p1:double><d6p1:double>-1.3676050458012547</d6p1:double><d6p1:double>-0.83942823214797713</d6p1:double><d6p1:double>2.0629583946463428</d6p1:double><d6p1:double>-1.4871991090992243</d6p1:double></Weights></Neuron><Neuron><Bias>0.9229805924869513</Bias><Output>-1</Output><Weights xmlns:d6p1="http://schemas.microsoft.com/2003/10/Serialization/Arrays"><d6p1:double>-3.6671285840800336</d6p1:double><d6p1:double>2.2014516298629356</d6p1:double><d6p1:double>3.8693691398461252</d6p1:double><d6p1:double>0.5509406913323962</d6p1:double><d6p1:double>-1.1670095048907199</d6p1:double><d6p1:double>1.5706319969142388</d6p1:double><d6p1:double>-1.103922082339766</d6p1:double><d6p1:double>0.24597016734220065</d6p1:double><d6p1:double>0.10049442487004111</d6p1:double><d6p1:double>-1.649821819155824</d6p1:double><d6p1:double>1.325307916063911</d6p1:double><d6p1:double>-2.4030356069088454</d6p1:double><d6p1:double>0.1751885681437563</d6p1:double><d6p1:double>4.3365275129354846</d6p1:double><d6p1:double>-2.2003316364480372</d6p1:double><d6p1:double>2.2629186854066683</d6p1:double><d6p1:double>1.1910284809559957</d6p1:double><d6p1:double>-0.2100976345229385</d6p1:double><d6p1:double>-0.31360952689580568</d6p1:double><d6p1:double>1.3506701307110924</d6p1:double><d6p1:double>-0.018953328249114953</d6p1:double><d6p1:double>0.98328381365012518</d6p1:double><d6p1:double>2.9055108805967271</d6p1:double><d6p1:double>0.30881630960392953</d6p1:double><d6p1:double>-1.0211815003980735</d6p1:double></Weights></Neuron><Neuron><Bias>0.58662822728231667</Bias><Output>-1</Output><Weights xmlns:d6p1="http://schemas.microsoft.com/2003/10/Serialization/Arrays"><d6p1:double>0.64202599816359018</d6p1:double><d6p1:double>-4.2364127110052667</d6p1:double><d6p1:double>1.2870041447753644</d6p1:double><d6p1:double>4.8439455817241477</d6p1:double><d6p1:double>2.38721651502896</d6p1:double><d6p1:double>2.5873478350110846</d6p1:double><d6p1:double>0.34375718134741823</d6p1:double><d6p1:double>-1.1285010381428806</d6p1:double><d6p1:double>0.37760351694274563</d6p1:double><d6p1:double>1.6119560256255272</d6p1:double><d6p1:double>2.3525420902744192</d6p1:double><d6p1:double>-0.23422876132562642</d6p1:double><d6p1:double>2.4693736262088444</d6p1:double><d6p1:double>2.3065601849765858</d6p1:double><d6p1:double>0.88060057527500268</d6p1:double><d6p1:double>1.1762110442541589</d6p1:double><d6p1:double>-3.0632384157707007</d6p1:double><d6p1:double>3.5542715228678889</d6p1:double><d6p1:double>1.8249109118432134</d6p1:double><d6p1:double>-0.68970600979361363</d6p1:double><d6p1:double>-0.19090870920733491</d6p1:double><d6p1:double>3.6902392771720991</d6p1:double><d6p1:double>3.6813798649100304</d6p1:double><d6p1:double>0.5552964336437114</d6p1:double><d6p1:double>-1.1898238075985241</d6p1:double></Weights></Neuron><Neuron><Bias>0.94258395049958388</Bias><Output>-1</Output><Weights xmlns:d6p1="http://schemas.microsoft.com/2003/10/Serialization/Arrays"><d6p1:double>1.8644382327643734</d6p1:double><d6p1:double>0.29101646760235605</d6p1:double><d6p1:double>-1.1241456352239205</d6p1:double><d6p1:double>1.0246044290633749</d6p1:double><d6p1:double>2.1796797497755214</d6p1:double><d6p1:double>-0.77811835991603018</d6p1:double><d6p1:double>0.85847009055667955</d6p1:double><d6p1:double>0.025453357145040077</d6p1:double><d6p1:double>0.81174454723404366</d6p1:double><d6p1:double>0.37621344698433756</d6p1:double><d6p1:double>0.1887473466635399</d6p1:double><d6p1:double>-0.044644526500973905</d6p1:double><d6p1:double>-1.1128245053044383</d6p1:double><d6p1:double>-0.083027949105998936</d6p1:double><d6p1:double>-0.093713034085794067</d6p1:double><d6p1:double>0.11842499897657029</d6p1:double><d6p1:double>0.98233954482834818</d6p1:double><d6p1:double>-0.68869159571700056</d6p1:double><d6p1:double>0.40843640802080972</d6p1:double><d6p1:double>0.79094714468072724</d6p1:double><d6p1:double>-0.16416549434387212</d6p1:double><d6p1:double>1.1983255328586986</d6p1:double><d6p1:double>0.218237396173672</d6p1:double><d6p1:double>-1.0882573396708082</d6p1:double><d6p1:double>1.9422372974499023</d6p1:double></Weights></Neuron><Neuron><Bias>0.41005650603476723</Bias><Output>1</Output><Weights xmlns:d6p1="http://schemas.microsoft.com/2003/10/Serialization/Arrays"><d6p1:double>-2.3413649330258535</d6p1:double><d6p1:double>3.0522069463368973</d6p1:double><d6p1:double>0.24433556862567454</d6p1:double><d6p1:double>0.30265076596439605</d6p1:double><d6p1:double>0.14603590049969006</d6p1:double><d6p1:double>1.819731418031032</d6p1:double><d6p1:double>-1.6670257542298439</d6p1:double><d6p1:double>0.59184434828459487</d6p1:double><d6p1:double>-3.1467612728892624</d6p1:double><d6p1:double>-2.8274304784418054</d6p1:double><d6p1:double>2.0722084771586506</d6p1:double><d6p1:double>1.2518996145378687</d6p1:double><d6p1:double>-0.72931052457063683</d6p1:double><d6p1:double>0.34431637976382085</d6p1:double><d6p1:double>0.47843415201078504</d6p1:double><d6p1:double>2.4505198150250234</d6p1:double><d6p1:double>-1.1204414960268403</d6p1:double><d6p1:double>2.3161543522387529</d6p1:double><d6p1:double>1.4299765220909384</d6p1:double><d6p1:double>0.801793806698753</d6p1:double><d6p1:double>2.1987195790819682</d6p1:double><d6p1:double>-4.8566152979940043</d6p1:double><d6p1:double>-1.8808568200852971</d6p1:double><d6p1:double>-0.202265674969752</d6p1:double><d6p1:double>-0.839472147447731</d6p1:double></Weights></Neuron><Neuron><Bias>0.5447495609762677</Bias><Output>-1</Output><Weights xmlns:d6p1="http://schemas.microsoft.com/2003/10/Serialization/Arrays"><d6p1:double>3.4455875352439675</d6p1:double><d6p1:double>1.6470087643833058</d6p1:double><d6p1:double>0.52408999881311513</d6p1:double><d6p1:double>0.55217320674586745</d6p1:double><d6p1:double>3.3486099560047129</d6p1:double><d6p1:double>0.62983373772220119</d6p1:double><d6p1:double>1.4255941504180589</d6p1:double><d6p1:double>1.7047075779416652</d6p1:double><d6p1:double>3.7823822780647252</d6p1:double><d6p1:double>-2.0234974493770581</d6p1:double><d6p1:double>-1.9837774586082924</d6p1:double><d6p1:double>-3.6926154038926224</d6p1:double><d6p1:double>3.96076306397367</d6p1:double><d6p1:double>-0.080454198333373431</d6p1:double><d6p1:double>-0.27363499860508284</d6p1:double><d6p1:double>-1.5211694589914644</d6p1:double><d6p1:double>1.7060321494591759</d6p1:double><d6p1:double>-1.6214671540588907</d6p1:double><d6p1:double>-1.3433762755703387</d6p1:double><d6p1:double>2.1458831946581811</d6p1:double><d6p1:double>1.7850031985527404</d6p1:double><d6p1:double>1.1401760014864182</d6p1:double><d6p1:double>-0.63722352481357014</d6p1:double><d6p1:double>-2.1346183002116907</d6p1:double><d6p1:double>-0.083195546741904186</d6p1:double></Weights></Neuron><Neuron><Bias>0.72602821139753282</Bias><Output>1</Output><Weights xmlns:d6p1="http://schemas.microsoft.com/2003/10/Serialization/Arrays"><d6p1:double>-3.5153377004814761</d6p1:double><d6p1:double>-0.43423476745354356</d6p1:double><d6p1:double>-1.1621017178280855</d6p1:double><d6p1:double>-0.37584518082760793</d6p1:double><d6p1:double>1.7804008289407613</d6p1:double><d6p1:double>1.6187049300795104</d6p1:double><d6p1:double>-0.032790590527488506</d6p1:double><d6p1:double>1.0213937265501427</d6p1:double><d6p1:double>1.9105498158076981</d6p1:double><d6p1:double>3.0264250512752389</d6p1:double><d6p1:double>3.0231377388809424</d6p1:double><d6p1:double>-1.7900814886234209</d6p1:double><d6p1:double>-0.65472524440110513</d6p1:double><d6p1:double>-0.15254467287556395</d6p1:double><d6p1:double>0.08956708029834827</d6p1:double><d6p1:double>0.81051419124224289</d6p1:double><d6p1:double>-0.61361483978659126</d6p1:double><d6p1:double>0.19002551105363755</d6p1:double><d6p1:double>2.7916746331383795</d6p1:double><d6p1:double>0.79986483793099972</d6p1:double><d6p1:double>0.56964649661862965</d6p1:double><d6p1:double>-0.45228984854345228</d6p1:double><d6p1:double>5.6994745250264796</d6p1:double><d6p1:double>2.1784162402476483</d6p1:double><d6p1:double>-2.2453659707746039</d6p1:double></Weights></Neuron><Neuron><Bias>0.96774187230779718</Bias><Output>1</Output><Weights xmlns:d6p1="http://schemas.microsoft.com/2003/10/Serialization/Arrays"><d6p1:double>0.38029098278056078</d6p1:double><d6p1:double>0.88550074192672668</d6p1:double><d6p1:double>-0.029948114925363121</d6p1:double><d6p1:double>-1.1580380539120316</d6p1:double><d6p1:double>-1.380292473967621</d6p1:double><d6p1:double>3.4414114852310322</d6p1:double><d6p1:double>-0.24035247429533166</d6p1:double><d6p1:double>-1.7221992232027776</d6p1:double><d6p1:double>-3.3768587690532681</d6p1:double><d6p1:double>1.939257121471698</d6p1:double><d6p1:double>0.44756221831143228</d6p1:double><d6p1:double>3.9410184657119158</d6p1:double><d6p1:double>0.54271786940952915</d6p1:double><d6p1:double>-1.882248558474775</d6p1:double><d6p1:double>-1.6501009480132947</d6p1:double><d6p1:double>0.89308895883185013</d6p1:double><d6p1:double>-2.4125596056160519</d6p1:double><d6p1:double>0.31012175030032713</d6p1:double><d6p1:double>1.3738722120947016</d6p1:double><d6p1:double>1.7260094050202288</d6p1:double><d6p1:double>0.31007832577437644</d6p1:double><d6p1:double>-0.47992475985137556</d6p1:double><d6p1:double>1.6818572887992835</d6p1:double><d6p1:double>3.42165879786712</d6p1:double><d6p1:double>2.2249403596314417</d6p1:double></Weights></Neuron><Neuron><Bias>0.0030602352275783</Bias><Output>-1</Output><Weights xmlns:d6p1="http://schemas.microsoft.com/2003/10/Serialization/Arrays"><d6p1:double>1.3915857838434258</d6p1:double><d6p1:double>0.46099481190730895</d6p1:double><d6p1:double>0.34784508751787141</d6p1:double><d6p1:double>0.79023929569813023</d6p1:double><d6p1:double>1.2030268968727864</d6p1:double><d6p1:double>0.22694972047035628</d6p1:double><d6p1:double>0.722307703600275</d6p1:double><d6p1:double>-0.33991132247173161</d6p1:double><d6p1:double>-0.11138122194961404</d6p1:double><d6p1:double>-0.048940199744769222</d6p1:double><d6p1:double>0.14964757211644694</d6p1:double><d6p1:double>-0.80091215854573006</d6p1:double><d6p1:double>0.28828260334238553</d6p1:double><d6p1:double>-0.018800056070554759</d6p1:double><d6p1:double>-1.0955156361174485</d6p1:double><d6p1:double>-0.43895351947764788</d6p1:double><d6p1:double>-0.32550687138587076</d6p1:double><d6p1:double>-0.21368317835455886</d6p1:double><d6p1:double>-0.026755037825363155</d6p1:double><d6p1:double>-0.13412462239498515</d6p1:double><d6p1:double>0.41558773101967561</d6p1:double><d6p1:double>1.8394705262204658</d6p1:double><d6p1:double>0.87616079132876445</d6p1:double><d6p1:double>-1.0261979128080698</d6p1:double><d6p1:double>0.78016779823172122</d6p1:double></Weights></Neuron><Neuron><Bias>0.48761443354178491</Bias><Output>1</Output><Weights xmlns:d6p1="http://schemas.microsoft.com/2003/10/Serialization/Arrays"><d6p1:double>2.1351150790809972</d6p1:double><d6p1:double>-1.3773015078377153</d6p1:double><d6p1:double>-0.034175468131723272</d6p1:double><d6p1:double>1.4118424264210199</d6p1:double><d6p1:double>1.1680197694309795</d6p1:double><d6p1:double>-0.79681702155639311</d6p1:double><d6p1:double>-2.0086218464682122</d6p1:double><d6p1:double>-0.074848600196898527</d6p1:double><d6p1:double>-0.41528571730686326</d6p1:double><d6p1:double>1.0083502470316557</d6p1:double><d6p1:double>2.3132511429772604</d6p1:double><d6p1:double>3.2397746203238014</d6p1:double><d6p1:double>-5.026824950366243</d6p1:double><d6p1:double>0.036527749082866309</d6p1:double><d6p1:double>-2.1909047041292218</d6p1:double><d6p1:double>0.92021215049010763</d6p1:double><d6p1:double>-0.42453006127583331</d6p1:double><d6p1:double>-2.7848211163463197</d6p1:double><d6p1:double>0.54750772275094706</d6p1:double><d6p1:double>-0.31469841814952959</d6p1:double><d6p1:double>0.24167362201405562</d6p1:double><d6p1:double>2.4730443213721904</d6p1:double><d6p1:double>1.2950583020017203</d6p1:double><d6p1:double>4.5239429091970944</d6p1:double><d6p1:double>2.5055654279553203</d6p1:double></Weights></Neuron><Neuron><Bias>0.775985473351531</Bias><Output>-1</Output><Weights xmlns:d6p1="http://schemas.microsoft.com/2003/10/Serialization/Arrays"><d6p1:double>3.1851753830929623</d6p1:double><d6p1:double>0.47523715716290044</d6p1:double><d6p1:double>-0.8051630099163638</d6p1:double><d6p1:double>2.3865902006417472</d6p1:double><d6p1:double>-0.18676727908015117</d6p1:double><d6p1:double>-0.84001870253133848</d6p1:double><d6p1:double>2.1680407585214514</d6p1:double><d6p1:double>-0.17185284211628982</d6p1:double><d6p1:double>0.381752042280043</d6p1:double><d6p1:double>0.11274601068284276</d6p1:double><d6p1:double>-0.29735278003140186</d6p1:double><d6p1:double>-0.5627653789453988</d6p1:double><d6p1:double>-1.1150850007294906</d6p1:double><d6p1:double>-1.008376346294916</d6p1:double><d6p1:double>-2.4646864042755889</d6p1:double><d6p1:double>-0.021516283511146692</d6p1:double><d6p1:double>-0.084300068178354781</d6p1:double><d6p1:double>-0.087399462152355445</d6p1:double><d6p1:double>-0.6593943656902248</d6p1:double><d6p1:double>2.5983210764752012</d6p1:double><d6p1:double>-0.97703794301649971</d6p1:double><d6p1:double>0.23698616895877855</d6p1:double><d6p1:double>-0.43297315013503673</d6p1:double><d6p1:double>-1.6617485689156348</d6p1:double><d6p1:double>0.55456926684949115</d6p1:double></Weights></Neuron><Neuron><Bias>0.55364634106781818</Bias><Output>1</Output><Weights xmlns:d6p1="http://schemas.microsoft.com/2003/10/Serialization/Arrays"><d6p1:double>-2.0421676169182903</d6p1:double><d6p1:double>1.1395888121255242</d6p1:double><d6p1:double>0.55939981157129859</d6p1:double><d6p1:double>-2.9241309089165282</d6p1:double><d6p1:double>-2.8219071144637287</d6p1:double><d6p1:double>2.5861090267061262</d6p1:double><d6p1:double>1.4671758903656575</d6p1:double><d6p1:double>-0.038406932801110023</d6p1:double><d6p1:double>0.19913577830931897</d6p1:double><d6p1:double>1.0964217086734571</d6p1:double><d6p1:double>3.5698033788875345</d6p1:double><d6p1:double>-1.1851034553354645</d6p1:double><d6p1:double>0.3621317477606445</d6p1:double><d6p1:double>1.3030810198317995</d6p1:double><d6p1:double>1.8320140986698052</d6p1:double><d6p1:double>0.61296558235215781</d6p1:double><d6p1:double>-0.55535142638899149</d6p1:double><d6p1:double>0.089420936583685787</d6p1:double><d6p1:double>3.6833928472197095</d6p1:double><d6p1:double>0.24643312428582798</d6p1:double><d6p1:double>-4.2505301076009268</d6p1:double><d6p1:double>2.6308289269089689</d6p1:double><d6p1:double>1.0881932123980558</d6p1:double><d6p1:double>-0.877235719946448</d6p1:double><d6p1:double>1.7954431075805819</d6p1:double></Weights></Neuron><Neuron><Bias>0.57982975153747118</Bias><Output>-1</Output><Weights xmlns:d6p1="http://schemas.microsoft.com/2003/10/Serialization/Arrays"><d6p1:double>2.0862653239893878</d6p1:double><d6p1:double>1.2084580880791189</d6p1:double><d6p1:double>-1.5901396590315178</d6p1:double><d6p1:double>2.9710853768263918</d6p1:double><d6p1:double>-1.2932224251279627</d6p1:double><d6p1:double>-1.16362130656221</d6p1:double><d6p1:double>-0.446328802755037</d6p1:double><d6p1:double>1.8386556224251829</d6p1:double><d6p1:double>2.3370115932824178</d6p1:double><d6p1:double>-0.93775887111016254</d6p1:double><d6p1:double>1.572715131424234</d6p1:double><d6p1:double>3.4931025797946158</d6p1:double><d6p1:double>-1.3595966721059602</d6p1:double><d6p1:double>0.93692989666716275</d6p1:double><d6p1:double>-0.94120041109760888</d6p1:double><d6p1:double>0.65344396781285452</d6p1:double><d6p1:double>-2.5619911286628421</d6p1:double><d6p1:double>-0.981801440037833</d6p1:double><d6p1:double>-2.309636839911021</d6p1:double><d6p1:double>-1.4566910294592514</d6p1:double><d6p1:double>-2.4265918878865511</d6p1:double><d6p1:double>0.15519063587248669</d6p1:double><d6p1:double>1.6705671980671977</d6p1:double><d6p1:double>1.0661443771492567</d6p1:double><d6p1:double>2.628828874178776</d6p1:double></Weights></Neuron><Neuron><Bias>0.79482669781595239</Bias><Output>-1</Output><Weights xmlns:d6p1="http://schemas.microsoft.com/2003/10/Serialization/Arrays"><d6p1:double>-1.2404639555672026</d6p1:double><d6p1:double>1.2278982650620371</d6p1:double><d6p1:double>-2.513487628842948</d6p1:double><d6p1:double>0.54193425256336625</d6p1:double><d6p1:double>-2.5354862808503364</d6p1:double><d6p1:double>0.25442667702131622</d6p1:double><d6p1:double>3.9300845800594382</d6p1:double><d6p1:double>3.116752388333301</d6p1:double><d6p1:double>0.39984418798914811</d6p1:double><d6p1:double>-0.49912225636040536</d6p1:double><d6p1:double>1.0975681551295136</d6p1:double><d6p1:double>2.4178158042607163</d6p1:double><d6p1:double>-0.76970161609925125</d6p1:double><d6p1:double>2.4989706011925659</d6p1:double><d6p1:double>4.9858430959469215</d6p1:double><d6p1:double>2.4842812382738408</d6p1:double><d6p1:double>1.9114947155967572</d6p1:double><d6p1:double>1.7362936207919442</d6p1:double><d6p1:double>-1.2308586397114927</d6p1:double><d6p1:double>-1.7444039418116331</d6p1:double><d6p1:double>0.090437122599687059</d6p1:double><d6p1:double>-1.3753395945895468</d6p1:double><d6p1:double>3.127121613219614</d6p1:double><d6p1:double>0.40233261752198179</d6p1:double><d6p1:double>0.60559963479131862</d6p1:double></Weights></Neuron><Neuron><Bias>0.97151970914200214</Bias><Output>1</Output><Weights xmlns:d6p1="http://schemas.microsoft.com/2003/10/Serialization/Arrays"><d6p1:double>1.0114763743714592</d6p1:double><d6p1:double>2.3026317695039697</d6p1:double><d6p1:double>2.1780455026108343</d6p1:double><d6p1:double>1.8128121294213928</d6p1:double><d6p1:double>-0.13201622304355135</d6p1:double><d6p1:double>3.2327144352972894</d6p1:double><d6p1:double>-0.55108563224309959</d6p1:double><d6p1:double>0.28095191525971996</d6p1:double><d6p1:double>1.3350398467405855</d6p1:double><d6p1:double>3.9444071938143948</d6p1:double><d6p1:double>-0.040175241785794825</d6p1:double><d6p1:double>1.5456839282912087</d6p1:double><d6p1:double>-1.4243319558721175</d6p1:double><d6p1:double>-2.9369906899472191</d6p1:double><d6p1:double>3.2272906380040172</d6p1:double><d6p1:double>0.056810492519342962</d6p1:double><d6p1:double>2.3178522386094653</d6p1:double><d6p1:double>0.83098597638450422</d6p1:double><d6p1:double>-1.332898308962976</d6p1:double><d6p1:double>2.3507345183286583</d6p1:double><d6p1:double>0.82293532181363283</d6p1:double><d6p1:double>1.1312337997343558</d6p1:double><d6p1:double>-2.6068232294614058</d6p1:double><d6p1:double>0.94357735936964748</d6p1:double><d6p1:double>-2.0311470697131622</d6p1:double></Weights></Neuron><Neuron><Bias>0.85048711397494758</Bias><Output>-1</Output><Weights xmlns:d6p1="http://schemas.microsoft.com/2003/10/Serialization/Arrays"><d6p1:double>1.0224784620865504</d6p1:double><d6p1:double>0.35788343378560439</d6p1:double><d6p1:double>-0.59923685583632313</d6p1:double><d6p1:double>1.2902548482541891</d6p1:double><d6p1:double>2.391753888570554</d6p1:double><d6p1:double>-0.41858175346787346</d6p1:double><d6p1:double>-0.59921302817770961</d6p1:double><d6p1:double>-0.91874198178033084</d6p1:double><d6p1:double>-0.20812159188780358</d6p1:double><d6p1:double>0.77655471811291055</d6p1:double><d6p1:double>-0.3520145150278246</d6p1:double><d6p1:double>-0.14651292185188669</d6p1:double><d6p1:double>-0.994465874632368</d6p1:double><d6p1:double>-0.12892096483962487</d6p1:double><d6p1:double>-1.127849011371431</d6p1:double><d6p1:double>0.922651120540309</d6p1:double><d6p1:double>-0.079157521252587293</d6p1:double><d6p1:double>0.13899380163453004</d6p1:double><d6p1:double>0.70093123486413578</d6p1:double><d6p1:double>0.092926302812918526</d6p1:double><d6p1:double>1.2531183011354743</d6p1:double><d6p1:double>1.2197504916233821</d6p1:double><d6p1:double>0.69980962186722739</d6p1:double><d6p1:double>-1.4201007653937894</d6p1:double><d6p1:double>1.0046924538259632</d6p1:double></Weights></Neuron><Neuron><Bias>0.33101556211375016</Bias><Output>-1</Output><Weights xmlns:d6p1="http://schemas.microsoft.com/2003/10/Serialization/Arrays"><d6p1:double>-1.9229655688826857</d6p1:double><d6p1:double>0.62224476341078683</d6p1:double><d6p1:double>0.15994957659799064</d6p1:double><d6p1:double>1.3273012470117227</d6p1:double><d6p1:double>0.1114312302601855</d6p1:double><d6p1:double>-1.8781578887592181</d6p1:double><d6p1:double>0.94037815485116727</d6p1:double><d6p1:double>3.5056886564982688</d6p1:double><d6p1:double>1.1155830446341879</d6p1:double><d6p1:double>1.7399997203218058</d6p1:double><d6p1:double>0.12953804732945967</d6p1:double><d6p1:double>-2.3127613984520385</d6p1:double><d6p1:double>-0.38724243085220611</d6p1:double><d6p1:double>2.4146506495317182</d6p1:double><d6p1:double>2.8885637381783247</d6p1:double><d6p1:double>1.3093759123235582</d6p1:double><d6p1:double>-3.24584539173532</d6p1:double><d6p1:double>3.573185604855754</d6p1:double><d6p1:double>0.3504689848019315</d6p1:double><d6p1:double>0.54723541421411226</d6p1:double><d6p1:double>-0.78252506363655994</d6p1:double><d6p1:double>-1.5300769053339311</d6p1:double><d6p1:double>2.0194910724100934</d6p1:double><d6p1:double>0.62519020642134271</d6p1:double><d6p1:double>0.22649125223082545</d6p1:double></Weights></Neuron><Neuron><Bias>0.85830778895208348</Bias><Output>-1</Output><Weights xmlns:d6p1="http://schemas.microsoft.com/2003/10/Serialization/Arrays"><d6p1:double>1.4968257943801007</d6p1:double><d6p1:double>-1.0642424116306248</d6p1:double><d6p1:double>2.4997418849073916</d6p1:double><d6p1:double>3.8302777829630732</d6p1:double><d6p1:double>1.0237996840470784</d6p1:double><d6p1:double>0.28221689335691524</d6p1:double><d6p1:double>2.0223903210710943</d6p1:double><d6p1:double>-3.2496326413250047</d6p1:double><d6p1:double>2.7994616049506904</d6p1:double><d6p1:double>-0.68402267584813081</d6p1:double><d6p1:double>4.8459925194877416</d6p1:double><d6p1:double>-4.6234523039886248</d6p1:double><d6p1:double>2.0980548259300815</d6p1:double><d6p1:double>1.2572461519256231</d6p1:double><d6p1:double>-2.4797848772128308</d6p1:double><d6p1:double>-1.1300222779790574</d6p1:double><d6p1:double>-0.95534502593406323</d6p1:double><d6p1:double>1.7855982710889127</d6p1:double><d6p1:double>-1.8755198135357112</d6p1:double><d6p1:double>-0.4418716599502569</d6p1:double><d6p1:double>1.83247478179495</d6p1:double><d6p1:double>1.173793380528968</d6p1:double><d6p1:double>1.6630760121815438</d6p1:double><d6p1:double>1.0035720010173597</d6p1:double><d6p1:double>-2.2057491766305515</d6p1:double></Weights></Neuron><Neuron><Bias>0.89511632530080332</Bias><Output>-1</Output><Weights 