<?xml version="1.0" encoding="utf-16"?><NeuralNetwork xmlns:i="http://www.w3.org/2001/XMLSchema-instance" xmlns="http://schemas.datacontract.org/2004/07/AE.MachineLearning.NeuralNet.Core"><_networkLayers><NetworkLayer><_isInputLayer>true</_isInputLayer><_neurons><Neuron><Bias>0</Bias><Output>-1003.888796</Output><Weights xmlns:d6p1="http://schemas.microsoft.com/2003/10/Serialization/Arrays"><d6p1:double>1</d6p1:double></Weights></Neuron><Neuron><Bias>0</Bias><Output>99.7346757</Output><Weights xmlns:d6p1="http://schemas.microsoft.com/2003/10/Serialization/Arrays"><d6p1:double>1</d6p1:double></Weights></Neuron><Neuron><Bias>0</Bias><Output>656.188731</Output><Weights xmlns:d6p1="http://schemas.microsoft.com/2003/10/Serialization/Arrays"><d6p1:double>1</d6p1:double></Weights></Neuron><Neuron><Bias>0</Bias><Output>-101.2632666</Output><Weights xmlns:d6p1="http://schemas.microsoft.com/2003/10/Serialization/Arrays"><d6p1:double>1</d6p1:double></Weights></Neuron><Neuron><Bias>0</Bias><Output>-712.5407464</Output><Weights xmlns:d6p1="http://schemas.microsoft.com/2003/10/Serialization/Arrays"><d6p1:double>1</d6p1:double></Weights></Neuron><Neuron><Bias>0</Bias><Output>-218.8568689</Output><Weights xmlns:d6p1="http://schemas.microsoft.com/2003/10/Serialization/Arrays"><d6p1:double>1</d6p1:double></Weights></Neuron><Neuron><Bias>0</Bias><Output>-543.6679743</Output><Weights xmlns:d6p1="http://schemas.microsoft.com/2003/10/Serialization/Arrays"><d6p1:double>1</d6p1:double></Weights></Neuron><Neuron><Bias>0</Bias><Output>256.0470238</Output><Weights xmlns:d6p1="http://schemas.microsoft.com/2003/10/Serialization/Arrays"><d6p1:double>1</d6p1:double></Weights></Neuron><Neuron><Bias>0</Bias><Output>-375.9740615</Output><Weights xmlns:d6p1="http://schemas.microsoft.com/2003/10/Serialization/Arrays"><d6p1:double>1</d6p1:double></Weights></Neuron><Neuron><Bias>0</Bias><Output>139.6749711</Output><Weights xmlns:d6p1="http://schemas.microsoft.com/2003/10/Serialization/Arrays"><d6p1:double>1</d6p1:double></Weights></Neuron><Neuron><Bias>0</Bias><Output>112.0551432</Output><Weights xmlns:d6p1="http://schemas.microsoft.com/2003/10/Serialization/Arrays"><d6p1:double>1</d6p1:double></Weights></Neuron><Neuron><Bias>0</Bias><Output>55.11060021</Output><Weights xmlns:d6p1="http://schemas.microsoft.com/2003/10/Serialization/Arrays"><d6p1:double>1</d6p1:double></Weights></Neuron><Neuron><Bias>0</Bias><Output>583.974903</Output><Weights xmlns:d6p1="http://schemas.microsoft.com/2003/10/Serialization/Arrays"><d6p1:double>1</d6p1:double></Weights></Neuron><Neuron><Bias>0</Bias><Output>-129.8331591</Output><Weights xmlns:d6p1="http://schemas.microsoft.com/2003/10/Serialization/Arrays"><d6p1:double>1</d6p1:double></Weights></Neuron><Neuron><Bias>0</Bias><Output>384.374502</Output><Weights xmlns:d6p1="http://schemas.microsoft.com/2003/10/Serialization/Arrays"><d6p1:double>1</d6p1:double></Weights></Neuron><Neuron><Bias>0</Bias><Output>707.6621492</Output><Weights xmlns:d6p1="http://schemas.microsoft.com/2003/10/Serialization/Arrays"><d6p1:double>1</d6p1:double></Weights></Neuron><Neuron><Bias>0</Bias><Output>-206.0695753</Output><Weights xmlns:d6p1="http://schemas.microsoft.com/2003/10/Serialization/Arrays"><d6p1:double>1</d6p1:double></Weights></Neuron><Neuron><Bias>0</Bias><Output>27.86720355</Output><Weights xmlns:d6p1="http://schemas.microsoft.com/2003/10/Serialization/Arrays"><d6p1:double>1</d6p1:double></Weights></Neuron><Neuron><Bias>0</Bias><Output>452.5315824</Output><Weights xmlns:d6p1="http://schemas.microsoft.com/2003/10/Serialization/Arrays"><d6p1:double>1</d6p1:double></Weights></Neuron><Neuron><Bias>0</Bias><Output>108.9841613</Output><Weights xmlns:d6p1="http://schemas.microsoft.com/2003/10/Serialization/Arrays"><d6p1:double>1</d6p1:double></Weights></Neuron><Neuron><Bias>0</Bias><Output>-327.436527</Output><Weights xmlns:d6p1="http://schemas.microsoft.com/2003/10/Serialization/Arrays"><d6p1:double>1</d6p1:double></Weights></Neuron><Neuron><Bias>0</Bias><Output>-386.1563253</Output><Weights xmlns:d6p1="http://schemas.microsoft.com/2003/10/Serialization/Arrays"><d6p1:double>1</d6p1:double></Weights></Neuron><Neuron><Bias>0</Bias><Output>-558.0306571</Output><Weights xmlns:d6p1="http://schemas.microsoft.com/2003/10/Serialization/Arrays"><d6p1:double>1</d6p1:double></Weights></Neuron><Neuron><Bias>0</Bias><Output>790.9654693</Output><Weights xmlns:d6p1="http://schemas.microsoft.com/2003/10/Serialization/Arrays"><d6p1:double>1</d6p1:double></Weights></Neuron><Neuron><Bias>0</Bias><Output>-211.894788</Output><Weights xmlns:d6p1="http://schemas.microsoft.com/2003/10/Serialization/Arrays"><d6p1:double>1</d6p1:double></Weights></Neuron></_neurons><_numOfNeurons>25</_numOfNeurons><_numberOfInputsPerNeuron>1</_numberOfInputsPerNeuron></NetworkLayer><NetworkLayer><_isInputLayer>false</_isInputLayer><_neurons><Neuron><Bias>-1.0012679607696449</Bias><Output>-1</Output><Weights xmlns:d6p1="http://schemas.microsoft.com/2003/10/Serialization/Arrays"><d6p1:double>1.2132454179471788</d6p1:double><d6p1:double>0.62751460883978183</d6p1:double><d6p1:double>0.46235583439103839</d6p1:double><d6p1:double>0.43957748045313433</d6p1:double><d6p1:double>0.7043542760761633</d6p1:double><d6p1:double>0.3317624426695861</d6p1:double><d6p1:double>0.91956494910559872</d6p1:double><d6p1:double>0.354671749811996</d6p1:double><d6p1:double>-0.018145795552780768</d6p1:double><d6p1:double>1.1344214524504586</d6p1:double><d6p1:double>0.3489088864491296</d6p1:double><d6p1:double>-0.072772037007074589</d6p1:double><d6p1:double>1.1886400303264815</d6p1:double><d6p1:double>-0.0644415829714802</d6p1:double><d6p1:double>0.411501073630848</d6p1:double><d6p1:double>0.088130847036657287</d6p1:double><d6p1:double>0.86060726815848421</d6p1:double><d6p1:double>-0.021646468291075447</d6p1:double><d6p1:double>0.36785623612279666</d6p1:double><d6p1:double>0.68161184836854383</d6p1:double><d6p1:double>0.33850895254953073</d6p1:double><d6p1:double>0.38133760503578956</d6p1:double><d6p1:double>-0.031125041875812713</d6p1:double><d6p1:double>0.12575027654172896</d6p1:double><d6p1:double>0.95320020952120843</d6p1:double></Weights></Neuron><Neuron><Bias>-0.99848002676817094</Bias><Output>1</Output><Weights xmlns:d6p1="http://schemas.microsoft.com/2003/10/Serialization/Arrays"><d6p1:double>0.23007588134735332</d6p1:double><d6p1:double>0.5577330156831275</d6p1:double><d6p1:double>0.32586448321431966</d6p1:double><d6p1:double>0.60300123064613587</d6p1:double><d6p1:double>-0.25460085359985812</d6p1:double><d6p1:double>0.6906584096044891</d6p1:double><d6p1:double>-0.61750956115014266</d6p1:double><d6p1:double>-0.36792037967109958</d6p1:double><d6p1:double>-0.45806008999824788</d6p1:double><d6p1:double>0.26144365423155164</d6p1:double><d6p1:double>-0.2533003778143339</d6p1:double><d6p1:double>1.0346597494134553</d6p1:double><d6p1:double>-0.067463682581451856</d6p1:double><d6p1:double>0.40537981579144555</d6p1:double><d6p1:double>0.20020063826031703</d6p1:double><d6p1:double>0.0883836318551014</d6p1:double><d6p1:double>0.55388007133959549</d6p1:double><d6p1:double>-0.363705135953573</d6p1:double><d6p1:double>0.66873753598008723</d6p1:double><d6p1:double>0.95564899739411557</d6p1:double><d6p1:double>-0.31643330722814444</d6p1:double><d6p1:double>-0.17270198467830764</d6p1:double><d6p1:double>0.82256208891807892</d6p1:double><d6p1:double>1.436620082241258</d6p1:double><d6p1:double>1.1506208399554452</d6p1:double></Weights></Neuron><Neuron><Bias>-1.0011238298217511</Bias><Output>-1</Output><Weights xmlns:d6p1="http://schemas.microsoft.com/2003/10/Serialization/Arrays"><d6p1:double>1.2835760433448402</d6p1:double><d6p1:double>0.513085204413505</d6p1:double><d6p1:double>0.64229669157605185</d6p1:double><d6p1:double>0.26658908140003984</d6p1:double><d6p1:double>-0.082211084235014428</d6p1:double><d6p1:double>0.066084088551247339</d6p1:double><d6p1:double>1.0949934129056313</d6p1:double><d6p1:double>-0.19940039346753954</d6p1:double><d6p1:double>0.50117046104938168</d6p1:double><d6p1:double>0.32995036208730177</d6p1:double><d6p1:double>0.69442108670849645</d6p1:double><d6p1:double>0.51390202708562482</d6p1:double><d6p1:double>0.83117594265190509</d6p1:double><d6p1:double>-0.34373165562405827</d6p1:double><d6p1:double>0.88527953422213157</d6p1:double><d6p1:double>0.72310819087718681</d6p1:double><d6p1:double>-0.28344873737348081</d6p1:double><d6p1:double>0.45450018291476346</d6p1:double><d6p1:double>0.12970467324277582</d6p1:double><d6p1:double>-0.73219000013073587</d6p1:double><d6p1:double>0.13419384604214535</d6p1:double><d6p1:double>0.40321417172717061</d6p1:double><d6p1:double>0.60205224910966781</d6p1:double><d6p1:double>0.53561306806846209</d6p1:double><d6p1:double>0.068768102691342328</d6p1:double></Weights></Neuron><Neuron><Bias>-1.0006151050591148</Bias><Output>-1</Output><Weights xmlns:d6p1="http://schemas.microsoft.com/2003/10/Serialization/Arrays"><d6p1:double>0.74445119471867294</d6p1:double><d6p1:double>0.78324340199353193</d6p1:double><d6p1:double>0.033419905045171644</d6p1:double><d6p1:double>0.45693547919170652</d6p1:double><d6p1:double>0.81196520206356337</d6p1:double><d6p1:double>0.76509978266748113</d6p1:double><d6p1:double>1.3376856762779359</d6p1:double><d6p1:double>1.046322673372623</d6p1:double><d6p1:double>0.72772289483759167</d6p1:double><d6p1:double>-0.090753308562058876</d6p1:double><d6p1:double>-0.43487538829505945</d6p1:double><d6p1:double>0.80532650151556251</d6p1:double><d6p1:double>0.60562470903208776</d6p1:double><d6p1:double>0.70874104035076291</d6p1:double><d6p1:double>0.87503358552813459</d6p1:double><d6p1:double>0.66156966762249758</d6p1:double><d6p1:double>0.95033420088134068</d6p1:double><d6p1:double>-0.51036318832491856</d6p1:double><d6p1:double>0.25403137001101722</d6p1:double><d6p1:double>0.286946124210216</d6p1:double><d6p1:double>0.42257000805500688</d6p1:double><d6p1:double>0.765987155710401</d6p1:double><d6p1:double>1.1660764179842673</d6p1:double><d6p1:double>0.18333171646929355</d6p1:double><d6p1:double>0.27734689692016318</d6p1:double></Weights></Neuron><Neuron><Bias>-0.99948031311067387</Bias><Output>1</Output><Weights xmlns:d6p1="http://schemas.microsoft.com/2003/10/Serialization/Arrays"><d6p1:double>-0.52017938770601146</d6p1:double><d6p1:double>0.72434540958905913</d6p1:double><d6p1:double>0.15774449185158818</d6p1:double><d6p1:double>0.75555185586238494</d6p1:double><d6p1:double>0.24214418581005209</d6p1:double><d6p1:double>0.677022653593241</d6p1:double><d6p1:double>-0.28236285720499738</d6p1:double><d6p1:double>1.1522336536608984</d6p1:double><d6p1:double>0.797087288794655</d6p1:double><d6p1:double>0.89525255411438842</d6p1:double><d6p1:double>0.85208226044549862</d6p1:double><d6p1:double>0.3878861347253339</d6p1:double><d6p1:double>0.938663356254119</d6p1:double><d6p1:double>0.30394386903830406</d6p1:double><d6p1:double>1.0468220089010778</d6p1:double><d6p1:double>0.99395629940803343</d6p1:double><d6p1:double>0.56327686741195693</d6p1:double><d6p1:double>1.2177493420835146</d6p1:double><d6p1:double>0.48860332605273349</d6p1:double><d6p1:double>0.053053354739295983</d6p1:double><d6p1:double>0.12053848687169091</d6p1:double><d6p1:double>0.41410353041243964</d6p1:double><d6p1:double>0.18969790803743622</d6p1:double><d6p1:double>0.052160059727377979</d6p1:double><d6p1:double>0.41972372468795116</d6p1:double></Weights></Neuron><Neuron><Bias>-0.99730460145866251</Bias><Output>1</Output><Weights xmlns:d6p1="http://schemas.microsoft.com/2003/10/Serialization/Arrays"><d6p1:double>-0.49806902148467269</d6p1:double><d6p1:double>0.61002610486760012</d6p1:double><d6p1:double>0.44468679705872111</d6p1:double><d6p1:double>0.380255047691892</d6p1:double><d6p1:double>0.24044741606723771</d6p1:double><d6p1:double>1.1999770795635236</d6p1:double><d6p1:double>-0.4872830417427737</d6p1:double><d6p1:double>0.18356825159447926</d6p1:double><d6p1:double>0.683723052438264</d6p1:double><d6p1:double>0.89819952224124389</d6p1:double><d6p1:double>0.51831292952250307</d6p1:double><d6p1:double>1.047932949493398</d6p1:double><d6p1:double>0.60171946457239334</d6p1:double><d6p1:double>0.47739298011534936</d6p1:double><d6p1:double>1.3017217098507488</d6p1:double><d6p1:double>0.43020018920010938</d6p1:double><d6p1:double>0.25138063038122577</d6p1:double><d6p1:double>0.050439266413269165</d6p1:double><d6p1:double>0.099077937028806351</d6p1:double><d6p1:double>0.57740254951609649</d6p1:double><d6p1:double>-0.051622651283502831</d6p1:double><d6p1:double>-0.11303581034137621</d6p1:double><d6p1:double>0.32080969296850265</d6p1:double><d6p1:double>1.1209676606435244</d6p1:double><d6p1:double>-0.043055286182569347</d6p1:double></Weights></Neuron><Neuron><Bias>-0.99939893851094952</Bias><Output>1</Output><Weights xmlns:d6p1="http://schemas.microsoft.com/2003/10/Serialization/Arrays"><d6p1:double>-0.093493711141000954</d6p1:double><d6p1:double>0.55395121434432748</d6p1:double><d6p1:double>1.0925465649109769</d6p1:double><d6p1:double>0.18294378739749287</d6p1:double><d6p1:double>0.68461961072626287</d6p1:double><d6p1:double>-0.30991568809028208</d6p1:double><d6p1:double>0.34009219555474735</d6p1:double><d6p1:double>0.63858015651667122</d6p1:double><d6p1:double>0.68372598988547206</d6p1:double><d6p1:double>1.0584471540851761</d6p1:double><d6p1:double>-0.028528879748988819</d6p1:double><d6p1:double>0.28260380493822956</d6p1:double><d6p1:double>-0.297310350533657</d6p1:double><d6p1:double>-0.63454127650857084</d6p1:double><d6p1:double>0.89983424161003</d6p1:double><d6p1:double>0.4601044944874827</d6p1:double><d6p1:double>-0.077324576872098316</d6p1:double><d6p1:double>1.0113194716373515</d6p1:double><d6p1:double>-0.34714988090565219</d6p1:double><d6p1:double>0.39098808043123345</d6p1:double><d6p1:double>0.386982772741859</d6p1:double><d6p1:double>-0.26622550397993594</d6p1:double><d6p1:double>-0.26004235445785623</d6p1:double><d6p1:double>1.1389871336740929</d6p1:double><d6p1:double>-0.13620955113220928</d6p1:double></Weights></Neuron><Neuron><Bias>-0.0010028332141814491</Bias><Output>-1</Output><Weights xmlns:d6p1="http://schemas.microsoft.com/2003/10/Serialization/Arrays"><d6p1:double>0.713580825423155</d6p1:double><d6p1:double>0.4695190087671543</d6p1:double><d6p1:double>0.689691794171933</d6p1:double><d6p1:double>0.39516927403812274</d6p1:double><d6p1:double>0.96494299820144469</d6p1:double><d6p1:double>0.58528938710295464</d6p1:double><d6p1:double>0.26191181631190708</d6p1:double><d6p1:double>0.77668083223826245</d6p1:double><d6p1:double>1.3372986707596322</d6p1:double><d6p1:double>0.31754623318609904</d6p1:double><d6p1:double>-0.51187125469166972</d6p1:double><d6p1:double>-1.0014580696615658</d6p1:double><d6p1:double>-0.0073344414776953509</d6p1:double><d6p1:double>0.59473060836252012</d6p1:double><d6p1:double>0.218258219577266</d6p1:double><d6p1:double>-0.97217485118095781</d6p1:double><d6p1:double>-0.074547946944252472</d6p1:double><d6p1:double>-0.025421820272299209</d6p1:double><d6p1:double>-0.30718496629790309</d6p1:double><d6p1:double>0.41059941730378458</d6p1:double><d6p1:double>-0.20124074649855364</d6p1:double><d6p1:double>0.48928399474573403</d6p1:double><d6p1:double>0.5479357904709512</d6p1:double><d6p1:double>0.53256430995955917</d6p1:double><d6p1:double>0.4398434378456848</d6p1:double></Weights></Neuron><Neuron><Bias>0.00010402817012839259</Bias><Output>-1</Output><Weights xmlns:d6p1="http://schemas.microsoft.com/2003/10/Serialization/Arrays"><d6p1:double>0.37987126121259857</d6p1:double><d6p1:double>1.2608826184415194</d6p1:double><d6p1:double>0.80619640026268391</d6p1:double><d6p1:double>-0.4083600777314168</d6p1:double><d6p1:double>0.57518626056555622</d6p1:double><d6p1:double>0.54551478146694476</d6p1:double><d6p1:double>0.88946800100517065</d6p1:double><d6p1:double>0.45601830024265538</d6p1:double><d6p1:double>0.16100603342069417</d6p1:double><d6p1:double>0.32149488837399137</d6p1:double><d6p1:double>0.20356185202308716</d6p1:double><d6p1:double>0.43297389675791431</d6p1:double><d6p1:double>0.046025124680896111</d6p1:double><d6p1:double>1.0559864928600389</d6p1:double><d6p1:double>0.30196920318448273</d6p1:double><d6p1:double>0.291098013815554</d6p1:double><d6p1:double>0.46538959459459528</d6p1:double><d6p1:double>-0.13563753308938251</d6p1:double><d6p1:double>0.4061514820991986</d6p1:double><d6p1:double>1.1405345060150573</d6p1:double><d6p1:double>0.3996581250857098</d6p1:double><d6p1:double>0.218738612449382</d6p1:double><d6p1:double>0.92403524450727081</d6p1:double><d6p1:double>0.16927746631993065</d6p1:double><d6p1:double>1.2755127444612546</d6p1:double></Weights></Neuron><Neuron><Bias>-1.0004980028242214</Bias><Output>-1</Output><Weights xmlns:d6p1="http://schemas.microsoft.com/2003/10/Serialization/Arrays"><d6p1:double>1.1267902551235385</d6p1:double><d6p1:double>1.0056456186878335</d6p1:double><d6p1:double>0.0049838184970782346</d6p1:double><d6p1:double>0.79809172554941021</d6p1:double><d6p1:double>0.77081684412844165</d6p1:double><d6p1:double>0.34886528118203136</d6p1:double><d6p1:double>0.74738690494754889</d6p1:double><d6p1:double>0.55674566393779923</d6p1:double><d6p1:double>0.79181241361417887</d6p1:double><d6p1:double>0.531554139683154</d6p1:double><d6p1:double>1.2333350298275374</d6p1:double><d6p1:double>0.51790137489543908</d6p1:double><d6p1:double>0.020649736241796057</d6p1:double><d6p1:double>0.40454215123620169</d6p1:double><d6p1:double>-0.055387348783785796</d6p1:double><d6p1:double>0.080237987411119233</d6p1:double><d6p1:double>0.18604654213228619</d6p1:double><d6p1:double>0.93996320204830719</d6p1:double><d6p1:double>0.57682960157940111</d6p1:double><d6p1:double>1.2220721727971107</d6p1:double><d6p1:double>0.39686737691223489</d6p1:double><d6p1:double>0.17169711675246882</d6p1:double><d6p1:double>-0.27236534429306741</d6p1:double><d6p1:double>0.347630012115727</d6p1:double><d6p1:double>1.1424224101535931</d6p1:double></Weights></Neuron><Neuron><Bias>-0.00080824286312110446</Bias><Output>1</Output><Weights xmlns:d6p1="http://schemas.microsoft.com/2003/10/Serialization/Arrays"><d6p1:double>-1.2164878667074452</d6p1:double><d6p1:double>0.27121917030658121</d6p1:double><d6p1:double>0.17189727772659524</d6p1:double><d6p1:double>0.48657750267076416</d6p1:double><d6p1:double>0.53250815428523146</d6p1:double><d6p1:double>0.51705930310089332</d6p1:double><d6p1:double>-0.0055341290491712353</d6p1:double><d6p1:double>0.76284030511839851</d6p1:double><d6p1:double>0.23934155399521967</d6p1:double><d6p1:double>0.53761268582281885</d6p1:double><d6p1:double>0.22524933396032037</d6p1:double><d6p1:double>0.037987546887983392</d6p1:double><d6p1:double>0.47243647584707654</d6p1:double><d6p1:double>1.3046872921405108</d6p1:double><d6p1:double>-0.26779060228116663</d6p1:double><d6p1:double>0.5104761074150107</d6p1:double><d6p1:double>0.2141487346946454</d6p1:double><d6p1:double>1.1977317263783009</d6p1:double><d6p1:double>0.67002741775325481</d6p1:double><d6p1:double>0.14853014608103357</d6p1:double><d6p1:double>-0.10756541842863446</d6p1:double><d6p1:double>1.3421808950519762</d6p1:double><d6p1:double>0.60487383155340757</d6p1:double><d6p1:double>0.077066901753455541</d6p1:double><d6p1:double>-0.88340408652737934</d6p1:double></Weights></Neuron><Neuron><Bias>-1.0010302737062924</Bias><Output>-1</Output><Weights xmlns:d6p1="http://schemas.microsoft.com/2003/10/Serialization/Arrays"><d6p1:double>0.84185808598561107</d6p1:double><d6p1:double>0.805194575929122</d6p1:double><d6p1:double>-0.0434605816611859</d6p1:double><d6p1:double>0.94775978171154851</d6p1:double><d6p1:double>0.81164961000826785</d6p1:double><d6p1:double>-0.006093477119720558</d6p1:double><d6p1:double>-0.54531807542003374</d6p1:double><d6p1:double>0.31595863035931959</d6p1:double><d6p1:double>0.60041849334819741</d6p1:double><d6p1:double>0.34659046741771737</d6p1:double><d6p1:double>0.63098541103896189</d6p1:double><d6p1:double>1.3148553191983949</d6p1:double><d6p1:double>-0.46878225620510555</d6p1:double><d6p1:double>0.55643104450564462</d6p1:double><d6p1:double>-0.27370080720216006</d6p1:double><d6p1:double>0.39880897901944851</d6p1:double><d6p1:double>0.082883507303784923</d6p1:double><d6p1:double>0.11479579528069526</d6p1:double><d6p1:double>-0.41122424910356953</d6p1:double><d6p1:double>-0.69564989428724078</d6p1:double><d6p1:double>-0.32968698767227683</d6p1:double><d6p1:double>1.0259489973771869</d6p1:double><d6p1:double>0.46674134119493255</d6p1:double><d6p1:double>-0.33128455071236323</d6p1:double><d6p1:double>0.1685750477486401</d6p1:double></Weights></Neuron><Neuron><Bias>-1.0003151510261885</Bias><Output>-1</Output><Weights xmlns:d6p1="http://schemas.microsoft.com/2003/10/Serialization/Arrays"><d6p1:double>1.1754132559902588</d6p1:double><d6p1:double>0.043163225531263</d6p1:double><d6p1:double>0.11993761850915523</d6p1:double><d6p1:double>-0.11931876695932561</d6p1:double><d6p1:double>0.42877541197436203</d6p1:double><d6p1:double>1.0064259893249659</d6p1:double><d6p1:double>0.41236117249364485</d6p1:double><d6p1:double>0.52168551136273678</d6p1:double><d6p1:double>0.10543871365199978</d6p1:double><d6p1:double>0.27557238759914915</d6p1:double><d6p1:double>0.084607563561335419</d6p1:double><d6p1:double>0.74155559799826043</d6p1:double><d6p1:double>-0.51757209260499315</d6p1:double><d6p1:double>-0.2361095443680726</d6p1:double><d6p1:double>-0.13332041222014071</d6p1:double><d6p1:double>0.3640871707048155</d6p1:double><d6p1:double>0.50788474937716932</d6p1:double><d6p1:double>0.59054521893968748</d6p1:double><d6p1:double>0.51386528046437385</d6p1:double><d6p1:double>-0.60656299690540183</d6p1:double><d6p1:double>0.84105554814867722</d6p1:double><d6p1:double>0.25306597751468052</d6p1:double><d6p1:double>0.25273690808704968</d6p1:double><d6p1:double>0.9240098196754053</d6p1:double><d6p1:double>0.70340467233417414</d6p1:double></Weights></Neuron><Neuron><Bias>-0.99977304787405141</Bias><Output>1</Output><Weights xmlns:d6p1="http://schemas.microsoft.com/2003/10/Serialization/Arrays"><d6p1:double>-0.13709285581689878</d6p1:double><d6p1:double>1.0844452761477918</d6p1:double><d6p1:double>0.75597584615779667</d6p1:double><d6p1:double>1.2794600656893405</d6p1:double><d6p1:double>0.052545672414577083</d6p1:double><d6p1:double>0.32802957391653742</d6p1:double><d6p1:double>0.13526362540211131</d6p1:double><d6p1:double>0.71823514638296937</d6p1:double><d6p1:double>0.99809555091095914</d6p1:double><d6p1:double>0.85700165750655766</d6p1:double><d6p1:double>0.007920831745230188</d6p1:double><d6p1:double>0.13301942413459908</d6p1:double><d6p1:double>1.2510354637579197</d6p1:double><d6p1:double>0.6713890134992152</d6p1:double><d6p1:double>1.1192853446275828</d6p1:double><d6p1:double>0.62957391417477659</d6p1:double><d6p1:double>0.48531369242919981</d6p1:double><d6p1:double>-0.0042978601200748829</d6p1:double><d6p1:double>0.78246354423520348</d6p1:double><d6p1:double>0.65032512097753881</d6p1:double><d6p1:double>-0.16403644413322521</d6p1:double><d6p1:double>0.62825739533972913</d6p1:double><d6p1:double>0.63184143154102224</d6p1:double><d6p1:double>0.46735982160979062</d6p1:double><d6p1:double>-0.275495898159383</d6p1:double></Weights></Neuron><Neuron><Bias>-0.99913646344539064</Bias><Output>-1</Output><Weights xmlns:d6p1="http://schemas.microsoft.com/2003/10/Serialization/Arrays"><d6p1:double>0.2794263680252867</d6p1:double><d6p1:double>0.40511433960853915</d6p1:double><d6p1:double>0.20728887932304554</d6p1:double><d6p1:double>-0.33807856394759722</d6p1:double><d6p1:double>0.64000293708730471</d6p1:double><d6p1:double>0.24020257789131605</d6p1:double><d6p1:double>0.30442420581404195</d6p1:double><d6p1:double>-0.13620169163339266</d6p1:double><d6p1:double>1.1100864736750464</d6p1:double><d6p1:double>-0.10528403012159142</d6p1:double><d6p1:double>-0.81810562820074983</d6p1:double><d6p1:double>0.073490086089180381</d6p1:double><d6p1:double>0.85839898436062911</d6p1:double><d6p1:double>-0.091316486157153376</d6p1:double><d6p1:double>-0.23392906496557236</d6p1:double><d6p1:double>0.22062254805750955</d6p1:double><d6p1:double>0.63234065375702586</d6p1:double><d6p1:double>0.083995920252832187</d6p1:double><d6p1:double>-0.19581776392266947</d6p1:double><d6p1:double>-0.2483673665223769</d6p1:double><d6p1:double>1.84781940152396</d6p1:double><d6p1:double>-1.1272544268946756</d6p1:double><d6p1:double>0.48578632424544355</d6p1:double><d6p1:double>-0.33883562347228696</d6p1:double><d6p1:double>0.10652942287480473</d6p1:double></Weights></Neuron><Neuron><Bias>-3.6027247779678854E-05</Bias><Output>-1</Output><Weights xmlns:d6p1="http://schemas.microsoft.com/2003/10/Serialization/Arrays"><d6p1:double>0.23062010888168133</d6p1:double><d6p1:double>1.2114732693554635</d6p1:double><d6p1:double>-0.5106348583945497</d6p1:double><d6p1:double>0.010534589421497981</d6p1:double><d6p1:double>-0.14902255895331545</d6p1:double><d6p1:double>1.0276272023423585</d6p1:double><d6p1:double>0.62941112346537553</d6p1:double><d6p1:double>-0.24415746064017349</d6p1:double><d6p1:double>-0.40883525931719816</d6p1:double><d6p1:double>0.36810527194311532</d6p1:double><d6p1:double>1.0055959614652747</d6p1:double><d6p1:double>1.3615058702903433</d6p1:double><d6p1:double>-0.32271463716619936</d6p1:double><d6p1:double>0.64774560990248042</d6p1:double><d6p1:double>1.3947543069553556</d6p1:double><d6p1:double>0.16466895198578929</d6p1:double><d6p1:double>0.66272234639603711</d6p1:double><d6p1:double>0.071497111660288715</d6p1:double><d6p1:double>0.29962420592132011</d6p1:double><d6p1:double>0.13053671890331528</d6p1:double><d6p1:double>0.30835582670039413</d6p1:double><d6p1:double>0.73844213946033022</d6p1:double><d6p1:double>0.064001776002163543</d6p1:double><d6p1:double>0.81276358596082166</d6p1:double><d6p1:double>0.88925651690671959</d6p1:double></Weights></Neuron><Neuron><Bias>-0.0010636260533517985</Bias><Output>-1</Output><Weights xmlns:d6p1="http://schemas.microsoft.com/2003/10/Serialization/Arrays"><d6p1:double>0.3820060726436787</d6p1:double><d6p1:double>1.0255293720129444</d6p1:double><d6p1:double>-0.12302820243268947</d6p1:double><d6p1:double>0.028756374461727126</d6p1:double><d6p1:double>1.3772665002729083</d6p1:double><d6p1:double>0.35974280352857241</d6p1:double><d6p1:double>0.3679518145085624</d6p1:double><d6p1:double>0.64330952436628486</d6p1:double><d6p1:double>0.04001476359605366</d6p1:double><d6p1:double>-0.0012558603455861206</d6p1:double><d6p1:double>-0.32284107331588324</d6p1:double><d6p1:double>0.35624750242517866</d6p1:double><d6p1:double>-0.32766578322377776</d6p1:double><d6p1:double>0.23916278492428888</d6p1:double><d6p1:double>0.65065830403089664</d6p1:double><d6p1:double>0.887797878262381</d6p1:double><d6p1:double>0.13387706301006683</d6p1:double><d6p1:double>0.49452721965623159</d6p1:double><d6p1:double>0.88123049819355492</d6p1:double><d6p1:double>0.08115400907438014</d6p1:double><d6p1:double>0.088896092458060336</d6p1:double><d6p1:double>0.83576873710025279</d6p1:double><d6p1:double>0.20355351601433994</d6p1:double><d6p1:double>-0.41934858983601325</d6p1:double><d6p1:double>0.5500470516361643</d6p1:double></Weights></Neuron><Neuron><Bias>-0.99930738587171875</Bias><Output>1</Output><Weights xmlns:d6p1="http://schemas.microsoft.com/2003/10/Serialization/Arrays"><d6p1:double>-0.17370424045748739</d6p1:double><d6p1:double>0.20786260267913986</d6p1:double><d6p1:double>0.65744713650283326</d6p1:double><d6p1:double>0.13738626668498655</d6p1:double><d6p1:double>0.60848415469260575</d6p1:double><d6p1:double>0.0023644945805045836</d6p1:double><d6p1:double>0.905227639680143</d6p1:double><d6p1:double>0.028548050091413132</d6p1:double><d6p1:double>0.73161667177316414</d6p1:double><d6p1:double>0.93629725710158962</d6p1:double><d6p1:double>0.48596983767163826</d6p1:double><d6p1:double>1.1985629651418042</d6p1:double><d6p1:double>1.0381376384406358</d6p1:double><d6p1:double>0.27755596063027621</d6p1:double><d6p1:double>0.48723106278658135</d6p1:double><d6p1:double>0.45293951857763037</d6p1:double><d6p1:double>0.99405224520127944</d6p1:double><d6p1:double>0.23913524827991292</d6p1:double><d6p1:double>0.982502973151076</d6p1:double><d6p1:double>0.44581078236092114</d6p1:double><d6p1:double>0.14579515220766309</d6p1:double><d6p1:double>0.11527292450911482</d6p1:double><d6p1:double>0.63880239534718963</d6p1:double><d6p1:double>1.231614347060221</d6p1:double><d6p1:double>0.36609366639671925</d6p1:double></Weights></Neuron><Neuron><Bias>0.0001093016171927572</Bias><Output>-1</Output><Weights xmlns:d6p1="http://schemas.microsoft.com/2003/10/Serialization/Arrays"><d6p1:double>0.52321345001741582</d6p1:double><d6p1:double>1.0143640829309359</d6p1:double><d6p1:double>1.0252301870383269</d6p1:double><d6p1:double>0.52019823214087069</d6p1:double><d6p1:double>0.83931564830943572</d6p1:double><d6p1:double>0.32622050058918722</d6p1:double><d6p1:double>0.89181637103083378</d6p1:double><d6p1:double>-0.23864286966592449</d6p1:double><d6p1:double>0.18369374766956517</d6p1:double><d6p1:double>0.21208681144924832</d6p1:double><d6p1:double>-0.16278633284717145</d6p1:double><d6p1:double>0.41768477813254318</d6p1:double><d6p1:double>0.608533022125226</d6p1:double><d6p1:double>0.7740019824617369</d6p1:double><d6p1:double>0.35304379018392656</d6p1:double><d6p1:double>0.85701011942719485</d6p1:double><d6p1:double>0.42319091156064831</d6p1:double><d6p1:double>0.50379849328496784</d6p1:double><d6p1:double>1.0007644970234366</d6p1:double><d6p1:double>0.22789463286091022</d6p1:double><d6p1:double>1.2565939320900523</d6p1:double><d6p1:double>0.12321673828517377</d6p1:double><d6p1:double>0.62355753041095</d6p1:double><d6p1:double>0.57405786866103725</d6p1:double><d6p1:double>0.14028298778795961</d6p1:double></Weights></Neuron><Neuron><Bias>-1.0010816426687934</Bias><Output>-1</Output><Weights xmlns:d6p1="http://schemas.microsoft.com/2003/10/Serialization/Arrays"><d6p1:double>0.94097522072563344</d6p1:double><d6p1:double>-0.39485769874046367</d6p1:double><d6p1:double>0.0882325464248041</d6p1:double><d6p1:double>0.34728845460932467</d6p1:double><d6p1:double>-0.19652009961970424</d6p1:double><d6p1:double>0.94789396612776222</d6p1:double><d6p1:double>0.53747832679281871</d6p1:double><d6p1:double>0.34732782291095327</d6p1:double><d6p1:double>0.38527527294482328</d6p1:double><d6p1:double>0.39509071173865939</d6p1:double><d6p1:double>0.56055029233046261</d6p1:double><d6p1:double>0.7921353247729</d6p1:double><d6p1:double>-0.020194151344162997</d6p1:double><d6p1:double>0.012884071581885174</d6p1:double><d6p1:double>1.348315339588783</d6p1:double><d6p1:double>0.65259869067086107</d6p1:double><d6p1:double>-0.59470873915427269</d6p1:double><d6p1:double>1.5189616370826979</d6p1:double><d6p1:double>0.17569859811628746</d6p1:double><d6p1:double>-0.52241238276542079</d6p1:double><d6p1:double>0.57705479533371806</d6p1:double><d6p1:double>0.44139372198715393</d6p1:double><d6p1:double>0.587250505230493</d6p1:double><d6p1:double>-0.16425117498454103</d6p1:double><d6p1:double>-0.498168481899696</d6p1:double></Weights></Neuron><Neuron><Bias>-0.99961194905080331</Bias><Output>1</Output><Weights xmlns:d6p1="http://schemas.microsoft.com/2003/10/Serialization/Arrays"><d6p1:double>-0.53879092435659925</d6p1:double><d6p1:double>-0.29672482008689705</d6p1:double><d6p1:double>1.320081935174291</d6p1:double><d6p1:double>-1.01320429813237</d6p1:double><d6p1:double>0.90737401776460314</d6p1:double><d6p1:double>0.27752018624419716</d6p1:double><d6p1:double>1.1029957988671015</d6p1:double><d6p1:double>-0.025080782366969871</d6p1:double><d6p1:double>0.21173950783320611</d6p1:double><d6p1:double>0.24043129011576725</d6p1:double><d6p1:double>-0.62089576788703815</d6p1:double><d6p1:double>-1.4400328440423367</d6p1:double><d6p1:double>0.82554734920755946</d6p1:double><d6p1:double>0.905622673352685</d6p1:double><d6p1:double>-0.5695643101113802</d6p1:double><d6p1:double>0.33507471552229284</d6p1:double><d6p1:double>1.080187683110869</d6p1:double><d6p1:double>1.1557154020583702</d6p1:double><d6p1:double>-0.086591589287484783</d6p1:double><d6p1:double>0.22855468281404823</d6p1:double><d6p1:double>0.082404441624376448</d6p1:double><d6p1:double>-0.24227692667661133</d6p1:double><d6p1:double>0.5964850822743446</d6p1:double><d6p1:double>0.2448972768050178</d6p1:double><d6p1:double>-0.38316506337467277</d6p1:double></Weights></Neuron><Neuron><Bias>0.00085026670414916586</Bias><Output>1</Output><Weights xmlns:d6p1="http://schemas.microsoft.com/2003/10/Serialization/Arrays"><d6p1:double>-0.37308766673924709</d6p1:double><d6p1:double>0.8954588955166588</d6p1:double><d6p1:double>0.6627960588371683</d6p1:double><d6p1:double>0.28459452877319674</d6p1:double><d6p1:double>0.49509888947628855</d6p1:double><d6p1:double>0.84739206105719778</d6p1:double><d6p1:double>0.93086424011366631</d6p1:double><d6p1:double>0.7972579517513787</d6p1:double><d6p1:double>0.61150928880206923</d6p1:double><d6p1:double>0.99997439362234342</d6p1:double><d6p1:double>1.0711567332264669</d6p1:double><d6p1:double>0.037812455199289753</d6p1:double><d6p1:double>-0.097925293910753233</d6p1:double><d6p1:double>0.612656848423038</d6p1:double><d6p1:double>0.56020649313512727</d6p1:double><d6p1:double>0.17940742041042868</d6p1:double><d6p1:double>0.6041138886784293</d6p1:double><d6p1:double>0.25043953528847007</d6p1:double><d6p1:double>0.78802067146445909</d6p1:double><d6p1:double>-0.10415254573924206</d6p1:double><d6p1:double>0.49699020240964803</d6p1:double><d6p1:double>1.1812388502132554</d6p1:double><d6p1:double>0.14032284329142802</d6p1:double><d6p1:double>0.703863081960187</d6p1:double><d6p1:double>0.16046801858329543</d6p1:double></Weights></Neuron><Neuron><Bias>-0.99996570183343236</Bias><Output>-1</Output><Weights xmlns:d6p1="http://schemas.microsoft.com/2003/10/Serialization/Arrays"><d6p1:double>0.19257604355412444</d6p1:double><d6p1:double>0.48818847905821533</d6p1:double><d6p1:double>0.41673830503577086</d6p1:double><d6p1:double>0.87824556642176133</d6p1:double><d6p1:double>0.89677348336624763</d6p1:double><d6p1:double>0.51325159596895031</d6p1:double><d6p1:double>1.0187772179263945</d6p1:double><d6p1:double>0.77368160756398008</d6p1:double><d6p1:double>0.27832100145759281</d6p1:double><d6p1:double>0.5029776471591143</d6p1:double><d6p1:double>0.36143873543892641</d6p1:double><d6p1:double>1.0214297676893414</d6p1:double><d6p1:double>0.42885887565016911</d6p1:double><d6p1:double>-0.0021918938047523042</d6p1:double><d6p1:double>0.14919084109382419</d6p1:double><d6p1:double>0.58423554486269758</d6p1:double><d6p1:double>1.1711849212041208</d6p1:double><d6p1:double>0.53939024493060528</d6p1:double><d6p1:double>0.18205462150406534</d6p1:double><d6p1:double>0.58630726586889659</d6p1:double><d6p1:double>0.49100107447880437</d6p1:double><d6p1:double>0.657456010655123</d6p1:double><d6p1:double>-0.31080158554822007</d6p1:double><d6p1:double>0.25691998820682388</d6p1:double><d6p1:double>0.45800204901350716</d6p1:double></Weights></Neuron><Neuron><Bias>-1.0007748788724236</Bias><Output>-1</Output><Weights xmlns:d6p1="http://schemas.microsoft.com/2003/10/Serialization/Arrays"><d6p1:double>0.59872549889875648</d6p1:double><d6p1:double>-0.12450593729038625</d6p1:double><d6p1:double>0.099219405084869844</d6p1:double><d6p1:double>0.2069718156319707</d6p1:double><d6p1:double>1.3569647999492664</d6p1:double><d6p1:double>0.18706829891314625</d6p1:double><d6p1:double>0.89574602442731188</d6p1:double><d6p1:double>0.1282298131727159</d6p1:double><d6p1:double>0.052506795872507922</d6p1:double><d6p1:double>-0.057402587016081405</d6p1:double><d6p1:double>0.48218675884172452</d6p1:double><d6p1:double>0.79246873337360668</d6p1:double><d6p1:double>-0.35149569166939559</d6p1:double><d6p1:double>0.8296800932865751</d6p1:double><d6p1:double>-0.27740543938018314</d6p1:double><d6p1:double>0.44294515360299785</d6p1:double><d6p1:double>0.32412233918477384</d6p1:double><d6p1:double>0.733751880417769</d6p1:double><d6p1:double>0.80902739114870825</d6p1:double><d6p1:double>0.5983519683443359</d6p1:double><d6p1:double>0.93142032947064191</d6p1:double><d6p1:double>0.98108402171309306</d6p1:double><d6p1:double>1.007945010346228</d6p1:double><d6p1:double>-0.937305230369835</d6p1:double><d6p1:double>-0.1162261614401133</d6p1:double></Weights></Neuron><Neuron><Bias>-1.000512283589857</Bias><Output>-1</Output><Weights xmlns:d6p1="http://schemas.microsoft.com/2003/10/Serialization/Arrays"><d6p1:double>1.1651332678567967</d6p1:double><d6p1:double>-0.2120524915047243</d6p1:double><d6p1:double>0.65812018758607549</d6p1:double><d6p1:double>0.23201830324481243</d6p1:double><d6p1:double>0.61411768867071059</d6p1:double><d6p1:double>-0.097690725088801222</d6p1:double><d6p1:double>1.0564415721577025</d6p1:double><d6p1:double>0.16384190046956584</d6p1:double><d6p1:double>0.83302615117897949</d6p1:double><d6p1:double>1.0486265656873908</d6p1:double><d6p1:double>-0.16650359728618633</d6p1:double><d6p1:double>0.6455378415889157</d6p1:double><d6p1:double>0.52328219985313351</d6p1:double><d6p1:double>0.10818362268635141</d6p1:double><d6p1:double>-0.23609567109131641</d6p1:double><d6p1:double>0.16911956466438938</d6p1:double><d6p1:double>0.65381144178460737</d6p1:double><d6p1:double>0.50560513495338755</d6p1:double><d6p1:double>-0.21192998821941228</d6p1:double><d6p1:double>0.090596579065057123</d6p1:double><d6p1:double>0.15409457181400207</d6p1:double><d6p1:double>0.70051098283375446</d6p1:double><d6p1:double>0.81840338148334169</d6p1:double><d6p1:double>0.25333315745486873</d6p1:double><d6p1:double>0.89772123823610339</d6p1:double></Weights></Neuron><Neuron><Bias>-0.99925853772214712</Bias><Output>1</Output><Weights xmlns:d6p1="http://schemas.microsoft.com/2003/10/Serialization/Arrays"><d6p1:double>0.75580965325044291</d6p1:double><d6p1:double>-0.27610992362607617</d6p1:double><d6p1:double>1.1665803492020386</d6p1:double><d6p1:double>-0.081945075085116156</d6p1:double><d6p1:double>-0.51877188455391177</d6p1:double><d6p1:double>-0.1718509387525598</d6p1:double><d6p1:double>0.78958480053583024</d6p1:double><d6p1:double>0.349790392794042</d6p1:double><d6p1:double>0.17190250386728573</d6p1:double><d6p1:double>0.47009772920009185</d6p1:double><d6p1:double>-0.6817768659961051</d6p1:double><d6p1:double>-0.99560731680147663</d6p1:double><d6p1:double>1.2279097185313466</d6p1:double><d6p1:double>0.95159825404403908</d6p1:double><d6p1:double>0.15891591341763631</d6p1:double><d6p1:double>0.30199514996892785</d6p1:double><d6p1:double>0.84152559904083934</d6p1:double><d6p1:double>-0.29003038535057385</d6p1:double><d6p1:double>0.1000471377825957</d6p1:double><d6p1:double>0.339456365480538</d6p1:double><d6p1:double>0.017614633118682926</d6p1:double><d6p1:double>-0.04783111397045494</d6p1:double><d6p1:double>0.74293334861203819</d6p1:double><d6p1:double>0.43458363627390822</d6p1:double><d6p1:double>-0.11208703202976147</d6p1:double></Weights></Neuron><Neuron><Bias>-0.99886867731356543</Bias><Output>1</Output><Weights xmlns:d6p1="http://schemas.microsoft.com/2003/10/Serialization/Arrays"><d6p1:double>0.18561456553670555</d6p1:double><d6p1:double>-0.231191331895554</d6p1:double><d6p1:double>0.89700281477740074</d6p1:double><d6p1:double>-0.52702360448957253</d6p1:double><d6p1:double>0.29759726121615271</d6p1:double><d6p1:double>-0.0226747508835158</d6p1:double><d6p1:double>0.63378205502692508</d6p1:double><d6p1:double>-0.14527439915504065</d6p1:double><d6p1:double>0.62152538901808307</d6p1:double><d6p1:double>0.81185408512121526</d6p1:double><d6p1:double>0.31539904803964935</d6p1:double><d6p1:double>0.2093207817720491</d6p1:double><d6p1:double>1.1022409942814444</d6p1:double><d6p1:double>0.91542395305438962</d6p1:double><d6p1:double>2.1275205349777648</d6p1:double><d6p1:double>-0.0075356999251450854</d6p1:double><d6p1:double>0.30327387566897979</d6p1:double><d6p1:double>-0.059619720216284047</d6p1:double><d6p1:double>0.57080784083114078</d6p1:double><d6p1:double>0.344085830977794</d6p1:double><d6p1:double>0.13795871381146951</d6p1:double><d6p1:double>0.52947941888422123</d6p1:double><d6p1:double>0.43620567056154569</d6p1:double><d6p1:double>0.38585541031650805</d6p1:double><d6p1:double>0.10676974470658092</d6p1:double></Weights></Neuron><Neuron><Bias>-0.99990570110220833</Bias><Output>1</Output><Weights xmlns:d6p1="http://schemas.microsoft.com/2003/10/Serialization/Arrays"><d6p1:double>-0.18091575132759175</d6p1:double><d6p1:double>-0.1772529422669574</d6p1:double><d6p1:double>0.04564512665815678</d6p1:double><d6p1:double>0.91921139116374828</d6p1:double><d6p1:double>0.06257090384624428</d6p1:double><d6p1:double>-0.62129405948648941</d6p1:double><d6p1:double>-0.66688182614071978</d6p1:double><d6p1:double>0.52512196719469584</d6p1:double><d6p1:double>-0.28123402439603773</d6p1:double><d6p1:double>-0.85645573585868007</d6p1:double><d6p1:double>0.81439757099999754</d6p1:double><d6p1:double>0.11722564219770312</d6p1:double><d6p1:double>-0.45341916928590076</d6p1:double><d6p1:double>1.8552133536508872</d6p1:double><d6p1:double>-0.587487370114998</d6p1:double><d6p1:double>0.55885627140385286</d6p1:double><d6p1:double>0.38957692252135928</d6p1:double><d6p1:double>-0.058174339325571263</d6p1:double><d6p1:double>0.5332894740848364</d6p1:double><d6p1:double>0.29180928544648971</d6p1:double><d6p1:double>-0.22249689519769417</d6p1:double><d6p1:double>0.82192728717018626</d6p1:double><d6p1:double>0.49214824139168867</d6p1:double><d6p1:double>0.19502622511841472</d6p1:double><d6p1:double>-0.2435943651065284</d6p1:double></Weights></Neuron><Neuron><Bias>-0.99967677665863242</Bias><Output>-1</Output><Weights xmlns:d6p1="http://schemas.microsoft.com/2003/10/Serialization/Arrays"><d6p1:double>-0.21124386492506803</d6p1:double><d6p1:double>0.1476555665230086</d6p1:double><d6p1:double>0.81309829883646556</d6p1:double><d6p1:double>0.79391811114303179</d6p1:double><d6p1:double>0.72555645869604868</d6p1:double><d6p1:double>0.046504467874299321</d6p1:double><d6p1:double>-0.15529855970750867</d6p1:double><d6p1:double>0.12852519506682145</d6p1:double><d6p1:double>0.75025343733397909</d6p1:double><d6p1:double>1.1922258570671072</d6p1:double><d6p1:double>0.41411108644355327</d6p1:double><d6p1:double>0.42615319254780426</d6p1:double><d6p1:double>0.35413843306861248</d6p1:double><d6p1:double>0.7601255480748641</d6p1:double><d6p1:double>-0.279007241686605</d6p1:double><d6p1:double>-0.82126265536265</d6p1:double><d6p1:double>0.79827532137532575</d6p1:double><d6p1:double>1.1862875899324485</d6p1:double><d6p1:double>0.65202174260165358</d6p1:double><d6p1:double>1.5086272646343837</d6p1:double><d6p1:double>0.045529215264778981</d6p1:double><d6p1:double>0.407898475880866</d6p1:double><d6p1:double>0.024455109265310162</d6p1:double><d6p1:double>-0.023422410213352392</d6p1:double><d6p1:double>0.22670090499615805</d6p1:double></Weights></Neuron><Neuron><Bias>-0.00010268617585943332</Bias><Output>1</Output><Weights xmlns:d6p1="http://schemas.microsoft.com/2003/10/Serialization/Arrays"><d6p1:double>0.015875724301849806</d6p1:double><d6p1:double>0.35084788841669384</d6p1:double><d6p1:double>-0.20118072698314826</d6p1:double><d6p1:double>0.23908147116932557</d6p1:double><d6p1:double>0.24414819207586053</d6p1:double><d6p1:double>0.44409553559982673</d6p1:double><d6p1:double>1.1696471051764132</d6p1:double><d6p1:double>1.2439945112854942</d6p1:double><d6p1:double>0.18928383749159294</d6p1:double><d6p1:double>0.20157979955367358</d6p1:double><d6p1:double>0.1262947640346164</d6p1:double><d6p1:double>1.2980407843432122</d6p1:double><d6p1:double>0.034834896239761812</d6p1:double><d6p1:double>-0.33023724198095994</d6p1:double><d6p1:double>0.86831496407295283</d6p1:double><d6p1:double>1.1200509303315251</d6p1:double><d6p1:double>-0.067204227805526123</d6p1:double><d6p1:double>-0.21493336270259747</d6p1:double><d6p1:double>-0.19307026904469077</d6p1:double><d6p1:double>0.75593778702179137</d6p1:double><d6p1:double>-0.020431705917312946</d6p1:double><d6p1:double>0.1500632459038963</d6p1:double><d6p1:double>-0.089279727395837574</d6p1:double><d6p1:double>0.23344733260508468</d6p1:double><d6p1:double>0.640286360452034</d6p1:double></Weights></Neuron><Neuron><Bias>0.00041846046313326807</Bias><Output>1</Output><Weights xmlns:d6p1="http://schemas.microsoft.com/2003/10/Serialization/Arrays"><d6p1:double>-0.378562687150204</d6p1:double><d6p1:double>-0.20533786219810202</d6p1:double><d6p1:double>-0.066229783953254573</d6p1:double><d6p1:double>0.40424407821034058</d6p1:double><d6p1:double>-0.62065278530037993</d6p1:double><d6p1:double>0.75609883492722452</d6p1:double><d6p1:double>-0.562981210208246</d6p1:double><d6p1:double>0.400112917144373</d6p1:double><d6p1:double>0.979629672033374</d6p1:double><d6p1:double>-0.24083973777149281</d6p1:double><d6p1:double>0.232557189605379</d6p1:double><d6p1:double>0.500151357914198</d6p1:double><d6p1:double>0.53117180334953085</d6p1:double><d6p1:double>0.99182811527593284</d6p1:double><d6p1:double>0.52762870193341482</d6p1:double><d6p1:double>1.3358224509995988</d6p1:double><d6p1:double>-0.28494640271676092</d6p1:double><d6p1:double>1.4636899622191701</d6p1:double><d6p1:double>0.19357707404368962</d6p1:double><d6p1:double>-0.75995329663092215</d6p1:double><d6p1:double>0.37514925934865434</d6p1:double><d6p1:double>0.30284198474993052</d6p1:double><d6p1:double>0.40245030887437178</d6p1:double><d6p1:double>-0.18535750818236774</d6p1:double><d6p1:double>-0.31206826654463965</d6p1:double></Weights></Neuron><Neuron><Bias>-0.99883955794380086</Bias><Output>1</Output><Weights xmlns:d6p1="http://schemas.microsoft.com/2003/10/Serialization/Arrays"><d6p1:double>0.0750640101980664</d6p1:double><d6p1:double>0.53841018137369578</d6p1:double><d6p1:double>0.65217901804139089</d6p1:double><d6p1:double>0.38031767131148675</d6p1:double><d6p1:double>-0.19246120639438372</d6p1:double><d6p1:double>0.91186008143380459</d6p1:double><d6p1:double>-0.10119334999327362</d6p1:double><d6p1:double>0.60758735949914089</d6p1:double><d6p1:double>0.61523039204948049</d6p1:double><d6p1:double>-0.2581617159325873</d6p1:double><d6p1:double>0.639889033248382</d6p1:double><d6p1:double>-0.048110992657851126</d6p1:double><d6p1:double>1.3153780694198285</d6p1:double><d6p1:double>0.656972520235553</d6p1:double><d6p1:double>0.15504913377266272</d6p1:double><d6p1:double>0.45671191161527058</d6p1:double><d6p1:double>0.60719201393685363</d6p1:double><d6p1:double>0.363552550605176</d6p1:double><d6p1:double>0.54216102620063134</d6p1:double><d6p1:double>1.23059845673877</d6p1:double><d6p1:double>0.38421404148311067</d6p1:double><d6p1:double>-0.81395800333595214</d6p1:double><d6p1:double>0.77244087166617836</d6p1:double><d6p1:double>0.88005798060038642</d6p1:double><d6p1:double>-0.080400280708940147</d6p1:double></Weights></Neuron><Neuron><Bias>-0.99996450037927487</Bias><Output>-1</Output><Weights xmlns:d6p1="http://schemas.microsoft.com/2003/10/Serialization/Arrays"><d6p1:double>0.42087993411057834</d6p1:double><d6p1:double>0.12444501625429912</d6p1:double><d6p1:double>-0.13573740453936536</d6p1:double><d6p1:double>-0.44876303649773025</d6p1:double><d6p1:double>0.2052309018706063</d6p1:double><d6p1:double>0.50624116919504114</d6p1:double><d6p1:double>1.1625735265178327</d6p1:double><d6p1:double>0.58577579619901643</d6p1:double><d6p1:double>0.5718000882031955</d6p1:double><d6p1:double>0.8462036071703698</d6p1:double><d6p1:double>0.59495003238689947</d6p1:double><d6p1:double>0.17856709986626906</d6p1:double><d6p1:double>0.392056610424761</d6p1:double><d6p1:double>0.28220171744170824</d6p1:double><d6p1:double>0.29736294239629441</d6p1:double><d6p1:double>0.532826264204864</d6p1:double><d6p1:double>0.660507559094068</d6p1:double><d6p1:double>-0.031723785287686067</d6p1:double><d6p1:double>0.90400510521357613</d6p1:double><d6p1:double>0.92663264795233535</d6p1:double><d6p1:double>0.87265492208895179</d6p1:double><d6p1:double>0.097668488252445049</d6p1:double><d6p1:double>0.54758294439191324</d6p1:double><d6p1:double>0.0078132901260802249</d6p1:double><d6p1:double>0.49504147026714873</d6p1:double></Weights></Neuron><Neuron><Bias>-0.00063729606329538074</Bias><Output>-1</Output><Weights xmlns:d6p1="http://schemas.microsoft.com/2003/10/Serialization/Arrays"><d6p1:double>0.51439631519688211</d6p1:double><d6p1:double>-0.21963290573823568</d6p1:double><d6p1:double>0.87576383755819809</d6p1:double><d6p1:double>0.14632274171492834</d6p1:double><d6p1:double>0.92088513262178384</d6p1:double><d6p1:double>0.21049021976690341</d6p1:double><d6p1:double>0.92480932285424122</d6p1:double><d6p1:double>1.3964659341419456</d6p1:double><d6p1:double>0.24640318884677306</d6p1:double><d6p1:double>0.64150293856096774</d6p1:double><d6p1:double>0.8298454141412378</d6p1:double><d6p1:double>0.23610123616706788</d6p1:double><d6p1:double>0.22154157288909695</d6p1:double><d6p1:double>1.1135639509234792</d6p1:double><d6p1:double>0.83430269826299364</d6p1:double><d6p1:double>0.63104815118697655</d6p1:double><d6p1:double>0.11143083718479406</d6p1:double><d6p1:double>0.41221559170153432</d6p1:double><d6p1:double>0.36564963016909591</d6p1:double><d6p1:double>-0.258641060935161</d6p1:double><d6p1:double>-0.28941349068165984</d6p1:double><d6p1:double>0.68841100394275945</d6p1:double><d6p1:double>0.91219313806810487</d6p1:double><d6p1:double>0.641376690074734</d6p1:double><d6p1:double>0.22136162551999783</d6p1:double></Weights></Neuron><Neuron><Bias>-0.99938457012189263</Bias><Output>-1</Output><Weights xmlns:d6p1="http://schemas.microsoft.com/2003/10/Serialization/Arrays"><d6p1:double>0.5917502435070946</d6p1:double><d6p1:double>0.12433328832012414</d6p1:double><d6p1:double>0.098113196747762463</d6p1:double><d6p1:double>-1.125708844194558</d6p1:double><d6p1:double>0.5939487872798</d6p1:double><d6p1:double>0.8943848044392303</d6p1:double><d6p1:double>0.768386662193908</d6p1:double><d6p1:double>-0.54238217280118</d6p1:double><d6p1:double>0.19907605688792152</d6p1:double><d6p1:double>0.4260568091730772</d6p1:double><d6p1:double>0.44265833488369266</d6p1:double><d6p1:double>1.0565744174326033</d6p1:double><d6p1:double>0.13418074448421588</d6p1:double><d6p1:double>0.7829920093323901</d6p1:double><d6p1:double>1.5955938612433218</d6p1:double><d6p1:double>0.44913352993874051</d6p1:double><d6p1:double>0.70706477363918607</d6p1:double><d6p1:double>-0.19709678387619869</d6p1:double><d6p1:double>1.0393495286210666</d6p1:double><d6p1:double>0.34058415160849764</d6p1:double><d6p1:double>1.0049830564291353</d6p1:double><d6p1:double>0.17135446420783426</d6p1:double><d6p1:double>-0.36258333747994437</d6p1:double><d6p1:double>0.22454148519315742</d6p1:double><d6p1:double>0.34413810892200941</d6p1:double></Weights></Neuron><Neuron><Bias>-1.0011626646292844</Bias><Output>-1</Output><Weights xmlns:d6p1="http://schemas.microsoft.com/2003/10/Serialization/Arrays"><d6p1:double>1.129412659242274</d6p1:double><d6p1:double>-0.027500787048882008</d6p1:double><d6p1:double>1.0322319915163132</d6p1:double><d6p1:double>0.74205092195664923</d6p1:double><d6p1:double>0.48629905776814</d6p1:double><d6p1:double>0.31877514951260549</d6p1:double><d6p1:double>0.68750685644853471</d6p1:double><d6p1:double>0.40376110916985719</d6p1:double><d6p1:double>-0.425616249460008</d6p1:double><d6p1:double>0.95575973488204313</d6p1:double><d6p1:double>0.67525304599483449</d6p1:double><d6p1:double>0.41497214758915268</d6p1:double><d6p1:double>-0.12747174217191887</d6p1:double><d6p1:double>0.46247102981464516</d6p1:double><d6p1:double>0.54838820225853468</d6p1:double><d6p1:double>0.3863741232226533</d6p1:double><d6p1:double>0.36408630279400606</d6p1:double><d6p1:double>0.22097138309868494</d6p1:double><d6p1:double>0.7069738515407179</d6p1:double><d6p1:double>-0.26659377806824996</d6p1:double><d6p1:double>0.31780439236917557</d6p1:double><d6p1:double>1.1965146414157271</d6p1:double><d6p1:double>-0.1376040887516416</d6p1:double><d6p1:double>0.51152217250654874</d6p1:double><d6p1:double>1.4179397093202515</d6p1:double></Weights></Neuron><Neuron><Bias>-0.99767167131214385</Bias><Output>1</Output><Weights xmlns:d6p1="http://schemas.microsoft.com/2003/10/Serialization/Arrays"><d6p1:double>0.710918252776975</d6p1:double><d6p1:double>-0.3055734233965493</d6p1:double><d6p1:double>1.2995979788124412</d6p1:double><d6p1:double>-0.850976688462088</d6p1:double><d6p1:double>-0.66419980717052785</d6p1:double><d6p1:double>1.1451406615235598</d6p1:double><d6p1:double>0.22189401530047256</d6p1:double><d6p1:double>-1.2284600589623613</d6p1:double><d6p1:double>0.25884604124803939</d6p1:double><d6p1:double>0.65969103000458629</d6p1:double><d6p1:double>-0.45067593592763433</d6p1:double><d6p1:double>1.4805986011961434</d6p1:double><d6p1:double>0.30888568290716878</d6p1:double><d6p1:double>-0.91010412723293943</d6p1:double><d6p1:double>0.64183532787047315</d6p1:double><d6p1:double>-0.0888971953228037</d6p1:double><d6p1:double>0.05546728804211673</d6p1:double><d6p1:double>-0.66822364842761339</d6p1:double><d6p1:double>0.79915776999007193</d6p1:double><d6p1:double>0.38100778026020238</d6p1:double><d6p1:double>0.39157299832345543</d6p1:double><d6p1:double>-0.31655818049131018</d6p1:double><d6p1:double>-0.0044954645164914089</d6p1:double><d6p1:double>0.6776938908661212</d6p1:double><d6p1:double>0.40474663341717843</d6p1:double></Weights></Neuron><Neuron><Bias>-1.0000665421942461</Bias><Output>-1</Output><Weights xmlns:d6p1="http://schemas.microsoft.com/2003/10/Serialization/Arrays"><d6p1:double>0.5817718858793971</d6p1:double><d6p1:double>0.048520109072208016</d6p1:double><d6p1:double>0.737634594258005</d6p1:double><d6p1:double>0.65606784157914777</d6p1:double><d6p1:double>0.82198370140451471</d6p1:double><d6p1:double>0.1616448531530596</d6p1:double><d6p1:double>1.3133344736111303</d6p1:double><d6p1:double>0.86528149817106814</d6p1:double><d6p1:double>0.45881497423778411</d6p1:double><d6p1:double>0.20139331571548225</d6p1:double><d6p1:double>0.58360438343366849</d6p1:double><d6p1:double>0.67793418958718965</d6p1:double><d6p1:double>1.1840728252126365</d6p1:double><d6p1:double>0.51876755099216332</d6p1:double><d6p1:double>0.44260956815356417</d6p1:double><d6p1:double>0.046186988551955396</d6p1:double><d6p1:double>0.085805162637183463</d6p1:double><d6p1:double>1.049747286496838</d6p1:double><d6p1:double>0.067854182542956457</d6p1:double><d6p1:double>1.064883027007592</d6p1:double><d6p1:double>0.62865137242520219</d6p1:double><d6p1:double>0.72289188262094983</d6p1:double><d6p1:double>0.62247210995014868</d6p1:double><d6p1:double>0.34563673978137766</d6p1:double><d6p1:double>0.40924494603734096</d6p1:double></Weights></Neuron><Neuron><Bias>-0.99894232700065788</Bias><Output>1</Output><Weights xmlns:d6p1="http://schemas.microsoft.com/2003/10/Serialization/Arrays"><d6p1:double>0.55240072683374664</d6p1:double><d6p1:double>0.12686176594751536</d6p1:double><d6p1:double>0.582096199014806</d6p1:double><d6p1:double>0.33907844349284605</d6p1:double><d6p1:double>0.80321557419093159</d6p1:double><d6p1:double>0.34830297712895525</d6p1:double><d6p1:double>-0.027101684443975135</d6p1:double><d6p1:double>0.3226942261783704</d6p1:double><d6p1:double>0.43792785982713828</d6p1:double><d6p1:double>0.32071388578169663</d6p1:double><d6p1:double>0.74624840528216629</d6p1:double><d6p1:double>0.390307611239097</d6p1:double><d6p1:double>0.930050292566632</d6p1:double><d6p1:double>0.92951036568803169</d6p1:double><d6p1:double>0.84401472736507732</d6p1:double><d6p1:double>0.64594048245365254</d6p1:double><d6p1:double>0.84876270919263486</d6p1:double><d6p1:double>-0.060299315631112134</d6p1:double><d6p1:double>0.77531576553838877</d6p1:double><d6p1:double>0.8976308439222217</d6p1:double><d6p1:double>0.25148992970166278</d6p1:double><d6p1:double>-0.19556168917532843</d6p1:double><d6p1:double>0.78369518768536484</d6p1:double><d6p1:double>0.78707651107390164</d6p1:double><d6p1:double>0.77053541604845788</d6p1:double></Weights></Neuron><Neuron><Bias>-0.00041086426385442116</Bias><Output>-1</Output><Weights xmlns:d6p1="http://schemas.microsoft.com/2003/10/Serialization/Arrays"><d6p1:double>1.3152536613110486</d6p1:double><d6p1:double>0.75858141463982087</d6p1:double><d6p1:double>-0.24619922802215488</d6p1:double><d6p1:double>0.84819544287305293</d6p1:double><d6p1:double>0.49460877805687842</d6p1:double><d6p1:double>0.8041879147768054</d6p1:double><d6p1:double>-0.31158920546836166</d6p1:double><d6p1:double>0.395661440557134</d6p1:double><d6p1:double>0.18946587047912167</d6p1:double><d6p1:double>0.60025887605664985</d6p1:double><d6p1:double>0.22892192004559456</d6p1:double><d6p1:double>1.6683534285599562</d6p1:double><d6p1:double>-0.22220505285039885</d6p1:double><d6p1:double>-0.0700398311015856</d6p1:double><d6p1:double>0.29306593447241347</d6p1:double><d6p1:double>0.1512496361346384</d6p1:double><d6p1:double>0.12652874095852518</d6p1:double><d6p1:double>0.0352633255783091</d6p1:double><d6p1:double>0.2645819645039198</d6p1:double><d6p1:double>-0.28590947204638573</d6p1:double><d6p1:double>-0.27969729715184311</d6p1:double><d6p1:double>0.22553741376563435</d6p1:double><d6p1:double>0.18772531300478032</d6p1:double><d6p1:double>-0.0626950277718755</d6p1:double><d6p1:double>1.2217057728855</d6p1:double></Weights></Neuron><Neuron><Bias>-0.99938707399636506</Bias><Output>1</Output><Weights xmlns:d6p1="http://schemas.microsoft.com/2003/10/Serialization/Arrays"><d6p1:double>-0.28440494081318474</d6p1:double><d6p1:double>0.98382068167279191</d6p1:double><d6p1:double>0.54581198672459807</d6p1:double><d6p1:double>0.91583952491208276</d6p1:double><d6p1:double>-0.014520208208331277</d6p1:double><d6p1:double>0.89162873034632661</d6p1:double><d6p1:double>0.30697606896356372</d6p1:double><d6p1:double>1.2533910067536664</d6p1:double><d6p1:double>0.39183328935410355</d6p1:double><d6p1:double>0.06106978254823902</d6p1:double><d6p1:double>1.2990797614204372</d6p1:double><d6p1:double>0.7775438841952822</d6p1:double><d6p1:double>0.62544676581396119</d6p1:double><d6p1:double>0.7632722096267579</d6p1:double><d6p1:double>-0.25018967355039862</d6p1:double><d6p1:double>-0.1839696055392491</d6p1:double><d6p1:double>0.099885806082716577</d6p1:double><d6p1:double>0.88343602180187508</d6p1:double><d6p1:double>0.66638567716641717</d6p1:double><d6p1:double>1.0416044199173773</d6p1:double><d6p1:double>0.71042877735320709</d6p1:double><d6p1:double>0.27782262265837809</d6p1:double><d6p1:double>-0.20564654263141804</d6p1:double><d6p1:double>0.56769955633987268</d6p1:double><d6p1:double>1.1887788896369125</d6p1:double></Weights></Neuron><Neuron><Bias>-1.0006569273028287</Bias><Output>-1</Output><Weights xmlns:d6p1="http://schemas.microsoft.com/2003/10/Serialization/Arrays"><d6p1:double>0.9656739271931708</d6p1:double><d6p1:double>0.98212235288016814</d6p1:double><d6p1:double>-0.27916391305282556</d6p1:double><d6p1:double>0.98722579616060047</d6p1:double><d6p1:double>0.24395158036511722</d6p1:double><d6p1:double>1.1082191471413529</d6p1:double><d6p1:double>0.53420910220023343</d6p1:double><d6p1:double>-0.13978672893723632</d6p1:double><d6p1:double>0.69584670392650094</d6p1:double><d6p1:double>0.44203936490263024</d6p1:double><d6p1:double>0.78078217054679844</d6p1:double><d6p1:double>0.49653741297044368</d6p1:double><d6p1:double>0.56071890270788816</d6p1:double><d6p1:double>-0.0037823057956264455</d6p1:double><d6p1:double>0.025683580867671956</d6p1:double><d6p1:double>0.22381733956148991</d6p1:double><d6p1:double>0.88262897002491081</d6p1:double><d6p1:double>0.25694480884417431</d6p1:double><d6p1:double>0.28430752663239844</d6p1:double><d6p1:double>0.65831647502954616</d6p1:double><d6p1:double>0.57232788227504638</d6p1:double><d6p1:double>1.1710141312054587</d6p1:double><d6p1:double>0.957321688136147</d6p1:double><d6p1:double>-0.086660158778986668</d6p1:double><d6p1:double>0.89069298540898589</d6p1:double></Weights></Neuron><Neuron><Bias>-1.0007904593267312</Bias><Output>1</Output><Weights xmlns:d6p1="http://schemas.microsoft.com/2003/10/Serialization/Arrays"><d6p1:double>0.18255732770023733</d6p1:double><d6p1:double>0.94568879687192209</d6p1:double><d6p1:double>1.1657060512735471</d6p1:double><d6p1:double>1.1559816548999975</d6p1:double><d6p1:double>0.46601943396923912</d6p1:double><d6p1:double>0.97018652438671937</d6p1:double><d6p1:double>-0.1871968990762706</d6p1:double><d6p1:double>0.82790685998316138</d6p1:double><d6p1:double>0.30871036899365351</d6p1:double><d6p1:double>0.512528023794989</d6p1:double><d6p1:double>0.76540144873357385</d6p1:double><d6p1:double>-0.077938439995324557</d6p1:double><d6p1:double>0.49604597208851425</d6p1:double><d6p1:double>0.14815429879253436</d6p1:double><d6p1:double>-0.060849293694743851</d6p1:double><d6p1:double>0.23702210663147436</d6p1:double><d6p1:double>0.2197813520580513</d6p1:double><d6p1:double>0.76090799165768053</d6p1:double><d6p1:double>0.38191079409616224</d6p1:double><d6p1:double>0.98850430916332377</d6p1:double><d6p1:double>-0.16438674549431451</d6p1:double><d6p1:double>0.89335765569911652</d6p1:double><d6p1:double>0.041369696520243041</d6p1:double><d6p1:double>0.38848894444286397</d6p1:double><d6p1:double>0.44476547263995081</d6p1:double></Weights></Neuron><Neuron><Bias>-0.99877000503250779</Bias><Output>1</Output><Weights xmlns:d6p1="http://schemas.microsoft.com/2003/10/Serialization/Arrays"><d6p1:double>0.081949416905129746</d6p1:double><d6p1:double>0.40623951665229013</d6p1:double><d6p1:double>0.53213182483899657</d6p1:double><d6p1:double>0.91393183520947274</d6p1:double><d6p1:double>-0.24178480861751778</d6p1:double><d6p1:double>1.1840055253717308</d6p1:double><d6p1:double>0.12340868971486617</d6p1:double><d6p1:double>0.97415251364979571</d6p1:double><d6p1:double>0.48633344080390067</d6p1:double><d6p1:double>0.4839885527765791</d6p1:double><d6p1:double>0.19232248362895041</d6p1:double><d6p1:double>0.74062378387914241</d6p1:double><d6p1:double>0.99797061799466169</d6p1:double><d6p1:double>1.2066544650853763</d6p1:double><d6p1:double>0.67826746313204767</d6p1:double><d6p1:double>0.18545210521805267</d6p1:double><d6p1:double>0.28316316183930607</d6p1:double><d6p1:double>0.84695564874960461</d6p1:double><d6p1:double>0.34348723039510032</d6p1:double><d6p1:double>0.8529534035838805</d6p1:double><d6p1:double>0.83337767099280369</d6p1:double><d6p1:double>0.10073333310263023</d6p1:double><d6p1:double>0.23441504451675635</d6p1:double><d6p1:double>0.648382399235209</d6p1:double><d6p1:double>0.39088548168146015</d6p1:double></Weights></Neuron><Neuron><Bias>0.00065439390685830521</Bias><Output>-1</Output><Weights xmlns:d6p1="http://schemas.microsoft.com/2003/10/Serialization/Arrays"><d6p1:double>-0.22054543426752965</d6p1:double><d6p1:double>0.0071045024580744746</d6p1:double><d6p1:double>-0.253850963507106</d6p1:double><d6p1:double>0.83093204676831833</d6p1:double><d6p1:double>0.68850558719715638</d6p1:double><d6p1:double>0.71558765889506892</d6p1:double><d6p1:double>0.34750463371539719</d6p1:double><d6p1:double>-0.072068002031797959</d6p1:double><d6p1:double>0.7115048446285267</d6p1:double><d6p1:double>0.61058633889646807</d6p1:double><d6p1:double>0.37607903041659091</d6p1:double><d6p1:double>0.16292492991541227</d6p1:double><d6p1:double>0.16272055875936697</d6p1:double><d6p1:double>1.1313292368782508</d6p1:double><d6p1:double>0.62533314545746665</d6p1:double><d6p1:double>0.097931384439548325</d6p1:double><d6p1:double>0.99031988713147667</d6p1:double><d6p1:double>0.0033117122019747829</d6p1:double><d6p1:double>0.44077103355120789</d6p1:double><d6p1:double>0.50986623773574591</d6p1:double><d6p1:double>0.65658795398716086</d6p1:double><d6p1:double>0.47934658811141684</d6p1:double><d6p1:double>0.93703036762497594</d6p1:double><d6p1:double>0.75610391461348936</d6p1:double><d6p1:double>-0.3606521978943153</d6p1:double></Weights></Neuron><Neuron><Bias>-1.0014027140809298</Bias><Output>-1</Output><Weights xmlns:d6p1="http://schemas.microsoft.com/2003/10/Serialization/Arrays"><d6p1:double>1.0082318863997093</d6p1:double><d6p1:double>0.55980057244188608</d6p1:double><d6p1:double>-0.25916360483198941</d6p1:double><d6p1:double>0.39890264734737391</d6p1:double><d6p1:double>1.4711093789660821</d6p1:double><d6p1:double>-0.24547209272477108</d6p1:double><d6p1:double>0.57323600285599685</d6p1:double><d6p1:double>0.55121369310418</d6p1:double><d6p1:double>0.97438742084860042</d6p1:double><d6p1:double>0.022898009491343706</d6p1:double><d6p1:double>0.42145462365020736</d6p1:double><d6p1:double>0.12783999430986165</d6p1:double><d6p1:double>0.814468915356621</d6p1:double><d6p1:double>0.48528185987520378</d6p1:double><d6p1:double>0.68808702871673677</d6p1:double><d6p1:double>0.35182687784335132</d6p1:double><d6p1:double>0.7221360787378468</d6p1:double><d6p1:double>0.55247062578203687</d6p1:double><d6p1:double>0.042393930453722931</d6p1:double><d6p1:double>-0.28268346243386872</d6p1:double><d6p1:double>0.52322048078350947</d6p1:double><d6p1:double>1.2790359656491488</d6p1:double><d6p1:double>0.38000561129930321</d6p1:double><d6p1:double>0.22491500234786724</d6p1:double><d6p1:double>0.420079361814364</d6p1:double></Weights></Neuron><Neuron><Bias>-0.0011921456504514806</Bias><Output>-1</Output><Weights xmlns:d6p1="http://schemas.microsoft.com/2003/10/Serialization/Arrays"><d6p1:double>1.0123675041099518</d6p1:double><d6p1:double>0.564743220862489</d6p1:double><d6p1:double>0.33361712239361146</d6p1:double><d6p1:double>1.1453290920411412</d6p1:double><d6p1:double>0.67547077872498129</d6p1:double><d6p1:double>0.14936045792529656</d6p1:double><d6p1:double>0.99481194017338492</d6p1:double><d6p1:double>0.52464112845356781</d6p1:double><d6p1:double>0.17553056712412615</d6p1:double><d6p1:double>0.77120034572938678</d6p1:double><d6p1:double>0.11020970676282468</d6p1:double><d6p1:double>0.36951505788156958</d6p1:double><d6p1:double>1.0585544928331951</d6p1:double><d6p1:double>-0.11990137475920348</d6p1:double><d6p1:double>-0.039533656591929971</d6p1:double><d6p1:double>0.49012282438342514</d6p1:double><d6p1:double>0.90010878941723871</d6p1:double><d6p1:double>0.71182784641381835</d6p1:double><d6p1:double>0.35730149521416527</d6p1:double><d6p1:double>0.27080454844911417</d6p1:double><d6p1:double>0.2475794507268991</d6p1:double><d6p1:double>1.1756460989379294</d6p1:double><d6p1:double>0.710087855546014</d6p1:double><d6p1:double>-0.23464126514175862</d6p1:double><d6p1:double>0.8024588866197655</d6p1:double></Weights></Neuron><Neuron><Bias>0.001637729104497217</Bias><Output>1</Output><Weights xmlns:d6p1="http://schemas.microsoft.com/2003/10/Serialization/Arrays"><d6p1:double>0.56193688085679361</d6p1:double><d6p1:double>0.36365720319635547</d6p1:double><d6p1:double>0.8088919767224767</d6p1:double><d6p1:double>0.21721953099344202</d6p1:double><d6p1:double>0.63910393290327894</d6p1:double><d6p1:double>0.73585463162101117</d6p1:double><d6p1:double>-0.49669103294981631</d6p1:double><d6p1:double>0.73268514939086837</d6p1:double><d6p1:double>0.23475075621920058</d6p1:double><d6p1:double>0.72946441357961778</d6p1:double><d6p1:double>0.10489265241709807</d6p1:double><d6p1:double>1.1848714628598436</d6p1:double><d6p1:double>0.19039220765076806</d6p1:double><d6p1:double>0.87012435524380849</d6p1:double><d6p1:double>1.1003803890677428</d6p1:double><d6p1:double>0.11434979852895362</d6p1:double><d6p1:double>0.282604384502418</d6p1:double><d6p1:double>0.20756188273285292</d6p1:double><d6p1:double>0.70513288363371152</d6p1:double><d6p1:double>0.82984739784338157</d6p1:double><d6p1:double>0.68799023638442358</d6p1:double><d6p1:double>0.72745803968034994</d6p1:double><d6p1:double>-0.0865391963918864</d6p1:double><d6p1:double>0.57514934921835581</d6p1:double><d6p1:double>-0.18284782528280291</d6p1:double></Weights></Neuron><Neuron><Bias>0.00057531185210262881</Bias><Output>-1</Output><Weights xmlns:d6p1="http://schemas.microsoft.com/2003/10/Serialization/Arrays"><d6p1:double>0.09753172610007188</d6p1:double><d6p1:double>-0.0023790853266420007</d6p1:double><d6p1:double>0.39578924967321694</d6p1:double><d6p1:double>0.11824333517994125</d6p1:double><d6p1:double>0.063038274377080941</d6p1:double><d6p1:double>0.34120260742474723</d6p1:double><d6p1:double>0.076811395880139161</d6p1:double><d6p1:double>0.016097103954601226</d6p1:double><d6p1:double>0.60243129229773773</d6p1:double><d6p1:double>1.4212933833776236</d6p1:double><d6p1:double>-0.32821769742147816</d6p1:double><d6p1:double>0.095952558905689878</d6p1:double><d6p1:double>0.038304714852847643</d6p1:double><d6p1:double>0.43895943871299903</d6p1:double><d6p1:double>-0.35196605612623028</d6p1:double><d6p1:double>-0.37461887476419237</d6p1:double><d6p1:double>0.90562990263399834</d6p1:double><d6p1:double>0.27852057497560212</d6p1:double><d6p1:double>0.46363152863658946</d6p1:double><d6p1:double>1.3289519734435216</d6p1:double><d6p1:double>0.68697321589637539</d6p1:double><d6p1:double>0.68983062310980348</d6p1:double><d6p1:double>-0.094262596308634886</d6p1:double><d6p1:double>0.7885735687435097</d6p1:double><d6p1:double>0.52616581575241106</d6p1:double></Weights></Neuron><Neuron><Bias>-0.99996541803357319</Bias><Output>-1</Output><Weights xmlns:d6p1="http://schemas.microsoft.com/2003/10/Serialization/Arrays"><d6p1:double>1.2516987635922134</d6p1:double><d6p1:double>0.62292275563419319</d6p1:double><d6p1:double>0.80980136347823162</d6p1:double><d6p1:double>0.76631263423563345</d6p1:double><d6p1:double>-0.395616311921679</d6p1:double><d6p1:double>0.38751446565639519</d6p1:double><d6p1:double>0.70857734434176811</d6p1:double><d6p1:double>0.97968910315516544</d6p1:double><d6p1:double>0.60902876633778491</d6p1:double><d6p1:double>0.909449443470905</d6p1:double><d6p1:double>0.56952731989304106</d6p1:double><d6p1:double>-0.034502211951330762</d6p1:double><d6p1:double>-0.021220606617198261</d6p1:double><d6p1:double>0.49051767101443461</d6p1:double><d6p1:double>-0.25451423041434879</d6p1:double><d6p1:double>-0.46579631548815842</d6p1:double><d6p1:double>0.00044606030965218846</d6p1:double><d6p1:double>-0.19871792293530433</d6p1:double><d6p1:double>-0.69388311698949356</d6p1:double><d6p1:double>-0.28290256286468252</d6p1:double><d6p1:double>0.8375470562926528</d6p1:double><d6p1:double>-0.16958757506982572</d6p1:double><d6p1:double>0.1528141588176955</d6p1:double><d6p1:double>1.1614238251819722</d6p1:double><d6p1:double>1.5875226767298611</d6p1:double></Weights></Neuron><Neuron><Bias>0.0013372967868959126</Bias><Output>1</Output><Weights xmlns:d6p1="http://schemas.microsoft.com/2003/10/Serialization/Arrays"><d6p1:double>0.45663235109013117</d6p1:double><d6p1:double>-0.21508161426539191</d6p1:double><d6p1:double>0.77365132666844583</d6p1:double><d6p1:double>-0.5819165690733189</d6p1:double><d6p1:double>0.034322487096366178</d6p1:double><d6p1:double>-1.1319146010486807</d6p1:double><d6p1:double>-0.99645729881653722</d6p1:double><d6p1:double>-0.49296874129675639</d6p1:double><d6p1:double>-0.056391713156876751</d6p1:double><d6p1:double>0.88715368396027694</d6p1:double><d6p1:double>0.70970504381727706</d6p1:double><d6p1:double>0.27264757864315026</d6p1:double><d6p1:double>-0.36585091330162334</d6p1:double><d6p1:double>0.8996930094201756</d6p1:double><d6p1:double>0.55540513472801134</d6p1:double><d6p1:double>-0.013769035640204952</d6p1:double><d6p1:double>0.53794858049424765</d6p1:double><d6p1:double>-0.41797482679285908</d6p1:double><d6p1:double>1.1301077999661664</d6p1:double><d6p1:double>1.7873709303554166</d6p1:double><d6p1:double>0.13853211451116129</d6p1:double><d6p1:double>1.1786102514311916</d6p1:double><d6p1:double>-0.28614487020508611</d6p1:double><d6p1:double>0.11188509973471822</d6p1:double><d6p1:double>0.76428735976080875</d6p1:double></Weights></Neuron><Neuron><Bias>-0.00034595311083640817</Bias><Output>-1</Output><Weights xmlns:d6p1="http://schemas.microsoft.com/2003/10/Serialization/Arrays"><d6p1:double>1.0764131481763768</d6p1:double><d6p1:double>-0.1532235788898757</d6p1:double><d6p1:double>0.2601804831380391</d6p1:double><d6p1:double>0.28678035668287971</d6p1:double><d6p1:double>-0.29257132420513332</d6p1:double><d6p1:double>1.1716918215240526</d6p1:double><d6p1:double>1.2167342379662125</d6p1:double><d6p1:double>0.28709109879454631</d6p1:double><d6p1:double>0.81989582384435111</d6p1:double><d6p1:double>-0.39056211554772458</d6p1:double><d6p1:double>-0.33400259316451442</d6p1:double><d6p1:double>0.11432600497384279</d6p1:double><d6p1:double>1.1674360925676441</d6p1:double><d6p1:double>0.61220680559588414</d6p1:double><d6p1:double>0.72682630050909969</d6p1:double><d6p1:double>0.31475044065625585</d6p1:double><d6p1:double>0.093359494807817037</d6p1:double><d6p1:double>-0.43864127617740772</d6p1:double><d6p1:double>-0.54007748086583474</d6p1:double><d6p1:double>-0.78399750125626322</d6p1:double><d6p1:double>0.83852697032402213</d6p1:double><d6p1:double>-0.19460367256600433</d6p1:double><d6p1:double>0.9856129784787494</d6p1:double><d6p1:double>0.58120402707408547</d6p1:double><d6p1:double>-0.074040195155038652</d6p1:double></Weights></Neuron><Neuron><Bias>-1.000791547410494</Bias><Output>-1</Output><Weights xmlns:d6p1="http://schemas.microsoft.com/2003/10/Serialization/Arrays"><d6p1:double>1.0060067239662762</d6p1:double><d6p1:double>-0.035545778184199746</d6p1:double><d6p1:double>0.65951061309088965</d6p1:double><d6p1:double>0.6604231548991174</d6p1:double><d6p1:double>0.3230794389115676</d6p1:double><d6p1:double>0.78190726269579947</d6p1:double><d6p1:double>0.49886192202390273</d6p1:double><d6p1:double>-0.10377733509313583</d6p1:double><d6p1:double>0.2133363802233075</d6p1:double><d6p1:double>0.84432330258375676</d6p1:double><d6p1:double>0.55854804580558681</d6p1:double><d6p1:double>0.24460659469372484</d6p1:double><d6p1:double>0.33983562523976835</d6p1:double><d6p1:double>0.21006562638236431</d6p1:double><d6p1:double>0.738100291581241</d6p1:double><d6p1:double>0.4625541945788193</d6p1:double><d6p1:double>0.37808718286789667</d6p1:double><d6p1:double>0.53220373420296141</d6p1:double><d6p1:double>0.52301408242427461</d6p1:double><d6p1:double>0.19907918590606857</d6p1:double><d6p1:double>-0.091879619908716084</d6p1:double><d6p1:double>1.3062926296834454</d6p1:double><d6p1:double>1.2579308249447838</d6p1:double><d6p1:double>0.51536811187821341</d6p1:double><d6p1:double>0.71701679980982991</d6p1:double></Weights></Neuron><Neuron><Bias>0.0010131682721488578</Bias><Output>-1</Output><Weights xmlns:d6p1="http://schemas.microsoft.com/2003/10/Serialization/Arrays"><d6p1:double>-0.087944186706734637</d6p1:double><d6p1:double>0.648350824370544</d6p1:double><d6p1:double>-0.0032376895040996069</d6p1:double><d6p1:double>0.661041093404217</d6p1:double><d6p1:double>1.3168876585013252</d6p1:double><d6p1:double>-0.25381844926329961</d6p1:double><d6p1:double>-0.59670501502406659</d6p1:double><d6p1:double>0.82195216478823108</d6p1:double><d6p1:double>0.82638229270675856</d6p1:double><d6p1:double>-0.063278011133872089</d6p1:double><d6p1:double>0.83285482051744464</d6p1:double><d6p1:double>0.923148423432084</d6p1:double><d6p1:double>0.18602318572851731</d6p1:double><d6p1:double>1.3578499174754752</d6p1:double><d6p1:double>-0.584651636516846</d6p1:double><d6p1:double>0.19911728688773836</d6p1:double><d6p1:double>-0.51668818273951278</d6p1:double><d6p1:double>0.46875751625614692</d6p1:double><d6p1:double>0.29882664222067773</d6p1:double><d6p1:double>1.6120405876047266</d6p1:double><d6p1:double>0.50845935734756387</d6p1:double><d6p1:double>0.007731414691879759</d6p1:double><d6p1:double>0.050453772181366582</d6p1:double><d6p1:double>-0.24018453962401609</d6p1:double><d6p1:double>0.38809601050587822</d6p1:double></Weights></Neuron><Neuron><Bias>1.2838926379030675E-05</Bias><Output>1</Output><Weights xmlns:d6p1="http://schemas.microsoft.com/2003/10/Serialization/Arrays"><d6p1:double>-0.14219578772344377</d6p1:double><d6p1:double>0.52796043890294841</d6p1:double><d6p1:double>-0.039856089446027136</d6p1:double><d6p1:double>0.51330760425775412</d6p1:double><d6p1:double>-0.28363403911384222</d6p1:double><d6p1:double>0.10389132836033471</d6p1:double><d6p1:double>0.98233072857128656</d6p1:double><d6p1:double>1.0998620186769135</d6p1:double><d6p1:double>0.15947068494358366</d6p1:double><d6p1:double>0.16646325930174272</d6p1:double><d6p1:double>0.14402205927139725</d6p1:double><d6p1:double>0.84676911719920978</d6p1:double><d6p1:double>0.240072401017653</d6p1:double><d6p1:double>0.62310254382020114</d6p1:double><d6p1:double>1.2393833103470115</d6p1:double><d6p1:double>0.30450174570182714</d6p1:double><d6p1:double>0.4572068070986457</d6p1:double><d6p1:double>0.24513210427527177</d6p1:double><d6p1:double>0.4247860519097636</d6p1:double><d6p1:double>1.0678935045736249</d6p1:double><d6p1:double>0.38240309375861248</d6p1:double><d6p1:double>0.58012046428972008</d6p1:double><d6p1:double>0.43346359122957595</d6p1:double><d6p1:double>0.864760966167707</d6p1:double><d6p1:double>0.81527453618375645</d6p1:double></Weights></Neuron><Neuron><Bias>-0.99992463149849831</Bias><Output>-1</Output><Weights xmlns:d6p1="http://schemas.microsoft.com/2003/10/Serialization/Arrays"><d6p1:double>0.398535478317266</d6p1:double><d6p1:double>0.72414993522220739</d6p1:double><d6p1:double>0.35439894185010951</d6p1:double><d6p1:double>1.0015693512963595</d6p1:double><d6p1:double>0.56744327485113943</d6p1:double><d6p1:double>0.79367230886928353</d6p1:double><d6p1:double>0.14816319368405306</d6p1:double><d6p1:double>-0.14425335255387439</d6p1:double><d6p1:double>0.89676858617768829</d6p1:double><d6p1:double>0.79260851468671278</d6p1:double><d6p1:double>0.43470746197832233</d6p1:double><d6p1:double>0.30785406436058083</d6p1:double><d6p1:double>0.7280852361332989</d6p1:double><d6p1:double>0.54260545615032107</d6p1:double><d6p1:double>0.74183237976878</d6p1:double><d6p1:double>0.1778626212045781</d6p1:double><d6p1:double>0.44701903771838991</d6p1:double><d6p1:double>0.4911742424087463</d6p1:double><d6p1:double>0.5689873601309714</d6p1:double><d6p1:double>0.59060559745598673</d6p1:double><d6p1:double>1.1233101321845247</d6p1:double><d6p1:double>0.5513576364992081</d6p1:double><d6p1:double>0.98772556925385857</d6p1:double><d6p1:double>0.50971553410493486</d6p1:double><d6p1:double>1.0899776769766187</d6p1:double></Weights></Neuron><Neuron><Bias>-0.00016173844114449087</Bias><Output>1</Output><Weights xmlns:d6p1="http://schemas.microsoft.com/2003/10/Serialization/Arrays"><d6p1:double>-0.96004299910964019</d6p1:double><d6p1:double>0.50261146502819209</d6p1:double><d6p1:double>0.75227773958865</d6p1:double><d6p1:double>1.2515544498785176</d6p1:double><d6p1:double>0.010783360619188402</d6p1:double><d6p1:double>-0.1249366653709386</d6p1:double><d6p1:double>0.84538986114073456</d6p1:double><d6p1:double>0.16344617962080407</d6p1:double><d6p1:double>0.62621654871310151</d6p1:double><d6p1:double>0.16017860188303853</d6p1:double><d6p1:double>-0.019564558626566583</d6p1:double><d6p1:double>-0.019072124526168879</d6p1:double><d6p1:double>0.34164461942749663</d6p1:double><d6p1:double>-0.1595923893723159</d6p1:double><d6p1:double>1.0181211405247406</d6p1:double><d6p1:double>-0.10209553255403905</d6p1:double><d6p1:double>0.47948576690885669</d6p1:double><d6p1:double>0.267794270795349</d6p1:double><d6p1:double>0.34828326937898479</d6p1:double><d6p1:double>0.750663442274986</d6p1:double><d6p1:double>-0.10968234794554196</d6p1:double><d6p1:double>0.083170022896034243</d6p1:double><d6p1:double>-0.32473229232639045</d6p1:double><d6p1:double>0.36364670182720416</d6p1:double><d6p1:double>-0.47354062290326282</d6p1:double></Weights></Neuron><Neuron><Bias>-8.61490213995241E-06</Bias><Output>-1</Output><Weights xmlns:d6p1="http://schemas.microsoft.com/2003/10/Serialization/Arrays"><d6p1:double>0.1896424084920573</d6p1:double><d6p1:double>0.5902265512576842</d6p1:double><d6p1:double>0.035619553193596512</d6p1:double><d6p1:double>0.7628402138208189</d6p1:double><d6p1:double>1.5128668426863838</d6p1:double><d6p1:double>-0.2218020304254659</d6p1:double><d6p1:double>1.3926385494546196</d6p1:double><d6p1:double>-0.33031485039562536</d6p1:double><d6p1:double>0.671862203231073</d6p1:double><d6p1:double>-0.22048459527322506</d6p1:double><d6p1:double>-0.84939023412648307</d6p1:double><d6p1:double>-0.077229846034659447</d6p1:double><d6p1:double>0.59772105201273484</d6p1:double><d6p1:double>0.35360510890473368</d6p1:double><d6p1:double>-0.26024287609832231</d6p1:double><d6p1:double>0.74001027584750578</d6p1:double><d6p1:double>0.29130635348695461</d6p1:double><d6p1:double>0.012794940774031777</d6p1:double><d6p1:double>0.71290572677747588</d6p1:double><d6p1:double>0.4373690485929716</d6p1:double><d6p1:double>0.63045839768491763</d6p1:double><d6p1:double>-0.11864285437661598</d6p1:double><d6p1:double>1.0201257913643278</d6p1:double><d6p1:double>0.45558382291295013</d6p1:double><d6p1:double>-0.56157737457525236</d6p1:double></Weights></Neuron><Neuron><Bias>0.00014408158658467521</Bias><Output>1</Output><Weights xmlns:d6p1="http://schemas.microsoft.com/2003/10/Serialization/Arrays"><d6p1:double>0.44913207463881194</d6p1:double><d6p1:double>0.438828251053219</d6p1:double><d6p1:double>0.64674816054646378</d6p1:double><d6p1:double>-0.10664021564620471</d6p1:double><d6p1:double>0.20197894644790543</d6p1:double><d6p1:double>0.15209457943739924</d6p1:double><d6p1:double>0.50891435369657112</d6p1:double><d6p1:double>0.31994948858297678</d6p1:double><d6p1:double>0.98386158685407754</d6p1:double><d6p1:double>0.25972874061482709</d6p1:double><d6p1:double>1.0170991502034383</d6p1:double><d6p1:double>0.44812052511595296</d6p1:double><d6p1:double>0.78849371507095634</d6p1:double><d6p1:double>0.1636347153594799</d6p1:double><d6p1:double>0.50898744708588017</d6p1:double><d6p1:double>1.0546290089680317</d6p1:double><d6p1:double>0.80075658791315341</d6p1:double><d6p1:double>0.81111833133187161</d6p1:double><d6p1:double>0.787357633901515</d6p1:double><d6p1:double>0.48221405659962757</d6p1:double><d6p1:double>0.56359284185899339</d6p1:double><d6p1:double>0.74789753865451636</d6p1:double><d6p1:double>0.96833382632272669</d6p1:double><d6p1:double>0.68625999285736006</d6p1:double><d6p1:double>0.90995402667151259</d6p1:double></Weights></Neuron><Neuron><Bias>6.51586898591059E-05</Bias><Output>1</Output><Weights xmlns:d6p1="http://schemas.microsoft.com/2003/10/Serialization/Arrays"><d6p1:double>-0.18124836832242414</d6p1:double><d6p1:double>0.61354540740998154</d6p1:double><d6p1:double>0.56956456117578613</d6p1:double><d6p1:double>-0.15170433213424339</d6p1:double><d6p1:double>0.7048312549825102</d6p1:double><d6p1:double>0.0050406330818272707</d6p1:double><d6p1:double>0.66323620997549082</d6p1:double><d6p1:double>0.73979126238874637</d6p1:double><d6p1:double>0.29383641390480497</d6p1:double><d6p1:double>0.43754394450683837</d6p1:double><d6p1:double>0.52014022157839279</d6p1:double><d6p1:double>0.40161592578948374</d6p1:double><d6p1:double>0.44006505400684781</d6p1:double><d6p1:double>0.38841726250671266</d6p1:double><d6p1:double>0.87110844663261244</d6p1:double><d6p1:double>0.20052388574385036</d6p1:double><d6p1:double>1.5701298647395205</d6p1:double><d6p1:double>0.45501233436126809</d6p1:double><d6p1:double>0.82688677385560594</d6p1:double><d6p1:double>0.95220686661743426</d6p1:double><d6p1:double>0.63801699844077386</d6p1:double><d6p1:double>0.0999496318622578</d6p1:double><d6p1:double>0.809417342449928</d6p1:double><d6p1:double>0.47265656447967613</d6p1:double><d6p1:double>0.22691726067288503</d6p1:double></Weights></Neuron><Neuron><Bias>-1.0001411394041606</Bias><Output>-1</Output><Weights xmlns:d6p1="http://schemas.microsoft.com/2003/10/Serialization/Arrays"><d6p1:double>0.37691831326857983</d6p1:double><d6p1:double>0.68816627162011557</d6p1:double><d6p1:double>0.85141665789018528</d6p1:double><d6p1:double>1.1958899271656382</d6p1:double><d6p1:double>0.30089306458979781</d6p1:double><d6p1:double>1.2087648457979869</d6p1:double><d6p1:double>0.049305380005238771</d6p1:double><d6p1:double>0.37858733964050473</d6p1:double><d6p1:double>1.1104766439487084</d6p1:double><d6p1:double>0.93484937996109507</d6p1:double><d6p1:double>0.24607118800679</d6p1:double><d6p1:double>0.95283863528115254</d6p1:double><d6p1:double>0.7152743007956881</d6p1:double><d6p1:double>0.20267289059106378</d6p1:double><d6p1:double>0.23999050468633062</d6p1:double><d6p1:double>0.061532073311871174</d6p1:double><d6p1:double>0.56107095031397125</d6p1:double><d6p1:double>0.79414686567163562</d6p1:double><d6p1:double>0.079271673211788712</d6p1:double><d6p1:double>0.518933226326278</d6p1:double><d6p1:double>-0.030324404806031397</d6p1:double><d6p1:double>0.36294798305821835</d6p1:double><d6p1:double>0.55575329787895533</d6p1:double><d6p1:double>0.59110101722605446</d6p1:double><d6p1:double>0.53190399157706714</d6p1:double></Weights></Neuron><Neuron><Bias>-1.0002986951145831</Bias><Output>-1</Output><Weights xmlns:d6p1="http://schemas.microsoft.com/2003/10/Serialization/Arrays"><d6p1:double>-0.48664461001776294</d6p1:double><d6p1:double>-0.44319629141274974</d6p1:double><d6p1:double>-0.42409506118798984</d6p1:double><d6p1:double>-0.12400845536760119</d6p1:double><d6p1:double>0.90553264682374357</d6p1:double><d6p1:double>0.30777547068896094</d6p1:double><d6p1:double>0.61627352397787116</d6p1:double><d6p1:double>0.34894519457845113</d6p1:double><d6p1:double>1.1174178238679406</d6p1:double><d6p1:double>1.0870867561271131</d6p1:double><d6p1:double>0.27124627410605129</d6p1:double><d6p1:double>0.55387355924811987</d6p1:double><d6p1:double>-0.30900832932522837</d6p1:double><d6p1:double>0.90344615971586606</d6p1:double><d6p1:double>0.15481190871768818</d6p1:double><d6p1:double>1.1959324973501437</d6p1:double><d6p1:double>0.28113261444066184</d6p1:double><d6p1:double>1.0165598679849825</d6p1:double><d6p1:double>1.0134146523403327</d6p1:double><d6p1:double>0.051864655094490217</d6p1:double><d6p1:double>0.76579892169386621</d6p1:double><d6p1:double>1.109179968024294</d6p1:double><d6p1:double>0.32398898642412549</d6p1:double><d6p1:double>0.14266562468950217</d6p1:double><d6p1:double>0.26098063811575872</d6p1:double></Weights></Neuron><Neuron><Bias>-0.00031101529762481264</Bias><Output>-1</Output><Weights xmlns:d6p1="http://schemas.microsoft.com/2003/10/Serialization/Arrays"><d6p1:double>0.10451107129473484</d6p1:double><d6p1:double>-0.15197201040446034</d6p1:double><d6p1:double>0.32186171134397412</d6p1:double><d6p1:double>0.86695797925874152</d6p1:double><d6p1:double>0.79975260877492271</d6p1:double><d6p1:double>-0.120715529888305</d6p1:double><d6p1:double>0.28704142490257339</d6p1:double><d6p1:double>-0.19823323459535336</d6p1:double><d6p1:double>0.66313748072732748</d6p1:double><d6p1:double>0.10761844007453834</d6p1:double><d6p1:double>0.5348189312783993</d6p1:double><d6p1:double>0.631196429309411</d6p1:double><d6p1:double>0.43105756750708013</d6p1:double><d6p1:double>0.57247753978305616</d6p1:double><d6p1:double>0.360396298513323</d6p1:double><d6p1:double>1.0051994290859629</d6p1:double><d6p1:double>0.73840020169520926</d6p1:double><d6p1:double>0.74292412986003875</d6p1:double><d6p1:double>0.97368373842799094</d6p1:double><d6p1:double>0.37208744746962058</d6p1:double><d6p1:double>0.98167265245773783</d6p1:double><d6p1:double>0.29736316091180187</d6p1:double><d6p1:double>0.44749122655684215</d6p1:double><d6p1:double>0.31046054261960992</d6p1:double><d6p1:double>0.93093454137984355</d6p1:double></Weights></Neuron><Neuron><Bias>-0.9989998001279099</Bias><Output>1</Output><Weights xmlns:d6p1="http://schemas.microsoft.com/2003/10/Serialization/Arrays"><d6p1:double>0.16929523697141596</d6p1:double><d6p1:double>0.9083152049450961</d6p1:double><d6p1:double>1.3497456249259745</d6p1:double><d6p1:double>-0.30673570176090942</d6p1:double><d6p1:double>-0.010857863429727379</d6p1:double><d6p1:double>0.10823523304619594</d6p1:double><d6p1:double>0.76143298742912813</d6p1:double><d6p1:double>1.2354831997684634</d6p1:double><d6p1:double>-0.13561608935829927</d6p1:double><d6p1:double>0.14251800911715481</d6p1:double><d6p1:double>-0.16023905496909382</d6p1:double><d6p1:double>-0.54469788835898858</d6p1:double><d6p1:double>1.1082953146819081</d6p1:double><d6p1:double>1.204027295973239</d6p1:double><d6p1:double>0.36995281170050243</d6p1:double><d6p1:double>0.68111944084136755</d6p1:double><d6p1:double>0.034591076489075313</d6p1:double><d6p1:double>0.38312730877426554</d6p1:double><d6p1:double>0.42531148081623393</d6p1:double><d6p1:double>0.80715742321021189</d6p1:double><d6p1:double>0.060901098067440165</d6p1:double><d6p1:double>0.73778120784686974</d6p1:double><d6p1:double>0.097783226886338545</d6p1:double><d6p1:double>0.47612613931940406</d6p1:double><d6p1:double>-0.12730578432710146</d6p1:double></Weights></Neuron><Neuron><Bias>0.00034833426321130941</Bias><Output>1</Output><Weights xmlns:d6p1="http://schemas.microsoft.com/2003/10/Serialization/Arrays"><d6p1:double>0.57443263502703668</d6p1:double><d6p1:double>-0.11240641375917833</d6p1:double><d6p1:double>0.45989558154889</d6p1:double><d6p1:double>1.102808318199054</d6p1:double><d6p1:double>0.76299141515242686</d6p1:double><d6p1:double>1.2152396867977193</d6p1:double><d6p1:double>0.92967194165967937</d6p1:double><d6p1:double>0.60664459396884751</d6p1:double><d6p1:double>1.0182182962213053</d6p1:double><d6p1:double>0.62207932164162971</d6p1:double><d6p1:double>0.0844166223225731</d6p1:double><d6p1:double>0.66704199971551381</d6p1:double><d6p1:double>0.98658919043576343</d6p1:double><d6p1:double>-0.253583993600889</d6p1:double><d6p1:double>0.6618391054344831</d6p1:double><d6p1:double>0.90716020938735031</d6p1:double><d6p1:double>0.12519478227328557</d6p1:double><d6p1:double>0.73040462692040187</d6p1:double><d6p1:double>0.52648176049543294</d6p1:double><d6p1:double>0.40235896282634109</d6p1:double><d6p1:double>-0.41337034461515687</d6p1:double><d6p1:double>0.853509370743122</d6p1:double><d6p1:double>0.692181677799662</d6p1:double><d6p1:double>1.1882761346651911</d6p1:double><d6p1:double>-0.15499352937442398</d6p1:double></Weights></Neuron><Neuron><Bias>-1.0007829260410686</Bias><Output>-1</Output><Weights xmlns:d6p1="http://schemas.microsoft.com/2003/10/Serialization/Arrays"><d6p1:double>1.4486998113274845</d6p1:double><d6p1:double>-0.666859800685648</d6p1:double><d6p1:double>0.45355211337004286</d6p1:double><d6p1:double>0.000935207503628899</d6p1:double><d6p1:double>0.14410637013095692</d6p1:double><d6p1:double>0.998823917374058</d6p1:double><d6p1:double>0.76346961884377129</d6p1:double><d6p1:double>0.70754880911580686</d6p1:double><d6p1:double>0.7600836087802485</d6p1:double><d6p1:double>0.97830622465352035</d6p1:double><d6p1:double>0.3482396737496874</d6p1:double><d6p1:double>0.64596897873989023</d6p1:double><d6p1:double>0.44530653867431752</d6p1:double><d6p1:double>0.088547301828218586</d6p1:double><d6p1:double>0.4206400055215207</d6p1:double><d6p1:double>0.4583738389589177</d6p1:double><d6p1:double>-0.25123228497018507</d6p1:double><d6p1:double>1.2126031790536416</d6p1:double><d6p1:double>0.11684717563948446</d6p1:double><d6p1:double>-0.26292043448731778</d6p1:double><d6p1:double>-0.3539623316405523</d6p1:double><d6p1:double>0.41730113005150782</d6p1:double><d6p1:double>0.32943126081501273</d6p1:double><d6p1:double>0.15157668230263383</d6p1:double><d6p1:double>-0.46030625776544226</d6p1:double></Weights></Neuron><Neuron><Bias>-1.0002395069072469</Bias><Output>-1</Output><Weights xmlns:d6p1="http://schemas.microsoft.com/2003/10/Serialization/Arrays"><d6p1:double>0.72465348839475</d6p1:double><d6p1:double>0.97469412318447546</d6p1:double><d6p1:double>0.18693633160883635</d6p1:double><d6p1:double>0.76364352826218829</d6p1:double><d6p1:double>-0.16529651450754498</d6p1:double><d6p1:double>0.279185810443651</d6p1:double><d6p1:double>0.7938281337824401</d6p1:double><d6p1:double>0.045378278914218285</d6p1:double><d6p1:double>0.0025690086576554642</d6p1:double><d6p1:double>0.82798157587230592</d6p1:double><d6p1:double>0.48158874932918677</d6p1:double><d6p1:double>0.5783394529806527</d6p1:double><d6p1:double>0.97954114115309365</d6p1:double><d6p1:double>0.1244441321340142</d6p1:double><d6p1:double>0.678939491918881</d6p1:double><d6p1:double>0.26997467652758372</d6p1:double><d6p1:double>0.39562911228415204</d6p1:double><d6p1:double>0.38970744727846618</d6p1:double><d6p1:double>0.25412450139455278</d6p1:double><d6p1:double>0.93347131900134772</d6p1:double><d6p1:double>0.75777364260551261</d6p1:double><d6p1:double>0.016860323829666013</d6p1:double><d6p1:double>0.4659172285636658</d6p1:double><d6p1:double>0.27008471553618285</d6p1:double><d6p1:double>1.0416160978001576</d6p1:double></Weights></Neuron><Neuron><Bias>-0.00061305356452944794</Bias><Output>-1</Output><Weights xmlns:d6p1="http://schemas.microsoft.com/2003/10/Serialization/Arrays"><d6p1:double>0.23839537213715503</d6p1:double><d6p1:double>0.78677391732920932</d6p1:double><d6p1:double>0.23905606291333797</d6p1:double><d6p1:double>0.58277698367988406</d6p1:double><d6p1:double>0.81555439837462684</d6p1:double><d6p1:double>-0.46626950357148994</d6p1:double><d6p1:double>0.31355134960796943</d6p1:double><d6p1:double>-0.26407694420883915</d6p1:double><d6p1:double>0.24243515027713608</d6p1:double><d6p1:double>-0.39040505489875627</d6p1:double><d6p1:double>-0.1325961480560795</d6p1:double><d6p1:double>1.3531372010141467</d6p1:double><d6p1:double>0.56907607905969582</d6p1:double><d6p1:double>-0.023978210956985064</d6p1:double><d6p1:double>0.658901705853638</d6p1:double><d6p1:double>0.40925604748936723</d6p1:double><d6p1:double>0.18117695990816268</d6p1:double><d6p1:double>-0.277612414784217</d6p1:double><d6p1:double>0.26485000466403269</d6p1:double><d6p1:double>1.2384741665496433</d6p1:double><d6p1:double>0.72495570338294968</d6p1:double><d6p1:double>-0.044691249219366375</d6p1:double><d6p1:double>0.77463213837852085</d6p1:double><d6p1:double>0.12382999963730582</d6p1:double><d6p1:double>1.4144852272168436</d6p1:double></Weights></Neuron><Neuron><Bias>-0.998684311001423</Bias><Output>-1</Output><Weights xmlns:d6p1="http://schemas.microsoft.com/2003/10/Serialization/Arrays"><d6p1:double>0.79267451575029846</d6p1:double><d6p1:double>0.3126183914784107</d6p1:double><d6p1:double>0.42310496675884435</d6p1:double><d6p1:double>0.11985228121290503</d6p1:double><d6p1:double>0.14551832161882641</d6p1:double><d6p1:double>1.0726448578200951</d6p1:double><d6p1:double>0.019858492768587126</d6p1:double><d6p1:double>0.74224363377958513</d6p1:double><d6p1:double>0.46655828493902168</d6p1:double><d6p1:double>0.87412745064100139</d6p1:double><d6p1:double>0.55308184364586188</d6p1:double><d6p1:double>0.34310591265109586</d6p1:double><d6p1:double>0.26306423591966122</d6p1:double><d6p1:double>0.88794359931259725</d6p1:double><d6p1:double>-0.092990192750861372</d6p1:double><d6p1:double>0.95590443407708281</d6p1:double><d6p1:double>0.93415232869657061</d6p1:double><d6p1:double>1.1128954961198443</d6p1:double><d6p1:double>-0.09944314994065756</d6p1:double><d6p1:double>0.28821721215675744</d6p1:double><d6p1:double>0.612570386118289</d6p1:double><d6p1:double>-0.0494430153170287</d6p1:double><d6p1:double>1.0631750290811828</d6p1:double><d6p1:double>0.81033507046592468</d6p1:double><d6p1:double>0.030569628180568492</d6p1:double></Weights></Neuron><Neuron><Bias>-0.001107915810623316</Bias><Output>-1</Output><Weights xmlns:d6p1="http://schemas.microsoft.com/2003/10/Serialization/Arrays"><d6p1:double>0.63814888579633489</d6p1:double><d6p1:double>0.92527592791196211</d6p1:double><d6p1:double>-0.090984671906291559</d6p1:double><d6p1:double>0.48768709879642469</d6p1:double><d6p1:double>0.55275686743073726</d6p1:double><d6p1:double>0.85835845221035012</d6p1:double><d6p1:double>0.65071963355603468</d6p1:double><d6p1:double>0.8694786837151206</d6p1:double><d6p1:double>0.14917345913960373</d6p1:double><d6p1:double>0.80860643961756962</d6p1:double><d6p1:double>0.6422026359735038</d6p1:double><d6p1:double>0.18813080635835827</d6p1:double><d6p1:double>-0.30882611286259176</d6p1:double><d6p1:double>-0.10714314691679239</d6p1:double><d6p1:double>0.098134714144471072</d6p1:double><d6p1:double>-0.60250600191217951</d6p1:double><d6p1:double>0.52695086003639635</d6p1:double><d6p1:double>0.76775028452715643</d6p1:double><d6p1:double>-0.18299237360575202</d6p1:double><d6p1:double>0.90969990013913049</d6p1:double><d6p1:double>-0.2359018286157572</d6p1:double><d6p1:double>1.3978519757795298</d6p1:double><d6p1:double>0.15188249925705546</d6p1:double><d6p1:double>-0.16676698014705396</d6p1:double><d6p1:double>0.68914819077578882</d6p1:double></Weights></Neuron><Neuron><Bias>-0.00068591323540252117</Bias><Output>-1</Output><Weights xmlns:d6p1="http://schemas.microsoft.com/2003/10/Serialization/Arrays"><d6p1:double>1.4743244875765249</d6p1:double><d6p1:double>-0.25443402369796908</d6p1:double><d6p1:double>1.1035460507407588</d6p1:double><d6p1:double>0.59536275083839618</d6p1:double><d6p1:double>0.66970852055578323</d6p1:double><d6p1:double>-0.38752573405306612</d6p1:double><d6p1:double>0.50795140109281756</d6p1:double><d6p1:double>-0.62903440139968225</d6p1:double><d6p1:double>0.20912655276648476</d6p1:double><d6p1:double>0.014721104992314717</d6p1:double><d6p1:double>0.62948849853720923</d6p1:double><d6p1:double>-0.29591890623120609</d6p1:double><d6p1:double>0.44765034237460177</d6p1:double><d6p1:double>0.38020633686956112</d6p1:double><d6p1:double>0.52416123957766281</d6p1:double><d6p1:double>0.53307787594114653</d6p1:double><d6p1:double>-0.12492384972658958</d6p1:double><d6p1:double>0.76041900599984413</d6p1:double><d6p1:double>-0.13569121207031248</d6p1:double><d6p1:double>-0.15253550677989861</d6p1:double><d6p1:double>0.7346444304387475</d6p1:double><d6p1:double>0.55502805563168534</d6p1:double><d6p1:double>0.78762819216910085</d6p1:double><d6p1:double>0.83343328476623757</d6p1:double><d6p1:double>0.16362998179458418</d6p1:double></Weights></Neuron><Neuron><Bias>-0.998634897369089</Bias><Output>1</Output><Weights xmlns:d6p1="http://schemas.microsoft.com/2003/10/Serialization/Arrays"><d6p1:double>-0.29630316230368808</d6p1:double><d6p1:double>0.841346824479766</d6p1:double><d6p1:double>0.034483591977792466</d6p1:double><d6p1:double>-0.3707713459353254</d6p1:double><d6p1:double>-0.24864050625940956</d6p1:double><d6p1:double>0.61555135067720423</d6p1:double><d6p1:double>0.47925497443130788</d6p1:double><d6p1:double>0.56978124935439312</d6p1:double><d6p1:double>0.33242408589701816</d6p1:double><d6p1:double>0.19584525602225419</d6p1:double><d6p1:double>1.0736755917422487</d6p1:double><d6p1:double>0.51732403618058154</d6p1:double><d6p1:double>0.33795491607926631</d6p1:double><d6p1:double>0.67274909663288207</d6p1:double><d6p1:double>0.70083736624634718</d6p1:double><d6p1:double>0.94034620731168317</d6p1:double><d6p1:double>0.54181237301732688</d6p1:double><d6p1:double>0.52136166772255865</d6p1:double><d6p1:double>0.89638747360555282</d6p1:double><d6p1:double>0.42624464888547953</d6p1:double><d6p1:double>0.20769334625897656</d6p1:double><d6p1:double>0.24166028423431546</d6p1:double><d6p1:double>0.94260729277034727</d6p1:double><d6p1:double>0.82996878542011865</d6p1:double><d6p1:double>0.076789599254739924</d6p1:double></Weights></Neuron><Neuron><Bias>-1.0018486870306693</Bias><Output>-1</Output><Weights 