<?xml version="1.0" encoding="utf-16"?><NeuralNetwork xmlns:i="http://www.w3.org/2001/XMLSchema-instance" xmlns="http://schemas.datacontract.org/2004/07/AE.MachineLearning.NeuralNet.Core"><_networkLayers><NetworkLayer><_isInputLayer>true</_isInputLayer><_neurons><Neuron><Bias>0</Bias><Output>-1003.888796</Output><Weights xmlns:d6p1="http://schemas.microsoft.com/2003/10/Serialization/Arrays"><d6p1:double>1</d6p1:double></Weights></Neuron><Neuron><Bias>0</Bias><Output>99.7346757</Output><Weights xmlns:d6p1="http://schemas.microsoft.com/2003/10/Serialization/Arrays"><d6p1:double>1</d6p1:double></Weights></Neuron><Neuron><Bias>0</Bias><Output>656.188731</Output><Weights xmlns:d6p1="http://schemas.microsoft.com/2003/10/Serialization/Arrays"><d6p1:double>1</d6p1:double></Weights></Neuron><Neuron><Bias>0</Bias><Output>-101.2632666</Output><Weights xmlns:d6p1="http://schemas.microsoft.com/2003/10/Serialization/Arrays"><d6p1:double>1</d6p1:double></Weights></Neuron><Neuron><Bias>0</Bias><Output>-712.5407464</Output><Weights xmlns:d6p1="http://schemas.microsoft.com/2003/10/Serialization/Arrays"><d6p1:double>1</d6p1:double></Weights></Neuron><Neuron><Bias>0</Bias><Output>-218.8568689</Output><Weights xmlns:d6p1="http://schemas.microsoft.com/2003/10/Serialization/Arrays"><d6p1:double>1</d6p1:double></Weights></Neuron><Neuron><Bias>0</Bias><Output>-543.6679743</Output><Weights xmlns:d6p1="http://schemas.microsoft.com/2003/10/Serialization/Arrays"><d6p1:double>1</d6p1:double></Weights></Neuron><Neuron><Bias>0</Bias><Output>256.0470238</Output><Weights xmlns:d6p1="http://schemas.microsoft.com/2003/10/Serialization/Arrays"><d6p1:double>1</d6p1:double></Weights></Neuron><Neuron><Bias>0</Bias><Output>-375.9740615</Output><Weights xmlns:d6p1="http://schemas.microsoft.com/2003/10/Serialization/Arrays"><d6p1:double>1</d6p1:double></Weights></Neuron><Neuron><Bias>0</Bias><Output>139.6749711</Output><Weights xmlns:d6p1="http://schemas.microsoft.com/2003/10/Serialization/Arrays"><d6p1:double>1</d6p1:double></Weights></Neuron><Neuron><Bias>0</Bias><Output>112.0551432</Output><Weights xmlns:d6p1="http://schemas.microsoft.com/2003/10/Serialization/Arrays"><d6p1:double>1</d6p1:double></Weights></Neuron><Neuron><Bias>0</Bias><Output>55.11060021</Output><Weights xmlns:d6p1="http://schemas.microsoft.com/2003/10/Serialization/Arrays"><d6p1:double>1</d6p1:double></Weights></Neuron><Neuron><Bias>0</Bias><Output>583.974903</Output><Weights xmlns:d6p1="http://schemas.microsoft.com/2003/10/Serialization/Arrays"><d6p1:double>1</d6p1:double></Weights></Neuron><Neuron><Bias>0</Bias><Output>-129.8331591</Output><Weights xmlns:d6p1="http://schemas.microsoft.com/2003/10/Serialization/Arrays"><d6p1:double>1</d6p1:double></Weights></Neuron><Neuron><Bias>0</Bias><Output>384.374502</Output><Weights xmlns:d6p1="http://schemas.microsoft.com/2003/10/Serialization/Arrays"><d6p1:double>1</d6p1:double></Weights></Neuron><Neuron><Bias>0</Bias><Output>707.6621492</Output><Weights xmlns:d6p1="http://schemas.microsoft.com/2003/10/Serialization/Arrays"><d6p1:double>1</d6p1:double></Weights></Neuron><Neuron><Bias>0</Bias><Output>-206.0695753</Output><Weights xmlns:d6p1="http://schemas.microsoft.com/2003/10/Serialization/Arrays"><d6p1:double>1</d6p1:double></Weights></Neuron><Neuron><Bias>0</Bias><Output>27.86720355</Output><Weights xmlns:d6p1="http://schemas.microsoft.com/2003/10/Serialization/Arrays"><d6p1:double>1</d6p1:double></Weights></Neuron><Neuron><Bias>0</Bias><Output>452.5315824</Output><Weights xmlns:d6p1="http://schemas.microsoft.com/2003/10/Serialization/Arrays"><d6p1:double>1</d6p1:double></Weights></Neuron><Neuron><Bias>0</Bias><Output>108.9841613</Output><Weights xmlns:d6p1="http://schemas.microsoft.com/2003/10/Serialization/Arrays"><d6p1:double>1</d6p1:double></Weights></Neuron><Neuron><Bias>0</Bias><Output>-327.436527</Output><Weights xmlns:d6p1="http://schemas.microsoft.com/2003/10/Serialization/Arrays"><d6p1:double>1</d6p1:double></Weights></Neuron><Neuron><Bias>0</Bias><Output>-386.1563253</Output><Weights xmlns:d6p1="http://schemas.microsoft.com/2003/10/Serialization/Arrays"><d6p1:double>1</d6p1:double></Weights></Neuron><Neuron><Bias>0</Bias><Output>-558.0306571</Output><Weights xmlns:d6p1="http://schemas.microsoft.com/2003/10/Serialization/Arrays"><d6p1:double>1</d6p1:double></Weights></Neuron><Neuron><Bias>0</Bias><Output>790.9654693</Output><Weights xmlns:d6p1="http://schemas.microsoft.com/2003/10/Serialization/Arrays"><d6p1:double>1</d6p1:double></Weights></Neuron><Neuron><Bias>0</Bias><Output>-211.894788</Output><Weights xmlns:d6p1="http://schemas.microsoft.com/2003/10/Serialization/Arrays"><d6p1:double>1</d6p1:double></Weights></Neuron></_neurons><_numOfNeurons>25</_numOfNeurons><_numberOfInputsPerNeuron>1</_numberOfInputsPerNeuron></NetworkLayer><NetworkLayer><_isInputLayer>false</_isInputLayer><_neurons><Neuron><Bias>-1.0010596031424994</Bias><Output>-1</Output><Weights xmlns:d6p1="http://schemas.microsoft.com/2003/10/Serialization/Arrays"><d6p1:double>1.1079189746896914</d6p1:double><d6p1:double>0.595230888345798</d6p1:double><d6p1:double>0.53080941951617255</d6p1:double><d6p1:double>0.39365861689935328</d6p1:double><d6p1:double>0.63153059930750477</d6p1:double><d6p1:double>0.30012952348489541</d6p1:double><d6p1:double>0.90276200864413558</d6p1:double><d6p1:double>0.45027035616087779</d6p1:double><d6p1:double>-0.050049826278140905</d6p1:double><d6p1:double>1.1802546883573162</d6p1:double><d6p1:double>0.38539943746568539</d6p1:double><d6p1:double>0.0034307983173874259</d6p1:double><d6p1:double>1.1896621365890498</d6p1:double><d6p1:double>-0.0424828495004198</d6p1:double><d6p1:double>0.42847314742641679</d6p1:double><d6p1:double>0.13929354268074784</d6p1:double><d6p1:double>0.92590737658956423</d6p1:double><d6p1:double>0.024152930368547966</d6p1:double><d6p1:double>0.39534223483859016</d6p1:double><d6p1:double>0.717980913345549</d6p1:double><d6p1:double>0.31470588188134346</d6p1:double><d6p1:double>0.32335437729707961</d6p1:double><d6p1:double>0.063184669685107428</d6p1:double><d6p1:double>0.19248622326558837</d6p1:double><d6p1:double>0.92999434370780543</d6p1:double></Weights></Neuron><Neuron><Bias>-0.99833591037746161</Bias><Output>1</Output><Weights xmlns:d6p1="http://schemas.microsoft.com/2003/10/Serialization/Arrays"><d6p1:double>0.14348872457229306</d6p1:double><d6p1:double>0.5714338945788161</d6p1:double><d6p1:double>0.3624955691475395</d6p1:double><d6p1:double>0.60278346972750529</d6p1:double><d6p1:double>-0.30757488390884896</d6p1:double><d6p1:double>0.75048010330495329</d6p1:double><d6p1:double>-0.657334198640537</d6p1:double><d6p1:double>-0.11690269888776647</d6p1:double><d6p1:double>-0.23495099479449252</d6p1:double><d6p1:double>0.37519980134616876</d6p1:double><d6p1:double>-0.18468661092745781</d6p1:double><d6p1:double>1.0372123592880158</d6p1:double><d6p1:double>0.039940060661963435</d6p1:double><d6p1:double>0.41698729936830886</d6p1:double><d6p1:double>0.23953984932800337</d6p1:double><d6p1:double>0.10829293457446661</d6p1:double><d6p1:double>0.65984794115035039</d6p1:double><d6p1:double>-0.15760975779024364</d6p1:double><d6p1:double>0.66084829290346181</d6p1:double><d6p1:double>1.0335581791776041</d6p1:double><d6p1:double>-0.27641941395586894</d6p1:double><d6p1:double>-0.22994146164143275</d6p1:double><d6p1:double>0.859789654402844</d6p1:double><d6p1:double>1.4322466658828932</d6p1:double><d6p1:double>0.96263688938114245</d6p1:double></Weights></Neuron><Neuron><Bias>-1.0011641584953686</Bias><Output>-1</Output><Weights xmlns:d6p1="http://schemas.microsoft.com/2003/10/Serialization/Arrays"><d6p1:double>1.2389048914394221</d6p1:double><d6p1:double>0.604870084858812</d6p1:double><d6p1:double>0.70054890188482577</d6p1:double><d6p1:double>0.34284831395726872</d6p1:double><d6p1:double>-0.0083996923380206222</d6p1:double><d6p1:double>0.0327286211101058</d6p1:double><d6p1:double>1.1239085915094813</d6p1:double><d6p1:double>-0.1411050084072788</d6p1:double><d6p1:double>0.47203382548873313</d6p1:double><d6p1:double>0.30062347579228343</d6p1:double><d6p1:double>0.68265540240257061</d6p1:double><d6p1:double>0.47718724578632393</d6p1:double><d6p1:double>0.84801363715742373</d6p1:double><d6p1:double>-0.33426170380281728</d6p1:double><d6p1:double>0.855352469448741</d6p1:double><d6p1:double>0.72150905430775247</d6p1:double><d6p1:double>-0.22212009034717506</d6p1:double><d6p1:double>0.41263079610340331</d6p1:double><d6p1:double>0.15752344715085245</d6p1:double><d6p1:double>-0.67425840704000917</d6p1:double><d6p1:double>0.13333954552158384</d6p1:double><d6p1:double>0.42767241698085262</d6p1:double><d6p1:double>0.608608220568541</d6p1:double><d6p1:double>0.57084669617485739</d6p1:double><d6p1:double>0.086794350655339622</d6p1:double></Weights></Neuron><Neuron><Bias>-1.000356349440749</Bias><Output>-1</Output><Weights xmlns:d6p1="http://schemas.microsoft.com/2003/10/Serialization/Arrays"><d6p1:double>0.73869886436426835</d6p1:double><d6p1:double>0.753503812033498</d6p1:double><d6p1:double>0.12316081680583077</d6p1:double><d6p1:double>0.35692691906883939</d6p1:double><d6p1:double>0.68010204301496668</d6p1:double><d6p1:double>0.80191683152396132</d6p1:double><d6p1:double>1.3268250273588735</d6p1:double><d6p1:double>1.1065042316136833</d6p1:double><d6p1:double>0.75070295430356837</d6p1:double><d6p1:double>-0.00476330195928384</d6p1:double><d6p1:double>-0.40601052635411183</d6p1:double><d6p1:double>0.83467503719658753</d6p1:double><d6p1:double>0.68161051151127827</d6p1:double><d6p1:double>0.77783329705523807</d6p1:double><d6p1:double>0.90095873734354615</d6p1:double><d6p1:double>0.67558643599365265</d6p1:double><d6p1:double>0.8726204405126049</d6p1:double><d6p1:double>-0.42945046435077516</d6p1:double><d6p1:double>0.29288166539336219</d6p1:double><d6p1:double>0.18231983928677439</d6p1:double><d6p1:double>0.3756090262902978</d6p1:double><d6p1:double>0.74129713743845971</d6p1:double><d6p1:double>1.1768139968005873</d6p1:double><d6p1:double>0.34699328446767608</d6p1:double><d6p1:double>0.2124055667122291</d6p1:double></Weights></Neuron><Neuron><Bias>-0.99947959278196341</Bias><Output>1</Output><Weights xmlns:d6p1="http://schemas.microsoft.com/2003/10/Serialization/Arrays"><d6p1:double>-0.45794299778068948</d6p1:double><d6p1:double>0.74061206373213184</d6p1:double><d6p1:double>0.18417851098174187</d6p1:double><d6p1:double>0.7839361345973811</d6p1:double><d6p1:double>0.20476377591655046</d6p1:double><d6p1:double>0.64681275092181556</d6p1:double><d6p1:double>-0.25390879709907355</d6p1:double><d6p1:double>1.1727371854432627</d6p1:double><d6p1:double>0.77934772717924117</d6p1:double><d6p1:double>0.91790846353303623</d6p1:double><d6p1:double>0.89035137544375831</d6p1:double><d6p1:double>0.34903763958104156</d6p1:double><d6p1:double>0.9642111992003638</d6p1:double><d6p1:double>0.2847208695630295</d6p1:double><d6p1:double>1.0717252288011916</d6p1:double><d6p1:double>0.90691711935610331</d6p1:double><d6p1:double>0.55675932071934353</d6p1:double><d6p1:double>1.1981905179104575</d6p1:double><d6p1:double>0.48104760061647733</d6p1:double><d6p1:double>0.10770428118335178</d6p1:double><d6p1:double>0.13169191704108557</d6p1:double><d6p1:double>0.39886295684969669</d6p1:double><d6p1:double>0.16349212480040431</d6p1:double><d6p1:double>0.079585656440489386</d6p1:double><d6p1:double>0.49980660918595649</d6p1:double></Weights></Neuron><Neuron><Bias>-0.997621420785483</Bias><Output>1</Output><Weights xmlns:d6p1="http://schemas.microsoft.com/2003/10/Serialization/Arrays"><d6p1:double>-0.44162605266365895</d6p1:double><d6p1:double>0.659564894485352</d6p1:double><d6p1:double>0.41182778644228452</d6p1:double><d6p1:double>0.41753585608138338</d6p1:double><d6p1:double>0.33653779155382929</d6p1:double><d6p1:double>1.2728049621511797</d6p1:double><d6p1:double>-0.41263182136917043</d6p1:double><d6p1:double>0.19149337172674569</d6p1:double><d6p1:double>0.64247032072840393</d6p1:double><d6p1:double>0.91518433528033361</d6p1:double><d6p1:double>0.54611018780182652</d6p1:double><d6p1:double>0.96468328336350728</d6p1:double><d6p1:double>0.61560653391761366</d6p1:double><d6p1:double>0.50453057410056523</d6p1:double><d6p1:double>1.2793044026075773</d6p1:double><d6p1:double>0.41996821695853354</d6p1:double><d6p1:double>0.21798816219968431</d6p1:double><d6p1:double>0.041166338386931386</d6p1:double><d6p1:double>0.16654643239754763</d6p1:double><d6p1:double>0.57131670944869883</d6p1:double><d6p1:double>-0.044350528829211373</d6p1:double><d6p1:double>-0.030837520173845851</d6p1:double><d6p1:double>0.33511880932579069</d6p1:double><d6p1:double>1.0982517904801627</d6p1:double><d6p1:double>0.054580373156900737</d6p1:double></Weights></Neuron><Neuron><Bias>-0.99953764585328075</Bias><Output>1</Output><Weights xmlns:d6p1="http://schemas.microsoft.com/2003/10/Serialization/Arrays"><d6p1:double>0.015676490149317327</d6p1:double><d6p1:double>0.56630951937835994</d6p1:double><d6p1:double>1.0976158480569851</d6p1:double><d6p1:double>0.20053565772742513</d6p1:double><d6p1:double>0.73059246773321773</d6p1:double><d6p1:double>-0.30041320189965615</d6p1:double><d6p1:double>0.3427485498208292</d6p1:double><d6p1:double>0.61202203226516128</d6p1:double><d6p1:double>0.66425105980112464</d6p1:double><d6p1:double>1.0237829469450506</d6p1:double><d6p1:double>0.0065434372493884179</d6p1:double><d6p1:double>0.34529657609173531</d6p1:double><d6p1:double>-0.27962609597136634</d6p1:double><d6p1:double>-0.60226065207962542</d6p1:double><d6p1:double>0.86092277973613585</d6p1:double><d6p1:double>0.4345368902274806</d6p1:double><d6p1:double>-0.011201275255883651</d6p1:double><d6p1:double>0.99476725644613606</d6p1:double><d6p1:double>-0.27109394274030663</d6p1:double><d6p1:double>0.38637732918668316</d6p1:double><d6p1:double>0.29351986907520328</d6p1:double><d6p1:double>-0.12841709164560172</d6p1:double><d6p1:double>-0.26759866420708833</d6p1:double><d6p1:double>1.2362850680695328</d6p1:double><d6p1:double>-0.098429979394339451</d6p1:double></Weights></Neuron><Neuron><Bias>-0.001057413094868929</Bias><Output>-1</Output><Weights xmlns:d6p1="http://schemas.microsoft.com/2003/10/Serialization/Arrays"><d6p1:double>0.65808055954250522</d6p1:double><d6p1:double>0.39880997272700158</d6p1:double><d6p1:double>0.61394597714339449</d6p1:double><d6p1:double>0.46381387219574827</d6p1:double><d6p1:double>1.0435511132960575</d6p1:double><d6p1:double>0.53304388408481174</d6p1:double><d6p1:double>0.2332820038422708</d6p1:double><d6p1:double>0.71642398709419775</d6p1:double><d6p1:double>1.2945408300907415</d6p1:double><d6p1:double>0.43857206297273021</d6p1:double><d6p1:double>-0.4429298742685106</d6p1:double><d6p1:double>-1.0155435333089486</d6p1:double><d6p1:double>-0.17005826729625736</d6p1:double><d6p1:double>0.59713695638107456</d6p1:double><d6p1:double>0.33083297218878066</d6p1:double><d6p1:double>-0.95119634229862171</d6p1:double><d6p1:double>-0.090081895569079543</d6p1:double><d6p1:double>0.15603692764034618</d6p1:double><d6p1:double>-0.28393581295929793</d6p1:double><d6p1:double>0.42565687252310408</d6p1:double><d6p1:double>-0.1569397567747961</d6p1:double><d6p1:double>0.46934986253770444</d6p1:double><d6p1:double>0.64800140637814663</d6p1:double><d6p1:double>0.42179912965754712</d6p1:double><d6p1:double>0.45732297835725949</d6p1:double></Weights></Neuron><Neuron><Bias>0.00011608629963250155</Bias><Output>-1</Output><Weights xmlns:d6p1="http://schemas.microsoft.com/2003/10/Serialization/Arrays"><d6p1:double>0.38045790918120842</d6p1:double><d6p1:double>1.1998005320209069</d6p1:double><d6p1:double>0.80832667140569447</d6p1:double><d6p1:double>-0.34629661951176133</d6p1:double><d6p1:double>0.62133037964498317</d6p1:double><d6p1:double>0.55852914095622574</d6p1:double><d6p1:double>0.91352241860609085</d6p1:double><d6p1:double>0.51222293769753613</d6p1:double><d6p1:double>0.19724208856835332</d6p1:double><d6p1:double>0.41331626257656262</d6p1:double><d6p1:double>0.21374585877556854</d6p1:double><d6p1:double>0.3903903727320665</d6p1:double><d6p1:double>0.04428770319563545</d6p1:double><d6p1:double>1.0554090115361523</d6p1:double><d6p1:double>0.28853711111481595</d6p1:double><d6p1:double>0.24320109282523028</d6p1:double><d6p1:double>0.51140777657802494</d6p1:double><d6p1:double>-0.1192297559812126</d6p1:double><d6p1:double>0.40626704276594022</d6p1:double><d6p1:double>1.171653822250847</d6p1:double><d6p1:double>0.36214386029090939</d6p1:double><d6p1:double>0.26071586063582952</d6p1:double><d6p1:double>0.882018547827037</d6p1:double><d6p1:double>0.17517554998984605</d6p1:double><d6p1:double>1.2527022569232427</d6p1:double></Weights></Neuron><Neuron><Bias>-1.000509620067606</Bias><Output>-1</Output><Weights xmlns:d6p1="http://schemas.microsoft.com/2003/10/Serialization/Arrays"><d6p1:double>1.1306488890640005</d6p1:double><d6p1:double>1.0326250688445726</d6p1:double><d6p1:double>-0.01323239731727595</d6p1:double><d6p1:double>0.81159923347326091</d6p1:double><d6p1:double>0.79956498128931675</d6p1:double><d6p1:double>0.34392970415501312</d6p1:double><d6p1:double>0.69459975363121562</d6p1:double><d6p1:double>0.59960544108912206</d6p1:double><d6p1:double>0.79853703774446938</d6p1:double><d6p1:double>0.46019630505053771</d6p1:double><d6p1:double>1.2164423502446777</d6p1:double><d6p1:double>0.50517158928502459</d6p1:double><d6p1:double>0.027417123825953273</d6p1:double><d6p1:double>0.39985820789605836</d6p1:double><d6p1:double>-0.011867922360651382</d6p1:double><d6p1:double>0.10793941715480147</d6p1:double><d6p1:double>0.26370243548336897</d6p1:double><d6p1:double>0.902821161179764</d6p1:double><d6p1:double>0.58437511571782919</d6p1:double><d6p1:double>1.2495360354070455</d6p1:double><d6p1:double>0.38353944271229645</d6p1:double><d6p1:double>0.20066076830000082</d6p1:double><d6p1:double>-0.24243902200336426</d6p1:double><d6p1:double>0.36890567011121961</d6p1:double><d6p1:double>1.10717942172843</d6p1:double></Weights></Neuron><Neuron><Bias>-0.00066764449739459687</Bias><Output>1</Output><Weights xmlns:d6p1="http://schemas.microsoft.com/2003/10/Serialization/Arrays"><d6p1:double>-1.1010006286677376</d6p1:double><d6p1:double>0.26533594372262542</d6p1:double><d6p1:double>0.047454724003790166</d6p1:double><d6p1:double>0.47491907852287879</d6p1:double><d6p1:double>0.44458644645612105</d6p1:double><d6p1:double>0.6078760650971935</d6p1:double><d6p1:double>-0.094226611733070009</d6p1:double><d6p1:double>0.73927061830576923</d6p1:double><d6p1:double>0.27508646618520738</d6p1:double><d6p1:double>0.54032717287995835</d6p1:double><d6p1:double>0.30753402400837915</d6p1:double><d6p1:double>-0.010262117892595155</d6p1:double><d6p1:double>0.46996111660089135</d6p1:double><d6p1:double>1.3451433839301421</d6p1:double><d6p1:double>-0.15521945038513932</d6p1:double><d6p1:double>0.60752993788091436</d6p1:double><d6p1:double>0.12960524809340743</d6p1:double><d6p1:double>1.2251459438149674</d6p1:double><d6p1:double>0.73225324024413641</d6p1:double><d6p1:double>0.22341190434037775</d6p1:double><d6p1:double>-0.14167443624094134</d6p1:double><d6p1:double>1.3338628517316187</d6p1:double><d6p1:double>0.62854835365029738</d6p1:double><d6p1:double>-0.07506252817947201</d6p1:double><d6p1:double>-0.74105408711533483</d6p1:double></Weights></Neuron><Neuron><Bias>-1.0010090946208035</Bias><Output>-1</Output><Weights xmlns:d6p1="http://schemas.microsoft.com/2003/10/Serialization/Arrays"><d6p1:double>0.906807729723043</d6p1:double><d6p1:double>0.80816994791970753</d6p1:double><d6p1:double>0.0073420485268623215</d6p1:double><d6p1:double>0.90663051772866932</d6p1:double><d6p1:double>0.78191233962289919</d6p1:double><d6p1:double>-0.054290881665251561</d6p1:double><d6p1:double>-0.491731747782716</d6p1:double><d6p1:double>0.20231003003359604</d6p1:double><d6p1:double>0.53605989387008557</d6p1:double><d6p1:double>0.32409775038438776</d6p1:double><d6p1:double>0.62014157261847191</d6p1:double><d6p1:double>1.4464063287894022</d6p1:double><d6p1:double>-0.40755997651356157</d6p1:double><d6p1:double>0.4353934609163872</d6p1:double><d6p1:double>-0.2143389617930283</d6p1:double><d6p1:double>0.37814445272820235</d6p1:double><d6p1:double>0.10204008844911751</d6p1:double><d6p1:double>0.18688868447587195</d6p1:double><d6p1:double>-0.43108971333362406</d6p1:double><d6p1:double>-0.66934212266350435</d6p1:double><d6p1:double>-0.34251043337358389</d6p1:double><d6p1:double>0.95847663281115159</d6p1:double><d6p1:double>0.51007999661043024</d6p1:double><d6p1:double>-0.31974274490227084</d6p1:double><d6p1:double>0.099390832049642663</d6p1:double></Weights></Neuron><Neuron><Bias>-1.0001762631500575</Bias><Output>-1</Output><Weights xmlns:d6p1="http://schemas.microsoft.com/2003/10/Serialization/Arrays"><d6p1:double>1.0471842008794137</d6p1:double><d6p1:double>0.013458576211820334</d6p1:double><d6p1:double>0.17525285788495645</d6p1:double><d6p1:double>-0.13707907028962227</d6p1:double><d6p1:double>0.38230734228298768</d6p1:double><d6p1:double>1.0595446630863721</d6p1:double><d6p1:double>0.30806499117770375</d6p1:double><d6p1:double>0.50425121167999554</d6p1:double><d6p1:double>0.12728532862014091</d6p1:double><d6p1:double>0.3037604799532721</d6p1:double><d6p1:double>0.24923319126355956</d6p1:double><d6p1:double>0.79680424420272089</d6p1:double><d6p1:double>-0.32159276922151636</d6p1:double><d6p1:double>-0.16956332052576503</d6p1:double><d6p1:double>0.037514475159354424</d6p1:double><d6p1:double>0.49283911476828218</d6p1:double><d6p1:double>0.48939297306247426</d6p1:double><d6p1:double>0.67976930113289435</d6p1:double><d6p1:double>0.5601185758793803</d6p1:double><d6p1:double>-0.48526742509476961</d6p1:double><d6p1:double>0.91969868664483889</d6p1:double><d6p1:double>0.19181495352911157</d6p1:double><d6p1:double>0.32393655521746245</d6p1:double><d6p1:double>0.95633104804571212</d6p1:double><d6p1:double>0.61761536005536777</d6p1:double></Weights></Neuron><Neuron><Bias>-0.99960936732974626</Bias><Output>1</Output><Weights xmlns:d6p1="http://schemas.microsoft.com/2003/10/Serialization/Arrays"><d6p1:double>-0.19660443306581776</d6p1:double><d6p1:double>1.0250939271881829</d6p1:double><d6p1:double>0.80827939327157683</d6p1:double><d6p1:double>1.1827872760608882</d6p1:double><d6p1:double>-0.056231614339482358</d6p1:double><d6p1:double>0.34845667015573922</d6p1:double><d6p1:double>-0.028368683202479348</d6p1:double><d6p1:double>0.668922867138005</d6p1:double><d6p1:double>1.0043250143168527</d6p1:double><d6p1:double>0.8500689339555737</d6p1:double><d6p1:double>0.06735584322784377</d6p1:double><d6p1:double>0.24321482917381768</d6p1:double><d6p1:double>1.2647114699020925</d6p1:double><d6p1:double>0.68645352727757358</d6p1:double><d6p1:double>1.1875154108199797</d6p1:double><d6p1:double>0.647769204366099</d6p1:double><d6p1:double>0.45140245079174313</d6p1:double><d6p1:double>0.025072326684803733</d6p1:double><d6p1:double>0.7784089733805456</d6p1:double><d6p1:double>0.62567855347572587</d6p1:double><d6p1:double>-0.12516109104683829</d6p1:double><d6p1:double>0.57643963868014636</d6p1:double><d6p1:double>0.60090331118359785</d6p1:double><d6p1:double>0.60912535186714911</d6p1:double><d6p1:double>-0.30463633818274405</d6p1:double></Weights></Neuron><Neuron><Bias>-0.99929499446163161</Bias><Output>-1</Output><Weights xmlns:d6p1="http://schemas.microsoft.com/2003/10/Serialization/Arrays"><d6p1:double>0.26595755429483831</d6p1:double><d6p1:double>0.26384087027538178</d6p1:double><d6p1:double>0.2534861138555648</d6p1:double><d6p1:double>-0.29367064971525009</d6p1:double><d6p1:double>0.72586943782358437</d6p1:double><d6p1:double>0.12100291436157172</d6p1:double><d6p1:double>0.24860843144682968</d6p1:double><d6p1:double>-0.1002605619681667</d6p1:double><d6p1:double>1.1256339085033387</d6p1:double><d6p1:double>0.029102491974955114</d6p1:double><d6p1:double>-0.78391832787893734</d6p1:double><d6p1:double>-0.0044216961624534267</d6p1:double><d6p1:double>0.86974664075728358</d6p1:double><d6p1:double>-0.13471100196556421</d6p1:double><d6p1:double>-0.18775613534609717</d6p1:double><d6p1:double>0.252635539658234</d6p1:double><d6p1:double>0.65199699714722248</d6p1:double><d6p1:double>0.20501952667542694</d6p1:double><d6p1:double>-0.16738991057413855</d6p1:double><d6p1:double>-0.16413597562844673</d6p1:double><d6p1:double>1.8828964867316949</d6p1:double><d6p1:double>-1.0660706591549467</d6p1:double><d6p1:double>0.38767593549266</d6p1:double><d6p1:double>-0.35351174911488942</d6p1:double><d6p1:double>-0.032317346044519218</d6p1:double></Weights></Neuron><Neuron><Bias>-0.0001889867096443485</Bias><Output>-1</Output><Weights xmlns:d6p1="http://schemas.microsoft.com/2003/10/Serialization/Arrays"><d6p1:double>0.27666671995216741</d6p1:double><d6p1:double>1.22972643024638</d6p1:double><d6p1:double>-0.48379212848783715</d6p1:double><d6p1:double>0.11107302174198914</d6p1:double><d6p1:double>-0.075060058530700191</d6p1:double><d6p1:double>1.0318845470798377</d6p1:double><d6p1:double>0.72384554335752749</d6p1:double><d6p1:double>-0.19752197792989248</d6p1:double><d6p1:double>-0.34052149987146468</d6p1:double><d6p1:double>0.33588424957150875</d6p1:double><d6p1:double>0.93440269555319388</d6p1:double><d6p1:double>1.3185137659954522</d6p1:double><d6p1:double>-0.32615523211981551</d6p1:double><d6p1:double>0.65465644407717671</d6p1:double><d6p1:double>1.3689707302786789</d6p1:double><d6p1:double>0.18751116750570343</d6p1:double><d6p1:double>0.73242178889886478</d6p1:double><d6p1:double>0.10224826524404239</d6p1:double><d6p1:double>0.27894526048806884</d6p1:double><d6p1:double>0.20100198419016643</d6p1:double><d6p1:double>0.37124550432760817</d6p1:double><d6p1:double>0.76888922546381111</d6p1:double><d6p1:double>0.0704715689106694</d6p1:double><d6p1:double>0.74393288057053919</d6p1:double><d6p1:double>0.919004543214416</d6p1:double></Weights></Neuron><Neuron><Bias>-0.0010698859442349398</Bias><Output>-1</Output><Weights xmlns:d6p1="http://schemas.microsoft.com/2003/10/Serialization/Arrays"><d6p1:double>0.46286008747328183</d6p1:double><d6p1:double>1.0373191342739643</d6p1:double><d6p1:double>-0.12891020375991388</d6p1:double><d6p1:double>0.13019645033889865</d6p1:double><d6p1:double>1.4238868890758611</d6p1:double><d6p1:double>0.38892618131074469</d6p1:double><d6p1:double>0.45593277826690615</d6p1:double><d6p1:double>0.57858986286339587</d6p1:double><d6p1:double>0.089509203575714943</d6p1:double><d6p1:double>0.047062604086547208</d6p1:double><d6p1:double>-0.39347764212847575</d6p1:double><d6p1:double>0.36962768586832295</d6p1:double><d6p1:double>-0.36181922320372328</d6p1:double><d6p1:double>0.18372951032470383</d6p1:double><d6p1:double>0.61227271265707373</d6p1:double><d6p1:double>0.83232419606179009</d6p1:double><d6p1:double>0.10674634068370116</d6p1:double><d6p1:double>0.42063313358778687</d6p1:double><d6p1:double>0.79154029119746461</d6p1:double><d6p1:double>0.13741441065346027</d6p1:double><d6p1:double>0.030082596545192283</d6p1:double><d6p1:double>0.77986392009945515</d6p1:double><d6p1:double>0.21830321816228998</d6p1:double><d6p1:double>-0.33615503102011007</d6p1:double><d6p1:double>0.6263972472095034</d6p1:double></Weights></Neuron><Neuron><Bias>-0.99949050324813415</Bias><Output>1</Output><Weights xmlns:d6p1="http://schemas.microsoft.com/2003/10/Serialization/Arrays"><d6p1:double>-0.089775901350163778</d6p1:double><d6p1:double>0.19304753208624453</d6p1:double><d6p1:double>0.606581739041883</d6p1:double><d6p1:double>0.17362595451164714</d6p1:double><d6p1:double>0.64885313473904327</d6p1:double><d6p1:double>0.052346028344810253</d6p1:double><d6p1:double>0.95998492633753907</d6p1:double><d6p1:double>0.0098181125747780918</d6p1:double><d6p1:double>0.7360515513176592</d6p1:double><d6p1:double>0.97562274614915057</d6p1:double><d6p1:double>0.45829416601071571</d6p1:double><d6p1:double>1.1915049917510094</d6p1:double><d6p1:double>1.0311371123126047</d6p1:double><d6p1:double>0.21249540663922978</d6p1:double><d6p1:double>0.44918897255298895</d6p1:double><d6p1:double>0.42209291318788877</d6p1:double><d6p1:double>0.95706693491750661</d6p1:double><d6p1:double>0.28590164253264422</d6p1:double><d6p1:double>1.0037668852865052</d6p1:double><d6p1:double>0.44369903775530878</d6p1:double><d6p1:double>0.19821001598067917</d6p1:double><d6p1:double>0.13603024058220714</d6p1:double><d6p1:double>0.68166449082442315</d6p1:double><d6p1:double>1.1692545304908317</d6p1:double><d6p1:double>0.39407697642782508</d6p1:double></Weights></Neuron><Neuron><Bias>-1.1688034936064259E-05</Bias><Output>-1</Output><Weights xmlns:d6p1="http://schemas.microsoft.com/2003/10/Serialization/Arrays"><d6p1:double>0.51799203428704077</d6p1:double><d6p1:double>1.07296858654217</d6p1:double><d6p1:double>0.963909783182798</d6p1:double><d6p1:double>0.52125886548559319</d6p1:double><d6p1:double>0.86873157911739451</d6p1:double><d6p1:double>0.31735363286465329</d6p1:double><d6p1:double>0.95753101684493891</d6p1:double><d6p1:double>-0.20555373014777503</d6p1:double><d6p1:double>0.18316193045345155</d6p1:double><d6p1:double>0.27686009280368584</d6p1:double><d6p1:double>-0.13456167614989772</d6p1:double><d6p1:double>0.44461494494543774</d6p1:double><d6p1:double>0.6151004018394759</d6p1:double><d6p1:double>0.76008057937949458</d6p1:double><d6p1:double>0.3594793080344369</d6p1:double><d6p1:double>0.796530086266482</d6p1:double><d6p1:double>0.47963255622733175</d6p1:double><d6p1:double>0.40408771915066477</d6p1:double><d6p1:double>0.94918925604916371</d6p1:double><d6p1:double>0.24169556069510575</d6p1:double><d6p1:double>1.2612949221521539</d6p1:double><d6p1:double>0.13201347707707295</d6p1:double><d6p1:double>0.602670317753487</d6p1:double><d6p1:double>0.56727947382860011</d6p1:double><d6p1:double>0.20954541788704384</d6p1:double></Weights></Neuron><Neuron><Bias>-1.0007626089353114</Bias><Output>-1</Output><Weights xmlns:d6p1="http://schemas.microsoft.com/2003/10/Serialization/Arrays"><d6p1:double>0.76004276537721716</d6p1:double><d6p1:double>-0.34382112846363128</d6p1:double><d6p1:double>0.12375784098863635</d6p1:double><d6p1:double>0.15752356546380175</d6p1:double><d6p1:double>-0.283842924704815</d6p1:double><d6p1:double>0.88590209289769428</d6p1:double><d6p1:double>0.59449938563558</d6p1:double><d6p1:double>0.28456479630088927</d6p1:double><d6p1:double>0.52147710492741328</d6p1:double><d6p1:double>0.51028757708555361</d6p1:double><d6p1:double>0.5973765540066247</d6p1:double><d6p1:double>0.81063373865046051</d6p1:double><d6p1:double>0.066836908184938051</d6p1:double><d6p1:double>0.14490965547846191</d6p1:double><d6p1:double>1.3411714968451607</d6p1:double><d6p1:double>0.59828771478862364</d6p1:double><d6p1:double>-0.48453932618038559</d6p1:double><d6p1:double>1.534222230903465</d6p1:double><d6p1:double>0.29808673850412021</d6p1:double><d6p1:double>-0.4309552095353078</d6p1:double><d6p1:double>0.734528469479124</d6p1:double><d6p1:double>0.47394086689113196</d6p1:double><d6p1:double>0.49913219957099186</d6p1:double><d6p1:double>-0.121109494360678</d6p1:double><d6p1:double>-0.57566892322526231</d6p1:double></Weights></Neuron><Neuron><Bias>-0.99981510761162007</Bias><Output>-1</Output><Weights xmlns:d6p1="http://schemas.microsoft.com/2003/10/Serialization/Arrays"><d6p1:double>-0.39484808694959678</d6p1:double><d6p1:double>-0.20261310812259289</d6p1:double><d6p1:double>1.2844083071611583</d6p1:double><d6p1:double>-0.94332416853583623</d6p1:double><d6p1:double>0.93282673686482076</d6p1:double><d6p1:double>0.38628825340448381</d6p1:double><d6p1:double>1.0807607026511195</d6p1:double><d6p1:double>0.033578293460418324</d6p1:double><d6p1:double>0.22203117103884709</d6p1:double><d6p1:double>0.2402415136939853</d6p1:double><d6p1:double>-0.58029251519612823</d6p1:double><d6p1:double>-1.4534107004420607</d6p1:double><d6p1:double>0.85685377450107514</d6p1:double><d6p1:double>0.84715807897202877</d6p1:double><d6p1:double>-0.57784167939976938</d6p1:double><d6p1:double>0.3477156989874583</d6p1:double><d6p1:double>1.1656884335337319</d6p1:double><d6p1:double>1.0687403288141875</d6p1:double><d6p1:double>-0.081796269023230964</d6p1:double><d6p1:double>0.35445097755144123</d6p1:double><d6p1:double>0.12492715377104642</d6p1:double><d6p1:double>-0.047518216644393818</d6p1:double><d6p1:double>0.63512872309050528</d6p1:double><d6p1:double>0.13829742521352342</d6p1:double><d6p1:double>-0.34536900222422917</d6p1:double></Weights></Neuron><Neuron><Bias>0.000785421669371931</Bias><Output>1</Output><Weights xmlns:d6p1="http://schemas.microsoft.com/2003/10/Serialization/Arrays"><d6p1:double>-0.26565129857960379</d6p1:double><d6p1:double>0.92698963348393215</d6p1:double><d6p1:double>0.706221636008182</d6p1:double><d6p1:double>0.21966030333728453</d6p1:double><d6p1:double>0.50143942917823381</d6p1:double><d6p1:double>0.815818924664306</d6p1:double><d6p1:double>0.9794240586845987</d6p1:double><d6p1:double>0.73224573151797279</d6p1:double><d6p1:double>0.59148761706575781</d6p1:double><d6p1:double>0.96213809718572163</d6p1:double><d6p1:double>1.0229368487011898</d6p1:double><d6p1:double>0.04895677013385142</d6p1:double><d6p1:double>-0.11500148866074705</d6p1:double><d6p1:double>0.62938794281543564</d6p1:double><d6p1:double>0.56523352918296732</d6p1:double><d6p1:double>0.15160256593009469</d6p1:double><d6p1:double>0.66426766189098607</d6p1:double><d6p1:double>0.24724792286793854</d6p1:double><d6p1:double>0.75863646998743128</d6p1:double><d6p1:double>-0.12644183488939673</d6p1:double><d6p1:double>0.547251105972374</d6p1:double><d6p1:double>1.2029126868329565</d6p1:double><d6p1:double>0.15199037902185578</d6p1:double><d6p1:double>0.70086521318479</d6p1:double><d6p1:double>0.222035571629695</d6p1:double></Weights></Neuron><Neuron><Bias>-0.99980997566416507</Bias><Output>-1</Output><Weights xmlns:d6p1="http://schemas.microsoft.com/2003/10/Serialization/Arrays"><d6p1:double>0.0820923583247892</d6p1:double><d6p1:double>0.524324905164224</d6p1:double><d6p1:double>0.41711119243531058</d6p1:double><d6p1:double>0.83380345137200107</d6p1:double><d6p1:double>0.84733789966880657</d6p1:double><d6p1:double>0.56397246109264632</d6p1:double><d6p1:double>0.94338690547602833</d6p1:double><d6p1:double>0.82931877458806313</d6p1:double><d6p1:double>0.2993989642577749</d6p1:double><d6p1:double>0.51114121486346642</d6p1:double><d6p1:double>0.45648787029079785</d6p1:double><d6p1:double>1.036632617219897</d6p1:double><d6p1:double>0.44544807650071877</d6p1:double><d6p1:double>0.060484972296332137</d6p1:double><d6p1:double>0.2221991112219871</d6p1:double><d6p1:double>0.58904428068082215</d6p1:double><d6p1:double>1.1171835547080537</d6p1:double><d6p1:double>0.55217221155756036</d6p1:double><d6p1:double>0.19407728267239288</d6p1:double><d6p1:double>0.60907836186540931</d6p1:double><d6p1:double>0.51700768621134108</d6p1:double><d6p1:double>0.63064017277448281</d6p1:double><d6p1:double>-0.297209205598483</d6p1:double><d6p1:double>0.30031115289520033</d6p1:double><d6p1:double>0.45213490982232613</d6p1:double></Weights></Neuron><Neuron><Bias>-1.0003422259062615</Bias><Output>-1</Output><Weights xmlns:d6p1="http://schemas.microsoft.com/2003/10/Serialization/Arrays"><d6p1:double>0.48203822970927079</d6p1:double><d6p1:double>-0.15100778684022381</d6p1:double><d6p1:double>0.23245842887304993</d6p1:double><d6p1:double>0.16124883361964237</d6p1:double><d6p1:double>1.283534843003868</d6p1:double><d6p1:double>0.3184408321774429</d6p1:double><d6p1:double>0.75092395350522623</d6p1:double><d6p1:double>0.32209011191943909</d6p1:double><d6p1:double>0.086123390509246112</d6p1:double><d6p1:double>-0.034461910143035866</d6p1:double><d6p1:double>0.48094361274363812</d6p1:double><d6p1:double>0.867138721011484</d6p1:double><d6p1:double>-0.27169589442745423</d6p1:double><d6p1:double>0.972026167017289</d6p1:double><d6p1:double>-0.15582765947983057</d6p1:double><d6p1:double>0.53420473416739955</d6p1:double><d6p1:double>0.29143582954071656</d6p1:double><d6p1:double>0.8140531240581993</d6p1:double><d6p1:double>0.84372013814383851</d6p1:double><d6p1:double>0.57168484019427068</d6p1:double><d6p1:double>0.88543142347051207</d6p1:double><d6p1:double>0.98299798891359313</d6p1:double><d6p1:double>1.0534734684335767</d6p1:double><d6p1:double>-0.78580787704960942</d6p1:double><d6p1:double>-0.21964134805022176</d6p1:double></Weights></Neuron><Neuron><Bias>-1.0004628186508768</Bias><Output>-1</Output><Weights xmlns:d6p1="http://schemas.microsoft.com/2003/10/Serialization/Arrays"><d6p1:double>1.037049945700075</d6p1:double><d6p1:double>-0.22399919964903445</d6p1:double><d6p1:double>0.71452251632000763</d6p1:double><d6p1:double>0.24624236186269427</d6p1:double><d6p1:double>0.613120088231539</d6p1:double><d6p1:double>-0.074596331167054442</d6p1:double><d6p1:double>1.0298157475394947</d6p1:double><d6p1:double>0.22155092687224756</d6p1:double><d6p1:double>0.87840690653820319</d6p1:double><d6p1:double>1.0230478022826759</d6p1:double><d6p1:double>-0.1513176275417463</d6p1:double><d6p1:double>0.6450869366067663</d6p1:double><d6p1:double>0.60638123901433616</d6p1:double><d6p1:double>0.18694376789796721</d6p1:double><d6p1:double>-0.15778727852093027</d6p1:double><d6p1:double>0.25637138393582082</d6p1:double><d6p1:double>0.66070390396699674</d6p1:double><d6p1:double>0.59100260291240092</d6p1:double><d6p1:double>-0.17199142795398945</d6p1:double><d6p1:double>0.089159225271861389</d6p1:double><d6p1:double>0.16172406519753685</d6p1:double><d6p1:double>0.69953376838133419</d6p1:double><d6p1:double>0.86278032481622735</d6p1:double><d6p1:double>0.2676755419398788</d6p1:double><d6p1:double>0.8288568112461191</d6p1:double></Weights></Neuron><Neuron><Bias>-0.99950106661475535</Bias><Output>1</Output><Weights xmlns:d6p1="http://schemas.microsoft.com/2003/10/Serialization/Arrays"><d6p1:double>0.7624264761182864</d6p1:double><d6p1:double>-0.28328028962181578</d6p1:double><d6p1:double>1.168226183416408</d6p1:double><d6p1:double>0.038315194370733559</d6p1:double><d6p1:double>-0.47012044861222324</d6p1:double><d6p1:double>-0.12340843690021286</d6p1:double><d6p1:double>0.80579377853870449</d6p1:double><d6p1:double>0.41757274756992319</d6p1:double><d6p1:double>0.16600767742727851</d6p1:double><d6p1:double>0.48603421764947952</d6p1:double><d6p1:double>-0.63918307881489422</d6p1:double><d6p1:double>-0.92272909234582245</d6p1:double><d6p1:double>1.2276184765049238</d6p1:double><d6p1:double>0.86047619557824639</d6p1:double><d6p1:double>0.30972393155353084</d6p1:double><d6p1:double>0.328169866378794</d6p1:double><d6p1:double>0.87883749088894481</d6p1:double><d6p1:double>-0.17950560236699398</d6p1:double><d6p1:double>-0.023089084352133995</d6p1:double><d6p1:double>0.28859997470120885</d6p1:double><d6p1:double>0.13439625686204748</d6p1:double><d6p1:double>-0.062381198957780111</d6p1:double><d6p1:double>0.754319711345053</d6p1:double><d6p1:double>0.43625934350808265</d6p1:double><d6p1:double>-0.10991573827334518</d6p1:double></Weights></Neuron><Neuron><Bias>-0.99898015718361288</Bias><Output>1</Output><Weights xmlns:d6p1="http://schemas.microsoft.com/2003/10/Serialization/Arrays"><d6p1:double>0.09900569159765496</d6p1:double><d6p1:double>-0.12595948058463236</d6p1:double><d6p1:double>0.89659976167530164</d6p1:double><d6p1:double>-0.52226081430865245</d6p1:double><d6p1:double>0.31572082752816344</d6p1:double><d6p1:double>0.11803566587941519</d6p1:double><d6p1:double>0.56178327369533676</d6p1:double><d6p1:double>-0.16555792775646125</d6p1:double><d6p1:double>0.64712476352876525</d6p1:double><d6p1:double>0.838191006443684</d6p1:double><d6p1:double>0.35772920374727213</d6p1:double><d6p1:double>0.23786262673264394</d6p1:double><d6p1:double>1.062907353149795</d6p1:double><d6p1:double>0.9763832585444927</d6p1:double><d6p1:double>2.0959647153679244</d6p1:double><d6p1:double>-0.031358440094492367</d6p1:double><d6p1:double>0.26098417169179455</d6p1:double><d6p1:double>-0.031493881543832279</d6p1:double><d6p1:double>0.63777535968621635</d6p1:double><d6p1:double>0.3011523527795994</d6p1:double><d6p1:double>0.20015175655142436</d6p1:double><d6p1:double>0.51513500082588881</d6p1:double><d6p1:double>0.329393734241025</d6p1:double><d6p1:double>0.44597452136391852</d6p1:double><d6p1:double>0.13257358674427774</d6p1:double></Weights></Neuron><Neuron><Bias>-0.999780803679914</Bias><Output>1</Output><Weights xmlns:d6p1="http://schemas.microsoft.com/2003/10/Serialization/Arrays"><d6p1:double>-0.26687707506008934</d6p1:double><d6p1:double>-0.19750999810006589</d6p1:double><d6p1:double>-0.057614989029911176</d6p1:double><d6p1:double>0.88853041785984244</d6p1:double><d6p1:double>0.037760368928755617</d6p1:double><d6p1:double>-0.63396809649182828</d6p1:double><d6p1:double>-0.65046059526338507</d6p1:double><d6p1:double>0.57352478709637067</d6p1:double><d6p1:double>-0.30556555115976197</d6p1:double><d6p1:double>-0.99360877336732689</d6p1:double><d6p1:double>0.74623802158089314</d6p1:double><d6p1:double>0.1364048095005283</d6p1:double><d6p1:double>-0.3375766573589753</d6p1:double><d6p1:double>1.7828058369285265</d6p1:double><d6p1:double>-0.50288919057599046</d6p1:double><d6p1:double>0.59740152075719821</d6p1:double><d6p1:double>0.42183120011086112</d6p1:double><d6p1:double>-0.0023241997813997941</d6p1:double><d6p1:double>0.64294265190936273</d6p1:double><d6p1:double>0.45821231077855179</d6p1:double><d6p1:double>-0.29484144237681709</d6p1:double><d6p1:double>0.6401025404312215</d6p1:double><d6p1:double>0.4327626858544964</d6p1:double><d6p1:double>0.23989557184601626</d6p1:double><d6p1:double>-0.18232487306592454</d6p1:double></Weights></Neuron><Neuron><Bias>-0.99972287352295175</Bias><Output>-1</Output><Weights xmlns:d6p1="http://schemas.microsoft.com/2003/10/Serialization/Arrays"><d6p1:double>-0.20358198148724818</d6p1:double><d6p1:double>0.15505010698100408</d6p1:double><d6p1:double>0.821041607411985</d6p1:double><d6p1:double>0.72402188066861606</d6p1:double><d6p1:double>0.7089076765320359</d6p1:double><d6p1:double>0.077654697554982652</d6p1:double><d6p1:double>-0.087078953382784527</d6p1:double><d6p1:double>0.17329490471021816</d6p1:double><d6p1:double>0.833117693584844</d6p1:double><d6p1:double>1.1366276256149319</d6p1:double><d6p1:double>0.44605753240699636</d6p1:double><d6p1:double>0.40726165030801587</d6p1:double><d6p1:double>0.4322335420526276</d6p1:double><d6p1:double>0.79715358463522523</d6p1:double><d6p1:double>-0.30476029118639436</d6p1:double><d6p1:double>-0.8434452491332407</d6p1:double><d6p1:double>0.87504442861348586</d6p1:double><d6p1:double>1.1032348285136293</d6p1:double><d6p1:double>0.64357983423059228</d6p1:double><d6p1:double>1.4789476474865271</d6p1:double><d6p1:double>0.06047529101221822</d6p1:double><d6p1:double>0.4137674135668209</d6p1:double><d6p1:double>0.0097826083397150078</d6p1:double><d6p1:double>-0.054284337273651083</d6p1:double><d6p1:double>0.2226206973376863</d6p1:double></Weights></Neuron><Neuron><Bias>6.27523972930233E-05</Bias><Output>1</Output><Weights xmlns:d6p1="http://schemas.microsoft.com/2003/10/Serialization/Arrays"><d6p1:double>-0.01926570887060633</d6p1:double><d6p1:double>0.38257908164593074</d6p1:double><d6p1:double>-0.0947978151040445</d6p1:double><d6p1:double>0.23078517890541206</d6p1:double><d6p1:double>0.19029271590498331</d6p1:double><d6p1:double>0.42374449617850307</d6p1:double><d6p1:double>1.0647493421536425</d6p1:double><d6p1:double>1.265001786681458</d6p1:double><d6p1:double>0.19331013070773462</d6p1:double><d6p1:double>0.30105935854197891</d6p1:double><d6p1:double>0.077370286722186224</d6p1:double><d6p1:double>1.228005815095552</d6p1:double><d6p1:double>0.14990122629073044</d6p1:double><d6p1:double>-0.25684501176322505</d6p1:double><d6p1:double>0.96154351641748226</d6p1:double><d6p1:double>1.1120916872284319</d6p1:double><d6p1:double>-0.0097279648334694779</d6p1:double><d6p1:double>-0.15040487526988849</d6p1:double><d6p1:double>-0.17360334342372577</d6p1:double><d6p1:double>0.83078380441142008</d6p1:double><d6p1:double>0.063909513912633276</d6p1:double><d6p1:double>0.17800926679032211</d6p1:double><d6p1:double>-0.066551741251178728</d6p1:double><d6p1:double>0.28289801525556513</d6p1:double><d6p1:double>0.64076573631553979</d6p1:double></Weights></Neuron><Neuron><Bias>0.00030599700167029337</Bias><Output>1</Output><Weights xmlns:d6p1="http://schemas.microsoft.com/2003/10/Serialization/Arrays"><d6p1:double>-0.18890369104232418</d6p1:double><d6p1:double>-0.19246539575582616</d6p1:double><d6p1:double>-0.060476581635580055</d6p1:double><d6p1:double>0.3464232140275213</d6p1:double><d6p1:double>-0.59290952107171524</d6p1:double><d6p1:double>0.81624647676721784</d6p1:double><d6p1:double>-0.46269907269602434</d6p1:double><d6p1:double>0.35368655863300968</d6p1:double><d6p1:double>1.0248843440238473</d6p1:double><d6p1:double>-0.12240684433821039</d6p1:double><d6p1:double>0.27387961059993621</d6p1:double><d6p1:double>0.33564008812668944</d6p1:double><d6p1:double>0.50298848215583813</d6p1:double><d6p1:double>1.0024795793837926</d6p1:double><d6p1:double>0.552849634864912</d6p1:double><d6p1:double>1.2219511237837615</d6p1:double><d6p1:double>-0.26694054060193195</d6p1:double><d6p1:double>1.5624344213245611</d6p1:double><d6p1:double>0.25312642685060838</d6p1:double><d6p1:double>-0.71478056830619408</d6p1:double><d6p1:double>0.44926819306592952</d6p1:double><d6p1:double>0.41519834495894459</d6p1:double><d6p1:double>0.439579521971981</d6p1:double><d6p1:double>-0.12564914271460165</d6p1:double><d6p1:double>-0.26766563734851812</d6p1:double></Weights></Neuron><Neuron><Bias>-0.99913713538558391</Bias><Output>1</Output><Weights xmlns:d6p1="http://schemas.microsoft.com/2003/10/Serialization/Arrays"><d6p1:double>0.23808573135903649</d6p1:double><d6p1:double>0.50501578447607665</d6p1:double><d6p1:double>0.66277033498480531</d6p1:double><d6p1:double>0.48749614910012734</d6p1:double><d6p1:double>-0.079997818278834051</d6p1:double><d6p1:double>0.85197639210720788</d6p1:double><d6p1:double>0.020840793708515735</d6p1:double><d6p1:double>0.65471436860163312</d6p1:double><d6p1:double>0.63163274420708626</d6p1:double><d6p1:double>-0.21872645880760316</d6p1:double><d6p1:double>0.62722157170068071</d6p1:double><d6p1:double>-0.094726183720227175</d6p1:double><d6p1:double>1.3483912638659725</d6p1:double><d6p1:double>0.55393698765307831</d6p1:double><d6p1:double>0.20419438843331805</d6p1:double><d6p1:double>0.45126077978733109</d6p1:double><d6p1:double>0.58415354305465006</d6p1:double><d6p1:double>0.3148081473799203</d6p1:double><d6p1:double>0.60598617188326231</d6p1:double><d6p1:double>1.2660490809574305</d6p1:double><d6p1:double>0.3949372694367706</d6p1:double><d6p1:double>-0.68347169546022335</d6p1:double><d6p1:double>0.78026780235328375</d6p1:double><d6p1:double>0.87902705990398722</d6p1:double><d6p1:double>-0.012673636639005847</d6p1:double></Weights></Neuron><Neuron><Bias>-1.0001275089448545</Bias><Output>-1</Output><Weights xmlns:d6p1="http://schemas.microsoft.com/2003/10/Serialization/Arrays"><d6p1:double>0.47842504897916688</d6p1:double><d6p1:double>0.1429858731137551</d6p1:double><d6p1:double>-0.14542325810409834</d6p1:double><d6p1:double>-0.38710517586045751</d6p1:double><d6p1:double>0.28895231697771229</d6p1:double><d6p1:double>0.56570622041874252</d6p1:double><d6p1:double>1.1655575677437435</d6p1:double><d6p1:double>0.57761728802579049</d6p1:double><d6p1:double>0.47247082124139461</d6p1:double><d6p1:double>0.74036368106250772</d6p1:double><d6p1:double>0.61835002488832425</d6p1:double><d6p1:double>0.23195286630182191</d6p1:double><d6p1:double>0.25995659144639127</d6p1:double><d6p1:double>0.2179406240537928</d6p1:double><d6p1:double>0.25178629958679072</d6p1:double><d6p1:double>0.47237327938527757</d6p1:double><d6p1:double>0.6185704414842389</d6p1:double><d6p1:double>-0.13282424376268212</d6p1:double><d6p1:double>0.914496622109231</d6p1:double><d6p1:double>0.93885045981439852</d6p1:double><d6p1:double>0.88501629737280829</d6p1:double><d6p1:double>0.21463309749689066</d6p1:double><d6p1:double>0.60004812834193</d6p1:double><d6p1:double>-0.12247704014849375</d6p1:double><d6p1:double>0.58873057493636494</d6p1:double></Weights></Neuron><Neuron><Bias>-0.00060854517159993006</Bias><Output>1</Output><Weights xmlns:d6p1="http://schemas.microsoft.com/2003/10/Serialization/Arrays"><d6p1:double>0.49005706785712738</d6p1:double><d6p1:double>-0.2429801627985185</d6p1:double><d6p1:double>0.93217992364668545</d6p1:double><d6p1:double>0.18820662445668815</d6p1:double><d6p1:double>0.95477431812308577</d6p1:double><d6p1:double>0.15836571057932103</d6p1:double><d6p1:double>0.87197696951440806</d6p1:double><d6p1:double>1.4270995902155348</d6p1:double><d6p1:double>0.19447405925471731</d6p1:double><d6p1:double>0.69707007324030379</d6p1:double><d6p1:double>0.76057280967654928</d6p1:double><d6p1:double>0.27347098583320018</d6p1:double><d6p1:double>0.16251727894725665</d6p1:double><d6p1:double>1.0953006215925594</d6p1:double><d6p1:double>0.78279269964091314</d6p1:double><d6p1:double>0.65056108867528961</d6p1:double><d6p1:double>0.090067738214122825</d6p1:double><d6p1:double>0.43335255279951</d6p1:double><d6p1:double>0.3633338916436506</d6p1:double><d6p1:double>-0.30287626817033869</d6p1:double><d6p1:double>-0.22102520426215458</d6p1:double><d6p1:double>0.71187442471986873</d6p1:double><d6p1:double>0.86707546319238116</d6p1:double><d6p1:double>0.66523313466466438</d6p1:double><d6p1:double>0.19714516677084035</d6p1:double></Weights></Neuron><Neuron><Bias>-0.99950546430196607</Bias><Output>-1</Output><Weights xmlns:d6p1="http://schemas.microsoft.com/2003/10/Serialization/Arrays"><d6p1:double>0.64140619708594893</d6p1:double><d6p1:double>0.16587248230093013</d6p1:double><d6p1:double>0.14785110531246193</d6p1:double><d6p1:double>-1.0258514909741465</d6p1:double><d6p1:double>0.63237877361986516</d6p1:double><d6p1:double>0.9081971020600903</d6p1:double><d6p1:double>0.854905220830811</d6p1:double><d6p1:double>-0.44594998215133419</d6p1:double><d6p1:double>0.1102009395662001</d6p1:double><d6p1:double>0.39417224148879132</d6p1:double><d6p1:double>0.41999521752694763</d6p1:double><d6p1:double>1.0116697030334791</d6p1:double><d6p1:double>0.1760857866830261</d6p1:double><d6p1:double>0.84057604603957137</d6p1:double><d6p1:double>1.5400278416219095</d6p1:double><d6p1:double>0.541626971594095</d6p1:double><d6p1:double>0.70226124261555589</d6p1:double><d6p1:double>-0.20152237409991269</d6p1:double><d6p1:double>1.0906071219391906</d6p1:double><d6p1:double>0.37596254470835</d6p1:double><d6p1:double>0.98720462580976287</d6p1:double><d6p1:double>0.17026262903994713</d6p1:double><d6p1:double>-0.35776208360732753</d6p1:double><d6p1:double>0.1485595607417832</d6p1:double><d6p1:double>0.31877999588856243</d6p1:double></Weights></Neuron><Neuron><Bias>-1.0010360159388811</Bias><Output>-1</Output><Weights xmlns:d6p1="http://schemas.microsoft.com/2003/10/Serialization/Arrays"><d6p1:double>1.1744333012508263</d6p1:double><d6p1:double>-0.053033074353644627</d6p1:double><d6p1:double>1.0375001177759033</d6p1:double><d6p1:double>0.69434102622554617</d6p1:double><d6p1:double>0.47854589209986986</d6p1:double><d6p1:double>0.38004576223308012</d6p1:double><d6p1:double>0.70138365545658532</d6p1:double><d6p1:double>0.44038716226913921</d6p1:double><d6p1:double>-0.39073729480212144</d6p1:double><d6p1:double>0.99154796957399172</d6p1:double><d6p1:double>0.68316087881874288</d6p1:double><d6p1:double>0.35238488276302432</d6p1:double><d6p1:double>-0.10520422874465843</d6p1:double><d6p1:double>0.42015928785078005</d6p1:double><d6p1:double>0.55252375465043424</d6p1:double><d6p1:double>0.36176699995324046</d6p1:double><d6p1:double>0.38120285064850545</d6p1:double><d6p1:double>0.22158839120748886</d6p1:double><d6p1:double>0.6864690854807427</d6p1:double><d6p1:double>-0.25481391070586606</d6p1:double><d6p1:double>0.30449191317377572</d6p1:double><d6p1:double>1.1519085127751931</d6p1:double><d6p1:double>-0.10306905666572647</d6p1:double><d6p1:double>0.5048111665758519</d6p1:double><d6p1:double>1.4282073713573875</d6p1:double></Weights></Neuron><Neuron><Bias>-0.9974314492294295</Bias><Output>1</Output><Weights xmlns:d6p1="http://schemas.microsoft.com/2003/10/Serialization/Arrays"><d6p1:double>0.67000023179366941</d6p1:double><d6p1:double>-0.28737833927853945</d6p1:double><d6p1:double>1.287192749189904</d6p1:double><d6p1:double>-0.85633900123288587</d6p1:double><d6p1:double>-0.67526649584180642</d6p1:double><d6p1:double>1.0456161869497245</d6p1:double><d6p1:double>0.16867924012461188</d6p1:double><d6p1:double>-1.1093282588223321</d6p1:double><d6p1:double>0.10464078133967548</d6p1:double><d6p1:double>0.68071020566395835</d6p1:double><d6p1:double>-0.31634340868194089</d6p1:double><d6p1:double>1.5753124160793042</d6p1:double><d6p1:double>0.14101460756311063</d6p1:double><d6p1:double>-0.9265462703009244</d6p1:double><d6p1:double>0.40022187588002855</d6p1:double><d6p1:double>0.14481923309715183</d6p1:double><d6p1:double>0.097517257225639822</d6p1:double><d6p1:double>-0.57067169847606836</d6p1:double><d6p1:double>0.8788637681457161</d6p1:double><d6p1:double>0.59469029381649552</d6p1:double><d6p1:double>0.38944351059315269</d6p1:double><d6p1:double>-0.31578564118071478</d6p1:double><d6p1:double>-0.06568171535062943</d6p1:double><d6p1:double>0.81302988283130562</d6p1:double><d6p1:double>0.37315638665549439</d6p1:double></Weights></Neuron><Neuron><Bias>-1.0000338641240005</Bias><Output>-1</Output><Weights xmlns:d6p1="http://schemas.microsoft.com/2003/10/Serialization/Arrays"><d6p1:double>0.61763933122642845</d6p1:double><d6p1:double>0.053374218112848537</d6p1:double><d6p1:double>0.7878841996342929</d6p1:double><d6p1:double>0.62810342334503388</d6p1:double><d6p1:double>0.87023853451511357</d6p1:double><d6p1:double>0.086063597555466845</d6p1:double><d6p1:double>1.253797836354136</d6p1:double><d6p1:double>0.85052383621742178</d6p1:double><d6p1:double>0.4602287035694082</d6p1:double><d6p1:double>0.18661444217032455</d6p1:double><d6p1:double>0.55702801558797843</d6p1:double><d6p1:double>0.66401917321307891</d6p1:double><d6p1:double>1.1656692052950037</d6p1:double><d6p1:double>0.53861523480111861</d6p1:double><d6p1:double>0.50619157697795858</d6p1:double><d6p1:double>0.056893972321973074</d6p1:double><d6p1:double>0.098914680987870179</d6p1:double><d6p1:double>1.0742143112137286</d6p1:double><d6p1:double>0.043894988803020854</d6p1:double><d6p1:double>0.98840076860665893</d6p1:double><d6p1:double>0.68407678685398965</d6p1:double><d6p1:double>0.77064414898982125</d6p1:double><d6p1:double>0.60366893195852755</d6p1:double><d6p1:double>0.32026852305209619</d6p1:double><d6p1:double>0.40209935848005635</d6p1:double></Weights></Neuron><Neuron><Bias>-0.99902465043236033</Bias><Output>1</Output><Weights xmlns:d6p1="http://schemas.microsoft.com/2003/10/Serialization/Arrays"><d6p1:double>0.56656709220423651</d6p1:double><d6p1:double>0.19378065235467912</d6p1:double><d6p1:double>0.536587284513927</d6p1:double><d6p1:double>0.39238799307948058</d6p1:double><d6p1:double>0.86551830177564559</d6p1:double><d6p1:double>0.35269393155924217</d6p1:double><d6p1:double>-0.0456631002373884</d6p1:double><d6p1:double>0.38146570227640331</d6p1:double><d6p1:double>0.44592392417703569</d6p1:double><d6p1:double>0.32835411272090842</d6p1:double><d6p1:double>0.68096737294473375</d6p1:double><d6p1:double>0.4102247620951871</d6p1:double><d6p1:double>0.90398127474803658</d6p1:double><d6p1:double>0.92553636447135446</d6p1:double><d6p1:double>0.82284264001479857</d6p1:double><d6p1:double>0.66004936021560046</d6p1:double><d6p1:double>0.83686538773558761</d6p1:double><d6p1:double>-0.094435659386936516</d6p1:double><d6p1:double>0.75505555848116246</d6p1:double><d6p1:double>0.91628529441410278</d6p1:double><d6p1:double>0.24318530722141726</d6p1:double><d6p1:double>-0.20493102005739752</d6p1:double><d6p1:double>0.76165188282793306</d6p1:double><d6p1:double>0.76776623436693858</d6p1:double><d6p1:double>0.77481454614513368</d6p1:double></Weights></Neuron><Neuron><Bias>-0.00044443478306360377</Bias><Output>-1</Output><Weights xmlns:d6p1="http://schemas.microsoft.com/2003/10/Serialization/Arrays"><d6p1:double>1.2705290891913916</d6p1:double><d6p1:double>0.81993144577900623</d6p1:double><d6p1:double>-0.19486263404391882</d6p1:double><d6p1:double>0.92367779197016</d6p1:double><d6p1:double>0.50961107465636024</d6p1:double><d6p1:double>0.81866519665435189</d6p1:double><d6p1:double>-0.23981669926243018</d6p1:double><d6p1:double>0.42500001312778218</d6p1:double><d6p1:double>0.15139076094045281</d6p1:double><d6p1:double>0.56373335579129646</d6p1:double><d6p1:double>0.26110455704969382</d6p1:double><d6p1:double>1.6312982890231829</d6p1:double><d6p1:double>-0.077509741469694957</d6p1:double><d6p1:double>-0.025740833115285432</d6p1:double><d6p1:double>0.31922059890585391</d6p1:double><d6p1:double>0.19904439588262107</d6p1:double><d6p1:double>0.1567452160849532</d6p1:double><d6p1:double>-0.079308466294745875</d6p1:double><d6p1:double>0.33721965182658203</d6p1:double><d6p1:double>-0.21788574433299815</d6p1:double><d6p1:double>-0.235519104078585</d6p1:double><d6p1:double>0.14838465316695437</d6p1:double><d6p1:double>0.15957555974211154</d6p1:double><d6p1:double>-0.047458051583651246</d6p1:double><d6p1:double>1.2317237216528902</d6p1:double></Weights></Neuron><Neuron><Bias>-0.99962122013864607</Bias><Output>1</Output><Weights xmlns:d6p1="http://schemas.microsoft.com/2003/10/Serialization/Arrays"><d6p1:double>-0.12751757558104235</d6p1:double><d6p1:double>0.95727106477775659</d6p1:double><d6p1:double>0.50180511079491441</d6p1:double><d6p1:double>0.92083759255246045</d6p1:double><d6p1:double>0.10755385103382811</d6p1:double><d6p1:double>0.901941635627475</d6p1:double><d6p1:double>0.41000503641589142</d6p1:double><d6p1:double>1.2226893724842025</d6p1:double><d6p1:double>0.34008084882939743</d6p1:double><d6p1:double>0.082125587315549878</d6p1:double><d6p1:double>1.3409775706743807</d6p1:double><d6p1:double>0.80319981386456274</d6p1:double><d6p1:double>0.56025234643971955</d6p1:double><d6p1:double>0.78726079642226177</d6p1:double><d6p1:double>-0.32067744381044744</d6p1:double><d6p1:double>-0.15596049982960222</d6p1:double><d6p1:double>0.11150674417294551</d6p1:double><d6p1:double>0.84419296537617128</d6p1:double><d6p1:double>0.66992930617164925</d6p1:double><d6p1:double>0.98404040877725307</d6p1:double><d6p1:double>0.69344681762378058</d6p1:double><d6p1:double>0.31328355254375995</d6p1:double><d6p1:double>-0.16043785850181563</d6p1:double><d6p1:double>0.51287715556949065</d6p1:double><d6p1:double>1.2784975216748014</d6p1:double></Weights></Neuron><Neuron><Bias>-1.0005883878680559</Bias><Output>-1</Output><Weights xmlns:d6p1="http://schemas.microsoft.com/2003/10/Serialization/Arrays"><d6p1:double>0.97425280879391207</d6p1:double><d6p1:double>1.0123153825854125</d6p1:double><d6p1:double>-0.28111561442723676</d6p1:double><d6p1:double>1.009112712393353</d6p1:double><d6p1:double>0.22883638310141333</d6p1:double><d6p1:double>1.118057774326759</d6p1:double><d6p1:double>0.49430715765322419</d6p1:double><d6p1:double>-0.098296949157969479</d6p1:double><d6p1:double>0.69624423259682822</d6p1:double><d6p1:double>0.46141331397288038</d6p1:double><d6p1:double>0.78763171785494823</d6p1:double><d6p1:double>0.53995366770619668</d6p1:double><d6p1:double>0.52667786468353173</d6p1:double><d6p1:double>0.031025577073905252</d6p1:double><d6p1:double>0.007899546157714217</d6p1:double><d6p1:double>0.2466114334398</d6p1:double><d6p1:double>0.83711890962334878</d6p1:double><d6p1:double>0.24487478194385587</d6p1:double><d6p1:double>0.27636393120906821</d6p1:double><d6p1:double>0.63547783113115375</d6p1:double><d6p1:double>0.57712170528332762</d6p1:double><d6p1:double>1.1542919137259873</d6p1:double><d6p1:double>1.0005494664590286</d6p1:double><d6p1:double>-0.0300243242882506</d6p1:double><d6p1:double>0.82980987449359</d6p1:double></Weights></Neuron><Neuron><Bias>-1.0005874249302793</Bias><Output>1</Output><Weights xmlns:d6p1="http://schemas.microsoft.com/2003/10/Serialization/Arrays"><d6p1:double>0.16730696067736639</d6p1:double><d6p1:double>0.85158846712518821</d6p1:double><d6p1:double>1.2234105810146</d6p1:double><d6p1:double>1.0705545542106136</d6p1:double><d6p1:double>0.37828738957295305</d6p1:double><d6p1:double>1.0293708410531255</d6p1:double><d6p1:double>-0.23707578913523081</d6p1:double><d6p1:double>0.89752107080073884</d6p1:double><d6p1:double>0.39224565846334319</d6p1:double><d6p1:double>0.473384148217718</d6p1:double><d6p1:double>0.81560246940286429</d6p1:double><d6p1:double>-0.012714717496099546</d6p1:double><d6p1:double>0.55710224109039275</d6p1:double><d6p1:double>0.17178208193662031</d6p1:double><d6p1:double>0.075914052237009616</d6p1:double><d6p1:double>0.33974028327795081</d6p1:double><d6p1:double>0.2211770229303035</d6p1:double><d6p1:double>0.76249427763992661</d6p1:double><d6p1:double>0.40872668040349958</d6p1:double><d6p1:double>0.89669793622906835</d6p1:double><d6p1:double>-0.090998055908502837</d6p1:double><d6p1:double>0.84674054145645361</d6p1:double><d6p1:double>0.051813387153132252</d6p1:double><d6p1:double>0.47249207987829406</d6p1:double><d6p1:double>0.3612293243226754</d6p1:double></Weights></Neuron><Neuron><Bias>-0.99879576885978982</Bias><Output>1</Output><Weights xmlns:d6p1="http://schemas.microsoft.com/2003/10/Serialization/Arrays"><d6p1:double>0.075733816805922213</d6p1:double><d6p1:double>0.42588672201008931</d6p1:double><d6p1:double>0.524563500086341</d6p1:double><d6p1:double>0.92112962745052562</d6p1:double><d6p1:double>-0.20199322812809631</d6p1:double><d6p1:double>1.1815840118029546</d6p1:double><d6p1:double>0.16785849503502207</d6p1:double><d6p1:double>0.94987022801951615</d6p1:double><d6p1:double>0.48935506551129887</d6p1:double><d6p1:double>0.4599530420297373</d6p1:double><d6p1:double>0.18977419852200603</d6p1:double><d6p1:double>0.73654403285942027</d6p1:double><d6p1:double>0.972794208702241</d6p1:double><d6p1:double>1.1850490285311102</d6p1:double><d6p1:double>0.72587042053767492</d6p1:double><d6p1:double>0.1381760833065572</d6p1:double><d6p1:double>0.30731411062583275</d6p1:double><d6p1:double>0.851421293792456</d6p1:double><d6p1:double>0.32882668112047125</d6p1:double><d6p1:double>0.84158306517180725</d6p1:double><d6p1:double>0.88856211480645331</d6p1:double><d6p1:double>0.18730296313690908</d6p1:double><d6p1:double>0.27104895026939807</d6p1:double><d6p1:double>0.588411909144629</d6p1:double><d6p1:double>0.41661373029296428</d6p1:double></Weights></Neuron><Neuron><Bias>0.00076060970290819355</Bias><Output>-1</Output><Weights xmlns:d6p1="http://schemas.microsoft.com/2003/10/Serialization/Arrays"><d6p1:double>-0.25094919880148847</d6p1:double><d6p1:double>-0.015155912834509924</d6p1:double><d6p1:double>-0.15997183038486981</d6p1:double><d6p1:double>0.81988630109632132</d6p1:double><d6p1:double>0.55917179863598521</d6p1:double><d6p1:double>0.78977421379231882</d6p1:double><d6p1:double>0.36472455057945768</d6p1:double><d6p1:double>-0.080461078197393662</d6p1:double><d6p1:double>0.70805646506686593</d6p1:double><d6p1:double>0.69441134715766883</d6p1:double><d6p1:double>0.40324147876308719</d6p1:double><d6p1:double>0.17553520329984149</d6p1:double><d6p1:double>0.192959623071253</d6p1:double><d6p1:double>1.16564160974921</d6p1:double><d6p1:double>0.67104773840418741</d6p1:double><d6p1:double>0.10812149579377069</d6p1:double><d6p1:double>0.93131247560457275</d6p1:double><d6p1:double>0.017397212436996438</d6p1:double><d6p1:double>0.41608350227431296</d6p1:double><d6p1:double>0.4997382607651219</d6p1:double><d6p1:double>0.68650923163192956</d6p1:double><d6p1:double>0.41214060818366327</d6p1:double><d6p1:double>0.84724018858415329</d6p1:double><d6p1:double>0.77510428410661381</d6p1:double><d6p1:double>-0.32640983367650217</d6p1:double></Weights></Neuron><Neuron><Bias>-1.0013236563846761</Bias><Output>-1</Output><Weights xmlns:d6p1="http://schemas.microsoft.com/2003/10/Serialization/Arrays"><d6p1:double>0.99458460688011163</d6p1:double><d6p1:double>0.59526152772850882</d6p1:double><d6p1:double>-0.2090495148550516</d6p1:double><d6p1:double>0.42574739795766975</d6p1:double><d6p1:double>1.5282628901344175</d6p1:double><d6p1:double>-0.23115861209253771</d6p1:double><d6p1:double>0.55334424231855761</d6p1:double><d6p1:double>0.48752323243117335</d6p1:double><d6p1:double>0.942306910660064</d6p1:double><d6p1:double>0.050783495639845806</d6p1:double><d6p1:double>0.44154274795999621</d6p1:double><d6p1:double>0.14808304102248848</d6p1:double><d6p1:double>0.80312223707964525</d6p1:double><d6p1:double>0.55248637350807472</d6p1:double><d6p1:double>0.68351081288389193</d6p1:double><d6p1:double>0.36956923080040094</d6p1:double><d6p1:double>0.68560940406617477</d6p1:double><d6p1:double>0.5324771259785086</d6p1:double><d6p1:double>0.10710857843893981</d6p1:double><d6p1:double>-0.1835873576352943</d6p1:double><d6p1:double>0.46604855015657448</d6p1:double><d6p1:double>1.2825627003783813</d6p1:double><d6p1:double>0.32546345861479037</d6p1:double><d6p1:double>0.21528949158587032</d6p1:double><d6p1:double>0.45926149797636989</d6p1:double></Weights></Neuron><Neuron><Bias>-0.0010840694675518933</Bias><Output>-1</Output><Weights xmlns:d6p1="http://schemas.microsoft.com/2003/10/Serialization/Arrays"><d6p1:double>1.0105410900946219</d6p1:double><d6p1:double>0.535430954977512</d6p1:double><d6p1:double>0.3285307392627041</d6p1:double><d6p1:double>1.1308268510902344</d6p1:double><d6p1:double>0.67467536681425933</d6p1:double><d6p1:double>0.19190929627042411</d6p1:double><d6p1:double>1.0197429609419657</d6p1:double><d6p1:double>0.54203566092715694</d6p1:double><d6p1:double>0.16370015758073891</d6p1:double><d6p1:double>0.85951705247646715</d6p1:double><d6p1:double>0.10019188942756074</d6p1:double><d6p1:double>0.39929003831614163</d6p1:double><d6p1:double>0.98381472733183439</d6p1:double><d6p1:double>-0.14065704529545783</d6p1:double><d6p1:double>-0.084762244256169891</d6p1:double><d6p1:double>0.51720402870808813</d6p1:double><d6p1:double>0.85096129872101367</d6p1:double><d6p1:double>0.60693264211469844</d6p1:double><d6p1:double>0.3440703544093589</d6p1:double><d6p1:double>0.28305422225553784</d6p1:double><d6p1:double>0.224808493963768</d6p1:double><d6p1:double>1.1933912793143604</d6p1:double><d6p1:double>0.73752149838205816</d6p1:double><d6p1:double>-0.158565852738093</d6p1:double><d6p1:double>0.83342891245633788</d6p1:double></Weights></Neuron><Neuron><Bias>0.0011612880078528879</Bias><Output>1</Output><Weights xmlns:d6p1="http://schemas.microsoft.com/2003/10/Serialization/Arrays"><d6p1:double>0.68179726426289367</d6p1:double><d6p1:double>0.37260595944022779</d6p1:double><d6p1:double>0.78116822320400037</d6p1:double><d6p1:double>0.40000602299079707</d6p1:double><d6p1:double>0.6898298165407315</d6p1:double><d6p1:double>0.6791857274326718</d6p1:double><d6p1:double>-0.35760386012514656</d6p1:double><d6p1:double>0.80734777842398608</d6p1:double><d6p1:double>0.24566517394232584</d6p1:double><d6p1:double>0.63104010815816791</d6p1:double><d6p1:double>0.11013773083970153</d6p1:double><d6p1:double>1.1590955163703558</d6p1:double><d6p1:double>0.25329180861133588</d6p1:double><d6p1:double>0.81872540410954864</d6p1:double><d6p1:double>1.0490671821378494</d6p1:double><d6p1:double>0.16264841393676702</d6p1:double><d6p1:double>0.4037001876429463</d6p1:double><d6p1:double>0.23019393872898256</d6p1:double><d6p1:double>0.69205855611059486</d6p1:double><d6p1:double>0.87681566337710293</d6p1:double><d6p1:double>0.72027569137223024</d6p1:double><d6p1:double>0.70798843570314884</d6p1:double><d6p1:double>-0.049807174966655467</d6p1:double><d6p1:double>0.50978595876999355</d6p1:double><d6p1:double>-0.085292215446922989</d6p1:double></Weights></Neuron><Neuron><Bias>0.00045602662243235582</Bias><Output>-1</Output><Weights xmlns:d6p1="http://schemas.microsoft.com/2003/10/Serialization/Arrays"><d6p1:double>0.10604782239921891</d6p1:double><d6p1:double>0.19088946357047093</d6p1:double><d6p1:double>0.35402201390318944</d6p1:double><d6p1:double>0.11153972394420876</d6p1:double><d6p1:double>0.11280805325345473</d6p1:double><d6p1:double>0.362470998619255</d6p1:double><d6p1:double>0.168827358677121</d6p1:double><d6p1:double>0.020051988861233338</d6p1:double><d6p1:double>0.64907527631894146</d6p1:double><d6p1:double>1.2790142324506404</d6p1:double><d6p1:double>-0.29087118331596973</d6p1:double><d6p1:double>0.14117603595647166</d6p1:double><d6p1:double>0.11150651996332449</d6p1:double><d6p1:double>0.48699247424286379</d6p1:double><d6p1:double>-0.32551256644021287</d6p1:double><d6p1:double>-0.36822501024708909</d6p1:double><d6p1:double>0.95765572904361929</d6p1:double><d6p1:double>0.177508886209712</d6p1:double><d6p1:double>0.51172624696611946</d6p1:double><d6p1:double>1.3735303384019417</d6p1:double><d6p1:double>0.68894376929167722</d6p1:double><d6p1:double>0.61484590719739007</d6p1:double><d6p1:double>-0.07348782594743572</d6p1:double><d6p1:double>0.81357184410634553</d6p1:double><d6p1:double>0.5280627389032243</d6p1:double></Weights></Neuron><Neuron><Bias>-0.99978551979057828</Bias><Output>-1</Output><Weights xmlns:d6p1="http://schemas.microsoft.com/2003/10/Serialization/Arrays"><d6p1:double>1.1231022466924561</d6p1:double><d6p1:double>0.65701774384425815</d6p1:double><d6p1:double>0.88644753599928117</d6p1:double><d6p1:double>0.7130694564710075</d6p1:double><d6p1:double>-0.41231147432937659</d6p1:double><d6p1:double>0.40706051796862386</d6p1:double><d6p1:double>0.61319333561096578</d6p1:double><d6p1:double>0.98200412800954917</d6p1:double><d6p1:double>0.70734927235122336</d6p1:double><d6p1:double>0.9670941280107489</d6p1:double><d6p1:double>0.55461664453384674</d6p1:double><d6p1:double>-0.038482408348710688</d6p1:double><d6p1:double>0.031741512707399465</d6p1:double><d6p1:double>0.559997407457043</d6p1:double><d6p1:double>-0.26505400045967042</d6p1:double><d6p1:double>-0.46606551914959987</d6p1:double><d6p1:double>0.031694717980661605</d6p1:double><d6p1:double>-0.22294293704426993</d6p1:double><d6p1:double>-0.70543734327885632</d6p1:double><d6p1:double>-0.26695603758583591</d6p1:double><d6p1:double>0.83413282970266411</d6p1:double><d6p1:double>-0.1894680482382288</d6p1:double><d6p1:double>0.13032966145835354</d6p1:double><d6p1:double>1.2178712857108747</d6p1:double><d6p1:double>1.5093914763421685</d6p1:double></Weights></Neuron><Neuron><Bias>0.0012005369218105592</Bias><Output>1</Output><Weights xmlns:d6p1="http://schemas.microsoft.com/2003/10/Serialization/Arrays"><d6p1:double>0.62300949006407158</d6p1:double><d6p1:double>-0.14121706647185359</d6p1:double><d6p1:double>0.77483994996448691</d6p1:double><d6p1:double>-0.46660006971702267</d6p1:double><d6p1:double>0.054274757662002432</d6p1:double><d6p1:double>-1.1074916162485795</d6p1:double><d6p1:double>-0.86444362386197315</d6p1:double><d6p1:double>-0.39968847155608206</d6p1:double><d6p1:double>-0.0034179239497515185</d6p1:double><d6p1:double>0.99808319497079012</d6p1:double><d6p1:double>0.74955778696124653</d6p1:double><d6p1:double>0.21206607806481928</d6p1:double><d6p1:double>-0.30409938220422822</d6p1:double><d6p1:double>0.845287307825075</d6p1:double><d6p1:double>0.68278530745659283</d6p1:double><d6p1:double>-0.060220711541623936</d6p1:double><d6p1:double>0.57739416400996668</d6p1:double><d6p1:double>-0.30112316827202013</d6p1:double><d6p1:double>1.081841364218048</d6p1:double><d6p1:double>1.7172200599699514</d6p1:double><d6p1:double>0.15929852906347583</d6p1:double><d6p1:double>1.3251749747695036</d6p1:double><d6p1:double>-0.22622107749585402</d6p1:double><d6p1:double>0.31039785728554342</d6p1:double><d6p1:double>0.58534651534633375</d6p1:double></Weights></Neuron><Neuron><Bias>-0.00025487079582506766</Bias><Output>-1</Output><Weights xmlns:d6p1="http://schemas.microsoft.com/2003/10/Serialization/Arrays"><d6p1:double>0.9645452916374111</d6p1:double><d6p1:double>0.001454221235880539</d6p1:double><d6p1:double>0.21611318200360105</d6p1:double><d6p1:double>0.31121854000602672</d6p1:double><d6p1:double>-0.29989920732947795</d6p1:double><d6p1:double>1.1680472051449473</d6p1:double><d6p1:double>1.137860415556331</d6p1:double><d6p1:double>0.31844206043654161</d6p1:double><d6p1:double>0.83512038761299479</d6p1:double><d6p1:double>-0.35769133873896769</d6p1:double><d6p1:double>-0.29652808783948564</d6p1:double><d6p1:double>0.29762473221814106</d6p1:double><d6p1:double>1.1341779929302369</d6p1:double><d6p1:double>0.63552145066043164</d6p1:double><d6p1:double>0.78036620713123472</d6p1:double><d6p1:double>0.34704222263877521</d6p1:double><d6p1:double>0.081253478291058209</d6p1:double><d6p1:double>-0.61230139176582588</d6p1:double><d6p1:double>-0.57917105387404122</d6p1:double><d6p1:double>-0.74842330024636172</d6p1:double><d6p1:double>0.96600201998232182</d6p1:double><d6p1:double>-0.175501568916308</d6p1:double><d6p1:double>0.88541398096840174</d6p1:double><d6p1:double>0.482513860766336</d6p1:double><d6p1:double>-0.17593579894160757</d6p1:double></Weights></Neuron><Neuron><Bias>-1.0007900371777971</Bias><Output>-1</Output><Weights xmlns:d6p1="http://schemas.microsoft.com/2003/10/Serialization/Arrays"><d6p1:double>0.96967027579051224</d6p1:double><d6p1:double>0.00048024586398774861</d6p1:double><d6p1:double>0.680686157598187</d6p1:double><d6p1:double>0.71112810714827834</d6p1:double><d6p1:double>0.34885908859225545</d6p1:double><d6p1:double>0.73360662055079606</d6p1:double><d6p1:double>0.5350040221072192</d6p1:double><d6p1:double>-0.042492042748765418</d6p1:double><d6p1:double>0.23623743382333745</d6p1:double><d6p1:double>0.89443234323156906</d6p1:double><d6p1:double>0.5923227511091006</d6p1:double><d6p1:double>0.22430066223811207</d6p1:double><d6p1:double>0.34151557893891688</d6p1:double><d6p1:double>0.17040958744803344</d6p1:double><d6p1:double>0.78583256798827228</d6p1:double><d6p1:double>0.47878278551088188</d6p1:double><d6p1:double>0.30437173705027071</d6p1:double><d6p1:double>0.48733666530488257</d6p1:double><d6p1:double>0.47610719862402529</d6p1:double><d6p1:double>0.24284801263873446</d6p1:double><d6p1:double>-0.037862634202706018</d6p1:double><d6p1:double>1.3493142114988705</d6p1:double><d6p1:double>1.1925211444626991</d6p1:double><d6p1:double>0.4459731537573578</d6p1:double><d6p1:double>0.70205035400407467</d6p1:double></Weights></Neuron><Neuron><Bias>0.00093237090032451586</Bias><Output>-1</Output><Weights xmlns:d6p1="http://schemas.microsoft.com/2003/10/Serialization/Arrays"><d6p1:double>-0.10204144665197673</d6p1:double><d6p1:double>0.69007226552576062</d6p1:double><d6p1:double>0.0597161914605888</d6p1:double><d6p1:double>0.54426021720886242</d6p1:double><d6p1:double>1.3023471241788076</d6p1:double><d6p1:double>-0.23446101872924252</d6p1:double><d6p1:double>-0.533783020894965</d6p1:double><d6p1:double>0.791681402786418</d6p1:double><d6p1:double>0.77865697195236983</d6p1:double><d6p1:double>-0.085436911664147214</d6p1:double><d6p1:double>0.90876675718744948</d6p1:double><d6p1:double>0.92232954717815252</d6p1:double><d6p1:double>0.25936565478025986</d6p1:double><d6p1:double>1.4367552510776815</d6p1:double><d6p1:double>-0.50876597146683677</d6p1:double><d6p1:double>0.16583445743360359</d6p1:double><d6p1:double>-0.374863775493435</d6p1:double><d6p1:double>0.48478750748802885</d6p1:double><d6p1:double>0.307460462697937</d6p1:double><d6p1:double>1.5506626089257634</d6p1:double><d6p1:double>0.5897616773382</d6p1:double><d6p1:double>0.052914248687071085</d6p1:double><d6p1:double>0.096852129542883927</d6p1:double><d6p1:double>-0.2520850823550404</d6p1:double><d6p1:double>0.47409007071391934</d6p1:double></Weights></Neuron><Neuron><Bias>0.00011323154779240189</Bias><Output>1</Output><Weights xmlns:d6p1="http://schemas.microsoft.com/2003/10/Serialization/Arrays"><d6p1:double>-0.16854618826222159</d6p1:double><d6p1:double>0.54443190029638722</d6p1:double><d6p1:double>0.0273117149307258</d6p1:double><d6p1:double>0.4504062979490539</d6p1:double><d6p1:double>-0.30171065976802847</d6p1:double><d6p1:double>0.08167906507286582</d6p1:double><d6p1:double>1.0271032377872478</d6p1:double><d6p1:double>1.0547821566997464</d6p1:double><d6p1:double>0.10853518349839712</d6p1:double><d6p1:double>0.19684923155278414</d6p1:double><d6p1:double>0.179193232425738</d6p1:double><d6p1:double>0.87262146867250445</d6p1:double><d6p1:double>0.2271407493021522</d6p1:double><d6p1:double>0.6019616099082663</d6p1:double><d6p1:double>1.1940951909050272</d6p1:double><d6p1:double>0.38173804003153616</d6p1:double><d6p1:double>0.49566319033697293</d6p1:double><d6p1:double>0.23642795855538404</d6p1:double><d6p1:double>0.49568287890389273</d6p1:double><d6p1:double>1.0945978336929985</d6p1:double><d6p1:double>0.34997581092526658</d6p1:double><d6p1:double>0.54276634718269035</d6p1:double><d6p1:double>0.43544803674090238</d6p1:double><d6p1:double>0.87885115692181592</d6p1:double><d6p1:double>0.73483706958181072</d6p1:double></Weights></Neuron><Neuron><Bias>-0.99995080661248426</Bias><Output>-1</Output><Weights xmlns:d6p1="http://schemas.microsoft.com/2003/10/Serialization/Arrays"><d6p1:double>0.45045361672525031</d6p1:double><d6p1:double>0.73571643384311847</d6p1:double><d6p1:double>0.39432568407803276</d6p1:double><d6p1:double>0.9622914935675</d6p1:double><d6p1:double>0.53119015268605108</d6p1:double><d6p1:double>0.7526152299951292</d6p1:double><d6p1:double>0.20658475192409825</d6p1:double><d6p1:double>-0.10744757341032618</d6p1:double><d6p1:double>0.83278947351442312</d6p1:double><d6p1:double>0.79094973825563364</d6p1:double><d6p1:double>0.46987904773016737</d6p1:double><d6p1:double>0.34167562614495783</d6p1:double><d6p1:double>0.774979847959643</d6p1:double><d6p1:double>0.57469604493950011</d6p1:double><d6p1:double>0.77349645056729244</d6p1:double><d6p1:double>0.18247878257934125</d6p1:double><d6p1:double>0.45748114809097434</d6p1:double><d6p1:double>0.46917444088272525</d6p1:double><d6p1:double>0.60592355969455014</d6p1:double><d6p1:double>0.5897875421885348</d6p1:double><d6p1:double>1.0601278731984587</d6p1:double><d6p1:double>0.55291672865631525</d6p1:double><d6p1:double>0.97872169756281657</d6p1:double><d6p1:double>0.51283524568455807</d6p1:double><d6p1:double>1.1195202188651394</d6p1:double></Weights></Neuron><Neuron><Bias>9.9781720596488467E-06</Bias><Output>1</Output><Weights xmlns:d6p1="http://schemas.microsoft.com/2003/10/Serialization/Arrays"><d6p1:double>-0.81159250843884168</d6p1:double><d6p1:double>0.36509935794694165</d6p1:double><d6p1:double>0.8026890541118028</d6p1:double><d6p1:double>1.1703801018627207</d6p1:double><d6p1:double>0.030913174026161089</d6p1:double><d6p1:double>0.0062099142745655079</d6p1:double><d6p1:double>0.84942317899773589</d6p1:double><d6p1:double>0.4930386207829624</d6p1:double><d6p1:double>0.674921331566032</d6p1:double><d6p1:double>0.3677592911681829</d6p1:double><d6p1:double>0.027581474217614522</d6p1:double><d6p1:double>-0.11669132261173043</d6p1:double><d6p1:double>0.42683630500971526</d6p1:double><d6p1:double>-0.075686424581782819</d6p1:double><d6p1:double>0.98548485432689059</d6p1:double><d6p1:double>-0.11945802746069675</d6p1:double><d6p1:double>0.43301023828826785</d6p1:double><d6p1:double>0.29601118769226414</d6p1:double><d6p1:double>0.24779585605686272</d6p1:double><d6p1:double>0.74757411472163382</d6p1:double><d6p1:double>0.0075063243003890721</d6p1:double><d6p1:double>0.026654403552980294</d6p1:double><d6p1:double>-0.21679756917003473</d6p1:double><d6p1:double>0.44980279484460589</d6p1:double><d6p1:double>-0.47814804296122149</d6p1:double></Weights></Neuron><Neuron><Bias>-7.2402990381753064E-05</Bias><Output>-1</Output><Weights xmlns:d6p1="http://schemas.microsoft.com/2003/10/Serialization/Arrays"><d6p1:double>0.31042253717895912</d6p1:double><d6p1:double>0.64841053385499769</d6p1:double><d6p1:double>-0.056513838953660196</d6p1:double><d6p1:double>0.82246126995328073</d6p1:double><d6p1:double>1.6053943313684023</d6p1:double><d6p1:double>-0.18410621975791397</d6p1:double><d6p1:double>1.417246249424619</d6p1:double><d6p1:double>-0.20540330785805436</d6p1:double><d6p1:double>0.578674176702989</d6p1:double><d6p1:double>-0.19865301229258062</d6p1:double><d6p1:double>-0.69798252255152815</d6p1:double><d6p1:double>-0.088181050728856625</d6p1:double><d6p1:double>0.40282088372899189</d6p1:double><d6p1:double>0.51155747278685437</d6p1:double><d6p1:double>-0.20193921563243683</d6p1:double><d6p1:double>0.68591008973610812</d6p1:double><d6p1:double>0.27500810815747539</d6p1:double><d6p1:double>-0.058360760082002014</d6p1:double><d6p1:double>0.66992902645629782</d6p1:double><d6p1:double>0.57204451773800091</d6p1:double><d6p1:double>0.56110328778631047</d6p1:double><d6p1:double>-0.18738557835759215</d6p1:double><d6p1:double>0.98238154065040217</d6p1:double><d6p1:double>0.49516880199471547</d6p1:double><d6p1:double>-0.32870421597426336</d6p1:double></Weights></Neuron><Neuron><Bias>0.00017925952681128296</Bias><Output>1</Output><Weights xmlns:d6p1="http://schemas.microsoft.com/2003/10/Serialization/Arrays"><d6p1:double>0.42152067475736171</d6p1:double><d6p1:double>0.44856771747134772</d6p1:double><d6p1:double>0.67953017596092113</d6p1:double><d6p1:double>-0.11843046281465262</d6p1:double><d6p1:double>0.22573819346093651</d6p1:double><d6p1:double>0.14861446774069326</d6p1:double><d6p1:double>0.50437030184396137</d6p1:double><d6p1:double>0.30304549954726095</d6p1:double><d6p1:double>0.99315685935894893</d6p1:double><d6p1:double>0.25041576513184449</d6p1:double><d6p1:double>0.98935237898697215</d6p1:double><d6p1:double>0.42162161191483649</d6p1:double><d6p1:double>0.82243763775262668</d6p1:double><d6p1:double>0.18577743990676587</d6p1:double><d6p1:double>0.50597078395319672</d6p1:double><d6p1:double>1.0492041533083114</d6p1:double><d6p1:double>0.84321311096861029</d6p1:double><d6p1:double>0.8247483627555573</d6p1:double><d6p1:double>0.76712720598904083</d6p1:double><d6p1:double>0.484278538627999</d6p1:double><d6p1:double>0.56701520546687911</d6p1:double><d6p1:double>0.71317355794764292</d6p1:double><d6p1:double>0.96863415566730493</d6p1:double><d6p1:double>0.7009923581174301</d6p1:double><d6p1:double>0.87549053216063344</d6p1:double></Weights></Neuron><Neuron><Bias>0.00017391128288589175</Bias><Output>1</Output><Weights xmlns:d6p1="http://schemas.microsoft.com/2003/10/Serialization/Arrays"><d6p1:double>-0.14801967297907731</d6p1:double><d6p1:double>0.64931774868342662</d6p1:double><d6p1:double>0.58260024281732492</d6p1:double><d6p1:double>-0.11248178931406459</d6p1:double><d6p1:double>0.63284318801946149</d6p1:double><d6p1:double>0.013819384584012577</d6p1:double><d6p1:double>0.64415699719693442</d6p1:double><d6p1:double>0.7723094610219281</d6p1:double><d6p1:double>0.32412973769535897</d6p1:double><d6p1:double>0.39696367252146947</d6p1:double><d6p1:double>0.4716439737288261</d6p1:double><d6p1:double>0.37978632904752069</d6p1:double><d6p1:double>0.47075592860623749</d6p1:double><d6p1:double>0.46759781301141157</d6p1:double><d6p1:double>0.881708676365142</d6p1:double><d6p1:double>0.19751102721598138</d6p1:double><d6p1:double>1.5750808806955012</d6p1:double><d6p1:double>0.4160102767450557</d6p1:double><d6p1:double>0.809176221403513</d6p1:double><d6p1:double>0.94447057220065234</d6p1:double><d6p1:double>0.6479422615730458</d6p1:double><d6p1:double>0.059365628963297848</d6p1:double><d6p1:double>0.81302303141246668</d6p1:double><d6p1:double>0.49392038656617593</d6p1:double><d6p1:double>0.2252879721729602</d6p1:double></Weights></Neuron><Neuron><Bias>-1.000126844451156</Bias><Output>-1</Output><Weights xmlns:d6p1="http://schemas.microsoft.com/2003/10/Serialization/Arrays"><d6p1:double>0.42171126242569268</d6p1:double><d6p1:double>0.71315453946026652</d6p1:double><d6p1:double>0.84284979579495667</d6p1:double><d6p1:double>1.1226302307712941</d6p1:double><d6p1:double>0.28704065899556797</d6p1:double><d6p1:double>1.1822559804161235</d6p1:double><d6p1:double>0.089933921864569333</d6p1:double><d6p1:double>0.45161640422531579</d6p1:double><d6p1:double>1.137396930197732</d6p1:double><d6p1:double>0.89286383498401267</d6p1:double><d6p1:double>0.20094922612261912</d6p1:double><d6p1:double>0.90693804080376794</d6p1:double><d6p1:double>0.735775955831313</d6p1:double><d6p1:double>0.23558315864150042</d6p1:double><d6p1:double>0.29834138914295671</d6p1:double><d6p1:double>0.11863198808918442</d6p1:double><d6p1:double>0.5518418827141035</d6p1:double><d6p1:double>0.850612587666583</d6p1:double><d6p1:double>0.079954780766381781</d6p1:double><d6p1:double>0.45972216169569691</d6p1:double><d6p1:double>0.00469920834365585</d6p1:double><d6p1:double>0.38325965997158329</d6p1:double><d6p1:double>0.61682179944828341</d6p1:double><d6p1:double>0.57392388890756085</d6p1:double><d6p1:double>0.50205625808983445</d6p1:double></Weights></Neuron><Neuron><Bias>-1.0004047115245842</Bias><Output>-1</Output><Weights xmlns:d6p1="http://schemas.microsoft.com/2003/10/Serialization/Arrays"><d6p1:double>-0.39303820714979365</d6p1:double><d6p1:double>-0.41672993290290622</d6p1:double><d6p1:double>-0.36604548837972756</d6p1:double><d6p1:double>-0.031461827089725725</d6p1:double><d6p1:double>0.8672257574955482</d6p1:double><d6p1:double>0.34068383860930268</d6p1:double><d6p1:double>0.66400648079004254</d6p1:double><d6p1:double>0.38792011313633423</d6p1:double><d6p1:double>1.172416834933061</d6p1:double><d6p1:double>1.1377768740435703</d6p1:double><d6p1:double>0.2638110951022567</d6p1:double><d6p1:double>0.645452912284096</d6p1:double><d6p1:double>-0.25506989613028086</d6p1:double><d6p1:double>0.89183914448543267</d6p1:double><d6p1:double>0.1260078919731886</d6p1:double><d6p1:double>1.1797074523339428</d6p1:double><d6p1:double>0.33563850777050019</d6p1:double><d6p1:double>1.0565500549707216</d6p1:double><d6p1:double>0.98465266212692759</d6p1:double><d6p1:double>-0.027740811290402633</d6p1:double><d6p1:double>0.73639847646352441</d6p1:double><d6p1:double>0.99634923797316288</d6p1:double><d6p1:double>0.31761722755454436</d6p1:double><d6p1:double>0.20540611681683613</d6p1:double><d6p1:double>0.24292765552279258</d6p1:double></Weights></Neuron><Neuron><Bias>-0.0003696032429860328</Bias><Output>-1</Output><Weights xmlns:d6p1="http://schemas.microsoft.com/2003/10/Serialization/Arrays"><d6p1:double>0.07315736014828135</d6p1:double><d6p1:double>-0.17464330067573916</d6p1:double><d6p1:double>0.38685804840634141</d6p1:double><d6p1:double>0.85676010983568252</d6p1:double><d6p1:double>0.75612934084098116</d6p1:double><d6p1:double>-0.11478025340696052</d6p1:double><d6p1:double>0.30773875020801061</d6p1:double><d6p1:double>-0.22009815871720576</d6p1:double><d6p1:double>0.62400455355288764</d6p1:double><d6p1:double>0.10137971091846322</d6p1:double><d6p1:double>0.57333120892799772</d6p1:double><d6p1:double>0.62156894005961916</d6p1:double><d6p1:double>0.457211365906064</d6p1:double><d6p1:double>0.50373459163968448</d6p1:double><d6p1:double>0.34363675335265881</d6p1:double><d6p1:double>0.94831322788840489</d6p1:double><d6p1:double>0.73732544219401963</d6p1:double><d6p1:double>0.75892064817003635</d6p1:double><d6p1:double>0.91483775310081861</d6p1:double><d6p1:double>0.42740494244164612</d6p1:double><d6p1:double>1.017233678834095</d6p1:double><d6p1:double>0.3868111436971885</d6p1:double><d6p1:double>0.44232128824832762</d6p1:double><d6p1:double>0.36214897160136655</d6p1:double><d6p1:double>0.95510988699202148</d6p1:double></Weights></Neuron><Neuron><Bias>-0.99905809326870876</Bias><Output>1</Output><Weights xmlns:d6p1="http://schemas.microsoft.com/2003/10/Serialization/Arrays"><d6p1:double>0.17261272072831305</d6p1:double><d6p1:double>0.81060827487203568</d6p1:double><d6p1:double>1.3790238960190666</d6p1:double><d6p1:double>-0.31530636692893993</d6p1:double><d6p1:double>-0.051903138266505625</d6p1:double><d6p1:double>0.10454507688960489</d6p1:double><d6p1:double>0.78541077069467957</d6p1:double><d6p1:double>1.2320276050438224</d6p1:double><d6p1:double>-0.094741802778955345</d6p1:double><d6p1:double>0.21858670282420403</d6p1:double><d6p1:double>-0.1260278957206464</d6p1:double><d6p1:double>-0.56415531190688928</d6p1:double><d6p1:double>1.1495414179658507</d6p1:double><d6p1:double>1.0954775457083641</d6p1:double><d6p1:double>0.32946328769200262</d6p1:double><d6p1:double>0.75465890661404611</d6p1:double><d6p1:double>0.005193902571371518</d6p1:double><d6p1:double>0.41017204797055556</d6p1:double><d6p1:double>0.42715903832112306</d6p1:double><d6p1:double>0.78384531098346077</d6p1:double><d6p1:double>0.095111281427137359</d6p1:double><d6p1:double>0.753397695300511</d6p1:double><d6p1:double>0.078806494199840343</d6p1:double><d6p1:double>0.45628294526474467</d6p1:double><d6p1:double>-0.22623801794476758</d6p1:double></Weights></Neuron><Neuron><Bias>0.0003514833584331892</Bias><Output>1</Output><Weights xmlns:d6p1="http://schemas.microsoft.com/2003/10/Serialization/Arrays"><d6p1:double>0.57928506487162579</d6p1:double><d6p1:double>-0.073298115039476364</d6p1:double><d6p1:double>0.49418559924888089</d6p1:double><d6p1:double>1.1281526481710067</d6p1:double><d6p1:double>0.73286386887734589</d6p1:double><d6p1:double>1.1651885526183339</d6p1:double><d6p1:double>0.87120685555335264</d6p1:double><d6p1:double>0.55426498014853487</d6p1:double><d6p1:double>0.96520393182609565</d6p1:double><d6p1:double>0.59178538368351863</d6p1:double><d6p1:double>0.16358137557062027</d6p1:double><d6p1:double>0.658857858986004</d6p1:double><d6p1:double>1.0695464908271772</d6p1:double><d6p1:double>-0.11105086113713709</d6p1:double><d6p1:double>0.71453316735706363</d6p1:double><d6p1:double>0.90141693886819</d6p1:double><d6p1:double>0.13127296929956056</d6p1:double><d6p1:double>0.715822814434183</d6p1:double><d6p1:double>0.55156507003877964</d6p1:double><d6p1:double>0.40707732940794811</d6p1:double><d6p1:double>-0.3817016398769692</d6p1:double><d6p1:double>0.87516809824339026</d6p1:double><d6p1:double>0.70776739420930035</d6p1:double><d6p1:double>1.21642265293603</d6p1:double><d6p1:double>-0.19723306459951728</d6p1:double></Weights></Neuron><Neuron><Bias>-1.0009795916815731</Bias><Output>-1</Output><Weights xmlns:d6p1="http://schemas.microsoft.com/2003/10/Serialization/Arrays"><d6p1:double>1.4842329021677942</d6p1:double><d6p1:double>-0.7409070974612868</d6p1:double><d6p1:double>0.46466574384663584</d6p1:double><d6p1:double>0.079973873276263666</d6p1:double><d6p1:double>0.28996418398754725</d6p1:double><d6p1:double>0.86733260340475982</d6p1:double><d6p1:double>0.8500912569555269</d6p1:double><d6p1:double>0.71460759213799641</d6p1:double><d6p1:double>0.74222302936805606</d6p1:double><d6p1:double>1.0446019622760798</d6p1:double><d6p1:double>0.290335958593161</d6p1:double><d6p1:double>0.53676487937261963</d6p1:double><d6p1:double>0.41968298225967632</d6p1:double><d6p1:double>-0.016191772988875735</d6p1:double><d6p1:double>0.32413839068785111</d6p1:double><d6p1:double>0.45588152189274173</d6p1:double><d6p1:double>-0.19027476466075824</d6p1:double><d6p1:double>1.2089698738015984</d6p1:double><d6p1:double>0.10929123553297125</d6p1:double><d6p1:double>-0.18669993587818451</d6p1:double><d6p1:double>-0.29229156299342329</d6p1:double><d6p1:double>0.51585200947777521</d6p1:double><d6p1:double>0.32132704314855165</d6p1:double><d6p1:double>0.089631855153382844</d6p1:double><d6p1:double>-0.40933905624627237</d6p1:double></Weights></Neuron><Neuron><Bias>-1.0000872385056332</Bias><Output>1</Output><Weights xmlns:d6p1="http://schemas.microsoft.com/2003/10/Serialization/Arrays"><d6p1:double>0.66678964739432711</d6p1:double><d6p1:double>0.9564196814674103</d6p1:double><d6p1:double>0.21043920735334412</d6p1:double><d6p1:double>0.72108767561150722</d6p1:double><d6p1:double>-0.24193219103153693</d6p1:double><d6p1:double>0.355065017559339</d6p1:double><d6p1:double>0.79802850439048734</d6p1:double><d6p1:double>0.056660077419392114</d6p1:double><d6p1:double>0.048885401256111509</d6p1:double><d6p1:double>0.81540388122181129</d6p1:double><d6p1:double>0.44117118858033139</d6p1:double><d6p1:double>0.54499388133406268</d6p1:double><d6p1:double>1.0207692067567118</d6p1:double><d6p1:double>0.21653380162832211</d6p1:double><d6p1:double>0.84245794178328115</d6p1:double><d6p1:double>0.31890424711880894</d6p1:double><d6p1:double>0.33062487394272128</d6p1:double><d6p1:double>0.41752089019842131</d6p1:double><d6p1:double>0.23224276716748765</d6p1:double><d6p1:double>0.83709087309224939</d6p1:double><d6p1:double>0.74956272000252389</d6p1:double><d6p1:double>-0.018170690998069085</d6p1:double><d6p1:double>0.51418503650266578</d6p1:double><d6p1:double>0.35242337767801546</d6p1:double><d6p1:double>0.96588272495584859</d6p1:double></Weights></Neuron><Neuron><Bias>-0.00050337983610821032</Bias><Output>-1</Output><Weights xmlns:d6p1="http://schemas.microsoft.com/2003/10/Serialization/Arrays"><d6p1:double>0.17330753517340039</d6p1:double><d6p1:double>0.82363032044547047</d6p1:double><d6p1:double>0.406012813576732</d6p1:double><d6p1:double>0.5018587667827018</d6p1:double><d6p1:double>0.78721789299112843</d6p1:double><d6p1:double>-0.39822292810955939</d6p1:double><d6p1:double>0.31401771496433406</d6p1:double><d6p1:double>-0.10959616112966079</d6p1:double><d6p1:double>0.23480823157750511</d6p1:double><d6p1:double>-0.33326801899499631</d6p1:double><d6p1:double>-0.115878220715044</d6p1:double><d6p1:double>1.3292450244782532</d6p1:double><d6p1:double>0.6726084270972561</d6p1:double><d6p1:double>-0.030217930425350106</d6p1:double><d6p1:double>0.73332294902278328</d6p1:double><d6p1:double>0.46884326009721972</d6p1:double><d6p1:double>0.20264384197954205</d6p1:double><d6p1:double>-0.2916521315024474</d6p1:double><d6p1:double>0.34690431832316404</d6p1:double><d6p1:double>1.1914621753691854</d6p1:double><d6p1:double>0.74987856397255859</d6p1:double><d6p1:double>-0.072281792659251637</d6p1:double><d6p1:double>0.76976163588795843</d6p1:double><d6p1:double>0.28214424223720735</d6p1:double><d6p1:double>1.3505072126521505</d6p1:double></Weights></Neuron><Neuron><Bias>-0.9988501748021531</Bias><Output>-1</Output><Weights xmlns:d6p1="http://schemas.microsoft.com/2003/10/Serialization/Arrays"><d6p1:double>0.78646537872950206</d6p1:double><d6p1:double>0.3698755925176162</d6p1:double><d6p1:double>0.36649524431144315</d6p1:double><d6p1:double>0.11275029327004553</d6p1:double><d6p1:double>0.11153216234519625</d6p1:double><d6p1:double>1.0628825517369749</d6p1:double><d6p1:double>0.045211476344905147</d6p1:double><d6p1:double>0.84656369508259421</d6p1:double><d6p1:double>0.43333013167363493</d6p1:double><d6p1:double>0.81826854360046375</d6p1:double><d6p1:double>0.51849940071790213</d6p1:double><d6p1:double>0.33303030414660495</d6p1:double><d6p1:double>0.293199443407282</d6p1:double><d6p1:double>0.88895073898237431</d6p1:double><d6p1:double>-0.055252454501206555</d6p1:double><d6p1:double>0.95974948225999013</d6p1:double><d6p1:double>0.98194851433574071</d6p1:double><d6p1:double>0.97047800074896684</d6p1:double><d6p1:double>-0.092398875451216514</d6p1:double><d6p1:double>0.359844886266096</d6p1:double><d6p1:double>0.635768016481472</d6p1:double><d6p1:double>-0.0032515577082334736</d6p1:double><d6p1:double>1.1291891808773338</d6p1:double><d6p1:double>0.74708617120081378</d6p1:double><d6p1:double>0.11653780320329191</d6p1:double></Weights></Neuron><Neuron><Bias>-0.00080914019014564074</Bias><Output>-1</Output><Weights xmlns:d6p1="http://schemas.microsoft.com/2003/10/Serialization/Arrays"><d6p1:double>0.45798103739295543</d6p1:double><d6p1:double>0.86538409188050847</d6p1:double><d6p1:double>0.030591521922638931</d6p1:double><d6p1:double>0.39811091652882863</d6p1:double><d6p1:double>0.45711101580326274</d6p1:double><d6p1:double>0.97558983800648613</d6p1:double><d6p1:double>0.62108038297316548</d6p1:double><d6p1:double>0.96579701244749949</d6p1:double><d6p1:double>0.19983827055050593</d6p1:double><d6p1:double>0.9484693035791707</d6p1:double><d6p1:double>0.73747916320959084</d6p1:double><d6p1:double>0.22600517832391873</d6p1:double><d6p1:double>-0.14000948344461858</d6p1:double><d6p1:double>-0.037455891783072286</d6p1:double><d6p1:double>0.13331430396226993</d6p1:double><d6p1:double>-0.46893710821381451</d6p1:double><d6p1:double>0.56911099720970038</d6p1:double><d6p1:double>0.87739160358484669</d6p1:double><d6p1:double>-0.10443986987260379</d6p1:double><d6p1:double>0.92005699516140182</d6p1:double><d6p1:double>-0.20538384613034222</d6p1:double><d6p1:double>1.344081439115145</d6p1:double><d6p1:double>0.12731583732272733</d6p1:double><d6p1:double>-0.0413173670401369</d6p1:double><d6p1:double>0.58395558730894</d6p1:double></Weights></Neuron><Neuron><Bias>-0.00045944022792228633</Bias><Output>-1</Output><Weights xmlns:d6p1="http://schemas.microsoft.com/2003/10/Serialization/Arrays"><d6p1:double>1.3993434094814683</d6p1:double><d6p1:double>-0.25978460062922615</d6p1:double><d6p1:double>1.1853008252499855</d6p1:double><d6p1:double>0.51989448192052057</d6p1:double><d6p1:double>0.41910521262604078</d6p1:double><d6p1:double>-0.1994459794163542</d6p1:double><d6p1:double>0.39062129950338553</d6p1:double><d6p1:double>-0.58977160652991789</d6p1:double><d6p1:double>0.33796356187967208</d6p1:double><d6p1:double>0.099441118179692534</d6p1:double><d6p1:double>0.636084367956829</d6p1:double><d6p1:double>-0.2635068944704142</d6p1:double><d6p1:double>0.56160628372470045</d6p1:double><d6p1:double>0.52183418973836659</d6p1:double><d6p1:double>0.53469754158491467</d6p1:double><d6p1:double>0.56588690118336882</d6p1:double><d6p1:double>-0.05886024740936336</d6p1:double><d6p1:double>0.83424229900078783</d6p1:double><d6p1:double>-0.14460265114965906</d6p1:double><d6p1:double>-0.18009723712261669</d6p1:double><d6p1:double>0.74690012866357514</d6p1:double><d6p1:double>0.49470359305265782</d6p1:double><d6p1:double>0.76677451900409321</d6p1:double><d6p1:double>0.89500151548282336</d6p1:double><d6p1:double>0.10951132840263125</d6p1:double></Weights></Neuron><Neuron><Bias>-0.99876689075167</Bias><Output>1</Output><Weights xmlns:d6p1="http://schemas.microsoft.com/2003/10/Serialization/Arrays"><d6p1:double>-0.16057934809591407</d6p1:double><d6p1:double>0.84090716569190449</d6p1:double><d6p1:double>0.04567139303096357</d6p1:double><d6p1:double>-0.29687230882021903</d6p1:double><d6p1:double>-0.20741909505909245</d6p1:double><d6p1:double>0.62522606643216483</d6p1:double><d6p1:double>0.54560732363776243</d6p1:double><d6p1:double>0.55129737426739989</d6p1:double><d6p1:double>0.21010299073770294</d6p1:double><d6p1:double>0.23203957571178163</d6p1:double><d6p1:double>1.1200341304943549</d6p1:double><d6p1:double>0.52005348472451429</d6p1:double><d6p1:double>0.36986745585729408</d6p1:double><d6p1:double>0.599706586406099</d6p1:double><d6p1:double>0.69808752370823579</d6p1:double><d6p1:double>0.95434745699617884</d6p1:double><d6p1:double>0.55094298364761352</d6p1:double><d6p1:double>0.51686701114616784</d6p1:double><d6p1:double>0.8472573395027535</d6p1:double><d6p1:double>0.38531053170727647</d6p1:double><d6p1:double>0.24905407245828168</d6p1:double><d6p1:double>0.27119322653571609</d6p1:double><d6p1:double>0.97034828743801416</d6p1:double><d6p1:double>0.842739937282492</d6p1:double><d6p1:double>0.17528981779498631</d6p1:double></Weights></Neuron><Neuron><Bias>-1.0017234669907873</Bias><Output>-1</Output><Weights 