<?xml version="1.0" encoding="utf-16"?><NeuralNetwork xmlns:i="http://www.w3.org/2001/XMLSchema-instance" xmlns="http://schemas.datacontract.org/2004/07/AE.MachineLearning.NeuralNet.Core"><_networkLayers><NetworkLayer><_isInputLayer>true</_isInputLayer><_neurons><Neuron><Bias>0</Bias><Output>-451.2112986</Output><Weights xmlns:d6p1="http://schemas.microsoft.com/2003/10/Serialization/Arrays"><d6p1:double>1</d6p1:double></Weights></Neuron><Neuron><Bias>0</Bias><Output>292.6968029</Output><Weights xmlns:d6p1="http://schemas.microsoft.com/2003/10/Serialization/Arrays"><d6p1:double>1</d6p1:double></Weights></Neuron><Neuron><Bias>0</Bias><Output>-294.7300992</Output><Weights xmlns:d6p1="http://schemas.microsoft.com/2003/10/Serialization/Arrays"><d6p1:double>1</d6p1:double></Weights></Neuron><Neuron><Bias>0</Bias><Output>-249.3753092</Output><Weights xmlns:d6p1="http://schemas.microsoft.com/2003/10/Serialization/Arrays"><d6p1:double>1</d6p1:double></Weights></Neuron><Neuron><Bias>0</Bias><Output>-553.378432</Output><Weights xmlns:d6p1="http://schemas.microsoft.com/2003/10/Serialization/Arrays"><d6p1:double>1</d6p1:double></Weights></Neuron><Neuron><Bias>0</Bias><Output>76.76509205</Output><Weights xmlns:d6p1="http://schemas.microsoft.com/2003/10/Serialization/Arrays"><d6p1:double>1</d6p1:double></Weights></Neuron><Neuron><Bias>0</Bias><Output>-592.0363631</Output><Weights xmlns:d6p1="http://schemas.microsoft.com/2003/10/Serialization/Arrays"><d6p1:double>1</d6p1:double></Weights></Neuron><Neuron><Bias>0</Bias><Output>396.1477513</Output><Weights xmlns:d6p1="http://schemas.microsoft.com/2003/10/Serialization/Arrays"><d6p1:double>1</d6p1:double></Weights></Neuron><Neuron><Bias>0</Bias><Output>283.0207593</Output><Weights xmlns:d6p1="http://schemas.microsoft.com/2003/10/Serialization/Arrays"><d6p1:double>1</d6p1:double></Weights></Neuron><Neuron><Bias>0</Bias><Output>-227.9463109</Output><Weights xmlns:d6p1="http://schemas.microsoft.com/2003/10/Serialization/Arrays"><d6p1:double>1</d6p1:double></Weights></Neuron><Neuron><Bias>0</Bias><Output>740.8003432</Output><Weights xmlns:d6p1="http://schemas.microsoft.com/2003/10/Serialization/Arrays"><d6p1:double>1</d6p1:double></Weights></Neuron><Neuron><Bias>0</Bias><Output>187.100249</Output><Weights xmlns:d6p1="http://schemas.microsoft.com/2003/10/Serialization/Arrays"><d6p1:double>1</d6p1:double></Weights></Neuron><Neuron><Bias>0</Bias><Output>491.1771424</Output><Weights xmlns:d6p1="http://schemas.microsoft.com/2003/10/Serialization/Arrays"><d6p1:double>1</d6p1:double></Weights></Neuron><Neuron><Bias>0</Bias><Output>280.8557805</Output><Weights xmlns:d6p1="http://schemas.microsoft.com/2003/10/Serialization/Arrays"><d6p1:double>1</d6p1:double></Weights></Neuron><Neuron><Bias>0</Bias><Output>696.7764739</Output><Weights xmlns:d6p1="http://schemas.microsoft.com/2003/10/Serialization/Arrays"><d6p1:double>1</d6p1:double></Weights></Neuron><Neuron><Bias>0</Bias><Output>53.86452983</Output><Weights xmlns:d6p1="http://schemas.microsoft.com/2003/10/Serialization/Arrays"><d6p1:double>1</d6p1:double></Weights></Neuron><Neuron><Bias>0</Bias><Output>217.9766216</Output><Weights xmlns:d6p1="http://schemas.microsoft.com/2003/10/Serialization/Arrays"><d6p1:double>1</d6p1:double></Weights></Neuron><Neuron><Bias>0</Bias><Output>-93.4135227</Output><Weights xmlns:d6p1="http://schemas.microsoft.com/2003/10/Serialization/Arrays"><d6p1:double>1</d6p1:double></Weights></Neuron><Neuron><Bias>0</Bias><Output>432.2146847</Output><Weights xmlns:d6p1="http://schemas.microsoft.com/2003/10/Serialization/Arrays"><d6p1:double>1</d6p1:double></Weights></Neuron><Neuron><Bias>0</Bias><Output>173.8018458</Output><Weights xmlns:d6p1="http://schemas.microsoft.com/2003/10/Serialization/Arrays"><d6p1:double>1</d6p1:double></Weights></Neuron><Neuron><Bias>0</Bias><Output>186.1795997</Output><Weights xmlns:d6p1="http://schemas.microsoft.com/2003/10/Serialization/Arrays"><d6p1:double>1</d6p1:double></Weights></Neuron><Neuron><Bias>0</Bias><Output>212.8156512</Output><Weights xmlns:d6p1="http://schemas.microsoft.com/2003/10/Serialization/Arrays"><d6p1:double>1</d6p1:double></Weights></Neuron><Neuron><Bias>0</Bias><Output>537.4684279</Output><Weights xmlns:d6p1="http://schemas.microsoft.com/2003/10/Serialization/Arrays"><d6p1:double>1</d6p1:double></Weights></Neuron><Neuron><Bias>0</Bias><Output>395.8406741</Output><Weights xmlns:d6p1="http://schemas.microsoft.com/2003/10/Serialization/Arrays"><d6p1:double>1</d6p1:double></Weights></Neuron><Neuron><Bias>0</Bias><Output>376.849937</Output><Weights xmlns:d6p1="http://schemas.microsoft.com/2003/10/Serialization/Arrays"><d6p1:double>1</d6p1:double></Weights></Neuron></_neurons><_numOfNeurons>25</_numOfNeurons><_numberOfInputsPerNeuron>1</_numberOfInputsPerNeuron></NetworkLayer><NetworkLayer><_isInputLayer>false</_isInputLayer><_neurons><Neuron><Bias>-1.0009212096896405</Bias><Output>1</Output><Weights xmlns:d6p1="http://schemas.microsoft.com/2003/10/Serialization/Arrays"><d6p1:double>1.1240307466104911</d6p1:double><d6p1:double>0.46161399288648686</d6p1:double><d6p1:double>0.45083373407268945</d6p1:double><d6p1:double>0.38955885059298256</d6p1:double><d6p1:double>0.60522668247641309</d6p1:double><d6p1:double>0.26383953727197684</d6p1:double><d6p1:double>0.96985084336931471</d6p1:double><d6p1:double>0.340922988051255</d6p1:double><d6p1:double>-0.0777350055000103</d6p1:double><d6p1:double>1.13146426704593</d6p1:double><d6p1:double>0.41158662570574378</d6p1:double><d6p1:double>0.098049918950266615</d6p1:double><d6p1:double>1.002743389256227</d6p1:double><d6p1:double>-0.12797647458093581</d6p1:double><d6p1:double>0.54573295932103938</d6p1:double><d6p1:double>0.35994233728677455</d6p1:double><d6p1:double>0.87902303416755567</d6p1:double><d6p1:double>0.14100845739342946</d6p1:double><d6p1:double>0.44416242078435747</d6p1:double><d6p1:double>0.7362446833797669</d6p1:double><d6p1:double>0.30295930994614084</d6p1:double><d6p1:double>0.474655041377003</d6p1:double><d6p1:double>0.27053949195098692</d6p1:double><d6p1:double>0.28692417771106793</d6p1:double><d6p1:double>0.86866204500107</d6p1:double></Weights></Neuron><Neuron><Bias>-0.99857206757511807</Bias><Output>1</Output><Weights xmlns:d6p1="http://schemas.microsoft.com/2003/10/Serialization/Arrays"><d6p1:double>0.28727830359940376</d6p1:double><d6p1:double>0.49498493497601537</d6p1:double><d6p1:double>0.39894137017926884</d6p1:double><d6p1:double>0.60147703069255265</d6p1:double><d6p1:double>-0.24594782945117374</d6p1:double><d6p1:double>0.88983105679780772</d6p1:double><d6p1:double>-0.6596871584669457</d6p1:double><d6p1:double>0.067461977298445955</d6p1:double><d6p1:double>-0.049960542352546093</d6p1:double><d6p1:double>0.63552912155262065</d6p1:double><d6p1:double>0.073054536688343358</d6p1:double><d6p1:double>1.0211625116764793</d6p1:double><d6p1:double>0.1037288996684939</d6p1:double><d6p1:double>0.57356009893495141</d6p1:double><d6p1:double>0.38586247935417928</d6p1:double><d6p1:double>0.26280186196888577</d6p1:double><d6p1:double>0.49791334099735807</d6p1:double><d6p1:double>-0.13022423102187267</d6p1:double><d6p1:double>0.83512178264846715</d6p1:double><d6p1:double>0.98790292945383773</d6p1:double><d6p1:double>-0.22100423474784128</d6p1:double><d6p1:double>-0.17832655624587304</d6p1:double><d6p1:double>0.56701472065180025</d6p1:double><d6p1:double>1.2534879575434079</d6p1:double><d6p1:double>0.77789449606792127</d6p1:double></Weights></Neuron><Neuron><Bias>-1.001015577849286</Bias><Output>1</Output><Weights xmlns:d6p1="http://schemas.microsoft.com/2003/10/Serialization/Arrays"><d6p1:double>1.0922317399664598</d6p1:double><d6p1:double>0.672763584985974</d6p1:double><d6p1:double>0.7357074666079324</d6p1:double><d6p1:double>0.42007745031202393</d6p1:double><d6p1:double>0.043837721742901667</d6p1:double><d6p1:double>0.067195090624411161</d6p1:double><d6p1:double>1.2267245045575159</d6p1:double><d6p1:double>-0.12550153928338217</d6p1:double><d6p1:double>0.548080832381969</d6p1:double><d6p1:double>0.1994529062014101</d6p1:double><d6p1:double>0.84255728888329851</d6p1:double><d6p1:double>0.34697344985727385</d6p1:double><d6p1:double>0.84407924437962023</d6p1:double><d6p1:double>-0.19183564220220942</d6p1:double><d6p1:double>0.80402514871220565</d6p1:double><d6p1:double>0.70748074961795038</d6p1:double><d6p1:double>-0.17896751051252116</d6p1:double><d6p1:double>0.41927146716178804</d6p1:double><d6p1:double>0.21500249848790057</d6p1:double><d6p1:double>-0.36701238560269434</d6p1:double><d6p1:double>0.2022421001578224</d6p1:double><d6p1:double>0.62183651056379985</d6p1:double><d6p1:double>0.42866463924644144</d6p1:double><d6p1:double>0.52571952145397161</d6p1:double><d6p1:double>-0.005600960060937887</d6p1:double></Weights></Neuron><Neuron><Bias>-1.0005134040197994</Bias><Output>1</Output><Weights xmlns:d6p1="http://schemas.microsoft.com/2003/10/Serialization/Arrays"><d6p1:double>0.79468018981132682</d6p1:double><d6p1:double>0.92329697451713855</d6p1:double><d6p1:double>0.14194512000654513</d6p1:double><d6p1:double>0.42781170408763414</d6p1:double><d6p1:double>0.66908398158257176</d6p1:double><d6p1:double>0.60549364009517481</d6p1:double><d6p1:double>1.1723646974711666</d6p1:double><d6p1:double>0.95019936467148636</d6p1:double><d6p1:double>0.557878467684738</d6p1:double><d6p1:double>0.019007989015341783</d6p1:double><d6p1:double>-0.20278307198848988</d6p1:double><d6p1:double>0.79435069989289941</d6p1:double><d6p1:double>0.55913905971723843</d6p1:double><d6p1:double>0.76004941441657159</d6p1:double><d6p1:double>1.0338710978872512</d6p1:double><d6p1:double>0.72638080056053</d6p1:double><d6p1:double>0.80260490510688609</d6p1:double><d6p1:double>-0.43130310535568889</d6p1:double><d6p1:double>0.31883764235288575</d6p1:double><d6p1:double>0.11284810836352091</d6p1:double><d6p1:double>0.57291294100165568</d6p1:double><d6p1:double>0.85948718891099118</d6p1:double><d6p1:double>1.1981188676433698</d6p1:double><d6p1:double>0.43627501275522962</d6p1:double><d6p1:double>0.36451974879922405</d6p1:double></Weights></Neuron><Neuron><Bias>-0.99986846154126108</Bias><Output>1</Output><Weights xmlns:d6p1="http://schemas.microsoft.com/2003/10/Serialization/Arrays"><d6p1:double>-0.18267492298064636</d6p1:double><d6p1:double>0.86238033953857129</d6p1:double><d6p1:double>0.17135836258323883</d6p1:double><d6p1:double>0.91551205485570331</d6p1:double><d6p1:double>0.43776588584894732</d6p1:double><d6p1:double>0.529543267959748</d6p1:double><d6p1:double>-0.2022380842413592</d6p1:double><d6p1:double>1.1652246782023008</d6p1:double><d6p1:double>0.74150085091569717</d6p1:double><d6p1:double>0.86874600784684364</d6p1:double><d6p1:double>0.79947666294287023</d6p1:double><d6p1:double>0.287936313723503</d6p1:double><d6p1:double>0.91754945701673807</d6p1:double><d6p1:double>0.21032244998901947</d6p1:double><d6p1:double>1.0426710254575391</d6p1:double><d6p1:double>0.86255257031532739</d6p1:double><d6p1:double>0.4398292476218581</d6p1:double><d6p1:double>1.2088688829813981</d6p1:double><d6p1:double>0.42379063177858195</d6p1:double><d6p1:double>0.12690561022009389</d6p1:double><d6p1:double>0.25150076492825824</d6p1:double><d6p1:double>0.52400588084797006</d6p1:double><d6p1:double>0.12365779214792877</d6p1:double><d6p1:double>-0.0653299653989957</d6p1:double><d6p1:double>0.674528746846118</d6p1:double></Weights></Neuron><Neuron><Bias>-0.99836905658616426</Bias><Output>1</Output><Weights xmlns:d6p1="http://schemas.microsoft.com/2003/10/Serialization/Arrays"><d6p1:double>-0.36090646926405595</d6p1:double><d6p1:double>0.65741387022009723</d6p1:double><d6p1:double>0.50555244917114817</d6p1:double><d6p1:double>0.57489599770714617</d6p1:double><d6p1:double>0.52827353755725137</d6p1:double><d6p1:double>1.1110554596497666</d6p1:double><d6p1:double>-0.22130459397249028</d6p1:double><d6p1:double>0.1513732390635317</d6p1:double><d6p1:double>0.38417568564559723</d6p1:double><d6p1:double>0.88263625985727479</d6p1:double><d6p1:double>0.63121607386738077</d6p1:double><d6p1:double>0.96818890753619868</d6p1:double><d6p1:double>0.61438966796487859</d6p1:double><d6p1:double>0.49176557803134818</d6p1:double><d6p1:double>1.219082994501568</d6p1:double><d6p1:double>0.57066775049621687</d6p1:double><d6p1:double>0.17936149064042747</d6p1:double><d6p1:double>-0.00062685544684861025</d6p1:double><d6p1:double>0.094549741010609117</d6p1:double><d6p1:double>0.57936489466099472</d6p1:double><d6p1:double>-0.0037813551425409631</d6p1:double><d6p1:double>0.052422419927957951</d6p1:double><d6p1:double>0.36424371818262508</d6p1:double><d6p1:double>1.0866499075123437</d6p1:double><d6p1:double>0.12048280690856326</d6p1:double></Weights></Neuron><Neuron><Bias>-0.99989189276105583</Bias><Output>1</Output><Weights xmlns:d6p1="http://schemas.microsoft.com/2003/10/Serialization/Arrays"><d6p1:double>0.069383417711680523</d6p1:double><d6p1:double>0.48668961667665123</d6p1:double><d6p1:double>1.145410057016528</d6p1:double><d6p1:double>0.1101996533135149</d6p1:double><d6p1:double>0.85065404340459261</d6p1:double><d6p1:double>-0.271827198062669</d6p1:double><d6p1:double>0.0820709386874928</d6p1:double><d6p1:double>0.51930688285892157</d6p1:double><d6p1:double>0.27728830469814347</d6p1:double><d6p1:double>0.80236272695257749</d6p1:double><d6p1:double>0.35918138871205219</d6p1:double><d6p1:double>0.38017199103452542</d6p1:double><d6p1:double>-0.17865641368913349</d6p1:double><d6p1:double>-0.39425238090815679</d6p1:double><d6p1:double>0.74270424658829981</d6p1:double><d6p1:double>0.52252534390616723</d6p1:double><d6p1:double>-0.0026691974360165496</d6p1:double><d6p1:double>1.2061634527236385</d6p1:double><d6p1:double>-0.15394963178226614</d6p1:double><d6p1:double>0.24882461584269605</d6p1:double><d6p1:double>0.49994635685617894</d6p1:double><d6p1:double>0.069023131867888554</d6p1:double><d6p1:double>-0.073885977018855326</d6p1:double><d6p1:double>1.127683033053702</d6p1:double><d6p1:double>-0.066792117283324445</d6p1:double></Weights></Neuron><Neuron><Bias>-0.00085510805051522475</Bias><Output>-1</Output><Weights xmlns:d6p1="http://schemas.microsoft.com/2003/10/Serialization/Arrays"><d6p1:double>0.69015373769001587</d6p1:double><d6p1:double>0.24752670890631631</d6p1:double><d6p1:double>0.86005855807329556</d6p1:double><d6p1:double>0.26276178158492469</d6p1:double><d6p1:double>0.93755406085622894</d6p1:double><d6p1:double>0.63434884798397051</d6p1:double><d6p1:double>0.47364147627418507</d6p1:double><d6p1:double>0.861256899283903</d6p1:double><d6p1:double>1.1063136563291316</d6p1:double><d6p1:double>0.63740215100354969</d6p1:double><d6p1:double>-0.28726966712814028</d6p1:double><d6p1:double>-0.83728727358821642</d6p1:double><d6p1:double>-0.2191058269844946</d6p1:double><d6p1:double>0.67242385274825578</d6p1:double><d6p1:double>0.533140846141858</d6p1:double><d6p1:double>-0.71659259633102612</d6p1:double><d6p1:double>-0.15413815603130634</d6p1:double><d6p1:double>0.35180267743807203</d6p1:double><d6p1:double>-0.18714416124353131</d6p1:double><d6p1:double>0.32853154017710617</d6p1:double><d6p1:double>-0.14360858540892538</d6p1:double><d6p1:double>0.3603669363694661</d6p1:double><d6p1:double>0.61743390978236778</d6p1:double><d6p1:double>0.40461386587085052</d6p1:double><d6p1:double>0.22516585285164717</d6p1:double></Weights></Neuron><Neuron><Bias>-1.4526225263777903E-06</Bias><Output>1</Output><Weights xmlns:d6p1="http://schemas.microsoft.com/2003/10/Serialization/Arrays"><d6p1:double>0.64547082292974467</d6p1:double><d6p1:double>1.1869979034713365</d6p1:double><d6p1:double>0.74315252893819583</d6p1:double><d6p1:double>-0.034156051979632167</d6p1:double><d6p1:double>0.66171997913326075</d6p1:double><d6p1:double>0.84891066708023943</d6p1:double><d6p1:double>0.913786069807749</d6p1:double><d6p1:double>0.56063054336207263</d6p1:double><d6p1:double>0.13655728762987074</d6p1:double><d6p1:double>0.56692320033694921</d6p1:double><d6p1:double>0.24251041941211374</d6p1:double><d6p1:double>0.31480691815946121</d6p1:double><d6p1:double>0.061403107876024418</d6p1:double><d6p1:double>0.940509956845394</d6p1:double><d6p1:double>0.30772621957545632</d6p1:double><d6p1:double>0.21091080957210881</d6p1:double><d6p1:double>0.34238545288830541</d6p1:double><d6p1:double>-0.0089862616093670539</d6p1:double><d6p1:double>0.46535116518002095</d6p1:double><d6p1:double>1.0403307070785643</d6p1:double><d6p1:double>0.41734365924793093</d6p1:double><d6p1:double>0.308822453415057</d6p1:double><d6p1:double>0.76689778606605619</d6p1:double><d6p1:double>0.16565790163080871</d6p1:double><d6p1:double>1.2184416055699443</d6p1:double></Weights></Neuron><Neuron><Bias>-0.99996534943881743</Bias><Output>1</Output><Weights xmlns:d6p1="http://schemas.microsoft.com/2003/10/Serialization/Arrays"><d6p1:double>1.0115628383823556</d6p1:double><d6p1:double>0.92283892888925767</d6p1:double><d6p1:double>0.22286869195865025</d6p1:double><d6p1:double>0.85543580740346925</d6p1:double><d6p1:double>0.58886641971988474</d6p1:double><d6p1:double>0.66368605610496867</d6p1:double><d6p1:double>0.58607749582885482</d6p1:double><d6p1:double>0.67716169765473966</d6p1:double><d6p1:double>0.96830315289941415</d6p1:double><d6p1:double>0.49295992868364352</d6p1:double><d6p1:double>1.0834708623538636</d6p1:double><d6p1:double>0.58188059613308518</d6p1:double><d6p1:double>0.24867389530543671</d6p1:double><d6p1:double>0.48053098251611881</d6p1:double><d6p1:double>0.27556539563316662</d6p1:double><d6p1:double>0.47992827667038529</d6p1:double><d6p1:double>0.33478125318513763</d6p1:double><d6p1:double>1.006941473337831</d6p1:double><d6p1:double>0.59995191099704925</d6p1:double><d6p1:double>1.0045581867857802</d6p1:double><d6p1:double>0.28233436465099354</d6p1:double><d6p1:double>0.1540556638786</d6p1:double><d6p1:double>-0.18733456988918815</d6p1:double><d6p1:double>0.67097577956873389</d6p1:double><d6p1:double>0.91884333773634</d6p1:double></Weights></Neuron><Neuron><Bias>-0.00030050293959045575</Bias><Output>1</Output><Weights xmlns:d6p1="http://schemas.microsoft.com/2003/10/Serialization/Arrays"><d6p1:double>-1.0508905575920839</d6p1:double><d6p1:double>0.32392546311178982</d6p1:double><d6p1:double>0.011834710172040949</d6p1:double><d6p1:double>0.52339132973953728</d6p1:double><d6p1:double>0.12028279784894441</d6p1:double><d6p1:double>0.63854402553836165</d6p1:double><d6p1:double>-0.086693717206371451</d6p1:double><d6p1:double>0.78947671835320887</d6p1:double><d6p1:double>0.35799182013842334</d6p1:double><d6p1:double>0.46423676141639292</d6p1:double><d6p1:double>0.47710384800802885</d6p1:double><d6p1:double>0.17522987341047114</d6p1:double><d6p1:double>0.61459775793721894</d6p1:double><d6p1:double>1.2889584035455588</d6p1:double><d6p1:double>-0.02401981376725823</d6p1:double><d6p1:double>0.7490829198175053</d6p1:double><d6p1:double>0.29633628289310193</d6p1:double><d6p1:double>1.1717600767952558</d6p1:double><d6p1:double>0.69580191323898688</d6p1:double><d6p1:double>0.46753544154820492</d6p1:double><d6p1:double>-0.12432687155619458</d6p1:double><d6p1:double>1.1014942119011808</d6p1:double><d6p1:double>0.57183121756960242</d6p1:double><d6p1:double>0.021650089773456279</d6p1:double><d6p1:double>-0.67376574551063284</d6p1:double></Weights></Neuron><Neuron><Bias>-1.0004070990375804</Bias><Output>1</Output><Weights xmlns:d6p1="http://schemas.microsoft.com/2003/10/Serialization/Arrays"><d6p1:double>0.59245893729552268</d6p1:double><d6p1:double>0.93901714630795607</d6p1:double><d6p1:double>-0.10708794707047321</d6p1:double><d6p1:double>0.63964933936281487</d6p1:double><d6p1:double>0.87863980693745636</d6p1:double><d6p1:double>-0.26889726853278734</d6p1:double><d6p1:double>-0.52357770342246435</d6p1:double><d6p1:double>0.17049006600654482</d6p1:double><d6p1:double>0.2552720016280014</d6p1:double><d6p1:double>0.15116434065407774</d6p1:double><d6p1:double>0.65651783127144259</d6p1:double><d6p1:double>1.4252607306671039</d6p1:double><d6p1:double>-0.53894888570963084</d6p1:double><d6p1:double>0.51584856481458941</d6p1:double><d6p1:double>-0.17073792844324953</d6p1:double><d6p1:double>0.34252399820739293</d6p1:double><d6p1:double>-0.014465015579582033</d6p1:double><d6p1:double>0.2815771226287283</d6p1:double><d6p1:double>-0.46489429398068044</d6p1:double><d6p1:double>-0.40677852224548605</d6p1:double><d6p1:double>-0.38548734309724692</d6p1:double><d6p1:double>0.89390146490242539</d6p1:double><d6p1:double>0.22581082836118649</d6p1:double><d6p1:double>-0.6576113637896458</d6p1:double><d6p1:double>0.15673228514639495</d6p1:double></Weights></Neuron><Neuron><Bias>-1.0001733575784526</Bias><Output>1</Output><Weights xmlns:d6p1="http://schemas.microsoft.com/2003/10/Serialization/Arrays"><d6p1:double>0.89464491869697993</d6p1:double><d6p1:double>0.17387885603307174</d6p1:double><d6p1:double>0.26331101503090587</d6p1:double><d6p1:double>-0.020672643611989262</d6p1:double><d6p1:double>0.55679175335489373</d6p1:double><d6p1:double>0.95136725594291793</d6p1:double><d6p1:double>0.16794596261724282</d6p1:double><d6p1:double>0.366020595062604</d6p1:double><d6p1:double>0.062781130928757728</d6p1:double><d6p1:double>0.0952700965717212</d6p1:double><d6p1:double>0.36131767339026072</d6p1:double><d6p1:double>0.85702184529510128</d6p1:double><d6p1:double>-0.050966891096922921</d6p1:double><d6p1:double>0.070535005045089874</d6p1:double><d6p1:double>0.24210736335949379</d6p1:double><d6p1:double>0.37610341017021809</d6p1:double><d6p1:double>0.42225244845074505</d6p1:double><d6p1:double>0.78207085665411025</d6p1:double><d6p1:double>0.61426086033684735</d6p1:double><d6p1:double>-0.26981076148567529</d6p1:double><d6p1:double>1.0321795757064183</d6p1:double><d6p1:double>0.2422981200960474</d6p1:double><d6p1:double>0.3179989833964641</d6p1:double><d6p1:double>0.81936771130467934</d6p1:double><d6p1:double>0.69447776950976514</d6p1:double></Weights></Neuron><Neuron><Bias>-0.9993838918450656</Bias><Output>1</Output><Weights xmlns:d6p1="http://schemas.microsoft.com/2003/10/Serialization/Arrays"><d6p1:double>-0.21494037413034564</d6p1:double><d6p1:double>1.0407818734097709</d6p1:double><d6p1:double>0.73756101065284574</d6p1:double><d6p1:double>1.0617497907240634</d6p1:double><d6p1:double>0.0693060777367695</d6p1:double><d6p1:double>0.46516843409055103</d6p1:double><d6p1:double>-0.11333101198547121</d6p1:double><d6p1:double>0.7544878430094093</d6p1:double><d6p1:double>1.0204257072282741</d6p1:double><d6p1:double>0.90113659257664169</d6p1:double><d6p1:double>0.16150557309351085</d6p1:double><d6p1:double>0.36808332395323273</d6p1:double><d6p1:double>1.1604602101880053</d6p1:double><d6p1:double>0.72230344548920677</d6p1:double><d6p1:double>1.1066635988648297</d6p1:double><d6p1:double>0.56161822950083673</d6p1:double><d6p1:double>0.59367569044005974</d6p1:double><d6p1:double>0.055269591668349279</d6p1:double><d6p1:double>0.81190908263492623</d6p1:double><d6p1:double>0.73310582684978243</d6p1:double><d6p1:double>-0.10092746756495777</d6p1:double><d6p1:double>0.49374896817520592</d6p1:double><d6p1:double>0.60653122358231371</d6p1:double><d6p1:double>0.51584863274085435</d6p1:double><d6p1:double>-0.13699339194361007</d6p1:double></Weights></Neuron><Neuron><Bias>-0.99984530207996936</Bias><Output>-1</Output><Weights xmlns:d6p1="http://schemas.microsoft.com/2003/10/Serialization/Arrays"><d6p1:double>0.521328369199148</d6p1:double><d6p1:double>0.50749194832087474</d6p1:double><d6p1:double>0.29313563149531696</d6p1:double><d6p1:double>0.017541963650634877</d6p1:double><d6p1:double>0.91875714067367964</d6p1:double><d6p1:double>0.16462884260412694</d6p1:double><d6p1:double>0.29036383491983003</d6p1:double><d6p1:double>0.2395509259205241</d6p1:double><d6p1:double>1.1659504684410835</d6p1:double><d6p1:double>0.088524104664947215</d6p1:double><d6p1:double>-0.67246770914721232</d6p1:double><d6p1:double>0.068542332333071443</d6p1:double><d6p1:double>0.86027711159609876</d6p1:double><d6p1:double>-0.049738515314629507</d6p1:double><d6p1:double>-0.250386384652834</d6p1:double><d6p1:double>0.12510784243245918</d6p1:double><d6p1:double>0.34656818196013406</d6p1:double><d6p1:double>0.257798306069279</d6p1:double><d6p1:double>0.065134115379595056</d6p1:double><d6p1:double>-0.23973176935605689</d6p1:double><d6p1:double>1.7684263968007001</d6p1:double><d6p1:double>-0.60466327424278077</d6p1:double><d6p1:double>0.32183760885182827</d6p1:double><d6p1:double>-0.13997517620252453</d6p1:double><d6p1:double>0.082133166496245386</d6p1:double></Weights></Neuron><Neuron><Bias>-0.0001571085492116015</Bias><Output>1</Output><Weights xmlns:d6p1="http://schemas.microsoft.com/2003/10/Serialization/Arrays"><d6p1:double>0.17269478864851559</d6p1:double><d6p1:double>1.2930206587465314</d6p1:double><d6p1:double>-0.30468782710002246</d6p1:double><d6p1:double>0.047219834724358062</d6p1:double><d6p1:double>-0.062345370120013635</d6p1:double><d6p1:double>0.83847662812784707</d6p1:double><d6p1:double>0.80857629579934387</d6p1:double><d6p1:double>-0.20835797395177441</d6p1:double><d6p1:double>-0.33304881003268882</d6p1:double><d6p1:double>0.26189852727677315</d6p1:double><d6p1:double>0.878891786366724</d6p1:double><d6p1:double>1.3120746846204434</d6p1:double><d6p1:double>-0.31352352849376697</d6p1:double><d6p1:double>0.80845144706302852</d6p1:double><d6p1:double>1.5144373946431269</d6p1:double><d6p1:double>0.291733309752875</d6p1:double><d6p1:double>0.7981238161530968</d6p1:double><d6p1:double>0.17479559258101643</d6p1:double><d6p1:double>0.3213311111008742</d6p1:double><d6p1:double>0.13418861564913168</d6p1:double><d6p1:double>0.29988090692260388</d6p1:double><d6p1:double>0.77011323340838789</d6p1:double><d6p1:double>0.006408949582734128</d6p1:double><d6p1:double>0.51008694657321163</d6p1:double><d6p1:double>0.71049849140114429</d6p1:double></Weights></Neuron><Neuron><Bias>-0.00097639239811989065</Bias><Output>-1</Output><Weights xmlns:d6p1="http://schemas.microsoft.com/2003/10/Serialization/Arrays"><d6p1:double>0.52180407070099188</d6p1:double><d6p1:double>0.97007060694460223</d6p1:double><d6p1:double>-0.055196171727923612</d6p1:double><d6p1:double>0.22072612336329198</d6p1:double><d6p1:double>1.2963353742834618</d6p1:double><d6p1:double>0.44569124932886128</d6p1:double><d6p1:double>0.63240676283577268</d6p1:double><d6p1:double>0.52339171278240981</d6p1:double><d6p1:double>0.23046292190566711</d6p1:double><d6p1:double>0.15235266542291287</d6p1:double><d6p1:double>-0.38794644166009296</d6p1:double><d6p1:double>0.56247087688358788</d6p1:double><d6p1:double>-0.20629772557952597</d6p1:double><d6p1:double>-0.0034857828000584954</d6p1:double><d6p1:double>0.622950205047592</d6p1:double><d6p1:double>0.775508283517003</d6p1:double><d6p1:double>0.038668350432990876</d6p1:double><d6p1:double>0.51912102706714713</d6p1:double><d6p1:double>0.69064803961380827</d6p1:double><d6p1:double>0.194214133999918</d6p1:double><d6p1:double>-0.0098525117749624757</d6p1:double><d6p1:double>0.735989395725287</d6p1:double><d6p1:double>0.14475622412124084</d6p1:double><d6p1:double>-0.35592448113654745</d6p1:double><d6p1:double>0.5175993241346557</d6p1:double></Weights></Neuron><Neuron><Bias>-0.99975643821533711</Bias><Output>1</Output><Weights xmlns:d6p1="http://schemas.microsoft.com/2003/10/Serialization/Arrays"><d6p1:double>0.10723661581325697</d6p1:double><d6p1:double>0.18114515356426544</d6p1:double><d6p1:double>0.5724585943022088</d6p1:double><d6p1:double>0.32739482660881364</d6p1:double><d6p1:double>0.65815189662978713</d6p1:double><d6p1:double>0.098980963140425648</d6p1:double><d6p1:double>0.95597785221055687</d6p1:double><d6p1:double>0.11896769537031106</d6p1:double><d6p1:double>0.69523367512443313</d6p1:double><d6p1:double>1.0105245425909479</d6p1:double><d6p1:double>0.54711232657251962</d6p1:double><d6p1:double>1.2133730823266666</d6p1:double><d6p1:double>0.9178747657266072</d6p1:double><d6p1:double>0.12593940702821357</d6p1:double><d6p1:double>0.41477009092079059</d6p1:double><d6p1:double>0.46559529755576828</d6p1:double><d6p1:double>0.72309160127197136</d6p1:double><d6p1:double>0.46313029476503026</d6p1:double><d6p1:double>1.0108575660831263</d6p1:double><d6p1:double>0.48695764431798744</d6p1:double><d6p1:double>0.21615862540254155</d6p1:double><d6p1:double>0.19983376883143117</d6p1:double><d6p1:double>0.77777547876070008</d6p1:double><d6p1:double>1.0210603605134949</d6p1:double><d6p1:double>0.55060407368515707</d6p1:double></Weights></Neuron><Neuron><Bias>-0.00022979746585101351</Bias><Output>1</Output><Weights xmlns:d6p1="http://schemas.microsoft.com/2003/10/Serialization/Arrays"><d6p1:double>0.4272581292502094</d6p1:double><d6p1:double>1.1041113445828914</d6p1:double><d6p1:double>0.79929434132805055</d6p1:double><d6p1:double>0.55043867050152118</d6p1:double><d6p1:double>0.9676464599381831</d6p1:double><d6p1:double>0.16899941866444004</d6p1:double><d6p1:double>0.91747813403425948</d6p1:double><d6p1:double>-0.16947920921169957</d6p1:double><d6p1:double>0.10190181399025965</d6p1:double><d6p1:double>0.1317519362737323</d6p1:double><d6p1:double>-0.040020230538762809</d6p1:double><d6p1:double>0.53963426246082724</d6p1:double><d6p1:double>0.66909799941876968</d6p1:double><d6p1:double>0.72971874947497084</d6p1:double><d6p1:double>0.53740721683924053</d6p1:double><d6p1:double>0.88119693955100487</d6p1:double><d6p1:double>0.5021364477297382</d6p1:double><d6p1:double>0.37752998923644354</d6p1:double><d6p1:double>0.95133909287670948</d6p1:double><d6p1:double>0.20481195769705207</d6p1:double><d6p1:double>1.2620311772757702</d6p1:double><d6p1:double>0.073902561877113526</d6p1:double><d6p1:double>0.48541924582343859</d6p1:double><d6p1:double>0.38840691839592278</d6p1:double><d6p1:double>0.27337431935710682</d6p1:double></Weights></Neuron><Neuron><Bias>-1.0005300560892876</Bias><Output>1</Output><Weights xmlns:d6p1="http://schemas.microsoft.com/2003/10/Serialization/Arrays"><d6p1:double>0.51065044893986333</d6p1:double><d6p1:double>-0.27158907665231624</d6p1:double><d6p1:double>0.31015755861606248</d6p1:double><d6p1:double>-0.04472557871071034</d6p1:double><d6p1:double>-0.1540822580738444</d6p1:double><d6p1:double>0.72600371361369986</d6p1:double><d6p1:double>0.81681996396704359</d6p1:double><d6p1:double>0.14699967946803127</d6p1:double><d6p1:double>0.34393390787149036</d6p1:double><d6p1:double>0.66631951168693382</d6p1:double><d6p1:double>0.55958456699908865</d6p1:double><d6p1:double>1.0098049909955578</d6p1:double><d6p1:double>0.086732076088880547</d6p1:double><d6p1:double>0.3011461364460194</d6p1:double><d6p1:double>1.2486050429258431</d6p1:double><d6p1:double>0.68739255536196642</d6p1:double><d6p1:double>-0.022794495096043095</d6p1:double><d6p1:double>1.4344746908551205</d6p1:double><d6p1:double>0.39970930414128308</d6p1:double><d6p1:double>-0.0086347292598982339</d6p1:double><d6p1:double>0.86793592201689462</d6p1:double><d6p1:double>0.51764724089778036</d6p1:double><d6p1:double>0.54233347924881714</d6p1:double><d6p1:double>0.0715902990502681</d6p1:double><d6p1:double>-0.51032304769013692</d6p1:double></Weights></Neuron><Neuron><Bias>-0.99941546386928337</Bias><Output>-1</Output><Weights xmlns:d6p1="http://schemas.microsoft.com/2003/10/Serialization/Arrays"><d6p1:double>-0.3444548050217493</d6p1:double><d6p1:double>-0.28111303935801407</d6p1:double><d6p1:double>1.412158912685024</d6p1:double><d6p1:double>-0.79124824416260453</d6p1:double><d6p1:double>0.63763910957247338</d6p1:double><d6p1:double>0.19096013438258413</d6p1:double><d6p1:double>0.70850827993730581</d6p1:double><d6p1:double>-0.068883309846593743</d6p1:double><d6p1:double>0.42571979409392013</d6p1:double><d6p1:double>0.26134118194333122</d6p1:double><d6p1:double>-0.39522426861624721</d6p1:double><d6p1:double>-0.99152772790784038</d6p1:double><d6p1:double>0.98587401030852873</d6p1:double><d6p1:double>0.76725478156555649</d6p1:double><d6p1:double>-0.17523552017219668</d6p1:double><d6p1:double>0.13884116182031572</d6p1:double><d6p1:double>1.1098058803293629</d6p1:double><d6p1:double>1.0048829703621271</d6p1:double><d6p1:double>-0.24505982588776376</d6p1:double><d6p1:double>0.15150627384045232</d6p1:double><d6p1:double>0.29152619621165088</d6p1:double><d6p1:double>0.061926384380507717</d6p1:double><d6p1:double>0.60492116787451677</d6p1:double><d6p1:double>0.11246813786024516</d6p1:double><d6p1:double>-0.70122376997108538</d6p1:double></Weights></Neuron><Neuron><Bias>0.00058404432332727785</Bias><Output>1</Output><Weights xmlns:d6p1="http://schemas.microsoft.com/2003/10/Serialization/Arrays"><d6p1:double>-0.20553118998199799</d6p1:double><d6p1:double>0.86552193270410149</d6p1:double><d6p1:double>0.71826648686838668</d6p1:double><d6p1:double>0.24641020638456559</d6p1:double><d6p1:double>0.56928868975330438</d6p1:double><d6p1:double>0.81170946014863654</d6p1:double><d6p1:double>0.97327999813190991</d6p1:double><d6p1:double>0.74641747113238566</d6p1:double><d6p1:double>0.49720334868926375</d6p1:double><d6p1:double>0.80451355493508592</d6p1:double><d6p1:double>1.0051965436471779</d6p1:double><d6p1:double>-0.0325007107984556</d6p1:double><d6p1:double>-0.05715753057701875</d6p1:double><d6p1:double>0.49619566888939565</d6p1:double><d6p1:double>0.56929760511096139</d6p1:double><d6p1:double>0.20589376708258808</d6p1:double><d6p1:double>0.70693395856255337</d6p1:double><d6p1:double>0.21148483417884673</d6p1:double><d6p1:double>0.86414233097677018</d6p1:double><d6p1:double>-0.081030049416829161</d6p1:double><d6p1:double>0.63799711177171736</d6p1:double><d6p1:double>1.1964256039837153</d6p1:double><d6p1:double>0.15858192647177577</d6p1:double><d6p1:double>0.7039755714485989</d6p1:double><d6p1:double>0.34884119828209859</d6p1:double></Weights></Neuron><Neuron><Bias>-0.99986093181716762</Bias><Output>1</Output><Weights xmlns:d6p1="http://schemas.microsoft.com/2003/10/Serialization/Arrays"><d6p1:double>0.12821809751447025</d6p1:double><d6p1:double>0.45616278093383583</d6p1:double><d6p1:double>0.49884936017543008</d6p1:double><d6p1:double>0.73140920234966444</d6p1:double><d6p1:double>0.81470097857657375</d6p1:double><d6p1:double>0.484438911053709</d6p1:double><d6p1:double>1.0236026613008651</d6p1:double><d6p1:double>0.90795522385490535</d6p1:double><d6p1:double>0.17569233879463692</d6p1:double><d6p1:double>0.52899295799800528</d6p1:double><d6p1:double>0.310134690551796</d6p1:double><d6p1:double>0.94059830624244434</d6p1:double><d6p1:double>0.39772670762960072</d6p1:double><d6p1:double>-0.064574194058336434</d6p1:double><d6p1:double>0.033189375728467092</d6p1:double><d6p1:double>0.54711458515056255</d6p1:double><d6p1:double>0.96221733421484779</d6p1:double><d6p1:double>0.53944692347375967</d6p1:double><d6p1:double>0.21540259871594722</d6p1:double><d6p1:double>0.55411890247000262</d6p1:double><d6p1:double>0.6705634249695861</d6p1:double><d6p1:double>0.84015807131888665</d6p1:double><d6p1:double>-0.2251058619530554</d6p1:double><d6p1:double>0.24414092771741192</d6p1:double><d6p1:double>0.603751686679746</d6p1:double></Weights></Neuron><Neuron><Bias>-1.0001736022069279</Bias><Output>1</Output><Weights xmlns:d6p1="http://schemas.microsoft.com/2003/10/Serialization/Arrays"><d6p1:double>0.49799638634346954</d6p1:double><d6p1:double>-0.10734507318276029</d6p1:double><d6p1:double>0.167300426606059</d6p1:double><d6p1:double>0.25233831833924736</d6p1:double><d6p1:double>1.059834978406853</d6p1:double><d6p1:double>0.34106321510646675</d6p1:double><d6p1:double>0.7336635683590772</d6p1:double><d6p1:double>0.5534959740822506</d6p1:double><d6p1:double>0.23176156498591072</d6p1:double><d6p1:double>0.17310778578521979</d6p1:double><d6p1:double>0.47473502539799323</d6p1:double><d6p1:double>0.9670329555110192</d6p1:double><d6p1:double>-0.28811825213917558</d6p1:double><d6p1:double>1.0218450759133622</d6p1:double><d6p1:double>0.075445625902367336</d6p1:double><d6p1:double>0.4400414772626835</d6p1:double><d6p1:double>0.40006174276479584</d6p1:double><d6p1:double>0.82274167016860833</d6p1:double><d6p1:double>0.76564903534478912</d6p1:double><d6p1:double>0.61598380266619068</d6p1:double><d6p1:double>0.89141451854219655</d6p1:double><d6p1:double>1.0268015232422463</d6p1:double><d6p1:double>1.0607939391285008</d6p1:double><d6p1:double>-0.54257187825496267</d6p1:double><d6p1:double>-0.14753970597634322</d6p1:double></Weights></Neuron><Neuron><Bias>-1.0003040684825952</Bias><Output>1</Output><Weights xmlns:d6p1="http://schemas.microsoft.com/2003/10/Serialization/Arrays"><d6p1:double>0.9312179096256179</d6p1:double><d6p1:double>-0.038896598570002161</d6p1:double><d6p1:double>0.78984386972656173</d6p1:double><d6p1:double>0.26982175020268745</d6p1:double><d6p1:double>0.62703483074239219</d6p1:double><d6p1:double>-0.0028059626935647208</d6p1:double><d6p1:double>1.0354867654959163</d6p1:double><d6p1:double>0.29502315622828995</d6p1:double><d6p1:double>0.84813494042154969</d6p1:double><d6p1:double>1.0098484907017431</d6p1:double><d6p1:double>9.4360883352297489E-05</d6p1:double><d6p1:double>0.72855886387029967</d6p1:double><d6p1:double>0.7291984663621186</d6p1:double><d6p1:double>0.31536845227158883</d6p1:double><d6p1:double>-0.069344641394624151</d6p1:double><d6p1:double>0.24945572064624583</d6p1:double><d6p1:double>0.60322492169977338</d6p1:double><d6p1:double>0.5312149284972647</d6p1:double><d6p1:double>-0.16519992764572658</d6p1:double><d6p1:double>0.13895721619123011</d6p1:double><d6p1:double>0.19647191179280943</d6p1:double><d6p1:double>0.6688819118892575</d6p1:double><d6p1:double>0.75740019441506634</d6p1:double><d6p1:double>0.25150429196852825</d6p1:double><d6p1:double>0.82152681310936926</d6p1:double></Weights></Neuron><Neuron><Bias>-0.99973010323596356</Bias><Output>1</Output><Weights xmlns:d6p1="http://schemas.microsoft.com/2003/10/Serialization/Arrays"><d6p1:double>0.60449367951681221</d6p1:double><d6p1:double>-0.17928427818557693</d6p1:double><d6p1:double>1.0636230094995163</d6p1:double><d6p1:double>0.22718705859082364</d6p1:double><d6p1:double>-0.3616740052827746</d6p1:double><d6p1:double>-0.0810257497714002</d6p1:double><d6p1:double>0.27464148358680229</d6p1:double><d6p1:double>0.39453011686066508</d6p1:double><d6p1:double>0.29561301184831834</d6p1:double><d6p1:double>0.50537071494236585</d6p1:double><d6p1:double>-0.49796359683431152</d6p1:double><d6p1:double>-0.78533905565644924</d6p1:double><d6p1:double>1.0951521774461137</d6p1:double><d6p1:double>0.98930743725581161</d6p1:double><d6p1:double>0.63868371015783</d6p1:double><d6p1:double>0.47555998906242425</d6p1:double><d6p1:double>0.99306362703255535</d6p1:double><d6p1:double>-0.047826851021880945</d6p1:double><d6p1:double>0.082858028884198576</d6p1:double><d6p1:double>0.31999778366585957</d6p1:double><d6p1:double>0.0047250883087699824</d6p1:double><d6p1:double>0.07493216136401834</d6p1:double><d6p1:double>0.81064047431337027</d6p1:double><d6p1:double>0.40718127643930752</d6p1:double><d6p1:double>-0.027632518437123103</d6p1:double></Weights></Neuron><Neuron><Bias>-0.9991205333245271</Bias><Output>1</Output><Weights xmlns:d6p1="http://schemas.microsoft.com/2003/10/Serialization/Arrays"><d6p1:double>-0.17975704519699659</d6p1:double><d6p1:double>-0.13488957466739016</d6p1:double><d6p1:double>0.87274706830682647</d6p1:double><d6p1:double>-0.30399817679796187</d6p1:double><d6p1:double>0.336328761627973</d6p1:double><d6p1:double>0.25098420637558616</d6p1:double><d6p1:double>0.6549972796083382</d6p1:double><d6p1:double>-0.033065339536191909</d6p1:double><d6p1:double>0.74649709185723268</d6p1:double><d6p1:double>1.0529630041159033</d6p1:double><d6p1:double>0.55942876364120309</d6p1:double><d6p1:double>0.43153930292712311</d6p1:double><d6p1:double>1.02547088414618</d6p1:double><d6p1:double>1.0882926262353418</d6p1:double><d6p1:double>1.8539577727966947</d6p1:double><d6p1:double>0.11854850979877996</d6p1:double><d6p1:double>0.22893697138964911</d6p1:double><d6p1:double>0.0412097561805542</d6p1:double><d6p1:double>0.45732164376837103</d6p1:double><d6p1:double>0.20430697690057892</d6p1:double><d6p1:double>0.18292996483608026</d6p1:double><d6p1:double>0.40827520557627645</d6p1:double><d6p1:double>0.1689372682159718</d6p1:double><d6p1:double>0.43992472094259777</d6p1:double><d6p1:double>0.021332080534411314</d6p1:double></Weights></Neuron><Neuron><Bias>-0.99995923394737951</Bias><Output>1</Output><Weights xmlns:d6p1="http://schemas.microsoft.com/2003/10/Serialization/Arrays"><d6p1:double>-0.22833177760418497</d6p1:double><d6p1:double>-0.10178487208806637</d6p1:double><d6p1:double>-0.0092229968603275442</d6p1:double><d6p1:double>0.84640417078493413</d6p1:double><d6p1:double>0.20599105100902745</d6p1:double><d6p1:double>-0.64660876460156069</d6p1:double><d6p1:double>-0.33837583788179676</d6p1:double><d6p1:double>0.69062478567084351</d6p1:double><d6p1:double>-0.29648598861182185</d6p1:double><d6p1:double>-0.82549598799995016</d6p1:double><d6p1:double>0.720855440567242</d6p1:double><d6p1:double>0.22628039613401205</d6p1:double><d6p1:double>-0.13910631185199207</d6p1:double><d6p1:double>1.5766051992089938</d6p1:double><d6p1:double>-0.3457586055199367</d6p1:double><d6p1:double>0.75208608912953911</d6p1:double><d6p1:double>0.65432951990426869</d6p1:double><d6p1:double>-0.035587044274346544</d6p1:double><d6p1:double>0.80543574711650812</d6p1:double><d6p1:double>0.60682247222919672</d6p1:double><d6p1:double>0.096391342262669655</d6p1:double><d6p1:double>0.40339836051568528</d6p1:double><d6p1:double>0.30232905854557618</d6p1:double><d6p1:double>0.285996943882014</d6p1:double><d6p1:double>0.018798252945854493</d6p1:double></Weights></Neuron><Neuron><Bias>-1.0003172581420319</Bias><Output>1</Output><Weights xmlns:d6p1="http://schemas.microsoft.com/2003/10/Serialization/Arrays"><d6p1:double>0.12091355300784762</d6p1:double><d6p1:double>0.3092488007485803</d6p1:double><d6p1:double>0.684143556496765</d6p1:double><d6p1:double>0.851307617600475</d6p1:double><d6p1:double>0.82703641346936807</d6p1:double><d6p1:double>0.15312606694989728</d6p1:double><d6p1:double>0.14602806410896435</d6p1:double><d6p1:double>0.19880033348378531</d6p1:double><d6p1:double>0.7496798810604921</d6p1:double><d6p1:double>1.1140121923985942</d6p1:double><d6p1:double>0.40953145124760393</d6p1:double><d6p1:double>0.41755364294234176</d6p1:double><d6p1:double>0.41011388911379909</d6p1:double><d6p1:double>0.60230607016081494</d6p1:double><d6p1:double>-0.25525011796715269</d6p1:double><d6p1:double>-0.65480305294057251</d6p1:double><d6p1:double>0.68842555511546288</d6p1:double><d6p1:double>0.98220908661294581</d6p1:double><d6p1:double>0.638820151843868</d6p1:double><d6p1:double>1.5784003670721656</d6p1:double><d6p1:double>-0.1099043910505323</d6p1:double><d6p1:double>0.356070112392376</d6p1:double><d6p1:double>0.16308288891128947</d6p1:double><d6p1:double>-0.0394228882150893</d6p1:double><d6p1:double>0.53713410453511923</d6p1:double></Weights></Neuron><Neuron><Bias>0.00021169058788626289</Bias><Output>1</Output><Weights xmlns:d6p1="http://schemas.microsoft.com/2003/10/Serialization/Arrays"><d6p1:double>0.29065243505164262</d6p1:double><d6p1:double>0.3870097113298514</d6p1:double><d6p1:double>0.1131789994110572</d6p1:double><d6p1:double>0.048968412021871438</d6p1:double><d6p1:double>0.14806361314872576</d6p1:double><d6p1:double>0.60202588715837235</d6p1:double><d6p1:double>0.85055814927753459</d6p1:double><d6p1:double>1.2005185180840754</d6p1:double><d6p1:double>0.58895132405775652</d6p1:double><d6p1:double>0.395418615138497</d6p1:double><d6p1:double>0.064513536767779378</d6p1:double><d6p1:double>0.91566691587000071</d6p1:double><d6p1:double>0.51601504348755967</d6p1:double><d6p1:double>-0.24292692672824831</d6p1:double><d6p1:double>0.76232116577974585</d6p1:double><d6p1:double>0.99234651053844058</d6p1:double><d6p1:double>0.02572312135400202</d6p1:double><d6p1:double>-0.004623928691254984</d6p1:double><d6p1:double>-0.035108271543866316</d6p1:double><d6p1:double>0.98192627471236626</d6p1:double><d6p1:double>0.10586773852411263</d6p1:double><d6p1:double>-0.23413196027270056</d6p1:double><d6p1:double>-0.29438275122515256</d6p1:double><d6p1:double>0.50469886840873712</d6p1:double><d6p1:double>0.4420509468921941</d6p1:double></Weights></Neuron><Neuron><Bias>0.00046541641132865057</Bias><Output>1</Output><Weights xmlns:d6p1="http://schemas.microsoft.com/2003/10/Serialization/Arrays"><d6p1:double>-0.19695426779058842</d6p1:double><d6p1:double>-0.097938445949267</d6p1:double><d6p1:double>0.092622631704038325</d6p1:double><d6p1:double>0.4542174908915852</d6p1:double><d6p1:double>-0.26280822969159506</d6p1:double><d6p1:double>0.49943575483793878</d6p1:double><d6p1:double>-0.42899463277145505</d6p1:double><d6p1:double>0.46775561650884773</d6p1:double><d6p1:double>0.871517601301946</d6p1:double><d6p1:double>0.099037071327220907</d6p1:double><d6p1:double>0.21728628625987317</d6p1:double><d6p1:double>0.60736098202027644</d6p1:double><d6p1:double>0.3526163285593229</d6p1:double><d6p1:double>0.91355129531149815</d6p1:double><d6p1:double>0.60865984972909948</d6p1:double><d6p1:double>1.2196740795832235</d6p1:double><d6p1:double>0.0039117265172885123</d6p1:double><d6p1:double>1.6258067766977176</d6p1:double><d6p1:double>0.28075022233387781</d6p1:double><d6p1:double>-0.4572303033860452</d6p1:double><d6p1:double>0.61698460594364513</d6p1:double><d6p1:double>0.20371574845587118</d6p1:double><d6p1:double>0.23980927825347872</d6p1:double><d6p1:double>0.11224206802545297</d6p1:double><d6p1:double>-0.35622690069152468</d6p1:double></Weights></Neuron><Neuron><Bias>-0.99959065109423229</Bias><Output>1</Output><Weights xmlns:d6p1="http://schemas.microsoft.com/2003/10/Serialization/Arrays"><d6p1:double>0.11201751952374404</d6p1:double><d6p1:double>0.49440080160047423</d6p1:double><d6p1:double>0.75321017059091511</d6p1:double><d6p1:double>0.54280683878877312</d6p1:double><d6p1:double>0.10268913399956793</d6p1:double><d6p1:double>0.6014898697883091</d6p1:double><d6p1:double>0.17473836073451773</d6p1:double><d6p1:double>0.7420494935300499</d6p1:double><d6p1:double>0.64653135279565765</d6p1:double><d6p1:double>-0.22566107828829468</d6p1:double><d6p1:double>0.66788892436044911</d6p1:double><d6p1:double>0.026975225969118648</d6p1:double><d6p1:double>1.280020544244014</d6p1:double><d6p1:double>0.46361999349733685</d6p1:double><d6p1:double>0.27394318524383321</d6p1:double><d6p1:double>0.4418361643182625</d6p1:double><d6p1:double>0.66619524970510957</d6p1:double><d6p1:double>0.37662267740906075</d6p1:double><d6p1:double>0.54776910387404165</d6p1:double><d6p1:double>1.3195387064129402</d6p1:double><d6p1:double>0.33547897854635145</d6p1:double><d6p1:double>-0.4387283868463942</d6p1:double><d6p1:double>0.8088399616959201</d6p1:double><d6p1:double>0.81694186384166789</d6p1:double><d6p1:double>0.13491790960267708</d6p1:double></Weights></Neuron><Neuron><Bias>-1.000308514103486</Bias><Output>1</Output><Weights xmlns:d6p1="http://schemas.microsoft.com/2003/10/Serialization/Arrays"><d6p1:double>0.68658392037177385</d6p1:double><d6p1:double>0.0071141411422003028</d6p1:double><d6p1:double>-0.053520101193530061</d6p1:double><d6p1:double>-0.31291840154007133</d6p1:double><d6p1:double>0.11283576203270831</d6p1:double><d6p1:double>0.55779041205169189</d6p1:double><d6p1:double>1.1260038019963214</d6p1:double><d6p1:double>0.57549402430493624</d6p1:double><d6p1:double>0.32548642002311912</d6p1:double><d6p1:double>0.63580030286350575</d6p1:double><d6p1:double>0.67860559841009038</d6p1:double><d6p1:double>0.12538147930066107</d6p1:double><d6p1:double>0.31418704035498729</d6p1:double><d6p1:double>0.25111529967290741</d6p1:double><d6p1:double>0.14540411065423436</d6p1:double><d6p1:double>0.33343662380641964</d6p1:double><d6p1:double>0.45238580260343203</d6p1:double><d6p1:double>-0.21945559308804083</d6p1:double><d6p1:double>0.95032451990360312</d6p1:double><d6p1:double>0.91642114291263488</d6p1:double><d6p1:double>0.8840762805192276</d6p1:double><d6p1:double>0.20292737145456785</d6p1:double><d6p1:double>0.60300143768623</d6p1:double><d6p1:double>-0.16824333095410826</d6p1:double><d6p1:double>0.66734996512181111</d6p1:double></Weights></Neuron><Neuron><Bias>-0.00049281372302337125</Bias><Output>1</Output><Weights xmlns:d6p1="http://schemas.microsoft.com/2003/10/Serialization/Arrays"><d6p1:double>0.69007470140339511</d6p1:double><d6p1:double>-0.017187169090420569</d6p1:double><d6p1:double>0.96309426468494086</d6p1:double><d6p1:double>0.21529208134151029</d6p1:double><d6p1:double>0.96789479038890147</d6p1:double><d6p1:double>0.11445640846432188</d6p1:double><d6p1:double>0.89676368532180928</d6p1:double><d6p1:double>1.2789009883393607</d6p1:double><d6p1:double>0.25656877213203938</d6p1:double><d6p1:double>0.70222500669328158</d6p1:double><d6p1:double>0.65746876916730956</d6p1:double><d6p1:double>0.28390326384002296</d6p1:double><d6p1:double>0.28707996271985803</d6p1:double><d6p1:double>1.0249742689118935</d6p1:double><d6p1:double>0.79813923153653976</d6p1:double><d6p1:double>0.50610337842410413</d6p1:double><d6p1:double>0.19402878377575272</d6p1:double><d6p1:double>0.41970670556218664</d6p1:double><d6p1:double>0.48460376729819205</d6p1:double><d6p1:double>-0.078130289201416792</d6p1:double><d6p1:double>-0.15981229430429153</d6p1:double><d6p1:double>0.74029510383412145</d6p1:double><d6p1:double>0.83886985578194162</d6p1:double><d6p1:double>0.65110306795373907</d6p1:double><d6p1:double>0.35233653836615869</d6p1:double></Weights></Neuron><Neuron><Bias>-0.99950923898892075</Bias><Output>1</Output><Weights xmlns:d6p1="http://schemas.microsoft.com/2003/10/Serialization/Arrays"><d6p1:double>0.51437667643942564</d6p1:double><d6p1:double>0.20149694636517576</d6p1:double><d6p1:double>0.28434186733188793</d6p1:double><d6p1:double>-0.66853508306657161</d6p1:double><d6p1:double>0.54564567722520907</d6p1:double><d6p1:double>1.0890873724278489</d6p1:double><d6p1:double>0.73493715770139734</d6p1:double><d6p1:double>-0.41366822382699281</d6p1:double><d6p1:double>0.15902041947214232</d6p1:double><d6p1:double>0.34215988939375863</d6p1:double><d6p1:double>0.4745151177189314</d6p1:double><d6p1:double>1.0583522882135936</d6p1:double><d6p1:double>0.39547101802655932</d6p1:double><d6p1:double>0.91713538004164985</d6p1:double><d6p1:double>1.4633333663869585</d6p1:double><d6p1:double>0.50768139421798308</d6p1:double><d6p1:double>0.81056401134254907</d6p1:double><d6p1:double>0.067192291149855657</d6p1:double><d6p1:double>1.0105559773501684</d6p1:double><d6p1:double>0.44186205368497311</d6p1:double><d6p1:double>0.99305810639766445</d6p1:double><d6p1:double>0.13345570233630658</d6p1:double><d6p1:double>-0.10633142229697301</d6p1:double><d6p1:double>0.12472721563413494</d6p1:double><d6p1:double>0.38601389427677568</d6p1:double></Weights></Neuron><Neuron><Bias>-1.0004923151639677</Bias><Output>1</Output><Weights xmlns:d6p1="http://schemas.microsoft.com/2003/10/Serialization/Arrays"><d6p1:double>0.92834377611171826</d6p1:double><d6p1:double>-0.15462448418059552</d6p1:double><d6p1:double>1.0827190492100354</d6p1:double><d6p1:double>0.56034311356923727</d6p1:double><d6p1:double>0.47223179117159958</d6p1:double><d6p1:double>0.36237079016042983</d6p1:double><d6p1:double>0.47550535025369828</d6p1:double><d6p1:double>0.23922532489182896</d6p1:double><d6p1:double>-0.22602135867545881</d6p1:double><d6p1:double>1.0309329807503802</d6p1:double><d6p1:double>0.72739286859377839</d6p1:double><d6p1:double>0.44394274330273725</d6p1:double><d6p1:double>-0.0464036294248724</d6p1:double><d6p1:double>0.56836926256263065</d6p1:double><d6p1:double>0.70513189105329033</d6p1:double><d6p1:double>0.38533013484395923</d6p1:double><d6p1:double>0.33503983552640632</d6p1:double><d6p1:double>0.24473892588539947</d6p1:double><d6p1:double>0.87385405430557372</d6p1:double><d6p1:double>-0.18508293466649473</d6p1:double><d6p1:double>0.42542040594377162</d6p1:double><d6p1:double>1.1532776094978485</d6p1:double><d6p1:double>-0.03733240899773662</d6p1:double><d6p1:double>0.79024350964202783</d6p1:double><d6p1:double>1.2295292212656155</d6p1:double></Weights></Neuron><Neuron><Bias>-0.99837556369804059</Bias><Output>1</Output><Weights xmlns:d6p1="http://schemas.microsoft.com/2003/10/Serialization/Arrays"><d6p1:double>1.0262622357170137</d6p1:double><d6p1:double>-0.27585354265553108</d6p1:double><d6p1:double>1.2691614850383204</d6p1:double><d6p1:double>-0.44526755325096073</d6p1:double><d6p1:double>-0.51378196885586425</d6p1:double><d6p1:double>1.139791880292419</d6p1:double><d6p1:double>0.3237904422029666</d6p1:double><d6p1:double>-0.79140848737969094</d6p1:double><d6p1:double>0.19462534388901681</d6p1:double><d6p1:double>0.75012780562267756</d6p1:double><d6p1:double>-0.18552164647459229</d6p1:double><d6p1:double>1.1940203282697619</d6p1:double><d6p1:double>0.33352029588967763</d6p1:double><d6p1:double>-0.44238975557781007</d6p1:double><d6p1:double>0.55843961717749024</d6p1:double><d6p1:double>-0.019683576177250754</d6p1:double><d6p1:double>0.51153138003860521</d6p1:double><d6p1:double>-0.55711183256827224</d6p1:double><d6p1:double>0.74887243256536673</d6p1:double><d6p1:double>0.6145136148043121</d6p1:double><d6p1:double>0.28377572771967735</d6p1:double><d6p1:double>-0.0093181933970261852</d6p1:double><d6p1:double>-0.16182794849895848</d6p1:double><d6p1:double>0.90846989437824077</d6p1:double><d6p1:double>0.31595092495660082</d6p1:double></Weights></Neuron><Neuron><Bias>-0.99993630854053817</Bias><Output>1</Output><Weights xmlns:d6p1="http://schemas.microsoft.com/2003/10/Serialization/Arrays"><d6p1:double>0.54430050918553363</d6p1:double><d6p1:double>0.14770766678067018</d6p1:double><d6p1:double>0.63574351462879064</d6p1:double><d6p1:double>0.570521506148911</d6p1:double><d6p1:double>1.0411158502552786</d6p1:double><d6p1:double>0.066447849522360339</d6p1:double><d6p1:double>1.2420949658681575</d6p1:double><d6p1:double>0.81219662450982522</d6p1:double><d6p1:double>0.46024062928953757</d6p1:double><d6p1:double>0.19903868713226669</d6p1:double><d6p1:double>0.49925794729362855</d6p1:double><d6p1:double>0.66522666564822164</d6p1:double><d6p1:double>0.91203310741341359</d6p1:double><d6p1:double>0.59442860965639088</d6p1:double><d6p1:double>0.51511229099221323</d6p1:double><d6p1:double>0.04511389462728356</d6p1:double><d6p1:double>0.10954074348523089</d6p1:double><d6p1:double>0.99213317746539964</d6p1:double><d6p1:double>0.00797637759908747</d6p1:double><d6p1:double>0.90309494985251515</d6p1:double><d6p1:double>0.83269299629231</d6p1:double><d6p1:double>0.84823730711180734</d6p1:double><d6p1:double>0.80803286929017437</d6p1:double><d6p1:double>0.45271210948118545</d6p1:double><d6p1:double>0.30897254122575757</d6p1:double></Weights></Neuron><Neuron><Bias>-0.99909234938749236</Bias><Output>1</Output><Weights xmlns:d6p1="http://schemas.microsoft.com/2003/10/Serialization/Arrays"><d6p1:double>0.53854524143426641</d6p1:double><d6p1:double>0.18871280336101032</d6p1:double><d6p1:double>0.52821364369572521</d6p1:double><d6p1:double>0.402161038792637</d6p1:double><d6p1:double>0.81819423417035675</d6p1:double><d6p1:double>0.31936265341389652</d6p1:double><d6p1:double>-0.035826016657680121</d6p1:double><d6p1:double>0.39457781218633803</d6p1:double><d6p1:double>0.41624945302375976</d6p1:double><d6p1:double>0.35853252434991861</d6p1:double><d6p1:double>0.68930267701598635</d6p1:double><d6p1:double>0.45025247941342489</d6p1:double><d6p1:double>0.85513362153243966</d6p1:double><d6p1:double>0.84795852480890344</d6p1:double><d6p1:double>0.84298436599487214</d6p1:double><d6p1:double>0.66293814320142641</d6p1:double><d6p1:double>0.82213445755029657</d6p1:double><d6p1:double>-0.047974215048044215</d6p1:double><d6p1:double>0.70417269003164773</d6p1:double><d6p1:double>0.91948034350945085</d6p1:double><d6p1:double>0.33438759935583467</d6p1:double><d6p1:double>-0.23766316705243565</d6p1:double><d6p1:double>0.7860238268729407</d6p1:double><d6p1:double>0.81072907046726106</d6p1:double><d6p1:double>0.84714437629842287</d6p1:double></Weights></Neuron><Neuron><Bias>-9.5109451911134341E-05</Bias><Output>1</Output><Weights xmlns:d6p1="http://schemas.microsoft.com/2003/10/Serialization/Arrays"><d6p1:double>0.90315041635831472</d6p1:double><d6p1:double>0.789664903116495</d6p1:double><d6p1:double>0.054261349747847153</d6p1:double><d6p1:double>0.991258279142256</d6p1:double><d6p1:double>0.47714096073910595</d6p1:double><d6p1:double>0.86941276274777957</d6p1:double><d6p1:double>-0.091852062800996725</d6p1:double><d6p1:double>0.53521935356196482</d6p1:double><d6p1:double>0.28053840766574029</d6p1:double><d6p1:double>0.5893214344306561</d6p1:double><d6p1:double>0.46439405026988</d6p1:double><d6p1:double>1.471563468445362</d6p1:double><d6p1:double>0.21653158470172776</d6p1:double><d6p1:double>0.074234836783170763</d6p1:double><d6p1:double>0.49132331802345774</d6p1:double><d6p1:double>0.28656589090597473</d6p1:double><d6p1:double>0.38768824676566277</d6p1:double><d6p1:double>0.038487427707615332</d6p1:double><d6p1:double>0.55913179715556216</d6p1:double><d6p1:double>0.026949529446620272</d6p1:double><d6p1:double>-0.0673209445305196</d6p1:double><d6p1:double>0.030800276803106229</d6p1:double><d6p1:double>0.15860386654707204</d6p1:double><d6p1:double>0.28721680402359967</d6p1:double><d6p1:double>1.1632424272823216</d6p1:double></Weights></Neuron><Neuron><Bias>-0.99971285944931665</Bias><Output>1</Output><Weights xmlns:d6p1="http://schemas.microsoft.com/2003/10/Serialization/Arrays"><d6p1:double>0.19379933739016014</d6p1:double><d6p1:double>0.85371287798040341</d6p1:double><d6p1:double>0.5455168560192466</d6p1:double><d6p1:double>1.059012381528595</d6p1:double><d6p1:double>0.13587680348040426</d6p1:double><d6p1:double>0.94434753186917619</d6p1:double><d6p1:double>0.63526427102703853</d6p1:double><d6p1:double>1.1078101500959918</d6p1:double><d6p1:double>0.41910248704225306</d6p1:double><d6p1:double>0.31299241767236424</d6p1:double><d6p1:double>1.2360446669568448</d6p1:double><d6p1:double>0.93530206308324</d6p1:double><d6p1:double>0.59929796094595023</d6p1:double><d6p1:double>0.66797829848738366</d6p1:double><d6p1:double>-0.20940998769722202</d6p1:double><d6p1:double>-0.068909143618595153</d6p1:double><d6p1:double>0.11634249989148653</d6p1:double><d6p1:double>0.80479554882002158</d6p1:double><d6p1:double>0.53713289006793608</d6p1:double><d6p1:double>0.912118153447618</d6p1:double><d6p1:double>0.79900890741583908</d6p1:double><d6p1:double>0.33664750086293638</d6p1:double><d6p1:double>-0.05539063663935815</d6p1:double><d6p1:double>0.58899642893932913</d6p1:double><d6p1:double>1.1463316705955524</d6p1:double></Weights></Neuron><Neuron><Bias>-1.00044168094948</Bias><Output>1</Output><Weights xmlns:d6p1="http://schemas.microsoft.com/2003/10/Serialization/Arrays"><d6p1:double>0.8012280025064179</d6p1:double><d6p1:double>1.0157052015222465</d6p1:double><d6p1:double>-0.23303173852395226</d6p1:double><d6p1:double>0.87527140923186775</d6p1:double><d6p1:double>0.14077749153391547</d6p1:double><d6p1:double>1.1041826368585157</d6p1:double><d6p1:double>0.3987074352645863</d6p1:double><d6p1:double>-0.063416218937406912</d6p1:double><d6p1:double>0.73836765374490887</d6p1:double><d6p1:double>0.32251356895061628</d6p1:double><d6p1:double>0.90906347147162359</d6p1:double><d6p1:double>0.49095924214048048</d6p1:double><d6p1:double>0.65133742618636792</d6p1:double><d6p1:double>0.11602778432561725</d6p1:double><d6p1:double>0.0880221405046688</d6p1:double><d6p1:double>0.27024644531289488</d6p1:double><d6p1:double>0.86252772128658828</d6p1:double><d6p1:double>0.21037370819106396</d6p1:double><d6p1:double>0.13306558925965209</d6p1:double><d6p1:double>0.709200665353243</d6p1:double><d6p1:double>0.77186516051966858</d6p1:double><d6p1:double>1.1798270677792602</d6p1:double><d6p1:double>0.87336809398607063</d6p1:double><d6p1:double>-0.05896978068996718</d6p1:double><d6p1:double>0.7019473089158389</d6p1:double></Weights></Neuron><Neuron><Bias>-1.0003290217841276</Bias><Output>1</Output><Weights xmlns:d6p1="http://schemas.microsoft.com/2003/10/Serialization/Arrays"><d6p1:double>0.098590769638725387</d6p1:double><d6p1:double>0.89471561411547729</d6p1:double><d6p1:double>1.2206956203429538</d6p1:double><d6p1:double>1.0267209564001636</d6p1:double><d6p1:double>0.40541880693950216</d6p1:double><d6p1:double>0.99613139364800807</d6p1:double><d6p1:double>-0.34754653652286616</d6p1:double><d6p1:double>0.78671448325766513</d6p1:double><d6p1:double>0.23137139615966068</d6p1:double><d6p1:double>0.58912034469071961</d6p1:double><d6p1:double>0.88399513068878333</d6p1:double><d6p1:double>0.009362284564208765</d6p1:double><d6p1:double>0.453568816617186</d6p1:double><d6p1:double>0.16214949830087294</d6p1:double><d6p1:double>0.162733304962634</d6p1:double><d6p1:double>0.3329411821998543</d6p1:double><d6p1:double>0.20923141358763817</d6p1:double><d6p1:double>0.67154946227437251</d6p1:double><d6p1:double>0.31692794057214452</d6p1:double><d6p1:double>0.95540063834428568</d6p1:double><d6p1:double>0.0803428572650445</d6p1:double><d6p1:double>0.81546821121680435</d6p1:double><d6p1:double>0.0033312708625535623</d6p1:double><d6p1:double>0.45675290924830925</d6p1:double><d6p1:double>0.43405211060329185</d6p1:double></Weights></Neuron><Neuron><Bias>-0.998892507389655</Bias><Output>1</Output><Weights xmlns:d6p1="http://schemas.microsoft.com/2003/10/Serialization/Arrays"><d6p1:double>0.23726720313730296</d6p1:double><d6p1:double>0.34559717572201976</d6p1:double><d6p1:double>0.50578462471240493</d6p1:double><d6p1:double>0.90679589896031221</d6p1:double><d6p1:double>-0.12570533399602984</d6p1:double><d6p1:double>1.1201937631284009</d6p1:double><d6p1:double>0.29150527980284269</d6p1:double><d6p1:double>0.95516044677381118</d6p1:double><d6p1:double>0.52220448807489117</d6p1:double><d6p1:double>0.46144137625913656</d6p1:double><d6p1:double>0.17127213316023029</d6p1:double><d6p1:double>0.80808861757460049</d6p1:double><d6p1:double>0.93241240436919637</d6p1:double><d6p1:double>1.0479437459185432</d6p1:double><d6p1:double>0.65278978130345489</d6p1:double><d6p1:double>0.29714209465085095</d6p1:double><d6p1:double>0.3485654477923284</d6p1:double><d6p1:double>0.86987268947524476</d6p1:double><d6p1:double>0.3943159844171007</d6p1:double><d6p1:double>0.80100374407711672</d6p1:double><d6p1:double>0.94238674007115841</d6p1:double><d6p1:double>0.23901100849132512</d6p1:double><d6p1:double>0.36468951249300169</d6p1:double><d6p1:double>0.59203077861589748</d6p1:double><d6p1:double>0.37608292323828485</d6p1:double></Weights></Neuron><Neuron><Bias>0.00060005048485316334</Bias><Output>1</Output><Weights xmlns:d6p1="http://schemas.microsoft.com/2003/10/Serialization/Arrays"><d6p1:double>-0.19156191324649433</d6p1:double><d6p1:double>-0.029084453383957307</d6p1:double><d6p1:double>-0.017259452082886088</d6p1:double><d6p1:double>0.82716461319412671</d6p1:double><d6p1:double>0.49446290106414204</d6p1:double><d6p1:double>0.89899599383173578</d6p1:double><d6p1:double>0.31257451259209368</d6p1:double><d6p1:double>-0.042287784933556269</d6p1:double><d6p1:double>0.7332041375418924</d6p1:double><d6p1:double>0.74851579286067571</d6p1:double><d6p1:double>0.37398175087031604</d6p1:double><d6p1:double>0.23905201198524539</d6p1:double><d6p1:double>0.37428314420627723</d6p1:double><d6p1:double>1.1142874274440859</d6p1:double><d6p1:double>0.58100968447982626</d6p1:double><d6p1:double>0.18170496061110372</d6p1:double><d6p1:double>0.82366082179900524</d6p1:double><d6p1:double>0.23938167882020439</d6p1:double><d6p1:double>0.38934653282569731</d6p1:double><d6p1:double>0.46168539438781464</d6p1:double><d6p1:double>0.58701227177535609</d6p1:double><d6p1:double>0.38556935805415771</d6p1:double><d6p1:double>0.61833569056910709</d6p1:double><d6p1:double>0.90111343259763976</d6p1:double><d6p1:double>-0.37552272962652622</d6p1:double></Weights></Neuron><Neuron><Bias>-1.0009767770640172</Bias><Output>1</Output><Weights xmlns:d6p1="http://schemas.microsoft.com/2003/10/Serialization/Arrays"><d6p1:double>0.992853451171506</d6p1:double><d6p1:double>0.58405452144971981</d6p1:double><d6p1:double>-0.097383189253651928</d6p1:double><d6p1:double>0.47613064361033491</d6p1:double><d6p1:double>1.3210997727315301</d6p1:double><d6p1:double>-0.22650016194325512</d6p1:double><d6p1:double>0.664734793118819</d6p1:double><d6p1:double>0.46586692007568731</d6p1:double><d6p1:double>0.93804522075000207</d6p1:double><d6p1:double>0.17838655260218131</d6p1:double><d6p1:double>0.5051116546803045</d6p1:double><d6p1:double>0.29115303113675539</d6p1:double><d6p1:double>0.81161419905371635</d6p1:double><d6p1:double>0.49114309471336226</d6p1:double><d6p1:double>0.86402679668617954</d6p1:double><d6p1:double>0.5018128762452353</d6p1:double><d6p1:double>0.46009127516983006</d6p1:double><d6p1:double>0.59987547337518754</d6p1:double><d6p1:double>0.048347704081186792</d6p1:double><d6p1:double>-0.052098240295588447</d6p1:double><d6p1:double>0.47368277198129638</d6p1:double><d6p1:double>1.2690553866872019</d6p1:double><d6p1:double>0.27875741741853433</d6p1:double><d6p1:double>0.36202413760757757</d6p1:double><d6p1:double>0.48519824337921036</d6p1:double></Weights></Neuron><Neuron><Bias>-0.000942624858538681</Bias><Output>-1</Output><Weights xmlns:d6p1="http://schemas.microsoft.com/2003/10/Serialization/Arrays"><d6p1:double>1.176104976464897</d6p1:double><d6p1:double>0.78731422696049014</d6p1:double><d6p1:double>0.37335034275476781</d6p1:double><d6p1:double>1.0525891986783917</d6p1:double><d6p1:double>0.90654580644427862</d6p1:double><d6p1:double>0.0900517670028006</d6p1:double><d6p1:double>0.84023686714475754</d6p1:double><d6p1:double>0.45106241063122088</d6p1:double><d6p1:double>0.020566881534739581</d6p1:double><d6p1:double>0.79640628094455168</d6p1:double><d6p1:double>0.014292993352420463</d6p1:double><d6p1:double>0.50542248976652882</d6p1:double><d6p1:double>0.64433211062343443</d6p1:double><d6p1:double>0.029931466247424911</d6p1:double><d6p1:double>-0.17593038678742418</d6p1:double><d6p1:double>0.528651601830403</d6p1:double><d6p1:double>0.89064328929169112</d6p1:double><d6p1:double>0.38674414652868261</d6p1:double><d6p1:double>0.35964282771401723</d6p1:double><d6p1:double>0.36414952209234391</d6p1:double><d6p1:double>0.097983444778802053</d6p1:double><d6p1:double>1.0208278420221524</d6p1:double><d6p1:double>0.841117557770078</d6p1:double><d6p1:double>-0.18043856022529345</d6p1:double><d6p1:double>0.82466855781105031</d6p1:double></Weights></Neuron><Neuron><Bias>0.00040625065738378687</Bias><Output>1</Output><Weights xmlns:d6p1="http://schemas.microsoft.com/2003/10/Serialization/Arrays"><d6p1:double>0.80162615216370869</d6p1:double><d6p1:double>0.23094448441844087</d6p1:double><d6p1:double>0.541331815998146</d6p1:double><d6p1:double>0.59739403523003809</d6p1:double><d6p1:double>0.52728349912096484</d6p1:double><d6p1:double>0.59843081178703339</d6p1:double><d6p1:double>-0.04897998521793951</d6p1:double><d6p1:double>0.78981348310884025</d6p1:double><d6p1:double>0.35286189837860987</d6p1:double><d6p1:double>0.571340851198401</d6p1:double><d6p1:double>0.27517938588136748</d6p1:double><d6p1:double>1.2014113943317104</d6p1:double><d6p1:double>0.36394876722217379</d6p1:double><d6p1:double>0.795340944816927</d6p1:double><d6p1:double>0.93196926260561941</d6p1:double><d6p1:double>0.22257955409871971</d6p1:double><d6p1:double>0.66021004537231709</d6p1:double><d6p1:double>0.26949501255722025</d6p1:double><d6p1:double>0.53413437403669706</d6p1:double><d6p1:double>0.94890186334230886</d6p1:double><d6p1:double>0.68048035898694148</d6p1:double><d6p1:double>0.70257137075386467</d6p1:double><d6p1:double>0.12448343508083193</d6p1:double><d6p1:double>0.50014927237533968</d6p1:double><d6p1:double>0.050907323025685423</d6p1:double></Weights></Neuron><Neuron><Bias>0.00058343085217889919</Bias><Output>1</Output><Weights xmlns:d6p1="http://schemas.microsoft.com/2003/10/Serialization/Arrays"><d6p1:double>-0.092072273472547914</d6p1:double><d6p1:double>0.24374000781760227</d6p1:double><d6p1:double>0.40534525997045978</d6p1:double><d6p1:double>-0.043661319053384565</d6p1:double><d6p1:double>-0.0062419161987097294</d6p1:double><d6p1:double>0.35161461594865079</d6p1:double><d6p1:double>0.049359570142009042</d6p1:double><d6p1:double>-0.053907924375788119</d6p1:double><d6p1:double>0.76078898217105517</d6p1:double><d6p1:double>1.0556878594827943</d6p1:double><d6p1:double>-0.14470221719835291</d6p1:double><d6p1:double>0.24022214707167489</d6p1:double><d6p1:double>0.22022705986040245</d6p1:double><d6p1:double>0.6205100706040898</d6p1:double><d6p1:double>-0.1769454969621494</d6p1:double><d6p1:double>-0.22152920413992144</d6p1:double><d6p1:double>0.94758448655901306</d6p1:double><d6p1:double>0.32766341920897696</d6p1:double><d6p1:double>0.71124563388375661</d6p1:double><d6p1:double>1.2537088612825198</d6p1:double><d6p1:double>0.69484462999053487</d6p1:double><d6p1:double>0.51170370970596057</d6p1:double><d6p1:double>-0.045652244588676831</d6p1:double><d6p1:double>0.991934995047228</d6p1:double><d6p1:double>0.29274346529756679</d6p1:double></Weights></Neuron><Neuron><Bias>-1.0002674509900926</Bias><Output>1</Output><Weights xmlns:d6p1="http://schemas.microsoft.com/2003/10/Serialization/Arrays"><d6p1:double>1.265525368488928</d6p1:double><d6p1:double>0.71680533719466011</d6p1:double><d6p1:double>0.62483215865581554</d6p1:double><d6p1:double>0.9363611601410019</d6p1:double><d6p1:double>-0.20903366112502844</d6p1:double><d6p1:double>0.03319731697392693</d6p1:double><d6p1:double>0.93043647464146928</d6p1:double><d6p1:double>0.71924814476692311</d6p1:double><d6p1:double>0.70189699038837983</d6p1:double><d6p1:double>0.98512304912591142</d6p1:double><d6p1:double>0.50723282606345532</d6p1:double><d6p1:double>-0.13769213829688734</d6p1:double><d6p1:double>0.076209700104958644</d6p1:double><d6p1:double>0.44982303386481065</d6p1:double><d6p1:double>-0.34434916352077821</d6p1:double><d6p1:double>-0.35601763640038842</d6p1:double><d6p1:double>0.10146290087710466</d6p1:double><d6p1:double>-0.39048340942608217</d6p1:double><d6p1:double>-0.57997577128285771</d6p1:double><d6p1:double>-0.0096874704582212423</d6p1:double><d6p1:double>0.9041693523454174</d6p1:double><d6p1:double>0.099063475234080156</d6p1:double><d6p1:double>0.48133395572838994</d6p1:double><d6p1:double>0.88814947003527844</d6p1:double><d6p1:double>1.3234798128219938</d6p1:double></Weights></Neuron><Neuron><Bias>0.0011481030838556587</Bias><Output>1</Output><Weights xmlns:d6p1="http://schemas.microsoft.com/2003/10/Serialization/Arrays"><d6p1:double>0.83756585826087</d6p1:double><d6p1:double>0.14792126642916811</d6p1:double><d6p1:double>0.69010710036185141</d6p1:double><d6p1:double>-0.34935465491610418</d6p1:double><d6p1:double>0.14999003951814074</d6p1:double><d6p1:double>-0.59671567144839344</d6p1:double><d6p1:double>-0.73062396997048784</d6p1:double><d6p1:double>-0.23194083454697326</d6p1:double><d6p1:double>0.38943670860308155</d6p1:double><d6p1:double>1.247782086387051</d6p1:double><d6p1:double>0.683184587655905</d6p1:double><d6p1:double>0.4640865110316274</d6p1:double><d6p1:double>-0.11164861573041449</d6p1:double><d6p1:double>0.87691588571042989</d6p1:double><d6p1:double>0.92285900257666775</d6p1:double><d6p1:double>-0.014866008540802769</d6p1:double><d6p1:double>0.32152152048031057</d6p1:double><d6p1:double>-0.084424669154655588</d6p1:double><d6p1:double>1.1814607860096134</d6p1:double><d6p1:double>1.3899362635797448</d6p1:double><d6p1:double>0.29140257845567347</d6p1:double><d6p1:double>1.1292759021308292</d6p1:double><d6p1:double>-0.23160846848976596</d6p1:double><d6p1:double>0.56361025271058907</d6p1:double><d6p1:double>0.59717024966133614</d6p1:double></Weights></Neuron><Neuron><Bias>9.0221578327785037E-05</Bias><Output>1</Output><Weights xmlns:d6p1="http://schemas.microsoft.com/2003/10/Serialization/Arrays"><d6p1:double>0.849732738487044</d6p1:double><d6p1:double>-0.12566803917182381</d6p1:double><d6p1:double>0.588153457836541</d6p1:double><d6p1:double>0.21244659541506852</d6p1:double><d6p1:double>-0.22471054442031679</d6p1:double><d6p1:double>1.4128680772915636</d6p1:double><d6p1:double>1.0586455565706854</d6p1:double><d6p1:double>0.37295705423201975</d6p1:double><d6p1:double>0.349982571241722</d6p1:double><d6p1:double>-0.017862998099741276</d6p1:double><d6p1:double>-0.016602744778609881</d6p1:double><d6p1:double>0.3903274909099223</d6p1:double><d6p1:double>1.0259970615722571</d6p1:double><d6p1:double>0.59408097417534855</d6p1:double><d6p1:double>0.97234259350168428</d6p1:double><d6p1:double>0.53535427136322089</d6p1:double><d6p1:double>0.24706717098563341</d6p1:double><d6p1:double>-0.38509438767046367</d6p1:double><d6p1:double>-0.29648374699614216</d6p1:double><d6p1:double>-0.46091310458239054</d6p1:double><d6p1:double>1.1253481509335777</d6p1:double><d6p1:double>-0.11464370921388352</d6p1:double><d6p1:double>0.54469546653657352</d6p1:double><d6p1:double>0.56175752083850838</d6p1:double><d6p1:double>-0.0747891174134907</d6p1:double></Weights></Neuron><Neuron><Bias>-1.0005786209585616</Bias><Output>1</Output><Weights xmlns:d6p1="http://schemas.microsoft.com/2003/10/Serialization/Arrays"><d6p1:double>0.84957107037778767</d6p1:double><d6p1:double>-0.019665204735486774</d6p1:double><d6p1:double>0.82400703425792676</d6p1:double><d6p1:double>0.50674285694820231</d6p1:double><d6p1:double>0.15938138342443153</d6p1:double><d6p1:double>0.75835798926149334</d6p1:double><d6p1:double>0.574584744349387</d6p1:double><d6p1:double>0.037258942464912972</d6p1:double><d6p1:double>0.355084589549874</d6p1:double><d6p1:double>0.91625115380720268</d6p1:double><d6p1:double>0.56960430015165808</d6p1:double><d6p1:double>0.19258309091942791</d6p1:double><d6p1:double>0.49912032936723155</d6p1:double><d6p1:double>0.19878782173155646</d6p1:double><d6p1:double>0.76807283572238272</d6p1:double><d6p1:double>0.59232926642821371</d6p1:double><d6p1:double>0.29695937760682312</d6p1:double><d6p1:double>0.422412597183795</d6p1:double><d6p1:double>0.41792102378051244</d6p1:double><d6p1:double>0.1741652675305834</d6p1:double><d6p1:double>0.0765239077769847</d6p1:double><d6p1:double>1.2983534431592811</d6p1:double><d6p1:double>1.1206083073494975</d6p1:double><d6p1:double>0.62087490589342487</d6p1:double><d6p1:double>0.63586623323949876</d6p1:double></Weights></Neuron><Neuron><Bias>0.00036604910096153467</Bias><Output>1</Output><Weights xmlns:d6p1="http://schemas.microsoft.com/2003/10/Serialization/Arrays"><d6p1:double>0.22421314868992098</d6p1:double><d6p1:double>0.75050622714439974</d6p1:double><d6p1:double>0.014339897703805907</d6p1:double><d6p1:double>0.66519772698793433</d6p1:double><d6p1:double>1.2942743470028035</d6p1:double><d6p1:double>-0.071459006165531927</d6p1:double><d6p1:double>-0.53628505601979382</d6p1:double><d6p1:double>0.58350097252463073</d6p1:double><d6p1:double>0.84533959367759337</d6p1:double><d6p1:double>0.21049713603681605</d6p1:double><d6p1:double>0.86250110630945021</d6p1:double><d6p1:double>0.77803993717601183</d6p1:double><d6p1:double>0.16745852444021339</d6p1:double><d6p1:double>1.2968986349494043</d6p1:double><d6p1:double>-0.5325683679862474</d6p1:double><d6p1:double>-0.052570339653017162</d6p1:double><d6p1:double>-0.042988456496455184</d6p1:double><d6p1:double>0.594179490727687</d6p1:double><d6p1:double>0.3604520741840867</d6p1:double><d6p1:double>1.3713143702339512</d6p1:double><d6p1:double>0.592393032543731</d6p1:double><d6p1:double>0.37904201924204262</d6p1:double><d6p1:double>0.11221233417353299</d6p1:double><d6p1:double>-0.3324010506808921</d6p1:double><d6p1:double>0.56294279642380285</d6p1:double></Weights></Neuron><Neuron><Bias>0.0001476580689712717</Bias><Output>1</Output><Weights xmlns:d6p1="http://schemas.microsoft.com/2003/10/Serialization/Arrays"><d6p1:double>-0.028925376612275223</d6p1:double><d6p1:double>0.57563081449482623</d6p1:double><d6p1:double>0.081216951671812726</d6p1:double><d6p1:double>0.34762542065952712</d6p1:double><d6p1:double>-0.06129151605782255</d6p1:double><d6p1:double>0.024018980015646896</d6p1:double><d6p1:double>0.98081778772880224</d6p1:double><d6p1:double>0.94235079049694837</d6p1:double><d6p1:double>0.011528099293815814</d6p1:double><d6p1:double>0.38620666008723303</d6p1:double><d6p1:double>0.11626874588319658</d6p1:double><d6p1:double>0.85104269674201893</d6p1:double><d6p1:double>0.14745962621861108</d6p1:double><d6p1:double>0.60072668656589612</d6p1:double><d6p1:double>0.98765019645564822</d6p1:double><d6p1:double>0.2476103839990427</d6p1:double><d6p1:double>0.707863890748527</d6p1:double><d6p1:double>0.17408942921413867</d6p1:double><d6p1:double>0.78555662951329386</d6p1:double><d6p1:double>1.0272384534824468</d6p1:double><d6p1:double>0.13923291596392165</d6p1:double><d6p1:double>0.69128446730792781</d6p1:double><d6p1:double>0.52369569466472132</d6p1:double><d6p1:double>0.86420083495209121</d6p1:double><d6p1:double>0.70558275551587823</d6p1:double></Weights></Neuron><Neuron><Bias>-0.999984342942917</Bias><Output>1</Output><Weights xmlns:d6p1="http://schemas.microsoft.com/2003/10/Serialization/Arrays"><d6p1:double>0.4471259081660402</d6p1:double><d6p1:double>0.66022940870581848</d6p1:double><d6p1:double>0.48155272022085061</d6p1:double><d6p1:double>0.86757888904514879</d6p1:double><d6p1:double>0.46087456624118095</d6p1:double><d6p1:double>0.74976542317426453</d6p1:double><d6p1:double>0.14655443171113572</d6p1:double><d6p1:double>-0.035447533805488395</d6p1:double><d6p1:double>0.88028395548965321</d6p1:double><d6p1:double>0.82743861417969522</d6p1:double><d6p1:double>0.47396296298613566</d6p1:double><d6p1:double>0.2802818308108061</d6p1:double><d6p1:double>0.77751499352330189</d6p1:double><d6p1:double>0.65445830518323278</d6p1:double><d6p1:double>0.87891325457482028</d6p1:double><d6p1:double>0.30535580980875865</d6p1:double><d6p1:double>0.466797631386743</d6p1:double><d6p1:double>0.53518496471140853</d6p1:double><d6p1:double>0.60459398812788911</d6p1:double><d6p1:double>0.49850381482993777</d6p1:double><d6p1:double>1.0250231382194055</d6p1:double><d6p1:double>0.58237200822575108</d6p1:double><d6p1:double>0.95676316173790577</d6p1:double><d6p1:double>0.5747232165665549</d6p1:double><d6p1:double>1.0187504587160323</d6p1:double></Weights></Neuron><Neuron><Bias>-0.00032460731674597995</Bias><Output>1</Output><Weights xmlns:d6p1="http://schemas.microsoft.com/2003/10/Serialization/Arrays"><d6p1:double>-0.3181240929935707</d6p1:double><d6p1:double>0.53355532003812167</d6p1:double><d6p1:double>0.64040411877391923</d6p1:double><d6p1:double>1.0948670562053748</d6p1:double><d6p1:double>0.26964157877988681</d6p1:double><d6p1:double>0.128875163024284</d6p1:double><d6p1:double>0.98320634882801961</d6p1:double><d6p1:double>0.44599462685913482</d6p1:double><d6p1:double>0.53376652693533777</d6p1:double><d6p1:double>0.40155226847456948</d6p1:double><d6p1:double>0.12124903753114921</d6p1:double><d6p1:double>-0.047987165783670994</d6p1:double><d6p1:double>0.26557988787397135</d6p1:double><d6p1:double>-0.050705031847805816</d6p1:double><d6p1:double>1.0352167128326422</d6p1:double><d6p1:double>-0.15179704304940372</d6p1:double><d6p1:double>0.50732558758926771</d6p1:double><d6p1:double>0.31933916214530267</d6p1:double><d6p1:double>0.49948813776577811</d6p1:double><d6p1:double>0.57917754470104854</d6p1:double><d6p1:double>0.19427279657411189</d6p1:double><d6p1:double>0.24768450542341416</d6p1:double><d6p1:double>0.074255367749035059</d6p1:double><d6p1:double>0.459572221821484</d6p1:double><d6p1:double>-0.1829687540348649</d6p1:double></Weights></Neuron><Neuron><Bias>-0.00080535012801254732</Bias><Output>-1</Output><Weights xmlns:d6p1="http://schemas.microsoft.com/2003/10/Serialization/Arrays"><d6p1:double>0.45553266185420044</d6p1:double><d6p1:double>0.37377068807298508</d6p1:double><d6p1:double>0.11821891215538774</d6p1:double><d6p1:double>0.37254658758327325</d6p1:double><d6p1:double>1.5435562148873749</d6p1:double><d6p1:double>-0.40768900678339981</d6p1:double><d6p1:double>1.52980369090401</d6p1:double><d6p1:double>-0.22061541611376853</d6p1:double><d6p1:double>0.54265215713816561</d6p1:double><d6p1:double>0.024152331258294205</d6p1:double><d6p1:double>-0.41272857783153083</d6p1:double><d6p1:double>-0.20093435003737853</d6p1:double><d6p1:double>0.40401412793317409</d6p1:double><d6p1:double>0.75754120748730025</d6p1:double><d6p1:double>-0.26039957178590667</d6p1:double><d6p1:double>0.44595295868724194</d6p1:double><d6p1:double>0.3633003561542088</d6p1:double><d6p1:double>0.14182561297154234</d6p1:double><d6p1:double>0.59292794094718337</d6p1:double><d6p1:double>0.47106966577250464</d6p1:double><d6p1:double>0.582757252498294</d6p1:double><d6p1:double>0.18038104760293588</d6p1:double><d6p1:double>0.96481901579241158</d6p1:double><d6p1:double>0.24238290844434993</d6p1:double><d6p1:double>-0.16721935271591545</d6p1:double></Weights></Neuron><Neuron><Bias>0.000298327042301588</Bias><Output>1</Output><Weights xmlns:d6p1="http://schemas.microsoft.com/2003/10/Serialization/Arrays"><d6p1:double>0.36464504300663048</d6p1:double><d6p1:double>0.50323238392383685</d6p1:double><d6p1:double>0.66182677832075687</d6p1:double><d6p1:double>-0.0645408918371371</d6p1:double><d6p1:double>0.18537989069376828</d6p1:double><d6p1:double>0.15639392015431475</d6p1:double><d6p1:double>0.4839840652520267</d6p1:double><d6p1:double>0.28907088063474023</d6p1:double><d6p1:double>1.0530545258773245</d6p1:double><d6p1:double>0.30147457248430015</d6p1:double><d6p1:double>0.99743342669196433</d6p1:double><d6p1:double>0.52339224462222789</d6p1:double><d6p1:double>0.78312719366508021</d6p1:double><d6p1:double>0.22298311851034183</d6p1:double><d6p1:double>0.37392694528057574</d6p1:double><d6p1:double>1.0339836388895329</d6p1:double><d6p1:double>0.97753378303780047</d6p1:double><d6p1:double>0.80811085642544267</d6p1:double><d6p1:double>0.67982113228651231</d6p1:double><d6p1:double>0.5330401655392849</d6p1:double><d6p1:double>0.50588950762886764</d6p1:double><d6p1:double>0.64877271942369918</d6p1:double><d6p1:double>0.900233999569893</d6p1:double><d6p1:double>0.75264914265768379</d6p1:double><d6p1:double>0.8280849286445775</d6p1:double></Weights></Neuron><Neuron><Bias>-0.00030625830610130653</Bias><Output>1</Output><Weights xmlns:d6p1="http://schemas.microsoft.com/2003/10/Serialization/Arrays"><d6p1:double>0.24001851376852271</d6p1:double><d6p1:double>0.574077928721384</d6p1:double><d6p1:double>0.51288124217376507</d6p1:double><d6p1:double>0.091488983600129914</d6p1:double><d6p1:double>0.82509170553664113</d6p1:double><d6p1:double>-0.052124242009575189</d6p1:double><d6p1:double>0.85000272482063333</d6p1:double><d6p1:double>0.69685851922778463</d6p1:double><d6p1:double>0.15815219640025449</d6p1:double><d6p1:double>0.47114560864296257</d6p1:double><d6p1:double>0.4697217811756017</d6p1:double><d6p1:double>0.39680477598737485</d6p1:double><d6p1:double>0.34331351715949521</d6p1:double><d6p1:double>0.18405381010653038</d6p1:double><d6p1:double>0.83506952822567115</d6p1:double><d6p1:double>0.1469022213180001</d6p1:double><d6p1:double>1.3863473067958574</d6p1:double><d6p1:double>0.478902802568789</d6p1:double><d6p1:double>0.87114103229657014</d6p1:double><d6p1:double>0.84074041954651124</d6p1:double><d6p1:double>0.76150129733052341</d6p1:double><d6p1:double>0.34926214287931417</d6p1:double><d6p1:double>0.83793786180682062</d6p1:double><d6p1:double>0.384627450454</d6p1:double><d6p1:double>0.47891036570018003</d6p1:double></Weights></Neuron><Neuron><Bias>-0.99997165258039511</Bias><Output>1</Output><Weights xmlns:d6p1="http://schemas.microsoft.com/2003/10/Serialization/Arrays"><d6p1:double>0.32093280782926936</d6p1:double><d6p1:double>0.75513164500035534</d6p1:double><d6p1:double>0.792649196574794</d6p1:double><d6p1:double>1.0488035819602823</d6p1:double><d6p1:double>0.36399444412196763</d6p1:double><d6p1:double>1.0647671911337051</d6p1:double><d6p1:double>0.1081956137813312</d6p1:double><d6p1:double>0.65316219123034913</d6p1:double><d6p1:double>1.0042089949755046</d6p1:double><d6p1:double>0.82181124053895571</d6p1:double><d6p1:double>0.35568746836673082</d6p1:double><d6p1:double>0.854531857606923</d6p1:double><d6p1:double>0.68801155803178449</d6p1:double><d6p1:double>0.46753681439269218</d6p1:double><d6p1:double>0.33746047271855356</d6p1:double><d6p1:double>0.30081166518202007</d6p1:double><d6p1:double>0.65852213898988132</d6p1:double><d6p1:double>0.87305511281395864</d6p1:double><d6p1:double>0.18297959331329161</d6p1:double><d6p1:double>0.529940639711425</d6p1:double><d6p1:double>0.11619607327023551</d6p1:double><d6p1:double>0.1901119926550601</d6p1:double><d6p1:double>0.53755449992490489</d6p1:double><d6p1:double>0.5965434672043759</d6p1:double><d6p1:double>0.58645422227070287</d6p1:double></Weights></Neuron><Neuron><Bias>-1.0004255242156244</Bias><Output>1</Output><Weights xmlns:d6p1="http://schemas.microsoft.com/2003/10/Serialization/Arrays"><d6p1:double>-0.18247530345798746</d6p1:double><d6p1:double>-0.18726230956920556</d6p1:double><d6p1:double>-0.24189808935395621</d6p1:double><d6p1:double>0.13627901618748378</d6p1:double><d6p1:double>0.80792116081562759</d6p1:double><d6p1:double>0.48003282765785976</d6p1:double><d6p1:double>0.5484283911159562</d6p1:double><d6p1:double>0.46437645436843911</d6p1:double><d6p1:double>1.2292098790626138</d6p1:double><d6p1:double>0.979707518806929</d6p1:double><d6p1:double>0.29057955849647493</d6p1:double><d6p1:double>0.68051318596924937</d6p1:double><d6p1:double>-0.1223982420596287</d6p1:double><d6p1:double>0.96350657788024274</d6p1:double><d6p1:double>0.26271229191327067</d6p1:double><d6p1:double>1.2062565204902358</d6p1:double><d6p1:double>0.45019570538444786</d6p1:double><d6p1:double>1.1155710447112048</d6p1:double><d6p1:double>1.0334668298916083</d6p1:double><d6p1:double>-0.015939877629894149</d6p1:double><d6p1:double>0.59108884654441851</d6p1:double><d6p1:double>0.9307693793542855</d6p1:double><d6p1:double>0.27253589916314197</d6p1:double><d6p1:double>0.28026121016601685</d6p1:double><d6p1:double>0.24431825614998204</d6p1:double></Weights></Neuron><Neuron><Bias>-0.00029630019776413536</Bias><Output>1</Output><Weights xmlns:d6p1="http://schemas.microsoft.com/2003/10/Serialization/Arrays"><d6p1:double>0.15158682179449107</d6p1:double><d6p1:double>-0.17784990975438386</d6p1:double><d6p1:double>0.35950374166157512</d6p1:double><d6p1:double>0.90994046901857</d6p1:double><d6p1:double>0.48895230941159556</d6p1:double><d6p1:double>0.064533481899349723</d6p1:double><d6p1:double>0.30504072537360488</d6p1:double><d6p1:double>-0.035360161279775981</d6p1:double><d6p1:double>0.57852316713037721</d6p1:double><d6p1:double>0.14498260905253213</d6p1:double><d6p1:double>0.6602240307394085</d6p1:double><d6p1:double>0.65986210685387392</d6p1:double><d6p1:double>0.56965701038611782</d6p1:double><d6p1:double>0.39515323148477721</d6p1:double><d6p1:double>0.30804749795180053</d6p1:double><d6p1:double>1.0260551731642569</d6p1:double><d6p1:double>0.72323152174503169</d6p1:double><d6p1:double>0.72107432386786607</d6p1:double><d6p1:double>0.9198873683197395</d6p1:double><d6p1:double>0.49058219024542044</d6p1:double><d6p1:double>0.91372665819259258</d6p1:double><d6p1:double>0.44230585547622642</d6p1:double><d6p1:double>0.29745336258072391</d6p1:double><d6p1:double>0.40077203362491859</d6p1:double><d6p1:double>0.93347815174537785</d6p1:double></Weights></Neuron><Neuron><Bias>-0.99952123212695543</Bias><Output>1</Output><Weights xmlns:d6p1="http://schemas.microsoft.com/2003/10/Serialization/Arrays"><d6p1:double>0.46493484205248364</d6p1:double><d6p1:double>0.81761240108846034</d6p1:double><d6p1:double>1.1926553195274272</d6p1:double><d6p1:double>-0.16960759143777485</d6p1:double><d6p1:double>-0.0030896334584932959</d6p1:double><d6p1:double>0.060791296607328391</d6p1:double><d6p1:double>0.96733174451189041</d6p1:double><d6p1:double>0.99178042983903558</d6p1:double><d6p1:double>0.062689895023202477</d6p1:double><d6p1:double>0.21893427895058956</d6p1:double><d6p1:double>-0.0917280619655729</d6p1:double><d6p1:double>-0.502284619350549</d6p1:double><d6p1:double>1.1836202748561975</d6p1:double><d6p1:double>1.0560952192577002</d6p1:double><d6p1:double>0.14390406056995325</d6p1:double><d6p1:double>0.7955051790999</d6p1:double><d6p1:double>0.22912418912736138</d6p1:double><d6p1:double>0.25897515112964686</d6p1:double><d6p1:double>0.59772437033223114</d6p1:double><d6p1:double>0.83539310164660563</d6p1:double><d6p1:double>0.10562366399797883</d6p1:double><d6p1:double>0.64124828041953874</d6p1:double><d6p1:double>0.10159638432375992</d6p1:double><d6p1:double>0.56617228514136908</d6p1:double><d6p1:double>-0.086578028995306366</d6p1:double></Weights></Neuron><Neuron><Bias>0.00063577213251348613</Bias><Output>1</Output><Weights xmlns:d6p1="http://schemas.microsoft.com/2003/10/Serialization/Arrays"><d6p1:double>0.30482327692628114</d6p1:double><d6p1:double>-0.028757307646609095</d6p1:double><d6p1:double>0.5272912142354661</d6p1:double><d6p1:double>0.87152101657143666</d6p1:double><d6p1:double>0.57742199836135533</d6p1:double><d6p1:double>1.18294528351494</d6p1:double><d6p1:double>0.80144882236115822</d6p1:double><d6p1:double>0.7226322201428701</d6p1:double><d6p1:double>1.0627854243605459</d6p1:double><d6p1:double>0.66327240361321083</d6p1:double><d6p1:double>0.29672663472238181</d6p1:double><d6p1:double>0.75585485382142126</d6p1:double><d6p1:double>1.2326151235800824</d6p1:double><d6p1:double>0.14839022663066975</d6p1:double><d6p1:double>0.7659129159276864</d6p1:double><d6p1:double>0.9398063405082191</d6p1:double><d6p1:double>0.25489973182956077</d6p1:double><d6p1:double>0.64539620687378463</d6p1:double><d6p1:double>0.58798270878199765</d6p1:double><d6p1:double>0.52635488471792979</d6p1:double><d6p1:double>-0.23654950700095792</d6p1:double><d6p1:double>0.77872881752319123</d6p1:double><d6p1:double>0.59537798800195352</d6p1:double><d6p1:double>1.1542635698908044</d6p1:double><d6p1:double>-0.16224552938066847</d6p1:double></Weights></Neuron><Neuron><Bias>-1.00071493165815</Bias><Output>-1</Output><Weights xmlns:d6p1="http://schemas.microsoft.com/2003/10/Serialization/Arrays"><d6p1:double>1.1874425552046592</d6p1:double><d6p1:double>-0.80119871752528615</d6p1:double><d6p1:double>0.65480516734254568</d6p1:double><d6p1:double>-0.068440916211310945</d6p1:double><d6p1:double>0.12450503449316402</d6p1:double><d6p1:double>0.88655140833033008</d6p1:double><d6p1:double>0.58122054970917791</d6p1:double><d6p1:double>0.58327693875839526</d6p1:double><d6p1:double>0.79476309417684965</d6p1:double><d6p1:double>1.1169862514769131</d6p1:double><d6p1:double>0.34439512446363429</d6p1:double><d6p1:double>0.29661904635572717</d6p1:double><d6p1:double>0.64482650483648618</d6p1:double><d6p1:double>0.17387847927588793</d6p1:double><d6p1:double>0.18916751485655875</d6p1:double><d6p1:double>0.588544419741053</d6p1:double><d6p1:double>-0.1455676406186697</d6p1:double><d6p1:double>1.2930365011656113</d6p1:double><d6p1:double>0.16546609222509584</d6p1:double><d6p1:double>-0.19345551485917808</d6p1:double><d6p1:double>-0.2081983765187688</d6p1:double><d6p1:double>0.35123213047982638</d6p1:double><d6p1:double>0.40250231451489121</d6p1:double><d6p1:double>0.31882687656274994</d6p1:double><d6p1:double>-0.52162229184825082</d6p1:double></Weights></Neuron><Neuron><Bias>-1.0002245523876607</Bias><Output>1</Output><Weights xmlns:d6p1="http://schemas.microsoft.com/2003/10/Serialization/Arrays"><d6p1:double>0.61494937787057136</d6p1:double><d6p1:double>0.88090959762701049</d6p1:double><d6p1:double>0.1670971445259341</d6p1:double><d6p1:double>0.71736942951610327</d6p1:double><d6p1:double>-0.093388154731780471</d6p1:double><d6p1:double>0.34626981173774041</d6p1:double><d6p1:double>0.77433752637131292</d6p1:double><d6p1:double>-0.08561463053127466</d6p1:double><d6p1:double>0.033612890842055064</d6p1:double><d6p1:double>0.70470421396573646</d6p1:double><d6p1:double>0.50083442279942048</d6p1:double><d6p1:double>0.5598879263178419</d6p1:double><d6p1:double>0.90948033979161624</d6p1:double><d6p1:double>0.29215820633050527</d6p1:double><d6p1:double>0.86210082439053</d6p1:double><d6p1:double>0.31747074723434321</d6p1:double><d6p1:double>0.38766925312235584</d6p1:double><d6p1:double>0.50231147419102606</d6p1:double><d6p1:double>0.27701276073519876</d6p1:double><d6p1:double>0.81975024523055851</d6p1:double><d6p1:double>0.83123642216204718</d6p1:double><d6p1:double>0.098011135087982384</d6p1:double><d6p1:double>0.4284519993048912</d6p1:double><d6p1:double>0.18779494993427717</d6p1:double><d6p1:double>1.08010893183881</d6p1:double></Weights></Neuron><Neuron><Bias>-0.00058494805614597129</Bias><Output>1</Output><Weights xmlns:d6p1="http://schemas.microsoft.com/2003/10/Serialization/Arrays"><d6p1:double>0.31124233202829105</d6p1:double><d6p1:double>0.84122150022574749</d6p1:double><d6p1:double>0.32187522971612814</d6p1:double><d6p1:double>0.54316413849590472</d6p1:double><d6p1:double>0.77932866859540684</d6p1:double><d6p1:double>-0.41314216571279389</d6p1:double><d6p1:double>0.22705074778989379</d6p1:double><d6p1:double>-0.17445743716028736</d6p1:double><d6p1:double>0.26291029307979941</d6p1:double><d6p1:double>-0.22649515566747688</d6p1:double><d6p1:double>-0.0030117921970229697</d6p1:double><d6p1:double>1.2268678418918748</d6p1:double><d6p1:double>0.60040453462988108</d6p1:double><d6p1:double>-0.12998634800587683</d6p1:double><d6p1:double>0.63172760565613451</d6p1:double><d6p1:double>0.36788309330355706</d6p1:double><d6p1:double>0.27869760965793766</d6p1:double><d6p1:double>-0.22355330464131226</d6p1:double><d6p1:double>0.32709011801054672</d6p1:double><d6p1:double>1.1173741543187652</d6p1:double><d6p1:double>0.936606284558073</d6p1:double><d6p1:double>0.18122087397200348</d6p1:double><d6p1:double>0.78135871420539216</d6p1:double><d6p1:double>0.28227501973700547</d6p1:double><d6p1:double>1.3477006063162238</d6p1:double></Weights></Neuron><Neuron><Bias>-0.99927130899854666</Bias><Output>1</Output><Weights xmlns:d6p1="http://schemas.microsoft.com/2003/10/Serialization/Arrays"><d6p1:double>0.820130474631936</d6p1:double><d6p1:double>0.21709142454878044</d6p1:double><d6p1:double>0.44489193897059132</d6p1:double><d6p1:double>0.069692889594321378</d6p1:double><d6p1:double>0.065295720717867614</d6p1:double><d6p1:double>0.91658096641333064</d6p1:double><d6p1:double>-0.081615202139030507</d6p1:double><d6p1:double>0.83859895877515778</d6p1:double><d6p1:double>0.42775430269516529</d6p1:double><d6p1:double>0.64979191196582731</d6p1:double><d6p1:double>0.53227477035639792</d6p1:double><d6p1:double>0.590049829909433</d6p1:double><d6p1:double>0.29647166447766971</d6p1:double><d6p1:double>0.86126513563419094</d6p1:double><d6p1:double>0.053700839327633809</d6p1:double><d6p1:double>1.1765418750309122</d6p1:double><d6p1:double>0.87854497563666079</d6p1:double><d6p1:double>0.82222038848016954</d6p1:double><d6p1:double>0.056672244314964225</d6p1:double><d6p1:double>0.37466264252231296</d6p1:double><d6p1:double>0.70548628582773187</d6p1:double><d6p1:double>0.064134332989311482</d6p1:double><d6p1:double>1.1047116121548004</d6p1:double><d6p1:double>0.5683180066788982</d6p1:double><d6p1:double>0.35914441086833726</d6p1:double></Weights></Neuron><Neuron><Bias>-0.00053066723859773409</Bias><Output>1</Output><Weights xmlns:d6p1="http://schemas.microsoft.com/2003/10/Serialization/Arrays"><d6p1:double>0.283896409662493</d6p1:double><d6p1:double>0.99555199400162142</d6p1:double><d6p1:double>0.0058045453615879084</d6p1:double><d6p1:double>0.32620371657110869</d6p1:double><d6p1:double>0.51531165132692047</d6p1:double><d6p1:double>0.90067010882608023</d6p1:double><d6p1:double>0.56200692721900336</d6p1:double><d6p1:double>0.9145195692976994</d6p1:double><d6p1:double>0.34688448096351526</d6p1:double><d6p1:double>0.80208314614360687</d6p1:double><d6p1:double>0.67243069159270419</d6p1:double><d6p1:double>0.25022553374566964</d6p1:double><d6p1:double>-0.167893742626873</d6p1:double><d6p1:double>0.16678463901650728</d6p1:double><d6p1:double>0.085765337763337418</d6p1:double><d6p1:double>-0.55107050976512928</d6p1:double><d6p1:double>0.69762830319214064</d6p1:double><d6p1:double>0.71864879091891443</d6p1:double><d6p1:double>0.087295104789529079</d6p1:double><d6p1:double>1.119124852689354</d6p1:double><d6p1:double>-0.17383907202864321</d6p1:double><d6p1:double>1.23752419103088</d6p1:double><d6p1:double>0.28029578964903673</d6p1:double><d6p1:double>-0.046873162869380994</d6p1:double><d6p1:double>0.5369956133256526</d6p1:double></Weights></Neuron><Neuron><Bias>-0.00057079476132618234</Bias><Output>1</Output><Weights xmlns:d6p1="http://schemas.microsoft.com/2003/10/Serialization/Arrays"><d6p1:double>1.3310454277522141</d6p1:double><d6p1:double>0.0669837600717803</d6p1:double><d6p1:double>1.0359419954841411</d6p1:double><d6p1:double>0.45912731073552637</d6p1:double><d6p1:double>0.63329795939872</d6p1:double><d6p1:double>-0.21732301037074195</d6p1:double><d6p1:double>0.57827174589983832</d6p1:double><d6p1:double>-0.22281207228699329</d6p1:double><d6p1:double>0.53627185273752942</d6p1:double><d6p1:double>0.0038010024020001666</d6p1:double><d6p1:double>0.53906641819140844</d6p1:double><d6p1:double>-0.08237513170190898</d6p1:double><d6p1:double>0.591968475719366</d6p1:double><d6p1:double>0.52591465356221978</d6p1:double><d6p1:double>0.584768660036125</d6p1:double><d6p1:double>0.40355375170242613</d6p1:double><d6p1:double>0.19201470442874222</d6p1:double><d6p1:double>0.59867555327716926</d6p1:double><d6p1:double>-0.06184336933956619</d6p1:double><d6p1:double>0.090243806862661549</d6p1:double><d6p1:double>0.64648478230044149</d6p1:double><d6p1:double>0.84250407208595368</d6p1:double><d6p1:double>0.7863551030505429</d6p1:double><d6p1:double>0.7750974687397022</d6p1:double><d6p1:double>0.3667689813698482</d6p1:double></Weights></Neuron><Neuron><Bias>-0.99894207406805868</Bias><Output>1</Output><Weights xmlns:d6p1="http://schemas.microsoft.com/2003/10/Serialization/Arrays"><d6p1:double>-0.16425470305837811</d6p1:double><d6p1:double>0.83016870766784134</d6p1:double><d6p1:double>0.23970745666075938</d6p1:double><d6p1:double>-0.14363788175532524</d6p1:double><d6p1:double>-0.00849482736899509</d6p1:double><d6p1:double>0.58674306667095</d6p1:double><d6p1:double>0.45684696838927047</d6p1:double><d6p1:double>0.53852091304116056</d6p1:double><d6p1:double>0.33202051827860657</d6p1:double><d6p1:double>0.16622218294489369</d6p1:double><d6p1:double>0.94643350933900894</d6p1:double><d6p1:double>0.51819746747732054</d6p1:double><d6p1:double>0.4918386410416008</d6p1:double><d6p1:double>0.54117042800718829</d6p1:double><d6p1:double>0.57052852801038723</d6p1:double><d6p1:double>1.0573889384341211</d6p1:double><d6p1:double>0.57270442666550558</d6p1:double><d6p1:double>0.58400438152811562</d6p1:double><d6p1:double>0.80177057131018437</d6p1:double><d6p1:double>0.496915616384777</d6p1:double><d6p1:double>0.25362308310395604</d6p1:double><d6p1:double>0.28646770048544423</d6p1:double><d6p1:double>0.9043072693079317</d6p1:double><d6p1:double>0.95141825826753423</d6p1:double><d6p1:double>0.14795152238473097</d6p1:double></Weights></Neuron><Neuron><Bias>-1.0016226713261642</Bias><Output>-1</Output><Weights 