<?xml version="1.0" encoding="utf-16"?><NeuralNetwork xmlns:i="http://www.w3.org/2001/XMLSchema-instance" xmlns="http://schemas.datacontract.org/2004/07/AE.MachineLearning.NeuralNet.Core"><_networkLayers><NetworkLayer><_isInputLayer>true</_isInputLayer><_neurons><Neuron><Bias>0</Bias><Output>-1003.888796</Output><Weights xmlns:d6p1="http://schemas.microsoft.com/2003/10/Serialization/Arrays"><d6p1:double>1</d6p1:double></Weights></Neuron><Neuron><Bias>0</Bias><Output>99.7346757</Output><Weights xmlns:d6p1="http://schemas.microsoft.com/2003/10/Serialization/Arrays"><d6p1:double>1</d6p1:double></Weights></Neuron><Neuron><Bias>0</Bias><Output>656.188731</Output><Weights xmlns:d6p1="http://schemas.microsoft.com/2003/10/Serialization/Arrays"><d6p1:double>1</d6p1:double></Weights></Neuron><Neuron><Bias>0</Bias><Output>-101.2632666</Output><Weights xmlns:d6p1="http://schemas.microsoft.com/2003/10/Serialization/Arrays"><d6p1:double>1</d6p1:double></Weights></Neuron><Neuron><Bias>0</Bias><Output>-712.5407464</Output><Weights xmlns:d6p1="http://schemas.microsoft.com/2003/10/Serialization/Arrays"><d6p1:double>1</d6p1:double></Weights></Neuron><Neuron><Bias>0</Bias><Output>-218.8568689</Output><Weights xmlns:d6p1="http://schemas.microsoft.com/2003/10/Serialization/Arrays"><d6p1:double>1</d6p1:double></Weights></Neuron><Neuron><Bias>0</Bias><Output>-543.6679743</Output><Weights xmlns:d6p1="http://schemas.microsoft.com/2003/10/Serialization/Arrays"><d6p1:double>1</d6p1:double></Weights></Neuron><Neuron><Bias>0</Bias><Output>256.0470238</Output><Weights xmlns:d6p1="http://schemas.microsoft.com/2003/10/Serialization/Arrays"><d6p1:double>1</d6p1:double></Weights></Neuron><Neuron><Bias>0</Bias><Output>-375.9740615</Output><Weights xmlns:d6p1="http://schemas.microsoft.com/2003/10/Serialization/Arrays"><d6p1:double>1</d6p1:double></Weights></Neuron><Neuron><Bias>0</Bias><Output>139.6749711</Output><Weights xmlns:d6p1="http://schemas.microsoft.com/2003/10/Serialization/Arrays"><d6p1:double>1</d6p1:double></Weights></Neuron><Neuron><Bias>0</Bias><Output>112.0551432</Output><Weights xmlns:d6p1="http://schemas.microsoft.com/2003/10/Serialization/Arrays"><d6p1:double>1</d6p1:double></Weights></Neuron><Neuron><Bias>0</Bias><Output>55.11060021</Output><Weights xmlns:d6p1="http://schemas.microsoft.com/2003/10/Serialization/Arrays"><d6p1:double>1</d6p1:double></Weights></Neuron><Neuron><Bias>0</Bias><Output>583.974903</Output><Weights xmlns:d6p1="http://schemas.microsoft.com/2003/10/Serialization/Arrays"><d6p1:double>1</d6p1:double></Weights></Neuron><Neuron><Bias>0</Bias><Output>-129.8331591</Output><Weights xmlns:d6p1="http://schemas.microsoft.com/2003/10/Serialization/Arrays"><d6p1:double>1</d6p1:double></Weights></Neuron><Neuron><Bias>0</Bias><Output>384.374502</Output><Weights xmlns:d6p1="http://schemas.microsoft.com/2003/10/Serialization/Arrays"><d6p1:double>1</d6p1:double></Weights></Neuron><Neuron><Bias>0</Bias><Output>707.6621492</Output><Weights xmlns:d6p1="http://schemas.microsoft.com/2003/10/Serialization/Arrays"><d6p1:double>1</d6p1:double></Weights></Neuron><Neuron><Bias>0</Bias><Output>-206.0695753</Output><Weights xmlns:d6p1="http://schemas.microsoft.com/2003/10/Serialization/Arrays"><d6p1:double>1</d6p1:double></Weights></Neuron><Neuron><Bias>0</Bias><Output>27.86720355</Output><Weights xmlns:d6p1="http://schemas.microsoft.com/2003/10/Serialization/Arrays"><d6p1:double>1</d6p1:double></Weights></Neuron><Neuron><Bias>0</Bias><Output>452.5315824</Output><Weights xmlns:d6p1="http://schemas.microsoft.com/2003/10/Serialization/Arrays"><d6p1:double>1</d6p1:double></Weights></Neuron><Neuron><Bias>0</Bias><Output>108.9841613</Output><Weights xmlns:d6p1="http://schemas.microsoft.com/2003/10/Serialization/Arrays"><d6p1:double>1</d6p1:double></Weights></Neuron><Neuron><Bias>0</Bias><Output>-327.436527</Output><Weights xmlns:d6p1="http://schemas.microsoft.com/2003/10/Serialization/Arrays"><d6p1:double>1</d6p1:double></Weights></Neuron><Neuron><Bias>0</Bias><Output>-386.1563253</Output><Weights xmlns:d6p1="http://schemas.microsoft.com/2003/10/Serialization/Arrays"><d6p1:double>1</d6p1:double></Weights></Neuron><Neuron><Bias>0</Bias><Output>-558.0306571</Output><Weights xmlns:d6p1="http://schemas.microsoft.com/2003/10/Serialization/Arrays"><d6p1:double>1</d6p1:double></Weights></Neuron><Neuron><Bias>0</Bias><Output>790.9654693</Output><Weights xmlns:d6p1="http://schemas.microsoft.com/2003/10/Serialization/Arrays"><d6p1:double>1</d6p1:double></Weights></Neuron><Neuron><Bias>0</Bias><Output>-211.894788</Output><Weights xmlns:d6p1="http://schemas.microsoft.com/2003/10/Serialization/Arrays"><d6p1:double>1</d6p1:double></Weights></Neuron></_neurons><_numOfNeurons>25</_numOfNeurons><_numberOfInputsPerNeuron>1</_numberOfInputsPerNeuron></NetworkLayer><NetworkLayer><_isInputLayer>false</_isInputLayer><_neurons><Neuron><Bias>-1.0012632730665709</Bias><Output>-1</Output><Weights xmlns:d6p1="http://schemas.microsoft.com/2003/10/Serialization/Arrays"><d6p1:double>1.1899820514581452</d6p1:double><d6p1:double>0.61256108117973973</d6p1:double><d6p1:double>0.4665811863338552</d6p1:double><d6p1:double>0.45689475968166032</d6p1:double><d6p1:double>0.70296251354506167</d6p1:double><d6p1:double>0.32509786603010249</d6p1:double><d6p1:double>0.92214675903235854</d6p1:double><d6p1:double>0.36073457782004165</d6p1:double><d6p1:double>-0.033487096045798852</d6p1:double><d6p1:double>1.1257069913610489</d6p1:double><d6p1:double>0.37887237734575613</d6p1:double><d6p1:double>-0.078761114779222541</d6p1:double><d6p1:double>1.1853181911628039</d6p1:double><d6p1:double>-0.056523575554236039</d6p1:double><d6p1:double>0.41755304190774312</d6p1:double><d6p1:double>0.09466914630040027</d6p1:double><d6p1:double>0.850710173328936</d6p1:double><d6p1:double>-0.006083065167437389</d6p1:double><d6p1:double>0.38296735507708124</d6p1:double><d6p1:double>0.70895608949107636</d6p1:double><d6p1:double>0.33209355803191309</d6p1:double><d6p1:double>0.39178641816756271</d6p1:double><d6p1:double>-0.0098314382534490687</d6p1:double><d6p1:double>0.12228263627579689</d6p1:double><d6p1:double>0.95913430998099725</d6p1:double></Weights></Neuron><Neuron><Bias>-0.99844169205312172</Bias><Output>1</Output><Weights xmlns:d6p1="http://schemas.microsoft.com/2003/10/Serialization/Arrays"><d6p1:double>0.18157954186115358</d6p1:double><d6p1:double>0.53384133462692929</d6p1:double><d6p1:double>0.32931093571373526</d6p1:double><d6p1:double>0.59469438026069077</d6p1:double><d6p1:double>-0.27656234036399341</d6p1:double><d6p1:double>0.70623815599275219</d6p1:double><d6p1:double>-0.65775084336824485</d6p1:double><d6p1:double>-0.29912558134758138</d6p1:double><d6p1:double>-0.43499839309772087</d6p1:double><d6p1:double>0.2583626259324569</d6p1:double><d6p1:double>-0.19946466699055268</d6p1:double><d6p1:double>1.0678180293407695</d6p1:double><d6p1:double>-0.039759151596295873</d6p1:double><d6p1:double>0.41918344922956974</d6p1:double><d6p1:double>0.22214792892053473</d6p1:double><d6p1:double>0.12285018315391041</d6p1:double><d6p1:double>0.5703900256513833</d6p1:double><d6p1:double>-0.28194652507231321</d6p1:double><d6p1:double>0.68761940665546772</d6p1:double><d6p1:double>0.98091349361140212</d6p1:double><d6p1:double>-0.3232092687208124</d6p1:double><d6p1:double>-0.18287325050828818</d6p1:double><d6p1:double>0.86301197892707038</d6p1:double><d6p1:double>1.4313706517212756</d6p1:double><d6p1:double>1.0829292144682316</d6p1:double></Weights></Neuron><Neuron><Bias>-1.0011816294893829</Bias><Output>-1</Output><Weights xmlns:d6p1="http://schemas.microsoft.com/2003/10/Serialization/Arrays"><d6p1:double>1.3188628335321462</d6p1:double><d6p1:double>0.52466998888972038</d6p1:double><d6p1:double>0.63841700716316507</d6p1:double><d6p1:double>0.29088973841479432</d6p1:double><d6p1:double>-0.068808252166778341</d6p1:double><d6p1:double>0.070075387901839939</d6p1:double><d6p1:double>1.1165460904470412</d6p1:double><d6p1:double>-0.21223041826591713</d6p1:double><d6p1:double>0.49390809110171019</d6p1:double><d6p1:double>0.32848985607129011</d6p1:double><d6p1:double>0.67941017865297815</d6p1:double><d6p1:double>0.49919470897008456</d6p1:double><d6p1:double>0.82323549851708222</d6p1:double><d6p1:double>-0.35078445478871645</d6p1:double><d6p1:double>0.84532301753503614</d6p1:double><d6p1:double>0.71720106127148231</d6p1:double><d6p1:double>-0.27240402305610811</d6p1:double><d6p1:double>0.43086061932749503</d6p1:double><d6p1:double>0.13060416746323403</d6p1:double><d6p1:double>-0.72816735801443311</d6p1:double><d6p1:double>0.14097607587662694</d6p1:double><d6p1:double>0.41055819019452017</d6p1:double><d6p1:double>0.59608485662576249</d6p1:double><d6p1:double>0.52663192482083721</d6p1:double><d6p1:double>0.093933985500796083</d6p1:double></Weights></Neuron><Neuron><Bias>-1.0006283798529383</Bias><Output>-1</Output><Weights xmlns:d6p1="http://schemas.microsoft.com/2003/10/Serialization/Arrays"><d6p1:double>0.78907036732399949</d6p1:double><d6p1:double>0.78613492645529348</d6p1:double><d6p1:double>0.051604374167401025</d6p1:double><d6p1:double>0.46537496620117325</d6p1:double><d6p1:double>0.82037064210278665</d6p1:double><d6p1:double>0.7551439081860617</d6p1:double><d6p1:double>1.3407212244252749</d6p1:double><d6p1:double>1.0201690180733107</d6p1:double><d6p1:double>0.69680565780169434</d6p1:double><d6p1:double>-0.087138832351446843</d6p1:double><d6p1:double>-0.4299636927643945</d6p1:double><d6p1:double>0.79507955383367646</d6p1:double><d6p1:double>0.58523047170518661</d6p1:double><d6p1:double>0.69427311053192242</d6p1:double><d6p1:double>0.85197635371946456</d6p1:double><d6p1:double>0.65562151582040062</d6p1:double><d6p1:double>0.94548790139339922</d6p1:double><d6p1:double>-0.54921115382939067</d6p1:double><d6p1:double>0.23231693599582154</d6p1:double><d6p1:double>0.27083571034591863</d6p1:double><d6p1:double>0.44392058253900446</d6p1:double><d6p1:double>0.77999285053328271</d6p1:double><d6p1:double>1.1843556046321944</d6p1:double><d6p1:double>0.20582392293241608</d6p1:double><d6p1:double>0.30091725627427379</d6p1:double></Weights></Neuron><Neuron><Bias>-0.99948631453285153</Bias><Output>1</Output><Weights xmlns:d6p1="http://schemas.microsoft.com/2003/10/Serialization/Arrays"><d6p1:double>-0.51120621997419713</d6p1:double><d6p1:double>0.71869963428308747</d6p1:double><d6p1:double>0.1634525231221893</d6p1:double><d6p1:double>0.7654916378864447</d6p1:double><d6p1:double>0.22923674156760074</d6p1:double><d6p1:double>0.66758644317159166</d6p1:double><d6p1:double>-0.26324936261637155</d6p1:double><d6p1:double>1.1512273207419046</d6p1:double><d6p1:double>0.79782851496381335</d6p1:double><d6p1:double>0.90020442768109266</d6p1:double><d6p1:double>0.84730778534089035</d6p1:double><d6p1:double>0.36304492376752423</d6p1:double><d6p1:double>0.9513424157946293</d6p1:double><d6p1:double>0.29535793268291061</d6p1:double><d6p1:double>1.0525417851500516</d6p1:double><d6p1:double>0.98736163018516276</d6p1:double><d6p1:double>0.56256307441968989</d6p1:double><d6p1:double>1.217078819957311</d6p1:double><d6p1:double>0.50158052583266888</d6p1:double><d6p1:double>0.064113707525588759</d6p1:double><d6p1:double>0.13595240072668707</d6p1:double><d6p1:double>0.40869675705499214</d6p1:double><d6p1:double>0.18399389329792776</d6p1:double><d6p1:double>0.040991974925101579</d6p1:double><d6p1:double>0.44133165869021457</d6p1:double></Weights></Neuron><Neuron><Bias>-0.99730035487502644</Bias><Output>1</Output><Weights xmlns:d6p1="http://schemas.microsoft.com/2003/10/Serialization/Arrays"><d6p1:double>-0.504165720434249</d6p1:double><d6p1:double>0.617362182848469</d6p1:double><d6p1:double>0.44392408549207052</d6p1:double><d6p1:double>0.37936664919952817</d6p1:double><d6p1:double>0.24217396496075375</d6p1:double><d6p1:double>1.1916223184765562</d6p1:double><d6p1:double>-0.50275034472997182</d6p1:double><d6p1:double>0.17150287168244949</d6p1:double><d6p1:double>0.68254351753592823</d6p1:double><d6p1:double>0.889025634763833</d6p1:double><d6p1:double>0.51525485423018358</d6p1:double><d6p1:double>1.0442103775736471</d6p1:double><d6p1:double>0.60443941074750662</d6p1:double><d6p1:double>0.47986559901182435</d6p1:double><d6p1:double>1.3075853271833646</d6p1:double><d6p1:double>0.43234194405811488</d6p1:double><d6p1:double>0.24171610271206961</d6p1:double><d6p1:double>0.058183827492375925</d6p1:double><d6p1:double>0.095801226508813148</d6p1:double><d6p1:double>0.570995514826967</d6p1:double><d6p1:double>-0.049101599085111365</d6p1:double><d6p1:double>-0.11570554463992389</d6p1:double><d6p1:double>0.32040700469008837</d6p1:double><d6p1:double>1.1253743393331488</d6p1:double><d6p1:double>-0.051469688271292523</d6p1:double></Weights></Neuron><Neuron><Bias>-0.99949644640866708</Bias><Output>1</Output><Weights xmlns:d6p1="http://schemas.microsoft.com/2003/10/Serialization/Arrays"><d6p1:double>-0.073695790511619411</d6p1:double><d6p1:double>0.555828207353623</d6p1:double><d6p1:double>1.105629724908834</d6p1:double><d6p1:double>0.16753618226638686</d6p1:double><d6p1:double>0.70265677076183752</d6p1:double><d6p1:double>-0.31757994104928472</d6p1:double><d6p1:double>0.32978840279400751</d6p1:double><d6p1:double>0.6243525031465974</d6p1:double><d6p1:double>0.6688244293872796</d6p1:double><d6p1:double>1.054515729157538</d6p1:double><d6p1:double>-0.035216216835523582</d6p1:double><d6p1:double>0.28837123031947476</d6p1:double><d6p1:double>-0.29364960309545379</d6p1:double><d6p1:double>-0.65172012926559031</d6p1:double><d6p1:double>0.90156185106541031</d6p1:double><d6p1:double>0.45395130655380861</d6p1:double><d6p1:double>-0.080490904036879363</d6p1:double><d6p1:double>1.0405477702067139</d6p1:double><d6p1:double>-0.33892565025864141</d6p1:double><d6p1:double>0.36673206582697487</d6p1:double><d6p1:double>0.41827137891723409</d6p1:double><d6p1:double>-0.26031229842578085</d6p1:double><d6p1:double>-0.26518892914175823</d6p1:double><d6p1:double>1.1019340813635197</d6p1:double><d6p1:double>-0.0985603856582016</d6p1:double></Weights></Neuron><Neuron><Bias>-0.0010305536925996168</Bias><Output>-1</Output><Weights xmlns:d6p1="http://schemas.microsoft.com/2003/10/Serialization/Arrays"><d6p1:double>0.74259211543661652</d6p1:double><d6p1:double>0.45039911827305945</d6p1:double><d6p1:double>0.68717801329322226</d6p1:double><d6p1:double>0.40582550201324158</d6p1:double><d6p1:double>1.0029643035479887</d6p1:double><d6p1:double>0.53666425491494762</d6p1:double><d6p1:double>0.26237563777301326</d6p1:double><d6p1:double>0.74848524020286045</d6p1:double><d6p1:double>1.3048533689923121</d6p1:double><d6p1:double>0.3211317336035483</d6p1:double><d6p1:double>-0.54273018522589322</d6p1:double><d6p1:double>-0.99830361072406326</d6p1:double><d6p1:double>-0.050918633757502038</d6p1:double><d6p1:double>0.58086014470074376</d6p1:double><d6p1:double>0.21876989694678298</d6p1:double><d6p1:double>-0.99049754184213512</d6p1:double><d6p1:double>-0.081087402660131</d6p1:double><d6p1:double>-0.010337093093440188</d6p1:double><d6p1:double>-0.31294805547170396</d6p1:double><d6p1:double>0.36904266234429828</d6p1:double><d6p1:double>-0.18964366462601381</d6p1:double><d6p1:double>0.48769359856597921</d6p1:double><d6p1:double>0.58829807091584985</d6p1:double><d6p1:double>0.52700313513272778</d6p1:double><d6p1:double>0.44839093269787705</d6p1:double></Weights></Neuron><Neuron><Bias>8.2278793051109849E-05</Bias><Output>-1</Output><Weights xmlns:d6p1="http://schemas.microsoft.com/2003/10/Serialization/Arrays"><d6p1:double>0.38613199533095871</d6p1:double><d6p1:double>1.2518359502568412</d6p1:double><d6p1:double>0.780928437614815</d6p1:double><d6p1:double>-0.403370031987805</d6p1:double><d6p1:double>0.59842600208973762</d6p1:double><d6p1:double>0.5370218290539055</d6p1:double><d6p1:double>0.92582474140641968</d6p1:double><d6p1:double>0.44206771397658068</d6p1:double><d6p1:double>0.14518491956876928</d6p1:double><d6p1:double>0.32762754251354842</d6p1:double><d6p1:double>0.19641576067990923</d6p1:double><d6p1:double>0.42417582078478572</d6p1:double><d6p1:double>0.031715472639734961</d6p1:double><d6p1:double>1.045293077648237</d6p1:double><d6p1:double>0.28986041930572759</d6p1:double><d6p1:double>0.28468894692700325</d6p1:double><d6p1:double>0.48177274651734547</d6p1:double><d6p1:double>-0.13868391032050079</d6p1:double><d6p1:double>0.4077612013637919</d6p1:double><d6p1:double>1.1534574121968248</d6p1:double><d6p1:double>0.3783905464788937</d6p1:double><d6p1:double>0.24224556225158572</d6p1:double><d6p1:double>0.91643649214326306</d6p1:double><d6p1:double>0.1455622718584709</d6p1:double><d6p1:double>1.2799929901291274</d6p1:double></Weights></Neuron><Neuron><Bias>-1.0004222948767205</Bias><Output>-1</Output><Weights xmlns:d6p1="http://schemas.microsoft.com/2003/10/Serialization/Arrays"><d6p1:double>1.1082443030091667</d6p1:double><d6p1:double>1.0047852413028475</d6p1:double><d6p1:double>0.019353686305710958</d6p1:double><d6p1:double>0.78301545029254149</d6p1:double><d6p1:double>0.73460798419922224</d6p1:double><d6p1:double>0.3873241555003834</d6p1:double><d6p1:double>0.72597961098467567</d6p1:double><d6p1:double>0.59357584006261888</d6p1:double><d6p1:double>0.82181256673263736</d6p1:double><d6p1:double>0.54505351664737856</d6p1:double><d6p1:double>1.2368771036457624</d6p1:double><d6p1:double>0.52436281798387008</d6p1:double><d6p1:double>0.051982677691011753</d6p1:double><d6p1:double>0.43083521427440113</d6p1:double><d6p1:double>-0.027601393957117883</d6p1:double><d6p1:double>0.10167643761228798</d6p1:double><d6p1:double>0.18972722962173169</d6p1:double><d6p1:double>0.93689590560415126</d6p1:double><d6p1:double>0.56899734656340417</d6p1:double><d6p1:double>1.2084674965262927</d6p1:double><d6p1:double>0.393494311025158</d6p1:double><d6p1:double>0.14375874274989822</d6p1:double><d6p1:double>-0.28865329916929439</d6p1:double><d6p1:double>0.40683992737500924</d6p1:double><d6p1:double>1.1319766440305397</d6p1:double></Weights></Neuron><Neuron><Bias>-0.00073117169516568182</Bias><Output>1</Output><Weights xmlns:d6p1="http://schemas.microsoft.com/2003/10/Serialization/Arrays"><d6p1:double>-1.2112102388898986</d6p1:double><d6p1:double>0.27344933362193052</d6p1:double><d6p1:double>0.17481734435126128</d6p1:double><d6p1:double>0.46583292322639863</d6p1:double><d6p1:double>0.48164041116274248</d6p1:double><d6p1:double>0.54636093243554751</d6p1:double><d6p1:double>-0.028234724547004913</d6p1:double><d6p1:double>0.77905885553900012</d6p1:double><d6p1:double>0.25680876472787434</d6p1:double><d6p1:double>0.5476352299775733</d6p1:double><d6p1:double>0.21952668983220983</d6p1:double><d6p1:double>0.053738549031784211</d6p1:double><d6p1:double>0.50392536006856692</d6p1:double><d6p1:double>1.3096621373384212</d6p1:double><d6p1:double>-0.21911804748345787</d6p1:double><d6p1:double>0.53177357023015692</d6p1:double><d6p1:double>0.20203861960930111</d6p1:double><d6p1:double>1.2176355538155261</d6p1:double><d6p1:double>0.6603282396635024</d6p1:double><d6p1:double>0.13014928432570042</d6p1:double><d6p1:double>-0.14022829423026317</d6p1:double><d6p1:double>1.3141294038137983</d6p1:double><d6p1:double>0.59953739089911551</d6p1:double><d6p1:double>0.095541810216841522</d6p1:double><d6p1:double>-0.88584771524200134</d6p1:double></Weights></Neuron><Neuron><Bias>-1.0010341688055369</Bias><Output>-1</Output><Weights xmlns:d6p1="http://schemas.microsoft.com/2003/10/Serialization/Arrays"><d6p1:double>0.85068889140554527</d6p1:double><d6p1:double>0.81087334340242534</d6p1:double><d6p1:double>-0.033134975741669945</d6p1:double><d6p1:double>0.94547662917802777</d6p1:double><d6p1:double>0.8136037349946138</d6p1:double><d6p1:double>-0.035165855303812894</d6p1:double><d6p1:double>-0.50675879091800868</d6p1:double><d6p1:double>0.31210230989930032</d6p1:double><d6p1:double>0.58714470779678829</d6p1:double><d6p1:double>0.32655086903873604</d6p1:double><d6p1:double>0.62908176178187036</d6p1:double><d6p1:double>1.3184353682496521</d6p1:double><d6p1:double>-0.45776142721430579</d6p1:double><d6p1:double>0.548476680319241</d6p1:double><d6p1:double>-0.24346180132744621</d6p1:double><d6p1:double>0.38770184066726865</d6p1:double><d6p1:double>0.059546190223745174</d6p1:double><d6p1:double>0.13132420875144768</d6p1:double><d6p1:double>-0.42647957420180543</d6p1:double><d6p1:double>-0.70120083014959711</d6p1:double><d6p1:double>-0.35073039697685304</d6p1:double><d6p1:double>1.0437152371423051</d6p1:double><d6p1:double>0.45751037818668722</d6p1:double><d6p1:double>-0.34850812836696404</d6p1:double><d6p1:double>0.15442936976068292</d6p1:double></Weights></Neuron><Neuron><Bias>-1.0002485286938558</Bias><Output>-1</Output><Weights xmlns:d6p1="http://schemas.microsoft.com/2003/10/Serialization/Arrays"><d6p1:double>1.1652376619959361</d6p1:double><d6p1:double>0.059342027037371306</d6p1:double><d6p1:double>0.13030183703998852</d6p1:double><d6p1:double>-0.14242096364433704</d6p1:double><d6p1:double>0.41773279144486192</d6p1:double><d6p1:double>1.0382565796418748</d6p1:double><d6p1:double>0.41266693028237156</d6p1:double><d6p1:double>0.53271953776053094</d6p1:double><d6p1:double>0.10368822385236706</d6p1:double><d6p1:double>0.28485250319670058</d6p1:double><d6p1:double>0.1256310563055181</d6p1:double><d6p1:double>0.73414563153065582</d6p1:double><d6p1:double>-0.4694040263064983</d6p1:double><d6p1:double>-0.20963047046112571</d6p1:double><d6p1:double>-0.10315953070823253</d6p1:double><d6p1:double>0.3639707903992942</d6p1:double><d6p1:double>0.50307570177535355</d6p1:double><d6p1:double>0.60239965381995186</d6p1:double><d6p1:double>0.513261190741385</d6p1:double><d6p1:double>-0.589369498252692</d6p1:double><d6p1:double>0.87761803517660508</d6p1:double><d6p1:double>0.2985176324263949</d6p1:double><d6p1:double>0.26175862848469317</d6p1:double><d6p1:double>0.89808745337033058</d6p1:double><d6p1:double>0.680267612958735</d6p1:double></Weights></Neuron><Neuron><Bias>-0.99975915423933348</Bias><Output>1</Output><Weights xmlns:d6p1="http://schemas.microsoft.com/2003/10/Serialization/Arrays"><d6p1:double>-0.14307092751423661</d6p1:double><d6p1:double>1.0812326729134827</d6p1:double><d6p1:double>0.76969888475417447</d6p1:double><d6p1:double>1.2736691223085046</d6p1:double><d6p1:double>0.050496168158958167</d6p1:double><d6p1:double>0.32817366833074313</d6p1:double><d6p1:double>0.11892946399854924</d6p1:double><d6p1:double>0.69388470433852512</d6p1:double><d6p1:double>1.0176046922782969</d6p1:double><d6p1:double>0.86074662481303144</d6p1:double><d6p1:double>0.0052525351020853463</d6p1:double><d6p1:double>0.13793028222368836</d6p1:double><d6p1:double>1.2475010372207131</d6p1:double><d6p1:double>0.67657003883862421</d6p1:double><d6p1:double>1.1238787592728461</d6p1:double><d6p1:double>0.6292842879515872</d6p1:double><d6p1:double>0.493242451788672</d6p1:double><d6p1:double>-0.0047096277727887862</d6p1:double><d6p1:double>0.76818694177787716</d6p1:double><d6p1:double>0.64132754711000184</d6p1:double><d6p1:double>-0.149117673153949</d6p1:double><d6p1:double>0.63960781345309947</d6p1:double><d6p1:double>0.61004213188872691</d6p1:double><d6p1:double>0.48752068391335418</d6p1:double><d6p1:double>-0.2812633776239587</d6p1:double></Weights></Neuron><Neuron><Bias>-0.999162761031127</Bias><Output>-1</Output><Weights xmlns:d6p1="http://schemas.microsoft.com/2003/10/Serialization/Arrays"><d6p1:double>0.29451828442123612</d6p1:double><d6p1:double>0.37408863067208503</d6p1:double><d6p1:double>0.20677554545804636</d6p1:double><d6p1:double>-0.34238686069806273</d6p1:double><d6p1:double>0.65100900285008168</d6p1:double><d6p1:double>0.20977424578397622</d6p1:double><d6p1:double>0.30389665520691334</d6p1:double><d6p1:double>-0.14230236541231478</d6p1:double><d6p1:double>1.1112134862574206</d6p1:double><d6p1:double>-0.0899743605786453</d6p1:double><d6p1:double>-0.80670946444535</d6p1:double><d6p1:double>0.062901771235740478</d6p1:double><d6p1:double>0.860456916209675</d6p1:double><d6p1:double>-0.10965130760634891</d6p1:double><d6p1:double>-0.23519455026349551</d6p1:double><d6p1:double>0.20012654999682886</d6p1:double><d6p1:double>0.6266315606613716</d6p1:double><d6p1:double>0.10598570250112282</d6p1:double><d6p1:double>-0.2341702084494996</d6p1:double><d6p1:double>-0.23886528282272754</d6p1:double><d6p1:double>1.8562651265410781</d6p1:double><d6p1:double>-1.1078023526875227</d6p1:double><d6p1:double>0.4976617080968147</d6p1:double><d6p1:double>-0.35567252454698012</d6p1:double><d6p1:double>0.11649067412758096</d6p1:double></Weights></Neuron><Neuron><Bias>-4.5880594933949627E-05</Bias><Output>-1</Output><Weights xmlns:d6p1="http://schemas.microsoft.com/2003/10/Serialization/Arrays"><d6p1:double>0.2135982732633192</d6p1:double><d6p1:double>1.2138671574227002</d6p1:double><d6p1:double>-0.48718377453338751</d6p1:double><d6p1:double>0.021342732387997339</d6p1:double><d6p1:double>-0.13971597944195213</d6p1:double><d6p1:double>1.0365280771151735</d6p1:double><d6p1:double>0.64157814280191816</d6p1:double><d6p1:double>-0.2228114387892913</d6p1:double><d6p1:double>-0.40569979948143259</d6p1:double><d6p1:double>0.35875972525368655</d6p1:double><d6p1:double>1.0043267301876388</d6p1:double><d6p1:double>1.3475985204718319</d6p1:double><d6p1:double>-0.30200520407689813</d6p1:double><d6p1:double>0.64822753498473218</d6p1:double><d6p1:double>1.4196514689410968</d6p1:double><d6p1:double>0.18015604243080585</d6p1:double><d6p1:double>0.68882512168756749</d6p1:double><d6p1:double>0.098427246048135908</d6p1:double><d6p1:double>0.30070032615573605</d6p1:double><d6p1:double>0.13367414048396711</d6p1:double><d6p1:double>0.30529050640236094</d6p1:double><d6p1:double>0.73114507112308591</d6p1:double><d6p1:double>0.0637711426825257</d6p1:double><d6p1:double>0.80600007388571</d6p1:double><d6p1:double>0.87135644683474611</d6p1:double></Weights></Neuron><Neuron><Bias>-0.0011045256346548552</Bias><Output>-1</Output><Weights xmlns:d6p1="http://schemas.microsoft.com/2003/10/Serialization/Arrays"><d6p1:double>0.43284699330090459</d6p1:double><d6p1:double>1.0623143832591038</d6p1:double><d6p1:double>-0.14873771279880887</d6p1:double><d6p1:double>0.037892208294978739</d6p1:double><d6p1:double>1.3855036791218442</d6p1:double><d6p1:double>0.33580632513064584</d6p1:double><d6p1:double>0.3857425454417126</d6p1:double><d6p1:double>0.6056600739698812</d6p1:double><d6p1:double>0.049492310918734114</d6p1:double><d6p1:double>-0.0081960875844922891</d6p1:double><d6p1:double>-0.35941499138345295</d6p1:double><d6p1:double>0.37103081222860113</d6p1:double><d6p1:double>-0.34838634081688719</d6p1:double><d6p1:double>0.23168879056443362</d6p1:double><d6p1:double>0.65225362110029161</d6p1:double><d6p1:double>0.83656028434059915</d6p1:double><d6p1:double>0.14914970552540191</d6p1:double><d6p1:double>0.43924051966814809</d6p1:double><d6p1:double>0.85943058281745144</d6p1:double><d6p1:double>0.079920369712045733</d6p1:double><d6p1:double>0.076523882295301784</d6p1:double><d6p1:double>0.81860420440083415</d6p1:double><d6p1:double>0.20612312430363944</d6p1:double><d6p1:double>-0.42938531080142961</d6p1:double><d6p1:double>0.58655036467531052</d6p1:double></Weights></Neuron><Neuron><Bias>-0.99929161853680559</Bias><Output>1</Output><Weights xmlns:d6p1="http://schemas.microsoft.com/2003/10/Serialization/Arrays"><d6p1:double>-0.15555378604882503</d6p1:double><d6p1:double>0.20725536871021336</d6p1:double><d6p1:double>0.643764173525217</d6p1:double><d6p1:double>0.13596509833438045</d6p1:double><d6p1:double>0.60925751400111627</d6p1:double><d6p1:double>0.010218795234668072</d6p1:double><d6p1:double>0.90196893110877219</d6p1:double><d6p1:double>0.017977997156410998</d6p1:double><d6p1:double>0.73123844043052444</d6p1:double><d6p1:double>0.9316633260880901</d6p1:double><d6p1:double>0.482492607217901</d6p1:double><d6p1:double>1.1938478554794714</d6p1:double><d6p1:double>1.0550694741088573</d6p1:double><d6p1:double>0.28481755410008797</d6p1:double><d6p1:double>0.48464258312209335</d6p1:double><d6p1:double>0.44109948258716775</d6p1:double><d6p1:double>0.9978681424118041</d6p1:double><d6p1:double>0.23910233712577858</d6p1:double><d6p1:double>0.987984620175208</d6p1:double><d6p1:double>0.452158228474081</d6p1:double><d6p1:double>0.13816486964549946</d6p1:double><d6p1:double>0.12729404020378518</d6p1:double><d6p1:double>0.65230536837581721</d6p1:double><d6p1:double>1.2214103296179892</d6p1:double><d6p1:double>0.37260708602674641</d6p1:double></Weights></Neuron><Neuron><Bias>8.9019282155409384E-05</Bias><Output>-1</Output><Weights xmlns:d6p1="http://schemas.microsoft.com/2003/10/Serialization/Arrays"><d6p1:double>0.50845682700066652</d6p1:double><d6p1:double>1.0099771119250955</d6p1:double><d6p1:double>1.0314644245373359</d6p1:double><d6p1:double>0.52147861874234225</d6p1:double><d6p1:double>0.84019805228489208</d6p1:double><d6p1:double>0.3244995148358078</d6p1:double><d6p1:double>0.870590871642594</d6p1:double><d6p1:double>-0.24788451274862369</d6p1:double><d6p1:double>0.17914508963214421</d6p1:double><d6p1:double>0.21747205742393255</d6p1:double><d6p1:double>-0.1562856220582424</d6p1:double><d6p1:double>0.42818855794392685</d6p1:double><d6p1:double>0.61621114941167254</d6p1:double><d6p1:double>0.78782851522776931</d6p1:double><d6p1:double>0.3597494047906446</d6p1:double><d6p1:double>0.85584827098476091</d6p1:double><d6p1:double>0.41899809422550138</d6p1:double><d6p1:double>0.49829799979592232</d6p1:double><d6p1:double>0.98669571597999062</d6p1:double><d6p1:double>0.21569446547106783</d6p1:double><d6p1:double>1.277353260042642</d6p1:double><d6p1:double>0.10449063591320691</d6p1:double><d6p1:double>0.6243533871315633</d6p1:double><d6p1:double>0.56427393306051143</d6p1:double><d6p1:double>0.14801177288922515</d6p1:double></Weights></Neuron><Neuron><Bias>-1.0009864610957675</Bias><Output>-1</Output><Weights xmlns:d6p1="http://schemas.microsoft.com/2003/10/Serialization/Arrays"><d6p1:double>0.87500249411018449</d6p1:double><d6p1:double>-0.38397037721260396</d6p1:double><d6p1:double>0.14293953970513976</d6p1:double><d6p1:double>0.27330244101845164</d6p1:double><d6p1:double>-0.26560997746049742</d6p1:double><d6p1:double>0.98046671347051684</d6p1:double><d6p1:double>0.52907768187515358</d6p1:double><d6p1:double>0.33430077497334426</d6p1:double><d6p1:double>0.42299933259994238</d6p1:double><d6p1:double>0.42463356535763014</d6p1:double><d6p1:double>0.54115327600936236</d6p1:double><d6p1:double>0.82265961899847539</d6p1:double><d6p1:double>0.0081992866425439851</d6p1:double><d6p1:double>0.046497249048865305</d6p1:double><d6p1:double>1.4098448940401318</d6p1:double><d6p1:double>0.62741940997020784</d6p1:double><d6p1:double>-0.56522442365314518</d6p1:double><d6p1:double>1.5127941346070009</d6p1:double><d6p1:double>0.17394666831846095</d6p1:double><d6p1:double>-0.50741727372707479</d6p1:double><d6p1:double>0.5738955378391738</d6p1:double><d6p1:double>0.41774500104121759</d6p1:double><d6p1:double>0.51707675544988563</d6p1:double><d6p1:double>-0.14829225919601557</d6p1:double><d6p1:double>-0.52513801794110959</d6p1:double></Weights></Neuron><Neuron><Bias>-0.999617020517342</Bias><Output>1</Output><Weights xmlns:d6p1="http://schemas.microsoft.com/2003/10/Serialization/Arrays"><d6p1:double>-0.5389848525485238</d6p1:double><d6p1:double>-0.31354301807492208</d6p1:double><d6p1:double>1.3398406381458241</d6p1:double><d6p1:double>-0.992471485931997</d6p1:double><d6p1:double>0.9294594737255063</d6p1:double><d6p1:double>0.36322657424015681</d6p1:double><d6p1:double>1.0379380734553318</d6p1:double><d6p1:double>0.028215613697407455</d6p1:double><d6p1:double>0.242551906434256</d6p1:double><d6p1:double>0.26705970449806676</d6p1:double><d6p1:double>-0.61997126358551569</d6p1:double><d6p1:double>-1.4310785611931973</d6p1:double><d6p1:double>0.83559620494199394</d6p1:double><d6p1:double>0.89307108757511189</d6p1:double><d6p1:double>-0.54183577176149789</d6p1:double><d6p1:double>0.33764197724315653</d6p1:double><d6p1:double>1.0904375426163671</d6p1:double><d6p1:double>1.1655434541447973</d6p1:double><d6p1:double>-0.071859608020348548</d6p1:double><d6p1:double>0.20483913386915481</d6p1:double><d6p1:double>0.057780279167583479</d6p1:double><d6p1:double>-0.24938200445317257</d6p1:double><d6p1:double>0.59469063639858621</d6p1:double><d6p1:double>0.25833856730937543</d6p1:double><d6p1:double>-0.38221564054534957</d6p1:double></Weights></Neuron><Neuron><Bias>0.00087167442895902088</Bias><Output>1</Output><Weights xmlns:d6p1="http://schemas.microsoft.com/2003/10/Serialization/Arrays"><d6p1:double>-0.37819817329197308</d6p1:double><d6p1:double>0.90562669193695677</d6p1:double><d6p1:double>0.65767814071767716</d6p1:double><d6p1:double>0.28682826748924317</d6p1:double><d6p1:double>0.51671404478862759</d6p1:double><d6p1:double>0.82660580279798157</d6p1:double><d6p1:double>0.94112236990081122</d6p1:double><d6p1:double>0.781027620270652</d6p1:double><d6p1:double>0.602974791033552</d6p1:double><d6p1:double>0.982826846676588</d6p1:double><d6p1:double>1.0655190497102314</d6p1:double><d6p1:double>0.0416237462336948</d6p1:double><d6p1:double>-0.10529891475238935</d6p1:double><d6p1:double>0.62286967216238</d6p1:double><d6p1:double>0.57035876142556741</d6p1:double><d6p1:double>0.18753157279838117</d6p1:double><d6p1:double>0.61323481589340145</d6p1:double><d6p1:double>0.24156908508973771</d6p1:double><d6p1:double>0.78229191973608447</d6p1:double><d6p1:double>-0.11719480541335821</d6p1:double><d6p1:double>0.51787791013395457</d6p1:double><d6p1:double>1.1953501056769151</d6p1:double><d6p1:double>0.14272300524843679</d6p1:double><d6p1:double>0.68094191331187515</d6p1:double><d6p1:double>0.16090964363195609</d6p1:double></Weights></Neuron><Neuron><Bias>-0.99996271007776782</Bias><Output>-1</Output><Weights xmlns:d6p1="http://schemas.microsoft.com/2003/10/Serialization/Arrays"><d6p1:double>0.19506538102446924</d6p1:double><d6p1:double>0.50112556750195536</d6p1:double><d6p1:double>0.40401964276062868</d6p1:double><d6p1:double>0.87466727075009509</d6p1:double><d6p1:double>0.89375191305298363</d6p1:double><d6p1:double>0.51268149863705237</d6p1:double><d6p1:double>1.0182951104127986</d6p1:double><d6p1:double>0.77799282450832308</d6p1:double><d6p1:double>0.29111226814773411</d6p1:double><d6p1:double>0.49427968296295632</d6p1:double><d6p1:double>0.37862400781071887</d6p1:double><d6p1:double>1.0118718754326537</d6p1:double><d6p1:double>0.43419327995530255</d6p1:double><d6p1:double>-0.006718584228006484</d6p1:double><d6p1:double>0.14668400846777505</d6p1:double><d6p1:double>0.58263794492904208</d6p1:double><d6p1:double>1.150835920916343</d6p1:double><d6p1:double>0.53619038093138349</d6p1:double><d6p1:double>0.17769682113108595</d6p1:double><d6p1:double>0.588437385298124</d6p1:double><d6p1:double>0.51779932206794954</d6p1:double><d6p1:double>0.68481044291220783</d6p1:double><d6p1:double>-0.30066401841710927</d6p1:double><d6p1:double>0.25626772671586651</d6p1:double><d6p1:double>0.45729587513495545</d6p1:double></Weights></Neuron><Neuron><Bias>-1.000713231247442</Bias><Output>-1</Output><Weights xmlns:d6p1="http://schemas.microsoft.com/2003/10/Serialization/Arrays"><d6p1:double>0.5810473031936727</d6p1:double><d6p1:double>-0.1169810130018618</d6p1:double><d6p1:double>0.13458029151352913</d6p1:double><d6p1:double>0.21150687872974661</d6p1:double><d6p1:double>1.3473747305814086</d6p1:double><d6p1:double>0.22849320297922485</d6p1:double><d6p1:double>0.88688403769755675</d6p1:double><d6p1:double>0.18269386591619755</d6p1:double><d6p1:double>0.056824516154155146</d6p1:double><d6p1:double>-0.040203510712553188</d6p1:double><d6p1:double>0.46262186572736463</d6p1:double><d6p1:double>0.795023782547339</d6p1:double><d6p1:double>-0.34734810012605716</d6p1:double><d6p1:double>0.84310289583511433</d6p1:double><d6p1:double>-0.26026581143101346</d6p1:double><d6p1:double>0.47479417464141377</d6p1:double><d6p1:double>0.32158318901569521</d6p1:double><d6p1:double>0.764798616119689</d6p1:double><d6p1:double>0.80058890482103406</d6p1:double><d6p1:double>0.60793327631806449</d6p1:double><d6p1:double>0.916349789211533</d6p1:double><d6p1:double>1.001194804671464</d6p1:double><d6p1:double>1.0061503934484877</d6p1:double><d6p1:double>-0.896979646269367</d6p1:double><d6p1:double>-0.14435333077275442</d6p1:double></Weights></Neuron><Neuron><Bias>-1.0005762210420184</Bias><Output>-1</Output><Weights xmlns:d6p1="http://schemas.microsoft.com/2003/10/Serialization/Arrays"><d6p1:double>1.1842062255392</d6p1:double><d6p1:double>-0.20329164708534467</d6p1:double><d6p1:double>0.655492080579615</d6p1:double><d6p1:double>0.23779235693250858</d6p1:double><d6p1:double>0.63983535888076748</d6p1:double><d6p1:double>-0.12377220259417512</d6p1:double><d6p1:double>1.0618579326490134</d6p1:double><d6p1:double>0.13431079308006746</d6p1:double><d6p1:double>0.80238326262812776</d6p1:double><d6p1:double>1.0285593558964767</d6p1:double><d6p1:double>-0.18079881292270311</d6p1:double><d6p1:double>0.63883559676784929</d6p1:double><d6p1:double>0.50220292903602226</d6p1:double><d6p1:double>0.11047854444785317</d6p1:double><d6p1:double>-0.25711815931246595</d6p1:double><d6p1:double>0.15177103319762408</d6p1:double><d6p1:double>0.64375690470056668</d6p1:double><d6p1:double>0.4932502804972933</d6p1:double><d6p1:double>-0.20232303833371867</d6p1:double><d6p1:double>0.10196946822166784</d6p1:double><d6p1:double>0.153036798534721</d6p1:double><d6p1:double>0.71412298384163231</d6p1:double><d6p1:double>0.81167900593699271</d6p1:double><d6p1:double>0.20039083971831792</d6p1:double><d6p1:double>0.93551224441600944</d6p1:double></Weights></Neuron><Neuron><Bias>-0.99933429177516153</Bias><Output>1</Output><Weights xmlns:d6p1="http://schemas.microsoft.com/2003/10/Serialization/Arrays"><d6p1:double>0.80893477136428116</d6p1:double><d6p1:double>-0.31593833195877219</d6p1:double><d6p1:double>1.151587751067888</d6p1:double><d6p1:double>-0.061282999354101655</d6p1:double><d6p1:double>-0.52144008023070387</d6p1:double><d6p1:double>-0.17348417003287661</d6p1:double><d6p1:double>0.83961009040511814</d6p1:double><d6p1:double>0.34011012449881861</d6p1:double><d6p1:double>0.16178521987875144</d6p1:double><d6p1:double>0.46721888706065717</d6p1:double><d6p1:double>-0.65638952725171462</d6p1:double><d6p1:double>-0.99066982196203168</d6p1:double><d6p1:double>1.2254932186737104</d6p1:double><d6p1:double>0.94113143769839047</d6p1:double><d6p1:double>0.17418541344255797</d6p1:double><d6p1:double>0.29430354071378489</d6p1:double><d6p1:double>0.83041556186784138</d6p1:double><d6p1:double>-0.2598913795215424</d6p1:double><d6p1:double>0.079733830967016292</d6p1:double><d6p1:double>0.31578812180873922</d6p1:double><d6p1:double>0.0250441156896183</d6p1:double><d6p1:double>-0.027243996939577988</d6p1:double><d6p1:double>0.75339165041463552</d6p1:double><d6p1:double>0.38588029550869518</d6p1:double><d6p1:double>-0.076013980930455749</d6p1:double></Weights></Neuron><Neuron><Bias>-0.99884911132775545</Bias><Output>1</Output><Weights xmlns:d6p1="http://schemas.microsoft.com/2003/10/Serialization/Arrays"><d6p1:double>0.15884456636823879</d6p1:double><d6p1:double>-0.24899490398490207</d6p1:double><d6p1:double>0.91257412012239336</d6p1:double><d6p1:double>-0.52608057777008355</d6p1:double><d6p1:double>0.29619551836523833</d6p1:double><d6p1:double>-0.017976573924296135</d6p1:double><d6p1:double>0.59701251475493278</d6p1:double><d6p1:double>-0.14223122207647684</d6p1:double><d6p1:double>0.62853732178699051</d6p1:double><d6p1:double>0.84029243908957851</d6p1:double><d6p1:double>0.34314899419684952</d6p1:double><d6p1:double>0.22135997483457506</d6p1:double><d6p1:double>1.1035987115455106</d6p1:double><d6p1:double>0.93093880435584042</d6p1:double><d6p1:double>2.1138316602063747</d6p1:double><d6p1:double>0.020502656010205213</d6p1:double><d6p1:double>0.316493181253423</d6p1:double><d6p1:double>-0.021955969545192706</d6p1:double><d6p1:double>0.56268385011392175</d6p1:double><d6p1:double>0.33808605514755308</d6p1:double><d6p1:double>0.12642147536523507</d6p1:double><d6p1:double>0.52357787733801686</d6p1:double><d6p1:double>0.41663063766368769</d6p1:double><d6p1:double>0.38318392248862737</d6p1:double><d6p1:double>0.087436379409773349</d6p1:double></Weights></Neuron><Neuron><Bias>-0.9999227871756835</Bias><Output>1</Output><Weights xmlns:d6p1="http://schemas.microsoft.com/2003/10/Serialization/Arrays"><d6p1:double>-0.1855236301757055</d6p1:double><d6p1:double>-0.18480384722797974</d6p1:double><d6p1:double>0.050061264767424667</d6p1:double><d6p1:double>0.89371027641955858</d6p1:double><d6p1:double>0.070187007259931516</d6p1:double><d6p1:double>-0.6169490518161147</d6p1:double><d6p1:double>-0.704069004890585</d6p1:double><d6p1:double>0.49512943165626683</d6p1:double><d6p1:double>-0.2949737257838308</d6p1:double><d6p1:double>-0.86750686117189679</d6p1:double><d6p1:double>0.810975768545191</d6p1:double><d6p1:double>0.14567334228749296</d6p1:double><d6p1:double>-0.44499030924847216</d6p1:double><d6p1:double>1.8422397194307341</d6p1:double><d6p1:double>-0.64685467222693027</d6p1:double><d6p1:double>0.582030827164208</d6p1:double><d6p1:double>0.37737520239577604</d6p1:double><d6p1:double>-0.097303467560839615</d6p1:double><d6p1:double>0.56502272054903235</d6p1:double><d6p1:double>0.28911731840216121</d6p1:double><d6p1:double>-0.26443903670126884</d6p1:double><d6p1:double>0.78102505767759889</d6p1:double><d6p1:double>0.43385798741729659</d6p1:double><d6p1:double>0.192655955056307</d6p1:double><d6p1:double>-0.25884525783642859</d6p1:double></Weights></Neuron><Neuron><Bias>-0.999673858838576</Bias><Output>-1</Output><Weights xmlns:d6p1="http://schemas.microsoft.com/2003/10/Serialization/Arrays"><d6p1:double>-0.203652780300387</d6p1:double><d6p1:double>0.16269576579896111</d6p1:double><d6p1:double>0.80040510583392555</d6p1:double><d6p1:double>0.790237152651383</d6p1:double><d6p1:double>0.7266585208206553</d6p1:double><d6p1:double>0.063274556754680092</d6p1:double><d6p1:double>-0.13737242390232282</d6p1:double><d6p1:double>0.1531789045460277</d6p1:double><d6p1:double>0.77763438705049659</d6p1:double><d6p1:double>1.1914747586113972</d6p1:double><d6p1:double>0.41771536473304954</d6p1:double><d6p1:double>0.42167973680594706</d6p1:double><d6p1:double>0.32939342730000581</d6p1:double><d6p1:double>0.74973898979438824</d6p1:double><d6p1:double>-0.26843274301172737</d6p1:double><d6p1:double>-0.82847432715334213</d6p1:double><d6p1:double>0.77645381778719513</d6p1:double><d6p1:double>1.187428161968795</d6p1:double><d6p1:double>0.6633863733871036</d6p1:double><d6p1:double>1.5117275942305155</d6p1:double><d6p1:double>0.03633613708098804</d6p1:double><d6p1:double>0.41574366988280909</d6p1:double><d6p1:double>0.029274330207713747</d6p1:double><d6p1:double>-0.020517935427804484</d6p1:double><d6p1:double>0.22623852725155308</d6p1:double></Weights></Neuron><Neuron><Bias>-6.1765839544334662E-05</Bias><Output>1</Output><Weights xmlns:d6p1="http://schemas.microsoft.com/2003/10/Serialization/Arrays"><d6p1:double>0.0038838259189313096</d6p1:double><d6p1:double>0.35531169054856049</d6p1:double><d6p1:double>-0.19996767914202071</d6p1:double><d6p1:double>0.20906672283071553</d6p1:double><d6p1:double>0.22403158684885319</d6p1:double><d6p1:double>0.45418315267497994</d6p1:double><d6p1:double>1.1697825069472139</d6p1:double><d6p1:double>1.2576858536609463</d6p1:double><d6p1:double>0.18180005981099104</d6p1:double><d6p1:double>0.21743446264268834</d6p1:double><d6p1:double>0.1192864512559183</d6p1:double><d6p1:double>1.2959550211466493</d6p1:double><d6p1:double>0.056249076367179324</d6p1:double><d6p1:double>-0.32006031477795477</d6p1:double><d6p1:double>0.85274753088295729</d6p1:double><d6p1:double>1.1263475805553396</d6p1:double><d6p1:double>-0.058332809507795777</d6p1:double><d6p1:double>-0.19717095954194136</d6p1:double><d6p1:double>-0.20331448946735745</d6p1:double><d6p1:double>0.761575086870879</d6p1:double><d6p1:double>-0.0024040228432695024</d6p1:double><d6p1:double>0.13270338146620408</d6p1:double><d6p1:double>-0.0721646505471648</d6p1:double><d6p1:double>0.2322141904509209</d6p1:double><d6p1:double>0.63463862683291006</d6p1:double></Weights></Neuron><Neuron><Bias>0.00038435910116149273</Bias><Output>1</Output><Weights xmlns:d6p1="http://schemas.microsoft.com/2003/10/Serialization/Arrays"><d6p1:double>-0.34724459377185418</d6p1:double><d6p1:double>-0.19857918861814874</d6p1:double><d6p1:double>-0.049904936099520847</d6p1:double><d6p1:double>0.40778241262881354</d6p1:double><d6p1:double>-0.60022942216146491</d6p1:double><d6p1:double>0.78679090282332209</d6p1:double><d6p1:double>-0.55015565491394858</d6p1:double><d6p1:double>0.41242102991937424</d6p1:double><d6p1:double>0.96782024367711128</d6p1:double><d6p1:double>-0.21914699777417365</d6p1:double><d6p1:double>0.24597229904214668</d6p1:double><d6p1:double>0.44089969165857873</d6p1:double><d6p1:double>0.51601830457179021</d6p1:double><d6p1:double>0.98212032961797058</d6p1:double><d6p1:double>0.56933870923630692</d6p1:double><d6p1:double>1.32383214700362</d6p1:double><d6p1:double>-0.30978290903493466</d6p1:double><d6p1:double>1.4934566361062009</d6p1:double><d6p1:double>0.22269995005828808</d6p1:double><d6p1:double>-0.72256506848805691</d6p1:double><d6p1:double>0.39547239120292965</d6p1:double><d6p1:double>0.32736535704554764</d6p1:double><d6p1:double>0.42105435121806178</d6p1:double><d6p1:double>-0.16109562164685759</d6p1:double><d6p1:double>-0.300095347873277</d6p1:double></Weights></Neuron><Neuron><Bias>-0.998827076489955</Bias><Output>1</Output><Weights xmlns:d6p1="http://schemas.microsoft.com/2003/10/Serialization/Arrays"><d6p1:double>0.055122847144366036</d6p1:double><d6p1:double>0.53700824250273693</d6p1:double><d6p1:double>0.65191724263756823</d6p1:double><d6p1:double>0.36967512366346011</d6p1:double><d6p1:double>-0.18948107543526677</d6p1:double><d6p1:double>0.91402039517409139</d6p1:double><d6p1:double>-0.12291933235280289</d6p1:double><d6p1:double>0.60618753709809692</d6p1:double><d6p1:double>0.63107693695666167</d6p1:double><d6p1:double>-0.25522429808047703</d6p1:double><d6p1:double>0.63109398408791351</d6p1:double><d6p1:double>-0.048751293461882658</d6p1:double><d6p1:double>1.3059600022985531</d6p1:double><d6p1:double>0.65284320235790561</d6p1:double><d6p1:double>0.17147475983821006</d6p1:double><d6p1:double>0.45212132600992594</d6p1:double><d6p1:double>0.60984136081157692</d6p1:double><d6p1:double>0.36904300523803274</d6p1:double><d6p1:double>0.55122104350795453</d6p1:double><d6p1:double>1.2310784611904753</d6p1:double><d6p1:double>0.37924395135508154</d6p1:double><d6p1:double>-0.81505880960018462</d6p1:double><d6p1:double>0.77445240597452014</d6p1:double><d6p1:double>0.8809539405165534</d6p1:double><d6p1:double>-0.10586468218670239</d6p1:double></Weights></Neuron><Neuron><Bias>-0.99997410362818773</Bias><Output>-1</Output><Weights xmlns:d6p1="http://schemas.microsoft.com/2003/10/Serialization/Arrays"><d6p1:double>0.42882769859593106</d6p1:double><d6p1:double>0.10867313850820198</d6p1:double><d6p1:double>-0.11787983063712565</d6p1:double><d6p1:double>-0.44563136407925091</d6p1:double><d6p1:double>0.19715557038571663</d6p1:double><d6p1:double>0.53526313523411861</d6p1:double><d6p1:double>1.1609113120691339</d6p1:double><d6p1:double>0.56383723671342512</d6p1:double><d6p1:double>0.5587628185599075</d6p1:double><d6p1:double>0.85222602454625485</d6p1:double><d6p1:double>0.60668179044711557</d6p1:double><d6p1:double>0.17518999916746594</d6p1:double><d6p1:double>0.39069847138409453</d6p1:double><d6p1:double>0.27141100404913315</d6p1:double><d6p1:double>0.29425129422574842</d6p1:double><d6p1:double>0.521468465327456</d6p1:double><d6p1:double>0.66802821133804346</d6p1:double><d6p1:double>-0.028758181269593449</d6p1:double><d6p1:double>0.8824366787326694</d6p1:double><d6p1:double>0.93550791802538369</d6p1:double><d6p1:double>0.8730008586291097</d6p1:double><d6p1:double>0.097274295975013192</d6p1:double><d6p1:double>0.5580253148473403</d6p1:double><d6p1:double>0.00048100338887584486</d6p1:double><d6p1:double>0.50835642733671</d6p1:double></Weights></Neuron><Neuron><Bias>-0.00063838018684529382</Bias><Output>-1</Output><Weights xmlns:d6p1="http://schemas.microsoft.com/2003/10/Serialization/Arrays"><d6p1:double>0.541384412936932</d6p1:double><d6p1:double>-0.2412253571720295</d6p1:double><d6p1:double>0.89495953400053618</d6p1:double><d6p1:double>0.15287207910635955</d6p1:double><d6p1:double>0.90962886784857122</d6p1:double><d6p1:double>0.20029428717189979</d6p1:double><d6p1:double>0.91581374491593592</d6p1:double><d6p1:double>1.3937732409816463</d6p1:double><d6p1:double>0.23030433168939879</d6p1:double><d6p1:double>0.65012171131777807</d6p1:double><d6p1:double>0.82473262666780078</d6p1:double><d6p1:double>0.24984466999002589</d6p1:double><d6p1:double>0.22350320036904109</d6p1:double><d6p1:double>1.108741422259901</d6p1:double><d6p1:double>0.81048891366188436</d6p1:double><d6p1:double>0.64575339862891989</d6p1:double><d6p1:double>0.084420286178706908</d6p1:double><d6p1:double>0.40709686287184665</d6p1:double><d6p1:double>0.37512517582146249</d6p1:double><d6p1:double>-0.28192841207788949</d6p1:double><d6p1:double>-0.2947919521203598</d6p1:double><d6p1:double>0.67315561222561027</d6p1:double><d6p1:double>0.90423609672985306</d6p1:double><d6p1:double>0.66164035529758158</d6p1:double><d6p1:double>0.20932194203857088</d6p1:double></Weights></Neuron><Neuron><Bias>-0.99940813449131194</Bias><Output>-1</Output><Weights xmlns:d6p1="http://schemas.microsoft.com/2003/10/Serialization/Arrays"><d6p1:double>0.59688507791131329</d6p1:double><d6p1:double>0.11982470225284345</d6p1:double><d6p1:double>0.10601117194662574</d6p1:double><d6p1:double>-1.103005039015502</d6p1:double><d6p1:double>0.59246790232980673</d6p1:double><d6p1:double>0.90032266429571106</d6p1:double><d6p1:double>0.77222230673859471</d6p1:double><d6p1:double>-0.52235333831477471</d6p1:double><d6p1:double>0.20138366521751186</d6p1:double><d6p1:double>0.41796223842947572</d6p1:double><d6p1:double>0.45467347711816714</d6p1:double><d6p1:double>1.0616405362967443</d6p1:double><d6p1:double>0.1543613273930752</d6p1:double><d6p1:double>0.80200886631659207</d6p1:double><d6p1:double>1.5864531373684323</d6p1:double><d6p1:double>0.46598567958515152</d6p1:double><d6p1:double>0.72748028649057861</d6p1:double><d6p1:double>-0.18563781277437422</d6p1:double><d6p1:double>1.0437229167341846</d6p1:double><d6p1:double>0.34425653674417916</d6p1:double><d6p1:double>0.99323727569279463</d6p1:double><d6p1:double>0.16514836464781271</d6p1:double><d6p1:double>-0.36871114375071895</d6p1:double><d6p1:double>0.20460258332985898</d6p1:double><d6p1:double>0.34284367494799084</d6p1:double></Weights></Neuron><Neuron><Bias>-1.0011612002321344</Bias><Output>-1</Output><Weights xmlns:d6p1="http://schemas.microsoft.com/2003/10/Serialization/Arrays"><d6p1:double>1.1331219084878703</d6p1:double><d6p1:double>-0.021019196232771497</d6p1:double><d6p1:double>1.0223405886391552</d6p1:double><d6p1:double>0.73884114425391811</d6p1:double><d6p1:double>0.48644567232938313</d6p1:double><d6p1:double>0.32106894120280238</d6p1:double><d6p1:double>0.68910809429820563</d6p1:double><d6p1:double>0.41536583603351113</d6p1:double><d6p1:double>-0.42066549102005263</d6p1:double><d6p1:double>0.94968643760373783</d6p1:double><d6p1:double>0.67234978811171375</d6p1:double><d6p1:double>0.413082223499646</d6p1:double><d6p1:double>-0.12855335569441487</d6p1:double><d6p1:double>0.45771604907073687</d6p1:double><d6p1:double>0.551559617938835</d6p1:double><d6p1:double>0.3764463016891727</d6p1:double><d6p1:double>0.35895530514710239</d6p1:double><d6p1:double>0.22038722355292054</d6p1:double><d6p1:double>0.69218689473109141</d6p1:double><d6p1:double>-0.26405826611075495</d6p1:double><d6p1:double>0.32385496947629439</d6p1:double><d6p1:double>1.1960275287141466</d6p1:double><d6p1:double>-0.12106575586444417</d6p1:double><d6p1:double>0.51774592434157485</d6p1:double><d6p1:double>1.4364641211136662</d6p1:double></Weights></Neuron><Neuron><Bias>-0.99764491328082838</Bias><Output>1</Output><Weights xmlns:d6p1="http://schemas.microsoft.com/2003/10/Serialization/Arrays"><d6p1:double>0.69847765873835321</d6p1:double><d6p1:double>-0.25279798239325235</d6p1:double><d6p1:double>1.2991012505900514</d6p1:double><d6p1:double>-0.83911273490206539</d6p1:double><d6p1:double>-0.64258113225583546</d6p1:double><d6p1:double>1.1733551412659804</d6p1:double><d6p1:double>0.23602909343165976</d6p1:double><d6p1:double>-1.1784663257734216</d6p1:double><d6p1:double>0.21066355308145968</d6p1:double><d6p1:double>0.6409574195284633</d6p1:double><d6p1:double>-0.49872225871632148</d6p1:double><d6p1:double>1.4862435575803539</d6p1:double><d6p1:double>0.27118476671317338</d6p1:double><d6p1:double>-0.91024009288782814</d6p1:double><d6p1:double>0.68773013508986325</d6p1:double><d6p1:double>-0.099405389546437226</d6p1:double><d6p1:double>0.053356631547029076</d6p1:double><d6p1:double>-0.72106021204216963</d6p1:double><d6p1:double>0.7724249789054064</d6p1:double><d6p1:double>0.40114222849301873</d6p1:double><d6p1:double>0.39373497314786593</d6p1:double><d6p1:double>-0.318759545720781</d6p1:double><d6p1:double>-0.0016091289591274884</d6p1:double><d6p1:double>0.66952953232316692</d6p1:double><d6p1:double>0.44271087100423517</d6p1:double></Weights></Neuron><Neuron><Bias>-1.0000655724781009</Bias><Output>-1</Output><Weights xmlns:d6p1="http://schemas.microsoft.com/2003/10/Serialization/Arrays"><d6p1:double>0.57193604234511075</d6p1:double><d6p1:double>0.047666237207491892</d6p1:double><d6p1:double>0.75189526381708838</d6p1:double><d6p1:double>0.64468250469759292</d6p1:double><d6p1:double>0.82747896623754735</d6p1:double><d6p1:double>0.15026594913615421</d6p1:double><d6p1:double>1.3112602547720149</d6p1:double><d6p1:double>0.86557435590588716</d6p1:double><d6p1:double>0.46135076411535547</d6p1:double><d6p1:double>0.20090646312175886</d6p1:double><d6p1:double>0.57879978980012881</d6p1:double><d6p1:double>0.68595390784611365</d6p1:double><d6p1:double>1.160920701690493</d6p1:double><d6p1:double>0.52560501408859939</d6p1:double><d6p1:double>0.43537065564855243</d6p1:double><d6p1:double>0.04051852671660227</d6p1:double><d6p1:double>0.073279599911517834</d6p1:double><d6p1:double>1.0444110339047559</d6p1:double><d6p1:double>0.0635273622730843</d6p1:double><d6p1:double>1.0644253913894084</d6p1:double><d6p1:double>0.64601728108532686</d6p1:double><d6p1:double>0.7252361177747495</d6p1:double><d6p1:double>0.63581735146203011</d6p1:double><d6p1:double>0.35088545115661085</d6p1:double><d6p1:double>0.42868755933567909</d6p1:double></Weights></Neuron><Neuron><Bias>-0.99895965981845725</Bias><Output>1</Output><Weights xmlns:d6p1="http://schemas.microsoft.com/2003/10/Serialization/Arrays"><d6p1:double>0.563207590813963</d6p1:double><d6p1:double>0.12668436807605529</d6p1:double><d6p1:double>0.583778312528737</d6p1:double><d6p1:double>0.34911575193597882</d6p1:double><d6p1:double>0.80449105087075157</d6p1:double><d6p1:double>0.35340862742890544</d6p1:double><d6p1:double>-0.034617077312938296</d6p1:double><d6p1:double>0.33372087419648866</d6p1:double><d6p1:double>0.44116051898606123</d6p1:double><d6p1:double>0.33251467334940277</d6p1:double><d6p1:double>0.73728714422804376</d6p1:double><d6p1:double>0.39967594895423081</d6p1:double><d6p1:double>0.92556440934978967</d6p1:double><d6p1:double>0.92416475806872489</d6p1:double><d6p1:double>0.83905734558025191</d6p1:double><d6p1:double>0.65619550950289063</d6p1:double><d6p1:double>0.85489277367001071</d6p1:double><d6p1:double>-0.051644665940944072</d6p1:double><d6p1:double>0.76812709227043341</d6p1:double><d6p1:double>0.88583572759436557</d6p1:double><d6p1:double>0.25265555185025235</d6p1:double><d6p1:double>-0.19438713106520045</d6p1:double><d6p1:double>0.77997911014684118</d6p1:double><d6p1:double>0.78412785884555924</d6p1:double><d6p1:double>0.77409227232315159</d6p1:double></Weights></Neuron><Neuron><Bias>-0.00040638011021840517</Bias><Output>-1</Output><Weights xmlns:d6p1="http://schemas.microsoft.com/2003/10/Serialization/Arrays"><d6p1:double>1.2937983479527135</d6p1:double><d6p1:double>0.76158219903623148</d6p1:double><d6p1:double>-0.22289590927440328</d6p1:double><d6p1:double>0.851798628908728</d6p1:double><d6p1:double>0.47773790500631969</d6p1:double><d6p1:double>0.83191227305747084</d6p1:double><d6p1:double>-0.30066257728586271</d6p1:double><d6p1:double>0.42967381907564189</d6p1:double><d6p1:double>0.21263972141311194</d6p1:double><d6p1:double>0.59921956812340882</d6p1:double><d6p1:double>0.23301836886483376</d6p1:double><d6p1:double>1.6637314663251284</d6p1:double><d6p1:double>-0.16371149043019115</d6p1:double><d6p1:double>-0.034605502342142977</d6p1:double><d6p1:double>0.31785890512518516</d6p1:double><d6p1:double>0.16634724197527392</d6p1:double><d6p1:double>0.12238429749164048</d6p1:double><d6p1:double>0.030626551721596805</d6p1:double><d6p1:double>0.28059085253481664</d6p1:double><d6p1:double>-0.27389833683419251</d6p1:double><d6p1:double>-0.27953896592413668</d6p1:double><d6p1:double>0.21970435292075829</d6p1:double><d6p1:double>0.1841590428976933</d6p1:double><d6p1:double>-0.047205345846844979</d6p1:double><d6p1:double>1.2279130645148417</d6p1:double></Weights></Neuron><Neuron><Bias>-0.99939520026386486</Bias><Output>1</Output><Weights xmlns:d6p1="http://schemas.microsoft.com/2003/10/Serialization/Arrays"><d6p1:double>-0.28672116626619981</d6p1:double><d6p1:double>0.965529084624846</d6p1:double><d6p1:double>0.52828920375067479</d6p1:double><d6p1:double>0.92291765269397974</d6p1:double><d6p1:double>-0.0021019974926210546</d6p1:double><d6p1:double>0.90638838421799128</d6p1:double><d6p1:double>0.3102257150130332</d6p1:double><d6p1:double>1.2649848504068022</d6p1:double><d6p1:double>0.40196477122162849</d6p1:double><d6p1:double>0.069122921503487408</d6p1:double><d6p1:double>1.3063241810044322</d6p1:double><d6p1:double>0.76591214867872581</d6p1:double><d6p1:double>0.64026295424285873</d6p1:double><d6p1:double>0.80052486765353759</d6p1:double><d6p1:double>-0.248399369254103</d6p1:double><d6p1:double>-0.17627544158671721</d6p1:double><d6p1:double>0.079316113782717218</d6p1:double><d6p1:double>0.90002529813993426</d6p1:double><d6p1:double>0.684963257847579</d6p1:double><d6p1:double>1.0177924873495754</d6p1:double><d6p1:double>0.70132211728715377</d6p1:double><d6p1:double>0.2742385691065099</d6p1:double><d6p1:double>-0.19331417611730459</d6p1:double><d6p1:double>0.55682911048404049</d6p1:double><d6p1:double>1.1557567866790011</d6p1:double></Weights></Neuron><Neuron><Bias>-1.0006413428071923</Bias><Output>-1</Output><Weights xmlns:d6p1="http://schemas.microsoft.com/2003/10/Serialization/Arrays"><d6p1:double>0.97197986885801824</d6p1:double><d6p1:double>0.973456951490122</d6p1:double><d6p1:double>-0.28366094421992305</d6p1:double><d6p1:double>0.98360602233937022</d6p1:double><d6p1:double>0.22311096351172854</d6p1:double><d6p1:double>1.1143509173364161</d6p1:double><d6p1:double>0.53653160768795061</d6p1:double><d6p1:double>-0.13673674796846833</d6p1:double><d6p1:double>0.70778072046834206</d6p1:double><d6p1:double>0.47633313721773729</d6p1:double><d6p1:double>0.79231420260837238</d6p1:double><d6p1:double>0.50687826702207972</d6p1:double><d6p1:double>0.5582556825342595</d6p1:double><d6p1:double>-0.0023024524028688563</d6p1:double><d6p1:double>0.034570939271044307</d6p1:double><d6p1:double>0.22887992319250142</d6p1:double><d6p1:double>0.86952863629498522</d6p1:double><d6p1:double>0.24035347558856254</d6p1:double><d6p1:double>0.29099870351724721</d6p1:double><d6p1:double>0.65056790049674851</d6p1:double><d6p1:double>0.5805400551062917</d6p1:double><d6p1:double>1.1526615134404792</d6p1:double><d6p1:double>0.95103300944081748</d6p1:double><d6p1:double>-0.06912291905522408</d6p1:double><d6p1:double>0.8958824875494551</d6p1:double></Weights></Neuron><Neuron><Bias>-1.0007257701929484</Bias><Output>1</Output><Weights xmlns:d6p1="http://schemas.microsoft.com/2003/10/Serialization/Arrays"><d6p1:double>0.14065378235784087</d6p1:double><d6p1:double>0.93772852733797385</d6p1:double><d6p1:double>1.1814772227841763</d6p1:double><d6p1:double>1.127505643637712</d6p1:double><d6p1:double>0.46114925078760549</d6p1:double><d6p1:double>0.976358517893532</d6p1:double><d6p1:double>-0.20161494461010884</d6p1:double><d6p1:double>0.860106599217708</d6p1:double><d6p1:double>0.31594914548207254</d6p1:double><d6p1:double>0.49176846447019362</d6p1:double><d6p1:double>0.76902851227788527</d6p1:double><d6p1:double>-0.072474039258872053</d6p1:double><d6p1:double>0.50377640030847226</d6p1:double><d6p1:double>0.1506369454387215</d6p1:double><d6p1:double>-0.018961275913595171</d6p1:double><d6p1:double>0.24808922613158454</d6p1:double><d6p1:double>0.25093811994682658</d6p1:double><d6p1:double>0.7661828096523754</d6p1:double><d6p1:double>0.38098083017525763</d6p1:double><d6p1:double>0.98419443568028209</d6p1:double><d6p1:double>-0.16100629237712247</d6p1:double><d6p1:double>0.86646551569565378</d6p1:double><d6p1:double>0.023087810610688674</d6p1:double><d6p1:double>0.41459096427998604</d6p1:double><d6p1:double>0.44433609117911216</d6p1:double></Weights></Neuron><Neuron><Bias>-0.99879423954462376</Bias><Output>1</Output><Weights xmlns:d6p1="http://schemas.microsoft.com/2003/10/Serialization/Arrays"><d6p1:double>0.088807936490956127</d6p1:double><d6p1:double>0.40488440443132617</d6p1:double><d6p1:double>0.52377578600409713</d6p1:double><d6p1:double>0.921813465205942</d6p1:double><d6p1:double>-0.23300922466255777</d6p1:double><d6p1:double>1.1900184218814167</d6p1:double><d6p1:double>0.13966768348923514</d6p1:double><d6p1:double>0.97824654449500581</d6p1:double><d6p1:double>0.49923247366158346</d6p1:double><d6p1:double>0.48923184939175868</d6p1:double><d6p1:double>0.18493750407141343</d6p1:double><d6p1:double>0.74966307728749659</d6p1:double><d6p1:double>0.9894601051722679</d6p1:double><d6p1:double>1.1996806120915957</d6p1:double><d6p1:double>0.6811416178692411</d6p1:double><d6p1:double>0.17525251220840668</d6p1:double><d6p1:double>0.270311008805335</d6p1:double><d6p1:double>0.85252155441042088</d6p1:double><d6p1:double>0.34102357734746758</d6p1:double><d6p1:double>0.83321004476281779</d6p1:double><d6p1:double>0.84898339328885364</d6p1:double><d6p1:double>0.097998148033796945</d6p1:double><d6p1:double>0.23639359788348074</d6p1:double><d6p1:double>0.64110271021088139</d6p1:double><d6p1:double>0.37888740529666087</d6p1:double></Weights></Neuron><Neuron><Bias>0.00062169248571804724</Bias><Output>-1</Output><Weights xmlns:d6p1="http://schemas.microsoft.com/2003/10/Serialization/Arrays"><d6p1:double>-0.19384859230818655</d6p1:double><d6p1:double>0.013919671927712565</d6p1:double><d6p1:double>-0.25417727739071172</d6p1:double><d6p1:double>0.84573022150210508</d6p1:double><d6p1:double>0.68831913699686942</d6p1:double><d6p1:double>0.72754926872059411</d6p1:double><d6p1:double>0.34427706904687561</d6p1:double><d6p1:double>-0.095068945982695718</d6p1:double><d6p1:double>0.69094902540769543</d6p1:double><d6p1:double>0.61056642523237614</d6p1:double><d6p1:double>0.395123596231846</d6p1:double><d6p1:double>0.16096224588512323</d6p1:double><d6p1:double>0.15437814567391958</d6p1:double><d6p1:double>1.1266465938632513</d6p1:double><d6p1:double>0.605401236885485</d6p1:double><d6p1:double>0.11504622739910088</d6p1:double><d6p1:double>0.97314655321749144</d6p1:double><d6p1:double>0.014617900914843383</d6p1:double><d6p1:double>0.45925151371648709</d6p1:double><d6p1:double>0.51292036080697478</d6p1:double><d6p1:double>0.67425017930678477</d6p1:double><d6p1:double>0.48948806351245322</d6p1:double><d6p1:double>0.94558998978115671</d6p1:double><d6p1:double>0.738600299287243</d6p1:double><d6p1:double>-0.36389595999438956</d6p1:double></Weights></Neuron><Neuron><Bias>-1.0014001323442236</Bias><Output>-1</Output><Weights xmlns:d6p1="http://schemas.microsoft.com/2003/10/Serialization/Arrays"><d6p1:double>1.0035822937458685</d6p1:double><d6p1:double>0.550516351727348</d6p1:double><d6p1:double>-0.25568190669354279</d6p1:double><d6p1:double>0.39032805436078177</d6p1:double><d6p1:double>1.4717193915930278</d6p1:double><d6p1:double>-0.2642807197552236</d6p1:double><d6p1:double>0.56687660148198538</d6p1:double><d6p1:double>0.53501914208446866</d6p1:double><d6p1:double>0.97535454054445458</d6p1:double><d6p1:double>0.01917534742695165</d6p1:double><d6p1:double>0.42012268770085048</d6p1:double><d6p1:double>0.13134466750439991</d6p1:double><d6p1:double>0.80859050205780525</d6p1:double><d6p1:double>0.48798690943196282</d6p1:double><d6p1:double>0.68768059892166622</d6p1:double><d6p1:double>0.34421967464361214</d6p1:double><d6p1:double>0.72347159451704313</d6p1:double><d6p1:double>0.561291615750601</d6p1:double><d6p1:double>0.048766365248376638</d6p1:double><d6p1:double>-0.27357291702472364</d6p1:double><d6p1:double>0.52217771175760486</d6p1:double><d6p1:double>1.2908016106541125</d6p1:double><d6p1:double>0.39659292214607267</d6p1:double><d6p1:double>0.23386960195187703</d6p1:double><d6p1:double>0.41590947493863906</d6p1:double></Weights></Neuron><Neuron><Bias>-0.0012091669721725345</Bias><Output>-1</Output><Weights xmlns:d6p1="http://schemas.microsoft.com/2003/10/Serialization/Arrays"><d6p1:double>1.0146197241594286</d6p1:double><d6p1:double>0.54419332728153169</d6p1:double><d6p1:double>0.32485531235087561</d6p1:double><d6p1:double>1.15017659366317</d6p1:double><d6p1:double>0.67157841468929846</d6p1:double><d6p1:double>0.11186058418676856</d6p1:double><d6p1:double>0.99304545816071044</d6p1:double><d6p1:double>0.52757145390481763</d6p1:double><d6p1:double>0.16159381104953152</d6p1:double><d6p1:double>0.79116900867226658</d6p1:double><d6p1:double>0.11841677673214737</d6p1:double><d6p1:double>0.37607727232179466</d6p1:double><d6p1:double>1.0521772702417178</d6p1:double><d6p1:double>-0.1145273333927274</d6p1:double><d6p1:double>-0.062938693137025575</d6p1:double><d6p1:double>0.49646899921741716</d6p1:double><d6p1:double>0.89617893048058184</d6p1:double><d6p1:double>0.703923258100211</d6p1:double><d6p1:double>0.35540051009942542</d6p1:double><d6p1:double>0.26830932814866065</d6p1:double><d6p1:double>0.24369319088926225</d6p1:double><d6p1:double>1.1762839997407395</d6p1:double><d6p1:double>0.72371502155787537</d6p1:double><d6p1:double>-0.2325223393750801</d6p1:double><d6p1:double>0.80196554217467741</d6p1:double></Weights></Neuron><Neuron><Bias>0.0015183855039094891</Bias><Output>1</Output><Weights xmlns:d6p1="http://schemas.microsoft.com/2003/10/Serialization/Arrays"><d6p1:double>0.608276054743098</d6p1:double><d6p1:double>0.3591612810562449</d6p1:double><d6p1:double>0.81956382046331255</d6p1:double><d6p1:double>0.23123620364558092</d6p1:double><d6p1:double>0.65284749508558726</d6p1:double><d6p1:double>0.72772061671896271</d6p1:double><d6p1:double>-0.45759206880876252</d6p1:double><d6p1:double>0.75140243492535785</d6p1:double><d6p1:double>0.21071408688191184</d6p1:double><d6p1:double>0.70449235290878787</d6p1:double><d6p1:double>0.108499768652443</d6p1:double><d6p1:double>1.1891130598366904</d6p1:double><d6p1:double>0.21171793067856881</d6p1:double><d6p1:double>0.85870447800789707</d6p1:double><d6p1:double>1.0864169193043793</d6p1:double><d6p1:double>0.13299189488608554</d6p1:double><d6p1:double>0.29659910413942614</d6p1:double><d6p1:double>0.22311342149333577</d6p1:double><d6p1:double>0.7033876299282521</d6p1:double><d6p1:double>0.82431681030669313</d6p1:double><d6p1:double>0.70974743910652494</d6p1:double><d6p1:double>0.73108054880049578</d6p1:double><d6p1:double>-0.071766492825737535</d6p1:double><d6p1:double>0.55094348477966759</d6p1:double><d6p1:double>-0.14381024075194979</d6p1:double></Weights></Neuron><Neuron><Bias>0.00051250683692476552</Bias><Output>-1</Output><Weights xmlns:d6p1="http://schemas.microsoft.com/2003/10/Serialization/Arrays"><d6p1:double>0.074849558062265273</d6p1:double><d6p1:double>0.040193155729267592</d6p1:double><d6p1:double>0.41285949244596692</d6p1:double><d6p1:double>0.12538438144380462</d6p1:double><d6p1:double>0.069357132938445726</d6p1:double><d6p1:double>0.346644828131537</d6p1:double><d6p1:double>0.079040131662620486</d6p1:double><d6p1:double>0.0046657179431237056</d6p1:double><d6p1:double>0.63013440978999546</d6p1:double><d6p1:double>1.3784516655098853</d6p1:double><d6p1:double>-0.32319556528046067</d6p1:double><d6p1:double>0.10975043334308096</d6p1:double><d6p1:double>0.061720771783437288</d6p1:double><d6p1:double>0.45597982267161008</d6p1:double><d6p1:double>-0.36956459193531338</d6p1:double><d6p1:double>-0.34952688365086382</d6p1:double><d6p1:double>0.92333094985111386</d6p1:double><d6p1:double>0.27171003250884995</d6p1:double><d6p1:double>0.48778954643073219</d6p1:double><d6p1:double>1.3219565910238411</d6p1:double><d6p1:double>0.7043872455643253</d6p1:double><d6p1:double>0.67553410774570832</d6p1:double><d6p1:double>-0.11932218983564875</d6p1:double><d6p1:double>0.80808629229641471</d6p1:double><d6p1:double>0.49873421378963306</d6p1:double></Weights></Neuron><Neuron><Bias>-0.99996587552905758</Bias><Output>-1</Output><Weights xmlns:d6p1="http://schemas.microsoft.com/2003/10/Serialization/Arrays"><d6p1:double>1.2512250143276731</d6p1:double><d6p1:double>0.63441817109788</d6p1:double><d6p1:double>0.81330942665401673</d6p1:double><d6p1:double>0.75532362086347871</d6p1:double><d6p1:double>-0.39651159265159808</d6p1:double><d6p1:double>0.37625558539453469</d6p1:double><d6p1:double>0.73412132026126153</d6p1:double><d6p1:double>0.97340510602393848</d6p1:double><d6p1:double>0.60063399632447723</d6p1:double><d6p1:double>0.91432699011299723</d6p1:double><d6p1:double>0.5679759975480636</d6p1:double><d6p1:double>-0.015782261529079435</d6p1:double><d6p1:double>-0.0098308107864754513</d6p1:double><d6p1:double>0.48554832359074923</d6p1:double><d6p1:double>-0.23919062532036608</d6p1:double><d6p1:double>-0.45716020712964545</d6p1:double><d6p1:double>0.01578670271382427</d6p1:double><d6p1:double>-0.20774809597447083</d6p1:double><d6p1:double>-0.683532502993638</d6p1:double><d6p1:double>-0.2795856588269951</d6p1:double><d6p1:double>0.83423892957810064</d6p1:double><d6p1:double>-0.19431371960228166</d6p1:double><d6p1:double>0.13026323434543829</d6p1:double><d6p1:double>1.1597120277299551</d6p1:double><d6p1:double>1.594135329887638</d6p1:double></Weights></Neuron><Neuron><Bias>0.0013862282158470538</Bias><Output>1</Output><Weights xmlns:d6p1="http://schemas.microsoft.com/2003/10/Serialization/Arrays"><d6p1:double>0.45448981072746669</d6p1:double><d6p1:double>-0.18171823966179343</d6p1:double><d6p1:double>0.75571603153802769</d6p1:double><d6p1:double>-0.53851207177344151</d6p1:double><d6p1:double>0.028804571303608216</d6p1:double><d6p1:double>-1.1230545200345656</d6p1:double><d6p1:double>-0.935557976984537</d6p1:double><d6p1:double>-0.4943283990399594</d6p1:double><d6p1:double>-0.027566088003181256</d6p1:double><d6p1:double>0.89321829767399374</d6p1:double><d6p1:double>0.71498293332421226</d6p1:double><d6p1:double>0.29701421472357</d6p1:double><d6p1:double>-0.34326262421877979</d6p1:double><d6p1:double>0.88091937910785023</d6p1:double><d6p1:double>0.62553995124860529</d6p1:double><d6p1:double>0.013526473852472274</d6p1:double><d6p1:double>0.55362888339575844</d6p1:double><d6p1:double>-0.40775680694416877</d6p1:double><d6p1:double>1.1292793491555873</d6p1:double><d6p1:double>1.8139792615129822</d6p1:double><d6p1:double>0.18577110868345187</d6p1:double><d6p1:double>1.2027171755372348</d6p1:double><d6p1:double>-0.27304868125054538</d6p1:double><d6p1:double>0.1392960521929511</d6p1:double><d6p1:double>0.74453141394148559</d6p1:double></Weights></Neuron><Neuron><Bias>-0.00026320455224335706</Bias><Output>-1</Output><Weights xmlns:d6p1="http://schemas.microsoft.com/2003/10/Serialization/Arrays"><d6p1:double>1.0168399561151737</d6p1:double><d6p1:double>-0.14292169142554678</d6p1:double><d6p1:double>0.25592338027018829</d6p1:double><d6p1:double>0.26521195546822929</d6p1:double><d6p1:double>-0.32175337802158094</d6p1:double><d6p1:double>1.2065551686049978</d6p1:double><d6p1:double>1.1653171819268473</d6p1:double><d6p1:double>0.33326266311785657</d6p1:double><d6p1:double>0.81710255117221786</d6p1:double><d6p1:double>-0.36110096294737787</d6p1:double><d6p1:double>-0.27950674326059904</d6p1:double><d6p1:double>0.17913530001237291</d6p1:double><d6p1:double>1.1544941891079212</d6p1:double><d6p1:double>0.60023782755628952</d6p1:double><d6p1:double>0.75575508130409075</d6p1:double><d6p1:double>0.33114743265585861</d6p1:double><d6p1:double>0.084779226169422031</d6p1:double><d6p1:double>-0.48929941847607916</d6p1:double><d6p1:double>-0.55378116149923251</d6p1:double><d6p1:double>-0.76338733458718333</d6p1:double><d6p1:double>0.88887978375216148</d6p1:double><d6p1:double>-0.20765179574956533</d6p1:double><d6p1:double>0.98886767671829812</d6p1:double><d6p1:double>0.60255857711066674</d6p1:double><d6p1:double>-0.059255188950240054</d6p1:double></Weights></Neuron><Neuron><Bias>-1.0008084695915764</Bias><Output>-1</Output><Weights xmlns:d6p1="http://schemas.microsoft.com/2003/10/Serialization/Arrays"><d6p1:double>1.014224842131259</d6p1:double><d6p1:double>-0.043185765934303268</d6p1:double><d6p1:double>0.67530632749678376</d6p1:double><d6p1:double>0.6430288235949948</d6p1:double><d6p1:double>0.29514968464488661</d6p1:double><d6p1:double>0.78416015765233171</d6p1:double><d6p1:double>0.497580136219761</d6p1:double><d6p1:double>-0.081452933342637729</d6p1:double><d6p1:double>0.21803289810359355</d6p1:double><d6p1:double>0.85644391717073165</d6p1:double><d6p1:double>0.56801492504160767</d6p1:double><d6p1:double>0.24885128450542721</d6p1:double><d6p1:double>0.34618162298698141</d6p1:double><d6p1:double>0.21350701101084735</d6p1:double><d6p1:double>0.75269742958072927</d6p1:double><d6p1:double>0.46996293265841227</d6p1:double><d6p1:double>0.38230286865777696</d6p1:double><d6p1:double>0.53700599269943228</d6p1:double><d6p1:double>0.52162455144317033</d6p1:double><d6p1:double>0.1820255749158497</d6p1:double><d6p1:double>-0.091063147882442713</d6p1:double><d6p1:double>1.2767785624093946</d6p1:double><d6p1:double>1.2557770568767388</d6p1:double><d6p1:double>0.52690404720369333</d6p1:double><d6p1:double>0.71568617196488171</d6p1:double></Weights></Neuron><Neuron><Bias>0.00093513471298675363</Bias><Output>-1</Output><Weights xmlns:d6p1="http://schemas.microsoft.com/2003/10/Serialization/Arrays"><d6p1:double>-0.05168207187826581</d6p1:double><d6p1:double>0.7032051049979553</d6p1:double><d6p1:double>-0.021580401875894644</d6p1:double><d6p1:double>0.66356499696929516</d6p1:double><d6p1:double>1.362357318058373</d6p1:double><d6p1:double>-0.27221731336977695</d6p1:double><d6p1:double>-0.54973192377164692</d6p1:double><d6p1:double>0.79632595745445567</d6p1:double><d6p1:double>0.81670087509732492</d6p1:double><d6p1:double>-0.054793044937544104</d6p1:double><d6p1:double>0.81939374146271848</d6p1:double><d6p1:double>0.91906565479015567</d6p1:double><d6p1:double>0.16737870265088781</d6p1:double><d6p1:double>1.3586591913950949</d6p1:double><d6p1:double>-0.58023417535651212</d6p1:double><d6p1:double>0.16636497518415783</d6p1:double><d6p1:double>-0.52393786891967142</d6p1:double><d6p1:double>0.43107777903962829</d6p1:double><d6p1:double>0.29282854966087707</d6p1:double><d6p1:double>1.6063675423456445</d6p1:double><d6p1:double>0.50285683806519565</d6p1:double><d6p1:double>0.050064312588334846</d6p1:double><d6p1:double>0.030466857812264547</d6p1:double><d6p1:double>-0.24183077805115979</d6p1:double><d6p1:double>0.3903605376802991</d6p1:double></Weights></Neuron><Neuron><Bias>-5.7962598919041757E-06</Bias><Output>1</Output><Weights xmlns:d6p1="http://schemas.microsoft.com/2003/10/Serialization/Arrays"><d6p1:double>-0.11492782230404826</d6p1:double><d6p1:double>0.54729956204536956</d6p1:double><d6p1:double>-0.053760817459508718</d6p1:double><d6p1:double>0.50968561978394156</d6p1:double><d6p1:double>-0.2595568251134166</d6p1:double><d6p1:double>0.082962628974244779</d6p1:double><d6p1:double>1.0002345695485491</d6p1:double><d6p1:double>1.0851769302631264</d6p1:double><d6p1:double>0.15447403260114831</d6p1:double><d6p1:double>0.16556464188537098</d6p1:double><d6p1:double>0.14177335732319</d6p1:double><d6p1:double>0.86398000985832635</d6p1:double><d6p1:double>0.22148288379990325</d6p1:double><d6p1:double>0.61675330944250817</d6p1:double><d6p1:double>1.2162040738580071</d6p1:double><d6p1:double>0.309551440140469</d6p1:double><d6p1:double>0.45654079916727652</d6p1:double><d6p1:double>0.24177195033661894</d6p1:double><d6p1:double>0.43895940476298112</d6p1:double><d6p1:double>1.066401802740774</d6p1:double><d6p1:double>0.39023911617551144</d6p1:double><d6p1:double>0.58549589072987729</d6p1:double><d6p1:double>0.43045648606050824</d6p1:double><d6p1:double>0.85640002167275242</d6p1:double><d6p1:double>0.83857903414231194</d6p1:double></Weights></Neuron><Neuron><Bias>-0.99994724095244214</Bias><Output>-1</Output><Weights xmlns:d6p1="http://schemas.microsoft.com/2003/10/Serialization/Arrays"><d6p1:double>0.4063184584772993</d6p1:double><d6p1:double>0.70966865955765712</d6p1:double><d6p1:double>0.36291509233603331</d6p1:double><d6p1:double>0.99626309943686631</d6p1:double><d6p1:double>0.57080919807085018</d6p1:double><d6p1:double>0.78157973398835734</d6p1:double><d6p1:double>0.15534240043405309</d6p1:double><d6p1:double>-0.13557851530156656</d6p1:double><d6p1:double>0.89507166261037652</d6p1:double><d6p1:double>0.79435614782090547</d6p1:double><d6p1:double>0.43302685533420948</d6p1:double><d6p1:double>0.30831614024678672</d6p1:double><d6p1:double>0.72434463677845007</d6p1:double><d6p1:double>0.53713735417362929</d6p1:double><d6p1:double>0.748659323681418</d6p1:double><d6p1:double>0.17367322693780615</d6p1:double><d6p1:double>0.43631441337242166</d6p1:double><d6p1:double>0.49870420496401907</d6p1:double><d6p1:double>0.56972464568731573</d6p1:double><d6p1:double>0.59083788688378269</d6p1:double><d6p1:double>1.1304015027966101</d6p1:double><d6p1:double>0.5365559466840556</d6p1:double><d6p1:double>0.99316468196760721</d6p1:double><d6p1:double>0.51798568018626678</d6p1:double><d6p1:double>1.0983821218967076</d6p1:double></Weights></Neuron><Neuron><Bias>-0.00015992791366535952</Bias><Output>1</Output><Weights xmlns:d6p1="http://schemas.microsoft.com/2003/10/Serialization/Arrays"><d6p1:double>-0.97050434805775354</d6p1:double><d6p1:double>0.4892781430117385</d6p1:double><d6p1:double>0.73499437857614569</d6p1:double><d6p1:double>1.2350443689622905</d6p1:double><d6p1:double>0.025837693134865197</d6p1:double><d6p1:double>-0.14873415021640626</d6p1:double><d6p1:double>0.851660055379488</d6p1:double><d6p1:double>0.170584735448694</d6p1:double><d6p1:double>0.64611793873528067</d6p1:double><d6p1:double>0.1746702597388633</d6p1:double><d6p1:double>-0.0059604321164174181</d6p1:double><d6p1:double>-0.026390657402627429</d6p1:double><d6p1:double>0.3202396657867968</d6p1:double><d6p1:double>-0.1421187281673198</d6p1:double><d6p1:double>1.0034798879007072</d6p1:double><d6p1:double>-0.15118885171389604</d6p1:double><d6p1:double>0.47025820883614866</d6p1:double><d6p1:double>0.27436535889764391</d6p1:double><d6p1:double>0.36426341517418637</d6p1:double><d6p1:double>0.78793158776108341</d6p1:double><d6p1:double>-0.11882394378892019</d6p1:double><d6p1:double>0.08399313140545242</d6p1:double><d6p1:double>-0.32635596353820584</d6p1:double><d6p1:double>0.35897389498155735</d6p1:double><d6p1:double>-0.43958911212251311</d6p1:double></Weights></Neuron><Neuron><Bias>-4.9346835957660467E-05</Bias><Output>-1</Output><Weights xmlns:d6p1="http://schemas.microsoft.com/2003/10/Serialization/Arrays"><d6p1:double>0.20008270259850722</d6p1:double><d6p1:double>0.59137997919557117</d6p1:double><d6p1:double>0.034579287755974054</d6p1:double><d6p1:double>0.78300099272591528</d6p1:double><d6p1:double>1.5446825132303739</d6p1:double><d6p1:double>-0.22452742037411713</d6p1:double><d6p1:double>1.3744026868745105</d6p1:double><d6p1:double>-0.35131165207823845</d6p1:double><d6p1:double>0.672936156066286</d6p1:double><d6p1:double>-0.241425813241707</d6p1:double><d6p1:double>-0.86242069784882869</d6p1:double><d6p1:double>-0.084021564067157814</d6p1:double><d6p1:double>0.53499259407669175</d6p1:double><d6p1:double>0.39058858489943449</d6p1:double><d6p1:double>-0.26854287892258288</d6p1:double><d6p1:double>0.69671492994318307</d6p1:double><d6p1:double>0.27680151022471866</d6p1:double><d6p1:double>0.046802162135975406</d6p1:double><d6p1:double>0.71078857257651273</d6p1:double><d6p1:double>0.43136570457521461</d6p1:double><d6p1:double>0.57428652297104921</d6p1:double><d6p1:double>-0.1179103811428578</d6p1:double><d6p1:double>1.032604106668185</d6p1:double><d6p1:double>0.47474926032520692</d6p1:double><d6p1:double>-0.55479456068435185</d6p1:double></Weights></Neuron><Neuron><Bias>0.00013637916779456874</Bias><Output>1</Output><Weights xmlns:d6p1="http://schemas.microsoft.com/2003/10/Serialization/Arrays"><d6p1:double>0.459282449140326</d6p1:double><d6p1:double>0.43820879721440742</d6p1:double><d6p1:double>0.64825380502635621</d6p1:double><d6p1:double>-0.096973600796532736</d6p1:double><d6p1:double>0.2099766350960125</d6p1:double><d6p1:double>0.14711190974156541</d6p1:double><d6p1:double>0.51430900688058034</d6p1:double><d6p1:double>0.30585436288117424</d6p1:double><d6p1:double>0.98179285177345077</d6p1:double><d6p1:double>0.26059111864359508</d6p1:double><d6p1:double>1.0147415922833523</d6p1:double><d6p1:double>0.44894174359703209</d6p1:double><d6p1:double>0.78283282877971061</d6p1:double><d6p1:double>0.15821444580879621</d6p1:double><d6p1:double>0.50480459269778133</d6p1:double><d6p1:double>1.0495029642329172</d6p1:double><d6p1:double>0.79850902391859335</d6p1:double><d6p1:double>0.813005881946856</d6p1:double><d6p1:double>0.79293461298492762</d6p1:double><d6p1:double>0.48125163946879435</d6p1:double><d6p1:double>0.56040632876217589</d6p1:double><d6p1:double>0.75136964609656431</d6p1:double><d6p1:double>0.97215399095808741</d6p1:double><d6p1:double>0.69109871042418614</d6p1:double><d6p1:double>0.9109838531655351</d6p1:double></Weights></Neuron><Neuron><Bias>7.8836225387552E-05</Bias><Output>1</Output><Weights xmlns:d6p1="http://schemas.microsoft.com/2003/10/Serialization/Arrays"><d6p1:double>-0.19319469360649741</d6p1:double><d6p1:double>0.629340775571326</d6p1:double><d6p1:double>0.55603676571230864</d6p1:double><d6p1:double>-0.15047696486571729</d6p1:double><d6p1:double>0.69149305440524766</d6p1:double><d6p1:double>0.0050097383007930022</d6p1:double><d6p1:double>0.66013994936989306</d6p1:double><d6p1:double>0.74853827655022431</d6p1:double><d6p1:double>0.31999920969658</d6p1:double><d6p1:double>0.43451733744164311</d6p1:double><d6p1:double>0.51791364691492259</d6p1:double><d6p1:double>0.40356748823459432</d6p1:double><d6p1:double>0.44824679303789472</d6p1:double><d6p1:double>0.40381659895988303</d6p1:double><d6p1:double>0.87741785073705236</d6p1:double><d6p1:double>0.17567684685206847</d6p1:double><d6p1:double>1.5764086423272032</d6p1:double><d6p1:double>0.43703172060977874</d6p1:double><d6p1:double>0.8088095579540322</d6p1:double><d6p1:double>0.9584174795297864</d6p1:double><d6p1:double>0.631999266874528</d6p1:double><d6p1:double>0.079819144620138352</d6p1:double><d6p1:double>0.80337610831363915</d6p1:double><d6p1:double>0.46767627795995426</d6p1:double><d6p1:double>0.23730958831216084</d6p1:double></Weights></Neuron><Neuron><Bias>-1.0001368738361596</Bias><Output>-0.99991184917103793</Output><Weights xmlns:d6p1="http://schemas.microsoft.com/2003/10/Serialization/Arrays"><d6p1:double>0.37523768146811443</d6p1:double><d6p1:double>0.68869453178995821</d6p1:double><d6p1:double>0.84880039693713583</d6p1:double><d6p1:double>1.1879869038606961</d6p1:double><d6p1:double>0.2982721423932142</d6p1:double><d6p1:double>1.1960304146895302</d6p1:double><d6p1:double>0.043886506327186291</d6p1:double><d6p1:double>0.39673292132027921</d6p1:double><d6p1:double>1.1115066819509303</d6p1:double><d6p1:double>0.9244723630296211</d6p1:double><d6p1:double>0.2404178496398317</d6p1:double><d6p1:double>0.93087419719104347</d6p1:double><d6p1:double>0.7323406601197886</d6p1:double><d6p1:double>0.21408061328421613</d6p1:double><d6p1:double>0.26254306342228584</d6p1:double><d6p1:double>0.0734324575882878</d6p1:double><d6p1:double>0.56914414941864488</d6p1:double><d6p1:double>0.79230264801753758</d6p1:double><d6p1:double>0.096583575342289882</d6p1:double><d6p1:double>0.51000566923885127</d6p1:double><d6p1:double>-0.0323982179608978</d6p1:double><d6p1:double>0.37640389034473731</d6p1:double><d6p1:double>0.57778805889166152</d6p1:double><d6p1:double>0.614547052670223</d6p1:double><d6p1:double>0.52539497641341859</d6p1:double></Weights></Neuron><Neuron><Bias>-1.0002909909161051</Bias><Output>-1</Output><Weights xmlns:d6p1="http://schemas.microsoft.com/2003/10/Serialization/Arrays"><d6p1:double>-0.49573600803875278</d6p1:double><d6p1:double>-0.43302284823238618</d6p1:double><d6p1:double>-0.41927244318841744</d6p1:double><d6p1:double>-0.11375662378510633</d6p1:double><d6p1:double>0.88234982235692294</d6p1:double><d6p1:double>0.31099964378281969</d6p1:double><d6p1:double>0.63653333971320192</d6p1:double><d6p1:double>0.33337992455759</d6p1:double><d6p1:double>1.1002593393200584</d6p1:double><d6p1:double>1.0790855459097815</d6p1:double><d6p1:double>0.27522088002658679</d6p1:double><d6p1:double>0.56380542056823746</d6p1:double><d6p1:double>-0.29956785587315837</d6p1:double><d6p1:double>0.91907490854456719</d6p1:double><d6p1:double>0.17564816024523341</d6p1:double><d6p1:double>1.1984202701604179</d6p1:double><d6p1:double>0.31182620881463119</d6p1:double><d6p1:double>1.0204567701841794</d6p1:double><d6p1:double>1.0121154251776749</d6p1:double><d6p1:double>0.0473381939303953</d6p1:double><d6p1:double>0.76269101711869347</d6p1:double><d6p1:double>1.1092221383833338</d6p1:double><d6p1:double>0.3572921526803689</d6p1:double><d6p1:double>0.14782948632720563</d6p1:double><d6p1:double>0.23407536088044628</d6p1:double></Weights></Neuron><Neuron><Bias>-0.00037287652029251151</Bias><Output>-1</Output><Weights xmlns:d6p1="http://schemas.microsoft.com/2003/10/Serialization/Arrays"><d6p1:double>0.1127833965555697</d6p1:double><d6p1:double>-0.14714617629895815</d6p1:double><d6p1:double>0.31411149721916642</d6p1:double><d6p1:double>0.89343775166262385</d6p1:double><d6p1:double>0.80208850473267779</d6p1:double><d6p1:double>-0.125715560728081</d6p1:double><d6p1:double>0.29458734391551217</d6p1:double><d6p1:double>-0.21691325449148752</d6p1:double><d6p1:double>0.65501253349718824</d6p1:double><d6p1:double>0.10551957760127947</d6p1:double><d6p1:double>0.54464670112084068</d6p1:double><d6p1:double>0.63352435584860789</d6p1:double><d6p1:double>0.41185730041352692</d6p1:double><d6p1:double>0.5568592585819252</d6p1:double><d6p1:double>0.34855513090300183</d6p1:double><d6p1:double>0.9798633809321361</d6p1:double><d6p1:double>0.73703511071660055</d6p1:double><d6p1:double>0.75261535180120276</d6p1:double><d6p1:double>0.966942193971575</d6p1:double><d6p1:double>0.39526225319851943</d6p1:double><d6p1:double>0.98029250505292209</d6p1:double><d6p1:double>0.30692706032444927</d6p1:double><d6p1:double>0.44642986001334839</d6p1:double><d6p1:double>0.29977751339771441</d6p1:double><d6p1:double>0.93644860329727619</d6p1:double></Weights></Neuron><Neuron><Bias>-0.99900391294279811</Bias><Output>1</Output><Weights xmlns:d6p1="http://schemas.microsoft.com/2003/10/Serialization/Arrays"><d6p1:double>0.13670724762885589</d6p1:double><d6p1:double>0.90645709999529633</d6p1:double><d6p1:double>1.3483378777113657</d6p1:double><d6p1:double>-0.31333985345006682</d6p1:double><d6p1:double>-0.010180982654991426</d6p1:double><d6p1:double>0.091326784333851455</d6p1:double><d6p1:double>0.74114711799774935</d6p1:double><d6p1:double>1.2540732316206342</d6p1:double><d6p1:double>-0.14178556937650766</d6p1:double><d6p1:double>0.14400098049621288</d6p1:double><d6p1:double>-0.1558692776610841</d6p1:double><d6p1:double>-0.5351250502441478</d6p1:double><d6p1:double>1.1038335291083878</d6p1:double><d6p1:double>1.2047099013676463</d6p1:double><d6p1:double>0.35416394141528534</d6p1:double><d6p1:double>0.6981838178310168</d6p1:double><d6p1:double>0.039070070137109211</d6p1:double><d6p1:double>0.38094753426328049</d6p1:double><d6p1:double>0.42966272477057832</d6p1:double><d6p1:double>0.8076949818574195</d6p1:double><d6p1:double>0.051757747953735167</d6p1:double><d6p1:double>0.72939534629593372</d6p1:double><d6p1:double>0.08266178051847356</d6p1:double><d6p1:double>0.48857729487770213</d6p1:double><d6p1:double>-0.13868447706561562</d6p1:double></Weights></Neuron><Neuron><Bias>0.00034073246615960631</Bias><Output>1</Output><Weights xmlns:d6p1="http://schemas.microsoft.com/2003/10/Serialization/Arrays"><d6p1:double>0.58927391281442454</d6p1:double><d6p1:double>-0.093014825902327167</d6p1:double><d6p1:double>0.47028237360979236</d6p1:double><d6p1:double>1.117749462889406</d6p1:double><d6p1:double>0.79257765696767857</d6p1:double><d6p1:double>1.2016146828241998</d6p1:double><d6p1:double>0.92720583149883407</d6p1:double><d6p1:double>0.57886841479993745</d6p1:double><d6p1:double>0.99234517551467971</d6p1:double><d6p1:double>0.61921763678676645</d6p1:double><d6p1:double>0.068433839681921335</d6p1:double><d6p1:double>0.67569975651800007</d6p1:double><d6p1:double>0.9701756452598318</d6p1:double><d6p1:double>-0.25572414496187906</d6p1:double><d6p1:double>0.65664413183080306</d6p1:double><d6p1:double>0.90360847702070257</d6p1:double><d6p1:double>0.1384404216681521</d6p1:double><d6p1:double>0.73882908431909544</d6p1:double><d6p1:double>0.534010401325492</d6p1:double><d6p1:double>0.403846123724334</d6p1:double><d6p1:double>-0.39265136578216941</d6p1:double><d6p1:double>0.86835803983545856</d6p1:double><d6p1:double>0.69366011586344145</d6p1:double><d6p1:double>1.1936769468411654</d6p1:double><d6p1:double>-0.17542713953657876</d6p1:double></Weights></Neuron><Neuron><Bias>-1.0008135491519445</Bias><Output>-1</Output><Weights xmlns:d6p1="http://schemas.microsoft.com/2003/10/Serialization/Arrays"><d6p1:double>1.4542074729808545</d6p1:double><d6p1:double>-0.67018483788500616</d6p1:double><d6p1:double>0.45001158881294545</d6p1:double><d6p1:double>-0.00931019700130012</d6p1:double><d6p1:double>0.17846727886206692</d6p1:double><d6p1:double>0.98902464811433277</d6p1:double><d6p1:double>0.77831521271973159</d6p1:double><d6p1:double>0.70783434113246824</d6p1:double><d6p1:double>0.7704764197863303</d6p1:double><d6p1:double>0.99302104724220119</d6p1:double><d6p1:double>0.32871762184427139</d6p1:double><d6p1:double>0.62967673712849115</d6p1:double><d6p1:double>0.43353086396680485</d6p1:double><d6p1:double>0.089918166003002523</d6p1:double><d6p1:double>0.40640074484958244</d6p1:double><d6p1:double>0.43691933507840475</d6p1:double><d6p1:double>-0.24207540209494866</d6p1:double><d6p1:double>1.2027315971313961</d6p1:double><d6p1:double>0.13449814390038584</d6p1:double><d6p1:double>-0.26073536826620169</d6p1:double><d6p1:double>-0.33512173705049669</d6p1:double><d6p1:double>0.43928639402638853</d6p1:double><d6p1:double>0.33791365513790111</d6p1:double><d6p1:double>0.1525737201069734</d6p1:double><d6p1:double>-0.46752590095874352</d6p1:double></Weights></Neuron><Neuron><Bias>-1.0001831529556349</Bias><Output>-1</Output><Weights xmlns:d6p1="http://schemas.microsoft.com/2003/10/Serialization/Arrays"><d6p1:double>0.70474544034197351</d6p1:double><d6p1:double>0.97312913450588179</d6p1:double><d6p1:double>0.19288652457259917</d6p1:double><d6p1:double>0.75018783652344589</d6p1:double><d6p1:double>-0.18336590660675009</d6p1:double><d6p1:double>0.28061667482022651</d6p1:double><d6p1:double>0.78290821667789334</d6p1:double><d6p1:double>0.075590067856220342</d6p1:double><d6p1:double>0.003808263005230236</d6p1:double><d6p1:double>0.819496567332209</d6p1:double><d6p1:double>0.48882541007047386</d6p1:double><d6p1:double>0.58217593453441</d6p1:double><d6p1:double>0.98968271946000186</d6p1:double><d6p1:double>0.1425042923068571</d6p1:double><d6p1:double>0.706108989158799</d6p1:double><d6p1:double>0.27033611791552065</d6p1:double><d6p1:double>0.39110214571068169</d6p1:double><d6p1:double>0.38507810905129441</d6p1:double><d6p1:double>0.2529578949633432</d6p1:double><d6p1:double>0.94084026984810754</d6p1:double><d6p1:double>0.75572661486036985</d6p1:double><d6p1:double>-0.0046734935861178339</d6p1:double><d6p1:double>0.46472372254804883</d6p1:double><d6p1:double>0.28715714381096841</d6p1:double><d6p1:double>1.0327860283068926</d6p1:double></Weights></Neuron><Neuron><Bias>-0.00060940006004041748</Bias><Output>-1</Output><Weights xmlns:d6p1="http://schemas.microsoft.com/2003/10/Serialization/Arrays"><d6p1:double>0.22959900080990539</d6p1:double><d6p1:double>0.79152535739990648</d6p1:double><d6p1:double>0.24160849995211525</d6p1:double><d6p1:double>0.56465760938750076</d6p1:double><d6p1:double>0.82480535893675233</d6p1:double><d6p1:double>-0.47226076082447904</d6p1:double><d6p1:double>0.31529527160538595</d6p1:double><d6p1:double>-0.25906089562828238</d6p1:double><d6p1:double>0.23597889343957851</d6p1:double><d6p1:double>-0.40171956028724115</d6p1:double><d6p1:double>-0.12704662764913921</d6p1:double><d6p1:double>1.3462586486361048</d6p1:double><d6p1:double>0.565181775113815</d6p1:double><d6p1:double>-0.013959368838960639</d6p1:double><d6p1:double>0.67152605968020984</d6p1:double><d6p1:double>0.40872202997065477</d6p1:double><d6p1:double>0.18320473659909864</d6p1:double><d6p1:double>-0.27887471073881537</d6p1:double><d6p1:double>0.27716708902145087</d6p1:double><d6p1:double>1.2394580877388113</d6p1:double><d6p1:double>0.72422409031501844</d6p1:double><d6p1:double>-0.02621443107418573</d6p1:double><d6p1:double>0.78338967904331924</d6p1:double><d6p1:double>0.13090977034372339</d6p1:double><d6p1:double>1.404992644060397</d6p1:double></Weights></Neuron><Neuron><Bias>-0.99869303303103651</Bias><Output>-1</Output><Weights xmlns:d6p1="http://schemas.microsoft.com/2003/10/Serialization/Arrays"><d6p1:double>0.75455773914938973</d6p1:double><d6p1:double>0.32168424477764845</d6p1:double><d6p1:double>0.42413264378215876</d6p1:double><d6p1:double>0.1242555950512213</d6p1:double><d6p1:double>0.16065718672750395</d6p1:double><d6p1:double>1.0726322702470485</d6p1:double><d6p1:double>-0.032110566047888214</d6p1:double><d6p1:double>0.76516850936062075</d6p1:double><d6p1:double>0.45672469970921548</d6p1:double><d6p1:double>0.84641289092459082</d6p1:double><d6p1:double>0.55030481266139875</d6p1:double><d6p1:double>0.35398727246507178</d6p1:double><d6p1:double>0.26618919477401132</d6p1:double><d6p1:double>0.89721477312035469</d6p1:double><d6p1:double>-0.075456231976047589</d6p1:double><d6p1:double>0.96637189477391927</d6p1:double><d6p1:double>0.95038516758822666</d6p1:double><d6p1:double>1.1084604102290667</d6p1:double><d6p1:double>-0.096082022902759578</d6p1:double><d6p1:double>0.29364442612781028</d6p1:double><d6p1:double>0.64019588745104117</d6p1:double><d6p1:double>-0.073170039837817669</d6p1:double><d6p1:double>1.0599640502859287</d6p1:double><d6p1:double>0.79121875180741064</d6p1:double><d6p1:double>0.019515016529547635</d6p1:double></Weights></Neuron><Neuron><Bias>-0.0010649345555416309</Bias><Output>-1</Output><Weights xmlns:d6p1="http://schemas.microsoft.com/2003/10/Serialization/Arrays"><d6p1:double>0.64056376355988454</d6p1:double><d6p1:double>0.92762691780920692</d6p1:double><d6p1:double>-0.090717902280230592</d6p1:double><d6p1:double>0.47251966862530792</d6p1:double><d6p1:double>0.55227874140268585</d6p1:double><d6p1:double>0.87353668621854386</d6p1:double><d6p1:double>0.64372194539750693</d6p1:double><d6p1:double>0.88859765192049767</d6p1:double><d6p1:double>0.13488247735656417</d6p1:double><d6p1:double>0.81560694144337154</d6p1:double><d6p1:double>0.67328462361793939</d6p1:double><d6p1:double>0.20076280599463792</d6p1:double><d6p1:double>-0.29466479066328349</d6p1:double><d6p1:double>-0.10464310797821219</d6p1:double><d6p1:double>0.095930615244111409</d6p1:double><d6p1:double>-0.58259904857662947</d6p1:double><d6p1:double>0.51352310056413286</d6p1:double><d6p1:double>0.7717376817681264</d6p1:double><d6p1:double>-0.16200212900176522</d6p1:double><d6p1:double>0.903398062378627</d6p1:double><d6p1:double>-0.23595811575576053</d6p1:double><d6p1:double>1.3917858836290404</d6p1:double><d6p1:double>0.16008528745565695</d6p1:double><d6p1:double>-0.14504013573073221</d6p1:double><d6p1:double>0.6742293434736224</d6p1:double></Weights></Neuron><Neuron><Bias>-0.00074758366310574546</Bias><Output>-1</Output><Weights xmlns:d6p1="http://schemas.microsoft.com/2003/10/Serialization/Arrays"><d6p1:double>1.4938720826007807</d6p1:double><d6p1:double>-0.2795250577692398</d6p1:double><d6p1:double>1.0879833346828427</d6p1:double><d6p1:double>0.58811847753376989</d6p1:double><d6p1:double>0.6692677382054909</d6p1:double><d6p1:double>-0.41513364882881465</d6p1:double><d6p1:double>0.50122715230593506</d6p1:double><d6p1:double>-0.625411077994328</d6p1:double><d6p1:double>0.19802337458101277</d6p1:double><d6p1:double>0.0027136797804637987</d6p1:double><d6p1:double>0.61423409918101013</d6p1:double><d6p1:double>-0.28739300389292666</d6p1:double><d6p1:double>0.40408477802166726</d6p1:double><d6p1:double>0.3627734455169353</d6p1:double><d6p1:double>0.48646628289758131</d6p1:double><d6p1:double>0.53650104476567617</d6p1:double><d6p1:double>-0.11189552379265007</d6p1:double><d6p1:double>0.769584933487713</d6p1:double><d6p1:double>-0.14054216820294932</d6p1:double><d6p1:double>-0.147424864343783</d6p1:double><d6p1:double>0.73314000536996027</d6p1:double><d6p1:double>0.55658651200369735</d6p1:double><d6p1:double>0.81486315007405652</d6p1:double><d6p1:double>0.83696865717446356</d6p1:double><d6p1:double>0.17502971033769457</d6p1:double></Weights></Neuron><Neuron><Bias>-0.99872647962591421</Bias><Output>1</Output><Weights xmlns:d6p1="http://schemas.microsoft.com/2003/10/Serialization/Arrays"><d6p1:double>-0.2501229430274361</d6p1:double><d6p1:double>0.838387104141775</d6p1:double><d6p1:double>0.0249809376057893</d6p1:double><d6p1:double>-0.34646404680442211</d6p1:double><d6p1:double>-0.212613684232416</d6p1:double><d6p1:double>0.59971669870700828</d6p1:double><d6p1:double>0.4879049528547571</d6p1:double><d6p1:double>0.57555381705374331</d6p1:double><d6p1:double>0.30182636332277429</d6p1:double><d6p1:double>0.19821561449156069</d6p1:double><d6p1:double>1.0755718528056557</d6p1:double><d6p1:double>0.50054760112880659</d6p1:double><d6p1:double>0.32556643561254323</d6p1:double><d6p1:double>0.6519141539192137</d6p1:double><d6p1:double>0.68387162178369121</d6p1:double><d6p1:double>0.94289344980560152</d6p1:double><d6p1:double>0.54333110033819287</d6p1:double><d6p1:double>0.52408238647006555</d6p1:double><d6p1:double>0.914297605235926</d6p1:double><d6p1:double>0.43084659431532529</d6p1:double><d6p1:double>0.22898795312877074</d6p1:double><d6p1:double>0.25553116323822223</d6p1:double><d6p1:double>0.97825638368229528</d6p1:double><d6p1:double>0.84350961731082619</d6p1:double><d6p1:double>0.0948228490370643</d6p1:double></Weights></Neuron><Neuron><Bias>-1.0017678580188998</Bias><Output>-1</Output><Weights 