<?xml version="1.0" encoding="utf-16"?><NeuralNetwork xmlns:i="http://www.w3.org/2001/XMLSchema-instance" xmlns="http://schemas.datacontract.org/2004/07/AE.MachineLearning.NeuralNet.Core"><_networkLayers><NetworkLayer><_isInputLayer>true</_isInputLayer><_neurons><Neuron><Bias>0</Bias><Output>-1003.888796</Output><Weights xmlns:d6p1="http://schemas.microsoft.com/2003/10/Serialization/Arrays"><d6p1:double>1</d6p1:double></Weights></Neuron><Neuron><Bias>0</Bias><Output>99.7346757</Output><Weights xmlns:d6p1="http://schemas.microsoft.com/2003/10/Serialization/Arrays"><d6p1:double>1</d6p1:double></Weights></Neuron><Neuron><Bias>0</Bias><Output>656.188731</Output><Weights xmlns:d6p1="http://schemas.microsoft.com/2003/10/Serialization/Arrays"><d6p1:double>1</d6p1:double></Weights></Neuron><Neuron><Bias>0</Bias><Output>-101.2632666</Output><Weights xmlns:d6p1="http://schemas.microsoft.com/2003/10/Serialization/Arrays"><d6p1:double>1</d6p1:double></Weights></Neuron><Neuron><Bias>0</Bias><Output>-712.5407464</Output><Weights xmlns:d6p1="http://schemas.microsoft.com/2003/10/Serialization/Arrays"><d6p1:double>1</d6p1:double></Weights></Neuron><Neuron><Bias>0</Bias><Output>-218.8568689</Output><Weights xmlns:d6p1="http://schemas.microsoft.com/2003/10/Serialization/Arrays"><d6p1:double>1</d6p1:double></Weights></Neuron><Neuron><Bias>0</Bias><Output>-543.6679743</Output><Weights xmlns:d6p1="http://schemas.microsoft.com/2003/10/Serialization/Arrays"><d6p1:double>1</d6p1:double></Weights></Neuron><Neuron><Bias>0</Bias><Output>256.0470238</Output><Weights xmlns:d6p1="http://schemas.microsoft.com/2003/10/Serialization/Arrays"><d6p1:double>1</d6p1:double></Weights></Neuron><Neuron><Bias>0</Bias><Output>-375.9740615</Output><Weights xmlns:d6p1="http://schemas.microsoft.com/2003/10/Serialization/Arrays"><d6p1:double>1</d6p1:double></Weights></Neuron><Neuron><Bias>0</Bias><Output>139.6749711</Output><Weights xmlns:d6p1="http://schemas.microsoft.com/2003/10/Serialization/Arrays"><d6p1:double>1</d6p1:double></Weights></Neuron><Neuron><Bias>0</Bias><Output>112.0551432</Output><Weights xmlns:d6p1="http://schemas.microsoft.com/2003/10/Serialization/Arrays"><d6p1:double>1</d6p1:double></Weights></Neuron><Neuron><Bias>0</Bias><Output>55.11060021</Output><Weights xmlns:d6p1="http://schemas.microsoft.com/2003/10/Serialization/Arrays"><d6p1:double>1</d6p1:double></Weights></Neuron><Neuron><Bias>0</Bias><Output>583.974903</Output><Weights xmlns:d6p1="http://schemas.microsoft.com/2003/10/Serialization/Arrays"><d6p1:double>1</d6p1:double></Weights></Neuron><Neuron><Bias>0</Bias><Output>-129.8331591</Output><Weights xmlns:d6p1="http://schemas.microsoft.com/2003/10/Serialization/Arrays"><d6p1:double>1</d6p1:double></Weights></Neuron><Neuron><Bias>0</Bias><Output>384.374502</Output><Weights xmlns:d6p1="http://schemas.microsoft.com/2003/10/Serialization/Arrays"><d6p1:double>1</d6p1:double></Weights></Neuron><Neuron><Bias>0</Bias><Output>707.6621492</Output><Weights xmlns:d6p1="http://schemas.microsoft.com/2003/10/Serialization/Arrays"><d6p1:double>1</d6p1:double></Weights></Neuron><Neuron><Bias>0</Bias><Output>-206.0695753</Output><Weights xmlns:d6p1="http://schemas.microsoft.com/2003/10/Serialization/Arrays"><d6p1:double>1</d6p1:double></Weights></Neuron><Neuron><Bias>0</Bias><Output>27.86720355</Output><Weights xmlns:d6p1="http://schemas.microsoft.com/2003/10/Serialization/Arrays"><d6p1:double>1</d6p1:double></Weights></Neuron><Neuron><Bias>0</Bias><Output>452.5315824</Output><Weights xmlns:d6p1="http://schemas.microsoft.com/2003/10/Serialization/Arrays"><d6p1:double>1</d6p1:double></Weights></Neuron><Neuron><Bias>0</Bias><Output>108.9841613</Output><Weights xmlns:d6p1="http://schemas.microsoft.com/2003/10/Serialization/Arrays"><d6p1:double>1</d6p1:double></Weights></Neuron><Neuron><Bias>0</Bias><Output>-327.436527</Output><Weights xmlns:d6p1="http://schemas.microsoft.com/2003/10/Serialization/Arrays"><d6p1:double>1</d6p1:double></Weights></Neuron><Neuron><Bias>0</Bias><Output>-386.1563253</Output><Weights xmlns:d6p1="http://schemas.microsoft.com/2003/10/Serialization/Arrays"><d6p1:double>1</d6p1:double></Weights></Neuron><Neuron><Bias>0</Bias><Output>-558.0306571</Output><Weights xmlns:d6p1="http://schemas.microsoft.com/2003/10/Serialization/Arrays"><d6p1:double>1</d6p1:double></Weights></Neuron><Neuron><Bias>0</Bias><Output>790.9654693</Output><Weights xmlns:d6p1="http://schemas.microsoft.com/2003/10/Serialization/Arrays"><d6p1:double>1</d6p1:double></Weights></Neuron><Neuron><Bias>0</Bias><Output>-211.894788</Output><Weights xmlns:d6p1="http://schemas.microsoft.com/2003/10/Serialization/Arrays"><d6p1:double>1</d6p1:double></Weights></Neuron></_neurons><_numOfNeurons>25</_numOfNeurons><_numberOfInputsPerNeuron>1</_numberOfInputsPerNeuron></NetworkLayer><NetworkLayer><_isInputLayer>false</_isInputLayer><_neurons><Neuron><Bias>-1.0012686672648075</Bias><Output>-1</Output><Weights xmlns:d6p1="http://schemas.microsoft.com/2003/10/Serialization/Arrays"><d6p1:double>1.212082901912573</d6p1:double><d6p1:double>0.62968225072393191</d6p1:double><d6p1:double>0.46127427410786132</d6p1:double><d6p1:double>0.43935952298549519</d6p1:double><d6p1:double>0.70609087134661153</d6p1:double><d6p1:double>0.33110295187658512</d6p1:double><d6p1:double>0.91982205975018783</d6p1:double><d6p1:double>0.35423812934169269</d6p1:double><d6p1:double>-0.019418789457292127</d6p1:double><d6p1:double>1.1331871024142768</d6p1:double><d6p1:double>0.34880387046392691</d6p1:double><d6p1:double>-0.072960648831223954</d6p1:double><d6p1:double>1.1885132804162457</d6p1:double><d6p1:double>-0.064972510440856973</d6p1:double><d6p1:double>0.41241223246302322</d6p1:double><d6p1:double>0.087774704161740269</d6p1:double><d6p1:double>0.86036499046761283</d6p1:double><d6p1:double>-0.023710260066510287</d6p1:double><d6p1:double>0.36835047626304268</d6p1:double><d6p1:double>0.68126230074671923</d6p1:double><d6p1:double>0.33901087713780009</d6p1:double><d6p1:double>0.38273462150619003</d6p1:double><d6p1:double>-0.030598860607439236</d6p1:double><d6p1:double>0.12577365077940761</d6p1:double><d6p1:double>0.95347576557310421</d6p1:double></Weights></Neuron><Neuron><Bias>-0.99847314616039906</Bias><Output>1</Output><Weights xmlns:d6p1="http://schemas.microsoft.com/2003/10/Serialization/Arrays"><d6p1:double>0.22558303812127695</d6p1:double><d6p1:double>0.56146557391948237</d6p1:double><d6p1:double>0.32757811887466248</d6p1:double><d6p1:double>0.60239802250839591</d6p1:double><d6p1:double>-0.25349259763888554</d6p1:double><d6p1:double>0.69481131557711762</d6p1:double><d6p1:double>-0.61718938750373087</d6p1:double><d6p1:double>-0.36512642114206367</d6p1:double><d6p1:double>-0.45844770886398389</d6p1:double><d6p1:double>0.25922959356803471</d6p1:double><d6p1:double>-0.25274345787939551</d6p1:double><d6p1:double>1.0336512761855725</d6p1:double><d6p1:double>-0.066450824312067322</d6p1:double><d6p1:double>0.40803406714486351</d6p1:double><d6p1:double>0.20140535870109336</d6p1:double><d6p1:double>0.086440158295156416</d6p1:double><d6p1:double>0.55510477137490433</d6p1:double><d6p1:double>-0.36308609578864187</d6p1:double><d6p1:double>0.6677288739578493</d6p1:double><d6p1:double>0.95515195556448662</d6p1:double><d6p1:double>-0.3172243167832311</d6p1:double><d6p1:double>-0.17102895737059931</d6p1:double><d6p1:double>0.8215309559225612</d6p1:double><d6p1:double>1.4377910023761613</d6p1:double><d6p1:double>1.1487090629896597</d6p1:double></Weights></Neuron><Neuron><Bias>-1.0011253287858546</Bias><Output>-1</Output><Weights xmlns:d6p1="http://schemas.microsoft.com/2003/10/Serialization/Arrays"><d6p1:double>1.2838540255330404</d6p1:double><d6p1:double>0.51158135329192644</d6p1:double><d6p1:double>0.64142906515708686</d6p1:double><d6p1:double>0.26721152789102764</d6p1:double><d6p1:double>-0.081499502794941545</d6p1:double><d6p1:double>0.066567826516761339</d6p1:double><d6p1:double>1.0959427848257342</d6p1:double><d6p1:double>-0.19974612567963881</d6p1:double><d6p1:double>0.50172273325089312</d6p1:double><d6p1:double>0.33051965670411981</d6p1:double><d6p1:double>0.69528234001370848</d6p1:double><d6p1:double>0.51376257906421763</d6p1:double><d6p1:double>0.830195924373866</d6p1:double><d6p1:double>-0.34502045296848838</d6p1:double><d6p1:double>0.8839195744291436</d6p1:double><d6p1:double>0.72261591945908032</d6p1:double><d6p1:double>-0.28372958245909324</d6p1:double><d6p1:double>0.4566866851430309</d6p1:double><d6p1:double>0.1304195464974536</d6p1:double><d6p1:double>-0.73202355751979853</d6p1:double><d6p1:double>0.13519650458836369</d6p1:double><d6p1:double>0.40326594602238214</d6p1:double><d6p1:double>0.60206614122795421</d6p1:double><d6p1:double>0.53460496772503274</d6p1:double><d6p1:double>0.068685366603250822</d6p1:double></Weights></Neuron><Neuron><Bias>-1.0006160484598443</Bias><Output>-1</Output><Weights xmlns:d6p1="http://schemas.microsoft.com/2003/10/Serialization/Arrays"><d6p1:double>0.74436414676287443</d6p1:double><d6p1:double>0.78331473988905875</d6p1:double><d6p1:double>0.033150440557157219</d6p1:double><d6p1:double>0.45722217673173321</d6p1:double><d6p1:double>0.81238826253283458</d6p1:double><d6p1:double>0.76452009049222114</d6p1:double><d6p1:double>1.3381156228704245</d6p1:double><d6p1:double>1.0460608345291234</d6p1:double><d6p1:double>0.727544298328669</d6p1:double><d6p1:double>-0.091337212875915036</d6p1:double><d6p1:double>-0.435644660191863</d6p1:double><d6p1:double>0.8047609687063938</d6p1:double><d6p1:double>0.60562019682443657</d6p1:double><d6p1:double>0.70865644155322849</d6p1:double><d6p1:double>0.87440282731439434</d6p1:double><d6p1:double>0.66140897622651151</d6p1:double><d6p1:double>0.9504484940538811</d6p1:double><d6p1:double>-0.51095796005022787</d6p1:double><d6p1:double>0.25414121517314503</d6p1:double><d6p1:double>0.28718876134544047</d6p1:double><d6p1:double>0.42212191488401529</d6p1:double><d6p1:double>0.76582073221214009</d6p1:double><d6p1:double>1.1664756380108574</d6p1:double><d6p1:double>0.18316921196437164</d6p1:double><d6p1:double>0.27727808357079387</d6p1:double></Weights></Neuron><Neuron><Bias>-0.99947707200623714</Bias><Output>1</Output><Weights xmlns:d6p1="http://schemas.microsoft.com/2003/10/Serialization/Arrays"><d6p1:double>-0.52119735540754419</d6p1:double><d6p1:double>0.72409533096854573</d6p1:double><d6p1:double>0.15846135149817916</d6p1:double><d6p1:double>0.75385622285993348</d6p1:double><d6p1:double>0.24184432501654077</d6p1:double><d6p1:double>0.67739882419080544</d6p1:double><d6p1:double>-0.28267981100327183</d6p1:double><d6p1:double>1.1525922613500206</d6p1:double><d6p1:double>0.79655512787430027</d6p1:double><d6p1:double>0.89581028384472372</d6p1:double><d6p1:double>0.85270080248126845</d6p1:double><d6p1:double>0.38792843656790837</d6p1:double><d6p1:double>0.93866381671408994</d6p1:double><d6p1:double>0.30449557832336183</d6p1:double><d6p1:double>1.0476410909355278</d6p1:double><d6p1:double>0.99371327179180391</d6p1:double><d6p1:double>0.56367778095754184</d6p1:double><d6p1:double>1.2168161059357647</d6p1:double><d6p1:double>0.48847190935491047</d6p1:double><d6p1:double>0.053142230721512987</d6p1:double><d6p1:double>0.12115570253467271</d6p1:double><d6p1:double>0.41367930195165881</d6p1:double><d6p1:double>0.18970242476484647</d6p1:double><d6p1:double>0.0532811435254718</d6p1:double><d6p1:double>0.41912771101340357</d6p1:double></Weights></Neuron><Neuron><Bias>-0.99730465103149568</Bias><Output>1</Output><Weights xmlns:d6p1="http://schemas.microsoft.com/2003/10/Serialization/Arrays"><d6p1:double>-0.49808964656852206</d6p1:double><d6p1:double>0.60991883011145986</d6p1:double><d6p1:double>0.44468203083409463</d6p1:double><d6p1:double>0.3802003838301809</d6p1:double><d6p1:double>0.24046732518303307</d6p1:double><d6p1:double>1.2000357402801118</d6p1:double><d6p1:double>-0.4873417586150503</d6p1:double><d6p1:double>0.1836157511544437</d6p1:double><d6p1:double>0.68372918944877781</d6p1:double><d6p1:double>0.8982210802351287</d6p1:double><d6p1:double>0.51831796076567738</d6p1:double><d6p1:double>1.0480076659659623</d6p1:double><d6p1:double>0.60158270836005823</d6p1:double><d6p1:double>0.47745721654881013</d6p1:double><d6p1:double>1.3016973822434923</d6p1:double><d6p1:double>0.43020958410921006</d6p1:double><d6p1:double>0.25135099071069472</d6p1:double><d6p1:double>0.050469302386015241</d6p1:double><d6p1:double>0.099113414876787334</d6p1:double><d6p1:double>0.57732648605973436</d6p1:double><d6p1:double>-0.05165269929842084</d6p1:double><d6p1:double>-0.11303365978926723</d6p1:double><d6p1:double>0.32085548830887961</d6p1:double><d6p1:double>1.120935400066992</d6p1:double><d6p1:double>-0.043210423337248012</d6p1:double></Weights></Neuron><Neuron><Bias>-0.99940258818138106</Bias><Output>1</Output><Weights xmlns:d6p1="http://schemas.microsoft.com/2003/10/Serialization/Arrays"><d6p1:double>-0.090091707298150664</d6p1:double><d6p1:double>0.55332287917654455</d6p1:double><d6p1:double>1.0919570170021256</d6p1:double><d6p1:double>0.18464400756514124</d6p1:double><d6p1:double>0.68709594624092707</d6p1:double><d6p1:double>-0.30943559604135562</d6p1:double><d6p1:double>0.34271762990411719</d6p1:double><d6p1:double>0.64007165707654312</d6p1:double><d6p1:double>0.6836022293667614</d6p1:double><d6p1:double>1.0581550747689237</d6p1:double><d6p1:double>-0.027169056136425687</d6p1:double><d6p1:double>0.281428646407452</d6p1:double><d6p1:double>-0.29706106251079306</d6p1:double><d6p1:double>-0.6355136347034287</d6p1:double><d6p1:double>0.89976289177117985</d6p1:double><d6p1:double>0.46028818849982256</d6p1:double><d6p1:double>-0.077317272654572611</d6p1:double><d6p1:double>1.0133740213549263</d6p1:double><d6p1:double>-0.34527540651759742</d6p1:double><d6p1:double>0.39105098409201189</d6p1:double><d6p1:double>0.38673990835694705</d6p1:double><d6p1:double>-0.26346388154601424</d6p1:double><d6p1:double>-0.25794838190182195</d6p1:double><d6p1:double>1.1369344710413347</d6p1:double><d6p1:double>-0.13662821761960028</d6p1:double></Weights></Neuron><Neuron><Bias>-0.00099704630389313</Bias><Output>-1</Output><Weights xmlns:d6p1="http://schemas.microsoft.com/2003/10/Serialization/Arrays"><d6p1:double>0.71182659946542326</d6p1:double><d6p1:double>0.46889250828352524</d6p1:double><d6p1:double>0.6913644426019826</d6p1:double><d6p1:double>0.3943250695004889</d6p1:double><d6p1:double>0.961744567385186</d6p1:double><d6p1:double>0.58763793361684813</d6p1:double><d6p1:double>0.26134174429354107</d6p1:double><d6p1:double>0.77854506518997568</d6p1:double><d6p1:double>1.3386552689937377</d6p1:double><d6p1:double>0.31798352490072412</d6p1:double><d6p1:double>-0.51237438457954432</d6p1:double><d6p1:double>-1.0016190159451488</d6p1:double><d6p1:double>-0.0055177737785361818</d6p1:double><d6p1:double>0.59626571388282523</d6p1:double><d6p1:double>0.21860211115593636</d6p1:double><d6p1:double>-0.97136173407239967</d6p1:double><d6p1:double>-0.075525007985869974</d6p1:double><d6p1:double>-0.025142801056036723</d6p1:double><d6p1:double>-0.30911816914131413</d6p1:double><d6p1:double>0.40958684826291036</d6p1:double><d6p1:double>-0.2001922140994313</d6p1:double><d6p1:double>0.48876504613857424</d6p1:double><d6p1:double>0.546830420356993</d6p1:double><d6p1:double>0.53352823440513242</d6p1:double><d6p1:double>0.43732131986687028</d6p1:double></Weights></Neuron><Neuron><Bias>0.00010263219968076596</Bias><Output>-1</Output><Weights xmlns:d6p1="http://schemas.microsoft.com/2003/10/Serialization/Arrays"><d6p1:double>0.37993546349764173</d6p1:double><d6p1:double>1.2611918016091308</d6p1:double><d6p1:double>0.8060035805054151</d6p1:double><d6p1:double>-0.408047472007991</d6p1:double><d6p1:double>0.575541720315123</d6p1:double><d6p1:double>0.54545158799671056</d6p1:double><d6p1:double>0.89005874442366273</d6p1:double><d6p1:double>0.45403069420389619</d6p1:double><d6p1:double>0.16104385165586238</d6p1:double><d6p1:double>0.3215179410588771</d6p1:double><d6p1:double>0.20341138612439144</d6p1:double><d6p1:double>0.43278577967945947</d6p1:double><d6p1:double>0.04610950952271662</d6p1:double><d6p1:double>1.0549853733384489</d6p1:double><d6p1:double>0.30139783651927504</d6p1:double><d6p1:double>0.2913474599553057</d6p1:double><d6p1:double>0.46559113443059869</d6p1:double><d6p1:double>-0.13503023599939823</d6p1:double><d6p1:double>0.40580016356232085</d6p1:double><d6p1:double>1.1397003762714268</d6p1:double><d6p1:double>0.40046846699962013</d6p1:double><d6p1:double>0.22062386529812789</d6p1:double><d6p1:double>0.924424907921213</d6p1:double><d6p1:double>0.170304249819946</d6p1:double><d6p1:double>1.2764145041144896</d6p1:double></Weights></Neuron><Neuron><Bias>-1.0004989250653566</Bias><Output>-1</Output><Weights xmlns:d6p1="http://schemas.microsoft.com/2003/10/Serialization/Arrays"><d6p1:double>1.1273747831160523</d6p1:double><d6p1:double>1.0050389366406056</d6p1:double><d6p1:double>0.0065038406266807883</d6p1:double><d6p1:double>0.797820050926486</d6p1:double><d6p1:double>0.77068268093800374</d6p1:double><d6p1:double>0.34878772953105958</d6p1:double><d6p1:double>0.74723517674509177</d6p1:double><d6p1:double>0.55712073917076488</d6p1:double><d6p1:double>0.79222903150447221</d6p1:double><d6p1:double>0.53200555136363825</d6p1:double><d6p1:double>1.232361429104039</d6p1:double><d6p1:double>0.51700762100862174</d6p1:double><d6p1:double>0.020741027022584475</d6p1:double><d6p1:double>0.40477232697826843</d6p1:double><d6p1:double>-0.055254523433244142</d6p1:double><d6p1:double>0.081465035206516365</d6p1:double><d6p1:double>0.18618099666572119</d6p1:double><d6p1:double>0.94100572137629812</d6p1:double><d6p1:double>0.57679033434180849</d6p1:double><d6p1:double>1.2225915420235656</d6p1:double><d6p1:double>0.397268622367774</d6p1:double><d6p1:double>0.17141228239599679</d6p1:double><d6p1:double>-0.27315529259994686</d6p1:double><d6p1:double>0.34707682697440423</d6p1:double><d6p1:double>1.141861304282179</d6p1:double></Weights></Neuron><Neuron><Bias>-0.00080758516875784764</Bias><Output>1</Output><Weights xmlns:d6p1="http://schemas.microsoft.com/2003/10/Serialization/Arrays"><d6p1:double>-1.2157972389384901</d6p1:double><d6p1:double>0.27120149342486904</d6p1:double><d6p1:double>0.17396986675466097</d6p1:double><d6p1:double>0.48639411544413008</d6p1:double><d6p1:double>0.53226105753601427</d6p1:double><d6p1:double>0.51813637211170893</d6p1:double><d6p1:double>-0.0054477062749376266</d6p1:double><d6p1:double>0.76323898849332938</d6p1:double><d6p1:double>0.2381557347096829</d6p1:double><d6p1:double>0.53747147156023944</d6p1:double><d6p1:double>0.22504305179032763</d6p1:double><d6p1:double>0.03830780695969261</d6p1:double><d6p1:double>0.47215703287366911</d6p1:double><d6p1:double>1.3029231808946506</d6p1:double><d6p1:double>-0.26707622244022183</d6p1:double><d6p1:double>0.51057326541723358</d6p1:double><d6p1:double>0.21520787521983631</d6p1:double><d6p1:double>1.1987134979193976</d6p1:double><d6p1:double>0.66982751822040765</d6p1:double><d6p1:double>0.14715573845245586</d6p1:double><d6p1:double>-0.10582973199588423</d6p1:double><d6p1:double>1.3440536398748264</d6p1:double><d6p1:double>0.60468276280638344</d6p1:double><d6p1:double>0.077935126282270326</d6p1:double><d6p1:double>-0.88281675067756937</d6p1:double></Weights></Neuron><Neuron><Bias>-1.0010272640401519</Bias><Output>-1</Output><Weights xmlns:d6p1="http://schemas.microsoft.com/2003/10/Serialization/Arrays"><d6p1:double>0.84058305610369688</d6p1:double><d6p1:double>0.8055413678932416</d6p1:double><d6p1:double>-0.043214892492822655</d6p1:double><d6p1:double>0.94784269989727776</d6p1:double><d6p1:double>0.81022340093331968</d6p1:double><d6p1:double>-0.0049385602411156568</d6p1:double><d6p1:double>-0.544594779229011</d6p1:double><d6p1:double>0.31954606525329943</d6p1:double><d6p1:double>0.60173426136074759</d6p1:double><d6p1:double>0.34785885408565975</d6p1:double><d6p1:double>0.631008594388903</d6p1:double><d6p1:double>1.3149880471502171</d6p1:double><d6p1:double>-0.46917021042027551</d6p1:double><d6p1:double>0.55948629699352082</d6p1:double><d6p1:double>-0.270401196327972</d6p1:double><d6p1:double>0.3970701287742236</d6p1:double><d6p1:double>0.0816852193235992</d6p1:double><d6p1:double>0.11416065231808456</d6p1:double><d6p1:double>-0.41161837917702071</d6p1:double><d6p1:double>-0.69389674824267877</d6p1:double><d6p1:double>-0.33097904242304743</d6p1:double><d6p1:double>1.0259930752570474</d6p1:double><d6p1:double>0.46792545154689247</d6p1:double><d6p1:double>-0.32948300226324539</d6p1:double><d6p1:double>0.17005577440421835</d6p1:double></Weights></Neuron><Neuron><Bias>-1.0003160065958163</Bias><Output>-1</Output><Weights xmlns:d6p1="http://schemas.microsoft.com/2003/10/Serialization/Arrays"><d6p1:double>1.1739410606762328</d6p1:double><d6p1:double>0.041327868848885424</d6p1:double><d6p1:double>0.11957293395195263</d6p1:double><d6p1:double>-0.11968659662951441</d6p1:double><d6p1:double>0.4282348043752825</d6p1:double><d6p1:double>1.0051794978493052</d6p1:double><d6p1:double>0.41085348230084034</d6p1:double><d6p1:double>0.52024937334165233</d6p1:double><d6p1:double>0.10554724151265821</d6p1:double><d6p1:double>0.27530079954080738</d6p1:double><d6p1:double>0.083828733239952963</d6p1:double><d6p1:double>0.74094993081568072</d6p1:double><d6p1:double>-0.51924392974411149</d6p1:double><d6p1:double>-0.23755097059669017</d6p1:double><d6p1:double>-0.13419437922789887</d6p1:double><d6p1:double>0.36482372576381866</d6p1:double><d6p1:double>0.50749845428469209</d6p1:double><d6p1:double>0.591909932640599</d6p1:double><d6p1:double>0.51397785337555324</d6p1:double><d6p1:double>-0.60735736484557878</d6p1:double><d6p1:double>0.84294429105603319</d6p1:double><d6p1:double>0.25329047479700373</d6p1:double><d6p1:double>0.25158977447579589</d6p1:double><d6p1:double>0.92534696793931015</d6p1:double><d6p1:double>0.703279188668824</d6p1:double></Weights></Neuron><Neuron><Bias>-0.999773544561767</Bias><Output>1</Output><Weights xmlns:d6p1="http://schemas.microsoft.com/2003/10/Serialization/Arrays"><d6p1:double>-0.13716753713259847</d6p1:double><d6p1:double>1.084645317360091</d6p1:double><d6p1:double>0.75617629587838386</d6p1:double><d6p1:double>1.2793732929515027</d6p1:double><d6p1:double>0.0529191594343642</d6p1:double><d6p1:double>0.32775222481458377</d6p1:double><d6p1:double>0.13570137650752906</d6p1:double><d6p1:double>0.71862191951974819</d6p1:double><d6p1:double>0.99797293364869333</d6p1:double><d6p1:double>0.85671780610782022</d6p1:double><d6p1:double>0.0075186045751363543</d6p1:double><d6p1:double>0.13291839600405653</d6p1:double><d6p1:double>1.2509227478861356</d6p1:double><d6p1:double>0.6717205796564627</d6p1:double><d6p1:double>1.1190950366304624</d6p1:double><d6p1:double>0.62940711844845321</d6p1:double><d6p1:double>0.48542511598415655</d6p1:double><d6p1:double>-0.0042986862880420584</d6p1:double><d6p1:double>0.78244191090583426</d6p1:double><d6p1:double>0.6503462994114787</d6p1:double><d6p1:double>-0.163853895987848</d6p1:double><d6p1:double>0.62812940076562029</d6p1:double><d6p1:double>0.63222225437033663</d6p1:double><d6p1:double>0.46705651001801662</d6p1:double><d6p1:double>-0.27567253886245952</d6p1:double></Weights></Neuron><Neuron><Bias>-0.99913241593755053</Bias><Output>-1</Output><Weights xmlns:d6p1="http://schemas.microsoft.com/2003/10/Serialization/Arrays"><d6p1:double>0.27663695631902846</d6p1:double><d6p1:double>0.40367200378023294</d6p1:double><d6p1:double>0.20764528704392402</d6p1:double><d6p1:double>-0.33709011843624914</d6p1:double><d6p1:double>0.63853419591079252</d6p1:double><d6p1:double>0.24211309275503912</d6p1:double><d6p1:double>0.30227134474482736</d6p1:double><d6p1:double>-0.13585114232619722</d6p1:double><d6p1:double>1.1116417142447899</d6p1:double><d6p1:double>-0.10404232933225742</d6p1:double><d6p1:double>-0.81968665050336009</d6p1:double><d6p1:double>0.0730806895955177</d6p1:double><d6p1:double>0.858469179508561</d6p1:double><d6p1:double>-0.09026217098027077</d6p1:double><d6p1:double>-0.2322709529377785</d6p1:double><d6p1:double>0.22236443036085618</d6p1:double><d6p1:double>0.63180992435130323</d6p1:double><d6p1:double>0.0864265050719484</d6p1:double><d6p1:double>-0.19655014307820168</d6p1:double><d6p1:double>-0.2479020578940152</d6p1:double><d6p1:double>1.8494790792499645</d6p1:double><d6p1:double>-1.1259983417402697</d6p1:double><d6p1:double>0.48231627199119059</d6p1:double><d6p1:double>-0.33993620953432252</d6p1:double><d6p1:double>0.10414721366036378</d6p1:double></Weights></Neuron><Neuron><Bias>-3.2561117851363409E-05</Bias><Output>-1</Output><Weights xmlns:d6p1="http://schemas.microsoft.com/2003/10/Serialization/Arrays"><d6p1:double>0.23114846410149509</d6p1:double><d6p1:double>1.2107224004758315</d6p1:double><d6p1:double>-0.5108072564314361</d6p1:double><d6p1:double>0.010161172211679526</d6p1:double><d6p1:double>-0.1506613269698559</d6p1:double><d6p1:double>1.028196290749426</d6p1:double><d6p1:double>0.6285318255663358</d6p1:double><d6p1:double>-0.24432354778176821</d6p1:double><d6p1:double>-0.40741171241461538</d6p1:double><d6p1:double>0.36916482107544507</d6p1:double><d6p1:double>1.0048215989787646</d6p1:double><d6p1:double>1.3617224055807382</d6p1:double><d6p1:double>-0.32191111571402919</d6p1:double><d6p1:double>0.64911796254269327</d6p1:double><d6p1:double>1.3954527714018554</d6p1:double><d6p1:double>0.1633458321030678</d6p1:double><d6p1:double>0.66271788917467966</d6p1:double><d6p1:double>0.071312258245714813</d6p1:double><d6p1:double>0.2985945684344446</d6p1:double><d6p1:double>0.12920318867220199</d6p1:double><d6p1:double>0.30827753177899919</d6p1:double><d6p1:double>0.73717633739940791</d6p1:double><d6p1:double>0.06399077094241773</d6p1:double><d6p1:double>0.81434481822676053</d6p1:double><d6p1:double>0.88908565441166765</d6p1:double></Weights></Neuron><Neuron><Bias>-0.0010692933358369993</Bias><Output>-1</Output><Weights xmlns:d6p1="http://schemas.microsoft.com/2003/10/Serialization/Arrays"><d6p1:double>0.38387350969866935</d6p1:double><d6p1:double>1.0244854162835229</d6p1:double><d6p1:double>-0.12535868726297081</d6p1:double><d6p1:double>0.030209969145982441</d6p1:double><d6p1:double>1.3785012968553627</d6p1:double><d6p1:double>0.35777413624921806</d6p1:double><d6p1:double>0.36727293763766861</d6p1:double><d6p1:double>0.63933251590471463</d6p1:double><d6p1:double>0.036747365865390264</d6p1:double><d6p1:double>-0.0023029251617796989</d6p1:double><d6p1:double>-0.32277371916629749</d6p1:double><d6p1:double>0.3547732315264972</d6p1:double><d6p1:double>-0.33152381591385571</d6p1:double><d6p1:double>0.23679292142336947</d6p1:double><d6p1:double>0.6500573163633061</d6p1:double><d6p1:double>0.88775407049904564</d6p1:double><d6p1:double>0.13269294484670879</d6p1:double><d6p1:double>0.49256688426953005</d6p1:double><d6p1:double>0.87891095677434738</d6p1:double><d6p1:double>0.0822990627458065</d6p1:double><d6p1:double>0.088866754488181474</d6p1:double><d6p1:double>0.8378390369691463</d6p1:double><d6p1:double>0.20321038271675154</d6p1:double><d6p1:double>-0.42280009657481143</d6p1:double><d6p1:double>0.55404747158780876</d6p1:double></Weights></Neuron><Neuron><Bias>-0.99930874228381972</Bias><Output>1</Output><Weights xmlns:d6p1="http://schemas.microsoft.com/2003/10/Serialization/Arrays"><d6p1:double>-0.17411073270216748</d6p1:double><d6p1:double>0.20824502601730344</d6p1:double><d6p1:double>0.65631216513809243</d6p1:double><d6p1:double>0.13804500914363826</d6p1:double><d6p1:double>0.60864352158503765</d6p1:double><d6p1:double>0.0026256424071882606</d6p1:double><d6p1:double>0.90490676310749385</d6p1:double><d6p1:double>0.028622981450783583</d6p1:double><d6p1:double>0.73148398122030933</d6p1:double><d6p1:double>0.93602188099578043</d6p1:double><d6p1:double>0.48607438138774717</d6p1:double><d6p1:double>1.1996484772439149</d6p1:double><d6p1:double>1.037396480527724</d6p1:double><d6p1:double>0.27673196539793671</d6p1:double><d6p1:double>0.48801474259784527</d6p1:double><d6p1:double>0.45345035118183963</d6p1:double><d6p1:double>0.99450427530339724</d6p1:double><d6p1:double>0.23871182404967731</d6p1:double><d6p1:double>0.98265171518791616</d6p1:double><d6p1:double>0.44615614020194083</d6p1:double><d6p1:double>0.14565298864714382</d6p1:double><d6p1:double>0.11492433641013626</d6p1:double><d6p1:double>0.63854597735389718</d6p1:double><d6p1:double>1.231293633104</d6p1:double><d6p1:double>0.36627011893621614</d6p1:double></Weights></Neuron><Neuron><Bias>0.00011116838653865164</Bias><Output>-1</Output><Weights xmlns:d6p1="http://schemas.microsoft.com/2003/10/Serialization/Arrays"><d6p1:double>0.52280151710864819</d6p1:double><d6p1:double>1.012600475460854</d6p1:double><d6p1:double>1.0258916674993195</d6p1:double><d6p1:double>0.51893869972895856</d6p1:double><d6p1:double>0.83911382111493</d6p1:double><d6p1:double>0.32664107121918434</d6p1:double><d6p1:double>0.89319292150661933</d6p1:double><d6p1:double>-0.23714860921475986</d6p1:double><d6p1:double>0.18426097668967739</d6p1:double><d6p1:double>0.21286634739470275</d6p1:double><d6p1:double>-0.16306813702141</d6p1:double><d6p1:double>0.41637097137290374</d6p1:double><d6p1:double>0.60820722077197331</d6p1:double><d6p1:double>0.77478533620031131</d6p1:double><d6p1:double>0.3527581200293744</d6p1:double><d6p1:double>0.856523615408481</d6p1:double><d6p1:double>0.42336072302417432</d6p1:double><d6p1:double>0.50469278395711636</d6p1:double><d6p1:double>1.0009217943605702</d6p1:double><d6p1:double>0.228911340411606</d6p1:double><d6p1:double>1.2571036377804459</d6p1:double><d6p1:double>0.12289839425456038</d6p1:double><d6p1:double>0.62329580021905717</d6p1:double><d6p1:double>0.57429454218752141</d6p1:double><d6p1:double>0.14026653184383447</d6p1:double></Weights></Neuron><Neuron><Bias>-1.001081209077735</Bias><Output>-1</Output><Weights xmlns:d6p1="http://schemas.microsoft.com/2003/10/Serialization/Arrays"><d6p1:double>0.94001912045402869</d6p1:double><d6p1:double>-0.39535585828575326</d6p1:double><d6p1:double>0.088966762970328531</d6p1:double><d6p1:double>0.346283375273161</d6p1:double><d6p1:double>-0.19576245961316732</d6p1:double><d6p1:double>0.94878086254833</d6p1:double><d6p1:double>0.5384235017280341</d6p1:double><d6p1:double>0.3484619294734167</d6p1:double><d6p1:double>0.38559401263855525</d6p1:double><d6p1:double>0.39565069232623751</d6p1:double><d6p1:double>0.56163945215310229</d6p1:double><d6p1:double>0.79140170887579708</d6p1:double><d6p1:double>-0.019457811101109314</d6p1:double><d6p1:double>0.01296550988235386</d6p1:double><d6p1:double>1.3461134336877671</d6p1:double><d6p1:double>0.65309886638178483</d6p1:double><d6p1:double>-0.59420942972001822</d6p1:double><d6p1:double>1.519212212857024</d6p1:double><d6p1:double>0.17621337236040482</d6p1:double><d6p1:double>-0.52256550919292033</d6p1:double><d6p1:double>0.57806262931729813</d6p1:double><d6p1:double>0.44178014776037638</d6p1:double><d6p1:double>0.58777059054763459</d6p1:double><d6p1:double>-0.16463405266964107</d6p1:double><d6p1:double>-0.4987646618635565</d6p1:double></Weights></Neuron><Neuron><Bias>-0.999606819107525</Bias><Output>1</Output><Weights xmlns:d6p1="http://schemas.microsoft.com/2003/10/Serialization/Arrays"><d6p1:double>-0.54163647379994007</d6p1:double><d6p1:double>-0.29850311346531916</d6p1:double><d6p1:double>1.3192249363209394</d6p1:double><d6p1:double>-1.0146638034110091</d6p1:double><d6p1:double>0.90332319759230661</d6p1:double><d6p1:double>0.277517257075172</d6p1:double><d6p1:double>1.1016665706153688</d6p1:double><d6p1:double>-0.022630858933843121</d6p1:double><d6p1:double>0.21370467656247558</d6p1:double><d6p1:double>0.2416910189454706</d6p1:double><d6p1:double>-0.61778880633145183</d6p1:double><d6p1:double>-1.4408185446926043</d6p1:double><d6p1:double>0.827037589871458</d6p1:double><d6p1:double>0.90599631696653549</d6p1:double><d6p1:double>-0.5703189486667406</d6p1:double><d6p1:double>0.33776730641568209</d6p1:double><d6p1:double>1.0784902521268003</d6p1:double><d6p1:double>1.1557235066072231</d6p1:double><d6p1:double>-0.085493425348571017</d6p1:double><d6p1:double>0.2274386809725274</d6p1:double><d6p1:double>0.0804671723327896</d6p1:double><d6p1:double>-0.24396078740088728</d6p1:double><d6p1:double>0.595716245043856</d6p1:double><d6p1:double>0.24865068672037346</d6p1:double><d6p1:double>-0.38693699974548856</d6p1:double></Weights></Neuron><Neuron><Bias>0.00084970776121685821</Bias><Output>1</Output><Weights xmlns:d6p1="http://schemas.microsoft.com/2003/10/Serialization/Arrays"><d6p1:double>-0.37318258661364723</d6p1:double><d6p1:double>0.89536965777010058</d6p1:double><d6p1:double>0.662685424198678</d6p1:double><d6p1:double>0.28445638111552174</d6p1:double><d6p1:double>0.49495607281870957</d6p1:double><d6p1:double>0.84655462558706862</d6p1:double><d6p1:double>0.93128468502954309</d6p1:double><d6p1:double>0.7968565207892484</d6p1:double><d6p1:double>0.61098632329183289</d6p1:double><d6p1:double>0.99947876432501592</d6p1:double><d6p1:double>1.0717545385443703</d6p1:double><d6p1:double>0.037320262490951467</d6p1:double><d6p1:double>-0.098031744477194288</d6p1:double><d6p1:double>0.61271923946747453</d6p1:double><d6p1:double>0.56022543529932844</d6p1:double><d6p1:double>0.17976966780949544</d6p1:double><d6p1:double>0.604909583335419</d6p1:double><d6p1:double>0.25003909362382665</d6p1:double><d6p1:double>0.78830344957933052</d6p1:double><d6p1:double>-0.10398201445082593</d6p1:double><d6p1:double>0.49724916973070216</d6p1:double><d6p1:double>1.1813250893683376</d6p1:double><d6p1:double>0.13983588086290813</d6p1:double><d6p1:double>0.704236835622399</d6p1:double><d6p1:double>0.16001902035274623</d6p1:double></Weights></Neuron><Neuron><Bias>-0.99996607883536881</Bias><Output>-1</Output><Weights xmlns:d6p1="http://schemas.microsoft.com/2003/10/Serialization/Arrays"><d6p1:double>0.19420163926305017</d6p1:double><d6p1:double>0.48794648552480618</d6p1:double><d6p1:double>0.41738351610862123</d6p1:double><d6p1:double>0.877538618926047</d6p1:double><d6p1:double>0.8970598981086163</d6p1:double><d6p1:double>0.51319021087332783</d6p1:double><d6p1:double>1.0199391317626807</d6p1:double><d6p1:double>0.77331299645508633</d6p1:double><d6p1:double>0.27797458389547419</d6p1:double><d6p1:double>0.50242114293321083</d6p1:double><d6p1:double>0.3598700125839166</d6p1:double><d6p1:double>1.0212477338143626</d6p1:double><d6p1:double>0.42787192909561866</d6p1:double><d6p1:double>-0.00226303583835467</d6p1:double><d6p1:double>0.14908068663041102</d6p1:double><d6p1:double>0.5836975086656464</d6p1:double><d6p1:double>1.1717387437928311</d6p1:double><d6p1:double>0.5388113485280116</d6p1:double><d6p1:double>0.18134610250210262</d6p1:double><d6p1:double>0.586615132661053</d6p1:double><d6p1:double>0.49064778610199966</d6p1:double><d6p1:double>0.65782920678849643</d6p1:double><d6p1:double>-0.31161801308154552</d6p1:double><d6p1:double>0.25575255258838192</d6p1:double><d6p1:double>0.45909833360428015</d6p1:double></Weights></Neuron><Neuron><Bias>-1.000776010836762</Bias><Output>-1</Output><Weights xmlns:d6p1="http://schemas.microsoft.com/2003/10/Serialization/Arrays"><d6p1:double>0.59902896957407381</d6p1:double><d6p1:double>-0.12444387610256702</d6p1:double><d6p1:double>0.099822549095580651</d6p1:double><d6p1:double>0.20758875777363248</d6p1:double><d6p1:double>1.3568353722797901</d6p1:double><d6p1:double>0.18715480014620245</d6p1:double><d6p1:double>0.89643637244232255</d6p1:double><d6p1:double>0.12815737399318955</d6p1:double><d6p1:double>0.053027693973175534</d6p1:double><d6p1:double>-0.057082089968227889</d6p1:double><d6p1:double>0.48195073731193755</d6p1:double><d6p1:double>0.79220631985799039</d6p1:double><d6p1:double>-0.35104129507385057</d6p1:double><d6p1:double>0.82888583593547482</d6p1:double><d6p1:double>-0.27766683173140178</d6p1:double><d6p1:double>0.4427248585468172</d6p1:double><d6p1:double>0.32420034459048119</d6p1:double><d6p1:double>0.734171188555206</d6p1:double><d6p1:double>0.80895602409327527</d6p1:double><d6p1:double>0.59864078914525332</d6p1:double><d6p1:double>0.93192294193244518</d6p1:double><d6p1:double>0.98121511564184527</d6p1:double><d6p1:double>1.0074322578614705</d6p1:double><d6p1:double>-0.93704109455205231</d6p1:double><d6p1:double>-0.11679697004259364</d6p1:double></Weights></Neuron><Neuron><Bias>-1.0005115499137771</Bias><Output>-1</Output><Weights xmlns:d6p1="http://schemas.microsoft.com/2003/10/Serialization/Arrays"><d6p1:double>1.1652886810685177</d6p1:double><d6p1:double>-0.21200385626252996</d6p1:double><d6p1:double>0.6579906654412877</d6p1:double><d6p1:double>0.23278919391515918</d6p1:double><d6p1:double>0.61584349415456074</d6p1:double><d6p1:double>-0.097680632536653336</d6p1:double><d6p1:double>1.0570007111257631</d6p1:double><d6p1:double>0.16388115073602819</d6p1:double><d6p1:double>0.83079582049347078</d6p1:double><d6p1:double>1.0490954318892589</d6p1:double><d6p1:double>-0.16572156014453515</d6p1:double><d6p1:double>0.64540731441195409</d6p1:double><d6p1:double>0.52193553344620147</d6p1:double><d6p1:double>0.10620531271025398</d6p1:double><d6p1:double>-0.23669392042762108</d6p1:double><d6p1:double>0.1696451747127205</d6p1:double><d6p1:double>0.65192701703533718</d6p1:double><d6p1:double>0.50637148073613014</d6p1:double><d6p1:double>-0.21215428363089134</d6p1:double><d6p1:double>0.0903742635312182</d6p1:double><d6p1:double>0.15493967971387124</d6p1:double><d6p1:double>0.70103225254415058</d6p1:double><d6p1:double>0.81851617330336346</d6p1:double><d6p1:double>0.2538557892389508</d6p1:double><d6p1:double>0.89821637282125188</d6p1:double></Weights></Neuron><Neuron><Bias>-0.99925586168834313</Bias><Output>1</Output><Weights xmlns:d6p1="http://schemas.microsoft.com/2003/10/Serialization/Arrays"><d6p1:double>0.75679791778529348</d6p1:double><d6p1:double>-0.27608415464508052</d6p1:double><d6p1:double>1.1662844496852591</d6p1:double><d6p1:double>-0.081380136467490247</d6p1:double><d6p1:double>-0.51979443655049262</d6p1:double><d6p1:double>-0.16820018210938895</d6p1:double><d6p1:double>0.78864479741146365</d6p1:double><d6p1:double>0.35095674306913172</d6p1:double><d6p1:double>0.1735373258906131</d6p1:double><d6p1:double>0.47125815940323718</d6p1:double><d6p1:double>-0.68277512223999448</d6p1:double><d6p1:double>-0.99393043542613768</d6p1:double><d6p1:double>1.2268077376614535</d6p1:double><d6p1:double>0.95137255175957969</d6p1:double><d6p1:double>0.15893447513345577</d6p1:double><d6p1:double>0.3026371009302849</d6p1:double><d6p1:double>0.84031794981349117</d6p1:double><d6p1:double>-0.2927565062974215</d6p1:double><d6p1:double>0.10074100892076249</d6p1:double><d6p1:double>0.34197434979969743</d6p1:double><d6p1:double>0.015101958196380334</d6p1:double><d6p1:double>-0.049359961054374193</d6p1:double><d6p1:double>0.74411104065166389</d6p1:double><d6p1:double>0.43505218168874205</d6p1:double><d6p1:double>-0.11049253524808879</d6p1:double></Weights></Neuron><Neuron><Bias>-0.99886862878911153</Bias><Output>1</Output><Weights xmlns:d6p1="http://schemas.microsoft.com/2003/10/Serialization/Arrays"><d6p1:double>0.18694799584774907</d6p1:double><d6p1:double>-0.22973734524591624</d6p1:double><d6p1:double>0.896503829886187</d6p1:double><d6p1:double>-0.52803905317090483</d6p1:double><d6p1:double>0.29686863494732579</d6p1:double><d6p1:double>-0.022562784104084823</d6p1:double><d6p1:double>0.63349614269497667</d6p1:double><d6p1:double>-0.14365625691975886</d6p1:double><d6p1:double>0.62112700999276593</d6p1:double><d6p1:double>0.81029388796650581</d6p1:double><d6p1:double>0.31329446287784796</d6p1:double><d6p1:double>0.20772435368710945</d6p1:double><d6p1:double>1.103705821447114</d6p1:double><d6p1:double>0.91519130672459437</d6p1:double><d6p1:double>2.1282279820544452</d6p1:double><d6p1:double>-0.0082145280735198781</d6p1:double><d6p1:double>0.30430232001625429</d6p1:double><d6p1:double>-0.06192889156816641</d6p1:double><d6p1:double>0.57116260861871737</d6p1:double><d6p1:double>0.34284238077540635</d6p1:double><d6p1:double>0.13608386544602796</d6p1:double><d6p1:double>0.52834830942890465</d6p1:double><d6p1:double>0.43648210494684775</d6p1:double><d6p1:double>0.38768995716875948</d6p1:double><d6p1:double>0.10718223285409309</d6p1:double></Weights></Neuron><Neuron><Bias>-0.99991397634076629</Bias><Output>1</Output><Weights xmlns:d6p1="http://schemas.microsoft.com/2003/10/Serialization/Arrays"><d6p1:double>-0.17640137219584789</d6p1:double><d6p1:double>-0.17883946719812233</d6p1:double><d6p1:double>0.044799900028747619</d6p1:double><d6p1:double>0.92171518178865841</d6p1:double><d6p1:double>0.066140159957132627</d6p1:double><d6p1:double>-0.62497633886859516</d6p1:double><d6p1:double>-0.662809821458411</d6p1:double><d6p1:double>0.52212333193192151</d6p1:double><d6p1:double>-0.28191369264296506</d6p1:double><d6p1:double>-0.85758480446652563</d6p1:double><d6p1:double>0.81111218688099407</d6p1:double><d6p1:double>0.11564935907747943</d6p1:double><d6p1:double>-0.45593601481693541</d6p1:double><d6p1:double>1.8543564760987303</d6p1:double><d6p1:double>-0.59081854496599262</d6p1:double><d6p1:double>0.55674076991830357</d6p1:double><d6p1:double>0.388429557895255</d6p1:double><d6p1:double>-0.060885151753943191</d6p1:double><d6p1:double>0.53220826047401559</d6p1:double><d6p1:double>0.29021571945351254</d6p1:double><d6p1:double>-0.21923231937183579</d6p1:double><d6p1:double>0.826047947067959</d6p1:double><d6p1:double>0.4936455347911044</d6p1:double><d6p1:double>0.19156786730857253</d6p1:double><d6p1:double>-0.243464629766062</d6p1:double></Weights></Neuron><Neuron><Bias>-0.99967697838174552</Bias><Output>-1</Output><Weights xmlns:d6p1="http://schemas.microsoft.com/2003/10/Serialization/Arrays"><d6p1:double>-0.21178478090630942</d6p1:double><d6p1:double>0.14765169067974732</d6p1:double><d6p1:double>0.8115989444113807</d6p1:double><d6p1:double>0.79352673224649339</d6p1:double><d6p1:double>0.72619090875654746</d6p1:double><d6p1:double>0.044313472224527438</d6p1:double><d6p1:double>-0.15620491466050168</d6p1:double><d6p1:double>0.13002030728272879</d6p1:double><d6p1:double>0.75028550822125462</d6p1:double><d6p1:double>1.1918992114159477</d6p1:double><d6p1:double>0.41358295259646566</d6p1:double><d6p1:double>0.42638992099329986</d6p1:double><d6p1:double>0.35478204238370076</d6p1:double><d6p1:double>0.76232888965655909</d6p1:double><d6p1:double>-0.27895554022331509</d6p1:double><d6p1:double>-0.82194788218009762</d6p1:double><d6p1:double>0.79859928146061909</d6p1:double><d6p1:double>1.1856893987007349</d6p1:double><d6p1:double>0.651557711155509</d6p1:double><d6p1:double>1.508588738109006</d6p1:double><d6p1:double>0.045000756765726811</d6p1:double><d6p1:double>0.40665505783041023</d6p1:double><d6p1:double>0.02469172535873132</d6p1:double><d6p1:double>-0.024353053238466191</d6p1:double><d6p1:double>0.22703124165616864</d6p1:double></Weights></Neuron><Neuron><Bias>-0.00010159591163496156</Bias><Output>1</Output><Weights xmlns:d6p1="http://schemas.microsoft.com/2003/10/Serialization/Arrays"><d6p1:double>0.014131603394988765</d6p1:double><d6p1:double>0.3520199097059864</d6p1:double><d6p1:double>-0.201369344677839</d6p1:double><d6p1:double>0.23938568628734619</d6p1:double><d6p1:double>0.24432084286490563</d6p1:double><d6p1:double>0.44323225779505288</d6p1:double><d6p1:double>1.1675609141633414</d6p1:double><d6p1:double>1.2442497574329425</d6p1:double><d6p1:double>0.19075057875610474</d6p1:double><d6p1:double>0.20174726626087575</d6p1:double><d6p1:double>0.12726377852081414</d6p1:double><d6p1:double>1.2987000348838995</d6p1:double><d6p1:double>0.035180121383334963</d6p1:double><d6p1:double>-0.33197922647897732</d6p1:double><d6p1:double>0.86696368018290826</d6p1:double><d6p1:double>1.1215105061668942</d6p1:double><d6p1:double>-0.06726192343624017</d6p1:double><d6p1:double>-0.21476844710004295</d6p1:double><d6p1:double>-0.19131713410762211</d6p1:double><d6p1:double>0.75606434690584967</d6p1:double><d6p1:double>-0.02439608605957749</d6p1:double><d6p1:double>0.14683565374663168</d6p1:double><d6p1:double>-0.091559154782710345</d6p1:double><d6p1:double>0.23550606138825836</d6p1:double><d6p1:double>0.63968583104192867</d6p1:double></Weights></Neuron><Neuron><Bias>0.00041859709646594162</Bias><Output>1</Output><Weights xmlns:d6p1="http://schemas.microsoft.com/2003/10/Serialization/Arrays"><d6p1:double>-0.37834318614113721</d6p1:double><d6p1:double>-0.20596438523689772</d6p1:double><d6p1:double>-0.066145387786993845</d6p1:double><d6p1:double>0.40404909403181405</d6p1:double><d6p1:double>-0.62102319911278292</d6p1:double><d6p1:double>0.7554806325401443</d6p1:double><d6p1:double>-0.5623252200154788</d6p1:double><d6p1:double>0.40056324127368542</d6p1:double><d6p1:double>0.97933674273553784</d6p1:double><d6p1:double>-0.24070738472255143</d6p1:double><d6p1:double>0.23276044580897323</d6p1:double><d6p1:double>0.50034237983967944</d6p1:double><d6p1:double>0.53152698715802782</d6p1:double><d6p1:double>0.99139747882804974</d6p1:double><d6p1:double>0.5280639243410441</d6p1:double><d6p1:double>1.3362118131328822</d6p1:double><d6p1:double>-0.28513246234199408</d6p1:double><d6p1:double>1.4638842323056471</d6p1:double><d6p1:double>0.19385582512148419</d6p1:double><d6p1:double>-0.75985146060972131</d6p1:double><d6p1:double>0.37498021309777618</d6p1:double><d6p1:double>0.30277640998352384</d6p1:double><d6p1:double>0.40215046838471508</d6p1:double><d6p1:double>-0.18523871604200429</d6p1:double><d6p1:double>-0.31220254999872366</d6p1:double></Weights></Neuron><Neuron><Bias>-0.99884205325462028</Bias><Output>1</Output><Weights xmlns:d6p1="http://schemas.microsoft.com/2003/10/Serialization/Arrays"><d6p1:double>0.075706385946075178</d6p1:double><d6p1:double>0.53838047105928721</d6p1:double><d6p1:double>0.65143204582996161</d6p1:double><d6p1:double>0.382299211257283</d6p1:double><d6p1:double>-0.19127413051429973</d6p1:double><d6p1:double>0.91076097707264148</d6p1:double><d6p1:double>-0.099552451309767781</d6p1:double><d6p1:double>0.60934461157161923</d6p1:double><d6p1:double>0.6148384074601041</d6p1:double><d6p1:double>-0.25778124579283113</d6p1:double><d6p1:double>0.63999889870362114</d6p1:double><d6p1:double>-0.049376350411656313</d6p1:double><d6p1:double>1.315190448008744</d6p1:double><d6p1:double>0.6553826999107919</d6p1:double><d6p1:double>0.15368250526392024</d6p1:double><d6p1:double>0.45713395983510113</d6p1:double><d6p1:double>0.60608683805312569</d6p1:double><d6p1:double>0.36463991864740719</d6p1:double><d6p1:double>0.54278617210383262</d6p1:double><d6p1:double>1.2314266562101719</d6p1:double><d6p1:double>0.38446278123682004</d6p1:double><d6p1:double>-0.81323078583775865</d6p1:double><d6p1:double>0.77353292695930553</d6p1:double><d6p1:double>0.8802284182489275</d6p1:double><d6p1:double>-0.079889490801150653</d6p1:double></Weights></Neuron><Neuron><Bias>-0.99996338741574</Bias><Output>-1</Output><Weights xmlns:d6p1="http://schemas.microsoft.com/2003/10/Serialization/Arrays"><d6p1:double>0.42205292395180405</d6p1:double><d6p1:double>0.12360378114556889</d6p1:double><d6p1:double>-0.13646087386983713</d6p1:double><d6p1:double>-0.44917608301275247</d6p1:double><d6p1:double>0.20423746151762212</d6p1:double><d6p1:double>0.50714042411814031</d6p1:double><d6p1:double>1.1632702351077888</d6p1:double><d6p1:double>0.58623760807841552</d6p1:double><d6p1:double>0.57164267157557458</d6p1:double><d6p1:double>0.84647199893289116</d6p1:double><d6p1:double>0.5941459154730675</d6p1:double><d6p1:double>0.17915561193527618</d6p1:double><d6p1:double>0.392452232933676</d6p1:double><d6p1:double>0.28174526800532956</d6p1:double><d6p1:double>0.29861309023587868</d6p1:double><d6p1:double>0.5330556778022365</d6p1:double><d6p1:double>0.660216922778616</d6p1:double><d6p1:double>-0.030833155270920991</d6p1:double><d6p1:double>0.904056643038613</d6p1:double><d6p1:double>0.92602982880722129</d6p1:double><d6p1:double>0.87119351137127587</d6p1:double><d6p1:double>0.097743469850811712</d6p1:double><d6p1:double>0.5479133263428253</d6p1:double><d6p1:double>0.0067289978564780834</d6p1:double><d6p1:double>0.49412008541649333</d6p1:double></Weights></Neuron><Neuron><Bias>-0.00064027089686931739</Bias><Output>-1</Output><Weights xmlns:d6p1="http://schemas.microsoft.com/2003/10/Serialization/Arrays"><d6p1:double>0.51555804014101425</d6p1:double><d6p1:double>-0.21836714938234489</d6p1:double><d6p1:double>0.875892560988478</d6p1:double><d6p1:double>0.14590300555552554</d6p1:double><d6p1:double>0.92158346132727709</d6p1:double><d6p1:double>0.2097925296069989</d6p1:double><d6p1:double>0.92650268600658914</d6p1:double><d6p1:double>1.3950978707919617</d6p1:double><d6p1:double>0.24548851218006271</d6p1:double><d6p1:double>0.6402923057121459</d6p1:double><d6p1:double>0.82887573917999646</d6p1:double><d6p1:double>0.23457661105221442</d6p1:double><d6p1:double>0.2207699849506512</d6p1:double><d6p1:double>1.1136700928845931</d6p1:double><d6p1:double>0.832502565364083</d6p1:double><d6p1:double>0.63108598480704825</d6p1:double><d6p1:double>0.11260494226857577</d6p1:double><d6p1:double>0.41188629666984705</d6p1:double><d6p1:double>0.36550511548445797</d6p1:double><d6p1:double>-0.25948780217592132</d6p1:double><d6p1:double>-0.28911839511631759</d6p1:double><d6p1:double>0.68896587111281649</d6p1:double><d6p1:double>0.91397097465368338</d6p1:double><d6p1:double>0.642368848941069</d6p1:double><d6p1:double>0.22341751679783828</d6p1:double></Weights></Neuron><Neuron><Bias>-0.999383642084797</Bias><Output>-1</Output><Weights xmlns:d6p1="http://schemas.microsoft.com/2003/10/Serialization/Arrays"><d6p1:double>0.5915453240019436</d6p1:double><d6p1:double>0.12444507580642633</d6p1:double><d6p1:double>0.097861994741271233</d6p1:double><d6p1:double>-1.125680252287063</d6p1:double><d6p1:double>0.59421393631783626</d6p1:double><d6p1:double>0.89496358998703074</d6p1:double><d6p1:double>0.76704824708258657</d6p1:double><d6p1:double>-0.542138051616023</d6p1:double><d6p1:double>0.19933993016099288</d6p1:double><d6p1:double>0.42599480865559103</d6p1:double><d6p1:double>0.44364588050626991</d6p1:double><d6p1:double>1.0568763975019635</d6p1:double><d6p1:double>0.13411010674153795</d6p1:double><d6p1:double>0.78245639820470381</d6p1:double><d6p1:double>1.5963017284968177</d6p1:double><d6p1:double>0.44918272595360259</d6p1:double><d6p1:double>0.70710260582451778</d6p1:double><d6p1:double>-0.19747161004954009</d6p1:double><d6p1:double>1.0391295996419971</d6p1:double><d6p1:double>0.3402008901568252</d6p1:double><d6p1:double>1.0046907250783366</d6p1:double><d6p1:double>0.17135519921805259</d6p1:double><d6p1:double>-0.36252303198115804</d6p1:double><d6p1:double>0.22460801722296142</d6p1:double><d6p1:double>0.34329629836749975</d6p1:double></Weights></Neuron><Neuron><Bias>-1.0011624127028271</Bias><Output>-1</Output><Weights xmlns:d6p1="http://schemas.microsoft.com/2003/10/Serialization/Arrays"><d6p1:double>1.1293277294323243</d6p1:double><d6p1:double>-0.027674142686211715</d6p1:double><d6p1:double>1.0322543561368096</d6p1:double><d6p1:double>0.74201373260898684</d6p1:double><d6p1:double>0.48617168318478227</d6p1:double><d6p1:double>0.31958524432544394</d6p1:double><d6p1:double>0.68765388445718956</d6p1:double><d6p1:double>0.40331955327284347</d6p1:double><d6p1:double>-0.4251321051331442</d6p1:double><d6p1:double>0.95618819249906917</d6p1:double><d6p1:double>0.67559284480028214</d6p1:double><d6p1:double>0.41571809457270537</d6p1:double><d6p1:double>-0.12692825574291647</d6p1:double><d6p1:double>0.46231672784563455</d6p1:double><d6p1:double>0.5486202467075505</d6p1:double><d6p1:double>0.38757711202926509</d6p1:double><d6p1:double>0.36392733113710257</d6p1:double><d6p1:double>0.22062944935813938</d6p1:double><d6p1:double>0.70733805621877088</d6p1:double><d6p1:double>-0.26663381618184834</d6p1:double><d6p1:double>0.31728515389463074</d6p1:double><d6p1:double>1.1959436648074879</d6p1:double><d6p1:double>-0.1381123873833322</d6p1:double><d6p1:double>0.51225366506658332</d6p1:double><d6p1:double>1.4172722428279214</d6p1:double></Weights></Neuron><Neuron><Bias>-0.997668345727337</Bias><Output>1</Output><Weights xmlns:d6p1="http://schemas.microsoft.com/2003/10/Serialization/Arrays"><d6p1:double>0.70766264204657781</d6p1:double><d6p1:double>-0.30621775669701845</d6p1:double><d6p1:double>1.3004558197776503</d6p1:double><d6p1:double>-0.85041910117904707</d6p1:double><d6p1:double>-0.66583957941350647</d6p1:double><d6p1:double>1.1468834662315837</d6p1:double><d6p1:double>0.21968508670254644</d6p1:double><d6p1:double>-1.2278436686012626</d6p1:double><d6p1:double>0.25792483110467196</d6p1:double><d6p1:double>0.659786671114533</d6p1:double><d6p1:double>-0.44832944043451772</d6p1:double><d6p1:double>1.4812285439549739</d6p1:double><d6p1:double>0.30963019334473463</d6p1:double><d6p1:double>-0.91026643239825633</d6p1:double><d6p1:double>0.64409464386469351</d6p1:double><d6p1:double>-0.086085291170966319</d6p1:double><d6p1:double>0.053397813029304943</d6p1:double><d6p1:double>-0.66443259874240068</d6p1:double><d6p1:double>0.80033972803775633</d6p1:double><d6p1:double>0.38162044280181306</d6p1:double><d6p1:double>0.39393370424852142</d6p1:double><d6p1:double>-0.31452201306561917</d6p1:double><d6p1:double>-0.0039273290186673656</d6p1:double><d6p1:double>0.67617331892579868</d6p1:double><d6p1:double>0.40620703501849958</d6p1:double></Weights></Neuron><Neuron><Bias>-1.0000649147579603</Bias><Output>-1</Output><Weights xmlns:d6p1="http://schemas.microsoft.com/2003/10/Serialization/Arrays"><d6p1:double>0.58072785934531457</d6p1:double><d6p1:double>0.048281834846395352</d6p1:double><d6p1:double>0.73813035213993161</d6p1:double><d6p1:double>0.6555476149737427</d6p1:double><d6p1:double>0.82125585313229454</d6p1:double><d6p1:double>0.16281058463535525</d6p1:double><d6p1:double>1.31287918077533</d6p1:double><d6p1:double>0.86548163373167331</d6p1:double><d6p1:double>0.45852802312247171</d6p1:double><d6p1:double>0.201688356724396</d6p1:double><d6p1:double>0.58412528700434163</d6p1:double><d6p1:double>0.67766992140892746</d6p1:double><d6p1:double>1.1854355207121832</d6p1:double><d6p1:double>0.51887757473369667</d6p1:double><d6p1:double>0.44328531913407454</d6p1:double><d6p1:double>0.046414264807861455</d6p1:double><d6p1:double>0.08609374512352716</d6p1:double><d6p1:double>1.0499104670035828</d6p1:double><d6p1:double>0.068426667127205978</d6p1:double><d6p1:double>1.0648352452919796</d6p1:double><d6p1:double>0.62837096237764278</d6p1:double><d6p1:double>0.722022103977587</d6p1:double><d6p1:double>0.62258034273812335</d6p1:double><d6p1:double>0.34625604762498224</d6p1:double><d6p1:double>0.40861333653523541</d6p1:double></Weights></Neuron><Neuron><Bias>-0.99894149040722324</Bias><Output>1</Output><Weights xmlns:d6p1="http://schemas.microsoft.com/2003/10/Serialization/Arrays"><d6p1:double>0.55242436548894691</d6p1:double><d6p1:double>0.12668443550886013</d6p1:double><d6p1:double>0.58258634643200979</d6p1:double><d6p1:double>0.33887071210049513</d6p1:double><d6p1:double>0.80300430737689577</d6p1:double><d6p1:double>0.348438120034942</d6p1:double><d6p1:double>-0.027234160195459524</d6p1:double><d6p1:double>0.32276450450486471</d6p1:double><d6p1:double>0.43782402135378817</d6p1:double><d6p1:double>0.3207351687279123</d6p1:double><d6p1:double>0.74608732478357742</d6p1:double><d6p1:double>0.39042608492650743</d6p1:double><d6p1:double>0.93052186914701274</d6p1:double><d6p1:double>0.92930284416899545</d6p1:double><d6p1:double>0.84379817261305912</d6p1:double><d6p1:double>0.64616712580600388</d6p1:double><d6p1:double>0.84878723740337358</d6p1:double><d6p1:double>-0.060251754816930576</d6p1:double><d6p1:double>0.7751155437948124</d6p1:double><d6p1:double>0.89769139198105441</d6p1:double><d6p1:double>0.2511342451748998</d6p1:double><d6p1:double>-0.1962204463373827</d6p1:double><d6p1:double>0.78334575230496861</d6p1:double><d6p1:double>0.78739861735755723</d6p1:double><d6p1:double>0.77035609536118144</d6p1:double></Weights></Neuron><Neuron><Bias>-0.00040911580585464895</Bias><Output>-1</Output><Weights xmlns:d6p1="http://schemas.microsoft.com/2003/10/Serialization/Arrays"><d6p1:double>1.3158429778783516</d6p1:double><d6p1:double>0.75886273816300986</d6p1:double><d6p1:double>-0.24653096281906733</d6p1:double><d6p1:double>0.84742001482586315</d6p1:double><d6p1:double>0.49328230441805876</d6p1:double><d6p1:double>0.80485423828723524</d6p1:double><d6p1:double>-0.31253972152899823</d6p1:double><d6p1:double>0.39585719179343803</d6p1:double><d6p1:double>0.1897625879352989</d6p1:double><d6p1:double>0.60042606960608014</d6p1:double><d6p1:double>0.22923841346054241</d6p1:double><d6p1:double>1.6686135724660303</d6p1:double><d6p1:double>-0.2221595764324128</d6p1:double><d6p1:double>-0.070294317915872429</d6p1:double><d6p1:double>0.29312802307514463</d6p1:double><d6p1:double>0.15103344098361643</d6p1:double><d6p1:double>0.12527763760806687</d6p1:double><d6p1:double>0.0343525367758605</d6p1:double><d6p1:double>0.26411161040142866</d6p1:double><d6p1:double>-0.28589883601992905</d6p1:double><d6p1:double>-0.28058972371969648</d6p1:double><d6p1:double>0.22435957014280994</d6p1:double><d6p1:double>0.18673802013185245</d6p1:double><d6p1:double>-0.06343290104696285</d6p1:double><d6p1:double>1.2210135608498132</d6p1:double></Weights></Neuron><Neuron><Bias>-0.999387290304032</Bias><Output>1</Output><Weights xmlns:d6p1="http://schemas.microsoft.com/2003/10/Serialization/Arrays"><d6p1:double>-0.28425910943217692</d6p1:double><d6p1:double>0.98331666976061871</d6p1:double><d6p1:double>0.54612230810800788</d6p1:double><d6p1:double>0.91541577249540307</d6p1:double><d6p1:double>-0.015119453564778052</d6p1:double><d6p1:double>0.89105373708064017</d6p1:double><d6p1:double>0.30591430858482682</d6p1:double><d6p1:double>1.2533021904519557</d6p1:double><d6p1:double>0.39099971358782232</d6p1:double><d6p1:double>0.06177606787455385</d6p1:double><d6p1:double>1.2996671559735584</d6p1:double><d6p1:double>0.77746508669127568</d6p1:double><d6p1:double>0.62558146499140188</d6p1:double><d6p1:double>0.76447730880843223</d6p1:double><d6p1:double>-0.24857919790450131</d6p1:double><d6p1:double>-0.18462673108584879</d6p1:double><d6p1:double>0.0986127073749648</d6p1:double><d6p1:double>0.88483062215479358</d6p1:double><d6p1:double>0.66550336760416373</d6p1:double><d6p1:double>1.0414936006029136</d6p1:double><d6p1:double>0.71156815155432662</d6p1:double><d6p1:double>0.27873154905885611</d6p1:double><d6p1:double>-0.20422318641386086</d6p1:double><d6p1:double>0.5674058887585014</d6p1:double><d6p1:double>1.1884055113226988</d6p1:double></Weights></Neuron><Neuron><Bias>-1.0006567382225879</Bias><Output>-1</Output><Weights xmlns:d6p1="http://schemas.microsoft.com/2003/10/Serialization/Arrays"><d6p1:double>0.9646162264915662</d6p1:double><d6p1:double>0.98295029517262389</d6p1:double><d6p1:double>-0.2802045804139997</d6p1:double><d6p1:double>0.98783550470977588</d6p1:double><d6p1:double>0.24467548240385723</d6p1:double><d6p1:double>1.1080017067298635</d6p1:double><d6p1:double>0.53503612604230111</d6p1:double><d6p1:double>-0.13923619435342005</d6p1:double><d6p1:double>0.69649170274119832</d6p1:double><d6p1:double>0.44203742685622666</d6p1:double><d6p1:double>0.78064757249764782</d6p1:double><d6p1:double>0.4967883558313026</d6p1:double><d6p1:double>0.5613274166187292</d6p1:double><d6p1:double>-0.0040458344497048037</d6p1:double><d6p1:double>0.026263412270855341</d6p1:double><d6p1:double>0.22366657183141814</d6p1:double><d6p1:double>0.882031554220474</d6p1:double><d6p1:double>0.25649915008801272</d6p1:double><d6p1:double>0.28279628457877287</d6p1:double><d6p1:double>0.65839765800807426</d6p1:double><d6p1:double>0.572394280307874</d6p1:double><d6p1:double>1.17083476993297</d6p1:double><d6p1:double>0.95672700855863591</d6p1:double><d6p1:double>-0.086631009040413126</d6p1:double><d6p1:double>0.89068170037899153</d6p1:double></Weights></Neuron><Neuron><Bias>-1.0007898901837249</Bias><Output>1</Output><Weights xmlns:d6p1="http://schemas.microsoft.com/2003/10/Serialization/Arrays"><d6p1:double>0.18211579632540431</d6p1:double><d6p1:double>0.94664215468173862</d6p1:double><d6p1:double>1.1646901504681042</d6p1:double><d6p1:double>1.156141888800337</d6p1:double><d6p1:double>0.46593111410016047</d6p1:double><d6p1:double>0.97001965418765068</d6p1:double><d6p1:double>-0.18827704414913571</d6p1:double><d6p1:double>0.82771216460647823</d6p1:double><d6p1:double>0.30904190006624238</d6p1:double><d6p1:double>0.51217493292788208</d6p1:double><d6p1:double>0.76617664618943382</d6p1:double><d6p1:double>-0.07724258144464223</d6p1:double><d6p1:double>0.49553045654635264</d6p1:double><d6p1:double>0.14799534241469778</d6p1:double><d6p1:double>-0.06113601318803006</d6p1:double><d6p1:double>0.23688633019586844</d6p1:double><d6p1:double>0.21975467630975842</d6p1:double><d6p1:double>0.7599384343133917</d6p1:double><d6p1:double>0.38245362482668732</d6p1:double><d6p1:double>0.98949632973432544</d6p1:double><d6p1:double>-0.16378749541460416</d6p1:double><d6p1:double>0.89320702983553191</d6p1:double><d6p1:double>0.041177876884957623</d6p1:double><d6p1:double>0.387708782755624</d6p1:double><d6p1:double>0.44539524161043359</d6p1:double></Weights></Neuron><Neuron><Bias>-0.99876998406318684</Bias><Output>1</Output><Weights xmlns:d6p1="http://schemas.microsoft.com/2003/10/Serialization/Arrays"><d6p1:double>0.081950122711865081</d6p1:double><d6p1:double>0.40614243804493616</d6p1:double><d6p1:double>0.53221285492600356</d6p1:double><d6p1:double>0.913826208214133</d6p1:double><d6p1:double>-0.24174236631148721</d6p1:double><d6p1:double>1.1839767210034666</d6p1:double><d6p1:double>0.12335309707766293</d6p1:double><d6p1:double>0.974129593420056</d6p1:double><d6p1:double>0.48631006564636003</d6p1:double><d6p1:double>0.484099523405881</d6p1:double><d6p1:double>0.19243354314712013</d6p1:double><d6p1:double>0.74073768775241577</d6p1:double><d6p1:double>0.9978519188534265</d6p1:double><d6p1:double>1.2065752942916708</d6p1:double><d6p1:double>0.67830839918363672</d6p1:double><d6p1:double>0.18552042486558279</d6p1:double><d6p1:double>0.2832137435185661</d6p1:double><d6p1:double>0.8471837723654374</d6p1:double><d6p1:double>0.34359156302318211</d6p1:double><d6p1:double>0.85292960988221</d6p1:double><d6p1:double>0.83330449137945117</d6p1:double><d6p1:double>0.10076329492418874</d6p1:double><d6p1:double>0.23436303974660513</d6p1:double><d6p1:double>0.6484623872107188</d6p1:double><d6p1:double>0.39085903004911848</d6p1:double></Weights></Neuron><Neuron><Bias>0.00065618992580956871</Bias><Output>-1</Output><Weights xmlns:d6p1="http://schemas.microsoft.com/2003/10/Serialization/Arrays"><d6p1:double>-0.22165445107329587</d6p1:double><d6p1:double>0.0079584646081158825</d6p1:double><d6p1:double>-0.2550355430992769</d6p1:double><d6p1:double>0.83028221399011293</d6p1:double><d6p1:double>0.68830926330166731</d6p1:double><d6p1:double>0.71601743216462332</d6p1:double><d6p1:double>0.34549591674662083</d6p1:double><d6p1:double>-0.07263307100782386</d6p1:double><d6p1:double>0.71244179444461486</d6p1:double><d6p1:double>0.60803947666953384</d6p1:double><d6p1:double>0.37550578111579686</d6p1:double><d6p1:double>0.16436736369864749</d6p1:double><d6p1:double>0.16278136255725997</d6p1:double><d6p1:double>1.1329008142242925</d6p1:double><d6p1:double>0.62605150692128186</d6p1:double><d6p1:double>0.099634723051305746</d6p1:double><d6p1:double>0.99172316908180336</d6p1:double><d6p1:double>0.0043352365079798857</d6p1:double><d6p1:double>0.44269167600256137</d6p1:double><d6p1:double>0.5090878324562178</d6p1:double><d6p1:double>0.653569280113363</d6p1:double><d6p1:double>0.4773849589069375</d6p1:double><d6p1:double>0.93646150637086789</d6p1:double><d6p1:double>0.75659970573921353</d6p1:double><d6p1:double>-0.36113732237915297</d6p1:double></Weights></Neuron><Neuron><Bias>-1.0014026092309833</Bias><Output>-1</Output><Weights xmlns:d6p1="http://schemas.microsoft.com/2003/10/Serialization/Arrays"><d6p1:double>1.0079048521760563</d6p1:double><d6p1:double>0.55999144650127775</d6p1:double><d6p1:double>-0.259209801610581</d6p1:double><d6p1:double>0.39881618292305804</d6p1:double><d6p1:double>1.4711158475299919</d6p1:double><d6p1:double>-0.2453535793368091</d6p1:double><d6p1:double>0.57294795789198993</d6p1:double><d6p1:double>0.55142014072714141</d6p1:double><d6p1:double>0.97493114793840585</d6p1:double><d6p1:double>0.023062934528787524</d6p1:double><d6p1:double>0.42113853830637427</d6p1:double><d6p1:double>0.12785018488720626</d6p1:double><d6p1:double>0.814415451341642</d6p1:double><d6p1:double>0.48539173503791055</d6p1:double><d6p1:double>0.68849529277380461</d6p1:double><d6p1:double>0.3516404311290981</d6p1:double><d6p1:double>0.72221576738564308</d6p1:double><d6p1:double>0.55259160441562</d6p1:double><d6p1:double>0.042324427319910554</d6p1:double><d6p1:double>-0.28280028981528693</d6p1:double><d6p1:double>0.52300765514225289</d6p1:double><d6p1:double>1.2789472483289828</d6p1:double><d6p1:double>0.37995329768945091</d6p1:double><d6p1:double>0.22502135828847342</d6p1:double><d6p1:double>0.41950697261415465</d6p1:double></Weights></Neuron><Neuron><Bias>-0.0011906217671933056</Bias><Output>-1</Output><Weights xmlns:d6p1="http://schemas.microsoft.com/2003/10/Serialization/Arrays"><d6p1:double>1.0122970408104628</d6p1:double><d6p1:double>0.56461558744892748</d6p1:double><d6p1:double>0.33434626622110442</d6p1:double><d6p1:double>1.1447086404814759</d6p1:double><d6p1:double>0.67493141433903514</d6p1:double><d6p1:double>0.15018277184802464</d6p1:double><d6p1:double>0.99508050425233763</d6p1:double><d6p1:double>0.52551252633274348</d6p1:double><d6p1:double>0.17673150573509075</d6p1:double><d6p1:double>0.77179936398012183</d6p1:double><d6p1:double>0.11015386941489665</d6p1:double><d6p1:double>0.36889068123056357</d6p1:double><d6p1:double>1.0591589860088206</d6p1:double><d6p1:double>-0.11928830527426472</d6p1:double><d6p1:double>-0.03965164173870174</d6p1:double><d6p1:double>0.49059288518226729</d6p1:double><d6p1:double>0.90059185504309291</d6p1:double><d6p1:double>0.71230645766670975</d6p1:double><d6p1:double>0.35738341320640116</d6p1:double><d6p1:double>0.27080889729231328</d6p1:double><d6p1:double>0.24740460913446966</d6p1:double><d6p1:double>1.1746869690636323</d6p1:double><d6p1:double>0.70962920719459721</d6p1:double><d6p1:double>-0.23421620955073902</d6p1:double><d6p1:double>0.802060624378081</d6p1:double></Weights></Neuron><Neuron><Bias>0.0016385166052634388</Bias><Output>1</Output><Weights xmlns:d6p1="http://schemas.microsoft.com/2003/10/Serialization/Arrays"><d6p1:double>0.56139439472360531</d6p1:double><d6p1:double>0.36383434911689216</d6p1:double><d6p1:double>0.80916482406443346</d6p1:double><d6p1:double>0.21735310007365435</d6p1:double><d6p1:double>0.63930544617727092</d6p1:double><d6p1:double>0.73569359865699924</d6p1:double><d6p1:double>-0.49685351804046018</d6p1:double><d6p1:double>0.7332521225296873</d6p1:double><d6p1:double>0.23459881490994369</d6p1:double><d6p1:double>0.729394119645552</d6p1:double><d6p1:double>0.10485277616445317</d6p1:double><d6p1:double>1.1847744744267292</d6p1:double><d6p1:double>0.19016590479012369</d6p1:double><d6p1:double>0.87091377524987579</d6p1:double><d6p1:double>1.0997927019447287</d6p1:double><d6p1:double>0.11490310823105584</d6p1:double><d6p1:double>0.28265097545429357</d6p1:double><d6p1:double>0.20810062694016362</d6p1:double><d6p1:double>0.70537766671465063</d6p1:double><d6p1:double>0.83006655129034423</d6p1:double><d6p1:double>0.68737126756456934</d6p1:double><d6p1:double>0.72677963874161056</d6p1:double><d6p1:double>-0.08616181354239362</d6p1:double><d6p1:double>0.5751918057673342</d6p1:double><d6p1:double>-0.18330501902234156</d6p1:double></Weights></Neuron><Neuron><Bias>0.00057538357786135355</Bias><Output>-1</Output><Weights xmlns:d6p1="http://schemas.microsoft.com/2003/10/Serialization/Arrays"><d6p1:double>0.097501046497756733</d6p1:double><d6p1:double>-0.0035066345552332004</d6p1:double><d6p1:double>0.39647208342022749</d6p1:double><d6p1:double>0.11733184323158365</d6p1:double><d6p1:double>0.063629116236998379</d6p1:double><d6p1:double>0.34054755602509251</d6p1:double><d6p1:double>0.075298652216239118</d6p1:double><d6p1:double>0.015917942799653272</d6p1:double><d6p1:double>0.60171181275845675</d6p1:double><d6p1:double>1.4224962510252679</d6p1:double><d6p1:double>-0.328862828603527</d6p1:double><d6p1:double>0.096217918156677518</d6p1:double><d6p1:double>0.037968688358864668</d6p1:double><d6p1:double>0.43935205799784155</d6p1:double><d6p1:double>-0.35158582651718462</d6p1:double><d6p1:double>-0.37586835926982859</d6p1:double><d6p1:double>0.90567859958828978</d6p1:double><d6p1:double>0.27813803390048725</d6p1:double><d6p1:double>0.46144995276018158</d6p1:double><d6p1:double>1.3280916269753018</d6p1:double><d6p1:double>0.68800015153682159</d6p1:double><d6p1:double>0.68956673733495588</d6p1:double><d6p1:double>-0.093882801476243491</d6p1:double><d6p1:double>0.78839903448323367</d6p1:double><d6p1:double>0.526212256264943</d6p1:double></Weights></Neuron><Neuron><Bias>-0.99996592525960448</Bias><Output>-1</Output><Weights xmlns:d6p1="http://schemas.microsoft.com/2003/10/Serialization/Arrays"><d6p1:double>1.2520034609034856</d6p1:double><d6p1:double>0.62303460180405756</d6p1:double><d6p1:double>0.80997019738536891</d6p1:double><d6p1:double>0.7660537911405646</d6p1:double><d6p1:double>-0.39627148465855422</d6p1:double><d6p1:double>0.38758345052115833</d6p1:double><d6p1:double>0.70855958450452294</d6p1:double><d6p1:double>0.97918741698065059</d6p1:double><d6p1:double>0.60915551014601121</d6p1:double><d6p1:double>0.90911248880240558</d6p1:double><d6p1:double>0.56874045391416739</d6p1:double><d6p1:double>-0.034141306149866622</d6p1:double><d6p1:double>-0.021808062475015346</d6p1:double><d6p1:double>0.49010148348410026</d6p1:double><d6p1:double>-0.25350956579836004</d6p1:double><d6p1:double>-0.46607380739568105</d6p1:double><d6p1:double>0.00074043436757234061</d6p1:double><d6p1:double>-0.19918167208002907</d6p1:double><d6p1:double>-0.69476036651124007</d6p1:double><d6p1:double>-0.28350460687341583</d6p1:double><d6p1:double>0.8368959755253641</d6p1:double><d6p1:double>-0.16944468062995338</d6p1:double><d6p1:double>0.1530620628906976</d6p1:double><d6p1:double>1.1615868788983568</d6p1:double><d6p1:double>1.5877185966474063</d6p1:double></Weights></Neuron><Neuron><Bias>0.0013373523976793012</Bias><Output>1</Output><Weights xmlns:d6p1="http://schemas.microsoft.com/2003/10/Serialization/Arrays"><d6p1:double>0.45186632740714205</d6p1:double><d6p1:double>-0.2161441560158435</d6p1:double><d6p1:double>0.77573516534846376</d6p1:double><d6p1:double>-0.58454866156848817</d6p1:double><d6p1:double>0.033785018019883858</d6p1:double><d6p1:double>-1.1338254196203377</d6p1:double><d6p1:double>-0.99830873797576791</d6p1:double><d6p1:double>-0.49612863776874938</d6p1:double><d6p1:double>-0.054493905746088339</d6p1:double><d6p1:double>0.8868692742903278</d6p1:double><d6p1:double>0.70810818497961037</d6p1:double><d6p1:double>0.27342911588925456</d6p1:double><d6p1:double>-0.36791218855530172</d6p1:double><d6p1:double>0.90266781362014814</d6p1:double><d6p1:double>0.55145039194369427</d6p1:double><d6p1:double>-0.013884939096719742</d6p1:double><d6p1:double>0.53844544987537246</d6p1:double><d6p1:double>-0.41704869453324239</d6p1:double><d6p1:double>1.1295661108154513</d6p1:double><d6p1:double>1.7870862654624144</d6p1:double><d6p1:double>0.1351125048296182</d6p1:double><d6p1:double>1.1746202326201067</d6p1:double><d6p1:double>-0.28914375331000025</d6p1:double><d6p1:double>0.10932408608566453</d6p1:double><d6p1:double>0.76315251500002923</d6p1:double></Weights></Neuron><Neuron><Bias>-0.00034616116946556045</Bias><Output>-1</Output><Weights xmlns:d6p1="http://schemas.microsoft.com/2003/10/Serialization/Arrays"><d6p1:double>1.0756557046522133</d6p1:double><d6p1:double>-0.15454192508827261</d6p1:double><d6p1:double>0.26071722548163323</d6p1:double><d6p1:double>0.28731089018728118</d6p1:double><d6p1:double>-0.29210037117832649</d6p1:double><d6p1:double>1.1700483165410469</d6p1:double><d6p1:double>1.2170585758304524</d6p1:double><d6p1:double>0.28645792199967746</d6p1:double><d6p1:double>0.81810587477833641</d6p1:double><d6p1:double>-0.39052062472236071</d6p1:double><d6p1:double>-0.33476190151990737</d6p1:double><d6p1:double>0.111689316191219</d6p1:double><d6p1:double>1.1682645424790061</d6p1:double><d6p1:double>0.61227120589072892</d6p1:double><d6p1:double>0.72580472446317179</d6p1:double><d6p1:double>0.31507512972845164</d6p1:double><d6p1:double>0.094636961386692434</d6p1:double><d6p1:double>-0.43794365157680532</d6p1:double><d6p1:double>-0.53980795421406014</d6p1:double><d6p1:double>-0.78514080917614681</d6p1:double><d6p1:double>0.841573107550578</d6p1:double><d6p1:double>-0.19274879058519595</d6p1:double><d6p1:double>0.9865375899496186</d6p1:double><d6p1:double>0.58052576631901587</d6p1:double><d6p1:double>-0.074954314073473485</d6p1:double></Weights></Neuron><Neuron><Bias>-1.0007909649098043</Bias><Output>-1</Output><Weights xmlns:d6p1="http://schemas.microsoft.com/2003/10/Serialization/Arrays"><d6p1:double>1.0068823742667434</d6p1:double><d6p1:double>-0.035705436053652388</d6p1:double><d6p1:double>0.65974199556443569</d6p1:double><d6p1:double>0.66079626089341836</d6p1:double><d6p1:double>0.32301879757147139</d6p1:double><d6p1:double>0.78232484998797291</d6p1:double><d6p1:double>0.49943696256758574</d6p1:double><d6p1:double>-0.10343162190762802</d6p1:double><d6p1:double>0.21339027361313773</d6p1:double><d6p1:double>0.843736220068848</d6p1:double><d6p1:double>0.55757047767749113</d6p1:double><d6p1:double>0.24519489692642607</d6p1:double><d6p1:double>0.33871697638968</d6p1:double><d6p1:double>0.21005310032234992</d6p1:double><d6p1:double>0.73703576751278088</d6p1:double><d6p1:double>0.46266945097193896</d6p1:double><d6p1:double>0.378529065474552</d6p1:double><d6p1:double>0.5325105783352343</d6p1:double><d6p1:double>0.52277931564263846</d6p1:double><d6p1:double>0.19893791287464813</d6p1:double><d6p1:double>-0.093033539460304862</d6p1:double><d6p1:double>1.307391968159004</d6p1:double><d6p1:double>1.2571015540571833</d6p1:double><d6p1:double>0.51529372104987459</d6p1:double><d6p1:double>0.71635025171747213</d6p1:double></Weights></Neuron><Neuron><Bias>0.0010129938940117563</Bias><Output>-1</Output><Weights xmlns:d6p1="http://schemas.microsoft.com/2003/10/Serialization/Arrays"><d6p1:double>-0.088089919818059553</d6p1:double><d6p1:double>0.64873411535881309</d6p1:double><d6p1:double>-0.003931245787468003</d6p1:double><d6p1:double>0.66086266987510334</d6p1:double><d6p1:double>1.31617092221104</d6p1:double><d6p1:double>-0.25232912207821484</d6p1:double><d6p1:double>-0.5971056908438539</d6p1:double><d6p1:double>0.82208125658683306</d6p1:double><d6p1:double>0.82698299971987177</d6p1:double><d6p1:double>-0.063110705761895314</d6p1:double><d6p1:double>0.83347435693131477</d6p1:double><d6p1:double>0.92295194416053328</d6p1:double><d6p1:double>0.18655016895627907</d6p1:double><d6p1:double>1.3589097589554051</d6p1:double><d6p1:double>-0.58464576642615651</d6p1:double><d6p1:double>0.19814252342381741</d6p1:double><d6p1:double>-0.51912081812474886</d6p1:double><d6p1:double>0.4688087912124061</d6p1:double><d6p1:double>0.30118364224086325</d6p1:double><d6p1:double>1.6098956694808217</d6p1:double><d6p1:double>0.50881700992607548</d6p1:double><d6p1:double>0.00756587958246142</d6p1:double><d6p1:double>0.049836724642942136</d6p1:double><d6p1:double>-0.23949943316502395</d6p1:double><d6p1:double>0.388509175313821</d6p1:double></Weights></Neuron><Neuron><Bias>1.0418721090538294E-05</Bias><Output>1</Output><Weights xmlns:d6p1="http://schemas.microsoft.com/2003/10/Serialization/Arrays"><d6p1:double>-0.1415584100323698</d6p1:double><d6p1:double>0.5287965657459528</d6p1:double><d6p1:double>-0.04050807532800782</d6p1:double><d6p1:double>0.51305292170625327</d6p1:double><d6p1:double>-0.28214613875842959</d6p1:double><d6p1:double>0.10280757782035953</d6p1:double><d6p1:double>0.982084050543299</d6p1:double><d6p1:double>1.1006433326448237</d6p1:double><d6p1:double>0.16001479663627932</d6p1:double><d6p1:double>0.16424092167453011</d6p1:double><d6p1:double>0.14380432148485742</d6p1:double><d6p1:double>0.84749269991543308</d6p1:double><d6p1:double>0.23950470768803245</d6p1:double><d6p1:double>0.62330153203287764</d6p1:double><d6p1:double>1.2391646040595763</d6p1:double><d6p1:double>0.3048006954544783</d6p1:double><d6p1:double>0.45719167944186462</d6p1:double><d6p1:double>0.24469907627835816</d6p1:double><d6p1:double>0.42479444316703596</d6p1:double><d6p1:double>1.0682515031428677</d6p1:double><d6p1:double>0.38229877356009484</d6p1:double><d6p1:double>0.57943247736620063</d6p1:double><d6p1:double>0.43502857858156874</d6p1:double><d6p1:double>0.86459594726009459</d6p1:double><d6p1:double>0.81430336655467828</d6p1:double></Weights></Neuron><Neuron><Bias>-0.99992365363318936</Bias><Output>-1</Output><Weights xmlns:d6p1="http://schemas.microsoft.com/2003/10/Serialization/Arrays"><d6p1:double>0.39851845956072562</d6p1:double><d6p1:double>0.72444726032655116</d6p1:double><d6p1:double>0.35441664889131741</d6p1:double><d6p1:double>1.0014023682104007</d6p1:double><d6p1:double>0.56705986239172435</d6p1:double><d6p1:double>0.79422189901649354</d6p1:double><d6p1:double>0.14855173616468226</d6p1:double><d6p1:double>-0.14370101456734072</d6p1:double><d6p1:double>0.89688734108941</d6p1:double><d6p1:double>0.79255082593219772</d6p1:double><d6p1:double>0.43416898606564719</d6p1:double><d6p1:double>0.30818467772275465</d6p1:double><d6p1:double>0.72802364494600968</d6p1:double><d6p1:double>0.54226164616776307</d6p1:double><d6p1:double>0.74166151807394565</d6p1:double><d6p1:double>0.17782585382589169</d6p1:double><d6p1:double>0.44725273305427915</d6p1:double><d6p1:double>0.49142961444439393</d6p1:double><d6p1:double>0.56908471666053617</d6p1:double><d6p1:double>0.59047957191340583</d6p1:double><d6p1:double>1.1236194234276633</d6p1:double><d6p1:double>0.55095693083484043</d6p1:double><d6p1:double>0.98745295508075082</d6p1:double><d6p1:double>0.51020560810056492</d6p1:double><d6p1:double>1.0898710245179113</d6p1:double></Weights></Neuron><Neuron><Bias>-0.00017423597194014576</Bias><Output>1</Output><Weights xmlns:d6p1="http://schemas.microsoft.com/2003/10/Serialization/Arrays"><d6p1:double>-0.95734496526955559</d6p1:double><d6p1:double>0.50223175515561724</d6p1:double><d6p1:double>0.75065455886851185</d6p1:double><d6p1:double>1.2559836903646784</d6p1:double><d6p1:double>0.015605704647415808</d6p1:double><d6p1:double>-0.12920300508936458</d6p1:double><d6p1:double>0.84884156108921149</d6p1:double><d6p1:double>0.16201906895399146</d6p1:double><d6p1:double>0.62437542680593083</d6p1:double><d6p1:double>0.16040666382648361</d6p1:double><d6p1:double>-0.020653744240473036</d6p1:double><d6p1:double>-0.020980660210767419</d6p1:double><d6p1:double>0.33782649279703192</d6p1:double><d6p1:double>-0.16098719762810973</d6p1:double><d6p1:double>1.016598446829603</d6p1:double><d6p1:double>-0.10287927934208324</d6p1:double><d6p1:double>0.47858611922446576</d6p1:double><d6p1:double>0.26882764314010971</d6p1:double><d6p1:double>0.34838851212996264</d6p1:double><d6p1:double>0.75069717622879284</d6p1:double><d6p1:double>-0.10829675315372134</d6p1:double><d6p1:double>0.08735695152999659</d6p1:double><d6p1:double>-0.32437090768776178</d6p1:double><d6p1:double>0.36165506319837293</d6p1:double><d6p1:double>-0.47246603722024733</d6p1:double></Weights></Neuron><Neuron><Bias>-9.5620019893224786E-06</Bias><Output>-1</Output><Weights xmlns:d6p1="http://schemas.microsoft.com/2003/10/Serialization/Arrays"><d6p1:double>0.19139347845884641</d6p1:double><d6p1:double>0.5892618196468884</d6p1:double><d6p1:double>0.032645501971277975</d6p1:double><d6p1:double>0.76356133824702543</d6p1:double><d6p1:double>1.514554493351669</d6p1:double><d6p1:double>-0.22059741967091015</d6p1:double><d6p1:double>1.3924295851210484</d6p1:double><d6p1:double>-0.32937856498209483</d6p1:double><d6p1:double>0.67294021416694094</d6p1:double><d6p1:double>-0.21954543311092817</d6p1:double><d6p1:double>-0.8505549774730079</d6p1:double><d6p1:double>-0.076608458372287622</d6p1:double><d6p1:double>0.5966162086152027</d6p1:double><d6p1:double>0.35368727835792929</d6p1:double><d6p1:double>-0.26314008497801578</d6p1:double><d6p1:double>0.73762056990308711</d6p1:double><d6p1:double>0.29059570964262871</d6p1:double><d6p1:double>0.011809620347923369</d6p1:double><d6p1:double>0.712519884995474</d6p1:double><d6p1:double>0.43764123470168159</d6p1:double><d6p1:double>0.63073800104651878</d6p1:double><d6p1:double>-0.11671526998452032</d6p1:double><d6p1:double>1.020869633622939</d6p1:double><d6p1:double>0.45296704385714209</d6p1:double><d6p1:double>-0.56008872941150434</d6p1:double></Weights></Neuron><Neuron><Bias>0.0001454456490283</Bias><Output>1</Output><Weights xmlns:d6p1="http://schemas.microsoft.com/2003/10/Serialization/Arrays"><d6p1:double>0.4493565054465789</d6p1:double><d6p1:double>0.43832862470716583</d6p1:double><d6p1:double>0.64671739361255132</d6p1:double><d6p1:double>-0.10731735253984308</d6p1:double><d6p1:double>0.20103947347213913</d6p1:double><d6p1:double>0.15250330092103692</d6p1:double><d6p1:double>0.50903167550482331</d6p1:double><d6p1:double>0.32002077565507431</d6p1:double><d6p1:double>0.9844467013237167</d6p1:double><d6p1:double>0.25942515098613012</d6p1:double><d6p1:double>1.0169459984294806</d6p1:double><d6p1:double>0.44769575403647904</d6p1:double><d6p1:double>0.78857425667110281</d6p1:double><d6p1:double>0.1639505542033462</d6p1:double><d6p1:double>0.50915201503301943</d6p1:double><d6p1:double>1.0548464311033794</d6p1:double><d6p1:double>0.80111264364881962</d6p1:double><d6p1:double>0.8114883693376489</d6p1:double><d6p1:double>0.78663356622407909</d6p1:double><d6p1:double>0.48217852181914089</d6p1:double><d6p1:double>0.56386365744794686</d6p1:double><d6p1:double>0.74794143325899287</d6p1:double><d6p1:double>0.96792930422842793</d6p1:double><d6p1:double>0.68614514418014283</d6p1:double><d6p1:double>0.90975659614501847</d6p1:double></Weights></Neuron><Neuron><Bias>6.7697112495057431E-05</Bias><Output>1</Output><Weights xmlns:d6p1="http://schemas.microsoft.com/2003/10/Serialization/Arrays"><d6p1:double>-0.18418100469414839</d6p1:double><d6p1:double>0.61278983264185749</d6p1:double><d6p1:double>0.57059180675371624</d6p1:double><d6p1:double>-0.15305142834069649</d6p1:double><d6p1:double>0.70418373806284229</d6p1:double><d6p1:double>0.0050042564444257916</d6p1:double><d6p1:double>0.66169939013461621</d6p1:double><d6p1:double>0.738620243949392</d6p1:double><d6p1:double>0.2927307001302919</d6p1:double><d6p1:double>0.43645691433809314</d6p1:double><d6p1:double>0.51969890701019283</d6p1:double><d6p1:double>0.40101330137014879</d6p1:double><d6p1:double>0.44037249366312159</d6p1:double><d6p1:double>0.388518159701126</d6p1:double><d6p1:double>0.87246621875068231</d6p1:double><d6p1:double>0.20113287610785319</d6p1:double><d6p1:double>1.5725682693008745</d6p1:double><d6p1:double>0.45561133176671575</d6p1:double><d6p1:double>0.82690725123432052</d6p1:double><d6p1:double>0.952312357679558</d6p1:double><d6p1:double>0.6362487890128713</d6p1:double><d6p1:double>0.0996880681972739</d6p1:double><d6p1:double>0.80730110013723411</d6p1:double><d6p1:double>0.47295955467635742</d6p1:double><d6p1:double>0.22591281917265241</d6p1:double></Weights></Neuron><Neuron><Bias>-1.0001417485318977</Bias><Output>-1</Output><Weights xmlns:d6p1="http://schemas.microsoft.com/2003/10/Serialization/Arrays"><d6p1:double>0.37670942486627934</d6p1:double><d6p1:double>0.68786059946740929</d6p1:double><d6p1:double>0.851609501926772</d6p1:double><d6p1:double>1.1956201941490625</d6p1:double><d6p1:double>0.30130230516145962</d6p1:double><d6p1:double>1.2081089634263678</d6p1:double><d6p1:double>0.0491988977943453</d6p1:double><d6p1:double>0.37832988312794141</d6p1:double><d6p1:double>1.1105048894337188</d6p1:double><d6p1:double>0.93576122776458992</d6p1:double><d6p1:double>0.24540325649163194</d6p1:double><d6p1:double>0.95242721490710425</d6p1:double><d6p1:double>0.71558553638618094</d6p1:double><d6p1:double>0.20268917556314633</d6p1:double><d6p1:double>0.23936732903677754</d6p1:double><d6p1:double>0.060591605890285727</d6p1:double><d6p1:double>0.56161910109835556</d6p1:double><d6p1:double>0.794491539829281</d6p1:double><d6p1:double>0.0789133675170334</d6p1:double><d6p1:double>0.51862524488986972</d6p1:double><d6p1:double>-0.03022086732458281</d6p1:double><d6p1:double>0.36342491465144533</d6p1:double><d6p1:double>0.55580328597157735</d6p1:double><d6p1:double>0.59127476573892512</d6p1:double><d6p1:double>0.53225707009695511</d6p1:double></Weights></Neuron><Neuron><Bias>-1.000299121837622</Bias><Output>-1</Output><Weights xmlns:d6p1="http://schemas.microsoft.com/2003/10/Serialization/Arrays"><d6p1:double>-0.48727507044797386</d6p1:double><d6p1:double>-0.4430203616691375</d6p1:double><d6p1:double>-0.42364796208580019</d6p1:double><d6p1:double>-0.12360904602245192</d6p1:double><d6p1:double>0.90598118677141948</d6p1:double><d6p1:double>0.30772242093835422</d6p1:double><d6p1:double>0.61585323144162651</d6p1:double><d6p1:double>0.34937640564292949</d6p1:double><d6p1:double>1.1172206186327791</d6p1:double><d6p1:double>1.0874724135648166</d6p1:double><d6p1:double>0.27116248762918993</d6p1:double><d6p1:double>0.55380090343774968</d6p1:double><d6p1:double>-0.30832725830562763</d6p1:double><d6p1:double>0.90399818703117019</d6p1:double><d6p1:double>0.15529917147232536</d6p1:double><d6p1:double>1.1958735060621835</d6p1:double><d6p1:double>0.2806753688999219</d6p1:double><d6p1:double>1.0164266651114573</d6p1:double><d6p1:double>1.0129484622827327</d6p1:double><d6p1:double>0.051700085787270735</d6p1:double><d6p1:double>0.76602949167294354</d6p1:double><d6p1:double>1.1091544991866091</d6p1:double><d6p1:double>0.32420470355273828</d6p1:double><d6p1:double>0.14275728526923487</d6p1:double><d6p1:double>0.26029994886332181</d6p1:double></Weights></Neuron><Neuron><Bias>-0.00030968224460093828</Bias><Output>-1</Output><Weights xmlns:d6p1="http://schemas.microsoft.com/2003/10/Serialization/Arrays"><d6p1:double>0.1043499479381409</d6p1:double><d6p1:double>-0.15408975744312906</d6p1:double><d6p1:double>0.321333264205203</d6p1:double><d6p1:double>0.866694634258335</d6p1:double><d6p1:double>0.79849056383599726</d6p1:double><d6p1:double>-0.12010323611340044</d6p1:double><d6p1:double>0.28682721598926164</d6p1:double><d6p1:double>-0.19921440008037564</d6p1:double><d6p1:double>0.66396756862505746</d6p1:double><d6p1:double>0.10768164371348586</d6p1:double><d6p1:double>0.53489010990638186</d6p1:double><d6p1:double>0.63002829637942614</d6p1:double><d6p1:double>0.43165668299568805</d6p1:double><d6p1:double>0.57312790775380473</d6p1:double><d6p1:double>0.360663957907501</d6p1:double><d6p1:double>1.0052020105365216</d6p1:double><d6p1:double>0.73850217430960152</d6p1:double><d6p1:double>0.74459789375384722</d6p1:double><d6p1:double>0.97319533261131419</d6p1:double><d6p1:double>0.37151542716368852</d6p1:double><d6p1:double>0.98192563323821946</d6p1:double><d6p1:double>0.29895317763715684</d6p1:double><d6p1:double>0.44783907130472017</d6p1:double><d6p1:double>0.3101923623825788</d6p1:double><d6p1:double>0.92989383499613787</d6p1:double></Weights></Neuron><Neuron><Bias>-0.99900245789664877</Bias><Output>1</Output><Weights xmlns:d6p1="http://schemas.microsoft.com/2003/10/Serialization/Arrays"><d6p1:double>0.17110078606279439</d6p1:double><d6p1:double>0.90861349269837466</d6p1:double><d6p1:double>1.349144763971573</d6p1:double><d6p1:double>-0.30686595802868671</d6p1:double><d6p1:double>-0.010084123431666774</d6p1:double><d6p1:double>0.1080390136933753</d6p1:double><d6p1:double>0.76400358983723116</d6p1:double><d6p1:double>1.2377441378545904</d6p1:double><d6p1:double>-0.13566438663770775</d6p1:double><d6p1:double>0.14212223415475991</d6p1:double><d6p1:double>-0.16015753613755646</d6p1:double><d6p1:double>-0.54375070459454478</d6p1:double><d6p1:double>1.1095119093390706</d6p1:double><d6p1:double>1.2014171247541081</d6p1:double><d6p1:double>0.36663150652753879</d6p1:double><d6p1:double>0.68055437361694671</d6p1:double><d6p1:double>0.033380293277830063</d6p1:double><d6p1:double>0.38215165083259439</d6p1:double><d6p1:double>0.42405100300165655</d6p1:double><d6p1:double>0.80725988737025667</d6p1:double><d6p1:double>0.061554724272542147</d6p1:double><d6p1:double>0.737895556016004</d6p1:double><d6p1:double>0.097519383436013185</d6p1:double><d6p1:double>0.47666791107268663</d6p1:double><d6p1:double>-0.12705325669212716</d6p1:double></Weights></Neuron><Neuron><Bias>0.00034852460931607883</Bias><Output>1</Output><Weights xmlns:d6p1="http://schemas.microsoft.com/2003/10/Serialization/Arrays"><d6p1:double>0.57462209682003518</d6p1:double><d6p1:double>-0.11216991444062439</d6p1:double><d6p1:double>0.4603674226972343</d6p1:double><d6p1:double>1.1031377620556755</d6p1:double><d6p1:double>0.76275674087833756</d6p1:double><d6p1:double>1.2151409429566884</d6p1:double><d6p1:double>0.929433124330739</d6p1:double><d6p1:double>0.60644626805584845</d6p1:double><d6p1:double>1.0176736586445336</d6p1:double><d6p1:double>0.6219456266787925</d6p1:double><d6p1:double>0.0843101615789436</d6p1:double><d6p1:double>0.66712192303943862</d6p1:double><d6p1:double>0.98636706948246677</d6p1:double><d6p1:double>-0.25438746186985561</d6p1:double><d6p1:double>0.66212490754837894</d6p1:double><d6p1:double>0.90726779355566223</d6p1:double><d6p1:double>0.1247954514135671</d6p1:double><d6p1:double>0.73007188937071865</d6p1:double><d6p1:double>0.52616454796096346</d6p1:double><d6p1:double>0.40213342311551137</d6p1:double><d6p1:double>-0.41400189986352209</d6p1:double><d6p1:double>0.853862824712232</d6p1:double><d6p1:double>0.69194920213293531</d6p1:double><d6p1:double>1.1886861264353346</d6p1:double><d6p1:double>-0.1547858203782127</d6p1:double></Weights></Neuron><Neuron><Bias>-1.0007835152805291</Bias><Output>-1</Output><Weights xmlns:d6p1="http://schemas.microsoft.com/2003/10/Serialization/Arrays"><d6p1:double>1.4489700555628893</d6p1:double><d6p1:double>-0.666952437872949</d6p1:double><d6p1:double>0.45284316007219044</d6p1:double><d6p1:double>0.00079623363199742686</d6p1:double><d6p1:double>0.14355068019343387</d6p1:double><d6p1:double>0.999591114364045</d6p1:double><d6p1:double>0.76238107232826346</d6p1:double><d6p1:double>0.7070647090512947</d6p1:double><d6p1:double>0.76019484302788176</d6p1:double><d6p1:double>0.97835421118607857</d6p1:double><d6p1:double>0.34880901459551578</d6p1:double><d6p1:double>0.64539765845479125</d6p1:double><d6p1:double>0.44518941929797834</d6p1:double><d6p1:double>0.089327546194109389</d6p1:double><d6p1:double>0.42048590022146221</d6p1:double><d6p1:double>0.45813421185811837</d6p1:double><d6p1:double>-0.25111420981644333</d6p1:double><d6p1:double>1.2128852039520286</d6p1:double><d6p1:double>0.1160825724225124</d6p1:double><d6p1:double>-0.26351747922590785</d6p1:double><d6p1:double>-0.35409458589916215</d6p1:double><d6p1:double>0.4168514509768067</d6p1:double><d6p1:double>0.32950740987533061</d6p1:double><d6p1:double>0.15120888223996956</d6p1:double><d6p1:double>-0.46106695444329265</d6p1:double></Weights></Neuron><Neuron><Bias>-1.0002413993231871</Bias><Output>-1</Output><Weights xmlns:d6p1="http://schemas.microsoft.com/2003/10/Serialization/Arrays"><d6p1:double>0.72443148903408061</d6p1:double><d6p1:double>0.97422220024419681</d6p1:double><d6p1:double>0.18814477612404307</d6p1:double><d6p1:double>0.76424130952899549</d6p1:double><d6p1:double>-0.16481707268493534</d6p1:double><d6p1:double>0.27866274995942181</d6p1:double><d6p1:double>0.79322202889281446</d6p1:double><d6p1:double>0.044299711099383465</d6p1:double><d6p1:double>0.0038135641925815551</d6p1:double><d6p1:double>0.82915666078404682</d6p1:double><d6p1:double>0.48065984821212865</d6p1:double><d6p1:double>0.57780825821158044</d6p1:double><d6p1:double>0.97936047933338533</d6p1:double><d6p1:double>0.12344750383673084</d6p1:double><d6p1:double>0.6778166779123439</d6p1:double><d6p1:double>0.26929269738609468</d6p1:double><d6p1:double>0.39599673162428861</d6p1:double><d6p1:double>0.3891610097010425</d6p1:double><d6p1:double>0.25243775149680914</d6p1:double><d6p1:double>0.9341476972805326</d6p1:double><d6p1:double>0.758324014305284</d6p1:double><d6p1:double>0.0168579067445506</d6p1:double><d6p1:double>0.46518854792852654</d6p1:double><d6p1:double>0.26869089949569225</d6p1:double><d6p1:double>1.0434260049321114</d6p1:double></Weights></Neuron><Neuron><Bias>-0.00061295080090697336</Bias><Output>-1</Output><Weights xmlns:d6p1="http://schemas.microsoft.com/2003/10/Serialization/Arrays"><d6p1:double>0.23808904365089681</d6p1:double><d6p1:double>0.78670111346803662</d6p1:double><d6p1:double>0.23919736608600187</d6p1:double><d6p1:double>0.582868514085797</d6p1:double><d6p1:double>0.81546592570219167</d6p1:double><d6p1:double>-0.46668647983587641</d6p1:double><d6p1:double>0.31381561227788679</d6p1:double><d6p1:double>-0.26352736789652631</d6p1:double><d6p1:double>0.24271020683197725</d6p1:double><d6p1:double>-0.39029087839749171</d6p1:double><d6p1:double>-0.13232653416378076</d6p1:double><d6p1:double>1.353525843946791</d6p1:double><d6p1:double>0.56940100980555053</d6p1:double><d6p1:double>-0.024665452454600379</d6p1:double><d6p1:double>0.65829924549089391</d6p1:double><d6p1:double>0.40951630939356209</d6p1:double><d6p1:double>0.18096736466271807</d6p1:double><d6p1:double>-0.27773740315444478</d6p1:double><d6p1:double>0.26460040018188385</d6p1:double><d6p1:double>1.2388888924386923</d6p1:double><d6p1:double>0.72493792584124128</d6p1:double><d6p1:double>-0.04461673985707533</d6p1:double><d6p1:double>0.77420760198491623</d6p1:double><d6p1:double>0.12342022259564794</d6p1:double><d6p1:double>1.4141444233029152</d6p1:double></Weights></Neuron><Neuron><Bias>-0.9986872811921389</Bias><Output>-1</Output><Weights xmlns:d6p1="http://schemas.microsoft.com/2003/10/Serialization/Arrays"><d6p1:double>0.79269390034190512</d6p1:double><d6p1:double>0.3122408729799514</d6p1:double><d6p1:double>0.42461793185991936</d6p1:double><d6p1:double>0.12015589745012359</d6p1:double><d6p1:double>0.14705477033581996</d6p1:double><d6p1:double>1.0724714896351062</d6p1:double><d6p1:double>0.021000326116075663</d6p1:double><d6p1:double>0.74358550882319885</d6p1:double><d6p1:double>0.46589982915797212</d6p1:double><d6p1:double>0.8758594418945792</d6p1:double><d6p1:double>0.55296528094605724</d6p1:double><d6p1:double>0.34278490110877641</d6p1:double><d6p1:double>0.263136282063676</d6p1:double><d6p1:double>0.88672798378833451</d6p1:double><d6p1:double>-0.09390137005918156</d6p1:double><d6p1:double>0.95596730201027069</d6p1:double><d6p1:double>0.93241413620368552</d6p1:double><d6p1:double>1.1140973978034012</d6p1:double><d6p1:double>-0.098793031866432818</d6p1:double><d6p1:double>0.28785349301261082</d6p1:double><d6p1:double>0.6124045456892</d6p1:double><d6p1:double>-0.048956292278721045</d6p1:double><d6p1:double>1.0624963463106114</d6p1:double><d6p1:double>0.80983181768018808</d6p1:double><d6p1:double>0.02941001105692714</d6p1:double></Weights></Neuron><Neuron><Bias>-0.0011110647267804231</Bias><Output>-1</Output><Weights xmlns:d6p1="http://schemas.microsoft.com/2003/10/Serialization/Arrays"><d6p1:double>0.63963433294587124</d6p1:double><d6p1:double>0.92557550327602234</d6p1:double><d6p1:double>-0.091725615165146643</d6p1:double><d6p1:double>0.48698623146915693</d6p1:double><d6p1:double>0.55370892714257192</d6p1:double><d6p1:double>0.856403850987759</d6p1:double><d6p1:double>0.65080269358592324</d6p1:double><d6p1:double>0.86851167717470967</d6p1:double><d6p1:double>0.14857932805283675</d6p1:double><d6p1:double>0.80776676666520308</d6p1:double><d6p1:double>0.64221818671488273</d6p1:double><d6p1:double>0.18820411908233922</d6p1:double><d6p1:double>-0.30931881519432647</d6p1:double><d6p1:double>-0.10766756604643973</d6p1:double><d6p1:double>0.095542477957981861</d6p1:double><d6p1:double>-0.60321029023493944</d6p1:double><d6p1:double>0.52689719879925212</d6p1:double><d6p1:double>0.76617370118010641</d6p1:double><d6p1:double>-0.18256603574814212</d6p1:double><d6p1:double>0.91105899888396769</d6p1:double><d6p1:double>-0.236144651516862</d6p1:double><d6p1:double>1.3983716350992799</d6p1:double><d6p1:double>0.15269169083636214</d6p1:double><d6p1:double>-0.16848077631029051</d6p1:double><d6p1:double>0.68949248520602835</d6p1:double></Weights></Neuron><Neuron><Bias>-0.000687337667183084</Bias><Output>-1</Output><Weights xmlns:d6p1="http://schemas.microsoft.com/2003/10/Serialization/Arrays"><d6p1:double>1.473936478713417</d6p1:double><d6p1:double>-0.25372773376186392</d6p1:double><d6p1:double>1.1041213976410749</d6p1:double><d6p1:double>0.59512531419063519</d6p1:double><d6p1:double>0.668181752278348</d6p1:double><d6p1:double>-0.38883657280755807</d6p1:double><d6p1:double>0.50886432216761757</d6p1:double><d6p1:double>-0.62897936004387889</d6p1:double><d6p1:double>0.20882851946073022</d6p1:double><d6p1:double>0.015311077386968935</d6p1:double><d6p1:double>0.63017538787606642</d6p1:double><d6p1:double>-0.29679453183055543</d6p1:double><d6p1:double>0.44785155513590263</d6p1:double><d6p1:double>0.38048398342292827</d6p1:double><d6p1:double>0.52545233905028732</d6p1:double><d6p1:double>0.5315443485008996</d6p1:double><d6p1:double>-0.12599871931469556</d6p1:double><d6p1:double>0.76107580252778528</d6p1:double><d6p1:double>-0.1359281350638486</d6p1:double><d6p1:double>-0.15281988991546322</d6p1:double><d6p1:double>0.73300875885303929</d6p1:double><d6p1:double>0.554378368549912</d6p1:double><d6p1:double>0.78806966575561876</d6p1:double><d6p1:double>0.83356086393952933</d6p1:double><d6p1:double>0.16396933774685277</d6p1:double></Weights></Neuron><Neuron><Bias>-0.99863456405365036</Bias><Output>1</Output><Weights xmlns:d6p1="http://schemas.microsoft.com/2003/10/Serialization/Arrays"><d6p1:double>-0.29666054862018548</d6p1:double><d6p1:double>0.84132077356500423</d6p1:double><d6p1:double>0.034190899880964687</d6p1:double><d6p1:double>-0.37086176779795715</d6p1:double><d6p1:double>-0.24866864284315893</d6p1:double><d6p1:double>0.61536531551845575</d6p1:double><d6p1:double>0.47930729902778146</d6p1:double><d6p1:double>0.57048759731176057</d6p1:double><d6p1:double>0.33256437663741217</d6p1:double><d6p1:double>0.19585043330456017</d6p1:double><d6p1:double>1.0737703398657426</d6p1:double><d6p1:double>0.51723177006568877</d6p1:double><d6p1:double>0.337861616568365</d6p1:double><d6p1:double>0.67254891559309948</d6p1:double><d6p1:double>0.7007201953029798</d6p1:double><d6p1:double>0.94027076405003385</d6p1:double><d6p1:double>0.54190548053386334</d6p1:double><d6p1:double>0.521086036077006</d6p1:double><d6p1:double>0.89618402445466561</d6p1:double><d6p1:double>0.42646081394172297</d6p1:double><d6p1:double>0.20732332156919725</d6p1:double><d6p1:double>0.241239566412931</d6p1:double><d6p1:double>0.94283394617829641</d6p1:double><d6p1:double>0.82985265197715308</d6p1:double><d6p1:double>0.077281296884463876</d6p1:double></Weights></Neuron><Neuron><Bias>-1.0018455774843329</Bias><Output>-1</Output><Weights 