<?xml version="1.0" encoding="utf-16"?><NeuralNetwork xmlns:i="http://www.w3.org/2001/XMLSchema-instance" xmlns="http://schemas.datacontract.org/2004/07/AE.MachineLearning.NeuralNet.Core"><_networkLayers><NetworkLayer><_isInputLayer>true</_isInputLayer><_neurons><Neuron><Bias>0</Bias><Output>-1003.888796</Output><Weights xmlns:d6p1="http://schemas.microsoft.com/2003/10/Serialization/Arrays"><d6p1:double>1</d6p1:double></Weights></Neuron><Neuron><Bias>0</Bias><Output>99.7346757</Output><Weights xmlns:d6p1="http://schemas.microsoft.com/2003/10/Serialization/Arrays"><d6p1:double>1</d6p1:double></Weights></Neuron><Neuron><Bias>0</Bias><Output>656.188731</Output><Weights xmlns:d6p1="http://schemas.microsoft.com/2003/10/Serialization/Arrays"><d6p1:double>1</d6p1:double></Weights></Neuron><Neuron><Bias>0</Bias><Output>-101.2632666</Output><Weights xmlns:d6p1="http://schemas.microsoft.com/2003/10/Serialization/Arrays"><d6p1:double>1</d6p1:double></Weights></Neuron><Neuron><Bias>0</Bias><Output>-712.5407464</Output><Weights xmlns:d6p1="http://schemas.microsoft.com/2003/10/Serialization/Arrays"><d6p1:double>1</d6p1:double></Weights></Neuron><Neuron><Bias>0</Bias><Output>-218.8568689</Output><Weights xmlns:d6p1="http://schemas.microsoft.com/2003/10/Serialization/Arrays"><d6p1:double>1</d6p1:double></Weights></Neuron><Neuron><Bias>0</Bias><Output>-543.6679743</Output><Weights xmlns:d6p1="http://schemas.microsoft.com/2003/10/Serialization/Arrays"><d6p1:double>1</d6p1:double></Weights></Neuron><Neuron><Bias>0</Bias><Output>256.0470238</Output><Weights xmlns:d6p1="http://schemas.microsoft.com/2003/10/Serialization/Arrays"><d6p1:double>1</d6p1:double></Weights></Neuron><Neuron><Bias>0</Bias><Output>-375.9740615</Output><Weights xmlns:d6p1="http://schemas.microsoft.com/2003/10/Serialization/Arrays"><d6p1:double>1</d6p1:double></Weights></Neuron><Neuron><Bias>0</Bias><Output>139.6749711</Output><Weights xmlns:d6p1="http://schemas.microsoft.com/2003/10/Serialization/Arrays"><d6p1:double>1</d6p1:double></Weights></Neuron><Neuron><Bias>0</Bias><Output>112.0551432</Output><Weights xmlns:d6p1="http://schemas.microsoft.com/2003/10/Serialization/Arrays"><d6p1:double>1</d6p1:double></Weights></Neuron><Neuron><Bias>0</Bias><Output>55.11060021</Output><Weights xmlns:d6p1="http://schemas.microsoft.com/2003/10/Serialization/Arrays"><d6p1:double>1</d6p1:double></Weights></Neuron><Neuron><Bias>0</Bias><Output>583.974903</Output><Weights xmlns:d6p1="http://schemas.microsoft.com/2003/10/Serialization/Arrays"><d6p1:double>1</d6p1:double></Weights></Neuron><Neuron><Bias>0</Bias><Output>-129.8331591</Output><Weights xmlns:d6p1="http://schemas.microsoft.com/2003/10/Serialization/Arrays"><d6p1:double>1</d6p1:double></Weights></Neuron><Neuron><Bias>0</Bias><Output>384.374502</Output><Weights xmlns:d6p1="http://schemas.microsoft.com/2003/10/Serialization/Arrays"><d6p1:double>1</d6p1:double></Weights></Neuron><Neuron><Bias>0</Bias><Output>707.6621492</Output><Weights xmlns:d6p1="http://schemas.microsoft.com/2003/10/Serialization/Arrays"><d6p1:double>1</d6p1:double></Weights></Neuron><Neuron><Bias>0</Bias><Output>-206.0695753</Output><Weights xmlns:d6p1="http://schemas.microsoft.com/2003/10/Serialization/Arrays"><d6p1:double>1</d6p1:double></Weights></Neuron><Neuron><Bias>0</Bias><Output>27.86720355</Output><Weights xmlns:d6p1="http://schemas.microsoft.com/2003/10/Serialization/Arrays"><d6p1:double>1</d6p1:double></Weights></Neuron><Neuron><Bias>0</Bias><Output>452.5315824</Output><Weights xmlns:d6p1="http://schemas.microsoft.com/2003/10/Serialization/Arrays"><d6p1:double>1</d6p1:double></Weights></Neuron><Neuron><Bias>0</Bias><Output>108.9841613</Output><Weights xmlns:d6p1="http://schemas.microsoft.com/2003/10/Serialization/Arrays"><d6p1:double>1</d6p1:double></Weights></Neuron><Neuron><Bias>0</Bias><Output>-327.436527</Output><Weights xmlns:d6p1="http://schemas.microsoft.com/2003/10/Serialization/Arrays"><d6p1:double>1</d6p1:double></Weights></Neuron><Neuron><Bias>0</Bias><Output>-386.1563253</Output><Weights xmlns:d6p1="http://schemas.microsoft.com/2003/10/Serialization/Arrays"><d6p1:double>1</d6p1:double></Weights></Neuron><Neuron><Bias>0</Bias><Output>-558.0306571</Output><Weights xmlns:d6p1="http://schemas.microsoft.com/2003/10/Serialization/Arrays"><d6p1:double>1</d6p1:double></Weights></Neuron><Neuron><Bias>0</Bias><Output>790.9654693</Output><Weights xmlns:d6p1="http://schemas.microsoft.com/2003/10/Serialization/Arrays"><d6p1:double>1</d6p1:double></Weights></Neuron><Neuron><Bias>0</Bias><Output>-211.894788</Output><Weights xmlns:d6p1="http://schemas.microsoft.com/2003/10/Serialization/Arrays"><d6p1:double>1</d6p1:double></Weights></Neuron></_neurons><_numOfNeurons>25</_numOfNeurons><_numberOfInputsPerNeuron>1</_numberOfInputsPerNeuron></NetworkLayer><NetworkLayer><_isInputLayer>false</_isInputLayer><_neurons><Neuron><Bias>-1.0009606004546092</Bias><Output>-1</Output><Weights xmlns:d6p1="http://schemas.microsoft.com/2003/10/Serialization/Arrays"><d6p1:double>1.0381490217086815</d6p1:double><d6p1:double>0.502666697568912</d6p1:double><d6p1:double>0.51840320208978641</d6p1:double><d6p1:double>0.29247170152248975</d6p1:double><d6p1:double>0.614899782780547</d6p1:double><d6p1:double>0.28690833194089532</d6p1:double><d6p1:double>0.86965226205260482</d6p1:double><d6p1:double>0.50995422782569766</d6p1:double><d6p1:double>-0.12623366510186843</d6p1:double><d6p1:double>1.1354214639056484</d6p1:double><d6p1:double>0.442192032424429</d6p1:double><d6p1:double>0.099948155720975485</d6p1:double><d6p1:double>1.121093519804484</d6p1:double><d6p1:double>-0.011481657476098734</d6p1:double><d6p1:double>0.51891359821218619</d6p1:double><d6p1:double>0.27206335516096608</d6p1:double><d6p1:double>0.904874523236685</d6p1:double><d6p1:double>0.098200574070132579</d6p1:double><d6p1:double>0.42619292521216434</d6p1:double><d6p1:double>0.77885188723700294</d6p1:double><d6p1:double>0.36220793844734</d6p1:double><d6p1:double>0.34808581242667908</d6p1:double><d6p1:double>0.24542416532004532</d6p1:double><d6p1:double>0.16697722063428078</d6p1:double><d6p1:double>0.9626283349824718</d6p1:double></Weights></Neuron><Neuron><Bias>-0.99848918730407166</Bias><Output>1</Output><Weights xmlns:d6p1="http://schemas.microsoft.com/2003/10/Serialization/Arrays"><d6p1:double>0.13681456809629447</d6p1:double><d6p1:double>0.55944020927023275</d6p1:double><d6p1:double>0.32384154965276074</d6p1:double><d6p1:double>0.662644286384697</d6p1:double><d6p1:double>-0.2252111444344829</d6p1:double><d6p1:double>0.87413739645353206</d6p1:double><d6p1:double>-0.67182553406391787</d6p1:double><d6p1:double>0.022023024843779809</d6p1:double><d6p1:double>-0.07949887813629182</d6p1:double><d6p1:double>0.528284826297361</d6p1:double><d6p1:double>0.028102308886031446</d6p1:double><d6p1:double>1.0317056405909848</d6p1:double><d6p1:double>-0.019621347067937157</d6p1:double><d6p1:double>0.49514459691039081</d6p1:double><d6p1:double>0.39180092923713472</d6p1:double><d6p1:double>0.09962189456998935</d6p1:double><d6p1:double>0.55121134597128529</d6p1:double><d6p1:double>-0.11087021591860885</d6p1:double><d6p1:double>0.73506871814696084</d6p1:double><d6p1:double>1.1137238579260855</d6p1:double><d6p1:double>-0.24246136210052291</d6p1:double><d6p1:double>-0.08156195290911146</d6p1:double><d6p1:double>0.6765699034197471</d6p1:double><d6p1:double>1.2843575137901169</d6p1:double><d6p1:double>0.847955002577545</d6p1:double></Weights></Neuron><Neuron><Bias>-1.000855707551823</Bias><Output>1</Output><Weights xmlns:d6p1="http://schemas.microsoft.com/2003/10/Serialization/Arrays"><d6p1:double>1.1003648664937691</d6p1:double><d6p1:double>0.70113077368113308</d6p1:double><d6p1:double>0.6850258385235124</d6p1:double><d6p1:double>0.35177252558596284</d6p1:double><d6p1:double>-0.0392317736432889</d6p1:double><d6p1:double>0.060294338897614763</d6p1:double><d6p1:double>1.0791843341174667</d6p1:double><d6p1:double>-0.10378437565294185</d6p1:double><d6p1:double>0.51083143945358667</d6p1:double><d6p1:double>0.23029404394593109</d6p1:double><d6p1:double>0.78445314352184115</d6p1:double><d6p1:double>0.51666039643376016</d6p1:double><d6p1:double>0.8672375904580607</d6p1:double><d6p1:double>-0.28327528411386543</d6p1:double><d6p1:double>0.98049504586662484</d6p1:double><d6p1:double>0.71658831505874765</d6p1:double><d6p1:double>-0.23667401876995756</d6p1:double><d6p1:double>0.42190059040402528</d6p1:double><d6p1:double>0.21673561826953072</d6p1:double><d6p1:double>-0.49859540064039</d6p1:double><d6p1:double>0.072211353108416615</d6p1:double><d6p1:double>0.38451814041002136</d6p1:double><d6p1:double>0.53803639434949624</d6p1:double><d6p1:double>0.63732116923193982</d6p1:double><d6p1:double>0.0035855941526964003</d6p1:double></Weights></Neuron><Neuron><Bias>-1.0004000080518793</Bias><Output>-1</Output><Weights xmlns:d6p1="http://schemas.microsoft.com/2003/10/Serialization/Arrays"><d6p1:double>0.78353581514613335</d6p1:double><d6p1:double>0.76775504720079724</d6p1:double><d6p1:double>0.18831387372835143</d6p1:double><d6p1:double>0.36862906964466691</d6p1:double><d6p1:double>0.59548605228164175</d6p1:double><d6p1:double>0.72773679449904383</d6p1:double><d6p1:double>1.2416812159872832</d6p1:double><d6p1:double>1.0677308621285186</d6p1:double><d6p1:double>0.71427663704938438</d6p1:double><d6p1:double>0.0076942684359746468</d6p1:double><d6p1:double>-0.30555521817300396</d6p1:double><d6p1:double>0.73206077061639807</d6p1:double><d6p1:double>0.64624669769664256</d6p1:double><d6p1:double>0.77813760159224943</d6p1:double><d6p1:double>0.93486362914691323</d6p1:double><d6p1:double>0.75503088138461871</d6p1:double><d6p1:double>0.82859573339249459</d6p1:double><d6p1:double>-0.41567145498713914</d6p1:double><d6p1:double>0.2889960487407448</d6p1:double><d6p1:double>0.15779141604569785</d6p1:double><d6p1:double>0.48990702020958654</d6p1:double><d6p1:double>0.76457959088737315</d6p1:double><d6p1:double>1.2733940915640056</d6p1:double><d6p1:double>0.41584366587647648</d6p1:double><d6p1:double>0.26486287376954742</d6p1:double></Weights></Neuron><Neuron><Bias>-0.99967620432507276</Bias><Output>1</Output><Weights xmlns:d6p1="http://schemas.microsoft.com/2003/10/Serialization/Arrays"><d6p1:double>-0.2858449499677802</d6p1:double><d6p1:double>0.77138899871748745</d6p1:double><d6p1:double>0.19577712800500058</d6p1:double><d6p1:double>0.85098128172315657</d6p1:double><d6p1:double>0.29325129809088252</d6p1:double><d6p1:double>0.55061933430914212</d6p1:double><d6p1:double>-0.20145648200386859</d6p1:double><d6p1:double>1.2084176313756183</d6p1:double><d6p1:double>0.72829603951476141</d6p1:double><d6p1:double>0.95446006433105757</d6p1:double><d6p1:double>0.86401258909545631</d6p1:double><d6p1:double>0.33973578393914639</d6p1:double><d6p1:double>0.96654514451266271</d6p1:double><d6p1:double>0.28014872521123813</d6p1:double><d6p1:double>1.049618899850123</d6p1:double><d6p1:double>0.8371457181202715</d6p1:double><d6p1:double>0.48666394734765112</d6p1:double><d6p1:double>1.2233537057054109</d6p1:double><d6p1:double>0.46621173878753169</d6p1:double><d6p1:double>0.098224505633360937</d6p1:double><d6p1:double>0.17857988117198154</d6p1:double><d6p1:double>0.43563657170764508</d6p1:double><d6p1:double>0.14087246428834171</d6p1:double><d6p1:double>0.028154068178194054</d6p1:double><d6p1:double>0.5900497237205663</d6p1:double></Weights></Neuron><Neuron><Bias>-0.99801688777542064</Bias><Output>1</Output><Weights xmlns:d6p1="http://schemas.microsoft.com/2003/10/Serialization/Arrays"><d6p1:double>-0.34156436834408682</d6p1:double><d6p1:double>0.6322249768169107</d6p1:double><d6p1:double>0.46982378183439394</d6p1:double><d6p1:double>0.5044845229306254</d6p1:double><d6p1:double>0.59393585975913477</d6p1:double><d6p1:double>1.1749054223526108</d6p1:double><d6p1:double>-0.24320084138049869</d6p1:double><d6p1:double>0.11447857713454782</d6p1:double><d6p1:double>0.51059248053840434</d6p1:double><d6p1:double>0.97953605375441266</d6p1:double><d6p1:double>0.58335657489773474</d6p1:double><d6p1:double>0.97483383856904959</d6p1:double><d6p1:double>0.60764370194329431</d6p1:double><d6p1:double>0.472302496133305</d6p1:double><d6p1:double>1.1645949758655023</d6p1:double><d6p1:double>0.51029321981504594</d6p1:double><d6p1:double>0.1628625930933863</d6p1:double><d6p1:double>0.066015016968171719</d6p1:double><d6p1:double>0.16210215677342021</d6p1:double><d6p1:double>0.56814362094873438</d6p1:double><d6p1:double>0.072450818522217408</d6p1:double><d6p1:double>0.045570773778465815</d6p1:double><d6p1:double>0.3714547386865017</d6p1:double><d6p1:double>1.1064191052913033</d6p1:double><d6p1:double>0.093059210010981275</d6p1:double></Weights></Neuron><Neuron><Bias>-0.99973977656051061</Bias><Output>1</Output><Weights xmlns:d6p1="http://schemas.microsoft.com/2003/10/Serialization/Arrays"><d6p1:double>-0.04926633769970315</d6p1:double><d6p1:double>0.42652620106220235</d6p1:double><d6p1:double>1.20041300814723</d6p1:double><d6p1:double>0.14943623803963602</d6p1:double><d6p1:double>0.77653689928552272</d6p1:double><d6p1:double>-0.30583462396252542</d6p1:double><d6p1:double>0.28633866443250194</d6p1:double><d6p1:double>0.55853593962481973</d6p1:double><d6p1:double>0.45666027450176688</d6p1:double><d6p1:double>0.93629998745226306</d6p1:double><d6p1:double>0.21818691180669264</d6p1:double><d6p1:double>0.34159566527209212</d6p1:double><d6p1:double>-0.20403351168385445</d6p1:double><d6p1:double>-0.45077314801910046</d6p1:double><d6p1:double>0.85736980512859751</d6p1:double><d6p1:double>0.45545234599634232</d6p1:double><d6p1:double>0.035434155209820552</d6p1:double><d6p1:double>1.0795460234250933</d6p1:double><d6p1:double>-0.27331693301325377</d6p1:double><d6p1:double>0.31609872019048058</d6p1:double><d6p1:double>0.44633335198834156</d6p1:double><d6p1:double>0.049329935856183643</d6p1:double><d6p1:double>-0.15132690143376987</d6p1:double><d6p1:double>1.1927144422158213</d6p1:double><d6p1:double>-0.083300478499190214</d6p1:double></Weights></Neuron><Neuron><Bias>-0.0012411492892781364</Bias><Output>-1</Output><Weights xmlns:d6p1="http://schemas.microsoft.com/2003/10/Serialization/Arrays"><d6p1:double>0.85497274675939638</d6p1:double><d6p1:double>0.31077517111729919</d6p1:double><d6p1:double>0.64746762642604627</d6p1:double><d6p1:double>0.37180663453974266</d6p1:double><d6p1:double>1.0713286525737058</d6p1:double><d6p1:double>0.5010725303776975</d6p1:double><d6p1:double>0.27983391323850881</d6p1:double><d6p1:double>0.65123782135175567</d6p1:double><d6p1:double>1.1979003547214979</d6p1:double><d6p1:double>0.49323746884522862</d6p1:double><d6p1:double>-0.34637848849860964</d6p1:double><d6p1:double>-0.8857856766680049</d6p1:double><d6p1:double>-0.375111711432953</d6p1:double><d6p1:double>0.63517920660635308</d6p1:double><d6p1:double>0.2953418280679217</d6p1:double><d6p1:double>-0.82184613757715363</d6p1:double><d6p1:double>-0.19738586001508129</d6p1:double><d6p1:double>0.33694859390729781</d6p1:double><d6p1:double>-0.16720922293183632</d6p1:double><d6p1:double>0.28616708199241553</d6p1:double><d6p1:double>-0.19391000715867732</d6p1:double><d6p1:double>0.45254409577517241</d6p1:double><d6p1:double>0.79383450761136642</d6p1:double><d6p1:double>0.40105459377799713</d6p1:double><d6p1:double>0.39136071338713269</d6p1:double></Weights></Neuron><Neuron><Bias>0.00013876965870281778</Bias><Output>-1</Output><Weights xmlns:d6p1="http://schemas.microsoft.com/2003/10/Serialization/Arrays"><d6p1:double>0.49170870557873531</d6p1:double><d6p1:double>1.1500367712171375</d6p1:double><d6p1:double>0.82457481884258643</d6p1:double><d6p1:double>-0.24390264637162018</d6p1:double><d6p1:double>0.6437855602886462</d6p1:double><d6p1:double>0.76463763671345519</d6p1:double><d6p1:double>0.92684158408781037</d6p1:double><d6p1:double>0.60743019725195524</d6p1:double><d6p1:double>0.20184786853637207</d6p1:double><d6p1:double>0.44148783428476113</d6p1:double><d6p1:double>0.19077600452332302</d6p1:double><d6p1:double>0.364087137259936</d6p1:double><d6p1:double>0.080031583711989762</d6p1:double><d6p1:double>1.1166585626246239</d6p1:double><d6p1:double>0.3423377615776918</d6p1:double><d6p1:double>0.24768646037942929</d6p1:double><d6p1:double>0.3882714562516365</d6p1:double><d6p1:double>-0.00032004503266343991</d6p1:double><d6p1:double>0.42513368314944677</d6p1:double><d6p1:double>1.0961210567351254</d6p1:double><d6p1:double>0.40119650498957726</d6p1:double><d6p1:double>0.24022430511548806</d6p1:double><d6p1:double>0.847586143907943</d6p1:double><d6p1:double>0.13678386144701105</d6p1:double><d6p1:double>1.1112817757426958</d6p1:double></Weights></Neuron><Neuron><Bias>-1.0004099945634821</Bias><Output>-1</Output><Weights xmlns:d6p1="http://schemas.microsoft.com/2003/10/Serialization/Arrays"><d6p1:double>1.16942741243037</d6p1:double><d6p1:double>0.9806001692563735</d6p1:double><d6p1:double>0.13652774979946034</d6p1:double><d6p1:double>0.95292428687622477</d6p1:double><d6p1:double>0.76774180623404653</d6p1:double><d6p1:double>0.47484105370111251</d6p1:double><d6p1:double>0.77124833291590744</d6p1:double><d6p1:double>0.54280110194955344</d6p1:double><d6p1:double>0.87574650461739245</d6p1:double><d6p1:double>0.43443871054287814</d6p1:double><d6p1:double>1.0368535737609381</d6p1:double><d6p1:double>0.52495502513147485</d6p1:double><d6p1:double>0.1242866416121772</d6p1:double><d6p1:double>0.37100038477991593</d6p1:double><d6p1:double>0.13536021231056963</d6p1:double><d6p1:double>0.28063547294745878</d6p1:double><d6p1:double>0.31051873042099615</d6p1:double><d6p1:double>0.90404427016200117</d6p1:double><d6p1:double>0.5638314378882322</d6p1:double><d6p1:double>1.1071577977975884</d6p1:double><d6p1:double>0.34715837401133276</d6p1:double><d6p1:double>0.276443729176178</d6p1:double><d6p1:double>-0.2644734662184095</d6p1:double><d6p1:double>0.475024557016597</d6p1:double><d6p1:double>1.0434479975225173</d6p1:double></Weights></Neuron><Neuron><Bias>-0.00041691913236966083</Bias><Output>1</Output><Weights xmlns:d6p1="http://schemas.microsoft.com/2003/10/Serialization/Arrays"><d6p1:double>-1.0300998730322768</d6p1:double><d6p1:double>0.30153758866578018</d6p1:double><d6p1:double>0.016708167715618304</d6p1:double><d6p1:double>0.54254673019165267</d6p1:double><d6p1:double>0.32371196790908829</d6p1:double><d6p1:double>0.6525825261893371</d6p1:double><d6p1:double>-0.059353579081367937</d6p1:double><d6p1:double>0.77873444097340883</d6p1:double><d6p1:double>0.35740181271500515</d6p1:double><d6p1:double>0.52688591731713874</d6p1:double><d6p1:double>0.42601586812159037</d6p1:double><d6p1:double>0.081338996113830275</d6p1:double><d6p1:double>0.51911393166386677</d6p1:double><d6p1:double>1.3254634702711983</d6p1:double><d6p1:double>-0.11370825591401146</d6p1:double><d6p1:double>0.68925834329314528</d6p1:double><d6p1:double>0.2348847258405197</d6p1:double><d6p1:double>1.1967597786226933</d6p1:double><d6p1:double>0.70250589610016223</d6p1:double><d6p1:double>0.35179730538565346</d6p1:double><d6p1:double>-0.15289431589689495</d6p1:double><d6p1:double>1.2249506113137711</d6p1:double><d6p1:double>0.53032004409706524</d6p1:double><d6p1:double>0.010883548273001042</d6p1:double><d6p1:double>-0.70353938726560061</d6p1:double></Weights></Neuron><Neuron><Bias>-1.0006487020794788</Bias><Output>-1</Output><Weights xmlns:d6p1="http://schemas.microsoft.com/2003/10/Serialization/Arrays"><d6p1:double>0.72447907365730968</d6p1:double><d6p1:double>0.96496228966673792</d6p1:double><d6p1:double>-0.13196081853998312</d6p1:double><d6p1:double>0.75141152825317814</d6p1:double><d6p1:double>0.89456891066442579</d6p1:double><d6p1:double>-0.29483217817614538</d6p1:double><d6p1:double>-0.5111273088535836</d6p1:double><d6p1:double>0.085004430800131814</d6p1:double><d6p1:double>0.33983168870628472</d6p1:double><d6p1:double>0.096826157946161756</d6p1:double><d6p1:double>0.46629098486612547</d6p1:double><d6p1:double>1.4500283996194481</d6p1:double><d6p1:double>-0.60745053043489916</d6p1:double><d6p1:double>0.53776234048207772</d6p1:double><d6p1:double>-0.20842581479094979</d6p1:double><d6p1:double>0.31886637713107951</d6p1:double><d6p1:double>0.017229301707761553</d6p1:double><d6p1:double>0.16463361800052639</d6p1:double><d6p1:double>-0.45427931690693585</d6p1:double><d6p1:double>-0.42700234167583706</d6p1:double><d6p1:double>-0.40108335772402276</d6p1:double><d6p1:double>0.871884663767041</d6p1:double><d6p1:double>0.38531854129204729</d6p1:double><d6p1:double>-0.5641593169241641</d6p1:double><d6p1:double>0.045848176583896061</d6p1:double></Weights></Neuron><Neuron><Bias>-1.0003647305267889</Bias><Output>-1</Output><Weights xmlns:d6p1="http://schemas.microsoft.com/2003/10/Serialization/Arrays"><d6p1:double>1.0598973572355226</d6p1:double><d6p1:double>0.15668236279244369</d6p1:double><d6p1:double>0.29960109885369351</d6p1:double><d6p1:double>-0.025995240849336566</d6p1:double><d6p1:double>0.56256896880881557</d6p1:double><d6p1:double>0.92921821384950276</d6p1:double><d6p1:double>0.30363297983874654</d6p1:double><d6p1:double>0.32115222070853583</d6p1:double><d6p1:double>0.15184136573776152</d6p1:double><d6p1:double>0.17298498594648204</d6p1:double><d6p1:double>0.20566351071360153</d6p1:double><d6p1:double>0.78397697578850778</d6p1:double><d6p1:double>-0.18854038623807515</d6p1:double><d6p1:double>-0.033348058043914754</d6p1:double><d6p1:double>0.14039973051796503</d6p1:double><d6p1:double>0.32265513129785867</d6p1:double><d6p1:double>0.415997848466934</d6p1:double><d6p1:double>0.67397130055543264</d6p1:double><d6p1:double>0.57277552322105618</d6p1:double><d6p1:double>-0.39610609126663249</d6p1:double><d6p1:double>1.1086794087786431</d6p1:double><d6p1:double>0.20448322369056576</d6p1:double><d6p1:double>0.36590204608762961</d6p1:double><d6p1:double>0.85465320645575416</d6p1:double><d6p1:double>0.66300957348035849</d6p1:double></Weights></Neuron><Neuron><Bias>-0.99950527875374273</Bias><Output>1</Output><Weights xmlns:d6p1="http://schemas.microsoft.com/2003/10/Serialization/Arrays"><d6p1:double>-0.27597334620233582</d6p1:double><d6p1:double>1.0932418450150312</d6p1:double><d6p1:double>0.70841151477012521</d6p1:double><d6p1:double>1.1508725018176267</d6p1:double><d6p1:double>-0.024085094597665332</d6p1:double><d6p1:double>0.41856503576715964</d6p1:double><d6p1:double>-0.043486727605247549</d6p1:double><d6p1:double>0.68341572235843151</d6p1:double><d6p1:double>1.041551608428986</d6p1:double><d6p1:double>0.86238220876138316</d6p1:double><d6p1:double>0.16369651415510927</d6p1:double><d6p1:double>0.37272414868329345</d6p1:double><d6p1:double>1.1859512310000946</d6p1:double><d6p1:double>0.68950445132156368</d6p1:double><d6p1:double>1.1418435512593474</d6p1:double><d6p1:double>0.58098677721088032</d6p1:double><d6p1:double>0.51195002556487423</d6p1:double><d6p1:double>-0.0078596524289068787</d6p1:double><d6p1:double>0.81606661119887891</d6p1:double><d6p1:double>0.71751872962196983</d6p1:double><d6p1:double>-0.092818291331598662</d6p1:double><d6p1:double>0.45964919814192545</d6p1:double><d6p1:double>0.59158437192595992</d6p1:double><d6p1:double>0.57950437740370386</d6p1:double><d6p1:double>-0.18058607401109811</d6p1:double></Weights></Neuron><Neuron><Bias>-0.99928497149953577</Bias><Output>-1</Output><Weights xmlns:d6p1="http://schemas.microsoft.com/2003/10/Serialization/Arrays"><d6p1:double>0.20980894932870478</d6p1:double><d6p1:double>0.53300258287768343</d6p1:double><d6p1:double>0.22398739297084302</d6p1:double><d6p1:double>-0.21323079243247986</d6p1:double><d6p1:double>0.89841896783481467</d6p1:double><d6p1:double>0.17830344985733357</d6p1:double><d6p1:double>0.35972746615882245</d6p1:double><d6p1:double>0.099687701876385662</d6p1:double><d6p1:double>1.1095727382884397</d6p1:double><d6p1:double>0.086999456049190654</d6p1:double><d6p1:double>-0.76601076866717066</d6p1:double><d6p1:double>0.17274499124406445</d6p1:double><d6p1:double>0.78299857972219289</d6p1:double><d6p1:double>0.060827817944116631</d6p1:double><d6p1:double>-0.15931494245144404</d6p1:double><d6p1:double>0.076067235633004909</d6p1:double><d6p1:double>0.48561849318430489</d6p1:double><d6p1:double>0.20229304354720962</d6p1:double><d6p1:double>-0.014224676336699032</d6p1:double><d6p1:double>-0.22472787013305873</d6p1:double><d6p1:double>1.8021867217775076</d6p1:double><d6p1:double>-0.96727879789709381</d6p1:double><d6p1:double>0.359124336257326</d6p1:double><d6p1:double>-0.26029752259661026</d6p1:double><d6p1:double>0.055786118884236263</d6p1:double></Weights></Neuron><Neuron><Bias>-0.00035058572182877816</Bias><Output>-1</Output><Weights xmlns:d6p1="http://schemas.microsoft.com/2003/10/Serialization/Arrays"><d6p1:double>0.27859953089727357</d6p1:double><d6p1:double>1.2734394788810182</d6p1:double><d6p1:double>-0.39909570089119983</d6p1:double><d6p1:double>0.081180734688366119</d6p1:double><d6p1:double>-0.0090714847009950063</d6p1:double><d6p1:double>0.89780133963996656</d6p1:double><d6p1:double>0.9244081747180799</d6p1:double><d6p1:double>-0.28314396095640709</d6p1:double><d6p1:double>-0.35488762236314575</d6p1:double><d6p1:double>0.29421844444285894</d6p1:double><d6p1:double>0.88037188156821122</d6p1:double><d6p1:double>1.2424813233021594</d6p1:double><d6p1:double>-0.34019514029836223</d6p1:double><d6p1:double>0.65713367978910453</d6p1:double><d6p1:double>1.3868123685005136</d6p1:double><d6p1:double>0.23407235380201102</d6p1:double><d6p1:double>0.7536340660257641</d6p1:double><d6p1:double>0.036804447462890952</d6p1:double><d6p1:double>0.2973113820324268</d6p1:double><d6p1:double>0.19069504097872203</d6p1:double><d6p1:double>0.42169854561958858</d6p1:double><d6p1:double>0.86893830203967415</d6p1:double><d6p1:double>0.038281641546820087</d6p1:double><d6p1:double>0.56143237736714147</d6p1:double><d6p1:double>0.88028000287768138</d6p1:double></Weights></Neuron><Neuron><Bias>-0.0010972421788320098</Bias><Output>-1</Output><Weights xmlns:d6p1="http://schemas.microsoft.com/2003/10/Serialization/Arrays"><d6p1:double>0.547399996825859</d6p1:double><d6p1:double>1.0058662495991273</d6p1:double><d6p1:double>-0.0901089183308608</d6p1:double><d6p1:double>0.1641184589992862</d6p1:double><d6p1:double>1.3536465168884031</d6p1:double><d6p1:double>0.41806417178660643</d6p1:double><d6p1:double>0.61377980582133751</d6p1:double><d6p1:double>0.59446125444833187</d6p1:double><d6p1:double>0.14906516457261321</d6p1:double><d6p1:double>0.017417668099465593</d6p1:double><d6p1:double>-0.42767946859154682</d6p1:double><d6p1:double>0.47455926921125097</d6p1:double><d6p1:double>-0.24739113139767965</d6p1:double><d6p1:double>0.096910740850791072</d6p1:double><d6p1:double>0.62938238370450861</d6p1:double><d6p1:double>0.72871003249300137</d6p1:double><d6p1:double>0.10385339949230646</d6p1:double><d6p1:double>0.47967081105300974</d6p1:double><d6p1:double>0.6791227352414495</d6p1:double><d6p1:double>0.17472872632222572</d6p1:double><d6p1:double>-0.0004818710704054789</d6p1:double><d6p1:double>0.71457701688571973</d6p1:double><d6p1:double>0.25555421620547064</d6p1:double><d6p1:double>-0.38389759686474167</d6p1:double><d6p1:double>0.61751313624184223</d6p1:double></Weights></Neuron><Neuron><Bias>-0.99949368818280693</Bias><Output>1</Output><Weights xmlns:d6p1="http://schemas.microsoft.com/2003/10/Serialization/Arrays"><d6p1:double>-0.066613726583857141</d6p1:double><d6p1:double>0.20961014191217292</d6p1:double><d6p1:double>0.57431382551394361</d6p1:double><d6p1:double>0.21442658320279939</d6p1:double><d6p1:double>0.62508703519926678</d6p1:double><d6p1:double>0.13407040921067717</d6p1:double><d6p1:double>0.90786406870478253</d6p1:double><d6p1:double>0.0507822833674506</d6p1:double><d6p1:double>0.755468495480577</d6p1:double><d6p1:double>1.0541394036477647</d6p1:double><d6p1:double>0.49787596025848552</d6p1:double><d6p1:double>1.1716438323774343</d6p1:double><d6p1:double>1.0592006320620724</d6p1:double><d6p1:double>0.15788943507390879</d6p1:double><d6p1:double>0.45294972418329732</d6p1:double><d6p1:double>0.43861427116037655</d6p1:double><d6p1:double>0.82251008525464875</d6p1:double><d6p1:double>0.270662731675142</d6p1:double><d6p1:double>0.99757778566127031</d6p1:double><d6p1:double>0.50339300536200382</d6p1:double><d6p1:double>0.16584706851453179</d6p1:double><d6p1:double>0.073349663279422037</d6p1:double><d6p1:double>0.69774056500929715</d6p1:double><d6p1:double>1.1220895961954185</d6p1:double><d6p1:double>0.4867499514627241</d6p1:double></Weights></Neuron><Neuron><Bias>-0.00020328983506380467</Bias><Output>-1</Output><Weights xmlns:d6p1="http://schemas.microsoft.com/2003/10/Serialization/Arrays"><d6p1:double>0.43205857882462628</d6p1:double><d6p1:double>1.0799145896695641</d6p1:double><d6p1:double>0.91835243345141415</d6p1:double><d6p1:double>0.49351307203860545</d6p1:double><d6p1:double>0.91905151421392384</d6p1:double><d6p1:double>0.22021058885988479</d6p1:double><d6p1:double>0.948599542669228</d6p1:double><d6p1:double>-0.23306465568079068</d6p1:double><d6p1:double>0.15054993281455858</d6p1:double><d6p1:double>0.20156854898352133</d6p1:double><d6p1:double>-0.1375660954340549</d6p1:double><d6p1:double>0.46517066595764389</d6p1:double><d6p1:double>0.62989047372415019</d6p1:double><d6p1:double>0.73705661506357056</d6p1:double><d6p1:double>0.39775633625095591</d6p1:double><d6p1:double>0.76439726663224172</d6p1:double><d6p1:double>0.55992213963402537</d6p1:double><d6p1:double>0.39207764566127323</d6p1:double><d6p1:double>0.93398197004144212</d6p1:double><d6p1:double>0.20522938837247814</d6p1:double><d6p1:double>1.2790622269517959</d6p1:double><d6p1:double>0.087951687853314323</d6p1:double><d6p1:double>0.6296254323459215</d6p1:double><d6p1:double>0.537658341937702</d6p1:double><d6p1:double>0.29211096032941136</d6p1:double></Weights></Neuron><Neuron><Bias>-1.000901236150251</Bias><Output>-1</Output><Weights xmlns:d6p1="http://schemas.microsoft.com/2003/10/Serialization/Arrays"><d6p1:double>0.83517108424427711</d6p1:double><d6p1:double>-0.22776663843885625</d6p1:double><d6p1:double>0.11615251619967598</d6p1:double><d6p1:double>0.12985731901194375</d6p1:double><d6p1:double>-0.11742508125621319</d6p1:double><d6p1:double>0.80851609133287439</d6p1:double><d6p1:double>0.7509645212057412</d6p1:double><d6p1:double>0.15808289556593691</d6p1:double><d6p1:double>0.42193999160884266</d6p1:double><d6p1:double>0.564186524735496</d6p1:double><d6p1:double>0.64229026107061926</d6p1:double><d6p1:double>0.91135460580808869</d6p1:double><d6p1:double>0.0085774011688127174</d6p1:double><d6p1:double>0.11614723791971698</d6p1:double><d6p1:double>1.2826535986513954</d6p1:double><d6p1:double>0.62023953227958539</d6p1:double><d6p1:double>-0.32626721020204497</d6p1:double><d6p1:double>1.47526333703373</d6p1:double><d6p1:double>0.33533111402598625</d6p1:double><d6p1:double>-0.13161129571797198</d6p1:double><d6p1:double>0.87998065459502217</d6p1:double><d6p1:double>0.45227344616952714</d6p1:double><d6p1:double>0.5948107630082623</d6p1:double><d6p1:double>-0.0888978890202636</d6p1:double><d6p1:double>-0.37347793716207583</d6p1:double></Weights></Neuron><Neuron><Bias>-0.99967954424923078</Bias><Output>-1</Output><Weights xmlns:d6p1="http://schemas.microsoft.com/2003/10/Serialization/Arrays"><d6p1:double>-0.23433410938607607</d6p1:double><d6p1:double>-0.33255021624447539</d6p1:double><d6p1:double>1.3794174347840857</d6p1:double><d6p1:double>-0.91978714667069728</d6p1:double><d6p1:double>0.757584690794341</d6p1:double><d6p1:double>0.49847981701434407</d6p1:double><d6p1:double>1.0818707586611112</d6p1:double><d6p1:double>0.21040289264190032</d6p1:double><d6p1:double>0.41965157806626241</d6p1:double><d6p1:double>0.4795263792922283</d6p1:double><d6p1:double>-0.4037977713961281</d6p1:double><d6p1:double>-1.1872926324117676</d6p1:double><d6p1:double>1.1594959825762066</d6p1:double><d6p1:double>0.6783725687683323</d6p1:double><d6p1:double>-0.35600127638101137</d6p1:double><d6p1:double>0.18770743821877195</d6p1:double><d6p1:double>0.98443373254352984</d6p1:double><d6p1:double>0.713292168068032</d6p1:double><d6p1:double>-0.16901689547957513</d6p1:double><d6p1:double>0.23249903176389469</d6p1:double><d6p1:double>0.32023302016116573</d6p1:double><d6p1:double>-0.047469278852617917</d6p1:double><d6p1:double>0.562662459889664</d6p1:double><d6p1:double>0.05055769108124241</d6p1:double><d6p1:double>-0.56082564946795355</d6p1:double></Weights></Neuron><Neuron><Bias>0.00074243798175675736</Bias><Output>1</Output><Weights xmlns:d6p1="http://schemas.microsoft.com/2003/10/Serialization/Arrays"><d6p1:double>-0.30075879384782317</d6p1:double><d6p1:double>0.88696784924677863</d6p1:double><d6p1:double>0.71498464455407473</d6p1:double><d6p1:double>0.18372985983290865</d6p1:double><d6p1:double>0.52367232761910087</d6p1:double><d6p1:double>0.82678380732122636</d6p1:double><d6p1:double>0.87764306306371076</d6p1:double><d6p1:double>0.74313279619515016</d6p1:double><d6p1:double>0.531235724429363</d6p1:double><d6p1:double>0.85092525227525062</d6p1:double><d6p1:double>1.0831601766533592</d6p1:double><d6p1:double>0.10491701751080137</d6p1:double><d6p1:double>-0.076247578655543435</d6p1:double><d6p1:double>0.59002571653973612</d6p1:double><d6p1:double>0.57646280747560952</d6p1:double><d6p1:double>0.25217870467209891</d6p1:double><d6p1:double>0.70944571462992734</d6p1:double><d6p1:double>0.278641329062534</d6p1:double><d6p1:double>0.82585740569795829</d6p1:double><d6p1:double>-0.10020248193838101</d6p1:double><d6p1:double>0.6122676576165027</d6p1:double><d6p1:double>1.1798154958125275</d6p1:double><d6p1:double>0.15529858676765707</d6p1:double><d6p1:double>0.72610676305204325</d6p1:double><d6p1:double>0.19531572185698612</d6p1:double></Weights></Neuron><Neuron><Bias>-0.99991999355556116</Bias><Output>-1</Output><Weights xmlns:d6p1="http://schemas.microsoft.com/2003/10/Serialization/Arrays"><d6p1:double>0.11855587953789502</d6p1:double><d6p1:double>0.52271253623216807</d6p1:double><d6p1:double>0.47089132972131004</d6p1:double><d6p1:double>0.81060241838000013</d6p1:double><d6p1:double>0.85714759734631474</d6p1:double><d6p1:double>0.52872642776312706</d6p1:double><d6p1:double>0.991013418917783</d6p1:double><d6p1:double>0.87542656439824229</d6p1:double><d6p1:double>0.27900350357589576</d6p1:double><d6p1:double>0.48820604916751531</d6p1:double><d6p1:double>0.40318356787729831</d6p1:double><d6p1:double>0.94781236169444738</d6p1:double><d6p1:double>0.45936373346652537</d6p1:double><d6p1:double>-0.010190030232853184</d6p1:double><d6p1:double>0.10419619408137373</d6p1:double><d6p1:double>0.56652444462703733</d6p1:double><d6p1:double>1.0443064594763249</d6p1:double><d6p1:double>0.51120142675410107</d6p1:double><d6p1:double>0.278331938887791</d6p1:double><d6p1:double>0.59761710932727874</d6p1:double><d6p1:double>0.53172077790944472</d6p1:double><d6p1:double>0.669067377650387</d6p1:double><d6p1:double>-0.33079554804074668</d6p1:double><d6p1:double>0.2536936139417173</d6p1:double><d6p1:double>0.58045657051373456</d6p1:double></Weights></Neuron><Neuron><Bias>-1.0002833686028849</Bias><Output>-1</Output><Weights xmlns:d6p1="http://schemas.microsoft.com/2003/10/Serialization/Arrays"><d6p1:double>0.55057103149755215</d6p1:double><d6p1:double>-0.14792032506874009</d6p1:double><d6p1:double>0.19373144315023852</d6p1:double><d6p1:double>0.25844267163903839</d6p1:double><d6p1:double>1.1584676224398023</d6p1:double><d6p1:double>0.3526933846371178</d6p1:double><d6p1:double>0.76208171581455686</d6p1:double><d6p1:double>0.44043744050795575</d6p1:double><d6p1:double>0.24065445874774127</d6p1:double><d6p1:double>0.096635977286691446</d6p1:double><d6p1:double>0.38767653697918575</d6p1:double><d6p1:double>0.96133042369247612</d6p1:double><d6p1:double>-0.29326858199364425</d6p1:double><d6p1:double>1.0456125266543612</d6p1:double><d6p1:double>-0.0047652665054587779</d6p1:double><d6p1:double>0.44033564726531094</d6p1:double><d6p1:double>0.39891904383049182</d6p1:double><d6p1:double>0.76301532419689178</d6p1:double><d6p1:double>0.79271372234104887</d6p1:double><d6p1:double>0.611609747223543</d6p1:double><d6p1:double>0.84329933232353793</d6p1:double><d6p1:double>1.013821070800289</d6p1:double><d6p1:double>1.0842619774086801</d6p1:double><d6p1:double>-0.61340675046814719</d6p1:double><d6p1:double>-0.11354531773728128</d6p1:double></Weights></Neuron><Neuron><Bias>-1.0004170807968031</Bias><Output>-1</Output><Weights xmlns:d6p1="http://schemas.microsoft.com/2003/10/Serialization/Arrays"><d6p1:double>1.0216155880225806</d6p1:double><d6p1:double>-0.07673702689149621</d6p1:double><d6p1:double>0.71824142565526972</d6p1:double><d6p1:double>0.26996400713522362</d6p1:double><d6p1:double>0.679690639500892</d6p1:double><d6p1:double>-0.010934445835742091</d6p1:double><d6p1:double>1.0626917925025132</d6p1:double><d6p1:double>0.2696019968004707</d6p1:double><d6p1:double>0.80884947746129621</d6p1:double><d6p1:double>0.98217916803527217</d6p1:double><d6p1:double>-0.061440244170050555</d6p1:double><d6p1:double>0.72134780654569541</d6p1:double><d6p1:double>0.62186359792967338</d6p1:double><d6p1:double>0.25942868342339626</d6p1:double><d6p1:double>-0.13231565499085682</d6p1:double><d6p1:double>0.26162930012296975</d6p1:double><d6p1:double>0.58657906744248145</d6p1:double><d6p1:double>0.48614611481058073</d6p1:double><d6p1:double>-0.16540206300555377</d6p1:double><d6p1:double>0.12097098140889706</d6p1:double><d6p1:double>0.23859571339597671</d6p1:double><d6p1:double>0.69147614102172872</d6p1:double><d6p1:double>0.83258602909165513</d6p1:double><d6p1:double>0.29406853777974207</d6p1:double><d6p1:double>0.85658477363894237</d6p1:double></Weights></Neuron><Neuron><Bias>-0.99951784739378768</Bias><Output>1</Output><Weights xmlns:d6p1="http://schemas.microsoft.com/2003/10/Serialization/Arrays"><d6p1:double>0.67281852598202407</d6p1:double><d6p1:double>-0.29331525762981953</d6p1:double><d6p1:double>1.140640117025189</d6p1:double><d6p1:double>0.075372568597437115</d6p1:double><d6p1:double>-0.52195011868196173</d6p1:double><d6p1:double>-0.055065266506946015</d6p1:double><d6p1:double>0.36877407516014982</d6p1:double><d6p1:double>0.33525454090689044</d6p1:double><d6p1:double>0.21654708342577722</d6p1:double><d6p1:double>0.47145588786617659</d6p1:double><d6p1:double>-0.55468689424907724</d6p1:double><d6p1:double>-0.78502528494748791</d6p1:double><d6p1:double>1.127608739542832</d6p1:double><d6p1:double>0.98174738739127121</d6p1:double><d6p1:double>0.50119942939100515</d6p1:double><d6p1:double>0.50983727780644617</d6p1:double><d6p1:double>0.86591599354480819</d6p1:double><d6p1:double>-0.064714169232397367</d6p1:double><d6p1:double>0.050123000267535078</d6p1:double><d6p1:double>0.20874090812670498</d6p1:double><d6p1:double>0.088959113775120655</d6p1:double><d6p1:double>-0.068235447203400634</d6p1:double><d6p1:double>0.91408327318476679</d6p1:double><d6p1:double>0.492151739179289</d6p1:double><d6p1:double>-0.11062738958007573</d6p1:double></Weights></Neuron><Neuron><Bias>-0.99895649225686367</Bias><Output>1</Output><Weights xmlns:d6p1="http://schemas.microsoft.com/2003/10/Serialization/Arrays"><d6p1:double>-0.087052471611797674</d6p1:double><d6p1:double>-0.13877102004274675</d6p1:double><d6p1:double>0.9545420659021786</d6p1:double><d6p1:double>-0.4504911174761046</d6p1:double><d6p1:double>0.27961492519392328</d6p1:double><d6p1:double>0.15665048001305057</d6p1:double><d6p1:double>0.65946018007067075</d6p1:double><d6p1:double>-0.12196973871388857</d6p1:double><d6p1:double>0.63207938265634867</d6p1:double><d6p1:double>0.88318087470208306</d6p1:double><d6p1:double>0.44902571499256227</d6p1:double><d6p1:double>0.38159127651296593</d6p1:double><d6p1:double>1.079956270971969</d6p1:double><d6p1:double>1.0381040874510337</d6p1:double><d6p1:double>1.9470978461681299</d6p1:double><d6p1:double>0.15010411889861239</d6p1:double><d6p1:double>0.36199058422119057</d6p1:double><d6p1:double>-0.0096811044151815431</d6p1:double><d6p1:double>0.55163952614086864</d6p1:double><d6p1:double>0.28806920641896505</d6p1:double><d6p1:double>0.15646196119843594</d6p1:double><d6p1:double>0.44128360284888507</d6p1:double><d6p1:double>0.23810966907113224</d6p1:double><d6p1:double>0.49191807947270477</d6p1:double><d6p1:double>-0.040416377859477194</d6p1:double></Weights></Neuron><Neuron><Bias>-1.0003198591110016</Bias><Output>1</Output><Weights xmlns:d6p1="http://schemas.microsoft.com/2003/10/Serialization/Arrays"><d6p1:double>-0.10277599790570165</d6p1:double><d6p1:double>-0.12445636951896477</d6p1:double><d6p1:double>0.0051206382941611783</d6p1:double><d6p1:double>0.95938767771475775</d6p1:double><d6p1:double>0.25222413091425783</d6p1:double><d6p1:double>-0.5582615759337447</d6p1:double><d6p1:double>-0.35621993600869034</d6p1:double><d6p1:double>0.552915606794582</d6p1:double><d6p1:double>-0.45640368112449647</d6p1:double><d6p1:double>-1.0492412095888153</d6p1:double><d6p1:double>0.8033233875268444</d6p1:double><d6p1:double>0.14738945807923531</d6p1:double><d6p1:double>-0.21914938914686005</d6p1:double><d6p1:double>1.4967088980269465</d6p1:double><d6p1:double>-0.37696578048546442</d6p1:double><d6p1:double>0.67659145143924282</d6p1:double><d6p1:double>0.63593955217115528</d6p1:double><d6p1:double>-0.094269854847095824</d6p1:double><d6p1:double>0.73511057101074218</d6p1:double><d6p1:double>0.594833913582747</d6p1:double><d6p1:double>-0.11755859303593995</d6p1:double><d6p1:double>0.621516006910903</d6p1:double><d6p1:double>0.59037337233225629</d6p1:double><d6p1:double>0.15248978668890512</d6p1:double><d6p1:double>0.10574223457016112</d6p1:double></Weights></Neuron><Neuron><Bias>-1.0004412138797</Bias><Output>-1</Output><Weights xmlns:d6p1="http://schemas.microsoft.com/2003/10/Serialization/Arrays"><d6p1:double>0.31186385774891706</d6p1:double><d6p1:double>0.30356701263910635</d6p1:double><d6p1:double>0.621132471396181</d6p1:double><d6p1:double>0.94306751438228931</d6p1:double><d6p1:double>0.93083728464879978</d6p1:double><d6p1:double>0.11385083845726138</d6p1:double><d6p1:double>0.28223341596949819</d6p1:double><d6p1:double>0.15311612585678158</d6p1:double><d6p1:double>0.72086353828809924</d6p1:double><d6p1:double>1.1646084412623077</d6p1:double><d6p1:double>0.37321623393767911</d6p1:double><d6p1:double>0.3070604471741521</d6p1:double><d6p1:double>0.30622603470313986</d6p1:double><d6p1:double>0.533583446691012</d6p1:double><d6p1:double>-0.38078445146103035</d6p1:double><d6p1:double>-0.78948299475297823</d6p1:double><d6p1:double>0.68256678112593794</d6p1:double><d6p1:double>0.96442271649849221</d6p1:double><d6p1:double>0.64347129228146782</d6p1:double><d6p1:double>1.4532934890918443</d6p1:double><d6p1:double>0.18085870388966319</d6p1:double><d6p1:double>0.52052093730716531</d6p1:double><d6p1:double>0.17078607880555635</d6p1:double><d6p1:double>-0.073257759717216472</d6p1:double><d6p1:double>0.56030472030205791</d6p1:double></Weights></Neuron><Neuron><Bias>-2.4925107041362329E-05</Bias><Output>1</Output><Weights xmlns:d6p1="http://schemas.microsoft.com/2003/10/Serialization/Arrays"><d6p1:double>0.1971108816383218</d6p1:double><d6p1:double>0.36937695083623195</d6p1:double><d6p1:double>-0.0344673964110879</d6p1:double><d6p1:double>0.18756636224080725</d6p1:double><d6p1:double>0.22672086252743864</d6p1:double><d6p1:double>0.43885380928080608</d6p1:double><d6p1:double>1.0821496167244407</d6p1:double><d6p1:double>1.1722593070176217</d6p1:double><d6p1:double>0.28835494479304474</d6p1:double><d6p1:double>0.41364846022669333</d6p1:double><d6p1:double>0.081710053731009966</d6p1:double><d6p1:double>1.0481779797055328</d6p1:double><d6p1:double>0.25584299276011629</d6p1:double><d6p1:double>-0.36957768167678379</d6p1:double><d6p1:double>0.89964966023136117</d6p1:double><d6p1:double>1.1178426909624812</d6p1:double><d6p1:double>-0.0029887383290823602</d6p1:double><d6p1:double>-0.064079762794399212</d6p1:double><d6p1:double>-0.14505286584436752</d6p1:double><d6p1:double>0.88986842274962419</d6p1:double><d6p1:double>0.18465915938225791</d6p1:double><d6p1:double>0.065927629965898321</d6p1:double><d6p1:double>-0.17503673796658303</d6p1:double><d6p1:double>0.43477369287845707</d6p1:double><d6p1:double>0.55214011090051551</d6p1:double></Weights></Neuron><Neuron><Bias>0.00014163098830923622</Bias><Output>1</Output><Weights xmlns:d6p1="http://schemas.microsoft.com/2003/10/Serialization/Arrays"><d6p1:double>-0.0670373248941269</d6p1:double><d6p1:double>-0.19085600654120938</d6p1:double><d6p1:double>-0.062729125451917472</d6p1:double><d6p1:double>0.54428432381994818</d6p1:double><d6p1:double>-0.28281225890720518</d6p1:double><d6p1:double>0.64127644205439682</d6p1:double><d6p1:double>-0.36299616448521943</d6p1:double><d6p1:double>0.24102616651813732</d6p1:double><d6p1:double>0.77824872548645052</d6p1:double><d6p1:double>-0.13815436559747807</d6p1:double><d6p1:double>0.10281716008699694</d6p1:double><d6p1:double>0.36588760646101759</d6p1:double><d6p1:double>0.35735613344928674</d6p1:double><d6p1:double>0.8699380893935964</d6p1:double><d6p1:double>0.820254346463361</d6p1:double><d6p1:double>1.2295508763303613</d6p1:double><d6p1:double>-0.20660989132440435</d6p1:double><d6p1:double>1.711699921982387</d6p1:double><d6p1:double>0.26195325550474491</d6p1:double><d6p1:double>-0.60347795268945281</d6p1:double><d6p1:double>0.60010065672036639</d6p1:double><d6p1:double>0.49553829720545611</d6p1:double><d6p1:double>0.34808169185358417</d6p1:double><d6p1:double>0.0953142888759479</d6p1:double><d6p1:double>-0.35347571051312826</d6p1:double></Weights></Neuron><Neuron><Bias>-0.99950223398853466</Bias><Output>1</Output><Weights xmlns:d6p1="http://schemas.microsoft.com/2003/10/Serialization/Arrays"><d6p1:double>0.19813268786503294</d6p1:double><d6p1:double>0.52446789093491608</d6p1:double><d6p1:double>0.754019698512483</d6p1:double><d6p1:double>0.49126800775217966</d6p1:double><d6p1:double>0.030010889092080852</d6p1:double><d6p1:double>0.64638129977855407</d6p1:double><d6p1:double>0.16651862986519655</d6p1:double><d6p1:double>0.667468547742725</d6p1:double><d6p1:double>0.61534708897687407</d6p1:double><d6p1:double>-0.25501965563416584</d6p1:double><d6p1:double>0.63888211827553831</d6p1:double><d6p1:double>-0.099675288851517649</d6p1:double><d6p1:double>1.3066497400815038</d6p1:double><d6p1:double>0.58548664889483992</d6p1:double><d6p1:double>0.2482688721443429</d6p1:double><d6p1:double>0.350812678824787</d6p1:double><d6p1:double>0.68909360099347083</d6p1:double><d6p1:double>0.30115269031224878</d6p1:double><d6p1:double>0.5877684561701344</d6p1:double><d6p1:double>1.3332784885676467</d6p1:double><d6p1:double>0.361920169351411</d6p1:double><d6p1:double>-0.50121008580048387</d6p1:double><d6p1:double>0.866001132315459</d6p1:double><d6p1:double>0.79757801452283639</d6p1:double><d6p1:double>0.1849515359082575</d6p1:double></Weights></Neuron><Neuron><Bias>-1.0002477521267739</Bias><Output>-1</Output><Weights xmlns:d6p1="http://schemas.microsoft.com/2003/10/Serialization/Arrays"><d6p1:double>0.54491715427165965</d6p1:double><d6p1:double>0.051396140830064475</d6p1:double><d6p1:double>-0.10711380817706155</d6p1:double><d6p1:double>-0.29174903909428518</d6p1:double><d6p1:double>0.20196339458431428</d6p1:double><d6p1:double>0.50171258866961266</d6p1:double><d6p1:double>1.1247309129758813</d6p1:double><d6p1:double>0.55883038164807</d6p1:double><d6p1:double>0.39940247958688957</d6p1:double><d6p1:double>0.72323895534460714</d6p1:double><d6p1:double>0.66029464099498436</d6p1:double><d6p1:double>0.12036953938687028</d6p1:double><d6p1:double>0.33022394313520653</d6p1:double><d6p1:double>0.26543165621561393</d6p1:double><d6p1:double>0.18114047584385523</d6p1:double><d6p1:double>0.39068421888896188</d6p1:double><d6p1:double>0.56411499031544388</d6p1:double><d6p1:double>-0.13165414704226738</d6p1:double><d6p1:double>0.89596741103491273</d6p1:double><d6p1:double>0.96790046544706621</d6p1:double><d6p1:double>0.92893749004184445</d6p1:double><d6p1:double>0.24978009003332988</d6p1:double><d6p1:double>0.65643325086069726</d6p1:double><d6p1:double>-0.18330088665412869</d6p1:double><d6p1:double>0.64304516959906088</d6p1:double></Weights></Neuron><Neuron><Bias>-0.00046641424531575513</Bias><Output>1</Output><Weights xmlns:d6p1="http://schemas.microsoft.com/2003/10/Serialization/Arrays"><d6p1:double>0.52451541722430461</d6p1:double><d6p1:double>-0.040186231142704171</d6p1:double><d6p1:double>0.96884911356946224</d6p1:double><d6p1:double>0.14375173547719652</d6p1:double><d6p1:double>0.97339528449338253</d6p1:double><d6p1:double>0.095681954806517339</d6p1:double><d6p1:double>0.85729422863680249</d6p1:double><d6p1:double>1.3886450808143176</d6p1:double><d6p1:double>0.21696632691375348</d6p1:double><d6p1:double>0.68033258279512354</d6p1:double><d6p1:double>0.71502024206213421</d6p1:double><d6p1:double>0.27488387737868447</d6p1:double><d6p1:double>0.23040026819270468</d6p1:double><d6p1:double>1.1398827720527014</d6p1:double><d6p1:double>0.817384919501769</d6p1:double><d6p1:double>0.56976710219518822</d6p1:double><d6p1:double>0.11936930120442686</d6p1:double><d6p1:double>0.34412548319285419</d6p1:double><d6p1:double>0.43230411802776997</d6p1:double><d6p1:double>-0.21814269873254957</d6p1:double><d6p1:double>-0.21723526864959353</d6p1:double><d6p1:double>0.586355494493911</d6p1:double><d6p1:double>0.90100772670165186</d6p1:double><d6p1:double>0.66500399885249251</d6p1:double><d6p1:double>0.30576215847071386</d6p1:double></Weights></Neuron><Neuron><Bias>-0.99937093798052579</Bias><Output>-1</Output><Weights xmlns:d6p1="http://schemas.microsoft.com/2003/10/Serialization/Arrays"><d6p1:double>0.58573835435121713</d6p1:double><d6p1:double>0.17242961439228227</d6p1:double><d6p1:double>0.13289174080842192</d6p1:double><d6p1:double>-0.837342165650326</d6p1:double><d6p1:double>0.6581700611540493</d6p1:double><d6p1:double>1.008614473928128</d6p1:double><d6p1:double>0.84284027685963736</d6p1:double><d6p1:double>-0.41377225579885191</d6p1:double><d6p1:double>0.1287505840649053</d6p1:double><d6p1:double>0.42638546187289922</d6p1:double><d6p1:double>0.39940531243227473</d6p1:double><d6p1:double>1.0616303641572502</d6p1:double><d6p1:double>0.169796788133755</d6p1:double><d6p1:double>0.88474272915606278</d6p1:double><d6p1:double>1.4796019861839504</d6p1:double><d6p1:double>0.48058461078730436</d6p1:double><d6p1:double>0.667698127467033</d6p1:double><d6p1:double>-0.19919007407584072</d6p1:double><d6p1:double>1.0532467404016981</d6p1:double><d6p1:double>0.4250480274420334</d6p1:double><d6p1:double>1.0570040111489114</d6p1:double><d6p1:double>0.25903045344184006</d6p1:double><d6p1:double>-0.19522234046643744</d6p1:double><d6p1:double>0.10197474223285742</d6p1:double><d6p1:double>0.36584382916305791</d6p1:double></Weights></Neuron><Neuron><Bias>-1.0007235520540321</Bias><Output>-1</Output><Weights xmlns:d6p1="http://schemas.microsoft.com/2003/10/Serialization/Arrays"><d6p1:double>1.0624896068143272</d6p1:double><d6p1:double>-0.072548479990094741</d6p1:double><d6p1:double>1.1222132711511672</d6p1:double><d6p1:double>0.59250022865166463</d6p1:double><d6p1:double>0.39357616518523353</d6p1:double><d6p1:double>0.43380138538569146</d6p1:double><d6p1:double>0.57230651805821142</d6p1:double><d6p1:double>0.45356628583876407</d6p1:double><d6p1:double>-0.34925993948495609</d6p1:double><d6p1:double>0.980834628676893</d6p1:double><d6p1:double>0.72296379480148654</d6p1:double><d6p1:double>0.4136566391633254</d6p1:double><d6p1:double>-0.01555637072126663</d6p1:double><d6p1:double>0.543363377461705</d6p1:double><d6p1:double>0.75150758419572028</d6p1:double><d6p1:double>0.41570290160193291</d6p1:double><d6p1:double>0.29851366986236638</d6p1:double><d6p1:double>0.27614112124610168</d6p1:double><d6p1:double>0.77449142616730593</d6p1:double><d6p1:double>-0.26605920919840143</d6p1:double><d6p1:double>0.29738922704404258</d6p1:double><d6p1:double>1.066361746564074</d6p1:double><d6p1:double>-0.16320901746859</d6p1:double><d6p1:double>0.63754991449915466</d6p1:double><d6p1:double>1.321905557182609</d6p1:double></Weights></Neuron><Neuron><Bias>-0.99806390031882042</Bias><Output>1</Output><Weights xmlns:d6p1="http://schemas.microsoft.com/2003/10/Serialization/Arrays"><d6p1:double>0.92607972020373674</d6p1:double><d6p1:double>-0.47474803978301505</d6p1:double><d6p1:double>1.2378273394830419</d6p1:double><d6p1:double>-0.69582012291897632</d6p1:double><d6p1:double>-0.47936067104740548</d6p1:double><d6p1:double>1.0293475448865965</d6p1:double><d6p1:double>0.24054106251389282</d6p1:double><d6p1:double>-1.1565884060080172</d6p1:double><d6p1:double>0.2785153320816246</d6p1:double><d6p1:double>0.82317615770545638</d6p1:double><d6p1:double>-0.25376026575998689</d6p1:double><d6p1:double>1.382122624079789</d6p1:double><d6p1:double>0.11899331673990846</d6p1:double><d6p1:double>-0.74558190262962876</d6p1:double><d6p1:double>0.39993184099064044</d6p1:double><d6p1:double>0.047779455881482538</d6p1:double><d6p1:double>0.36802156348456772</d6p1:double><d6p1:double>-0.37913320505048187</d6p1:double><d6p1:double>0.81420724501160091</d6p1:double><d6p1:double>0.58346900918807421</d6p1:double><d6p1:double>0.34252360424687339</d6p1:double><d6p1:double>-0.20825776702024315</d6p1:double><d6p1:double>-0.13207765980635428</d6p1:double><d6p1:double>0.7712005588734413</d6p1:double><d6p1:double>0.2167973072358845</d6p1:double></Weights></Neuron><Neuron><Bias>-1.0000847142343685</Bias><Output>-1</Output><Weights xmlns:d6p1="http://schemas.microsoft.com/2003/10/Serialization/Arrays"><d6p1:double>0.58738560475127988</d6p1:double><d6p1:double>0.089944179672538885</d6p1:double><d6p1:double>0.7605550685212441</d6p1:double><d6p1:double>0.61082688317263334</d6p1:double><d6p1:double>1.0092114817433255</d6p1:double><d6p1:double>0.092499060412078976</d6p1:double><d6p1:double>1.285423383438433</d6p1:double><d6p1:double>0.77915821287409381</d6p1:double><d6p1:double>0.38659691456747153</d6p1:double><d6p1:double>0.19375530456589751</d6p1:double><d6p1:double>0.50840557837012512</d6p1:double><d6p1:double>0.69810324787389522</d6p1:double><d6p1:double>1.0480738467678679</d6p1:double><d6p1:double>0.46159991454533611</d6p1:double><d6p1:double>0.50237883291637919</d6p1:double><d6p1:double>0.050036703997809621</d6p1:double><d6p1:double>0.043155021588251796</d6p1:double><d6p1:double>1.038444315982209</d6p1:double><d6p1:double>0.056229223810172368</d6p1:double><d6p1:double>0.857328672991254</d6p1:double><d6p1:double>0.73457653305547732</d6p1:double><d6p1:double>0.90419609090440134</d6p1:double><d6p1:double>0.69871291749603537</d6p1:double><d6p1:double>0.38211762233529567</d6p1:double><d6p1:double>0.3802493180578414</d6p1:double></Weights></Neuron><Neuron><Bias>-0.99910824884322591</Bias><Output>1</Output><Weights xmlns:d6p1="http://schemas.microsoft.com/2003/10/Serialization/Arrays"><d6p1:double>0.61907496117446115</d6p1:double><d6p1:double>0.21196516637221635</d6p1:double><d6p1:double>0.54539118701605216</d6p1:double><d6p1:double>0.3751298012691105</d6p1:double><d6p1:double>0.8368166069302525</d6p1:double><d6p1:double>0.32336954103178034</d6p1:double><d6p1:double>-0.032411608364144431</d6p1:double><d6p1:double>0.36413571833180064</d6p1:double><d6p1:double>0.43416454814494931</d6p1:double><d6p1:double>0.32566603484807127</d6p1:double><d6p1:double>0.688485547692021</d6p1:double><d6p1:double>0.42015688384767969</d6p1:double><d6p1:double>0.87839061354879011</d6p1:double><d6p1:double>0.889692810599172</d6p1:double><d6p1:double>0.75372021175232318</d6p1:double><d6p1:double>0.69910207170235561</d6p1:double><d6p1:double>0.8145249356808697</d6p1:double><d6p1:double>-0.097379972040431612</d6p1:double><d6p1:double>0.74032608153349266</d6p1:double><d6p1:double>0.91121659425869284</d6p1:double><d6p1:double>0.30545492369355159</d6p1:double><d6p1:double>-0.24764104195984818</d6p1:double><d6p1:double>0.76819769376879754</d6p1:double><d6p1:double>0.81246108782972293</d6p1:double><d6p1:double>0.82095206459529191</d6p1:double></Weights></Neuron><Neuron><Bias>-0.00036287460228351246</Bias><Output>-1</Output><Weights xmlns:d6p1="http://schemas.microsoft.com/2003/10/Serialization/Arrays"><d6p1:double>1.2149000445909162</d6p1:double><d6p1:double>0.85564864054974932</d6p1:double><d6p1:double>-0.14139771394734518</d6p1:double><d6p1:double>0.96875460108680334</d6p1:double><d6p1:double>0.48070774251081033</d6p1:double><d6p1:double>0.75546138827581566</d6p1:double><d6p1:double>-0.0094936819898980129</d6p1:double><d6p1:double>0.408936030674408</d6p1:double><d6p1:double>0.12726091850003005</d6p1:double><d6p1:double>0.52770343853427515</d6p1:double><d6p1:double>0.32659665170477087</d6p1:double><d6p1:double>1.5175683071335002</d6p1:double><d6p1:double>0.029395320045461127</d6p1:double><d6p1:double>0.046336566443090962</d6p1:double><d6p1:double>0.40485187111977772</d6p1:double><d6p1:double>0.13960096054013452</d6p1:double><d6p1:double>0.22009721383675615</d6p1:double><d6p1:double>-0.24508473323307617</d6p1:double><d6p1:double>0.43835284740180835</d6p1:double><d6p1:double>-0.052818669786803</d6p1:double><d6p1:double>-0.24339630127690018</d6p1:double><d6p1:double>0.25571696439873831</d6p1:double><d6p1:double>0.14132816191107056</d6p1:double><d6p1:double>0.041390102594871914</d6p1:double><d6p1:double>1.2683320500975839</d6p1:double></Weights></Neuron><Neuron><Bias>-0.99981084563887579</Bias><Output>-1</Output><Weights xmlns:d6p1="http://schemas.microsoft.com/2003/10/Serialization/Arrays"><d6p1:double>0.21587679222856407</d6p1:double><d6p1:double>0.88874902358385122</d6p1:double><d6p1:double>0.47028641251844383</d6p1:double><d6p1:double>0.98984299704013867</d6p1:double><d6p1:double>0.13647329944393097</d6p1:double><d6p1:double>0.954050524467035</d6p1:double><d6p1:double>0.58852242641508035</d6p1:double><d6p1:double>1.1607545908830779</d6p1:double><d6p1:double>0.38681266678051152</d6p1:double><d6p1:double>0.21075623592162324</d6p1:double><d6p1:double>1.2581644556602534</d6p1:double><d6p1:double>0.7547786316097328</d6p1:double><d6p1:double>0.54713473831833781</d6p1:double><d6p1:double>0.719522209132692</d6p1:double><d6p1:double>-0.2669073410356177</d6p1:double><d6p1:double>-0.20414774998225269</d6p1:double><d6p1:double>0.07172683455891983</d6p1:double><d6p1:double>0.82430099821717018</d6p1:double><d6p1:double>0.63677348486688623</d6p1:double><d6p1:double>0.93785633554643666</d6p1:double><d6p1:double>0.77705608822494887</d6p1:double><d6p1:double>0.36154924026729146</d6p1:double><d6p1:double>-0.12140507042296447</d6p1:double><d6p1:double>0.47821403918228889</d6p1:double><d6p1:double>1.3257666926058687</d6p1:double></Weights></Neuron><Neuron><Bias>-1.0003563272388203</Bias><Output>-1</Output><Weights xmlns:d6p1="http://schemas.microsoft.com/2003/10/Serialization/Arrays"><d6p1:double>0.81135950394383516</d6p1:double><d6p1:double>1.0659586666622645</d6p1:double><d6p1:double>-0.2295082010486412</d6p1:double><d6p1:double>0.99655593555944633</d6p1:double><d6p1:double>0.21826379497762408</d6p1:double><d6p1:double>1.1439090752356436</d6p1:double><d6p1:double>0.36356536563457831</d6p1:double><d6p1:double>-0.18666712140682681</d6p1:double><d6p1:double>0.77535658279038822</d6p1:double><d6p1:double>0.380233956393497</d6p1:double><d6p1:double>0.797485209447269</d6p1:double><d6p1:double>0.54973511270845121</d6p1:double><d6p1:double>0.5965298238438187</d6p1:double><d6p1:double>0.027441339490538667</d6p1:double><d6p1:double>0.11692743860632315</d6p1:double><d6p1:double>0.35250162970303983</d6p1:double><d6p1:double>0.86205549357904021</d6p1:double><d6p1:double>0.29805545293112085</d6p1:double><d6p1:double>0.17399454070492207</d6p1:double><d6p1:double>0.63695533291412876</d6p1:double><d6p1:double>0.73833869014303832</d6p1:double><d6p1:double>1.1353461654160097</d6p1:double><d6p1:double>0.92761616555920368</d6p1:double><d6p1:double>0.031325004666172648</d6p1:double><d6p1:double>0.68494703338981122</d6p1:double></Weights></Neuron><Neuron><Bias>-1.0003998072867031</Bias><Output>1</Output><Weights xmlns:d6p1="http://schemas.microsoft.com/2003/10/Serialization/Arrays"><d6p1:double>0.18067857247165553</d6p1:double><d6p1:double>0.91381793894383168</d6p1:double><d6p1:double>1.1883101117930912</d6p1:double><d6p1:double>1.1091781377264267</d6p1:double><d6p1:double>0.38095760147327806</d6p1:double><d6p1:double>1.0287864173546351</d6p1:double><d6p1:double>-0.32843531761566908</d6p1:double><d6p1:double>0.85990628772563027</d6p1:double><d6p1:double>0.34342848945538335</d6p1:double><d6p1:double>0.55581845902535276</d6p1:double><d6p1:double>0.847204152555415</d6p1:double><d6p1:double>-0.017490468857386043</d6p1:double><d6p1:double>0.44211063905891629</d6p1:double><d6p1:double>0.11728382862704576</d6p1:double><d6p1:double>0.086858106473891319</d6p1:double><d6p1:double>0.3555514584872459</d6p1:double><d6p1:double>0.15218338967716225</d6p1:double><d6p1:double>0.69719673035988594</d6p1:double><d6p1:double>0.33193164684254217</d6p1:double><d6p1:double>0.9859881808080222</d6p1:double><d6p1:double>-0.017163503826720366</d6p1:double><d6p1:double>0.74998719352862231</d6p1:double><d6p1:double>-0.027048667659378182</d6p1:double><d6p1:double>0.46088920652934429</d6p1:double><d6p1:double>0.32645988953135763</d6p1:double></Weights></Neuron><Neuron><Bias>-0.998796522831611</Bias><Output>1</Output><Weights xmlns:d6p1="http://schemas.microsoft.com/2003/10/Serialization/Arrays"><d6p1:double>0.043550751549816122</d6p1:double><d6p1:double>0.35319440418104153</d6p1:double><d6p1:double>0.56780975176709048</d6p1:double><d6p1:double>0.89486526970027136</d6p1:double><d6p1:double>-0.16047574533690032</d6p1:double><d6p1:double>1.1458206748822133</d6p1:double><d6p1:double>0.21232287672030475</d6p1:double><d6p1:double>0.92813776752053545</d6p1:double><d6p1:double>0.56223766778489515</d6p1:double><d6p1:double>0.42879345601273533</d6p1:double><d6p1:double>0.1236654074485381</d6p1:double><d6p1:double>0.79486048034362877</d6p1:double><d6p1:double>0.98812126998731153</d6p1:double><d6p1:double>1.1156898771503698</d6p1:double><d6p1:double>0.66855450466777</d6p1:double><d6p1:double>0.28362671830198249</d6p1:double><d6p1:double>0.32123855014155911</d6p1:double><d6p1:double>0.91932006130185051</d6p1:double><d6p1:double>0.33074111819898577</d6p1:double><d6p1:double>0.78885272607262225</d6p1:double><d6p1:double>0.93776192496116162</d6p1:double><d6p1:double>0.18216362406486625</d6p1:double><d6p1:double>0.33302214849630357</d6p1:double><d6p1:double>0.57438392499527446</d6p1:double><d6p1:double>0.30153297712582766</d6p1:double></Weights></Neuron><Neuron><Bias>0.00055246342117245076</Bias><Output>-1</Output><Weights xmlns:d6p1="http://schemas.microsoft.com/2003/10/Serialization/Arrays"><d6p1:double>-0.34154834503673032</d6p1:double><d6p1:double>0.034721926896517506</d6p1:double><d6p1:double>-0.071578681513044279</d6p1:double><d6p1:double>0.80390690574921875</d6p1:double><d6p1:double>0.56644720660717574</d6p1:double><d6p1:double>0.71832649120873981</d6p1:double><d6p1:double>0.3779771399940256</d6p1:double><d6p1:double>-0.087814997341166531</d6p1:double><d6p1:double>0.70172927552776454</d6p1:double><d6p1:double>0.7335832151185574</d6p1:double><d6p1:double>0.32895840223236461</d6p1:double><d6p1:double>0.16913412819620452</d6p1:double><d6p1:double>0.32386033902363609</d6p1:double><d6p1:double>1.1611149110479724</d6p1:double><d6p1:double>0.61148697271350883</d6p1:double><d6p1:double>0.056431140717487338</d6p1:double><d6p1:double>0.94396801304927669</d6p1:double><d6p1:double>0.019542447369146475</d6p1:double><d6p1:double>0.47621909310901545</d6p1:double><d6p1:double>0.50921322631441257</d6p1:double><d6p1:double>0.62931086428833116</d6p1:double><d6p1:double>0.47532853962394661</d6p1:double><d6p1:double>0.63278722597651271</d6p1:double><d6p1:double>0.86695329631750062</d6p1:double><d6p1:double>-0.32682933054252916</d6p1:double></Weights></Neuron><Neuron><Bias>-1.0012892081714626</Bias><Output>-1</Output><Weights xmlns:d6p1="http://schemas.microsoft.com/2003/10/Serialization/Arrays"><d6p1:double>0.94901184684479978</d6p1:double><d6p1:double>0.5448040847966481</d6p1:double><d6p1:double>-0.11687865360554597</d6p1:double><d6p1:double>0.45700817987921122</d6p1:double><d6p1:double>1.5111241212009079</d6p1:double><d6p1:double>-0.24438040465756911</d6p1:double><d6p1:double>0.59553510219923456</d6p1:double><d6p1:double>0.47121011689931086</d6p1:double><d6p1:double>0.896970358807176</d6p1:double><d6p1:double>0.053521344745115544</d6p1:double><d6p1:double>0.46407428938149825</d6p1:double><d6p1:double>0.221971771124824</d6p1:double><d6p1:double>0.7885720490584216</d6p1:double><d6p1:double>0.53783619463173316</d6p1:double><d6p1:double>0.7651849161546922</d6p1:double><d6p1:double>0.4221212864281163</d6p1:double><d6p1:double>0.57705802450283228</d6p1:double><d6p1:double>0.62333220446483373</d6p1:double><d6p1:double>0.099711327091640892</d6p1:double><d6p1:double>-0.14070508511663532</d6p1:double><d6p1:double>0.43782182467883352</d6p1:double><d6p1:double>1.3077263895808677</d6p1:double><d6p1:double>0.2928621454092124</d6p1:double><d6p1:double>0.28656025516562006</d6p1:double><d6p1:double>0.45380261562517743</d6p1:double></Weights></Neuron><Neuron><Bias>-0.0010649352152706454</Bias><Output>-1</Output><Weights xmlns:d6p1="http://schemas.microsoft.com/2003/10/Serialization/Arrays"><d6p1:double>1.2189480319177908</d6p1:double><d6p1:double>0.65574463390364424</d6p1:double><d6p1:double>0.43281666401205066</d6p1:double><d6p1:double>1.1053845557721533</d6p1:double><d6p1:double>0.83633616692889845</d6p1:double><d6p1:double>0.11939550624429514</d6p1:double><d6p1:double>0.89019203228902133</d6p1:double><d6p1:double>0.40997838525712405</d6p1:double><d6p1:double>0.1432469959204756</d6p1:double><d6p1:double>0.82835814192647617</d6p1:double><d6p1:double>-0.024209357499284403</d6p1:double><d6p1:double>0.43426073762280487</d6p1:double><d6p1:double>0.69949682441696892</d6p1:double><d6p1:double>0.0092987550964429878</d6p1:double><d6p1:double>-0.11984697714841284</d6p1:double><d6p1:double>0.56281537039536655</d6p1:double><d6p1:double>0.88980454744561432</d6p1:double><d6p1:double>0.56938612320740345</d6p1:double><d6p1:double>0.2733653500538738</d6p1:double><d6p1:double>0.20586157839472821</d6p1:double><d6p1:double>0.11249107702021452</d6p1:double><d6p1:double>1.1251283820808611</d6p1:double><d6p1:double>0.78747113983725414</d6p1:double><d6p1:double>-0.10610101132865522</d6p1:double><d6p1:double>0.7476593086854435</d6p1:double></Weights></Neuron><Neuron><Bias>0.00082050090490390912</Bias><Output>1</Output><Weights xmlns:d6p1="http://schemas.microsoft.com/2003/10/Serialization/Arrays"><d6p1:double>0.68805011964749851</d6p1:double><d6p1:double>0.26318783953212244</d6p1:double><d6p1:double>0.73486717694121628</d6p1:double><d6p1:double>0.52166490713589408</d6p1:double><d6p1:double>0.5661950716050369</d6p1:double><d6p1:double>0.61932117701400524</d6p1:double><d6p1:double>-0.25764714324037152</d6p1:double><d6p1:double>0.80752096168749332</d6p1:double><d6p1:double>0.33414852725623728</d6p1:double><d6p1:double>0.6054316019094883</d6p1:double><d6p1:double>0.19223792565738884</d6p1:double><d6p1:double>1.2388913677102296</d6p1:double><d6p1:double>0.32850083726713819</d6p1:double><d6p1:double>0.83381988147262442</d6p1:double><d6p1:double>0.942678580469578</d6p1:double><d6p1:double>0.18682792703305412</d6p1:double><d6p1:double>0.56782464347496475</d6p1:double><d6p1:double>0.39313306195516667</d6p1:double><d6p1:double>0.55865788481380962</d6p1:double><d6p1:double>0.93935098500497</d6p1:double><d6p1:double>0.67453078471435746</d6p1:double><d6p1:double>0.61565740241522615</d6p1:double><d6p1:double>0.034422997351516806</d6p1:double><d6p1:double>0.52713026575135735</d6p1:double><d6p1:double>-0.076091116457378177</d6p1:double></Weights></Neuron><Neuron><Bias>0.0005376241615974044</Bias><Output>1</Output><Weights xmlns:d6p1="http://schemas.microsoft.com/2003/10/Serialization/Arrays"><d6p1:double>0.05078315105751384</d6p1:double><d6p1:double>0.30039136534717681</d6p1:double><d6p1:double>0.366335878000159</d6p1:double><d6p1:double>0.036329318177607345</d6p1:double><d6p1:double>0.053173391281633543</d6p1:double><d6p1:double>0.42257578872943014</d6p1:double><d6p1:double>0.087291898370763885</d6p1:double><d6p1:double>0.027744103409477493</d6p1:double><d6p1:double>0.67680023150384683</d6p1:double><d6p1:double>1.1624935614221379</d6p1:double><d6p1:double>-0.19967724323982</d6p1:double><d6p1:double>0.26645620789866592</d6p1:double><d6p1:double>0.16559267926913218</d6p1:double><d6p1:double>0.50711680172472318</d6p1:double><d6p1:double>-0.25414957549272471</d6p1:double><d6p1:double>-0.31433609046037919</d6p1:double><d6p1:double>0.95040390612646375</d6p1:double><d6p1:double>0.26602109622340409</d6p1:double><d6p1:double>0.5608893122864157</d6p1:double><d6p1:double>1.3378258018636309</d6p1:double><d6p1:double>0.73039055176058409</d6p1:double><d6p1:double>0.51285308274252</d6p1:double><d6p1:double>0.032885369472874237</d6p1:double><d6p1:double>0.90234046838151061</d6p1:double><d6p1:double>0.501425207804292</d6p1:double></Weights></Neuron><Neuron><Bias>-1.0002073439555228</Bias><Output>-1</Output><Weights xmlns:d6p1="http://schemas.microsoft.com/2003/10/Serialization/Arrays"><d6p1:double>1.2485868716401962</d6p1:double><d6p1:double>0.49164820351264804</d6p1:double><d6p1:double>0.93480109276860646</d6p1:double><d6p1:double>0.8411574748533156</d6p1:double><d6p1:double>-0.26967270059198611</d6p1:double><d6p1:double>0.148516889606664</d6p1:double><d6p1:double>0.86358642772209726</d6p1:double><d6p1:double>0.85246155135973289</d6p1:double><d6p1:double>0.82610001143783984</d6p1:double><d6p1:double>1.0049556627504423</d6p1:double><d6p1:double>0.47670332770141755</d6p1:double><d6p1:double>-0.2083521838988838</d6p1:double><d6p1:double>0.16478189255685377</d6p1:double><d6p1:double>0.49863223510606836</d6p1:double><d6p1:double>-0.52622284813005915</d6p1:double><d6p1:double>-0.44606823640806076</d6p1:double><d6p1:double>0.12306835081931865</d6p1:double><d6p1:double>-0.23961881022014955</d6p1:double><d6p1:double>-0.67779675592779465</d6p1:double><d6p1:double>-0.10610224411180234</d6p1:double><d6p1:double>0.89679592623549542</d6p1:double><d6p1:double>0.078238796602976127</d6p1:double><d6p1:double>0.2498961938515768</d6p1:double><d6p1:double>1.1468827845240919</d6p1:double><d6p1:double>1.1619054891549161</d6p1:double></Weights></Neuron><Neuron><Bias>0.0011378803578285467</Bias><Output>1</Output><Weights xmlns:d6p1="http://schemas.microsoft.com/2003/10/Serialization/Arrays"><d6p1:double>0.84698795351186418</d6p1:double><d6p1:double>0.024580856790920015</d6p1:double><d6p1:double>0.696694768432555</d6p1:double><d6p1:double>-0.39069859980551758</d6p1:double><d6p1:double>0.0082751421544468365</d6p1:double><d6p1:double>-0.85950680583139094</d6p1:double><d6p1:double>-0.66157286466480658</d6p1:double><d6p1:double>-0.28423005668951973</d6p1:double><d6p1:double>0.14390382157104262</d6p1:double><d6p1:double>1.1299128038355351</d6p1:double><d6p1:double>0.68795859408403859</d6p1:double><d6p1:double>0.394875019987503</d6p1:double><d6p1:double>-0.055633766085317955</d6p1:double><d6p1:double>0.82152918843137379</d6p1:double><d6p1:double>0.8479294516173792</d6p1:double><d6p1:double>-0.026014194399931634</d6p1:double><d6p1:double>0.54270091356157923</d6p1:double><d6p1:double>-0.2265579663036843</d6p1:double><d6p1:double>1.0838574769644602</d6p1:double><d6p1:double>1.6630280895679246</d6p1:double><d6p1:double>0.15835848368375491</d6p1:double><d6p1:double>1.2368932591219028</d6p1:double><d6p1:double>-0.17016910078567987</d6p1:double><d6p1:double>0.42125359510147603</d6p1:double><d6p1:double>0.72209638932820353</d6p1:double></Weights></Neuron><Neuron><Bias>1.6668164254089592E-06</Bias><Output>-1</Output><Weights xmlns:d6p1="http://schemas.microsoft.com/2003/10/Serialization/Arrays"><d6p1:double>0.90973398362453683</d6p1:double><d6p1:double>-0.050705538646762235</d6p1:double><d6p1:double>0.40474378458972221</d6p1:double><d6p1:double>0.19828413104178605</d6p1:double><d6p1:double>-0.22747770192586528</d6p1:double><d6p1:double>1.3315516383981232</d6p1:double><d6p1:double>0.94539125541741942</d6p1:double><d6p1:double>0.29163948171030313</d6p1:double><d6p1:double>0.51322168542802948</d6p1:double><d6p1:double>-0.23738219037534353</d6p1:double><d6p1:double>-0.12073437168329855</d6p1:double><d6p1:double>0.38090548611121533</d6p1:double><d6p1:double>1.0834152830072492</d6p1:double><d6p1:double>0.65143101927532854</d6p1:double><d6p1:double>1.0361377715540621</d6p1:double><d6p1:double>0.43586471302236951</d6p1:double><d6p1:double>0.094038889909473011</d6p1:double><d6p1:double>-0.48735758995284156</d6p1:double><d6p1:double>-0.41299382982105726</d6p1:double><d6p1:double>-0.74059055476873059</d6p1:double><d6p1:double>1.0819441147312818</d6p1:double><d6p1:double>-0.14235950318891305</d6p1:double><d6p1:double>0.74943478360364868</d6p1:double><d6p1:double>0.54909455095075654</d6p1:double><d6p1:double>-0.15466294409847414</d6p1:double></Weights></Neuron><Neuron><Bias>-1.0007574793585898</Bias><Output>-1</Output><Weights xmlns:d6p1="http://schemas.microsoft.com/2003/10/Serialization/Arrays"><d6p1:double>0.925936051815125</d6p1:double><d6p1:double>0.044898711662072384</d6p1:double><d6p1:double>0.68386106415252212</d6p1:double><d6p1:double>0.67080150535929006</d6p1:double><d6p1:double>0.36577204101555333</d6p1:double><d6p1:double>0.71974757219957031</d6p1:double><d6p1:double>0.49720931746354841</d6p1:double><d6p1:double>-0.01783121242600515</d6p1:double><d6p1:double>0.23678781665823831</d6p1:double><d6p1:double>0.84578747793329789</d6p1:double><d6p1:double>0.5734868334127492</d6p1:double><d6p1:double>0.24766588557904773</d6p1:double><d6p1:double>0.30920199873453719</d6p1:double><d6p1:double>0.15596555989386141</d6p1:double><d6p1:double>0.77833169407105685</d6p1:double><d6p1:double>0.49764007913194985</d6p1:double><d6p1:double>0.24934704813699757</d6p1:double><d6p1:double>0.44290462562218846</d6p1:double><d6p1:double>0.45267045852611693</d6p1:double><d6p1:double>0.24515376411828793</d6p1:double><d6p1:double>0.061404004938803415</d6p1:double><d6p1:double>1.3990756189365794</d6p1:double><d6p1:double>1.187043922998154</d6p1:double><d6p1:double>0.47528812819288568</d6p1:double><d6p1:double>0.78639302979407744</d6p1:double></Weights></Neuron><Neuron><Bias>0.00079855236213998825</Bias><Output>-1</Output><Weights xmlns:d6p1="http://schemas.microsoft.com/2003/10/Serialization/Arrays"><d6p1:double>0.0083068454627411512</d6p1:double><d6p1:double>0.86601206315636747</d6p1:double><d6p1:double>-0.12009945046686858</d6p1:double><d6p1:double>0.6217671795535018</d6p1:double><d6p1:double>1.3295354570310944</d6p1:double><d6p1:double>-0.16295969914282887</d6p1:double><d6p1:double>-0.5356641256928113</d6p1:double><d6p1:double>0.66929254716954456</d6p1:double><d6p1:double>0.88522234248519915</d6p1:double><d6p1:double>0.11297367458208878</d6p1:double><d6p1:double>0.86895332146969984</d6p1:double><d6p1:double>0.850315298846732</d6p1:double><d6p1:double>0.13349985740631676</d6p1:double><d6p1:double>1.2924201228226337</d6p1:double><d6p1:double>-0.565949727418735</d6p1:double><d6p1:double>0.046681102336763348</d6p1:double><d6p1:double>-0.23046055680058158</d6p1:double><d6p1:double>0.39617615150708696</d6p1:double><d6p1:double>0.26814521473266795</d6p1:double><d6p1:double>1.5274229275678119</d6p1:double><d6p1:double>0.53088213943612028</d6p1:double><d6p1:double>0.083611140399380154</d6p1:double><d6p1:double>0.0830147892421791</d6p1:double><d6p1:double>-0.28066062437209344</d6p1:double><d6p1:double>0.591777516243284</d6p1:double></Weights></Neuron><Neuron><Bias>0.00026152967383800269</Bias><Output>1</Output><Weights xmlns:d6p1="http://schemas.microsoft.com/2003/10/Serialization/Arrays"><d6p1:double>-0.10785968514527845</d6p1:double><d6p1:double>0.56897962214424092</d6p1:double><d6p1:double>0.0729374676494127</d6p1:double><d6p1:double>0.39349249360059546</d6p1:double><d6p1:double>-0.24484313992843756</d6p1:double><d6p1:double>0.095209308116855809</d6p1:double><d6p1:double>0.90742685209890128</d6p1:double><d6p1:double>0.93625468665015</d6p1:double><d6p1:double>0.044396102347780693</d6p1:double><d6p1:double>0.27469648653420914</d6p1:double><d6p1:double>0.1713752804791954</d6p1:double><d6p1:double>0.85703858341333128</d6p1:double><d6p1:double>0.28581063912508403</d6p1:double><d6p1:double>0.59931204028870988</d6p1:double><d6p1:double>1.1667457963375272</d6p1:double><d6p1:double>0.36876412378281026</d6p1:double><d6p1:double>0.59580680402387176</d6p1:double><d6p1:double>0.20780372015152157</d6p1:double><d6p1:double>0.69587989230640945</d6p1:double><d6p1:double>1.0625582018117918</d6p1:double><d6p1:double>0.23727464524843145</d6p1:double><d6p1:double>0.58463754294029613</d6p1:double><d6p1:double>0.531625088031903</d6p1:double><d6p1:double>0.91226633473230911</d6p1:double><d6p1:double>0.68246752718800663</d6p1:double></Weights></Neuron><Neuron><Bias>-0.99993645400706677</Bias><Output>-1</Output><Weights xmlns:d6p1="http://schemas.microsoft.com/2003/10/Serialization/Arrays"><d6p1:double>0.42458902847359647</d6p1:double><d6p1:double>0.717592887781102</d6p1:double><d6p1:double>0.45337075983797115</d6p1:double><d6p1:double>0.91736511213832372</d6p1:double><d6p1:double>0.46858680766591654</d6p1:double><d6p1:double>0.77928645168606625</d6p1:double><d6p1:double>0.17517306541169819</d6p1:double><d6p1:double>-0.0070422486296382722</d6p1:double><d6p1:double>0.844046760523482</d6p1:double><d6p1:double>0.81093344931041011</d6p1:double><d6p1:double>0.45818033221472138</d6p1:double><d6p1:double>0.36147722460893145</d6p1:double><d6p1:double>0.76160825485572392</d6p1:double><d6p1:double>0.64166290016821925</d6p1:double><d6p1:double>0.856526118346847</d6p1:double><d6p1:double>0.26351294157296695</d6p1:double><d6p1:double>0.44282632646444492</d6p1:double><d6p1:double>0.4619849802859145</d6p1:double><d6p1:double>0.59808429980351063</d6p1:double><d6p1:double>0.538237603294734</d6p1:double><d6p1:double>1.0413395213006851</d6p1:double><d6p1:double>0.533848223961642</d6p1:double><d6p1:double>0.907402690077924</d6p1:double><d6p1:double>0.59567772630529858</d6p1:double><d6p1:double>1.11444902040863</d6p1:double></Weights></Neuron><Neuron><Bias>-4.7523789251818034E-05</Bias><Output>1</Output><Weights xmlns:d6p1="http://schemas.microsoft.com/2003/10/Serialization/Arrays"><d6p1:double>-0.5475598555021699</d6p1:double><d6p1:double>0.52513839757384617</d6p1:double><d6p1:double>0.71712807707443271</d6p1:double><d6p1:double>1.0181555107036628</d6p1:double><d6p1:double>0.19799036040347451</d6p1:double><d6p1:double>0.28866999065902149</d6p1:double><d6p1:double>0.91915620524391162</d6p1:double><d6p1:double>0.51388503946871</d6p1:double><d6p1:double>0.677980053941536</d6p1:double><d6p1:double>0.42871373734679619</d6p1:double><d6p1:double>0.0636529687348157</d6p1:double><d6p1:double>-0.11116478882438641</d6p1:double><d6p1:double>0.36443028668495081</d6p1:double><d6p1:double>-0.012606191862280363</d6p1:double><d6p1:double>0.99820172405667906</d6p1:double><d6p1:double>-0.14772222808055466</d6p1:double><d6p1:double>0.472533236246642</d6p1:double><d6p1:double>0.13626011025359733</d6p1:double><d6p1:double>0.4216542159276242</d6p1:double><d6p1:double>0.7139253422551245</d6p1:double><d6p1:double>0.17074039701348509</d6p1:double><d6p1:double>0.173477082070477</d6p1:double><d6p1:double>-0.039022782052375506</d6p1:double><d6p1:double>0.49334540771516883</d6p1:double><d6p1:double>-0.33367424306852117</d6p1:double></Weights></Neuron><Neuron><Bias>4.0292859130657017E-05</Bias><Output>-1</Output><Weights xmlns:d6p1="http://schemas.microsoft.com/2003/10/Serialization/Arrays"><d6p1:double>0.02173766840495699</d6p1:double><d6p1:double>0.71839243551167664</d6p1:double><d6p1:double>0.16226269330386711</d6p1:double><d6p1:double>0.46982440071107723</d6p1:double><d6p1:double>1.4513334814361409</d6p1:double><d6p1:double>-0.083159112054802822</d6p1:double><d6p1:double>1.436500610881994</d6p1:double><d6p1:double>-0.091415703986248681</d6p1:double><d6p1:double>0.66201939682252775</d6p1:double><d6p1:double>-0.042347157728936581</d6p1:double><d6p1:double>-0.57273174285663531</d6p1:double><d6p1:double>-0.10998193699853714</d6p1:double><d6p1:double>0.67024107880320571</d6p1:double><d6p1:double>0.84004740837474778</d6p1:double><d6p1:double>-0.04364600944253625</d6p1:double><d6p1:double>0.71503319477535154</d6p1:double><d6p1:double>0.35455780710680856</d6p1:double><d6p1:double>0.24576684611682</d6p1:double><d6p1:double>0.73163148448495663</d6p1:double><d6p1:double>0.50015451392485144</d6p1:double><d6p1:double>0.39862205395517114</d6p1:double><d6p1:double>-0.13342575700611653</d6p1:double><d6p1:double>0.90184475009410037</d6p1:double><d6p1:double>0.38774484258152625</d6p1:double><d6p1:double>-0.43798149968025585</d6p1:double></Weights></Neuron><Neuron><Bias>0.0001373051673196519</Bias><Output>1</Output><Weights xmlns:d6p1="http://schemas.microsoft.com/2003/10/Serialization/Arrays"><d6p1:double>0.4187349706917185</d6p1:double><d6p1:double>0.49392880229742714</d6p1:double><d6p1:double>0.65543910829251706</d6p1:double><d6p1:double>-0.052159438241496506</d6p1:double><d6p1:double>0.26369965445031784</d6p1:double><d6p1:double>0.13550924273672604</d6p1:double><d6p1:double>0.54520888794438327</d6p1:double><d6p1:double>0.29170743738674765</d6p1:double><d6p1:double>1.0130797995503782</d6p1:double><d6p1:double>0.27743720662226629</d6p1:double><d6p1:double>1.0103344798224492</d6p1:double><d6p1:double>0.44748104743335781</d6p1:double><d6p1:double>0.79006068349956782</d6p1:double><d6p1:double>0.19736988534299416</d6p1:double><d6p1:double>0.42711784145649345</d6p1:double><d6p1:double>1.004306662281867</d6p1:double><d6p1:double>0.90167615130773537</d6p1:double><d6p1:double>0.81980909362061716</d6p1:double><d6p1:double>0.70939152460421018</d6p1:double><d6p1:double>0.515750660625808</d6p1:double><d6p1:double>0.565694714165198</d6p1:double><d6p1:double>0.71966129579187788</d6p1:double><d6p1:double>0.96752829877241076</d6p1:double><d6p1:double>0.699092466007162</d6p1:double><d6p1:double>0.838003088363426</d6p1:double></Weights></Neuron><Neuron><Bias>-5.5092631680775E-05</Bias><Output>-1</Output><Weights xmlns:d6p1="http://schemas.microsoft.com/2003/10/Serialization/Arrays"><d6p1:double>0.038269527625541047</d6p1:double><d6p1:double>0.57553657220854393</d6p1:double><d6p1:double>0.52880478679784537</d6p1:double><d6p1:double>-0.027034411815174898</d6p1:double><d6p1:double>0.74365073750723265</d6p1:double><d6p1:double>-0.10439501440203203</d6p1:double><d6p1:double>0.74157425439674218</d6p1:double><d6p1:double>0.75601761376988752</d6p1:double><d6p1:double>0.24882592141549012</d6p1:double><d6p1:double>0.40452079924650475</d6p1:double><d6p1:double>0.46580429615069358</d6p1:double><d6p1:double>0.37043899945080766</d6p1:double><d6p1:double>0.43208426631625924</d6p1:double><d6p1:double>0.36085240487290776</d6p1:double><d6p1:double>0.83796843148707889</d6p1:double><d6p1:double>0.1847449843129291</d6p1:double><d6p1:double>1.5317063267515938</d6p1:double><d6p1:double>0.42670400279139731</d6p1:double><d6p1:double>0.84824905630711367</d6p1:double><d6p1:double>0.94882518918863823</d6p1:double><d6p1:double>0.64464315095353386</d6p1:double><d6p1:double>0.29666985046668271</d6p1:double><d6p1:double>0.83453099938452613</d6p1:double><d6p1:double>0.40671020151738785</d6p1:double><d6p1:double>0.34429039331344097</d6p1:double></Weights></Neuron><Neuron><Bias>-1.0000027902412978</Bias><Output>1</Output><Weights xmlns:d6p1="http://schemas.microsoft.com/2003/10/Serialization/Arrays"><d6p1:double>0.37753075668453295</d6p1:double><d6p1:double>0.7107451598764376</d6p1:double><d6p1:double>0.86074071186598178</d6p1:double><d6p1:double>1.0983674328971345</d6p1:double><d6p1:double>0.37875343190045224</d6p1:double><d6p1:double>1.1184567468084554</d6p1:double><d6p1:double>0.14829480960921076</d6p1:double><d6p1:double>0.57309835592469738</d6p1:double><d6p1:double>1.0176909259311697</d6p1:double><d6p1:double>0.81065313269908834</d6p1:double><d6p1:double>0.34586131874811094</d6p1:double><d6p1:double>0.87831119604143792</d6p1:double><d6p1:double>0.67389042435384072</d6p1:double><d6p1:double>0.39477616640504781</d6p1:double><d6p1:double>0.23265761736933135</d6p1:double><d6p1:double>0.24238197887669277</d6p1:double><d6p1:double>0.60110210528770924</d6p1:double><d6p1:double>0.85653758887784315</d6p1:double><d6p1:double>0.12018235625030442</d6p1:double><d6p1:double>0.55528022007866218</d6p1:double><d6p1:double>0.063269021434969167</d6p1:double><d6p1:double>0.27760439430061934</d6p1:double><d6p1:double>0.59766627051378218</d6p1:double><d6p1:double>0.62063500313461939</d6p1:double><d6p1:double>0.54962067130131942</d6p1:double></Weights></Neuron><Neuron><Bias>-1.0001622991597812</Bias><Output>-1</Output><Weights xmlns:d6p1="http://schemas.microsoft.com/2003/10/Serialization/Arrays"><d6p1:double>-0.42975637312549286</d6p1:double><d6p1:double>-0.23387098305912907</d6p1:double><d6p1:double>-0.2616824257887852</d6p1:double><d6p1:double>-0.00853869248600727</d6p1:double><d6p1:double>0.74927589369997016</d6p1:double><d6p1:double>0.47054750540649776</d6p1:double><d6p1:double>0.5546234259992554</d6p1:double><d6p1:double>0.57768144397989751</d6p1:double><d6p1:double>1.1928203263583512</d6p1:double><d6p1:double>1.0818055220160305</d6p1:double><d6p1:double>0.35968886801469135</d6p1:double><d6p1:double>0.80282842203425442</d6p1:double><d6p1:double>-0.15004853640162255</d6p1:double><d6p1:double>0.87117138781350889</d6p1:double><d6p1:double>0.23636673482653289</d6p1:double><d6p1:double>1.2379093921842814</d6p1:double><d6p1:double>0.34404914754277288</d6p1:double><d6p1:double>1.114110321570331</d6p1:double><d6p1:double>0.95360134838242261</d6p1:double><d6p1:double>-0.024630941282087353</d6p1:double><d6p1:double>0.64694583177369558</d6p1:double><d6p1:double>0.86322641765842589</d6p1:double><d6p1:double>0.24931951748173639</d6p1:double><d6p1:double>0.26321840043113942</d6p1:double><d6p1:double>0.28191605612155052</d6p1:double></Weights></Neuron><Neuron><Bias>-0.00035577895900212251</Bias><Output>-1</Output><Weights xmlns:d6p1="http://schemas.microsoft.com/2003/10/Serialization/Arrays"><d6p1:double>0.15868777465218137</d6p1:double><d6p1:double>-0.11874741929537004</d6p1:double><d6p1:double>0.38194105557081992</d6p1:double><d6p1:double>0.890701006104164</d6p1:double><d6p1:double>0.68797822119333285</d6p1:double><d6p1:double>0.012859398791823212</d6p1:double><d6p1:double>0.323631705360252</d6p1:double><d6p1:double>-0.11876504808336173</d6p1:double><d6p1:double>0.57504813969197544</d6p1:double><d6p1:double>0.035580886072901143</d6p1:double><d6p1:double>0.631407014410266</d6p1:double><d6p1:double>0.66572993528278634</d6p1:double><d6p1:double>0.48246323235847627</d6p1:double><d6p1:double>0.38319512218563695</d6p1:double><d6p1:double>0.32624010969163886</d6p1:double><d6p1:double>0.991433459280639</d6p1:double><d6p1:double>0.69476407172446619</d6p1:double><d6p1:double>0.70966565295358675</d6p1:double><d6p1:double>0.93453601094390815</d6p1:double><d6p1:double>0.50461134659746787</d6p1:double><d6p1:double>0.87843022365515189</d6p1:double><d6p1:double>0.51364526394604981</d6p1:double><d6p1:double>0.37890829876134036</d6p1:double><d6p1:double>0.36017021523293397</d6p1:double><d6p1:double>1.0001847630360536</d6p1:double></Weights></Neuron><Neuron><Bias>-0.999088100260675</Bias><Output>1</Output><Weights xmlns:d6p1="http://schemas.microsoft.com/2003/10/Serialization/Arrays"><d6p1:double>0.24950431039639381</d6p1:double><d6p1:double>0.78396338740945148</d6p1:double><d6p1:double>1.3444325440738398</d6p1:double><d6p1:double>-0.23863930755378</d6p1:double><d6p1:double>-0.0824747437593847</d6p1:double><d6p1:double>0.065938873924491589</d6p1:double><d6p1:double>0.92365967750473232</d6p1:double><d6p1:double>1.1969938839422485</d6p1:double><d6p1:double>0.028692392003917211</d6p1:double><d6p1:double>0.26497086760417243</d6p1:double><d6p1:double>-0.039840967109315679</d6p1:double><d6p1:double>-0.49022955992013462</d6p1:double><d6p1:double>1.1608790374364464</d6p1:double><d6p1:double>1.0396569492839007</d6p1:double><d6p1:double>0.2879328485306667</d6p1:double><d6p1:double>0.80578071177264676</d6p1:double><d6p1:double>0.027326539920956568</d6p1:double><d6p1:double>0.33883637742588529</d6p1:double><d6p1:double>0.48456027217053255</d6p1:double><d6p1:double>0.77402846570513506</d6p1:double><d6p1:double>0.039750001774489341</d6p1:double><d6p1:double>0.71306794395264594</d6p1:double><d6p1:double>0.057673351903052651</d6p1:double><d6p1:double>0.46877787758625722</d6p1:double><d6p1:double>-0.11610951611562706</d6p1:double></Weights></Neuron><Neuron><Bias>0.00042780801209055036</Bias><Output>1</Output><Weights xmlns:d6p1="http://schemas.microsoft.com/2003/10/Serialization/Arrays"><d6p1:double>0.45350725484655385</d6p1:double><d6p1:double>-0.062783653813587845</d6p1:double><d6p1:double>0.51479518247131539</d6p1:double><d6p1:double>1.0253496256141348</d6p1:double><d6p1:double>0.60469766915133982</d6p1:double><d6p1:double>1.141984431589794</d6p1:double><d6p1:double>0.80569579694636007</d6p1:double><d6p1:double>0.61572896968664992</d6p1:double><d6p1:double>1.0285392647318903</d6p1:double><d6p1:double>0.62268751815010037</d6p1:double><d6p1:double>0.21525837490635522</d6p1:double><d6p1:double>0.74161493465523864</d6p1:double><d6p1:double>1.1436200932083145</d6p1:double><d6p1:double>0.05040282281679561</d6p1:double><d6p1:double>0.76992466750488375</d6p1:double><d6p1:double>0.95381585723869722</d6p1:double><d6p1:double>0.19253860419211871</d6p1:double><d6p1:double>0.67397634348034063</d6p1:double><d6p1:double>0.57382997871043062</d6p1:double><d6p1:double>0.45958333332276863</d6p1:double><d6p1:double>-0.31525450253175907</d6p1:double><d6p1:double>0.9167407662452024</d6p1:double><d6p1:double>0.652430098393735</d6p1:double><d6p1:double>1.1454210919500925</d6p1:double><d6p1:double>-0.21745441462271975</d6p1:double></Weights></Neuron><Neuron><Bias>-1.0008364013435864</Bias><Output>-1</Output><Weights xmlns:d6p1="http://schemas.microsoft.com/2003/10/Serialization/Arrays"><d6p1:double>1.3251329739129387</d6p1:double><d6p1:double>-0.7948835735495321</d6p1:double><d6p1:double>0.54654957808146842</d6p1:double><d6p1:double>-0.0038017864252216874</d6p1:double><d6p1:double>0.17892545176194313</d6p1:double><d6p1:double>0.90080021895349849</d6p1:double><d6p1:double>0.6635804941215826</d6p1:double><d6p1:double>0.71148905779659788</d6p1:double><d6p1:double>0.79072111365380326</d6p1:double><d6p1:double>1.1001868193299922</d6p1:double><d6p1:double>0.29541279645579144</d6p1:double><d6p1:double>0.44180131000007183</d6p1:double><d6p1:double>0.4778649381431454</d6p1:double><d6p1:double>0.12770718334628967</d6p1:double><d6p1:double>0.27518416284983305</d6p1:double><d6p1:double>0.4795705426023415</d6p1:double><d6p1:double>-0.16598237606499511</d6p1:double><d6p1:double>1.295052222026162</d6p1:double><d6p1:double>0.16288429605673044</d6p1:double><d6p1:double>-0.18598503147941389</d6p1:double><d6p1:double>-0.27556304636899381</d6p1:double><d6p1:double>0.43358215111016329</d6p1:double><d6p1:double>0.3547227892447799</d6p1:double><d6p1:double>0.23052590576691823</d6p1:double><d6p1:double>-0.48233219279074829</d6p1:double></Weights></Neuron><Neuron><Bias>-1.000026491923893</Bias><Output>1</Output><Weights xmlns:d6p1="http://schemas.microsoft.com/2003/10/Serialization/Arrays"><d6p1:double>0.568290613550453</d6p1:double><d6p1:double>0.8880371637866421</d6p1:double><d6p1:double>0.19059120957156486</d6p1:double><d6p1:double>0.73648151517494154</d6p1:double><d6p1:double>-0.26928615958262914</d6p1:double><d6p1:double>0.44228248473483905</d6p1:double><d6p1:double>0.70072800382258982</d6p1:double><d6p1:double>0.033481366523438381</d6p1:double><d6p1:double>0.10617490039872768</d6p1:double><d6p1:double>0.78808615215846789</d6p1:double><d6p1:double>0.51767074052951589</d6p1:double><d6p1:double>0.58755728740573954</d6p1:double><d6p1:double>0.99372418714703858</d6p1:double><d6p1:double>0.21494125193579436</d6p1:double><d6p1:double>0.899169418388394</d6p1:double><d6p1:double>0.35444186999014127</d6p1:double><d6p1:double>0.32480788132334065</d6p1:double><d6p1:double>0.51468434820867714</d6p1:double><d6p1:double>0.2523796441534587</d6p1:double><d6p1:double>0.792624600455239</d6p1:double><d6p1:double>0.75722910791337072</d6p1:double><d6p1:double>0.015373776958182843</d6p1:double><d6p1:double>0.46521260858208058</d6p1:double><d6p1:double>0.32128258543807231</d6p1:double><d6p1:double>0.9935451559019618</d6p1:double></Weights></Neuron><Neuron><Bias>-0.00055562267421794143</Bias><Output>-1</Output><Weights xmlns:d6p1="http://schemas.microsoft.com/2003/10/Serialization/Arrays"><d6p1:double>0.29393276950932179</d6p1:double><d6p1:double>0.87788890961847765</d6p1:double><d6p1:double>0.36073237755839294</d6p1:double><d6p1:double>0.45297331945488439</d6p1:double><d6p1:double>0.77868129355097659</d6p1:double><d6p1:double>-0.38444651997188428</d6p1:double><d6p1:double>0.43716643494479979</d6p1:double><d6p1:double>-0.21634969721748032</d6p1:double><d6p1:double>0.18190321301924789</d6p1:double><d6p1:double>-0.27791996362349725</d6p1:double><d6p1:double>-0.059791361479547493</d6p1:double><d6p1:double>1.2800819295453807</d6p1:double><d6p1:double>0.63285851083122313</d6p1:double><d6p1:double>-0.1302485037121611</d6p1:double><d6p1:double>0.68980569998121555</d6p1:double><d6p1:double>0.47914168677152635</d6p1:double><d6p1:double>0.23423697360774723</d6p1:double><d6p1:double>-0.25603820252232457</d6p1:double><d6p1:double>0.323738679246005</d6p1:double><d6p1:double>1.1360977750262011</d6p1:double><d6p1:double>0.84420305628426184</d6p1:double><d6p1:double>0.080220702025035076</d6p1:double><d6p1:double>0.70309360651669883</d6p1:double><d6p1:double>0.28033185124528154</d6p1:double><d6p1:double>1.3718226999260725</d6p1:double></Weights></Neuron><Neuron><Bias>-0.99915484103401164</Bias><Output>-1</Output><Weights xmlns:d6p1="http://schemas.microsoft.com/2003/10/Serialization/Arrays"><d6p1:double>0.86333030499813268</d6p1:double><d6p1:double>0.15183663189539504</d6p1:double><d6p1:double>0.52689603362183746</d6p1:double><d6p1:double>0.069611412231155648</d6p1:double><d6p1:double>0.058286752953970275</d6p1:double><d6p1:double>0.98544935278679446</d6p1:double><d6p1:double>0.0531980858112349</d6p1:double><d6p1:double>0.84931113533602565</d6p1:double><d6p1:double>0.45945616156868552</d6p1:double><d6p1:double>0.78998850451753311</d6p1:double><d6p1:double>0.49434221971760017</d6p1:double><d6p1:double>0.32735248176383025</d6p1:double><d6p1:double>0.30347716004503494</d6p1:double><d6p1:double>0.77224183909881883</d6p1:double><d6p1:double>-0.0093175883903772964</d6p1:double><d6p1:double>1.0830977916792734</d6p1:double><d6p1:double>0.90389069490325458</d6p1:double><d6p1:double>1.0056619123632924</d6p1:double><d6p1:double>-0.074131865380865858</d6p1:double><d6p1:double>0.36642393670726142</d6p1:double><d6p1:double>0.79936395075001809</d6p1:double><d6p1:double>0.20390463035509229</d6p1:double><d6p1:double>1.0257974562953707</d6p1:double><d6p1:double>0.59007487662847513</d6p1:double><d6p1:double>0.1571176749886323</d6p1:double></Weights></Neuron><Neuron><Bias>-0.00045165849779684809</Bias><Output>-1</Output><Weights xmlns:d6p1="http://schemas.microsoft.com/2003/10/Serialization/Arrays"><d6p1:double>0.29464106357792019</d6p1:double><d6p1:double>0.885697020246055</d6p1:double><d6p1:double>0.10572909069884348</d6p1:double><d6p1:double>0.34338446637736553</d6p1:double><d6p1:double>0.39118261471501836</d6p1:double><d6p1:double>1.0599053494026902</d6p1:double><d6p1:double>0.54879975896262079</d6p1:double><d6p1:double>1.046960781371304</d6p1:double><d6p1:double>0.31868682656690667</d6p1:double><d6p1:double>0.94678711133334725</d6p1:double><d6p1:double>0.76185962942507479</d6p1:double><d6p1:double>0.3086588686630683</d6p1:double><d6p1:double>-0.056889129111066451</d6p1:double><d6p1:double>0.040492954485436813</d6p1:double><d6p1:double>0.22689755596369848</d6p1:double><d6p1:double>-0.4034212270991191</d6p1:double><d6p1:double>0.58745320868795137</d6p1:double><d6p1:double>0.87662403160283187</d6p1:double><d6p1:double>-0.0038977397086351583</d6p1:double><d6p1:double>0.98776047124011945</d6p1:double><d6p1:double>-0.23416646325312979</d6p1:double><d6p1:double>1.2073578317011735</d6p1:double><d6p1:double>0.14322765913527979</d6p1:double><d6p1:double>0.056604940369077178</d6p1:double><d6p1:double>0.48199823975126682</d6p1:double></Weights></Neuron><Neuron><Bias>-0.00037456621248546244</Bias><Output>-1</Output><Weights xmlns:d6p1="http://schemas.microsoft.com/2003/10/Serialization/Arrays"><d6p1:double>1.4009099524049933</d6p1:double><d6p1:double>-0.11221860957910376</d6p1:double><d6p1:double>1.2036474597779394</d6p1:double><d6p1:double>0.40740031133904936</d6p1:double><d6p1:double>0.521675319848064</d6p1:double><d6p1:double>-0.2613922692337966</d6p1:double><d6p1:double>0.48054307733682639</d6p1:double><d6p1:double>-0.42301573106208618</d6p1:double><d6p1:double>0.37359040177876257</d6p1:double><d6p1:double>0.0015897249257697142</d6p1:double><d6p1:double>0.63732698475772986</d6p1:double><d6p1:double>-0.12268113444422363</d6p1:double><d6p1:double>0.64902871402006423</d6p1:double><d6p1:double>0.4441539223336578</d6p1:double><d6p1:double>0.52851850046087856</d6p1:double><d6p1:double>0.55876886583022678</d6p1:double><d6p1:double>0.093991418147644751</d6p1:double><d6p1:double>0.71703061861803841</d6p1:double><d6p1:double>-0.066582753272889511</d6p1:double><d6p1:double>-0.095514280913593139</d6p1:double><d6p1:double>0.61095536037400777</d6p1:double><d6p1:double>0.52450251591101937</d6p1:double><d6p1:double>0.74638387559769059</d6p1:double><d6p1:double>0.96623175236770475</d6p1:double><d6p1:double>0.23093343752705647</d6p1:double></Weights></Neuron><Neuron><Bias>-0.99879283767795857</Bias><Output>1</Output><Weights xmlns:d6p1="http://schemas.microsoft.com/2003/10/Serialization/Arrays"><d6p1:double>-0.070421379706574375</d6p1:double><d6p1:double>0.78429336674592787</d6p1:double><d6p1:double>0.20142380881713029</d6p1:double><d6p1:double>-0.2526207213361315</d6p1:double><d6p1:double>-0.26637218396286416</d6p1:double><d6p1:double>0.65784690449872241</d6p1:double><d6p1:double>0.51911002397540285</d6p1:double><d6p1:double>0.5510342159089</d6p1:double><d6p1:double>0.24424029397103236</d6p1:double><d6p1:double>0.19156859669653137</d6p1:double><d6p1:double>1.0237897477859863</d6p1:double><d6p1:double>0.51844720488391183</d6p1:double><d6p1:double>0.47219752494235295</d6p1:double><d6p1:double>0.55190975789533114</d6p1:double><d6p1:double>0.66684246198586017</d6p1:double><d6p1:double>1.0645507893529242</d6p1:double><d6p1:double>0.52672633435222982</d6p1:double><d6p1:double>0.56971067791958474</d6p1:double><d6p1:double>0.78636193269106658</d6p1:double><d6p1:double>0.38723001002156815</d6p1:double><d6p1:double>0.24836043016246756</d6p1:double><d6p1:double>0.19100903752249546</d6p1:double><d6p1:double>0.94209988375585</d6p1:double><d6p1:double>0.87866395232181149</d6p1:double><d6p1:double>0.22319235282033412</d6p1:double></Weights></Neuron><Neuron><Bias>-1.0013342483853311</Bias><Output>-1</Output><Weights 