<?xml version="1.0" encoding="utf-16"?><NeuralNetwork xmlns:i="http://www.w3.org/2001/XMLSchema-instance" xmlns="http://schemas.datacontract.org/2004/07/AE.MachineLearning.NeuralNet.Core"><_networkLayers><NetworkLayer><_isInputLayer>true</_isInputLayer><_neurons><Neuron><Bias>0</Bias><Output>-1003.888796</Output><Weights xmlns:d6p1="http://schemas.microsoft.com/2003/10/Serialization/Arrays"><d6p1:double>1</d6p1:double></Weights></Neuron><Neuron><Bias>0</Bias><Output>99.7346757</Output><Weights xmlns:d6p1="http://schemas.microsoft.com/2003/10/Serialization/Arrays"><d6p1:double>1</d6p1:double></Weights></Neuron><Neuron><Bias>0</Bias><Output>656.188731</Output><Weights xmlns:d6p1="http://schemas.microsoft.com/2003/10/Serialization/Arrays"><d6p1:double>1</d6p1:double></Weights></Neuron><Neuron><Bias>0</Bias><Output>-101.2632666</Output><Weights xmlns:d6p1="http://schemas.microsoft.com/2003/10/Serialization/Arrays"><d6p1:double>1</d6p1:double></Weights></Neuron><Neuron><Bias>0</Bias><Output>-712.5407464</Output><Weights xmlns:d6p1="http://schemas.microsoft.com/2003/10/Serialization/Arrays"><d6p1:double>1</d6p1:double></Weights></Neuron><Neuron><Bias>0</Bias><Output>-218.8568689</Output><Weights xmlns:d6p1="http://schemas.microsoft.com/2003/10/Serialization/Arrays"><d6p1:double>1</d6p1:double></Weights></Neuron><Neuron><Bias>0</Bias><Output>-543.6679743</Output><Weights xmlns:d6p1="http://schemas.microsoft.com/2003/10/Serialization/Arrays"><d6p1:double>1</d6p1:double></Weights></Neuron><Neuron><Bias>0</Bias><Output>256.0470238</Output><Weights xmlns:d6p1="http://schemas.microsoft.com/2003/10/Serialization/Arrays"><d6p1:double>1</d6p1:double></Weights></Neuron><Neuron><Bias>0</Bias><Output>-375.9740615</Output><Weights xmlns:d6p1="http://schemas.microsoft.com/2003/10/Serialization/Arrays"><d6p1:double>1</d6p1:double></Weights></Neuron><Neuron><Bias>0</Bias><Output>139.6749711</Output><Weights xmlns:d6p1="http://schemas.microsoft.com/2003/10/Serialization/Arrays"><d6p1:double>1</d6p1:double></Weights></Neuron><Neuron><Bias>0</Bias><Output>112.0551432</Output><Weights xmlns:d6p1="http://schemas.microsoft.com/2003/10/Serialization/Arrays"><d6p1:double>1</d6p1:double></Weights></Neuron><Neuron><Bias>0</Bias><Output>55.11060021</Output><Weights xmlns:d6p1="http://schemas.microsoft.com/2003/10/Serialization/Arrays"><d6p1:double>1</d6p1:double></Weights></Neuron><Neuron><Bias>0</Bias><Output>583.974903</Output><Weights xmlns:d6p1="http://schemas.microsoft.com/2003/10/Serialization/Arrays"><d6p1:double>1</d6p1:double></Weights></Neuron><Neuron><Bias>0</Bias><Output>-129.8331591</Output><Weights xmlns:d6p1="http://schemas.microsoft.com/2003/10/Serialization/Arrays"><d6p1:double>1</d6p1:double></Weights></Neuron><Neuron><Bias>0</Bias><Output>384.374502</Output><Weights xmlns:d6p1="http://schemas.microsoft.com/2003/10/Serialization/Arrays"><d6p1:double>1</d6p1:double></Weights></Neuron><Neuron><Bias>0</Bias><Output>707.6621492</Output><Weights xmlns:d6p1="http://schemas.microsoft.com/2003/10/Serialization/Arrays"><d6p1:double>1</d6p1:double></Weights></Neuron><Neuron><Bias>0</Bias><Output>-206.0695753</Output><Weights xmlns:d6p1="http://schemas.microsoft.com/2003/10/Serialization/Arrays"><d6p1:double>1</d6p1:double></Weights></Neuron><Neuron><Bias>0</Bias><Output>27.86720355</Output><Weights xmlns:d6p1="http://schemas.microsoft.com/2003/10/Serialization/Arrays"><d6p1:double>1</d6p1:double></Weights></Neuron><Neuron><Bias>0</Bias><Output>452.5315824</Output><Weights xmlns:d6p1="http://schemas.microsoft.com/2003/10/Serialization/Arrays"><d6p1:double>1</d6p1:double></Weights></Neuron><Neuron><Bias>0</Bias><Output>108.9841613</Output><Weights xmlns:d6p1="http://schemas.microsoft.com/2003/10/Serialization/Arrays"><d6p1:double>1</d6p1:double></Weights></Neuron><Neuron><Bias>0</Bias><Output>-327.436527</Output><Weights xmlns:d6p1="http://schemas.microsoft.com/2003/10/Serialization/Arrays"><d6p1:double>1</d6p1:double></Weights></Neuron><Neuron><Bias>0</Bias><Output>-386.1563253</Output><Weights xmlns:d6p1="http://schemas.microsoft.com/2003/10/Serialization/Arrays"><d6p1:double>1</d6p1:double></Weights></Neuron><Neuron><Bias>0</Bias><Output>-558.0306571</Output><Weights xmlns:d6p1="http://schemas.microsoft.com/2003/10/Serialization/Arrays"><d6p1:double>1</d6p1:double></Weights></Neuron><Neuron><Bias>0</Bias><Output>790.9654693</Output><Weights xmlns:d6p1="http://schemas.microsoft.com/2003/10/Serialization/Arrays"><d6p1:double>1</d6p1:double></Weights></Neuron><Neuron><Bias>0</Bias><Output>-211.894788</Output><Weights xmlns:d6p1="http://schemas.microsoft.com/2003/10/Serialization/Arrays"><d6p1:double>1</d6p1:double></Weights></Neuron></_neurons><_numOfNeurons>25</_numOfNeurons><_numberOfInputsPerNeuron>1</_numberOfInputsPerNeuron></NetworkLayer><NetworkLayer><_isInputLayer>false</_isInputLayer><_neurons><Neuron><Bias>-1.001228166834423</Bias><Output>-1</Output><Weights xmlns:d6p1="http://schemas.microsoft.com/2003/10/Serialization/Arrays"><d6p1:double>1.1706970233094822</d6p1:double><d6p1:double>0.5955420966623397</d6p1:double><d6p1:double>0.49715469231945592</d6p1:double><d6p1:double>0.43930157563678968</d6p1:double><d6p1:double>0.67818977960841353</d6p1:double><d6p1:double>0.33732158730351669</d6p1:double><d6p1:double>0.9206499332808844</d6p1:double><d6p1:double>0.3935636833886616</d6p1:double><d6p1:double>-0.024018777549244943</d6p1:double><d6p1:double>1.1531946267324091</d6p1:double><d6p1:double>0.38623451812745485</d6p1:double><d6p1:double>-0.076169807670401615</d6p1:double><d6p1:double>1.190809137273606</d6p1:double><d6p1:double>-0.042962638433762523</d6p1:double><d6p1:double>0.41879350779569757</d6p1:double><d6p1:double>0.091683087516668177</d6p1:double><d6p1:double>0.86821049170049014</d6p1:double><d6p1:double>-0.00233309647639534</d6p1:double><d6p1:double>0.37301530334942634</d6p1:double><d6p1:double>0.70214937538617628</d6p1:double><d6p1:double>0.32948413440756091</d6p1:double><d6p1:double>0.37247069324130078</d6p1:double><d6p1:double>0.0011568620412961655</d6p1:double><d6p1:double>0.14165802924830387</d6p1:double><d6p1:double>0.94279438220995093</d6p1:double></Weights></Neuron><Neuron><Bias>-0.99846213853898247</Bias><Output>1</Output><Weights xmlns:d6p1="http://schemas.microsoft.com/2003/10/Serialization/Arrays"><d6p1:double>0.18429716490922185</d6p1:double><d6p1:double>0.55098507123137663</d6p1:double><d6p1:double>0.32757611227327432</d6p1:double><d6p1:double>0.60012770158702755</d6p1:double><d6p1:double>-0.25751942883888662</d6p1:double><d6p1:double>0.671861044341108</d6p1:double><d6p1:double>-0.65286667633787332</d6p1:double><d6p1:double>-0.29366482253715659</d6p1:double><d6p1:double>-0.40731285994792132</d6p1:double><d6p1:double>0.26936711941363428</d6p1:double><d6p1:double>-0.20169084965309561</d6p1:double><d6p1:double>1.0951079299159092</d6p1:double><d6p1:double>-0.041028092006839337</d6p1:double><d6p1:double>0.40368521725120277</d6p1:double><d6p1:double>0.19524840353602119</d6p1:double><d6p1:double>0.11876786628047784</d6p1:double><d6p1:double>0.56164726286397393</d6p1:double><d6p1:double>-0.27198053110755444</d6p1:double><d6p1:double>0.69451902179998182</d6p1:double><d6p1:double>0.983245518332391</d6p1:double><d6p1:double>-0.31477408803155366</d6p1:double><d6p1:double>-0.18338347525194745</d6p1:double><d6p1:double>0.87202279067009991</d6p1:double><d6p1:double>1.4355466769118912</d6p1:double><d6p1:double>1.0759070345853381</d6p1:double></Weights></Neuron><Neuron><Bias>-1.0011872353315288</Bias><Output>-1</Output><Weights xmlns:d6p1="http://schemas.microsoft.com/2003/10/Serialization/Arrays"><d6p1:double>1.3223677334736248</d6p1:double><d6p1:double>0.5201753804260153</d6p1:double><d6p1:double>0.6469978316741013</d6p1:double><d6p1:double>0.30076640737427107</d6p1:double><d6p1:double>-0.058976437861230045</d6p1:double><d6p1:double>0.06943246358490586</d6p1:double><d6p1:double>1.1273778322994621</d6p1:double><d6p1:double>-0.21739717292679592</d6p1:double><d6p1:double>0.49211588650138455</d6p1:double><d6p1:double>0.31763742710807535</d6p1:double><d6p1:double>0.66987695605405451</d6p1:double><d6p1:double>0.49070724033692315</d6p1:double><d6p1:double>0.81401732228409585</d6p1:double><d6p1:double>-0.36398791398499142</d6p1:double><d6p1:double>0.8321892283132718</d6p1:double><d6p1:double>0.71982284871007862</d6p1:double><d6p1:double>-0.27834883043578651</d6p1:double><d6p1:double>0.42612573226710354</d6p1:double><d6p1:double>0.14175202984645388</d6p1:double><d6p1:double>-0.72645359665330078</d6p1:double><d6p1:double>0.13108703133461508</d6p1:double><d6p1:double>0.41932041853810176</d6p1:double><d6p1:double>0.59623687257976887</d6p1:double><d6p1:double>0.52690087114214967</d6p1:double><d6p1:double>0.08850037723019831</d6p1:double></Weights></Neuron><Neuron><Bias>-1.0006363976178225</Bias><Output>-1</Output><Weights xmlns:d6p1="http://schemas.microsoft.com/2003/10/Serialization/Arrays"><d6p1:double>0.751213435560602</d6p1:double><d6p1:double>0.76535782064809577</d6p1:double><d6p1:double>0.075325310060028711</d6p1:double><d6p1:double>0.46711637482722607</d6p1:double><d6p1:double>0.81277740157816469</d6p1:double><d6p1:double>0.76352259021711688</d6p1:double><d6p1:double>1.3462434150841827</d6p1:double><d6p1:double>1.0625407472878203</d6p1:double><d6p1:double>0.72420563701021246</d6p1:double><d6p1:double>-0.071002023561759178</d6p1:double><d6p1:double>-0.43504325869678123</d6p1:double><d6p1:double>0.8052628071992417</d6p1:double><d6p1:double>0.60242227942161808</d6p1:double><d6p1:double>0.68114952445421373</d6p1:double><d6p1:double>0.83722106574007371</d6p1:double><d6p1:double>0.65745197255529741</d6p1:double><d6p1:double>0.942350117766279</d6p1:double><d6p1:double>-0.53581777052302015</d6p1:double><d6p1:double>0.22571096238921737</d6p1:double><d6p1:double>0.26013694260970827</d6p1:double><d6p1:double>0.45261696866385609</d6p1:double><d6p1:double>0.77179883382278158</d6p1:double><d6p1:double>1.1737410292861117</d6p1:double><d6p1:double>0.21013653129968538</d6p1:double><d6p1:double>0.28762372681833781</d6p1:double></Weights></Neuron><Neuron><Bias>-0.99952751962191333</Bias><Output>1</Output><Weights xmlns:d6p1="http://schemas.microsoft.com/2003/10/Serialization/Arrays"><d6p1:double>-0.50360154834307447</d6p1:double><d6p1:double>0.71891466098485224</d6p1:double><d6p1:double>0.162288819056251</d6p1:double><d6p1:double>0.78221475622520253</d6p1:double><d6p1:double>0.24681466869469737</d6p1:double><d6p1:double>0.65837179545285429</d6p1:double><d6p1:double>-0.25049099896239624</d6p1:double><d6p1:double>1.1511127184157524</d6p1:double><d6p1:double>0.80478881789699219</d6p1:double><d6p1:double>0.90952119599617565</d6p1:double><d6p1:double>0.84335677446302937</d6p1:double><d6p1:double>0.35490756523342815</d6p1:double><d6p1:double>0.94204116638520641</d6p1:double><d6p1:double>0.27996105762301043</d6p1:double><d6p1:double>1.036919391026119</d6p1:double><d6p1:double>0.97927301883467988</d6p1:double><d6p1:double>0.55961981329284749</d6p1:double><d6p1:double>1.230869107887941</d6p1:double><d6p1:double>0.49254721259226109</d6p1:double><d6p1:double>0.066631086009056387</d6p1:double><d6p1:double>0.14577346475815411</d6p1:double><d6p1:double>0.43322623591366566</d6p1:double><d6p1:double>0.19104168133824112</d6p1:double><d6p1:double>0.031537786441234519</d6p1:double><d6p1:double>0.44494420438031762</d6p1:double></Weights></Neuron><Neuron><Bias>-0.99727952042524592</Bias><Output>1</Output><Weights xmlns:d6p1="http://schemas.microsoft.com/2003/10/Serialization/Arrays"><d6p1:double>-0.51841760735558362</d6p1:double><d6p1:double>0.61773871848129025</d6p1:double><d6p1:double>0.45567785201696481</d6p1:double><d6p1:double>0.37406756174533118</d6p1:double><d6p1:double>0.2353335600727362</d6p1:double><d6p1:double>1.1963351830434092</d6p1:double><d6p1:double>-0.49331911863366673</d6p1:double><d6p1:double>0.19261056186150924</d6p1:double><d6p1:double>0.6857716577489219</d6p1:double><d6p1:double>0.88346722230765684</d6p1:double><d6p1:double>0.508870312932161</d6p1:double><d6p1:double>1.0386973071098171</d6p1:double><d6p1:double>0.60713468160363</d6p1:double><d6p1:double>0.49673081401027958</d6p1:double><d6p1:double>1.3047103317423099</d6p1:double><d6p1:double>0.42385557996057605</d6p1:double><d6p1:double>0.23439312062735088</d6p1:double><d6p1:double>0.069474516992662855</d6p1:double><d6p1:double>0.10223969635261289</d6p1:double><d6p1:double>0.55925918533339214</d6p1:double><d6p1:double>-0.053517074101110083</d6p1:double><d6p1:double>-0.1150378326763444</d6p1:double><d6p1:double>0.32530920377206213</d6p1:double><d6p1:double>1.1249032101483993</d6p1:double><d6p1:double>-0.036015925376550822</d6p1:double></Weights></Neuron><Neuron><Bias>-0.999425660611571</Bias><Output>1</Output><Weights xmlns:d6p1="http://schemas.microsoft.com/2003/10/Serialization/Arrays"><d6p1:double>-0.089609223378704528</d6p1:double><d6p1:double>0.56097579518181806</d6p1:double><d6p1:double>1.1054110296039183</d6p1:double><d6p1:double>0.14675736710430465</d6p1:double><d6p1:double>0.65101939482733928</d6p1:double><d6p1:double>-0.28113669271586889</d6p1:double><d6p1:double>0.3223743391872253</d6p1:double><d6p1:double>0.6528136076717731</d6p1:double><d6p1:double>0.67654548778365353</d6p1:double><d6p1:double>1.0361746704633077</d6p1:double><d6p1:double>-0.029232192252700288</d6p1:double><d6p1:double>0.3135709943593204</d6p1:double><d6p1:double>-0.25577335961266395</d6p1:double><d6p1:double>-0.59855709753769071</d6p1:double><d6p1:double>0.96299147636609272</d6p1:double><d6p1:double>0.45759919868435739</d6p1:double><d6p1:double>-0.060183293482435674</d6p1:double><d6p1:double>1.0431200231646633</d6p1:double><d6p1:double>-0.33489175950505978</d6p1:double><d6p1:double>0.37299077150459903</d6p1:double><d6p1:double>0.38393639856305606</d6p1:double><d6p1:double>-0.26468659700640634</d6p1:double><d6p1:double>-0.26042237410620966</d6p1:double><d6p1:double>1.1288100687566951</d6p1:double><d6p1:double>-0.068572467278941021</d6p1:double></Weights></Neuron><Neuron><Bias>-0.0010445383696749233</Bias><Output>-1</Output><Weights xmlns:d6p1="http://schemas.microsoft.com/2003/10/Serialization/Arrays"><d6p1:double>0.70708245637357481</d6p1:double><d6p1:double>0.4375701550259698</d6p1:double><d6p1:double>0.67081714270190385</d6p1:double><d6p1:double>0.40111804669821249</d6p1:double><d6p1:double>1.0170553469594485</d6p1:double><d6p1:double>0.54852406557507594</d6p1:double><d6p1:double>0.2463028303718415</d6p1:double><d6p1:double>0.73318994144941119</d6p1:double><d6p1:double>1.3192785792821837</d6p1:double><d6p1:double>0.34228228358874713</d6p1:double><d6p1:double>-0.54055671911213188</d6p1:double><d6p1:double>-1.0156702904421659</d6p1:double><d6p1:double>-0.052172114541694854</d6p1:double><d6p1:double>0.584789542322411</d6p1:double><d6p1:double>0.23352281212867559</d6p1:double><d6p1:double>-1.005070105071683</d6p1:double><d6p1:double>-0.075180521339211118</d6p1:double><d6p1:double>0.022265908654644135</d6p1:double><d6p1:double>-0.28374190623260348</d6p1:double><d6p1:double>0.35762661591739575</d6p1:double><d6p1:double>-0.14725055056808795</d6p1:double><d6p1:double>0.48629809154226278</d6p1:double><d6p1:double>0.5750469394382407</d6p1:double><d6p1:double>0.50778223951898616</d6p1:double><d6p1:double>0.45866129806675415</d6p1:double></Weights></Neuron><Neuron><Bias>0.00010334031418824792</Bias><Output>-1</Output><Weights xmlns:d6p1="http://schemas.microsoft.com/2003/10/Serialization/Arrays"><d6p1:double>0.3879694693893484</d6p1:double><d6p1:double>1.2628278059906846</d6p1:double><d6p1:double>0.77907999666399352</d6p1:double><d6p1:double>-0.4099569348961043</d6p1:double><d6p1:double>0.58263229348644607</d6p1:double><d6p1:double>0.55664423347218517</d6p1:double><d6p1:double>0.91896640650969552</d6p1:double><d6p1:double>0.45811964616222306</d6p1:double><d6p1:double>0.15584721630348081</d6p1:double><d6p1:double>0.33467809825239653</d6p1:double><d6p1:double>0.20099880833159831</d6p1:double><d6p1:double>0.43263349112860255</d6p1:double><d6p1:double>0.041575387689475579</d6p1:double><d6p1:double>1.0524191723744176</d6p1:double><d6p1:double>0.29198909364220871</d6p1:double><d6p1:double>0.27879495870081067</d6p1:double><d6p1:double>0.46808899844773305</d6p1:double><d6p1:double>-0.13666145830574677</d6p1:double><d6p1:double>0.40513842793122767</d6p1:double><d6p1:double>1.1535010549499916</d6p1:double><d6p1:double>0.37301395018024858</d6p1:double><d6p1:double>0.23780389091483375</d6p1:double><d6p1:double>0.902733906824827</d6p1:double><d6p1:double>0.14250549856464984</d6p1:double><d6p1:double>1.2714003354609922</d6p1:double></Weights></Neuron><Neuron><Bias>-1.0004500136149215</Bias><Output>-1</Output><Weights xmlns:d6p1="http://schemas.microsoft.com/2003/10/Serialization/Arrays"><d6p1:double>1.0995708056349536</d6p1:double><d6p1:double>0.99925007548129174</d6p1:double><d6p1:double>0.021799317121554685</d6p1:double><d6p1:double>0.78657713215434133</d6p1:double><d6p1:double>0.722561735042956</d6p1:double><d6p1:double>0.37836108226469117</d6p1:double><d6p1:double>0.72901447901754646</d6p1:double><d6p1:double>0.58268145735560706</d6p1:double><d6p1:double>0.82269986371504766</d6p1:double><d6p1:double>0.55911017332666968</d6p1:double><d6p1:double>1.2426681601976117</d6p1:double><d6p1:double>0.53983309638526966</d6p1:double><d6p1:double>0.045544174387053757</d6p1:double><d6p1:double>0.41379695628454932</d6p1:double><d6p1:double>-0.034763116116737783</d6p1:double><d6p1:double>0.11392311693956353</d6p1:double><d6p1:double>0.2050209026339268</d6p1:double><d6p1:double>0.94735974793346212</d6p1:double><d6p1:double>0.57569886753463284</d6p1:double><d6p1:double>1.2123187595697442</d6p1:double><d6p1:double>0.40531925060720486</d6p1:double><d6p1:double>0.17242192143810725</d6p1:double><d6p1:double>-0.30065242364280448</d6p1:double><d6p1:double>0.40651582581571882</d6p1:double><d6p1:double>1.107603486709936</d6p1:double></Weights></Neuron><Neuron><Bias>-0.00064658586268798548</Bias><Output>1</Output><Weights xmlns:d6p1="http://schemas.microsoft.com/2003/10/Serialization/Arrays"><d6p1:double>-1.206720072973807</d6p1:double><d6p1:double>0.29703670172258417</d6p1:double><d6p1:double>0.14516182294897662</d6p1:double><d6p1:double>0.46482759815729624</d6p1:double><d6p1:double>0.47353815552433903</d6p1:double><d6p1:double>0.55524190665977269</d6p1:double><d6p1:double>-0.024284270197145717</d6p1:double><d6p1:double>0.82268840949959687</d6p1:double><d6p1:double>0.2465014411963638</d6p1:double><d6p1:double>0.55079093906941268</d6p1:double><d6p1:double>0.24691730672576812</d6p1:double><d6p1:double>0.066929526988822027</d6p1:double><d6p1:double>0.50894302235407862</d6p1:double><d6p1:double>1.3373445379773587</d6p1:double><d6p1:double>-0.20719533848097169</d6p1:double><d6p1:double>0.55101874863488509</d6p1:double><d6p1:double>0.20086675671623275</d6p1:double><d6p1:double>1.1681159066787878</d6p1:double><d6p1:double>0.67951820328255674</d6p1:double><d6p1:double>0.18866840314935096</d6p1:double><d6p1:double>-0.17149453411448318</d6p1:double><d6p1:double>1.3172647082972901</d6p1:double><d6p1:double>0.57889812547774677</d6p1:double><d6p1:double>0.093201898532330019</d6p1:double><d6p1:double>-0.8242996704098412</d6p1:double></Weights></Neuron><Neuron><Bias>-1.0010081473770025</Bias><Output>-1</Output><Weights xmlns:d6p1="http://schemas.microsoft.com/2003/10/Serialization/Arrays"><d6p1:double>0.8173009645876862</d6p1:double><d6p1:double>0.81842410040448155</d6p1:double><d6p1:double>-0.031009135832506262</d6p1:double><d6p1:double>0.94572843966796849</d6p1:double><d6p1:double>0.82009468754311654</d6p1:double><d6p1:double>-0.03501304218777665</d6p1:double><d6p1:double>-0.50513257116394183</d6p1:double><d6p1:double>0.31806667391996141</d6p1:double><d6p1:double>0.59477154246640607</d6p1:double><d6p1:double>0.32135445236176086</d6p1:double><d6p1:double>0.62744776947204439</d6p1:double><d6p1:double>1.3297903612385602</d6p1:double><d6p1:double>-0.4380137163702007</d6p1:double><d6p1:double>0.55542441636981277</d6p1:double><d6p1:double>-0.25262536578645245</d6p1:double><d6p1:double>0.39679160854987977</d6p1:double><d6p1:double>0.067616502071943571</d6p1:double><d6p1:double>0.1488175794325611</d6p1:double><d6p1:double>-0.44483348183296623</d6p1:double><d6p1:double>-0.69591785605997292</d6p1:double><d6p1:double>-0.33601916536525928</d6p1:double><d6p1:double>1.0315528791330288</d6p1:double><d6p1:double>0.47134489892765696</d6p1:double><d6p1:double>-0.3477336685931775</d6p1:double><d6p1:double>0.14006217108323135</d6p1:double></Weights></Neuron><Neuron><Bias>-1.0002592902004268</Bias><Output>-1</Output><Weights xmlns:d6p1="http://schemas.microsoft.com/2003/10/Serialization/Arrays"><d6p1:double>1.151411147538957</d6p1:double><d6p1:double>0.049087618594637</d6p1:double><d6p1:double>0.1580197999551666</d6p1:double><d6p1:double>-0.1470248117704829</d6p1:double><d6p1:double>0.40044104836916111</d6p1:double><d6p1:double>1.0245283938970555</d6p1:double><d6p1:double>0.40622183641806775</d6p1:double><d6p1:double>0.52216952024852281</d6p1:double><d6p1:double>0.091072186098403368</d6p1:double><d6p1:double>0.28750444844771444</d6p1:double><d6p1:double>0.1171272377856888</d6p1:double><d6p1:double>0.75754266907986867</d6p1:double><d6p1:double>-0.4600687665991478</d6p1:double><d6p1:double>-0.22856094915069841</d6p1:double><d6p1:double>-0.089734739016312293</d6p1:double><d6p1:double>0.37526532816975638</d6p1:double><d6p1:double>0.48106976744070179</d6p1:double><d6p1:double>0.58794141523190124</d6p1:double><d6p1:double>0.52185214826062265</d6p1:double><d6p1:double>-0.59632555565495637</d6p1:double><d6p1:double>0.89162576455021969</d6p1:double><d6p1:double>0.29581138328037726</d6p1:double><d6p1:double>0.24746947276395123</d6p1:double><d6p1:double>0.91967531155023485</d6p1:double><d6p1:double>0.67894034857690189</d6p1:double></Weights></Neuron><Neuron><Bias>-0.99978539378920916</Bias><Output>1</Output><Weights xmlns:d6p1="http://schemas.microsoft.com/2003/10/Serialization/Arrays"><d6p1:double>-0.1305091184815384</d6p1:double><d6p1:double>1.0746124509596433</d6p1:double><d6p1:double>0.78041900905656836</d6p1:double><d6p1:double>1.2691032941424578</d6p1:double><d6p1:double>0.039748467363519356</d6p1:double><d6p1:double>0.31354785796456136</d6p1:double><d6p1:double>0.14587645542143013</d6p1:double><d6p1:double>0.69766186460421487</d6p1:double><d6p1:double>0.99989578917697275</d6p1:double><d6p1:double>0.85736036665883486</d6p1:double><d6p1:double>0.011234640970424332</d6p1:double><d6p1:double>0.14615668827476636</d6p1:double><d6p1:double>1.259082486112282</d6p1:double><d6p1:double>0.68189527710521336</d6p1:double><d6p1:double>1.109040996604264</d6p1:double><d6p1:double>0.60707523578445588</d6p1:double><d6p1:double>0.51202902579244436</d6p1:double><d6p1:double>-0.015515961585416037</d6p1:double><d6p1:double>0.77649852539960562</d6p1:double><d6p1:double>0.63665393476385146</d6p1:double><d6p1:double>-0.13171994901409051</d6p1:double><d6p1:double>0.64426525027654813</d6p1:double><d6p1:double>0.6234526325441937</d6p1:double><d6p1:double>0.51895429400282356</d6p1:double><d6p1:double>-0.2618628850861543</d6p1:double></Weights></Neuron><Neuron><Bias>-0.99917681152948523</Bias><Output>-1</Output><Weights xmlns:d6p1="http://schemas.microsoft.com/2003/10/Serialization/Arrays"><d6p1:double>0.29077237911081694</d6p1:double><d6p1:double>0.36366005881707125</d6p1:double><d6p1:double>0.20010396362265206</d6p1:double><d6p1:double>-0.33546984642392758</d6p1:double><d6p1:double>0.65565468167203567</d6p1:double><d6p1:double>0.20225254219509692</d6p1:double><d6p1:double>0.31509725457066784</d6p1:double><d6p1:double>-0.11596558077595175</d6p1:double><d6p1:double>1.1218854531850471</d6p1:double><d6p1:double>-0.046504043198548443</d6p1:double><d6p1:double>-0.812998259788053</d6p1:double><d6p1:double>0.048245887626536588</d6p1:double><d6p1:double>0.84439476965747029</d6p1:double><d6p1:double>-0.1254598873786075</d6p1:double><d6p1:double>-0.23552404003409633</d6p1:double><d6p1:double>0.19722328957866966</d6p1:double><d6p1:double>0.63458732172672672</d6p1:double><d6p1:double>0.085513920586002948</d6p1:double><d6p1:double>-0.24722327304505845</d6p1:double><d6p1:double>-0.22108152507093115</d6p1:double><d6p1:double>1.8622268227241783</d6p1:double><d6p1:double>-1.0983000515601691</d6p1:double><d6p1:double>0.47715048789716785</d6p1:double><d6p1:double>-0.37635074042775646</d6p1:double><d6p1:double>0.11396884046500427</d6p1:double></Weights></Neuron><Neuron><Bias>-4.5096583759942779E-05</Bias><Output>-1</Output><Weights xmlns:d6p1="http://schemas.microsoft.com/2003/10/Serialization/Arrays"><d6p1:double>0.24662529833939126</d6p1:double><d6p1:double>1.2155650781207663</d6p1:double><d6p1:double>-0.50114035907291121</d6p1:double><d6p1:double>0.022274429529558045</d6p1:double><d6p1:double>-0.12994258655208388</d6p1:double><d6p1:double>1.0417676443194559</d6p1:double><d6p1:double>0.64991586488344844</d6p1:double><d6p1:double>-0.23123225097013772</d6p1:double><d6p1:double>-0.38088893753740138</d6p1:double><d6p1:double>0.36480738460194212</d6p1:double><d6p1:double>0.98386630548210852</d6p1:double><d6p1:double>1.345530240836627</d6p1:double><d6p1:double>-0.32093080036923977</d6p1:double><d6p1:double>0.646521759870228</d6p1:double><d6p1:double>1.4270715751532266</d6p1:double><d6p1:double>0.17926726292588183</d6p1:double><d6p1:double>0.677320196695509</d6p1:double><d6p1:double>0.11514437660573419</d6p1:double><d6p1:double>0.300101327845751</d6p1:double><d6p1:double>0.14314278199297978</d6p1:double><d6p1:double>0.32502073035232443</d6p1:double><d6p1:double>0.736021086848628</d6p1:double><d6p1:double>0.079890728770735053</d6p1:double><d6p1:double>0.78686309399221632</d6p1:double><d6p1:double>0.86374218325729712</d6p1:double></Weights></Neuron><Neuron><Bias>-0.0010708277094968444</Bias><Output>-1</Output><Weights xmlns:d6p1="http://schemas.microsoft.com/2003/10/Serialization/Arrays"><d6p1:double>0.42815341178250865</d6p1:double><d6p1:double>1.0692675446303244</d6p1:double><d6p1:double>-0.16146901348884476</d6p1:double><d6p1:double>0.036315199591848063</d6p1:double><d6p1:double>1.3944632445633398</d6p1:double><d6p1:double>0.3389119540904687</d6p1:double><d6p1:double>0.38860191035118274</d6p1:double><d6p1:double>0.60454729139113961</d6p1:double><d6p1:double>0.027461773348408214</d6p1:double><d6p1:double>-0.01190001410093086</d6p1:double><d6p1:double>-0.35018919367282386</d6p1:double><d6p1:double>0.387135479856728</d6p1:double><d6p1:double>-0.34129754120052319</d6p1:double><d6p1:double>0.22573947314093898</d6p1:double><d6p1:double>0.66366245795982692</d6p1:double><d6p1:double>0.82146518869182583</d6p1:double><d6p1:double>0.14151887658332232</d6p1:double><d6p1:double>0.4128288385559315</d6p1:double><d6p1:double>0.86978341243247126</d6p1:double><d6p1:double>0.10505404077282164</d6p1:double><d6p1:double>0.039421422875052785</d6p1:double><d6p1:double>0.80487583679133168</d6p1:double><d6p1:double>0.18640777365014743</d6p1:double><d6p1:double>-0.4208125201721773</d6p1:double><d6p1:double>0.59204965406229182</d6p1:double></Weights></Neuron><Neuron><Bias>-0.99930419777773793</Bias><Output>1</Output><Weights xmlns:d6p1="http://schemas.microsoft.com/2003/10/Serialization/Arrays"><d6p1:double>-0.14958333006449429</d6p1:double><d6p1:double>0.221193489205193</d6p1:double><d6p1:double>0.64152187191719878</d6p1:double><d6p1:double>0.13955515706993329</d6p1:double><d6p1:double>0.60210771294640231</d6p1:double><d6p1:double>0.0050282005119352434</d6p1:double><d6p1:double>0.89923554088375579</d6p1:double><d6p1:double>0.0056835590798580884</d6p1:double><d6p1:double>0.73531883618950311</d6p1:double><d6p1:double>0.9380185643214537</d6p1:double><d6p1:double>0.48914310194579957</d6p1:double><d6p1:double>1.199016703521925</d6p1:double><d6p1:double>1.0640782635953523</d6p1:double><d6p1:double>0.28599087010655172</d6p1:double><d6p1:double>0.48608030708685585</d6p1:double><d6p1:double>0.431477814558828</d6p1:double><d6p1:double>0.99414881237854635</d6p1:double><d6p1:double>0.23888775620222086</d6p1:double><d6p1:double>0.97977985551116265</d6p1:double><d6p1:double>0.46555038491079626</d6p1:double><d6p1:double>0.15020914251428477</d6p1:double><d6p1:double>0.10528209079149148</d6p1:double><d6p1:double>0.64481538022026408</d6p1:double><d6p1:double>1.2075424541619155</d6p1:double><d6p1:double>0.38869892242298287</d6p1:double></Weights></Neuron><Neuron><Bias>2.5676690874148983E-05</Bias><Output>-1</Output><Weights xmlns:d6p1="http://schemas.microsoft.com/2003/10/Serialization/Arrays"><d6p1:double>0.55697866743223889</d6p1:double><d6p1:double>1.0093680637110676</d6p1:double><d6p1:double>1.0484321739537021</d6p1:double><d6p1:double>0.521524158390986</d6p1:double><d6p1:double>0.83594002416215107</d6p1:double><d6p1:double>0.32006286416272894</d6p1:double><d6p1:double>0.88290137936437685</d6p1:double><d6p1:double>-0.241437255408379</d6p1:double><d6p1:double>0.16102593297529769</d6p1:double><d6p1:double>0.22106824428273597</d6p1:double><d6p1:double>-0.14580565397097581</d6p1:double><d6p1:double>0.428576494165182</d6p1:double><d6p1:double>0.609045932458167</d6p1:double><d6p1:double>0.79706556617635682</d6p1:double><d6p1:double>0.35957252236699405</d6p1:double><d6p1:double>0.82618503787426978</d6p1:double><d6p1:double>0.43655897764215124</d6p1:double><d6p1:double>0.47313815876676818</d6p1:double><d6p1:double>0.9768651835483122</d6p1:double><d6p1:double>0.23187957788932542</d6p1:double><d6p1:double>1.2701348593624295</d6p1:double><d6p1:double>0.11800586737250356</d6p1:double><d6p1:double>0.62488073885353834</d6p1:double><d6p1:double>0.54693796217572621</d6p1:double><d6p1:double>0.17265571580377351</d6p1:double></Weights></Neuron><Neuron><Bias>-1.0009666712518723</Bias><Output>-1</Output><Weights xmlns:d6p1="http://schemas.microsoft.com/2003/10/Serialization/Arrays"><d6p1:double>0.85410629737664956</d6p1:double><d6p1:double>-0.37954102786776034</d6p1:double><d6p1:double>0.10912719221322408</d6p1:double><d6p1:double>0.28041308689954558</d6p1:double><d6p1:double>-0.27913674220115076</d6p1:double><d6p1:double>0.96962048441989768</d6p1:double><d6p1:double>0.56193790344847361</d6p1:double><d6p1:double>0.3445757847289832</d6p1:double><d6p1:double>0.42302918810987317</d6p1:double><d6p1:double>0.43771489135998376</d6p1:double><d6p1:double>0.58486675222613627</d6p1:double><d6p1:double>0.82064722604747442</d6p1:double><d6p1:double>0.013739388116634284</d6p1:double><d6p1:double>0.021707649363499</d6p1:double><d6p1:double>1.395861969765432</d6p1:double><d6p1:double>0.63079956338179988</d6p1:double><d6p1:double>-0.56661710894863793</d6p1:double><d6p1:double>1.4956774196175162</d6p1:double><d6p1:double>0.16639180005178958</d6p1:double><d6p1:double>-0.49157662771601113</d6p1:double><d6p1:double>0.6231628604151076</d6p1:double><d6p1:double>0.43367148139684442</d6p1:double><d6p1:double>0.52215474018638086</d6p1:double><d6p1:double>-0.15340278919469852</d6p1:double><d6p1:double>-0.49491822189789558</d6p1:double></Weights></Neuron><Neuron><Bias>-0.999478965775021</Bias><Output>1</Output><Weights xmlns:d6p1="http://schemas.microsoft.com/2003/10/Serialization/Arrays"><d6p1:double>-0.58675342137022657</d6p1:double><d6p1:double>-0.30812592777886705</d6p1:double><d6p1:double>1.3598786232440467</d6p1:double><d6p1:double>-1.0118772940746716</d6p1:double><d6p1:double>0.87499039576429316</d6p1:double><d6p1:double>0.42919551299405373</d6p1:double><d6p1:double>1.0048361088564848</d6p1:double><d6p1:double>0.029000779778978962</d6p1:double><d6p1:double>0.24960919376765323</d6p1:double><d6p1:double>0.26994037919485842</d6p1:double><d6p1:double>-0.593463218875495</d6p1:double><d6p1:double>-1.3949844895774506</d6p1:double><d6p1:double>0.86461682261545059</d6p1:double><d6p1:double>0.92675900860666216</d6p1:double><d6p1:double>-0.47434417051487709</d6p1:double><d6p1:double>0.40302075339921822</d6p1:double><d6p1:double>1.0795377669146609</d6p1:double><d6p1:double>1.1701242862538959</d6p1:double><d6p1:double>-0.097857916566912409</d6p1:double><d6p1:double>0.19156182301514757</d6p1:double><d6p1:double>0.034416300470521889</d6p1:double><d6p1:double>-0.25930792903601207</d6p1:double><d6p1:double>0.555991254666209</d6p1:double><d6p1:double>0.26554691438283234</d6p1:double><d6p1:double>-0.43306949875379891</d6p1:double></Weights></Neuron><Neuron><Bias>0.00087689848263564757</Bias><Output>1</Output><Weights xmlns:d6p1="http://schemas.microsoft.com/2003/10/Serialization/Arrays"><d6p1:double>-0.38043474093433877</d6p1:double><d6p1:double>0.9003756696595383</d6p1:double><d6p1:double>0.67306862089823882</d6p1:double><d6p1:double>0.281157330204065</d6p1:double><d6p1:double>0.538079802849092</d6p1:double><d6p1:double>0.82261796628737827</d6p1:double><d6p1:double>0.928693487344621</d6p1:double><d6p1:double>0.78279125017731321</d6p1:double><d6p1:double>0.59545230288372819</d6p1:double><d6p1:double>0.97273092128996685</d6p1:double><d6p1:double>1.0668954317501211</d6p1:double><d6p1:double>0.042474610498150413</d6p1:double><d6p1:double>-0.1045408939299286</d6p1:double><d6p1:double>0.60787198063084813</d6p1:double><d6p1:double>0.57090892098897628</d6p1:double><d6p1:double>0.19808250692170704</d6p1:double><d6p1:double>0.60855891515154936</d6p1:double><d6p1:double>0.25371134971005221</d6p1:double><d6p1:double>0.77686249684937869</d6p1:double><d6p1:double>-0.12430308155762353</d6p1:double><d6p1:double>0.54990067057541636</d6p1:double><d6p1:double>1.1846993795748368</d6p1:double><d6p1:double>0.15034967556524764</d6p1:double><d6p1:double>0.69891964404693252</d6p1:double><d6p1:double>0.15776681579493368</d6p1:double></Weights></Neuron><Neuron><Bias>-1.0000184023149941</Bias><Output>-1</Output><Weights xmlns:d6p1="http://schemas.microsoft.com/2003/10/Serialization/Arrays"><d6p1:double>0.23541166636663366</d6p1:double><d6p1:double>0.50321856620327576</d6p1:double><d6p1:double>0.38310561287918476</d6p1:double><d6p1:double>0.88020767678058576</d6p1:double><d6p1:double>0.920245736773269</d6p1:double><d6p1:double>0.48825344553421435</d6p1:double><d6p1:double>1.0441746585219578</d6p1:double><d6p1:double>0.75487027551810626</d6p1:double><d6p1:double>0.2833416861190281</d6p1:double><d6p1:double>0.48647511763436058</d6p1:double><d6p1:double>0.369935784077303</d6p1:double><d6p1:double>1.004788896650507</d6p1:double><d6p1:double>0.40646763952864673</d6p1:double><d6p1:double>-0.027962020864942858</d6p1:double><d6p1:double>0.13221896034386263</d6p1:double><d6p1:double>0.56688554243812694</d6p1:double><d6p1:double>1.1454963171748529</d6p1:double><d6p1:double>0.51571293405807384</d6p1:double><d6p1:double>0.16567145945872289</d6p1:double><d6p1:double>0.59735860851097788</d6p1:double><d6p1:double>0.53455669564346209</d6p1:double><d6p1:double>0.69990290618824025</d6p1:double><d6p1:double>-0.30016425149412068</d6p1:double><d6p1:double>0.22517816102615679</d6p1:double><d6p1:double>0.48289660216272429</d6p1:double></Weights></Neuron><Neuron><Bias>-1.0007167349559005</Bias><Output>-1</Output><Weights xmlns:d6p1="http://schemas.microsoft.com/2003/10/Serialization/Arrays"><d6p1:double>0.57040574309820136</d6p1:double><d6p1:double>-0.1210827730125974</d6p1:double><d6p1:double>0.14348208455877651</d6p1:double><d6p1:double>0.20967608846543817</d6p1:double><d6p1:double>1.35322626694723</d6p1:double><d6p1:double>0.23147659505667859</d6p1:double><d6p1:double>0.88976324971506138</d6p1:double><d6p1:double>0.17984086989189357</d6p1:double><d6p1:double>0.053475180582880991</d6p1:double><d6p1:double>-0.037709715229980255</d6p1:double><d6p1:double>0.45580446429892962</d6p1:double><d6p1:double>0.79270320818470141</d6p1:double><d6p1:double>-0.33519694801306371</d6p1:double><d6p1:double>0.84831591789936656</d6p1:double><d6p1:double>-0.26236845156808947</d6p1:double><d6p1:double>0.46318117051061952</d6p1:double><d6p1:double>0.32235809689039985</d6p1:double><d6p1:double>0.77109687171090158</d6p1:double><d6p1:double>0.797128586712673</d6p1:double><d6p1:double>0.5997510481623024</d6p1:double><d6p1:double>0.91446815947978777</d6p1:double><d6p1:double>1.0121138579715809</d6p1:double><d6p1:double>0.99038587527346322</d6p1:double><d6p1:double>-0.90830952882250415</d6p1:double><d6p1:double>-0.15174934742101864</d6p1:double></Weights></Neuron><Neuron><Bias>-1.000573098245169</Bias><Output>-1</Output><Weights xmlns:d6p1="http://schemas.microsoft.com/2003/10/Serialization/Arrays"><d6p1:double>1.151417167856722</d6p1:double><d6p1:double>-0.20988005479640351</d6p1:double><d6p1:double>0.66343199769956229</d6p1:double><d6p1:double>0.25476040829331464</d6p1:double><d6p1:double>0.65125595086692556</d6p1:double><d6p1:double>-0.12038293261159634</d6p1:double><d6p1:double>1.0654060850218829</d6p1:double><d6p1:double>0.12908851521431389</d6p1:double><d6p1:double>0.82005838340141313</d6p1:double><d6p1:double>1.0157465422331848</d6p1:double><d6p1:double>-0.18828927596474948</d6p1:double><d6p1:double>0.63228239860605462</d6p1:double><d6p1:double>0.51847953763370991</d6p1:double><d6p1:double>0.13070274575094545</d6p1:double><d6p1:double>-0.25345770955728497</d6p1:double><d6p1:double>0.16218549106498495</d6p1:double><d6p1:double>0.648044390737849</d6p1:double><d6p1:double>0.52791320674104558</d6p1:double><d6p1:double>-0.20096815861092476</d6p1:double><d6p1:double>0.090073181720957129</d6p1:double><d6p1:double>0.13520554843613647</d6p1:double><d6p1:double>0.72273689749257</d6p1:double><d6p1:double>0.82312517883105907</d6p1:double><d6p1:double>0.19890510895449329</d6p1:double><d6p1:double>0.90563782472623244</d6p1:double></Weights></Neuron><Neuron><Bias>-0.99923368982497174</Bias><Output>1</Output><Weights xmlns:d6p1="http://schemas.microsoft.com/2003/10/Serialization/Arrays"><d6p1:double>0.78312398342491774</d6p1:double><d6p1:double>-0.28668653245718495</d6p1:double><d6p1:double>1.136576382507676</d6p1:double><d6p1:double>-0.030556760713851289</d6p1:double><d6p1:double>-0.5632737058773537</d6p1:double><d6p1:double>-0.12539038053063248</d6p1:double><d6p1:double>0.815686887694783</d6p1:double><d6p1:double>0.33961221571991496</d6p1:double><d6p1:double>0.18292715568152512</d6p1:double><d6p1:double>0.50333554069816677</d6p1:double><d6p1:double>-0.67835409228570365</d6p1:double><d6p1:double>-0.95166696828785369</d6p1:double><d6p1:double>1.2034500059479685</d6p1:double><d6p1:double>0.92163184682519594</d6p1:double><d6p1:double>0.23226373827378524</d6p1:double><d6p1:double>0.28525203142456795</d6p1:double><d6p1:double>0.87313003804861145</d6p1:double><d6p1:double>-0.22583417401444256</d6p1:double><d6p1:double>0.030005571325638181</d6p1:double><d6p1:double>0.31594935334593333</d6p1:double><d6p1:double>0.063400323791582974</d6p1:double><d6p1:double>-0.037550429383502976</d6p1:double><d6p1:double>0.76739612428901771</d6p1:double><d6p1:double>0.46887715994261892</d6p1:double><d6p1:double>-0.057154606596927955</d6p1:double></Weights></Neuron><Neuron><Bias>-0.99892747214909894</Bias><Output>1</Output><Weights xmlns:d6p1="http://schemas.microsoft.com/2003/10/Serialization/Arrays"><d6p1:double>0.18106546471352483</d6p1:double><d6p1:double>-0.25899713399895474</d6p1:double><d6p1:double>0.91330239606699037</d6p1:double><d6p1:double>-0.48384457992869817</d6p1:double><d6p1:double>0.34939381342399739</d6p1:double><d6p1:double>-0.032477549935229964</d6p1:double><d6p1:double>0.62142379668862646</d6p1:double><d6p1:double>-0.13341782097483479</d6p1:double><d6p1:double>0.63859859463807012</d6p1:double><d6p1:double>0.87472965578812267</d6p1:double><d6p1:double>0.3499625685112065</d6p1:double><d6p1:double>0.20804523311721512</d6p1:double><d6p1:double>1.0749485257621141</d6p1:double><d6p1:double>0.92082842221446215</d6p1:double><d6p1:double>2.0905878081774087</d6p1:double><d6p1:double>0.014000821866632924</d6p1:double><d6p1:double>0.32125569220529393</d6p1:double><d6p1:double>0.0044344182492346606</d6p1:double><d6p1:double>0.57590267179920029</d6p1:double><d6p1:double>0.32794739827628</d6p1:double><d6p1:double>0.15230856836670684</d6p1:double><d6p1:double>0.55480675892453746</d6p1:double><d6p1:double>0.43431568436960638</d6p1:double><d6p1:double>0.3830552594508021</d6p1:double><d6p1:double>0.093131678926591174</d6p1:double></Weights></Neuron><Neuron><Bias>-0.9997396733013173</Bias><Output>1</Output><Weights xmlns:d6p1="http://schemas.microsoft.com/2003/10/Serialization/Arrays"><d6p1:double>-0.25922648073126786</d6p1:double><d6p1:double>-0.16361641133719215</d6p1:double><d6p1:double>0.030486232662940736</d6p1:double><d6p1:double>0.8646461874791106</d6p1:double><d6p1:double>-0.02356865012363233</d6p1:double><d6p1:double>-0.56710719524411113</d6p1:double><d6p1:double>-0.74302782038911408</d6p1:double><d6p1:double>0.549350602984262</d6p1:double><d6p1:double>-0.31186953070620266</d6p1:double><d6p1:double>-0.84567332262067052</d6p1:double><d6p1:double>0.863132504115662</d6p1:double><d6p1:double>0.23416799010288639</d6p1:double><d6p1:double>-0.42084188163913872</d6p1:double><d6p1:double>1.8296113157839089</d6p1:double><d6p1:double>-0.57721333578372591</d6p1:double><d6p1:double>0.62125770216094267</d6p1:double><d6p1:double>0.3615964119571129</d6p1:double><d6p1:double>-0.047525143302256642</d6p1:double><d6p1:double>0.57291363907573234</d6p1:double><d6p1:double>0.30944706051165982</d6p1:double><d6p1:double>-0.30356800476935925</d6p1:double><d6p1:double>0.72434987126040318</d6p1:double><d6p1:double>0.44340933466780907</d6p1:double><d6p1:double>0.24625153199961186</d6p1:double><d6p1:double>-0.25662260014310057</d6p1:double></Weights></Neuron><Neuron><Bias>-0.99966381699000639</Bias><Output>-1</Output><Weights xmlns:d6p1="http://schemas.microsoft.com/2003/10/Serialization/Arrays"><d6p1:double>-0.21233161381049476</d6p1:double><d6p1:double>0.15614526186169755</d6p1:double><d6p1:double>0.79386087923121329</d6p1:double><d6p1:double>0.78260960966211535</d6p1:double><d6p1:double>0.72111413818188619</d6p1:double><d6p1:double>0.040489290686276991</d6p1:double><d6p1:double>-0.13512368379539857</d6p1:double><d6p1:double>0.13220669294554738</d6p1:double><d6p1:double>0.79139246371773209</d6p1:double><d6p1:double>1.1627841308060423</d6p1:double><d6p1:double>0.41036932142339122</d6p1:double><d6p1:double>0.4408632308494943</d6p1:double><d6p1:double>0.32377042533734152</d6p1:double><d6p1:double>0.75834105388318329</d6p1:double><d6p1:double>-0.29769332888665034</d6p1:double><d6p1:double>-0.84593922312859182</d6p1:double><d6p1:double>0.79794809084666252</d6p1:double><d6p1:double>1.186822481893999</d6p1:double><d6p1:double>0.6429299869481615</d6p1:double><d6p1:double>1.5034884375997233</d6p1:double><d6p1:double>0.036581698457723563</d6p1:double><d6p1:double>0.44450326275931412</d6p1:double><d6p1:double>0.017011719605803634</d6p1:double><d6p1:double>-0.067103821946780412</d6p1:double><d6p1:double>0.22448035122428359</d6p1:double></Weights></Neuron><Neuron><Bias>-8.7873831401993723E-05</Bias><Output>1</Output><Weights xmlns:d6p1="http://schemas.microsoft.com/2003/10/Serialization/Arrays"><d6p1:double>0.0069024659226286627</d6p1:double><d6p1:double>0.39161208892935356</d6p1:double><d6p1:double>-0.1980421929855162</d6p1:double><d6p1:double>0.22653661568073902</d6p1:double><d6p1:double>0.24693558167779364</d6p1:double><d6p1:double>0.4251267783514216</d6p1:double><d6p1:double>1.1450008460496242</d6p1:double><d6p1:double>1.2686295498686109</d6p1:double><d6p1:double>0.14777037638237162</d6p1:double><d6p1:double>0.2167603199443533</d6p1:double><d6p1:double>0.10855448487494086</d6p1:double><d6p1:double>1.2950604344776933</d6p1:double><d6p1:double>0.052537397143163023</d6p1:double><d6p1:double>-0.31977560241326614</d6p1:double><d6p1:double>0.85857312848109513</d6p1:double><d6p1:double>1.1130749403456981</d6p1:double><d6p1:double>-0.039564298749790887</d6p1:double><d6p1:double>-0.19826439396518883</d6p1:double><d6p1:double>-0.21205156978396464</d6p1:double><d6p1:double>0.77174589895656753</d6p1:double><d6p1:double>-0.00748613111252436</d6p1:double><d6p1:double>0.12811408209741076</d6p1:double><d6p1:double>-0.079563987451708451</d6p1:double><d6p1:double>0.23094600468066923</d6p1:double><d6p1:double>0.64724382225861077</d6p1:double></Weights></Neuron><Neuron><Bias>0.00037859731116292631</Bias><Output>1</Output><Weights xmlns:d6p1="http://schemas.microsoft.com/2003/10/Serialization/Arrays"><d6p1:double>-0.35207913616174513</d6p1:double><d6p1:double>-0.20113968699590151</d6p1:double><d6p1:double>-0.03711224705847628</d6p1:double><d6p1:double>0.40010239469794096</d6p1:double><d6p1:double>-0.59002649936831086</d6p1:double><d6p1:double>0.81263333593507958</d6p1:double><d6p1:double>-0.5584636318211933</d6p1:double><d6p1:double>0.42521634273538295</d6p1:double><d6p1:double>0.964517277224701</d6p1:double><d6p1:double>-0.18414441239114779</d6p1:double><d6p1:double>0.28891856068659172</d6p1:double><d6p1:double>0.47472092028043833</d6p1:double><d6p1:double>0.51570826317862639</d6p1:double><d6p1:double>0.94933345187180374</d6p1:double><d6p1:double>0.59227947492453492</d6p1:double><d6p1:double>1.3041219729764526</d6p1:double><d6p1:double>-0.30788034738793674</d6p1:double><d6p1:double>1.4952538429228566</d6p1:double><d6p1:double>0.22066166794253639</d6p1:double><d6p1:double>-0.72100363255012823</d6p1:double><d6p1:double>0.39446918140608433</d6p1:double><d6p1:double>0.34645883030505303</d6p1:double><d6p1:double>0.4103799093762352</d6p1:double><d6p1:double>-0.14183358596515913</d6p1:double><d6p1:double>-0.284880705781416</d6p1:double></Weights></Neuron><Neuron><Bias>-0.99878859250368268</Bias><Output>1</Output><Weights xmlns:d6p1="http://schemas.microsoft.com/2003/10/Serialization/Arrays"><d6p1:double>0.063798441065656339</d6p1:double><d6p1:double>0.53878206220369451</d6p1:double><d6p1:double>0.668225487258766</d6p1:double><d6p1:double>0.3552408554054</d6p1:double><d6p1:double>-0.20434434879957691</d6p1:double><d6p1:double>0.91671682511193964</d6p1:double><d6p1:double>-0.1403428458115609</d6p1:double><d6p1:double>0.58894103876046844</d6p1:double><d6p1:double>0.62714867298220067</d6p1:double><d6p1:double>-0.26032312712117917</d6p1:double><d6p1:double>0.62194829080826741</d6p1:double><d6p1:double>-0.031597224525036029</d6p1:double><d6p1:double>1.3046211426266805</d6p1:double><d6p1:double>0.66316327210801229</d6p1:double><d6p1:double>0.1717831303796806</d6p1:double><d6p1:double>0.466660542289982</d6p1:double><d6p1:double>0.62136997410946482</d6p1:double><d6p1:double>0.36534438125638724</d6p1:double><d6p1:double>0.56740578224283422</d6p1:double><d6p1:double>1.2110955890179642</d6p1:double><d6p1:double>0.35222236010218172</d6p1:double><d6p1:double>-0.80948274366085637</d6p1:double><d6p1:double>0.75707344215968531</d6p1:double><d6p1:double>0.90651148205393883</d6p1:double><d6p1:double>-0.13253117191886277</d6p1:double></Weights></Neuron><Neuron><Bias>-0.99997075471253971</Bias><Output>-1</Output><Weights xmlns:d6p1="http://schemas.microsoft.com/2003/10/Serialization/Arrays"><d6p1:double>0.43121012128644404</d6p1:double><d6p1:double>0.1159111612370307</d6p1:double><d6p1:double>-0.11445131919387294</d6p1:double><d6p1:double>-0.45136055488632609</d6p1:double><d6p1:double>0.1769274942126817</d6p1:double><d6p1:double>0.54636102867452929</d6p1:double><d6p1:double>1.1371153500549529</d6p1:double><d6p1:double>0.581925446167412</d6p1:double><d6p1:double>0.55863299570656821</d6p1:double><d6p1:double>0.83140427990895127</d6p1:double><d6p1:double>0.60200028142057649</d6p1:double><d6p1:double>0.19333916283875663</d6p1:double><d6p1:double>0.39433184480255623</d6p1:double><d6p1:double>0.28672476442627631</d6p1:double><d6p1:double>0.31210706862559617</d6p1:double><d6p1:double>0.51724538566250722</d6p1:double><d6p1:double>0.67451488124951076</d6p1:double><d6p1:double>-0.052269599241915529</d6p1:double><d6p1:double>0.89878347992292917</d6p1:double><d6p1:double>0.94623975517469949</d6p1:double><d6p1:double>0.84849642449126772</d6p1:double><d6p1:double>0.089499151607932148</d6p1:double><d6p1:double>0.55854882309618437</d6p1:double><d6p1:double>-0.017111481696390974</d6p1:double><d6p1:double>0.52431004410794524</d6p1:double></Weights></Neuron><Neuron><Bias>-0.00064369367744489085</Bias><Output>-1</Output><Weights xmlns:d6p1="http://schemas.microsoft.com/2003/10/Serialization/Arrays"><d6p1:double>0.55121168475437721</d6p1:double><d6p1:double>-0.24199570749712465</d6p1:double><d6p1:double>0.88972406223326939</d6p1:double><d6p1:double>0.17050392246135196</d6p1:double><d6p1:double>0.92532265943141356</d6p1:double><d6p1:double>0.19330477273734736</d6p1:double><d6p1:double>0.92670717671005254</d6p1:double><d6p1:double>1.3859132419980762</d6p1:double><d6p1:double>0.22865109492901822</d6p1:double><d6p1:double>0.66117327965821826</d6p1:double><d6p1:double>0.83006676833231052</d6p1:double><d6p1:double>0.2525154798274975</d6p1:double><d6p1:double>0.22352715759462966</d6p1:double><d6p1:double>1.11323082168216</d6p1:double><d6p1:double>0.79738101129609151</d6p1:double><d6p1:double>0.64406365083668193</d6p1:double><d6p1:double>0.097978238075291518</d6p1:double><d6p1:double>0.40853595785262847</d6p1:double><d6p1:double>0.36071993641681727</d6p1:double><d6p1:double>-0.27490182659801959</d6p1:double><d6p1:double>-0.26994578962548677</d6p1:double><d6p1:double>0.68901643652922839</d6p1:double><d6p1:double>0.90493360622391883</d6p1:double><d6p1:double>0.62517672867509111</d6p1:double><d6p1:double>0.21356654326170035</d6p1:double></Weights></Neuron><Neuron><Bias>-0.9994388936461388</Bias><Output>-1</Output><Weights xmlns:d6p1="http://schemas.microsoft.com/2003/10/Serialization/Arrays"><d6p1:double>0.62796723068995663</d6p1:double><d6p1:double>0.15700073891899635</d6p1:double><d6p1:double>0.0745372814754781</d6p1:double><d6p1:double>-1.090169804404264</d6p1:double><d6p1:double>0.61456954671501363</d6p1:double><d6p1:double>0.87890957419419435</d6p1:double><d6p1:double>0.81386448082498541</d6p1:double><d6p1:double>-0.54903360446157112</d6p1:double><d6p1:double>0.17384113542589066</d6p1:double><d6p1:double>0.39838790950050018</d6p1:double><d6p1:double>0.4488642950288908</d6p1:double><d6p1:double>1.0832296713485714</d6p1:double><d6p1:double>0.14042930062351933</d6p1:double><d6p1:double>0.767157898657027</d6p1:double><d6p1:double>1.5408354538830231</d6p1:double><d6p1:double>0.46063783348256526</d6p1:double><d6p1:double>0.72948237404308658</d6p1:double><d6p1:double>-0.21170925259516241</d6p1:double><d6p1:double>1.049671780945461</d6p1:double><d6p1:double>0.3667977187672134</d6p1:double><d6p1:double>1.0163315608538079</d6p1:double><d6p1:double>0.18927737362439759</d6p1:double><d6p1:double>-0.3627031623772598</d6p1:double><d6p1:double>0.1628492286541377</d6p1:double><d6p1:double>0.35253895195474272</d6p1:double></Weights></Neuron><Neuron><Bias>-1.0011680573205646</Bias><Output>-1</Output><Weights xmlns:d6p1="http://schemas.microsoft.com/2003/10/Serialization/Arrays"><d6p1:double>1.1324483483623209</d6p1:double><d6p1:double>-0.033057457887618893</d6p1:double><d6p1:double>1.0285567225445986</d6p1:double><d6p1:double>0.73145962112428564</d6p1:double><d6p1:double>0.4756834164088708</d6p1:double><d6p1:double>0.3056197457419873</d6p1:double><d6p1:double>0.67954875439684448</d6p1:double><d6p1:double>0.4097984379794517</d6p1:double><d6p1:double>-0.42698602722129003</d6p1:double><d6p1:double>0.9525263751078058</d6p1:double><d6p1:double>0.67583429628585878</d6p1:double><d6p1:double>0.4123231784717461</d6p1:double><d6p1:double>-0.13222629233147121</d6p1:double><d6p1:double>0.44676918167274582</d6p1:double><d6p1:double>0.5378583941967704</d6p1:double><d6p1:double>0.38110378264810552</d6p1:double><d6p1:double>0.36269476393291517</d6p1:double><d6p1:double>0.23188594769068019</d6p1:double><d6p1:double>0.69545357669369656</d6p1:double><d6p1:double>-0.26805014866464205</d6p1:double><d6p1:double>0.3318022024549015</d6p1:double><d6p1:double>1.1950650398270006</d6p1:double><d6p1:double>-0.11217030691295365</d6p1:double><d6p1:double>0.51717949853425327</d6p1:double><d6p1:double>1.4452438827725367</d6p1:double></Weights></Neuron><Neuron><Bias>-0.9974878326504546</Bias><Output>1</Output><Weights xmlns:d6p1="http://schemas.microsoft.com/2003/10/Serialization/Arrays"><d6p1:double>0.65478962610450175</d6p1:double><d6p1:double>-0.24979458350356804</d6p1:double><d6p1:double>1.3139660629718488</d6p1:double><d6p1:double>-0.891773442590479</d6p1:double><d6p1:double>-0.70294975194991216</d6p1:double><d6p1:double>1.1875592310936149</d6p1:double><d6p1:double>0.19086680616308341</d6p1:double><d6p1:double>-1.1511286253625088</d6p1:double><d6p1:double>0.19206471388409393</d6p1:double><d6p1:double>0.63295272472012309</d6p1:double><d6p1:double>-0.45369656031860017</d6p1:double><d6p1:double>1.5059347060421218</d6p1:double><d6p1:double>0.28024912748754388</d6p1:double><d6p1:double>-0.88023786719213659</d6p1:double><d6p1:double>0.69160527909576452</d6p1:double><d6p1:double>-0.060514378338476983</d6p1:double><d6p1:double>0.057946620123958612</d6p1:double><d6p1:double>-0.67690650912084438</d6p1:double><d6p1:double>0.80478105468585</d6p1:double><d6p1:double>0.40575745112576356</d6p1:double><d6p1:double>0.32840088312100962</d6p1:double><d6p1:double>-0.3054161990468125</d6p1:double><d6p1:double>0.0024067270622719927</d6p1:double><d6p1:double>0.66902681710749545</d6p1:double><d6p1:double>0.42474372632596624</d6p1:double></Weights></Neuron><Neuron><Bias>-1.0000688257565173</Bias><Output>-1</Output><Weights xmlns:d6p1="http://schemas.microsoft.com/2003/10/Serialization/Arrays"><d6p1:double>0.5731599434876069</d6p1:double><d6p1:double>0.04783779827150085</d6p1:double><d6p1:double>0.74944092440257915</d6p1:double><d6p1:double>0.647783246182368</d6p1:double><d6p1:double>0.83785824591677038</d6p1:double><d6p1:double>0.13552516495348954</d6p1:double><d6p1:double>1.3070652322722418</d6p1:double><d6p1:double>0.88001013944962125</d6p1:double><d6p1:double>0.46716873039366358</d6p1:double><d6p1:double>0.21072009019420132</d6p1:double><d6p1:double>0.56643205575404754</d6p1:double><d6p1:double>0.681699144817098</d6p1:double><d6p1:double>1.1470965236198036</d6p1:double><d6p1:double>0.53167760848863754</d6p1:double><d6p1:double>0.44480737886403032</d6p1:double><d6p1:double>0.027776862504596555</d6p1:double><d6p1:double>0.086576130771687673</d6p1:double><d6p1:double>1.0416003009765227</d6p1:double><d6p1:double>0.055521107879560834</d6p1:double><d6p1:double>1.06441168007896</d6p1:double><d6p1:double>0.644813105899708</d6p1:double><d6p1:double>0.73155502987015375</d6p1:double><d6p1:double>0.62429130820594825</d6p1:double><d6p1:double>0.362214141706627</d6p1:double><d6p1:double>0.42768775990885016</d6p1:double></Weights></Neuron><Neuron><Bias>-0.99894932668731506</Bias><Output>1</Output><Weights xmlns:d6p1="http://schemas.microsoft.com/2003/10/Serialization/Arrays"><d6p1:double>0.536520280616734</d6p1:double><d6p1:double>0.11471901599717184</d6p1:double><d6p1:double>0.60379753771402456</d6p1:double><d6p1:double>0.33597545170401649</d6p1:double><d6p1:double>0.79288824851951389</d6p1:double><d6p1:double>0.33405585613321848</d6p1:double><d6p1:double>-0.0576412908013227</d6p1:double><d6p1:double>0.34380810447400245</d6p1:double><d6p1:double>0.45365521152311117</d6p1:double><d6p1:double>0.33271214726088338</d6p1:double><d6p1:double>0.72747301360531436</d6p1:double><d6p1:double>0.40441852347714669</d6p1:double><d6p1:double>0.93642873918667657</d6p1:double><d6p1:double>0.92804939657057139</d6p1:double><d6p1:double>0.8443040363720794</d6p1:double><d6p1:double>0.65987907370525811</d6p1:double><d6p1:double>0.85635506046563481</d6p1:double><d6p1:double>-0.052457195092517554</d6p1:double><d6p1:double>0.76076583400523068</d6p1:double><d6p1:double>0.88739770961907982</d6p1:double><d6p1:double>0.24921131247949638</d6p1:double><d6p1:double>-0.21496958934741464</d6p1:double><d6p1:double>0.76497380959016315</d6p1:double><d6p1:double>0.81648172401372354</d6p1:double><d6p1:double>0.7505947912713018</d6p1:double></Weights></Neuron><Neuron><Bias>-0.00043944998771989471</Bias><Output>-1</Output><Weights xmlns:d6p1="http://schemas.microsoft.com/2003/10/Serialization/Arrays"><d6p1:double>1.3181950546601353</d6p1:double><d6p1:double>0.76086884352449147</d6p1:double><d6p1:double>-0.21657264715125762</d6p1:double><d6p1:double>0.85649410735302167</d6p1:double><d6p1:double>0.48852719106285269</d6p1:double><d6p1:double>0.828592094684198</d6p1:double><d6p1:double>-0.29670326789852652</d6p1:double><d6p1:double>0.42390439996520962</d6p1:double><d6p1:double>0.19721772981710564</d6p1:double><d6p1:double>0.58296193505053528</d6p1:double><d6p1:double>0.25025135079453181</d6p1:double><d6p1:double>1.6554662723755107</d6p1:double><d6p1:double>-0.1558551284213251</d6p1:double><d6p1:double>-0.028624656300817515</d6p1:double><d6p1:double>0.28551466411492155</d6p1:double><d6p1:double>0.1913359170665184</d6p1:double><d6p1:double>0.11446065069849039</d6p1:double><d6p1:double>0.036747664138486152</d6p1:double><d6p1:double>0.30062056477551358</d6p1:double><d6p1:double>-0.28461422546081988</d6p1:double><d6p1:double>-0.280593593189122</d6p1:double><d6p1:double>0.20752391696755165</d6p1:double><d6p1:double>0.19885951009324623</d6p1:double><d6p1:double>-0.041038295311358754</d6p1:double><d6p1:double>1.2153063818385523</d6p1:double></Weights></Neuron><Neuron><Bias>-0.999421058699198</Bias><Output>1</Output><Weights xmlns:d6p1="http://schemas.microsoft.com/2003/10/Serialization/Arrays"><d6p1:double>-0.25130321713539788</d6p1:double><d6p1:double>0.97148102895418642</d6p1:double><d6p1:double>0.51640350527443157</d6p1:double><d6p1:double>0.91672146550740563</d6p1:double><d6p1:double>-0.0068476836692058941</d6p1:double><d6p1:double>0.90626956245195411</d6p1:double><d6p1:double>0.2815017149796365</d6p1:double><d6p1:double>1.2448506864049407</d6p1:double><d6p1:double>0.3849436107069375</d6p1:double><d6p1:double>0.054928939983204639</d6p1:double><d6p1:double>1.350768364540073</d6p1:double><d6p1:double>0.75451541335238526</d6p1:double><d6p1:double>0.63761687129639588</d6p1:double><d6p1:double>0.7984921886995473</d6p1:double><d6p1:double>-0.26770263508200365</d6p1:double><d6p1:double>-0.19755595957915276</d6p1:double><d6p1:double>0.087689079747409512</d6p1:double><d6p1:double>0.87350565756166809</d6p1:double><d6p1:double>0.67776176545592126</d6p1:double><d6p1:double>1.0275396079903434</d6p1:double><d6p1:double>0.69499694788603927</d6p1:double><d6p1:double>0.27107308783458589</d6p1:double><d6p1:double>-0.19587730042617985</d6p1:double><d6p1:double>0.55021415686973463</d6p1:double><d6p1:double>1.1757583138389935</d6p1:double></Weights></Neuron><Neuron><Bias>-1.0006029766956612</Bias><Output>-1</Output><Weights xmlns:d6p1="http://schemas.microsoft.com/2003/10/Serialization/Arrays"><d6p1:double>0.96213645818307347</d6p1:double><d6p1:double>0.98281216152688278</d6p1:double><d6p1:double>-0.27392633234551023</d6p1:double><d6p1:double>0.98434272477319218</d6p1:double><d6p1:double>0.19890420058735675</d6p1:double><d6p1:double>1.1268717863278077</d6p1:double><d6p1:double>0.52777820555573274</d6p1:double><d6p1:double>-0.12145351860451549</d6p1:double><d6p1:double>0.70320908611289634</d6p1:double><d6p1:double>0.47859280364384166</d6p1:double><d6p1:double>0.80558221982275757</d6p1:double><d6p1:double>0.523165423996647</d6p1:double><d6p1:double>0.56377076191361863</d6p1:double><d6p1:double>-0.0021666115345747019</d6p1:double><d6p1:double>0.051832210857571212</d6p1:double><d6p1:double>0.25351787330782188</d6p1:double><d6p1:double>0.86272173783388229</d6p1:double><d6p1:double>0.23119269075042762</d6p1:double><d6p1:double>0.29688536493752771</d6p1:double><d6p1:double>0.6494262943250978</d6p1:double><d6p1:double>0.577516442705855</d6p1:double><d6p1:double>1.1488702039363585</d6p1:double><d6p1:double>0.94767297031355757</d6p1:double><d6p1:double>-0.054898387500956589</d6p1:double><d6p1:double>0.88415781448154018</d6p1:double></Weights></Neuron><Neuron><Bias>-1.0007000034611229</Bias><Output>1</Output><Weights xmlns:d6p1="http://schemas.microsoft.com/2003/10/Serialization/Arrays"><d6p1:double>0.11845257612111755</d6p1:double><d6p1:double>0.91727634422540216</d6p1:double><d6p1:double>1.1913558150866432</d6p1:double><d6p1:double>1.1207487908380354</d6p1:double><d6p1:double>0.43989803226259905</d6p1:double><d6p1:double>0.97580809394837831</d6p1:double><d6p1:double>-0.21102640987416446</d6p1:double><d6p1:double>0.87057207002614112</d6p1:double><d6p1:double>0.32200557607393082</d6p1:double><d6p1:double>0.48333221479870564</d6p1:double><d6p1:double>0.78045344803700045</d6p1:double><d6p1:double>-0.046720036896895169</d6p1:double><d6p1:double>0.50290247685900513</d6p1:double><d6p1:double>0.14660832700362897</d6p1:double><d6p1:double>0.0024548033995981985</d6p1:double><d6p1:double>0.27130214147876108</d6p1:double><d6p1:double>0.25718396927868648</d6p1:double><d6p1:double>0.775792258547864</d6p1:double><d6p1:double>0.37926386282897356</d6p1:double><d6p1:double>0.97716046678644741</d6p1:double><d6p1:double>-0.13932877131756563</d6p1:double><d6p1:double>0.8634205375640418</d6p1:double><d6p1:double>0.014563507284910664</d6p1:double><d6p1:double>0.42768330007851113</d6p1:double><d6p1:double>0.44728931495655466</d6p1:double></Weights></Neuron><Neuron><Bias>-0.99881758216006844</Bias><Output>1</Output><Weights xmlns:d6p1="http://schemas.microsoft.com/2003/10/Serialization/Arrays"><d6p1:double>0.098893537771634676</d6p1:double><d6p1:double>0.40829035078803577</d6p1:double><d6p1:double>0.5179534711013517</d6p1:double><d6p1:double>0.93090238255288993</d6p1:double><d6p1:double>-0.22647545329771029</d6p1:double><d6p1:double>1.1813531409825173</d6p1:double><d6p1:double>0.15817801796390243</d6p1:double><d6p1:double>0.97873861719541921</d6p1:double><d6p1:double>0.49737919732222341</d6p1:double><d6p1:double>0.48738571868604968</d6p1:double><d6p1:double>0.18240651602602459</d6p1:double><d6p1:double>0.74660919776441026</d6p1:double><d6p1:double>0.99119870803198606</d6p1:double><d6p1:double>1.1835744876503815</d6p1:double><d6p1:double>0.68926325520628962</d6p1:double><d6p1:double>0.17454611661280056</d6p1:double><d6p1:double>0.272699838765063</d6p1:double><d6p1:double>0.85650407848300691</d6p1:double><d6p1:double>0.35211481233818165</d6p1:double><d6p1:double>0.83174962796534</d6p1:double><d6p1:double>0.8557413332491276</d6p1:double><d6p1:double>0.11102324591911968</d6p1:double><d6p1:double>0.24177930508003279</d6p1:double><d6p1:double>0.64248880959396326</d6p1:double><d6p1:double>0.38081311317982741</d6p1:double></Weights></Neuron><Neuron><Bias>0.00059912669617506037</Bias><Output>-1</Output><Weights xmlns:d6p1="http://schemas.microsoft.com/2003/10/Serialization/Arrays"><d6p1:double>-0.13974427121654825</d6p1:double><d6p1:double>0.0064448985675177326</d6p1:double><d6p1:double>-0.24448890030128967</d6p1:double><d6p1:double>0.87027006926383987</d6p1:double><d6p1:double>0.69361757113143929</d6p1:double><d6p1:double>0.73394781164141709</d6p1:double><d6p1:double>0.36772717581503439</d6p1:double><d6p1:double>-0.11573434691494312</d6p1:double><d6p1:double>0.6902960318043081</d6p1:double><d6p1:double>0.61815999825492263</d6p1:double><d6p1:double>0.39987350265952937</d6p1:double><d6p1:double>0.13745156633583905</d6p1:double><d6p1:double>0.14718001566213168</d6p1:double><d6p1:double>1.1174984364854927</d6p1:double><d6p1:double>0.6062121572148873</d6p1:double><d6p1:double>0.11266160415527005</d6p1:double><d6p1:double>0.97964149208323925</d6p1:double><d6p1:double>0.018805357100587897</d6p1:double><d6p1:double>0.46259741844587338</d6p1:double><d6p1:double>0.51554852561532039</d6p1:double><d6p1:double>0.65034691235314235</d6p1:double><d6p1:double>0.49133068865128332</d6p1:double><d6p1:double>0.93180100056532777</d6p1:double><d6p1:double>0.746093457366668</d6p1:double><d6p1:double>-0.33448607198281222</d6p1:double></Weights></Neuron><Neuron><Bias>-1.0014022894822205</Bias><Output>-1</Output><Weights xmlns:d6p1="http://schemas.microsoft.com/2003/10/Serialization/Arrays"><d6p1:double>1.0038667305123445</d6p1:double><d6p1:double>0.53655722748528167</d6p1:double><d6p1:double>-0.23744387726254865</d6p1:double><d6p1:double>0.38281224038890715</d6p1:double><d6p1:double>1.4666528832982992</d6p1:double><d6p1:double>-0.27289324378833046</d6p1:double><d6p1:double>0.56739720947916183</d6p1:double><d6p1:double>0.5341127282210848</d6p1:double><d6p1:double>0.97197346132798534</d6p1:double><d6p1:double>0.030291353657132088</d6p1:double><d6p1:double>0.42185740042362585</d6p1:double><d6p1:double>0.126101579534632</d6p1:double><d6p1:double>0.82386572432604088</d6p1:double><d6p1:double>0.48744305098706925</d6p1:double><d6p1:double>0.68943486227066419</d6p1:double><d6p1:double>0.33785540377381945</d6p1:double><d6p1:double>0.72657817475920394</d6p1:double><d6p1:double>0.56962199116230416</d6p1:double><d6p1:double>0.04445032203475624</d6p1:double><d6p1:double>-0.26323156027705485</d6p1:double><d6p1:double>0.52836269763444</d6p1:double><d6p1:double>1.284185128669574</d6p1:double><d6p1:double>0.40344709719213395</d6p1:double><d6p1:double>0.24247307296458429</d6p1:double><d6p1:double>0.4310470623760384</d6p1:double></Weights></Neuron><Neuron><Bias>-0.0012171550514042532</Bias><Output>-1</Output><Weights xmlns:d6p1="http://schemas.microsoft.com/2003/10/Serialization/Arrays"><d6p1:double>1.0171285709397229</d6p1:double><d6p1:double>0.54746598583853323</d6p1:double><d6p1:double>0.31864258130834805</d6p1:double><d6p1:double>1.1396584521160265</d6p1:double><d6p1:double>0.68833847388455327</d6p1:double><d6p1:double>0.08257448471662876</d6p1:double><d6p1:double>1.0289212909007752</d6p1:double><d6p1:double>0.51063954760014485</d6p1:double><d6p1:double>0.14595048880623715</d6p1:double><d6p1:double>0.80465909421567661</d6p1:double><d6p1:double>0.10250430651883238</d6p1:double><d6p1:double>0.3667343831374642</d6p1:double><d6p1:double>1.013327807377969</d6p1:double><d6p1:double>-0.13289491448614055</d6p1:double><d6p1:double>-0.096490279517236</d6p1:double><d6p1:double>0.47203072427958331</d6p1:double><d6p1:double>0.90927898268612872</d6p1:double><d6p1:double>0.68543573612549225</d6p1:double><d6p1:double>0.32246574682723045</d6p1:double><d6p1:double>0.27056906494680194</d6p1:double><d6p1:double>0.26517357819314213</d6p1:double><d6p1:double>1.2019342019485635</d6p1:double><d6p1:double>0.71885809200585737</d6p1:double><d6p1:double>-0.23714525670145531</d6p1:double><d6p1:double>0.79381511817131667</d6p1:double></Weights></Neuron><Neuron><Bias>0.0013509860181697465</Bias><Output>1</Output><Weights xmlns:d6p1="http://schemas.microsoft.com/2003/10/Serialization/Arrays"><d6p1:double>0.6558246271694208</d6p1:double><d6p1:double>0.34092986981039664</d6p1:double><d6p1:double>0.81360011575178937</d6p1:double><d6p1:double>0.2897875517302711</d6p1:double><d6p1:double>0.72319156626490944</d6p1:double><d6p1:double>0.69817746085088117</d6p1:double><d6p1:double>-0.3748860154215507</d6p1:double><d6p1:double>0.76824588788965142</d6p1:double><d6p1:double>0.21952555323503192</d6p1:double><d6p1:double>0.739763080946636</d6p1:double><d6p1:double>0.094815310346028844</d6p1:double><d6p1:double>1.1511380544446765</d6p1:double><d6p1:double>0.18820028339965542</d6p1:double><d6p1:double>0.82631350683394922</d6p1:double><d6p1:double>1.0481122695171858</d6p1:double><d6p1:double>0.13280471769057445</d6p1:double><d6p1:double>0.30074325555281006</d6p1:double><d6p1:double>0.26822936489326427</d6p1:double><d6p1:double>0.686038980923918</d6p1:double><d6p1:double>0.82825435409993431</d6p1:double><d6p1:double>0.745836550198617</d6p1:double><d6p1:double>0.7780511012275243</d6p1:double><d6p1:double>-0.033974640587781928</d6p1:double><d6p1:double>0.52546679164958954</d6p1:double><d6p1:double>-0.13122849242117571</d6p1:double></Weights></Neuron><Neuron><Bias>0.00048885858486214775</Bias><Output>-1</Output><Weights xmlns:d6p1="http://schemas.microsoft.com/2003/10/Serialization/Arrays"><d6p1:double>0.10499743773833631</d6p1:double><d6p1:double>0.061123466968909142</d6p1:double><d6p1:double>0.405301247071883</d6p1:double><d6p1:double>0.13827880468826911</d6p1:double><d6p1:double>0.081874840611189256</d6p1:double><d6p1:double>0.34060921806093075</d6p1:double><d6p1:double>0.091346397466755547</d6p1:double><d6p1:double>0.017474287176226518</d6p1:double><d6p1:double>0.65382828900653678</d6p1:double><d6p1:double>1.3563850296635824</d6p1:double><d6p1:double>-0.32320584484016068</d6p1:double><d6p1:double>0.1002738281445273</d6p1:double><d6p1:double>0.10980380913484408</d6p1:double><d6p1:double>0.45454985703039624</d6p1:double><d6p1:double>-0.34078017619438061</d6p1:double><d6p1:double>-0.35836424139177725</d6p1:double><d6p1:double>0.92190635809565735</d6p1:double><d6p1:double>0.26170658989334616</d6p1:double><d6p1:double>0.48979330468092</d6p1:double><d6p1:double>1.3396519872975543</d6p1:double><d6p1:double>0.69275559939797837</d6p1:double><d6p1:double>0.665926247906341</d6p1:double><d6p1:double>-0.11991179513856765</d6p1:double><d6p1:double>0.80985393486131718</d6p1:double><d6p1:double>0.50522822222205022</d6p1:double></Weights></Neuron><Neuron><Bias>-0.99998841692662288</Bias><Output>-1</Output><Weights xmlns:d6p1="http://schemas.microsoft.com/2003/10/Serialization/Arrays"><d6p1:double>1.2594195044574474</d6p1:double><d6p1:double>0.64581470647032713</d6p1:double><d6p1:double>0.80160132169853082</d6p1:double><d6p1:double>0.76299315035756743</d6p1:double><d6p1:double>-0.34812727720225495</d6p1:double><d6p1:double>0.35683505687687173</d6p1:double><d6p1:double>0.73458422033306514</d6p1:double><d6p1:double>0.98235638494992172</d6p1:double><d6p1:double>0.61213701002321286</d6p1:double><d6p1:double>0.89375927356337193</d6p1:double><d6p1:double>0.565137629825708</d6p1:double><d6p1:double>-0.047530746089971508</d6p1:double><d6p1:double>-0.035869513957363382</d6p1:double><d6p1:double>0.51432648789428093</d6p1:double><d6p1:double>-0.25476837353781229</d6p1:double><d6p1:double>-0.47933154634823394</d6p1:double><d6p1:double>0.020185731550386912</d6p1:double><d6p1:double>-0.18574137867669907</d6p1:double><d6p1:double>-0.69568593471038975</d6p1:double><d6p1:double>-0.29505599591940662</d6p1:double><d6p1:double>0.862226533265453</d6p1:double><d6p1:double>-0.17759243188094112</d6p1:double><d6p1:double>0.14954823539683498</d6p1:double><d6p1:double>1.1502829758931874</d6p1:double><d6p1:double>1.5657842733165059</d6p1:double></Weights></Neuron><Neuron><Bias>0.001399919936945342</Bias><Output>1</Output><Weights xmlns:d6p1="http://schemas.microsoft.com/2003/10/Serialization/Arrays"><d6p1:double>0.44002456822800207</d6p1:double><d6p1:double>-0.15427028253242675</d6p1:double><d6p1:double>0.729748828977386</d6p1:double><d6p1:double>-0.54200704692331558</d6p1:double><d6p1:double>0.049598163377629553</d6p1:double><d6p1:double>-1.1383579963766033</d6p1:double><d6p1:double>-0.99575821771970163</d6p1:double><d6p1:double>-0.49729567558381826</d6p1:double><d6p1:double>-0.030426310961506248</d6p1:double><d6p1:double>0.88790070472742222</d6p1:double><d6p1:double>0.73980606053141074</d6p1:double><d6p1:double>0.29135212107515096</d6p1:double><d6p1:double>-0.39663150052679</d6p1:double><d6p1:double>0.91597540846661452</d6p1:double><d6p1:double>0.60808287571928255</d6p1:double><d6p1:double>-0.029692380559821738</d6p1:double><d6p1:double>0.56539320628824585</d6p1:double><d6p1:double>-0.4063386069735811</d6p1:double><d6p1:double>1.1193458628596289</d6p1:double><d6p1:double>1.7996865963558002</d6p1:double><d6p1:double>0.18258055707261267</d6p1:double><d6p1:double>1.1230694938523653</d6p1:double><d6p1:double>-0.27386487537252308</d6p1:double><d6p1:double>0.16499141870155443</d6p1:double><d6p1:double>0.74145467816373445</d6p1:double></Weights></Neuron><Neuron><Bias>-0.0002932511594348159</Bias><Output>-1</Output><Weights xmlns:d6p1="http://schemas.microsoft.com/2003/10/Serialization/Arrays"><d6p1:double>1.0100875049137688</d6p1:double><d6p1:double>-0.14145060782515842</d6p1:double><d6p1:double>0.26846655573812545</d6p1:double><d6p1:double>0.27798540957540452</d6p1:double><d6p1:double>-0.31618996359069257</d6p1:double><d6p1:double>1.2062604798792229</d6p1:double><d6p1:double>1.1855619692212707</d6p1:double><d6p1:double>0.32846575026358965</d6p1:double><d6p1:double>0.83593565420252092</d6p1:double><d6p1:double>-0.33278560055889178</d6p1:double><d6p1:double>-0.30409051968611578</d6p1:double><d6p1:double>0.18769838937318359</d6p1:double><d6p1:double>1.1321503321920703</d6p1:double><d6p1:double>0.59677781755492887</d6p1:double><d6p1:double>0.75852463819614746</d6p1:double><d6p1:double>0.33148427878984765</d6p1:double><d6p1:double>0.1015618042804305</d6p1:double><d6p1:double>-0.49037761625488885</d6p1:double><d6p1:double>-0.55592238560544693</d6p1:double><d6p1:double>-0.76847330596777053</d6p1:double><d6p1:double>0.87104280042781113</d6p1:double><d6p1:double>-0.18056818913144174</d6p1:double><d6p1:double>0.98968180036469311</d6p1:double><d6p1:double>0.59703394443892055</d6p1:double><d6p1:double>-0.095258965127948958</d6p1:double></Weights></Neuron><Neuron><Bias>-1.0008052787329247</Bias><Output>-1</Output><Weights xmlns:d6p1="http://schemas.microsoft.com/2003/10/Serialization/Arrays"><d6p1:double>1.0076676109047469</d6p1:double><d6p1:double>-0.035025915957223173</d6p1:double><d6p1:double>0.65490556172343684</d6p1:double><d6p1:double>0.67504068167085685</d6p1:double><d6p1:double>0.29111250877701939</d6p1:double><d6p1:double>0.78291804111377994</d6p1:double><d6p1:double>0.5134378113223429</d6p1:double><d6p1:double>-0.087254353705869231</d6p1:double><d6p1:double>0.22347378673901497</d6p1:double><d6p1:double>0.83632780638411885</d6p1:double><d6p1:double>0.56430230601590636</d6p1:double><d6p1:double>0.23940729132504562</d6p1:double><d6p1:double>0.3536340921028916</d6p1:double><d6p1:double>0.19496256298648051</d6p1:double><d6p1:double>0.7513842163154878</d6p1:double><d6p1:double>0.48561448331153839</d6p1:double><d6p1:double>0.38097880417925839</d6p1:double><d6p1:double>0.49076661363268087</d6p1:double><d6p1:double>0.51516280261013081</d6p1:double><d6p1:double>0.22119422363842839</d6p1:double><d6p1:double>-0.092887461338627644</d6p1:double><d6p1:double>1.3095709465004284</d6p1:double><d6p1:double>1.2365619000781993</d6p1:double><d6p1:double>0.49250150413500343</d6p1:double><d6p1:double>0.74584313727830842</d6p1:double></Weights></Neuron><Neuron><Bias>0.0010152318749080604</Bias><Output>-1</Output><Weights xmlns:d6p1="http://schemas.microsoft.com/2003/10/Serialization/Arrays"><d6p1:double>-0.07579103964504362</d6p1:double><d6p1:double>0.70683405901456942</d6p1:double><d6p1:double>-0.0044257605898919486</d6p1:double><d6p1:double>0.62798846335527869</d6p1:double><d6p1:double>1.3068447460173391</d6p1:double><d6p1:double>-0.22517888506167866</d6p1:double><d6p1:double>-0.577193741267532</d6p1:double><d6p1:double>0.81257632394193846</d6p1:double><d6p1:double>0.83194857284273582</d6p1:double><d6p1:double>-0.05242226939507983</d6p1:double><d6p1:double>0.83871257478068073</d6p1:double><d6p1:double>0.93862992957581526</d6p1:double><d6p1:double>0.19741649142781278</d6p1:double><d6p1:double>1.404177670845552</d6p1:double><d6p1:double>-0.53296438315187356</d6p1:double><d6p1:double>0.19073219881758546</d6p1:double><d6p1:double>-0.52175619447610844</d6p1:double><d6p1:double>0.44497789576696412</d6p1:double><d6p1:double>0.29667761847858082</d6p1:double><d6p1:double>1.600321877588299</d6p1:double><d6p1:double>0.49301354616765358</d6p1:double><d6p1:double>0.020342329817923558</d6p1:double><d6p1:double>0.023301862112715982</d6p1:double><d6p1:double>-0.21319064780081198</d6p1:double><d6p1:double>0.37596193116197257</d6p1:double></Weights></Neuron><Neuron><Bias>4.3659636066593081E-06</Bias><Output>1</Output><Weights xmlns:d6p1="http://schemas.microsoft.com/2003/10/Serialization/Arrays"><d6p1:double>-0.12726490424799841</d6p1:double><d6p1:double>0.538392052807932</d6p1:double><d6p1:double>-0.045279162644589338</d6p1:double><d6p1:double>0.47464368548119357</d6p1:double><d6p1:double>-0.26723841667024145</d6p1:double><d6p1:double>0.11355679085529881</d6p1:double><d6p1:double>1.0120190260244468</d6p1:double><d6p1:double>1.0926781600083491</d6p1:double><d6p1:double>0.14664719798470727</d6p1:double><d6p1:double>0.18708414600929418</d6p1:double><d6p1:double>0.15276186807325054</d6p1:double><d6p1:double>0.85514837663558319</d6p1:double><d6p1:double>0.23663014651586506</d6p1:double><d6p1:double>0.60078068599620316</d6p1:double><d6p1:double>1.2137619911559325</d6p1:double><d6p1:double>0.3639736877370906</d6p1:double><d6p1:double>0.43268851330981845</d6p1:double><d6p1:double>0.24645411296014341</d6p1:double><d6p1:double>0.46488581352550079</d6p1:double><d6p1:double>1.0511287084024921</d6p1:double><d6p1:double>0.38323190358808656</d6p1:double><d6p1:double>0.572220994015619</d6p1:double><d6p1:double>0.44837045540393611</d6p1:double><d6p1:double>0.87962476694635572</d6p1:double><d6p1:double>0.81519706349501175</d6p1:double></Weights></Neuron><Neuron><Bias>-0.99992263785452662</Bias><Output>-1</Output><Weights xmlns:d6p1="http://schemas.microsoft.com/2003/10/Serialization/Arrays"><d6p1:double>0.41196032039008629</d6p1:double><d6p1:double>0.71066005228140494</d6p1:double><d6p1:double>0.38531293367254404</d6p1:double><d6p1:double>1.0006045096426188</d6p1:double><d6p1:double>0.55798542702871856</d6p1:double><d6p1:double>0.79696623457732818</d6p1:double><d6p1:double>0.14829372363612692</d6p1:double><d6p1:double>-0.11549597360404376</d6p1:double><d6p1:double>0.88080003561666775</d6p1:double><d6p1:double>0.79130618748546411</d6p1:double><d6p1:double>0.44794754066317377</d6p1:double><d6p1:double>0.33019954174307675</d6p1:double><d6p1:double>0.73601540952351963</d6p1:double><d6p1:double>0.53712240127374067</d6p1:double><d6p1:double>0.75991481230087388</d6p1:double><d6p1:double>0.19811077305347385</d6p1:double><d6p1:double>0.43306787734016583</d6p1:double><d6p1:double>0.49898254598502234</d6p1:double><d6p1:double>0.57509269957557563</d6p1:double><d6p1:double>0.59712709145720222</d6p1:double><d6p1:double>1.1129416531956473</d6p1:double><d6p1:double>0.5247967206570463</d6p1:double><d6p1:double>0.98819200192174428</d6p1:double><d6p1:double>0.52948861924712565</d6p1:double><d6p1:double>1.0802666397193477</d6p1:double></Weights></Neuron><Neuron><Bias>-0.00016282669540389417</Bias><Output>1</Output><Weights xmlns:d6p1="http://schemas.microsoft.com/2003/10/Serialization/Arrays"><d6p1:double>-0.95546578936822779</d6p1:double><d6p1:double>0.4059432252895932</d6p1:double><d6p1:double>0.77244962241295489</d6p1:double><d6p1:double>1.2038387081749369</d6p1:double><d6p1:double>0.020536681021326858</d6p1:double><d6p1:double>-0.099498576185700058</d6p1:double><d6p1:double>0.883362100027172</d6p1:double><d6p1:double>0.30571416679414448</d6p1:double><d6p1:double>0.64038577471125</d6p1:double><d6p1:double>0.22109714389017396</d6p1:double><d6p1:double>0.022517159964968239</d6p1:double><d6p1:double>-0.043066697446843681</d6p1:double><d6p1:double>0.33059512422402393</d6p1:double><d6p1:double>-0.1594996370530973</d6p1:double><d6p1:double>0.94681027753153124</d6p1:double><d6p1:double>-0.13184914939614659</d6p1:double><d6p1:double>0.48690249254027906</d6p1:double><d6p1:double>0.3293355480204373</d6p1:double><d6p1:double>0.33627812075062508</d6p1:double><d6p1:double>0.81441376252218289</d6p1:double><d6p1:double>-0.044115850964554573</d6p1:double><d6p1:double>0.041052545267140632</d6p1:double><d6p1:double>-0.32366905401511631</d6p1:double><d6p1:double>0.36475857177995791</d6p1:double><d6p1:double>-0.44960535695933362</d6p1:double></Weights></Neuron><Neuron><Bias>-4.3644904718604711E-05</Bias><Output>-1</Output><Weights xmlns:d6p1="http://schemas.microsoft.com/2003/10/Serialization/Arrays"><d6p1:double>0.25904834724714804</d6p1:double><d6p1:double>0.594980269988483</d6p1:double><d6p1:double>0.0078820097565280144</d6p1:double><d6p1:double>0.79838844709588441</d6p1:double><d6p1:double>1.5082711588823126</d6p1:double><d6p1:double>-0.23790579000370074</d6p1:double><d6p1:double>1.4004011363577735</d6p1:double><d6p1:double>-0.32878224958786212</d6p1:double><d6p1:double>0.68100551283634725</d6p1:double><d6p1:double>-0.26360487927753778</d6p1:double><d6p1:double>-0.85483475173672041</d6p1:double><d6p1:double>-0.1115186708253792</d6p1:double><d6p1:double>0.54078104297971452</d6p1:double><d6p1:double>0.37187136425439932</d6p1:double><d6p1:double>-0.28695848433221893</d6p1:double><d6p1:double>0.656786558184446</d6p1:double><d6p1:double>0.31768823088914916</d6p1:double><d6p1:double>0.0196358707769646</d6p1:double><d6p1:double>0.67638662357441037</d6p1:double><d6p1:double>0.4737245296913189</d6p1:double><d6p1:double>0.58610362303394137</d6p1:double><d6p1:double>-0.10197298518946571</d6p1:double><d6p1:double>1.0471272633893904</d6p1:double><d6p1:double>0.45745041456458363</d6p1:double><d6p1:double>-0.5282001722529962</d6p1:double></Weights></Neuron><Neuron><Bias>0.00015202378691789271</Bias><Output>1</Output><Weights xmlns:d6p1="http://schemas.microsoft.com/2003/10/Serialization/Arrays"><d6p1:double>0.44329053554663594</d6p1:double><d6p1:double>0.44206309047084247</d6p1:double><d6p1:double>0.64851630798091242</d6p1:double><d6p1:double>-0.10003859268627988</d6p1:double><d6p1:double>0.21054839126136352</d6p1:double><d6p1:double>0.14489533059508927</d6p1:double><d6p1:double>0.51111985188345832</d6p1:double><d6p1:double>0.31179677623819707</d6p1:double><d6p1:double>0.98437687506715588</d6p1:double><d6p1:double>0.26354043561276591</d6p1:double><d6p1:double>1.014370258493303</d6p1:double><d6p1:double>0.44265735025456754</d6p1:double><d6p1:double>0.79670353602502941</d6p1:double><d6p1:double>0.16037911510710295</d6p1:double><d6p1:double>0.51143657704150847</d6p1:double><d6p1:double>1.0553581137392538</d6p1:double><d6p1:double>0.80890302808328651</d6p1:double><d6p1:double>0.80672726795271543</d6p1:double><d6p1:double>0.78474587291500153</d6p1:double><d6p1:double>0.49441941221852648</d6p1:double><d6p1:double>0.56204566401003142</d6p1:double><d6p1:double>0.73288671028133978</d6p1:double><d6p1:double>0.96303959463582489</d6p1:double><d6p1:double>0.69888230888948866</d6p1:double><d6p1:double>0.90690659056713319</d6p1:double></Weights></Neuron><Neuron><Bias>3.5596608975843164E-05</Bias><Output>1</Output><Weights xmlns:d6p1="http://schemas.microsoft.com/2003/10/Serialization/Arrays"><d6p1:double>-0.1569776712124715</d6p1:double><d6p1:double>0.62416489944154052</d6p1:double><d6p1:double>0.55473432831294345</d6p1:double><d6p1:double>-0.1153997094107115</d6p1:double><d6p1:double>0.71414463637082648</d6p1:double><d6p1:double>-0.018431948969408821</d6p1:double><d6p1:double>0.66042867312194853</d6p1:double><d6p1:double>0.74684510409990068</d6p1:double><d6p1:double>0.32432796011913662</d6p1:double><d6p1:double>0.424326793695529</d6p1:double><d6p1:double>0.50585892242337593</d6p1:double><d6p1:double>0.38693429234081989</d6p1:double><d6p1:double>0.4392910231742907</d6p1:double><d6p1:double>0.39659855694339913</d6p1:double><d6p1:double>0.861148815026288</d6p1:double><d6p1:double>0.16285801562390004</d6p1:double><d6p1:double>1.583679418051855</d6p1:double><d6p1:double>0.4479959814461616</d6p1:double><d6p1:double>0.80738795641415528</d6p1:double><d6p1:double>0.962076630679016</d6p1:double><d6p1:double>0.64139226621031753</d6p1:double><d6p1:double>0.10222391947339743</d6p1:double><d6p1:double>0.81955158676084072</d6p1:double><d6p1:double>0.46568115117804287</d6p1:double><d6p1:double>0.23001491151400913</d6p1:double></Weights></Neuron><Neuron><Bias>-1.0001259482100058</Bias><Output>-1</Output><Weights xmlns:d6p1="http://schemas.microsoft.com/2003/10/Serialization/Arrays"><d6p1:double>0.36588550737317188</d6p1:double><d6p1:double>0.68847518616711789</d6p1:double><d6p1:double>0.83275848288993881</d6p1:double><d6p1:double>1.1866676495905908</d6p1:double><d6p1:double>0.30428052460962562</d6p1:double><d6p1:double>1.2025016653271066</d6p1:double><d6p1:double>0.049931978153432283</d6p1:double><d6p1:double>0.40748278026165974</d6p1:double><d6p1:double>1.1050579555841555</d6p1:double><d6p1:double>0.89091185791766292</d6p1:double><d6p1:double>0.25394527948266232</d6p1:double><d6p1:double>0.94115948368650681</d6p1:double><d6p1:double>0.715207867193346</d6p1:double><d6p1:double>0.23365766810743532</d6p1:double><d6p1:double>0.27256101533333321</d6p1:double><d6p1:double>0.083133412414156782</d6p1:double><d6p1:double>0.58049838403080167</d6p1:double><d6p1:double>0.82439724076673582</d6p1:double><d6p1:double>0.0841909995272333</d6p1:double><d6p1:double>0.5217753514695429</d6p1:double><d6p1:double>-0.037061894015387571</d6p1:double><d6p1:double>0.39061261667652836</d6p1:double><d6p1:double>0.59193080183472313</d6p1:double><d6p1:double>0.57571152773719414</d6p1:double><d6p1:double>0.52701212366289762</d6p1:double></Weights></Neuron><Neuron><Bias>-1.0003425123176202</Bias><Output>-1</Output><Weights xmlns:d6p1="http://schemas.microsoft.com/2003/10/Serialization/Arrays"><d6p1:double>-0.4405398434177612</d6p1:double><d6p1:double>-0.45719795656369838</d6p1:double><d6p1:double>-0.40892540874850652</d6p1:double><d6p1:double>-0.10588992452437242</d6p1:double><d6p1:double>0.88158009972959928</d6p1:double><d6p1:double>0.32701307896959719</d6p1:double><d6p1:double>0.64615794459340936</d6p1:double><d6p1:double>0.34789093947275296</d6p1:double><d6p1:double>1.1026556402216789</d6p1:double><d6p1:double>1.0872639184279536</d6p1:double><d6p1:double>0.27560692240715778</d6p1:double><d6p1:double>0.5447697770441442</d6p1:double><d6p1:double>-0.29192975778776287</d6p1:double><d6p1:double>0.89526961495760327</d6p1:double><d6p1:double>0.17833498034921466</d6p1:double><d6p1:double>1.189574128583706</d6p1:double><d6p1:double>0.31560356767363862</d6p1:double><d6p1:double>1.03269263695451</d6p1:double><d6p1:double>1.0057703927301114</d6p1:double><d6p1:double>0.0398239294507809</d6p1:double><d6p1:double>0.75995352444842212</d6p1:double><d6p1:double>1.1305374201491225</d6p1:double><d6p1:double>0.35966388183810072</d6p1:double><d6p1:double>0.14044493658237145</d6p1:double><d6p1:double>0.25981360441591311</d6p1:double></Weights></Neuron><Neuron><Bias>-0.0003764412883881785</Bias><Output>-1</Output><Weights xmlns:d6p1="http://schemas.microsoft.com/2003/10/Serialization/Arrays"><d6p1:double>0.11626910903372564</d6p1:double><d6p1:double>-0.15206227266229683</d6p1:double><d6p1:double>0.31614326757103384</d6p1:double><d6p1:double>0.88647764048462085</d6p1:double><d6p1:double>0.79138647097318493</d6p1:double><d6p1:double>-0.12068541158304938</d6p1:double><d6p1:double>0.31069092044130731</d6p1:double><d6p1:double>-0.20579726166492573</d6p1:double><d6p1:double>0.65438014041205472</d6p1:double><d6p1:double>0.10980677159535367</d6p1:double><d6p1:double>0.53974229316472988</d6p1:double><d6p1:double>0.63129312345720257</d6p1:double><d6p1:double>0.41263871186048912</d6p1:double><d6p1:double>0.54838883067363431</d6p1:double><d6p1:double>0.34954697735266227</d6p1:double><d6p1:double>0.96337801791154209</d6p1:double><d6p1:double>0.7477616986461364</d6p1:double><d6p1:double>0.751459390536479</d6p1:double><d6p1:double>0.94929260449276853</d6p1:double><d6p1:double>0.40344759008758324</d6p1:double><d6p1:double>0.98266201668652275</d6p1:double><d6p1:double>0.32190453876337616</d6p1:double><d6p1:double>0.46541237246575123</d6p1:double><d6p1:double>0.31474242475672909</d6p1:double><d6p1:double>0.95737984459075054</d6p1:double></Weights></Neuron><Neuron><Bias>-0.9989431200208323</Bias><Output>1</Output><Weights xmlns:d6p1="http://schemas.microsoft.com/2003/10/Serialization/Arrays"><d6p1:double>0.11042806332827626</d6p1:double><d6p1:double>0.89621189673362334</d6p1:double><d6p1:double>1.355209719641465</d6p1:double><d6p1:double>-0.33864180341450562</d6p1:double><d6p1:double>-0.033252742795820363</d6p1:double><d6p1:double>0.11068700401412473</d6p1:double><d6p1:double>0.72079084677482319</d6p1:double><d6p1:double>1.2443244559261</d6p1:double><d6p1:double>-0.12249280694510777</d6p1:double><d6p1:double>0.15123363345909704</d6p1:double><d6p1:double>-0.15481592928868726</d6p1:double><d6p1:double>-0.52242609551096952</d6p1:double><d6p1:double>1.108806230955302</d6p1:double><d6p1:double>1.2235846565650843</d6p1:double><d6p1:double>0.374934880129481</d6p1:double><d6p1:double>0.70349852858404194</d6p1:double><d6p1:double>0.041176030201624164</d6p1:double><d6p1:double>0.39960204278309869</d6p1:double><d6p1:double>0.41361090361256564</d6p1:double><d6p1:double>0.78331819579956052</d6p1:double><d6p1:double>0.047310853656398491</d6p1:double><d6p1:double>0.71761746797789749</d6p1:double><d6p1:double>0.083556112052357731</d6p1:double><d6p1:double>0.506014617687</d6p1:double><d6p1:double>-0.1739420674486323</d6p1:double></Weights></Neuron><Neuron><Bias>0.00034374180802522849</Bias><Output>1</Output><Weights xmlns:d6p1="http://schemas.microsoft.com/2003/10/Serialization/Arrays"><d6p1:double>0.5923972664101077</d6p1:double><d6p1:double>-0.099618857846520775</d6p1:double><d6p1:double>0.47172200770330752</d6p1:double><d6p1:double>1.1112074726939019</d6p1:double><d6p1:double>0.785852191301424</d6p1:double><d6p1:double>1.2000347701240315</d6p1:double><d6p1:double>0.92067252384759068</d6p1:double><d6p1:double>0.57922390748697739</d6p1:double><d6p1:double>0.97971862489207462</d6p1:double><d6p1:double>0.617098549252153</d6p1:double><d6p1:double>0.083985425036690126</d6p1:double><d6p1:double>0.68780741640393572</d6p1:double><d6p1:double>0.97136987158054644</d6p1:double><d6p1:double>-0.23763913824852781</d6p1:double><d6p1:double>0.67493715780683661</d6p1:double><d6p1:double>0.90733738049692669</d6p1:double><d6p1:double>0.12946625649547741</d6p1:double><d6p1:double>0.74487096216799165</d6p1:double><d6p1:double>0.524860684761419</d6p1:double><d6p1:double>0.38943925004303648</d6p1:double><d6p1:double>-0.377035978266374</d6p1:double><d6p1:double>0.86824330916359616</d6p1:double><d6p1:double>0.71298017471744035</d6p1:double><d6p1:double>1.200018222812713</d6p1:double><d6p1:double>-0.17289819523181071</d6p1:double></Weights></Neuron><Neuron><Bias>-1.0007777306201446</Bias><Output>-1</Output><Weights xmlns:d6p1="http://schemas.microsoft.com/2003/10/Serialization/Arrays"><d6p1:double>1.4277145914656435</d6p1:double><d6p1:double>-0.6751786577320773</d6p1:double><d6p1:double>0.4667260866336253</d6p1:double><d6p1:double>-0.024553542050189631</d6p1:double><d6p1:double>0.17276273968419908</d6p1:double><d6p1:double>0.99441179216502606</d6p1:double><d6p1:double>0.77419073610339539</d6p1:double><d6p1:double>0.72333216472616735</d6p1:double><d6p1:double>0.76945927070431919</d6p1:double><d6p1:double>1.0013838245459938</d6p1:double><d6p1:double>0.33728282660009562</d6p1:double><d6p1:double>0.62197179848489836</d6p1:double><d6p1:double>0.45457874964888623</d6p1:double><d6p1:double>0.090370857132989785</d6p1:double><d6p1:double>0.42329444411617495</d6p1:double><d6p1:double>0.44501534865405329</d6p1:double><d6p1:double>-0.23725664976108177</d6p1:double><d6p1:double>1.2053726030887482</d6p1:double><d6p1:double>0.14662007400063032</d6p1:double><d6p1:double>-0.25037475083990657</d6p1:double><d6p1:double>-0.33029836011408087</d6p1:double><d6p1:double>0.42173276822928307</d6p1:double><d6p1:double>0.32409340070136666</d6p1:double><d6p1:double>0.16370274665426807</d6p1:double><d6p1:double>-0.46260527081684616</d6p1:double></Weights></Neuron><Neuron><Bias>-1.00022478610433</Bias><Output>-1</Output><Weights xmlns:d6p1="http://schemas.microsoft.com/2003/10/Serialization/Arrays"><d6p1:double>0.71643170889110985</d6p1:double><d6p1:double>0.95321531175048912</d6p1:double><d6p1:double>0.16672644917386392</d6p1:double><d6p1:double>0.77639611463034741</d6p1:double><d6p1:double>-0.16268862733625059</d6p1:double><d6p1:double>0.27909667678572414</d6p1:double><d6p1:double>0.80582407678547563</d6p1:double><d6p1:double>0.087160119746208881</d6p1:double><d6p1:double>-0.0067057942422512045</d6p1:double><d6p1:double>0.81854224007527276</d6p1:double><d6p1:double>0.500609905543376</d6p1:double><d6p1:double>0.54006459188053624</d6p1:double><d6p1:double>0.94619608011276091</d6p1:double><d6p1:double>0.12598486354046606</d6p1:double><d6p1:double>0.70073966579385227</d6p1:double><d6p1:double>0.26367137611523128</d6p1:double><d6p1:double>0.37922573535327203</d6p1:double><d6p1:double>0.39244917739231966</d6p1:double><d6p1:double>0.23608809732031752</d6p1:double><d6p1:double>0.95728306939256236</d6p1:double><d6p1:double>0.76346435370535648</d6p1:double><d6p1:double>0.01747027499351847</d6p1:double><d6p1:double>0.47805105007686494</d6p1:double><d6p1:double>0.26147570506020923</d6p1:double><d6p1:double>1.06191523699988</d6p1:double></Weights></Neuron><Neuron><Bias>-0.00057960648122087747</Bias><Output>-1</Output><Weights xmlns:d6p1="http://schemas.microsoft.com/2003/10/Serialization/Arrays"><d6p1:double>0.19336578473530541</d6p1:double><d6p1:double>0.79934786311372907</d6p1:double><d6p1:double>0.2669548954300594</d6p1:double><d6p1:double>0.5569985066069717</d6p1:double><d6p1:double>0.841715163407038</d6p1:double><d6p1:double>-0.45017577112750218</d6p1:double><d6p1:double>0.32561550341436918</d6p1:double><d6p1:double>-0.21835282223262564</d6p1:double><d6p1:double>0.24767294677690363</d6p1:double><d6p1:double>-0.38771010114903282</d6p1:double><d6p1:double>-0.13788031051337091</d6p1:double><d6p1:double>1.3519242696633562</d6p1:double><d6p1:double>0.5844327930900437</d6p1:double><d6p1:double>-0.020256698368973865</d6p1:double><d6p1:double>0.70046858649040977</d6p1:double><d6p1:double>0.42515334569029045</d6p1:double><d6p1:double>0.18580968824025898</d6p1:double><d6p1:double>-0.2587224462705231</d6p1:double><d6p1:double>0.30949520999995933</d6p1:double><d6p1:double>1.2149087738851414</d6p1:double><d6p1:double>0.73135667705594221</d6p1:double><d6p1:double>-0.025622954495226304</d6p1:double><d6p1:double>0.79441342181364338</d6p1:double><d6p1:double>0.17820980134182021</d6p1:double><d6p1:double>1.3737861976097792</d6p1:double></Weights></Neuron><Neuron><Bias>-0.99871850942370721</Bias><Output>-1</Output><Weights xmlns:d6p1="http://schemas.microsoft.com/2003/10/Serialization/Arrays"><d6p1:double>0.74816859617539921</d6p1:double><d6p1:double>0.35688087429526028</d6p1:double><d6p1:double>0.41146041681544565</d6p1:double><d6p1:double>0.12968900068333952</d6p1:double><d6p1:double>0.1706515359652867</d6p1:double><d6p1:double>1.0910780165993967</d6p1:double><d6p1:double>-0.013962596559298827</d6p1:double><d6p1:double>0.76300847774681879</d6p1:double><d6p1:double>0.44745073861829593</d6p1:double><d6p1:double>0.83216846240820075</d6p1:double><d6p1:double>0.552504804410569</d6p1:double><d6p1:double>0.3570769493999012</d6p1:double><d6p1:double>0.25041076397957845</d6p1:double><d6p1:double>0.89553788702954873</d6p1:double><d6p1:double>-0.061336036960685222</d6p1:double><d6p1:double>0.96848793113144749</d6p1:double><d6p1:double>0.954189652341455</d6p1:double><d6p1:double>1.095178164802149</d6p1:double><d6p1:double>-0.090524131667749475</d6p1:double><d6p1:double>0.31470231627373507</d6p1:double><d6p1:double>0.64049473600095874</d6p1:double><d6p1:double>-0.067959934670320479</d6p1:double><d6p1:double>1.0605822112754533</d6p1:double><d6p1:double>0.786958491555383</d6p1:double><d6p1:double>0.039623981621222444</d6p1:double></Weights></Neuron><Neuron><Bias>-0.0010372122166353716</Bias><Output>-1</Output><Weights xmlns:d6p1="http://schemas.microsoft.com/2003/10/Serialization/Arrays"><d6p1:double>0.61899194010844982</d6p1:double><d6p1:double>0.919759816651041</d6p1:double><d6p1:double>-0.076071204919641991</d6p1:double><d6p1:double>0.44936988025769559</d6p1:double><d6p1:double>0.54386745988287177</d6p1:double><d6p1:double>0.87383227267743357</d6p1:double><d6p1:double>0.62488051931008848</d6p1:double><d6p1:double>0.90625982742471423</d6p1:double><d6p1:double>0.14958556139787996</d6p1:double><d6p1:double>0.8351940361787008</d6p1:double><d6p1:double>0.69786593044312817</d6p1:double><d6p1:double>0.19250669193363673</d6p1:double><d6p1:double>-0.25643226718347778</d6p1:double><d6p1:double>-0.0812041052891878</d6p1:double><d6p1:double>0.114091243577324</d6p1:double><d6p1:double>-0.57132370012288747</d6p1:double><d6p1:double>0.5360337385091628</d6p1:double><d6p1:double>0.78799496532758806</d6p1:double><d6p1:double>-0.16000852789144523</d6p1:double><d6p1:double>0.90359404618687778</d6p1:double><d6p1:double>-0.21509866222602231</d6p1:double><d6p1:double>1.3860266108656338</d6p1:double><d6p1:double>0.17639072162565772</d6p1:double><d6p1:double>-0.12726294460448451</d6p1:double><d6p1:double>0.67730329231797248</d6p1:double></Weights></Neuron><Neuron><Bias>-0.00065649225580933677</Bias><Output>-1</Output><Weights xmlns:d6p1="http://schemas.microsoft.com/2003/10/Serialization/Arrays"><d6p1:double>1.4666406140883239</d6p1:double><d6p1:double>-0.28268206213816238</d6p1:double><d6p1:double>1.1220235560761154</d6p1:double><d6p1:double>0.56779506392191847</d6p1:double><d6p1:double>0.61914567494636619</d6p1:double><d6p1:double>-0.40516486014518277</d6p1:double><d6p1:double>0.47227585748854028</d6p1:double><d6p1:double>-0.63393839209491332</d6p1:double><d6p1:double>0.22481726393604973</d6p1:double><d6p1:double>-0.0086984597174826778</d6p1:double><d6p1:double>0.62967305725752387</d6p1:double><d6p1:double>-0.29011629605905526</d6p1:double><d6p1:double>0.44565139242816948</d6p1:double><d6p1:double>0.40780041672616352</d6p1:double><d6p1:double>0.51751031415744531</d6p1:double><d6p1:double>0.55293966179951914</d6p1:double><d6p1:double>-0.093225919266068172</d6p1:double><d6p1:double>0.78119600530495181</d6p1:double><d6p1:double>-0.15735295079877354</d6p1:double><d6p1:double>-0.14018654672277561</d6p1:double><d6p1:double>0.69713698824625414</d6p1:double><d6p1:double>0.57140273830836141</d6p1:double><d6p1:double>0.80030406897542428</d6p1:double><d6p1:double>0.84189383731696632</d6p1:double><d6p1:double>0.13777183291523515</d6p1:double></Weights></Neuron><Neuron><Bias>-0.99876716793588494</Bias><Output>1</Output><Weights xmlns:d6p1="http://schemas.microsoft.com/2003/10/Serialization/Arrays"><d6p1:double>-0.2390346500222095</d6p1:double><d6p1:double>0.8252837699307185</d6p1:double><d6p1:double>0.01494581140333847</d6p1:double><d6p1:double>-0.336722159856665</d6p1:double><d6p1:double>-0.21241642103138153</d6p1:double><d6p1:double>0.61403742567635666</d6p1:double><d6p1:double>0.49478608951122988</d6p1:double><d6p1:double>0.56624070100390012</d6p1:double><d6p1:double>0.29656420943726586</d6p1:double><d6p1:double>0.20516569894943129</d6p1:double><d6p1:double>1.0972561999683121</d6p1:double><d6p1:double>0.50364237740049045</d6p1:double><d6p1:double>0.31676770743835997</d6p1:double><d6p1:double>0.62254294371301178</d6p1:double><d6p1:double>0.66938999021774481</d6p1:double><d6p1:double>0.95737788199642193</d6p1:double><d6p1:double>0.53309775824067374</d6p1:double><d6p1:double>0.53047578427417952</d6p1:double><d6p1:double>0.9054985586814599</d6p1:double><d6p1:double>0.43703625005884761</d6p1:double><d6p1:double>0.24194398064770609</d6p1:double><d6p1:double>0.25609960952520344</d6p1:double><d6p1:double>0.98214753286782575</d6p1:double><d6p1:double>0.84387054374120118</d6p1:double><d6p1:double>0.11067628029534535</d6p1:double></Weights></Neuron><Neuron><Bias>-1.0018430599887771</Bias><Output>-1</Output><Weights 